~o
<STREAMINFO> 1 39
<VECSIZE> 39<NULLD><MFCC_D_A_0><DIAGC>
~s "silst"
<MEAN> 39
 1.013335e+00 3.822877e+00 -1.132895e+01 -4.133245e+00 -2.531484e+00 7.137450e+00 -3.258848e+00 3.259706e+00 -2.106080e+00 4.413560e-01 -1.558808e+00 -4.133426e-01 6.336551e+01 8.287721e-02 8.498063e-02 -7.477109e-02 1.718982e-01 1.161070e-01 4.667953e-02 2.543507e-01 1.591569e-01 1.483670e-01 1.355599e-01 -7.990351e-02 5.001911e-02 -3.864020e-02 5.629868e-02 2.314043e-02 -1.200800e-01 3.483108e-02 -3.249213e-02 -4.888220e-02 -9.045447e-03 2.198916e-02 -5.337164e-02 6.765682e-02 2.803241e-02 2.448217e-02 -4.125462e-02
<VARIANCE> 39
 1.250969e+01 1.424652e+01 2.855871e+01 2.385419e+01 2.334488e+01 2.054048e+01 1.890571e+01 1.863277e+01 1.912361e+01 1.873838e+01 1.624018e+01 1.480401e+01 5.817225e+00 1.224534e+00 9.560062e-01 3.706928e+00 2.024945e+00 1.912834e+00 1.507197e+00 1.568002e+00 1.709771e+00 1.910622e+00 1.783806e+00 1.550421e+00 1.439180e+00 7.682119e-01 2.321829e-01 1.689196e-01 6.007065e-01 3.861150e-01 3.428755e-01 3.159284e-01 3.281836e-01 3.517906e-01 3.506804e-01 3.287654e-01 3.141524e-01 2.958633e-01 1.394311e-01
<GCONST> 9.894185e+01
~h "b"
<BEGINHMM>
<NUMSTATES> 5
<STATE> 2
<MEAN> 39
 7.016526e+00 8.772519e+00 -6.964856e+00 -7.393705e-01 -1.388797e+00 7.647842e+00 -5.703226e+00 1.218397e+00 -1.088229e+01 -1.997249e+00 4.799251e-01 -6.204200e+00 6.562240e+01 -2.141356e-01 7.890929e-02 -4.686014e-02 4.019788e-01 2.264487e-01 4.263523e-01 4.900785e-01 3.591697e-01 8.774736e-01 -2.440702e-01 -6.709163e-01 5.176272e-01 -2.887095e-01 -1.331960e-01 -3.189936e-01 5.434546e-01 -8.725031e-01 -3.204694e-01 -7.898427e-01 -7.909525e-01 -2.867882e-02 -3.268331e-01 -3.858009e-01 4.252701e-01 -2.089711e-01 5.296096e-01
<VARIANCE> 39
 3.501230e+00 1.211331e+01 1.516393e+01 1.968846e+01 1.624027e+01 2.193457e+01 3.043513e+01 1.942304e+01 3.853140e+01 1.974126e+01 1.895794e+01 3.553017e+01 8.409502e+00 6.351534e-01 1.018746e+00 3.193579e+00 4.142599e+00 1.701757e+00 3.593698e+00 4.795592e+00 2.416941e+00 3.029800e+00 2.249970e+00 1.668735e+00 2.029619e+00 1.615576e+00 8.870597e-02 1.286002e-01 3.113579e-01 3.777908e-01 3.137867e-01 6.551709e-01 6.399207e-01 4.840954e-01 6.678263e-01 4.319484e-01 2.886259e-01 4.280598e-01 2.280739e-01
<GCONST> 1.045047e+02
<STATE> 3
<MEAN> 39
 3.968039e+00 5.869473e+00 -1.512802e+00 -8.049302e+00 -3.235910e+00 1.884022e+00 -1.241829e+01 1.868347e+00 -1.150398e+01 -7.852678e+00 2.976135e+00 -4.902905e+00 6.974210e+01 3.861222e-02 -1.271908e+00 2.436983e+00 -3.543967e+00 -1.366785e+00 -3.528300e+00 -3.544705e+00 2.202605e-02 -1.722789e+00 -1.884805e+00 2.159496e+00 -5.096352e-01 2.546587e+00 2.978550e-01 7.028946e-02 -2.809194e-01 -4.096630e-03 -4.518682e-02 -1.200022e-01 2.016337e-01 -8.010148e-02 1.114507e-01 3.760921e-01 1.327665e-01 9.631857e-02 9.570288e-03
<VARIANCE> 39
 1.397445e+01 2.239753e+01 2.442765e+01 4.252087e+01 2.934203e+01 5.575200e+01 5.372774e+01 2.107673e+01 4.493651e+01 3.676539e+01 2.588260e+01 2.913078e+01 1.533286e+01 1.294235e+00 2.260517e+00 3.620636e+00 2.737632e+00 3.809148e+00 5.018697e+00 4.096479e+00 3.020708e+00 4.213376e+00 3.207631e+00 2.030314e+00 1.606314e+00 1.124070e+00 2.890084e-01 4.120572e-01 5.276562e-01 8.806833e-01 4.114471e-01 1.012705e+00 1.165168e+00 3.982010e-01 6.495922e-01 6.041008e-01 5.559875e-01 3.022425e-01 3.824123e-01
<GCONST> 1.200848e+02
<STATE> 4
<MEAN> 39
 5.716674e+00 2.897471e+00 2.620085e+00 -1.533304e+01 -7.506146e+00 -5.349591e+00 -1.567206e+01 8.071100e-01 -1.317467e+01 -8.193696e+00 7.365853e+00 -5.108993e+00 7.526189e+01 -8.939088e-02 -3.478816e-01 4.107924e-01 1.658723e-01 -5.695239e-02 1.922182e-01 4.504315e-01 -6.175417e-01 -9.295585e-02 2.128365e-01 -2.007393e-01 3.682010e-01 1.922149e-01 -9.956643e-03 1.451500e-01 -1.980333e-01 4.163399e-01 1.724475e-01 4.393190e-01 2.580859e-01 -7.775364e-02 3.909175e-02 1.823832e-01 -2.436461e-01 5.440971e-02 -2.906098e-01
<VARIANCE> 39
 3.133992e+00 2.406023e+01 1.735329e+01 2.427648e+01 3.862799e+01 3.770066e+01 2.926859e+01 3.484944e+01 5.880056e+01 3.088782e+01 3.175088e+01 2.910667e+01 6.735246e+00 3.184431e-01 1.309010e+00 1.365204e+00 2.655313e+00 1.474331e+00 2.397125e+00 2.346090e+00 2.367032e+00 1.912117e+00 1.715111e+00 2.012728e+00 1.562852e+00 9.334551e-01 4.502345e-02 1.965676e-01 1.991453e-01 2.951989e-01 2.658041e-01 5.950485e-01 5.192667e-01 4.348310e-01 2.853339e-01 2.791477e-01 2.747540e-01 2.668182e-01 1.449524e-01
<GCONST> 1.001819e+02
<TRANSP> 5
 0.000000e+00 1.000000e+00 0.000000e+00 0.000000e+00 0.000000e+00
 0.000000e+00 7.727684e-01 2.272317e-01 0.000000e+00 0.000000e+00
 0.000000e+00 0.000000e+00 6.156871e-01 3.843129e-01 0.000000e+00
 0.000000e+00 0.000000e+00 0.000000e+00 8.465306e-01 1.534694e-01
 0.000000e+00 0.000000e+00 0.000000e+00 0.000000e+00 0.000000e+00
<ENDHMM>
~h "d"
<BEGINHMM>
<NUMSTATES> 5
<STATE> 2
<MEAN> 39
 -2.153999e+00 2.404727e-01 3.400955e+00 -6.757529e+00 -1.688211e-01 3.074944e+00 -1.035317e+01 -2.092681e+00 -7.592803e+00 -3.124731e+00 1.014294e+00 -3.197301e+00 7.179758e+01 -2.093103e-01 -3.074405e-01 4.709148e-01 -1.571454e-01 -8.232521e-02 -7.482175e-02 -3.004534e-01 -6.367455e-01 -9.011922e-02 -3.075919e-01 6.621265e-02 1.860186e-01 2.432574e-01 3.817081e-01 1.356805e-01 -2.014315e-01 7.184047e-02 -8.236186e-02 -5.385878e-02 -2.377850e-01 -4.749975e-02 -2.708785e-01 1.736716e-01 9.680549e-02 -3.002959e-02 -9.261706e-02
<VARIANCE> 39
 4.847353e+01 3.532774e+01 6.844005e+01 3.995223e+01 2.859172e+01 4.229381e+01 5.679347e+01 4.807200e+01 5.621084e+01 4.111418e+01 2.254956e+01 2.232363e+01 2.283210e+01 5.635061e+00 3.252635e+00 6.856779e+00 4.559341e+00 2.717082e+00 5.020313e+00 7.146006e+00 5.893096e+00 5.386843e+00 2.909448e+00 2.919134e+00 1.856776e+00 3.514202e+00 1.222517e+00 8.079033e-01 1.434470e+00 7.509686e-01 4.960552e-01 6.932915e-01 9.411607e-01 1.144653e+00 9.033822e-01 6.566097e-01 6.280113e-01 3.546429e-01 7.249423e-01
<GCONST> 1.342679e+02
<STATE> 3
<MEAN> 39
 1.494063e+00 -1.064914e+00 7.471810e+00 -8.306296e+00 -4.806521e-01 -1.347901e+00 -1.753297e+01 -8.298351e+00 -1.564546e+01 -3.004997e+00 4.880792e+00 -4.283056e+00 7.525935e+01 1.172992e+00 5.057882e-01 -9.896379e-01 4.149598e-01 2.989102e-02 3.272305e-01 -3.348742e-01 6.664172e-01 -4.508905e-01 5.506551e-01 5.752327e-01 -1.591030e-01 -6.381702e-01 -2.420564e-01 6.001048e-02 -4.168365e-01 5.637843e-02 1.427648e-02 3.755296e-01 6.835594e-01 6.865672e-01 5.995748e-01 2.009137e-01 -2.313218e-01 -1.403585e-02 -2.576512e-01
<VARIANCE> 39
 8.361863e+00 1.852058e+01 5.914593e+01 2.681349e+01 2.309436e+01 3.077142e+01 5.229011e+01 3.932859e+01 3.722678e+01 3.523823e+01 3.543811e+01 2.477588e+01 8.626713e+00 2.039043e+00 1.977791e+00 2.616517e+00 2.923791e+00 1.616448e+00 3.915032e+00 4.998116e+00 3.980320e+00 3.746366e+00 2.857069e+00 4.086726e+00 1.602113e+00 1.329381e+00 2.242052e-01 3.095345e-01 3.615986e-01 2.777907e-01 2.463017e-01 4.486035e-01 5.692649e-01 7.100261e-01 4.238813e-01 3.270867e-01 5.904738e-01 2.320988e-01 1.584863e-01
<GCONST> 1.133143e+02
<STATE> 4
<MEAN> 39
 3.237827e+00 1.134647e+00 -6.508572e-01 -5.149341e+00 -1.111284e+00 3.369911e+00 -1.252948e+01 -2.172158e+00 -1.271634e+01 -2.096863e+00 1.957433e+00 -3.947057e+00 7.021741e+01 2.570786e-01 6.909061e-01 -1.294306e+00 2.883357e-01 -1.568346e-01 9.713801e-01 1.012783e+00 1.134406e+00 8.016006e-01 5.200671e-01 -4.565114e-01 1.085826e-01 -9.475003e-01 -4.425696e-01 -1.688591e-01 3.158975e-01 -4.440410e-01 8.683123e-02 -3.763675e-01 2.287696e-02 -2.993549e-01 3.868563e-02 -1.676346e-01 5.454000e-02 9.646900e-02 3.610244e-01
<VARIANCE> 39
 9.702531e+00 1.858896e+01 7.232053e+01 2.583239e+01 2.208746e+01 4.582788e+01 6.010611e+01 4.667812e+01 4.859250e+01 3.876286e+01 3.971176e+01 2.819236e+01 2.108925e+01 1.483112e+00 1.576273e+00 4.006686e+00 3.094462e+00 1.963530e+00 2.969160e+00 4.550852e+00 4.481408e+00 4.169451e+00 2.885768e+00 2.433690e+00 2.134041e+00 1.818038e+00 4.213637e-01 3.526612e-01 8.589697e-01 3.582712e-01 2.967970e-01 4.947894e-01 4.405238e-01 6.882568e-01 4.338037e-01 4.447671e-01 4.899104e-01 3.145369e-01 3.269745e-01
<GCONST> 1.189223e+02
<TRANSP> 5
 0.000000e+00 1.000000e+00 0.000000e+00 0.000000e+00 0.000000e+00
 0.000000e+00 6.754280e-01 3.245719e-01 0.000000e+00 0.000000e+00
 0.000000e+00 0.000000e+00 5.887748e-01 4.112252e-01 0.000000e+00
 0.000000e+00 0.000000e+00 0.000000e+00 3.559889e-01 6.440111e-01
 0.000000e+00 0.000000e+00 0.000000e+00 0.000000e+00 0.000000e+00
<ENDHMM>
~h "f"
<BEGINHMM>
<NUMSTATES> 5
<STATE> 2
<MEAN> 39
 -9.232601e+00 -3.577459e+00 6.152109e+00 -9.104184e+00 -3.118618e+00 4.647365e+00 -6.064332e+00 -4.591067e+00 -5.469915e+00 1.758908e+00 1.403438e+00 -3.730107e+00 7.463844e+01 -2.316721e-01 -3.954307e-01 5.282539e-01 -2.987749e-01 4.543713e-02 -4.104980e-01 -5.035672e-01 -8.261085e-01 -6.217160e-01 -2.013068e-01 1.047673e-01 -1.481357e-01 3.875175e-01 2.934611e-01 2.658801e-01 -2.265900e-01 -1.131391e-02 2.308615e-01 -1.951265e-02 -4.813251e-02 2.239666e-01 -3.365266e-02 -1.958979e-01 1.018017e-01 5.399664e-02 -1.559452e-01
<VARIANCE> 39
 7.620267e+01 1.496169e+01 2.544799e+01 2.982353e+01 1.322167e+01 1.803574e+01 4.490485e+01 4.899364e+01 1.029060e+02 6.944203e+00 1.754054e+01 1.513879e+01 1.644159e+01 1.159809e+01 2.168987e+00 4.642715e+00 2.130968e+00 2.522083e+00 2.622157e+00 6.226457e+00 2.987616e+00 9.935924e+00 1.014892e+00 3.001611e+00 3.835254e-01 4.083613e+00 2.407344e+00 3.877926e-01 1.357573e+00 4.249977e-01 5.099025e-01 4.125800e-01 1.235396e+00 7.422003e-01 1.705470e+00 1.766878e-01 6.643396e-01 1.240977e-01 9.168067e-01
<GCONST> 1.216135e+02
<STATE> 3
<MEAN> 39
 -7.336074e+00 -4.061030e-01 2.803518e+00 -8.988309e+00 2.703866e+00 2.922818e+00 -8.463188e+00 -9.708847e+00 -1.086394e+01 -1.823980e+00 -1.254509e-01 -5.734766e+00 7.537584e+01 -2.167400e+00 5.578797e-01 -5.278116e-01 -1.692713e-01 8.191533e-02 1.448828e-01 1.429469e+00 7.093338e-01 1.883238e+00 -1.108978e+00 6.536942e-01 4.724201e-01 3.214742e-01 -1.367900e-01 -1.796244e-01 -4.592795e-02 -3.512189e-02 -3.004965e-01 -9.959305e-02 -2.498036e-01 2.777803e-01 -1.238164e-01 3.867133e-01 2.595747e-01 -3.983144e-02 2.584610e-02
<VARIANCE> 39
 4.113472e+01 1.191726e+01 2.564186e+01 4.510798e+01 1.058433e+01 1.326050e+01 3.451965e+01 1.368330e+01 4.490728e+01 1.949124e+01 7.000048e+00 7.747363e+00 8.791253e+00 6.537950e+00 9.159040e-01 1.595452e+00 1.600164e+00 1.879162e+00 1.963519e+00 6.476503e+00 2.154262e+00 6.813345e+00 1.983699e+00 1.422746e+00 1.336312e+00 2.331887e-01 7.296091e-01 1.098329e-01 1.865433e-01 2.167831e-01 4.108305e-01 4.807402e-01 9.104411e-01 4.192260e-01 9.761717e-01 3.247395e-01 2.143468e-01 1.496152e-01 4.555942e-02
<GCONST> 1.014329e+02
<STATE> 4
<MEAN> 39
 -9.470771e+00 -1.675214e+00 5.690566e+00 -6.140206e+00 -1.340799e+00 9.772208e-01 -1.077993e+01 -3.523172e+00 -7.464153e+00 -5.082448e+00 2.222450e+00 -8.830886e+00 7.612693e+01 2.711186e-01 8.406845e-02 9.519413e-02 9.640261e-02 -1.792351e-01 1.395598e-02 -7.715545e-02 1.164533e-01 -1.663383e-01 9.324807e-02 6.691657e-03 -9.986470e-02 -5.597842e-02 1.750303e-01 2.114362e-02 7.248879e-02 -5.562920e-02 -1.652821e-02 -5.029241e-03 -4.539559e-02 -9.675406e-03 -9.007725e-02 1.362576e-03 -5.442631e-02 -3.176503e-02 -4.437114e-02
<VARIANCE> 39
 4.617787e+01 1.550809e+01 5.229463e+01 2.580997e+01 8.350183e+00 1.581369e+01 6.812959e+01 1.503117e+01 4.377467e+01 1.375045e+01 1.038924e+01 3.016839e+01 4.151939e+00 3.106734e+00 6.616597e-01 2.506041e+00 8.336344e-01 7.192134e-01 1.106555e+00 5.523065e+00 1.625715e+00 2.836040e+00 9.207846e-01 1.185717e+00 1.572238e+00 3.121597e-01 5.854055e-01 9.983042e-02 3.265697e-01 1.063539e-01 1.464132e-01 2.009183e-01 1.008610e+00 3.587372e-01 5.683714e-01 1.806412e-01 2.360108e-01 3.382793e-01 4.740439e-02
<GCONST> 9.609141e+01
<TRANSP> 5
 0.000000e+00 1.000000e+00 0.000000e+00 0.000000e+00 0.000000e+00
 0.000000e+00 8.344648e-01 1.655353e-01 0.000000e+00 0.000000e+00
 0.000000e+00 0.000000e+00 6.601050e-01 3.398950e-01 0.000000e+00
 0.000000e+00 0.000000e+00 0.000000e+00 9.215633e-01 7.843672e-02
 0.000000e+00 0.000000e+00 0.000000e+00 0.000000e+00 0.000000e+00
<ENDHMM>
~h "g"
<BEGINHMM>
<NUMSTATES> 5
<STATE> 2
<MEAN> 39
 -1.421993e+00 1.009840e+00 5.951708e-01 -7.266307e+00 -2.320788e+00 4.054132e+00 -8.751362e+00 -5.376045e+00 -8.904850e+00 -7.821547e+00 -4.743784e+00 -5.407847e+00 7.288504e+01 -5.740995e-01 -5.842905e-01 8.798215e-01 -8.960447e-01 3.439151e-01 -2.501565e+00 -1.165505e+00 -2.746349e+00 -1.159277e+00 -8.769659e-01 1.160667e+00 1.052939e+00 1.779013e+00 8.222347e-01 4.323236e-01 -4.384314e-01 4.157299e-02 -1.558538e-01 -2.337231e-01 -5.113350e-01 -2.320791e-02 -4.907849e-01 2.782251e-01 5.787508e-01 2.799432e-02 -3.040989e-01
<VARIANCE> 39
 2.782495e+01 3.982853e+01 1.329851e+02 3.142479e+01 5.224544e+01 3.494186e+01 3.722253e+01 4.323732e+01 3.343730e+01 4.045055e+01 3.189316e+01 2.936810e+01 2.350414e+01 3.387907e+00 3.175209e+00 1.601313e+01 3.398517e+00 4.119852e+00 1.964465e+00 7.443030e+00 6.147652e+00 4.799106e+00 2.393220e+00 3.776086e+00 1.718471e+00 2.491430e+00 8.638504e-01 8.019191e-01 2.786678e+00 5.575306e-01 6.371518e-01 4.220843e-01 9.328218e-01 1.410559e+00 7.652211e-01 4.490306e-01 4.285800e-01 3.342058e-01 5.610684e-01
<GCONST> 1.320840e+02
<STATE> 3
<MEAN> 39
 2.940576e+00 4.871410e-01 3.464955e+00 -1.177416e+01 -4.365629e+00 -3.987954e+00 -1.729032e+01 -1.151756e+01 -1.585361e+01 -4.567661e+00 4.798883e+00 -2.015244e+00 7.635865e+01 1.742530e+00 8.285598e-01 -9.085640e-01 -1.986407e+00 -8.435813e-01 -1.300689e+00 -1.182465e+00 1.181468e+00 -1.004319e+00 1.387730e+00 2.059486e+00 -2.485544e-01 -6.656446e-02 -1.643032e-01 6.824038e-02 -2.996030e-01 -2.713043e-01 4.267544e-02 6.199549e-01 7.151288e-01 1.189315e+00 6.172547e-01 2.027272e-01 -3.088543e-01 -4.457090e-01 -2.874393e-01
<VARIANCE> 39
 3.897591e+00 1.621610e+01 6.633629e+01 3.420396e+01 3.637609e+01 3.892528e+01 3.128643e+01 3.352877e+01 3.094404e+01 4.514328e+01 4.779712e+01 2.229630e+01 8.465081e+00 8.898221e-01 8.562485e-01 4.785479e+00 1.008058e+00 1.600353e+00 2.003194e+00 4.842134e+00 5.478566e+00 2.319033e+00 1.722675e+00 2.062711e+00 1.963618e+00 1.393474e-01 2.449097e-01 1.910399e-01 8.028582e-01 1.717814e-01 2.807577e-01 2.559595e-01 5.684838e-01 1.242931e+00 4.215846e-01 6.586949e-01 6.873577e-01 2.505696e-01 1.096866e-01
<GCONST> 1.073952e+02
<STATE> 4
<MEAN> 39
 6.185278e+00 7.606677e-01 -2.546979e+00 -2.200425e+01 -4.646446e+00 -1.346327e+00 -1.463587e+01 2.425863e+00 -1.591069e+01 -8.831366e-01 8.286872e+00 -9.388556e+00 7.596243e+01 1.304949e-01 1.606604e-01 -5.601336e-01 3.614199e-01 1.699168e-01 4.731559e-01 4.417323e-01 3.036039e-01 -6.708809e-02 1.687833e-01 -1.355859e-01 -3.037561e-01 -4.369885e-01 -1.082014e-01 -5.959885e-02 -1.150076e-02 2.249045e-01 4.754682e-02 6.206343e-02 4.074853e-02 -1.505930e-01 1.075817e-01 -5.634447e-02 -4.647767e-03 1.370806e-01 -3.093327e-03
<VARIANCE> 39
 1.993043e+00 2.126189e+01 3.345602e+01 5.148972e+01 3.237805e+01 2.399242e+01 3.171864e+01 4.991653e+01 2.882207e+01 2.189664e+01 1.909242e+01 2.770623e+01 1.007912e+01 2.761911e-01 7.972761e-01 9.184439e-01 3.907549e+00 1.955019e+00 8.628384e-01 1.952636e+00 5.441942e+00 3.252001e+00 1.382732e+00 1.634199e+00 1.499368e+00 9.661871e-01 7.873984e-02 1.525313e-01 2.530842e-01 2.763990e-01 3.588523e-01 1.674685e-01 3.847552e-01 7.973880e-01 5.551180e-01 2.520092e-01 2.617519e-01 2.108447e-01 2.052196e-01
<GCONST> 9.941986e+01
<TRANSP> 5
 0.000000e+00 1.000000e+00 0.000000e+00 0.000000e+00 0.000000e+00
 0.000000e+00 7.282037e-01 2.717963e-01 0.000000e+00 0.000000e+00
 0.000000e+00 0.000000e+00 6.537968e-01 3.462031e-01 0.000000e+00
 0.000000e+00 0.000000e+00 0.000000e+00 8.959624e-01 1.040376e-01
 0.000000e+00 0.000000e+00 0.000000e+00 0.000000e+00 0.000000e+00
<ENDHMM>
~h "k"
<BEGINHMM>
<NUMSTATES> 5
<STATE> 2
<MEAN> 39
 -2.423395e+00 -3.927053e+00 -6.051431e+00 -4.485509e+00 -9.048297e-01 6.167373e-01 -7.020915e+00 -5.139486e+00 -9.148243e+00 9.523135e-01 3.512429e+00 -2.914939e+00 7.093672e+01 -3.257750e-01 -5.359489e-01 4.854607e-01 -7.245222e-02 2.143105e-01 -1.066975e-01 1.912311e-01 6.260986e-02 -1.034828e-02 -3.044944e-02 1.503982e-01 -1.027256e-01 4.191958e-01 2.581041e-01 2.811663e-01 2.192546e-01 -9.536623e-02 -8.560221e-03 6.896908e-02 -2.433803e-01 3.439369e-02 -2.659063e-01 -1.200560e-01 -5.204201e-02 -1.826581e-01 2.159391e-02
<VARIANCE> 39
 2.605709e+01 4.759948e+01 4.338816e+01 3.281277e+01 2.493446e+01 3.700985e+01 3.843380e+01 4.868857e+01 2.964727e+01 4.304028e+01 3.758278e+01 3.114696e+01 2.296918e+01 3.659999e+00 4.209932e+00 5.566794e+00 1.930414e+00 2.801232e+00 5.203586e+00 3.552011e+00 5.516240e+00 3.302837e+00 3.164757e+00 4.017133e+00 3.344826e+00 3.684161e+00 6.220313e-01 8.974742e-01 9.023880e-01 2.741968e-01 4.944712e-01 1.094188e+00 5.435740e-01 1.151850e+00 5.609305e-01 6.423010e-01 8.568897e-01 6.469288e-01 6.529878e-01
<GCONST> 1.296880e+02
<STATE> 3
<MEAN> 39
 3.650865e-01 -1.266904e+00 -1.200271e+00 -7.042363e+00 -1.856949e+00 4.462306e+00 -8.761827e+00 -1.906678e+00 -9.954642e+00 4.329200e-02 1.612555e+00 -6.404529e+00 7.017690e+01 1.096014e+00 1.608993e+00 6.352282e-01 -3.862433e-01 -7.791490e-02 -3.011985e-01 -1.295743e+00 8.576514e-03 -1.503217e+00 -9.733841e-01 5.847852e-01 -8.692212e-01 4.367842e-01 -1.809681e-01 3.310887e-02 1.248990e-01 -3.500305e-01 -1.010656e-01 -2.742097e-01 -2.717698e-01 -2.876327e-01 6.596974e-02 -1.289448e-01 2.621202e-01 1.741392e-01 2.766474e-01
<VARIANCE> 39
 1.041335e+01 2.251380e+01 3.810108e+01 3.068846e+01 2.853985e+01 3.465759e+01 6.073031e+01 4.366760e+01 4.519614e+01 2.497347e+01 2.766375e+01 2.560490e+01 1.651398e+01 2.629405e+00 5.131609e+00 5.536076e+00 2.618373e+00 2.508605e+00 4.458619e+00 7.319700e+00 6.124213e+00 3.594471e+00 2.584584e+00 2.241963e+00 4.443259e+00 2.813542e+00 2.702636e-01 4.346619e-01 8.614929e-01 5.888369e-01 4.760575e-01 7.359131e-01 9.527143e-01 1.096632e+00 4.396984e-01 4.210267e-01 5.371622e-01 4.436524e-01 5.147527e-01
<GCONST> 1.248197e+02
<STATE> 4
<MEAN> 39
 2.322226e+00 2.400012e+00 -1.525964e+00 -7.504179e+00 -3.694135e-01 3.621219e+00 -1.178808e+01 -4.242966e+00 -1.398388e+01 -1.834089e+00 3.737816e+00 -6.627468e+00 7.077053e+01 1.207524e-01 6.221782e-01 -5.123089e-01 -5.066605e-02 -4.141211e-01 1.004046e-01 3.442871e-01 2.600697e-01 3.990434e-02 -3.766141e-01 1.302366e-01 2.458405e-01 -1.765871e-01 -3.268026e-01 -2.800358e-01 -4.694051e-02 -1.423351e-01 -1.083530e-01 -1.033213e-01 1.873389e-01 1.202261e-01 2.951189e-01 8.194020e-02 1.053662e-02 2.083181e-01 3.128545e-02
<VARIANCE> 39
 6.105889e+00 1.185592e+01 5.074538e+01 3.341331e+01 2.988118e+01 3.097746e+01 5.037263e+01 4.543932e+01 4.905019e+01 1.881057e+01 2.617470e+01 2.570888e+01 2.530682e+01 2.059995e+00 2.806799e+00 4.471795e+00 5.276023e+00 2.520863e+00 4.743990e+00 6.537792e+00 6.555840e+00 4.199463e+00 2.458174e+00 3.429294e+00 3.071440e+00 3.550658e+00 2.963699e-01 2.494398e-01 9.145396e-01 5.596670e-01 5.660555e-01 6.159805e-01 8.626063e-01 1.082935e+00 6.703163e-01 4.028651e-01 4.585400e-01 4.145131e-01 7.406949e-01
<GCONST> 1.239767e+02
<TRANSP> 5
 0.000000e+00 1.000000e+00 0.000000e+00 0.000000e+00 0.000000e+00
 0.000000e+00 6.971232e-01 3.028768e-01 0.000000e+00 0.000000e+00
 0.000000e+00 0.000000e+00 2.494756e-01 7.505245e-01 0.000000e+00
 0.000000e+00 0.000000e+00 0.000000e+00 5.461598e-01 4.538401e-01
 0.000000e+00 0.000000e+00 0.000000e+00 0.000000e+00 0.000000e+00
<ENDHMM>
~h "l"
<BEGINHMM>
<NUMSTATES> 5
<STATE> 2
<MEAN> 39
 3.899838e+00 4.060707e+00 9.411246e+00 -1.218824e+01 -1.134332e+01 1.201046e+00 -1.629667e+01 1.736555e+00 -1.274831e+01 -5.325296e+00 4.979285e+00 -7.562799e+00 7.282273e+01 -9.770725e-02 -1.792951e-01 9.032232e-02 -3.610831e-01 -4.017582e-01 -1.710662e-01 1.665311e-01 4.241657e-01 1.695159e-02 1.749296e-01 3.876506e-01 -2.910070e-01 1.769243e-01 -1.234291e-01 -2.328771e-01 -1.865993e-01 7.846034e-02 2.097471e-01 -2.981412e-03 2.843125e-01 1.315151e-01 1.113071e-01 -2.390393e-02 -1.241564e-01 5.076627e-02 3.746032e-02
<VARIANCE> 39
 5.233069e+00 1.744549e+01 1.726732e+01 2.280462e+01 4.336943e+01 4.925870e+01 3.630338e+01 4.115627e+01 2.259796e+01 4.911361e+01 2.436057e+01 2.493001e+01 5.873928e+00 4.694857e-01 1.195089e+00 1.114900e+00 1.642564e+00 3.901196e+00 2.017613e+00 3.212503e+00 4.824938e+00 1.838937e+00 2.414476e+00 2.255082e+00 2.181013e+00 6.945913e-01 9.764241e-02 2.056109e-01 1.562803e-01 1.914431e-01 5.513512e-01 3.286623e-01 6.143563e-01 7.071633e-01 3.574473e-01 4.748199e-01 3.840162e-01 4.363301e-01 7.902586e-02
<GCONST> 1.038279e+02
<STATE> 3
<MEAN> 39
 1.986082e+00 8.876923e-01 7.696601e+00 -1.090295e+01 -8.387879e+00 1.026827e+00 -1.264940e+01 3.963230e+00 -1.110493e+01 -3.982884e+00 4.557180e+00 -7.900607e+00 7.317634e+01 -6.293446e-02 -7.483779e-01 -7.451221e-01 4.469673e-01 6.213356e-01 4.371268e-01 8.553283e-01 1.227286e+00 3.994174e-01 -2.266868e-01 -1.481432e-01 4.867763e-02 -1.872821e-01 6.155022e-02 1.444093e-01 -1.293650e-01 1.137614e-01 2.538679e-01 1.198551e-01 -2.358293e-01 -1.787730e-01 2.806652e-02 9.277524e-03 -8.688123e-02 6.787232e-02 -1.069237e-01
<VARIANCE> 39
 7.165736e+00 1.213260e+01 3.100276e+01 3.630825e+01 8.966006e+01 5.057574e+01 4.386634e+01 5.263006e+01 2.207441e+01 2.272384e+01 2.701453e+01 2.110504e+01 1.263592e+01 1.993955e-01 1.544381e+00 1.546467e+00 1.513055e+00 2.535969e+00 2.443052e+00 2.797066e+00 3.852862e+00 1.913875e+00 1.838963e+00 1.780274e+00 1.376490e+00 1.023694e+00 3.658155e-02 1.243426e-01 2.135140e-01 2.600884e-01 6.369247e-01 3.582701e-01 6.980610e-01 8.332751e-01 3.434468e-01 3.028316e-01 3.603032e-01 3.296236e-01 7.175214e-02
<GCONST> 1.031527e+02
<STATE> 4
<MEAN> 39
 3.032995e+00 -1.805334e+00 3.740046e+00 -1.557568e+01 -1.029969e+01 1.340127e-01 -9.823524e+00 6.858416e+00 -9.095627e+00 -5.751403e+00 5.252724e+00 -7.629478e+00 7.614246e+01 -1.323616e-02 -5.079496e-02 -5.198749e-01 5.175650e-01 9.028162e-01 9.638634e-02 1.093085e-01 -3.294456e-01 3.443455e-02 2.167399e-01 -3.444180e-01 1.116226e-01 -2.076411e-01 -2.402962e-03 2.231557e-01 -5.946740e-03 1.034231e-01 3.775987e-02 -1.964905e-02 -1.852142e-02 -1.949871e-01 -9.119124e-02 4.990926e-02 -1.066253e-02 3.833185e-02 -1.037733e-01
<VARIANCE> 39
 6.336542e+00 1.909658e+01 2.532329e+01 4.274998e+01 3.563279e+01 3.895236e+01 4.502855e+01 2.756131e+01 1.940770e+01 2.702367e+01 1.934585e+01 1.712018e+01 1.430719e+01 1.201375e-01 7.517754e-01 1.090088e+00 1.090954e+00 9.000725e-01 9.243028e-01 1.963818e+00 2.080397e+00 1.516383e+00 1.104692e+00 1.356863e+00 9.163028e-01 3.998395e-01 4.080163e-02 9.010468e-02 1.299459e-01 1.963665e-01 1.604918e-01 1.954374e-01 2.944925e-01 3.299595e-01 2.626502e-01 1.635619e-01 2.007287e-01 1.804168e-01 5.804484e-02
<GCONST> 8.697477e+01
<TRANSP> 5
 0.000000e+00 1.000000e+00 0.000000e+00 0.000000e+00 0.000000e+00
 0.000000e+00 8.173475e-01 1.826525e-01 0.000000e+00 0.000000e+00
 0.000000e+00 0.000000e+00 5.141455e-01 4.858545e-01 0.000000e+00
 0.000000e+00 0.000000e+00 0.000000e+00 7.281545e-01 2.718455e-01
 0.000000e+00 0.000000e+00 0.000000e+00 0.000000e+00 0.000000e+00
<ENDHMM>
~h "m"
<BEGINHMM>
<NUMSTATES> 5
<STATE> 2
<MEAN> 39
 5.682681e+00 9.020116e+00 -3.533826e-01 -2.617908e+00 -2.062988e+00 1.609906e+01 -8.387770e+00 2.176264e-01 -1.581325e+00 -5.169461e+00 -4.988432e+00 -1.071523e+00 6.571163e+01 1.623852e-01 7.781552e-02 -5.081633e-01 9.681419e-01 2.850123e-01 6.665208e-01 5.942342e-01 -1.382897e-01 2.883940e-01 -7.975318e-03 -5.363854e-01 -3.269716e-01 -3.400203e-01 -7.420937e-02 -8.651863e-02 -1.004277e-01 -2.463401e-01 4.930568e-02 -3.984766e-01 1.987957e-02 1.848179e-01 -2.139253e-01 2.212076e-01 3.245061e-01 1.161070e-02 9.445025e-02
<VARIANCE> 39
 3.233541e+00 8.610357e+00 2.161854e+01 2.557150e+01 1.283257e+01 2.806470e+01 1.999815e+01 2.122255e+01 4.316349e+01 1.496378e+01 1.508302e+01 2.887702e+01 5.801481e+00 1.353819e-01 3.689746e-01 4.710089e-01 1.072754e+00 7.511474e-01 2.726742e+00 9.141499e-01 1.390734e+00 1.601131e+00 1.845701e+00 1.851682e+00 1.123938e+00 9.409716e-02 1.807423e-02 7.699569e-02 7.583071e-02 1.720193e-01 1.553543e-01 2.955490e-01 1.557678e-01 1.582128e-01 2.631773e-01 2.164136e-01 3.375272e-01 1.931020e-01 2.603344e-02
<GCONST> 7.734675e+01
<STATE> 3
<MEAN> 39
 5.310038e+00 5.962507e+00 2.601920e+00 -2.536796e+00 -4.381891e+00 1.247512e+01 -8.419991e+00 3.739851e-01 -8.684760e+00 -4.555369e+00 -1.931391e+00 -5.937812e+00 6.769063e+01 3.027572e-02 -1.729863e-01 -1.937603e-01 3.144332e-01 2.098047e-01 2.177552e-01 -1.558432e-01 1.816419e-02 -1.549504e-01 -1.090550e-01 2.239970e-02 6.471037e-02 -1.680339e-01 -1.443512e-01 -8.082394e-02 1.178278e-01 -7.464665e-01 -1.828339e-01 -7.999775e-01 -2.379081e-01 4.196753e-01 -1.687505e-01 1.532082e-01 6.156653e-01 6.787846e-02 2.585770e-01
<VARIANCE> 39
 4.299363e+00 1.337405e+01 4.266113e+01 3.413131e+01 1.945642e+01 1.302773e+01 3.384238e+01 5.204824e+01 1.600931e+01 1.223929e+01 3.651265e+01 2.160406e+01 6.465782e+00 3.590210e-01 1.823396e-01 5.700291e-01 1.529760e+00 5.771943e-01 9.485113e-01 1.096789e+00 1.527949e+00 5.127047e-01 1.103459e+00 1.235838e+00 7.924750e-01 1.367040e-01 5.624307e-02 1.368753e-01 1.935427e-01 2.371344e-01 1.680392e-01 2.742880e-01 4.614413e-01 2.582833e-01 1.513587e-01 2.735803e-01 2.505901e-01 2.143013e-01 3.627893e-02
<GCONST> 8.172932e+01
<STATE> 4
<MEAN> 39
 4.964188e+00 6.244601e+00 1.960509e+00 -3.513472e+00 -3.355105e+00 1.208603e+01 -8.168359e+00 5.007115e-01 -8.859873e+00 -4.101896e+00 -2.404639e+00 -5.451965e+00 6.770253e+01 -9.712300e-02 -3.543529e-01 -7.980592e-02 -1.460740e+00 -6.076057e-01 -1.849199e+00 -7.231523e-01 1.222654e+00 -2.924514e-01 4.089509e-01 1.667034e+00 -5.895117e-02 4.789829e-01 -7.926032e-02 -1.739493e-02 1.797478e-02 -7.401233e-01 -1.757658e-01 -7.734502e-01 -3.158851e-01 4.895226e-01 -1.349170e-02 -1.640571e-02 6.233763e-01 -1.175041e-01 2.692434e-01
<VARIANCE> 39
 2.912546e+00 9.875990e+00 5.773790e+01 2.590142e+01 2.033720e+01 1.587213e+01 3.411462e+01 5.789993e+01 2.732901e+01 1.111609e+01 3.512140e+01 1.202649e+01 9.266866e+00 1.007511e+00 9.949803e-01 1.396550e+00 2.501383e+00 1.314992e+00 3.530347e+00 4.669923e+00 2.435278e+00 6.117299e-01 1.587079e+00 1.645304e+00 8.577769e-01 5.918426e-01 2.330844e-02 8.769038e-02 1.159467e-01 2.033442e-01 2.133082e-01 3.791789e-01 2.408865e-01 5.322196e-01 2.484716e-01 3.119904e-01 2.911259e-01 2.077460e-01 5.235361e-02
<GCONST> 9.188924e+01
<TRANSP> 5
 0.000000e+00 1.000000e+00 0.000000e+00 0.000000e+00 0.000000e+00
 0.000000e+00 7.487487e-01 2.512513e-01 0.000000e+00 0.000000e+00
 0.000000e+00 0.000000e+00 4.144594e-01 5.855406e-01 0.000000e+00
 0.000000e+00 0.000000e+00 0.000000e+00 2.176879e-01 7.823122e-01
 0.000000e+00 0.000000e+00 0.000000e+00 0.000000e+00 0.000000e+00
<ENDHMM>
~h "n"
<BEGINHMM>
<NUMSTATES> 5
<STATE> 2
<MEAN> 39
 2.078499e+00 6.357120e-01 6.220543e+00 -6.535450e+00 8.879469e-01 2.337316e+00 -1.271343e+01 1.994608e+00 -1.060061e+01 3.295306e-02 6.930506e+00 -6.086895e+00 7.331326e+01 5.755550e-01 1.222325e+00 -3.717711e-01 1.057830e+00 -5.271180e-01 1.823233e+00 4.227702e-01 -2.714742e-02 6.552611e-01 -5.574225e-01 -2.010368e+00 3.428117e-01 -1.212005e+00 -9.586411e-02 5.678833e-02 -8.991399e-02 -4.441964e-02 4.029702e-02 2.219943e-01 3.591491e-01 6.114427e-02 3.782118e-02 -1.264012e-01 -3.932454e-01 1.377277e-01 -4.410002e-02
<VARIANCE> 39
 5.990330e+00 1.529777e+01 3.414577e+01 4.177834e+01 1.764596e+01 4.700552e+01 1.525937e+01 1.897272e+01 2.157469e+01 2.294909e+01 5.246443e+01 1.416322e+01 1.537497e+01 6.276624e-01 1.072059e+00 1.787180e+00 1.315359e+00 1.258996e+00 2.835227e+00 2.144677e+00 1.669909e+00 2.439556e+00 1.975775e+00 3.762183e+00 1.886508e+00 6.679105e-01 3.681800e-01 3.463848e-01 4.239427e-01 2.640911e-01 3.411735e-01 7.323059e-01 3.286442e-01 2.509905e-01 5.282823e-01 2.375655e-01 5.231972e-01 2.372040e-01 2.634318e-01
<GCONST> 1.039040e+02
<STATE> 3
<MEAN> 39
 4.831166e+00 5.047832e+00 2.056675e+00 -2.519013e+00 1.588620e-01 1.017541e+01 -1.047196e+01 2.113118e+00 -8.392059e+00 -3.001027e+00 -9.936139e-01 -4.785223e+00 6.837798e+01 -3.107779e-01 4.471348e-01 -4.493172e-01 3.520824e-01 8.128610e-02 6.579641e-01 1.373859e+00 -1.390539e-01 6.240873e-01 -2.950173e-01 -1.038774e+00 3.216856e-01 -4.480368e-01 -7.913810e-01 -5.761887e-01 5.664204e-01 -5.419118e-01 1.651233e-01 -6.708533e-01 2.073728e-01 -3.970937e-02 7.880931e-02 2.878668e-01 5.129795e-01 1.476959e-02 5.776127e-01
<VARIANCE> 39
 4.064870e+00 7.061336e+00 3.445583e+01 2.951108e+01 1.345318e+01 1.813274e+01 2.173389e+01 2.541497e+01 2.208854e+01 1.649097e+01 2.011619e+01 1.495903e+01 7.318717e+00 1.658230e+00 1.042391e+00 3.399265e+00 1.454060e+00 2.196219e+00 3.434186e+00 2.749721e+00 2.769526e+00 2.343301e+00 1.942995e+00 2.912263e+00 1.545794e+00 8.724543e-01 4.489274e-01 2.238610e-01 7.107818e-01 4.218404e-01 3.891402e-01 6.181844e-01 4.281157e-01 5.972763e-01 5.869578e-01 3.553005e-01 5.394108e-01 3.501157e-01 2.002817e-01
<GCONST> 1.053116e+02
<STATE> 4
<MEAN> 39
 -5.101613e+00 1.524271e+00 6.556636e+00 -9.509802e+00 2.243179e+00 8.162534e+00 -5.085225e+00 1.605438e+00 -5.359163e+00 -2.911661e+00 -2.223340e+00 -3.165614e+00 7.143107e+01 -3.259754e+00 -1.566030e+00 2.338848e+00 -1.901331e+00 -2.202397e-01 -9.100682e-01 5.584553e-01 -4.831456e-01 9.292188e-01 -2.148843e-01 6.793140e-01 2.384549e-01 1.865216e+00 2.083025e-01 -1.264173e-01 -4.940895e-02 7.632545e-02 -3.477976e-01 -2.572150e-01 -6.262552e-01 -3.563688e-01 -1.622351e-01 -5.099540e-02 3.114320e-01 -9.673537e-02 1.736065e-01
<VARIANCE> 39
 8.069215e+01 2.408439e+01 7.574191e+01 1.034412e+02 3.385339e+01 2.453058e+01 2.554830e+01 1.992521e+01 2.563471e+01 1.918193e+01 2.264712e+01 1.870437e+01 2.432160e+01 5.324441e+00 2.526129e+00 5.424489e+00 5.377000e+00 3.590951e+00 3.011144e+00 4.208722e+00 3.262085e+00 4.156724e+00 2.341221e+00 3.691747e+00 1.443763e+00 1.980305e+00 1.810081e+00 5.180730e-01 1.549131e+00 1.313987e+00 5.740899e-01 6.087204e-01 6.967428e-01 5.315629e-01 7.046612e-01 4.623393e-01 6.932862e-01 2.974243e-01 5.963607e-01
<GCONST> 1.275972e+02
<TRANSP> 5
 0.000000e+00 1.000000e+00 0.000000e+00 0.000000e+00 0.000000e+00
 0.000000e+00 4.848398e-01 5.151603e-01 0.000000e+00 0.000000e+00
 0.000000e+00 0.000000e+00 6.408244e-01 3.591756e-01 0.000000e+00
 0.000000e+00 0.000000e+00 0.000000e+00 6.160145e-01 3.839854e-01
 0.000000e+00 0.000000e+00 0.000000e+00 0.000000e+00 0.000000e+00
<ENDHMM>
~h "p"
<BEGINHMM>
<NUMSTATES> 5
<STATE> 2
<MEAN> 39
 1.758026e+00 -7.541206e-01 -8.974938e+00 -4.462975e+00 -4.608980e+00 3.075890e+00 -6.188963e+00 2.081993e+00 -8.905568e+00 1.214740e+00 3.299274e+00 -5.592491e+00 6.783259e+01 -4.593945e-01 -3.794552e-01 2.255229e-01 2.704635e-01 2.817025e-01 -2.298400e-01 -6.239842e-02 -2.612042e-01 5.381956e-01 3.403158e-01 4.627211e-01 3.089714e-01 8.091976e-02 1.058784e-01 -1.062410e-01 2.577261e-01 -2.313346e-01 1.934664e-01 -3.587921e-01 -5.190768e-01 -3.452393e-01 -3.571461e-01 2.068387e-01 5.735692e-03 -2.602556e-01 2.857542e-01
<VARIANCE> 39
 1.672840e+01 1.891363e+01 5.095842e+01 1.879042e+01 1.173060e+01 1.929836e+01 1.471694e+01 2.877225e+01 2.644281e+01 1.602397e+01 3.718281e+01 3.899850e+01 2.485957e+01 1.231193e+00 3.038263e+00 8.817431e+00 2.262150e+00 2.199472e+00 3.705955e+00 4.480869e+00 2.333888e+00 4.180567e+00 2.102660e+00 3.762549e+00 3.927466e+00 4.085977e+00 2.429605e-01 2.513347e-01 7.274654e-01 3.762228e-01 4.567430e-01 4.400774e-01 4.192487e-01 4.804797e-01 5.532629e-01 5.264091e-01 9.002020e-01 7.847365e-01 3.311253e-01
<GCONST> 1.173583e+02
<STATE> 3
<MEAN> 39
 -1.346841e+00 -7.654334e+00 -1.003615e+00 -6.063314e+00 7.233727e-01 -1.773923e+00 -9.652861e+00 -1.839301e+00 -7.489996e+00 5.659275e+00 3.093299e+00 -6.912443e+00 7.405867e+01 2.608266e-01 -2.278959e-01 1.192233e+00 6.285921e-02 1.597547e+00 -1.610714e+00 -1.778541e+00 -8.289705e-01 -1.219182e+00 2.499667e-01 -1.785689e-01 -1.353210e+00 9.467829e-01 2.437492e-01 7.526552e-01 -1.205451e-01 8.615530e-02 -5.205614e-02 1.304324e-01 -2.539019e-01 3.980186e-01 -1.674658e-01 -6.237696e-01 -3.598391e-01 -2.074305e-01 -3.089170e-01
<VARIANCE> 39
 1.572690e+01 2.880014e+01 2.776446e+01 3.417006e+01 3.783615e+01 1.508229e+01 3.473433e+01 1.809027e+01 3.370583e+01 2.167769e+01 2.485518e+01 1.993389e+01 2.396332e+01 3.111226e-01 2.866944e+00 2.872895e+00 1.275532e+00 1.585974e+00 2.510060e+00 4.722232e+00 4.410355e+00 4.040499e+00 4.536132e+00 1.628815e+00 5.989561e+00 2.145357e+00 7.423266e-02 3.796352e-01 4.780217e-01 2.961774e-01 4.104037e-01 2.099046e-01 4.667459e-01 1.961575e-01 4.551895e-01 6.422161e-01 5.201327e-01 2.259199e-01 1.492011e-01
<GCONST> 1.093256e+02
<STATE> 4
<MEAN> 39
 1.363253e+00 -5.515049e+00 2.524210e+00 -7.018623e+00 2.102305e+00 -7.111551e+00 -1.992675e+01 -2.634422e+00 -1.405780e+01 2.244491e+00 3.619051e+00 -1.368678e+01 7.679033e+01 4.224826e-01 5.663158e-01 3.072309e-01 -5.329707e-01 -1.494005e-02 -5.561464e-01 -9.924953e-01 8.242828e-01 -6.143043e-01 -4.241857e-01 -3.119313e-01 -2.018718e-01 6.971142e-02 -1.215382e-01 1.394964e-01 -3.763036e-01 -4.812382e-03 -2.948163e-01 5.230150e-01 9.425892e-01 4.039843e-01 7.349160e-01 1.692331e-01 -1.989616e-01 4.391365e-01 -4.262465e-01
<VARIANCE> 39
 9.794831e+00 2.152496e+01 4.975998e+01 3.351487e+01 4.020159e+01 2.017378e+01 4.929449e+01 1.160561e+02 3.817562e+01 1.970468e+01 2.256360e+01 5.096515e+01 1.234195e+01 4.050570e-01 2.198461e+00 3.110436e+00 2.678692e+00 1.975170e+00 2.443767e+00 7.454658e+00 3.814007e+00 3.987913e+00 2.169585e+00 2.824111e+00 5.025545e+00 2.072709e+00 5.377898e-02 3.110952e-01 5.771226e-01 3.115062e-01 3.131123e-01 2.894038e-01 8.101682e-01 5.866740e-01 7.589970e-01 5.065588e-01 4.742041e-01 1.079282e+00 1.492699e-01
<GCONST> 1.159672e+02
<TRANSP> 5
 0.000000e+00 1.000000e+00 0.000000e+00 0.000000e+00 0.000000e+00
 0.000000e+00 7.429619e-01 2.570382e-01 0.000000e+00 0.000000e+00
 0.000000e+00 0.000000e+00 4.922682e-01 5.077319e-01 0.000000e+00
 0.000000e+00 0.000000e+00 0.000000e+00 6.863159e-01 3.136841e-01
 0.000000e+00 0.000000e+00 0.000000e+00 0.000000e+00 0.000000e+00
<ENDHMM>
~h "r"
<BEGINHMM>
<NUMSTATES> 5
<STATE> 2
<MEAN> 39
 4.812061e+00 3.702765e+00 -4.047272e+00 -1.122567e+01 9.015372e-01 -7.901381e+00 -1.434713e+01 -5.614488e+00 -1.976980e+01 -1.889994e+00 2.394155e+00 -7.377666e+00 7.332132e+01 5.788498e-01 9.478413e-01 -2.972139e-01 -1.523029e+00 6.862520e-01 2.681554e-02 -1.066343e+00 8.132519e-01 -8.809681e-01 -4.833742e-01 9.755412e-01 -5.996639e-02 -3.688916e-02 -1.537209e-01 -1.381475e-01 1.682236e-02 -3.673313e-02 8.183733e-02 2.494108e-01 -3.599341e-03 8.886835e-02 1.836879e-01 3.626836e-02 9.772164e-02 1.215423e-01 1.768748e-02
<VARIANCE> 39
 6.366777e+00 3.395280e+01 1.663503e+01 3.190078e+01 3.026031e+01 3.909165e+01 3.309874e+01 7.561587e+01 3.500344e+01 9.432529e+01 3.686403e+01 5.684158e+01 9.014342e+00 7.380897e-01 1.791108e+00 1.122615e+00 2.796190e+00 1.563335e+00 2.110921e+00 3.774856e+00 4.785936e+00 3.268178e+00 3.351380e+00 2.448586e+00 2.455621e+00 7.101016e-01 1.706440e-01 3.030472e-01 2.068549e-01 3.787576e-01 2.825451e-01 2.958252e-01 5.324663e-01 6.736877e-01 7.239146e-01 5.066612e-01 4.220379e-01 4.620953e-01 1.464862e-01
<GCONST> 1.119588e+02
<STATE> 3
<MEAN> 39
 6.806757e+00 8.152540e+00 -4.013325e+00 -2.209225e+01 5.547493e+00 -1.204389e-01 -2.070070e+01 1.626009e+00 -2.223490e+01 -7.741420e+00 1.194569e+01 -3.928629e+00 7.350833e+01 -9.775546e-02 -3.468566e-01 2.167183e-01 -5.223958e-01 9.241316e-02 1.844167e-03 -2.177997e-01 -3.595410e-02 2.242690e-01 5.693870e-01 7.933788e-01 -1.361510e-01 3.664860e-01 -1.024814e-01 -1.926346e-01 8.897892e-02 3.874338e-01 -1.804723e-01 -1.473673e-01 3.290614e-01 -2.374781e-01 1.760766e-01 2.614233e-01 -2.141825e-01 -1.542427e-01 2.624230e-02
<VARIANCE> 39
 2.446606e+00 1.789799e+01 1.258593e+01 2.785842e+01 1.940769e+01 2.270010e+01 2.770896e+01 3.631670e+01 4.820119e+01 3.151302e+01 3.643271e+01 3.179824e+01 3.697049e+00 1.753774e-01 1.208390e+00 5.500487e-01 1.497235e+00 1.342847e+00 1.293583e+00 2.108860e+00 2.830551e+00 2.311976e+00 3.125359e+00 2.471175e+00 2.374629e+00 3.545355e-01 3.307432e-02 1.210347e-01 1.029757e-01 1.862657e-01 2.171856e-01 1.976312e-01 3.286716e-01 3.553188e-01 4.590400e-01 3.544382e-01 4.247395e-01 4.597605e-01 3.597626e-02
<GCONST> 9.176561e+01
<STATE> 4
<MEAN> 39
 3.727751e+00 1.132800e+00 -1.730418e+00 -1.557322e+01 4.677008e+00 -6.414501e+00 -1.846250e+01 -6.749125e+00 -1.813700e+01 2.534361e+00 1.121569e+01 -6.924062e+00 7.669081e+01 -4.502419e-01 -7.608610e-01 9.126945e-01 1.308591e+00 -6.234043e-01 -2.452151e-01 7.725876e-01 -3.348115e-01 9.966862e-01 8.967740e-01 -4.623464e-01 -9.834856e-01 2.531301e-01 1.036226e-01 2.244917e-01 -4.596578e-02 4.735579e-02 -7.200103e-02 3.980360e-01 -3.986177e-03 4.433707e-01 3.824057e-02 -4.390451e-01 -2.740676e-01 6.299331e-02 -2.562622e-01
<VARIANCE> 39
 3.902977e+00 2.388081e+01 2.796271e+01 5.043673e+01 2.561163e+01 3.899232e+01 1.869002e+01 7.098506e+01 4.779039e+01 4.829868e+01 2.079236e+01 4.171840e+01 3.312923e+00 2.166980e-01 1.215282e+00 6.269965e-01 1.264206e+00 1.220279e+00 2.143761e+00 1.679247e+00 3.464883e+00 2.213497e+00 3.613199e+00 1.869300e+00 1.995999e+00 5.267128e-01 3.559450e-02 1.177171e-01 1.353558e-01 1.955490e-01 2.206967e-01 3.582125e-01 3.487391e-01 4.430254e-01 3.959444e-01 4.526994e-01 4.254464e-01 3.412055e-01 4.921000e-02
<GCONST> 9.700635e+01
<TRANSP> 5
 0.000000e+00 1.000000e+00 0.000000e+00 0.000000e+00 0.000000e+00
 0.000000e+00 7.863428e-01 2.136572e-01 0.000000e+00 0.000000e+00
 0.000000e+00 0.000000e+00 8.569561e-01 1.430438e-01 0.000000e+00
 0.000000e+00 0.000000e+00 0.000000e+00 6.482041e-01 3.517959e-01
 0.000000e+00 0.000000e+00 0.000000e+00 0.000000e+00 0.000000e+00
<ENDHMM>
~h "s"
<BEGINHMM>
<NUMSTATES> 5
<STATE> 2
<MEAN> 39
 -1.001695e+01 -1.964237e-01 1.035390e+01 -1.460353e+01 1.940390e+00 6.212282e+00 -9.896863e+00 -5.411186e+00 -4.412604e+00 -3.154111e+00 1.325717e+00 -1.351735e+00 7.719893e+01 -4.756727e+00 -2.715293e-01 1.436540e+00 -1.318117e+00 9.093880e-01 3.876662e-01 1.524486e+00 3.209267e-01 2.386467e+00 -2.613724e-01 -2.388118e-01 9.066636e-01 1.778156e+00 4.342108e-02 1.915290e-01 -4.020091e-01 4.325425e-02 -2.834958e-01 -1.649462e-01 -2.307684e-01 6.185290e-01 -2.128870e-01 1.954761e-01 1.327249e-01 -1.681364e-01 -1.778444e-01
<VARIANCE> 39
 7.172132e+01 2.620119e+01 4.911900e+01 3.777999e+01 2.270889e+01 2.084104e+01 5.956334e+01 5.599981e+01 3.365303e+01 2.244904e+01 2.940573e+01 2.814637e+01 1.153545e+01 2.461126e+00 1.735031e+00 3.307016e+00 2.541394e+00 2.453691e+00 1.699276e+00 4.528436e+00 4.750562e+00 3.278703e+00 2.345323e+00 2.853316e+00 2.205877e+00 1.463764e+00 1.166184e+00 2.887024e-01 4.796061e-01 6.119105e-01 4.610587e-01 3.122701e-01 7.180935e-01 8.909547e-01 7.869524e-01 3.781312e-01 6.150790e-01 5.309594e-01 3.380026e-01
<GCONST> 1.210274e+02
<STATE> 3
<MEAN> 39
 -2.240225e+01 -4.154231e-01 1.061261e+01 -1.823637e+01 2.188186e+00 6.579370e+00 -6.734738e+00 1.012786e+00 -3.426813e-01 -2.595031e+00 2.087042e+00 -2.948459e-01 7.995267e+01 2.787584e-02 -2.895076e-01 -4.758097e-01 4.189212e-02 -1.859428e-01 -2.489490e-01 3.546528e-01 1.624884e-01 -2.864310e-02 1.199351e-01 -4.970669e-02 8.851684e-02 -2.580335e-01 8.189228e-01 -9.003507e-02 -1.394933e-01 2.674417e-01 -1.067743e-01 -1.569078e-01 -5.525096e-02 -2.748012e-01 -2.761056e-01 -5.520449e-02 -9.315305e-02 -1.369042e-02 -2.729856e-01
<VARIANCE> 39
 6.311203e+00 1.792235e+01 1.316371e+01 1.333125e+01 1.552864e+01 1.493600e+01 2.196495e+01 2.549933e+01 1.900940e+01 1.659387e+01 1.364232e+01 1.721286e+01 2.997377e+00 2.284013e+00 1.098111e+00 9.984054e-01 1.372595e+00 1.136078e+00 1.103059e+00 1.608026e+00 2.180750e+00 9.622333e-01 1.150762e+00 1.081283e+00 1.175673e+00 4.378962e-01 3.016834e-01 2.369615e-01 1.935323e-01 2.432213e-01 2.149018e-01 2.506573e-01 3.318302e-01 3.479827e-01 3.552851e-01 2.804210e-01 2.399776e-01 2.585170e-01 8.086595e-02
<GCONST> 8.951380e+01
<STATE> 4
<MEAN> 39
 -1.048271e+01 -1.026696e+00 7.824490e+00 -1.464741e+01 -3.659782e-01 2.125130e+00 -7.247606e+00 -4.027229e+00 -5.342539e+00 -4.206682e+00 -9.785908e-01 -5.782886e-01 7.570574e+01 3.723398e+00 6.548727e-01 2.848838e-02 5.242037e-01 -1.081809e+00 -1.173004e+00 -1.342802e+00 -9.319063e-01 -2.321975e+00 -4.567493e-01 -3.014078e-01 -6.566328e-01 -8.623379e-01 -1.606765e-01 3.738727e-02 1.581303e-01 -1.483891e-01 -1.396232e-01 9.262827e-02 -3.159356e-01 2.825565e-01 -1.346895e-01 2.151751e-01 3.701541e-01 -2.770106e-01 2.258991e-01
<VARIANCE> 39
 5.212842e+01 3.088704e+01 1.528215e+01 2.445586e+01 2.155307e+01 2.985512e+01 6.475995e+01 3.847322e+01 4.863195e+01 2.372708e+01 2.444200e+01 2.077345e+01 8.697015e+00 2.112875e+00 4.363850e+00 2.348268e+00 2.771660e+00 1.973580e+00 1.734311e+00 3.918771e+00 3.505441e+00 3.223939e+00 3.060040e+00 3.264976e+00 1.667646e+00 8.710444e-01 7.341319e-01 8.448829e-01 2.894733e-01 4.811442e-01 3.597878e-01 4.779149e-01 9.654805e-01 5.938295e-01 9.424556e-01 4.630342e-01 4.397544e-01 3.161978e-01 9.081113e-02
<GCONST> 1.165400e+02
<TRANSP> 5
 0.000000e+00 1.000000e+00 0.000000e+00 0.000000e+00 0.000000e+00
 0.000000e+00 6.955623e-01 3.044376e-01 0.000000e+00 0.000000e+00
 0.000000e+00 0.000000e+00 8.622058e-01 1.377942e-01 0.000000e+00
 0.000000e+00 0.000000e+00 0.000000e+00 6.769208e-01 3.230792e-01
 0.000000e+00 0.000000e+00 0.000000e+00 0.000000e+00 0.000000e+00
<ENDHMM>
~h "t"
<BEGINHMM>
<NUMSTATES> 5
<STATE> 2
<MEAN> 39
 -6.739278e+00 -2.418055e+00 3.833472e+00 -1.110342e+01 5.295683e-02 3.604482e+00 -8.537905e+00 -6.137859e-01 -5.403560e+00 -2.360791e-01 2.596325e+00 -3.291912e+00 7.313502e+01 -1.152519e+00 -1.456015e+00 5.831928e-01 5.763367e-01 -9.466473e-02 -6.507422e-01 2.183991e-01 -7.497515e-01 5.170743e-01 -2.307939e-04 2.433409e-02 -3.269469e-02 9.117094e-01 2.783057e-01 9.111197e-02 -3.577090e-02 1.931534e-01 1.592973e-02 -6.314916e-02 -2.044224e-01 -2.796659e-01 -2.570196e-01 -1.605070e-02 -1.827286e-01 -7.478178e-02 -5.515249e-03
<VARIANCE> 39
 6.871721e+01 3.932619e+01 5.452885e+01 4.989522e+01 2.755909e+01 3.420424e+01 4.904387e+01 3.512624e+01 4.520688e+01 2.596802e+01 1.945501e+01 1.438398e+01 3.166860e+01 6.039617e+00 3.498384e+00 7.703151e+00 6.831133e+00 3.351387e+00 4.249970e+00 4.801167e+00 4.867997e+00 3.756557e+00 1.853818e+00 2.432225e+00 1.535450e+00 4.595612e+00 1.742536e+00 8.204019e-01 1.589981e+00 1.067790e+00 5.872222e-01 7.936136e-01 8.620780e-01 8.641845e-01 8.975192e-01 4.246003e-01 5.813220e-01 3.358255e-01 1.090859e+00
<GCONST> 1.328682e+02
<STATE> 3
<MEAN> 39
 -6.591412e+00 -7.717724e+00 7.080173e+00 -6.756436e+00 -4.897932e-01 -2.523274e+00 -1.166951e+01 -6.210858e+00 -7.662807e+00 -1.114467e+00 1.382473e+00 -3.987011e+00 7.654297e+01 2.424386e+00 1.000318e+00 -2.480620e-01 6.056299e-01 4.137007e-01 -3.635772e-01 -1.872289e+00 -1.167965e+00 -1.944275e+00 1.296901e-02 -4.553062e-01 -5.150881e-01 -4.590619e-01 3.713118e-01 6.367170e-01 -3.364747e-01 -3.329358e-01 -9.156731e-03 5.638922e-01 1.261458e-01 4.168721e-01 -8.440642e-02 1.533966e-01 8.185662e-02 -1.991888e-02 -3.670366e-01
<VARIANCE> 39
 4.248409e+01 2.919074e+01 2.034545e+01 3.730307e+01 2.056237e+01 3.779087e+01 7.619305e+01 3.319632e+01 4.604349e+01 2.289486e+01 2.348749e+01 2.246916e+01 8.189496e+00 4.249838e+00 3.281719e+00 2.810735e+00 1.961372e+00 2.726070e+00 2.499037e+00 5.294738e+00 4.747386e+00 4.168249e+00 2.306676e+00 2.479152e+00 2.360477e+00 1.480405e+00 9.924400e-01 7.119558e-01 4.835727e-01 4.573284e-01 5.412253e-01 3.990182e-01 1.157198e+00 7.375020e-01 1.090244e+00 4.258607e-01 5.299791e-01 4.282587e-01 2.959728e-01
<GCONST> 1.221481e+02
<STATE> 4
<MEAN> 39
 7.096152e-01 -1.200485e+00 3.959461e+00 -5.839292e+00 7.193616e-01 9.253305e-01 -1.379023e+01 -5.560354e+00 -1.068722e+01 6.397043e-01 8.540240e-01 -4.282202e+00 7.236770e+01 9.038342e-01 8.838205e-01 -1.053803e+00 4.163948e-01 -2.363356e-02 1.230029e+00 7.537026e-01 8.822558e-01 -2.197264e-02 2.643210e-01 -3.679064e-01 -6.447473e-02 -8.742690e-01 -3.655747e-01 -1.355920e-01 -6.414822e-02 4.092673e-03 -1.305226e-01 7.910067e-02 4.017483e-01 3.389243e-01 4.231583e-01 -1.475552e-01 -2.943411e-03 5.077398e-02 4.693800e-02
<VARIANCE> 39
 1.740678e+01 3.005932e+01 3.107781e+01 4.141510e+01 2.757038e+01 5.582239e+01 6.356172e+01 4.260420e+01 4.772177e+01 2.916148e+01 2.005198e+01 1.936825e+01 1.374973e+01 1.490139e+00 1.363878e+00 1.560073e+00 1.958186e+00 2.447924e+00 2.226936e+00 3.972626e+00 2.647911e+00 3.588336e+00 2.996985e+00 2.130024e+00 1.398819e+00 8.844040e-01 2.673350e-01 2.155363e-01 2.842551e-01 2.910749e-01 2.784903e-01 4.227361e-01 8.865231e-01 6.613324e-01 5.293434e-01 3.962756e-01 4.143600e-01 2.419738e-01 1.807235e-01
<GCONST> 1.117890e+02
<TRANSP> 5
 0.000000e+00 1.000000e+00 0.000000e+00 0.000000e+00 0.000000e+00
 0.000000e+00 6.992733e-01 3.007267e-01 0.000000e+00 0.000000e+00
 0.000000e+00 0.000000e+00 5.835431e-01 4.164568e-01 0.000000e+00
 0.000000e+00 0.000000e+00 0.000000e+00 6.244032e-01 3.755968e-01
 0.000000e+00 0.000000e+00 0.000000e+00 0.000000e+00 0.000000e+00
<ENDHMM>
~h "v"
<BEGINHMM>
<NUMSTATES> 5
<STATE> 2
<MEAN> 39
 1.517939e+00 -1.535223e+00 4.097236e+00 -9.181561e+00 -1.098237e+00 -4.783192e-01 -1.443611e+01 -5.512866e+00 -1.408154e+01 1.325395e+00 6.802251e+00 -4.051037e+00 7.474543e+01 -1.456207e+00 -5.365852e-02 1.417544e+00 -3.153983e-01 -6.161400e-02 4.003601e-01 -3.501909e-02 -1.429590e+00 4.068359e-02 -7.910667e-01 -2.844397e-01 -5.901280e-02 6.511267e-01 -1.927415e-01 4.730855e-02 -1.639307e-01 8.213329e-02 1.259259e-01 9.744035e-02 6.146050e-01 -8.165514e-02 4.680209e-01 -3.687589e-01 -4.313585e-01 -9.791633e-02 6.884717e-02
<VARIANCE> 39
 2.241596e+01 3.076534e+01 1.237376e+01 1.768433e+01 3.237967e+01 2.832461e+01 6.679620e+01 1.938784e+01 1.010652e+02 1.887129e+01 4.535933e+01 2.493895e+01 7.124235e+00 3.441622e+00 4.430689e+00 8.292247e+00 5.239753e+00 5.963035e-01 2.149580e+00 1.025247e+01 8.243608e+00 1.021563e+01 3.815096e+00 5.051614e+00 1.025826e+00 5.498615e+00 7.180629e-01 4.743308e-01 2.456668e-01 7.104560e-02 3.474681e-01 4.465757e-01 2.296699e+00 3.586034e-01 2.746178e+00 4.330285e-01 6.432860e-01 2.392140e-01 1.175915e-01
<GCONST> 1.213097e+02
<STATE> 3
<MEAN> 39
 -3.110544e+00 4.711446e-01 2.942841e+00 -8.481772e+00 -7.416274e-01 1.183408e+00 -8.729139e+00 -6.802191e+00 -9.027887e+00 -1.986437e+00 2.339124e+00 -3.276135e+00 7.520110e+01 -1.903488e+00 -3.577186e-01 1.116958e+00 -3.145384e-01 -3.064287e-01 6.488270e-01 8.356066e-01 -1.383517e+00 8.832814e-01 -8.534511e-01 -8.012131e-01 -5.035114e-02 7.683641e-01 7.691497e-01 4.378382e-02 -4.901146e-01 7.948926e-02 5.058314e-02 -2.308369e-02 -3.197343e-01 4.969203e-01 -4.052764e-01 7.035258e-02 1.969540e-01 -1.334705e-01 -4.214559e-01
<VARIANCE> 39
 3.705020e+01 3.358368e+01 2.759465e+01 3.115697e+01 2.594809e+01 5.135647e+01 1.154525e+02 1.994883e+01 1.026239e+02 1.871402e+01 4.054180e+01 2.764522e+01 1.039913e+01 3.522655e+00 3.250001e+00 5.860705e+00 2.826457e+00 1.112167e+00 2.374098e+00 1.873456e+01 8.632514e+00 1.732531e+01 5.066976e+00 5.423238e+00 9.596343e-01 3.050050e+00 1.110778e+00 5.362203e-01 6.112241e-01 5.911877e-01 3.520315e-01 4.632016e-01 2.187709e+00 2.513734e-01 2.002404e+00 5.668787e-01 6.830805e-01 1.623937e-01 2.538786e-01
<GCONST> 1.285718e+02
<STATE> 4
<MEAN> 39
 -5.854118e+00 -4.370559e+00 6.144851e+00 -1.240353e+01 -3.369508e+00 8.820680e-01 -1.454523e+01 -1.206456e+01 -1.157692e+01 -4.848005e-01 1.808793e+00 -3.782442e+00 7.578889e+01 -2.821774e-01 3.138780e-01 2.340420e-01 -6.606936e-02 8.269764e-01 1.334237e+00 1.362888e-01 4.937191e-01 8.593118e-01 -5.888226e-01 -5.506251e-01 -6.261873e-02 -4.553350e-01 5.090504e-01 3.098378e-01 -6.796345e-01 2.204089e-01 7.881697e-03 -1.214711e-02 3.297665e-01 6.691141e-01 1.645501e-01 -3.482426e-02 -1.477625e-01 2.232897e-02 -5.502354e-01
<VARIANCE> 39
 5.903281e+01 3.381544e+01 3.281262e+01 3.147792e+01 2.217057e+01 6.850011e+01 5.698001e+01 4.693766e+01 9.154422e+01 2.954754e+01 3.623258e+01 1.504629e+01 1.975867e+01 5.838363e+00 2.572860e+00 5.835489e+00 2.932513e+00 2.239672e+00 3.547628e+00 6.817777e+00 5.785044e+00 1.158430e+01 2.986412e+00 3.538569e+00 8.594491e-01 3.652041e+00 1.401072e+00 6.547996e-01 1.355958e+00 5.713127e-01 3.211884e-01 9.856153e-01 9.508975e-01 1.227870e+00 2.195561e+00 6.982264e-01 9.002111e-01 9.992712e-02 8.895277e-01
<GCONST> 1.324338e+02
<TRANSP> 5
 0.000000e+00 1.000000e+00 0.000000e+00 0.000000e+00 0.000000e+00
 0.000000e+00 1.988649e-01 8.011351e-01 0.000000e+00 0.000000e+00
 0.000000e+00 0.000000e+00 2.602031e-01 7.397969e-01 0.000000e+00
 0.000000e+00 0.000000e+00 0.000000e+00 6.363752e-01 3.636248e-01
 0.000000e+00 0.000000e+00 0.000000e+00 0.000000e+00 0.000000e+00
<ENDHMM>
~h "w"
<BEGINHMM>
<NUMSTATES> 5
<STATE> 2
<MEAN> 39
 -1.091249e+00 -4.034224e-01 -6.692480e+00 -6.024206e+00 -4.082125e+00 -4.389594e+00 -5.610687e+00 -2.415116e+00 -1.380028e+01 -2.736602e+00 5.604708e+00 -4.543322e+00 7.155479e+01 -1.119992e+00 -1.553009e+00 1.022120e+00 -4.455514e-01 3.736836e-01 -1.133564e+00 5.058321e-01 -5.136873e-01 -5.364675e-01 -5.093493e-01 7.153165e-01 2.746833e-01 1.315482e+00 2.337673e-01 1.012120e-01 1.025386e-01 1.662182e-01 2.879633e-01 1.052379e+00 -8.959207e-02 2.245746e-01 3.108456e-01 2.202545e-01 -5.442020e-01 4.072268e-02 -4.456256e-01
<VARIANCE> 39
 1.246017e+01 4.093455e+01 7.086224e+01 2.009802e+01 1.740669e+01 4.470243e+01 8.933290e+01 5.173221e+01 4.117972e+01 2.584004e+01 1.719461e+01 3.437227e+01 2.915054e+01 9.661347e-01 1.699728e+00 2.490570e+00 2.371888e+00 1.075513e+00 6.328106e+00 3.670144e+00 2.788520e+00 3.375007e+00 2.121964e+00 2.944876e+00 3.292949e+00 2.098346e+00 1.822470e-01 6.062385e-01 6.553091e-01 3.844484e-01 2.660287e-01 1.114133e+00 9.985030e-01 7.723954e-01 7.193014e-01 5.249492e-01 5.251855e-01 5.941489e-01 4.893580e-01
<GCONST> 1.205796e+02
<STATE> 3
<MEAN> 39
 -9.016192e-01 -3.158707e+00 -3.236287e+00 -4.407939e+00 -2.100720e+00 7.908522e-01 -5.829339e+00 -1.939111e+00 -1.400133e+01 -2.251470e+00 1.645817e+00 -4.820359e+00 7.122375e+01 1.034973e+00 8.399810e-01 5.343429e-01 1.569910e-01 1.764492e-01 2.888643e-01 -8.797705e-01 -7.515410e-01 -1.591910e+00 -1.278911e-01 -5.250092e-01 -6.857431e-01 -7.388433e-02 2.229934e-01 3.446698e-01 -1.408603e-02 -1.301978e-01 -3.256685e-02 -2.522268e-01 -2.674224e-01 -3.128146e-01 -4.680892e-01 1.175552e-01 3.125330e-01 -2.563749e-01 6.502294e-02
<VARIANCE> 39
 1.955551e+01 2.713453e+01 3.147827e+01 3.025055e+01 1.500770e+01 3.473151e+01 4.584668e+01 2.865890e+01 4.863345e+01 2.008220e+01 4.127015e+01 5.108053e+01 1.241193e+01 2.454129e+00 4.183842e+00 2.836245e+00 2.221116e+00 1.124172e+00 4.913931e+00 4.431825e+00 3.204443e+00 7.668015e+00 1.657124e+00 5.096443e+00 4.976402e+00 1.632664e+00 4.692566e-01 1.008939e+00 4.291261e-01 4.003370e-01 2.069415e-01 1.079687e+00 5.325093e-01 6.221917e-01 1.240595e+00 3.695894e-01 1.024270e+00 8.139976e-01 4.008521e-01
<GCONST> 1.231127e+02
<STATE> 4
<MEAN> 39
 4.236379e+00 2.106386e+00 5.490631e-01 -4.098892e+00 -3.101790e+00 1.007437e-01 -1.322890e+01 -6.055405e+00 -1.982925e+01 -1.544266e+00 6.123971e+00 -9.270720e+00 7.173334e+01 -6.695425e-02 1.655251e-01 -1.860215e-01 1.486757e-01 -2.696502e-01 2.874603e-01 7.931964e-02 7.084410e-01 8.637994e-01 1.644962e-01 1.494086e-01 -1.713739e-01 -3.448052e-01 -1.596846e-01 -1.621473e-01 -2.353767e-02 -8.754933e-02 -4.476393e-02 5.841659e-02 2.771514e-01 3.028871e-01 3.436811e-01 -9.034163e-02 -1.395484e-01 2.374076e-01 -2.212348e-02
<VARIANCE> 39
 7.571389e+00 2.526377e+01 4.033437e+01 1.954598e+01 3.053894e+01 2.820686e+01 3.482956e+01 5.821902e+01 3.579148e+01 2.441304e+01 3.002783e+01 3.335693e+01 2.066734e+01 5.250398e-01 1.890361e+00 4.643718e+00 2.624783e+00 1.910961e+00 2.368339e+00 4.333205e+00 6.468327e+00 3.686515e+00 3.005675e+00 3.312462e+00 3.876978e+00 1.848870e+00 1.659238e-01 4.426421e-01 7.012168e-01 5.035594e-01 3.931171e-01 4.079736e-01 5.448897e-01 1.196704e+00 7.440357e-01 6.326295e-01 5.180611e-01 8.215198e-01 3.064656e-01
<GCONST> 1.188930e+02
<TRANSP> 5
 0.000000e+00 1.000000e+00 0.000000e+00 0.000000e+00 0.000000e+00
 0.000000e+00 5.921839e-01 4.078161e-01 0.000000e+00 0.000000e+00
 0.000000e+00 0.000000e+00 7.629921e-01 2.370079e-01 0.000000e+00
 0.000000e+00 0.000000e+00 0.000000e+00 8.742096e-01 1.257904e-01
 0.000000e+00 0.000000e+00 0.000000e+00 0.000000e+00 0.000000e+00
<ENDHMM>
~h "y"
<BEGINHMM>
<NUMSTATES> 5
<STATE> 2
<MEAN> 39
 -2.816663e+00 -1.207321e+00 8.100851e+00 -1.349023e+00 -1.464933e+00 2.651601e+00 -7.322773e+00 2.619903e-02 -6.370112e+00 -1.901329e+00 -3.529744e+00 -7.059709e+00 7.286056e+01 -1.275009e+00 -1.144381e+00 1.735063e+00 -4.389222e-01 -2.919927e-01 -4.675745e-01 -4.080153e-01 -6.863105e-01 4.178885e-01 -7.994190e-01 -7.216085e-01 -4.317992e-02 9.663384e-01 3.011039e-01 3.916081e-02 1.534463e-01 1.263506e-01 1.155862e-01 -2.037749e-01 -6.214163e-01 3.090801e-02 -3.418900e-01 -4.966589e-02 -5.611343e-03 -1.780622e-01 4.121470e-02
<VARIANCE> 39
 4.964608e+01 4.772237e+01 8.005115e+01 3.217738e+01 4.024081e+01 1.815014e+01 6.132528e+01 3.432729e+01 2.409723e+01 1.906409e+01 3.280571e+01 1.378403e+01 2.511514e+01 6.621107e+00 3.177542e+00 1.152593e+01 1.936971e+00 2.590606e+00 2.580557e+00 1.127947e+01 4.113058e+00 4.112546e+00 1.748635e+00 2.735609e+00 2.015795e+00 3.386190e+00 1.663431e+00 8.532962e-01 2.641558e+00 5.879785e-01 5.626951e-01 3.803819e-01 1.958107e+00 8.032523e-01 6.719934e-01 3.828059e-01 5.092303e-01 3.698761e-01 8.695109e-01
<GCONST> 1.303386e+02
<STATE> 3
<MEAN> 39
 -4.326180e+00 -5.952100e+00 1.419636e+01 -1.514521e+00 -1.550260e+00 -2.352423e+00 -1.355436e+01 -1.748282e-01 -6.390671e+00 -5.997318e+00 -4.591928e+00 -7.685342e+00 7.583281e+01 2.366286e+00 1.082786e+00 6.816719e-02 9.682592e-01 -4.887734e-02 -5.014203e-01 -2.224553e+00 1.706723e-01 -2.000329e+00 -1.324266e-02 4.282911e-01 -2.203467e-01 -5.496651e-01 -5.165030e-02 1.187477e-01 -3.173530e-01 -1.931351e-01 -6.862582e-02 1.205180e-01 1.623251e-01 2.237038e-01 -1.318010e-01 5.053961e-01 4.259782e-01 7.949463e-02 -5.941397e-02
<VARIANCE> 39
 5.522203e+01 5.355486e+01 2.550440e+01 3.667104e+01 1.324101e+01 1.796679e+01 2.346388e+01 1.872568e+01 4.057154e+01 2.259154e+01 1.756579e+01 1.195362e+01 1.254803e+01 1.741902e+00 1.705526e+00 1.663929e+00 1.053061e+00 1.167876e+00 9.686930e-01 2.369131e+00 1.260525e+00 4.304696e+00 2.052872e+00 1.660648e+00 1.972381e+00 3.114328e-01 6.444358e-01 4.713309e-01 3.185723e-01 3.679126e-01 1.535459e-01 1.596525e-01 3.690520e-01 4.132377e-01 6.796463e-01 3.664897e-01 4.559204e-01 3.258288e-01 1.807252e-01
<GCONST> 1.038985e+02
<STATE> 4
<MEAN> 39
 2.470549e+00 -1.109526e+00 1.414057e+01 -2.462888e+00 -2.683707e-01 -7.963877e-01 -2.070048e+01 1.700092e+00 -1.503035e+01 -3.687404e+00 -1.761708e+00 -8.283941e+00 7.444817e+01 2.915191e-01 -2.887807e-01 -4.673997e-01 -7.213327e-01 2.538681e-01 -5.738000e-01 -1.710701e+00 -9.739693e-02 -5.390049e-01 2.048581e+00 9.549948e-01 -6.805211e-02 3.341400e-01 -3.905445e-01 -2.562434e-01 -1.895641e-01 -4.160880e-01 2.140873e-01 -1.196598e-01 1.200129e-01 -5.210094e-01 6.510878e-01 2.988850e-01 5.354619e-02 3.087873e-01 1.658698e-01
<VARIANCE> 39
 2.556656e+00 2.382506e+01 4.893637e+01 3.258247e+01 1.475055e+01 1.785411e+01 3.581819e+01 1.237479e+01 8.885344e+00 2.591130e+01 1.456666e+01 2.500658e+01 1.028211e+01 1.214009e-01 9.283414e-01 6.162786e-01 4.725774e-01 6.350209e-01 8.721881e-01 1.346647e+00 2.124270e+00 1.606051e+00 1.161976e+00 8.096935e-01 1.419048e+00 3.386807e-01 9.595881e-02 2.049940e-01 2.014511e-01 8.229666e-02 7.689450e-02 1.497401e-01 2.477405e-01 2.630529e-01 2.017256e-01 2.616254e-01 1.540464e-01 1.964604e-01 4.935758e-02
<GCONST> 8.054824e+01
<TRANSP> 5
 0.000000e+00 1.000000e+00 0.000000e+00 0.000000e+00 0.000000e+00
 0.000000e+00 8.008021e-01 1.991979e-01 0.000000e+00 0.000000e+00
 0.000000e+00 0.000000e+00 6.739943e-01 3.260056e-01 0.000000e+00
 0.000000e+00 0.000000e+00 0.000000e+00 6.225908e-01 3.774092e-01
 0.000000e+00 0.000000e+00 0.000000e+00 0.000000e+00 0.000000e+00
<ENDHMM>
~h "z"
<BEGINHMM>
<NUMSTATES> 5
<STATE> 2
<MEAN> 39
 1.243263e+00 2.009342e+00 -3.600729e+00 -7.780252e+00 -2.124930e+00 2.943915e+00 -9.405266e+00 5.574683e-01 -8.480373e+00 -8.431195e-01 1.753790e+00 -3.834116e+00 6.933920e+01 6.608545e-03 -7.871487e-04 5.575932e-03 9.451325e-03 1.243685e-02 3.598967e-04 4.977515e-03 7.675061e-03 8.751670e-03 -1.601357e-04 -6.787761e-03 1.796699e-03 7.823239e-03 1.084905e-04 6.917859e-04 -1.452734e-03 -1.623669e-04 -1.531235e-03 -6.168764e-04 -1.016060e-04 5.717326e-04 -8.436721e-04 1.307740e-03 2.658077e-04 -1.178421e-04 -1.493792e-03
<VARIANCE> 39
 3.560448e+01 3.133138e+01 1.175854e+02 5.757076e+01 3.574751e+01 4.825400e+01 6.299704e+01 4.654386e+01 5.944289e+01 3.514179e+01 3.786765e+01 3.343571e+01 4.679148e+01 1.818672e+00 1.507933e+00 2.670334e+00 2.176207e+00 1.716306e+00 2.419825e+00 3.138164e+00 2.909526e+00 2.711722e+00 1.967625e+00 2.125080e+00 1.650968e+00 1.255564e+00 2.970746e-01 2.534214e-01 4.172046e-01 3.324886e-01 2.983715e-01 4.159752e-01 5.145366e-01 5.176500e-01 4.586368e-01 3.470287e-01 3.812441e-01 2.994810e-01 2.048787e-01
<GCONST> 1.175816e+02
<STATE> 3
<MEAN> 39
 1.243263e+00 2.009342e+00 -3.600729e+00 -7.780252e+00 -2.124930e+00 2.943915e+00 -9.405266e+00 5.574683e-01 -8.480373e+00 -8.431195e-01 1.753790e+00 -3.834116e+00 6.933920e+01 6.608545e-03 -7.871487e-04 5.575932e-03 9.451325e-03 1.243685e-02 3.598967e-04 4.977515e-03 7.675061e-03 8.751670e-03 -1.601357e-04 -6.787761e-03 1.796699e-03 7.823239e-03 1.084905e-04 6.917859e-04 -1.452734e-03 -1.623669e-04 -1.531235e-03 -6.168764e-04 -1.016060e-04 5.717326e-04 -8.436721e-04 1.307740e-03 2.658077e-04 -1.178421e-04 -1.493792e-03
<VARIANCE> 39
 3.560448e+01 3.133138e+01 1.175854e+02 5.757076e+01 3.574751e+01 4.825400e+01 6.299704e+01 4.654386e+01 5.944289e+01 3.514179e+01 3.786765e+01 3.343571e+01 4.679148e+01 1.818672e+00 1.507933e+00 2.670334e+00 2.176207e+00 1.716306e+00 2.419825e+00 3.138164e+00 2.909526e+00 2.711722e+00 1.967625e+00 2.125080e+00 1.650968e+00 1.255564e+00 2.970746e-01 2.534214e-01 4.172046e-01 3.324886e-01 2.983715e-01 4.159752e-01 5.145366e-01 5.176500e-01 4.586368e-01 3.470287e-01 3.812441e-01 2.994810e-01 2.048787e-01
<GCONST> 1.175816e+02
<STATE> 4
<MEAN> 39
 1.243263e+00 2.009342e+00 -3.600729e+00 -7.780252e+00 -2.124930e+00 2.943915e+00 -9.405266e+00 5.574683e-01 -8.480373e+00 -8.431195e-01 1.753790e+00 -3.834116e+00 6.933920e+01 6.608545e-03 -7.871487e-04 5.575932e-03 9.451325e-03 1.243685e-02 3.598967e-04 4.977515e-03 7.675061e-03 8.751670e-03 -1.601357e-04 -6.787761e-03 1.796699e-03 7.823239e-03 1.084905e-04 6.917859e-04 -1.452734e-03 -1.623669e-04 -1.531235e-03 -6.168764e-04 -1.016060e-04 5.717326e-04 -8.436721e-04 1.307740e-03 2.658077e-04 -1.178421e-04 -1.493792e-03
<VARIANCE> 39
 3.560448e+01 3.133138e+01 1.175854e+02 5.757076e+01 3.574751e+01 4.825400e+01 6.299704e+01 4.654386e+01 5.944289e+01 3.514179e+01 3.786765e+01 3.343571e+01 4.679148e+01 1.818672e+00 1.507933e+00 2.670334e+00 2.176207e+00 1.716306e+00 2.419825e+00 3.138164e+00 2.909526e+00 2.711722e+00 1.967625e+00 2.125080e+00 1.650968e+00 1.255564e+00 2.970746e-01 2.534214e-01 4.172046e-01 3.324886e-01 2.983715e-01 4.159752e-01 5.145366e-01 5.176500e-01 4.586368e-01 3.470287e-01 3.812441e-01 2.994810e-01 2.048787e-01
<GCONST> 1.175816e+02
<TRANSP> 5
 0.000000e+00 1.000000e+00 0.000000e+00 0.000000e+00 0.000000e+00
 0.000000e+00 6.000000e-01 4.000000e-01 0.000000e+00 0.000000e+00
 0.000000e+00 0.000000e+00 6.000000e-01 4.000000e-01 0.000000e+00
 0.000000e+00 0.000000e+00 0.000000e+00 7.000000e-01 3.000000e-01
 0.000000e+00 0.000000e+00 0.000000e+00 0.000000e+00 0.000000e+00
<ENDHMM>
~h "aa"
<BEGINHMM>
<NUMSTATES> 5
<STATE> 2
<MEAN> 39
 2.343217e+00 2.116237e+00 8.337463e+00 -1.804065e+01 -6.545305e+00 -4.171617e+00 -9.241016e+00 1.209656e+01 -1.074083e+01 5.889392e-01 5.295947e+00 -7.869569e+00 7.533469e+01 2.071452e-01 3.291146e-01 2.438974e-01 1.029520e-02 -4.160368e-01 2.546198e-01 3.704656e-02 5.511941e-01 -2.289594e-02 1.407199e-01 5.575046e-01 1.653364e-01 -2.934467e-01 -1.181584e-01 -1.345698e-01 -1.410295e-01 3.447988e-01 2.516952e-01 3.738225e-01 2.271405e-01 -3.002587e-01 1.142012e-01 -1.082859e-01 -1.324997e-01 1.878281e-01 -8.796061e-02
<VARIANCE> 39
 2.886778e+00 1.474358e+01 2.047486e+01 1.194333e+01 2.397561e+01 1.271649e+01 5.473777e+01 9.317643e+01 1.216534e+01 3.550499e+01 1.678235e+01 2.173299e+01 4.599555e+00 1.291815e-01 6.642148e-01 1.232929e+00 2.611178e+00 1.369999e+00 1.481785e+00 2.404720e+00 4.821966e+00 9.614816e-01 2.370829e+00 8.727019e-01 1.279376e+00 2.324439e-01 7.228007e-02 2.171902e-01 6.115596e-02 1.699941e-01 1.741691e-01 1.460869e-01 3.963087e-01 2.325482e-01 1.942611e-01 5.699051e-01 1.583730e-01 2.899320e-01 1.115770e-02
<GCONST> 8.547179e+01
<STATE> 3
<MEAN> 39
 3.311431e+00 3.818935e+00 3.233203e+00 -2.101141e+01 1.307436e+00 4.541552e+00 -1.448786e+01 3.999429e+00 -1.256368e+01 -1.600119e+00 1.073118e+01 -2.997608e+00 7.385758e+01 -3.475717e-02 2.601974e-01 -4.725628e-02 1.442166e-01 3.864730e-01 9.416894e-01 2.310347e-01 9.331333e-02 -2.561902e-01 -5.483130e-01 -9.612970e-02 4.205039e-01 -3.457389e-01 -6.279021e-02 2.846877e-03 1.340313e-02 1.433135e-01 -2.093937e-02 2.785744e-02 9.806053e-04 -3.982742e-02 4.618576e-02 1.683987e-02 -9.079668e-02 -4.510688e-02 -3.260632e-02
<VARIANCE> 39
 4.536529e+00 2.393761e+01 3.102234e+01 3.232888e+01 3.470971e+01 2.546671e+01 2.179618e+01 2.353180e+01 4.205725e+01 2.380885e+01 1.643402e+01 3.677596e+01 9.095491e+00 1.155902e-01 5.154542e-01 6.307157e-01 1.838371e+00 1.036823e+00 1.323013e+00 1.147632e+00 1.228967e+00 1.991522e+00 1.146249e+00 1.065040e+00 1.127445e+00 1.728895e-01 8.524173e-02 8.049261e-02 8.926185e-02 1.085461e-01 1.903390e-01 1.868418e-01 2.211097e-01 1.690415e-01 2.817992e-01 1.752332e-01 1.661750e-01 1.555883e-01 2.302643e-02
<GCONST> 8.238548e+01
<STATE> 4
<MEAN> 39
 -4.977658e+00 3.336072e-01 3.863517e+00 -1.197201e+01 -6.597175e-02 7.496519e+00 -6.994310e+00 4.228282e+00 -7.412110e+00 -1.603292e+00 4.014524e+00 -3.301211e+00 7.169050e+01 -1.177660e+00 -7.008506e-02 4.960784e-02 7.324120e-01 4.613945e-01 8.316860e-01 3.503802e-01 -2.218055e-01 8.657775e-01 -1.671675e-01 -3.124301e-01 1.076619e-01 -1.657261e-01 -1.562881e-01 -8.976254e-02 -3.207491e-02 -1.874373e-01 -7.577623e-02 -1.343494e-01 3.241970e-02 -8.392810e-03 1.675044e-01 5.203301e-02 -2.932703e-02 5.523151e-02 1.503063e-01
<VARIANCE> 39
 8.763840e+01 2.057123e+01 5.373844e+01 4.527941e+01 3.510906e+01 1.393950e+01 3.249094e+01 1.256057e+01 3.767088e+01 1.149688e+01 1.627200e+01 9.782918e+00 2.003518e+01 6.585156e+00 1.273022e+00 3.675161e+00 4.464368e+00 3.342741e+00 1.305010e+00 2.682972e+00 1.170260e+00 2.032151e+00 2.000704e+00 1.210983e+00 1.331379e+00 2.402558e+00 1.250074e+00 1.513184e-01 6.457245e-01 6.097487e-01 4.060023e-01 2.194243e-01 4.551014e-01 3.730669e-01 4.707691e-01 3.814269e-01 2.283442e-01 2.239967e-01 4.393342e-01
<GCONST> 1.113111e+02
<TRANSP> 5
 0.000000e+00 1.000000e+00 0.000000e+00 0.000000e+00 0.000000e+00
 0.000000e+00 7.680421e-01 2.319578e-01 0.000000e+00 0.000000e+00
 0.000000e+00 0.000000e+00 8.798203e-01 1.201797e-01 0.000000e+00
 0.000000e+00 0.000000e+00 0.000000e+00 5.706047e-01 4.293952e-01
 0.000000e+00 0.000000e+00 0.000000e+00 0.000000e+00 0.000000e+00
<ENDHMM>
~h "ae"
<BEGINHMM>
<NUMSTATES> 5
<STATE> 2
<MEAN> 39
 1.808965e+00 4.119390e+00 -3.055894e+00 -8.309771e+00 -1.141828e+00 1.135234e+01 -8.964641e+00 -1.334721e+00 -5.516963e+00 -5.509844e-01 -2.277047e-01 -3.580471e+00 6.797799e+01 1.421687e-01 -7.466408e-03 2.216596e-01 -3.515715e-01 -1.931534e-01 -6.073363e-01 -3.861847e-03 -2.287271e-02 -4.926788e-01 5.786572e-01 1.786054e-01 -8.953492e-02 2.517606e-01 -9.493729e-02 -1.576910e-01 1.387707e-01 3.147715e-02 3.365110e-02 -2.176928e-01 2.856278e-01 2.576564e-01 -1.959192e-01 1.055286e-01 8.759267e-02 -2.184638e-02 7.829719e-02
<VARIANCE> 39
 1.710081e+01 2.986757e+01 7.582276e+01 4.064450e+01 1.173397e+01 6.293493e+01 4.027074e+01 2.343421e+01 3.194989e+01 1.439118e+01 2.309554e+01 2.366395e+01 3.661643e+01 1.811027e+00 1.277150e+00 5.556709e+00 4.234158e+00 1.618478e+00 2.952114e+00 2.034175e+00 1.797454e+00 3.469666e+00 1.695960e+00 2.778418e+00 1.274630e+00 1.036495e+00 4.445912e-01 3.272076e-01 8.618734e-01 7.951105e-01 2.044813e-01 5.073048e-01 8.279017e-01 6.146068e-01 8.064376e-01 3.220440e-01 6.176581e-01 4.128699e-01 2.098540e-01
<GCONST> 1.158423e+02
<STATE> 3
<MEAN> 39
 1.520818e+00 -1.472287e+00 4.240607e+00 -1.427421e+01 -1.011411e+00 1.481120e+00 -1.207226e+01 -6.031931e-01 -1.503568e+01 2.659141e+00 5.253208e+00 -6.498782e+00 7.543028e+01 4.315674e-02 -5.286672e-01 3.748043e-01 -4.811772e-01 -4.088535e-01 -1.024678e+00 1.154447e-01 9.904028e-01 -2.783364e-01 6.419563e-01 1.215462e+00 -2.952058e-01 4.827434e-01 -6.921430e-02 1.156670e-01 -5.562307e-01 4.964337e-01 9.114423e-02 4.677899e-01 4.002310e-01 1.224631e-01 8.043173e-01 -3.371087e-01 -4.163868e-01 1.195240e-01 -3.153243e-01
<VARIANCE> 39
 2.258078e+00 6.378141e+01 6.289772e+01 2.268613e+01 2.007450e+01 2.967069e+01 5.823870e+01 5.432446e+01 2.295702e+01 3.131577e+01 3.089581e+01 3.283821e+01 2.019153e+01 8.145398e-01 2.400515e+00 3.227323e+00 6.078924e+00 1.402271e+00 2.847411e+00 2.986293e+00 2.553248e+00 4.358608e+00 1.605261e+00 3.877465e+00 2.541279e+00 2.780468e+00 1.510802e-01 3.427186e-01 4.637120e-01 5.432924e-01 3.442795e-01 4.027391e-01 6.478893e-01 7.899881e-01 3.866886e-01 3.564331e-01 6.622180e-01 4.908810e-01 2.450077e-01
<GCONST> 1.156868e+02
<STATE> 4
<MEAN> 39
 9.725080e-01 -1.232655e+00 2.784899e+00 -1.501039e+01 9.345481e-01 6.084113e-01 -1.125566e+01 3.209240e-01 -9.223758e+00 4.545135e+00 6.861718e+00 -8.553542e+00 7.688275e+01 4.909186e-02 2.320575e-02 -7.140438e-02 3.293023e-01 1.059602e-01 1.371181e-01 5.843391e-03 -1.144104e-02 1.559587e-01 1.666093e-01 -3.238463e-01 -1.629544e-02 -2.494672e-01 -1.499397e-02 3.860872e-02 3.934627e-02 1.692121e-01 2.475297e-02 1.343488e-01 6.993710e-02 -1.278906e-02 -9.208383e-02 -9.718229e-02 -7.477883e-02 1.964499e-02 -1.228570e-01
<VARIANCE> 39
 1.541740e+00 1.377678e+01 1.612730e+01 1.632789e+01 2.394429e+01 1.327278e+01 2.053060e+01 4.915533e+01 1.563884e+01 3.139504e+01 1.213646e+01 1.517892e+01 4.201499e+00 8.127582e-02 6.230184e-01 1.670245e+00 1.721469e+00 8.264307e-01 1.442152e+00 1.911652e+00 3.048099e+00 1.852378e+00 2.072799e+00 9.732240e-01 1.043964e+00 6.134525e-01 2.683013e-02 1.048157e-01 1.759485e-01 1.406865e-01 1.490172e-01 2.090464e-01 2.608198e-01 3.241500e-01 3.244503e-01 2.739200e-01 1.698048e-01 9.061930e-02 6.654112e-02
<GCONST> 8.189983e+01
<TRANSP> 5
 0.000000e+00 1.000000e+00 0.000000e+00 0.000000e+00 0.000000e+00
 0.000000e+00 7.030714e-01 2.969287e-01 0.000000e+00 0.000000e+00
 0.000000e+00 0.000000e+00 5.998619e-01 4.001381e-01 0.000000e+00
 0.000000e+00 0.000000e+00 0.000000e+00 8.026343e-01 1.973658e-01
 0.000000e+00 0.000000e+00 0.000000e+00 0.000000e+00 0.000000e+00
<ENDHMM>
~h "ah"
<BEGINHMM>
<NUMSTATES> 5
<STATE> 2
<MEAN> 39
 3.625094e+00 4.041398e+00 -8.749972e+00 -2.737782e+00 -3.236268e+00 5.283209e+00 -5.671172e+00 1.175050e+00 -7.677734e+00 -4.126577e-01 -5.436420e-01 -3.770825e+00 6.537204e+01 1.394034e-01 3.272149e-01 -1.060846e+00 4.408072e-01 -2.594047e-01 3.629857e-01 2.115439e-01 6.393397e-01 8.545058e-01 5.051119e-01 -2.039571e-01 1.372759e-01 -7.141827e-01 -2.379972e-01 -3.741487e-01 6.546407e-01 -5.166578e-01 2.955768e-02 -2.557605e-01 -3.857932e-01 -1.363346e-01 -2.562076e-01 9.792769e-03 5.900773e-01 -6.510910e-02 4.717462e-01
<VARIANCE> 39
 6.452671e+00 1.141592e+01 4.751897e+01 1.984780e+01 1.453964e+01 4.439158e+01 1.834381e+01 1.820637e+01 3.621104e+01 2.301760e+01 1.997937e+01 2.627569e+01 1.901477e+01 4.458072e-01 5.187441e-01 2.932485e+00 1.614774e+00 1.253937e+00 1.751287e+00 1.900545e+00 2.611044e+00 2.378949e+00 1.306392e+00 2.466832e+00 1.675592e+00 9.450867e-01 1.726230e-01 1.773764e-01 4.347399e-01 2.325091e-01 2.686130e-01 6.039560e-01 2.012781e-01 8.278608e-01 5.674621e-01 3.457708e-01 3.549444e-01 4.835051e-01 1.413938e-01
<GCONST> 1.012811e+02
<STATE> 3
<MEAN> 39
 3.685854e+00 4.777243e+00 -1.175168e+01 -3.751318e+00 -3.443276e+00 5.660665e+00 -6.278398e+00 1.808003e+00 -6.127191e+00 7.660512e-01 7.149541e-02 -3.148452e+00 6.370934e+01 -8.603746e-01 -1.133879e+00 2.029693e+00 -1.255713e+00 -2.419705e-01 -1.225853e-01 -8.124262e-01 4.002650e-01 -7.592272e-01 1.735820e-01 1.746325e+00 -6.069312e-01 9.888334e-01 -4.094277e-01 -6.828633e-01 1.211807e+00 -5.722176e-01 1.152153e-01 -5.441127e-01 -5.747247e-01 -3.914518e-01 -5.249499e-01 -1.502026e-01 5.154956e-01 -6.200746e-02 9.390186e-01
<VARIANCE> 39
 4.838475e+00 1.118893e+01 2.815593e+01 2.419491e+01 1.787685e+01 3.364856e+01 2.080933e+01 1.933220e+01 2.841994e+01 1.937209e+01 2.653159e+01 2.284798e+01 1.463038e+01 8.120607e-01 1.828785e+00 5.711569e+00 2.002124e+00 1.612419e+00 2.014937e+00 2.469936e+00 2.436933e+00 4.293744e+00 2.280675e+00 2.836174e+00 3.650957e+00 1.151512e+00 2.470555e-01 2.273787e-01 3.706668e-01 3.833017e-01 2.592255e-01 4.449828e-01 4.368432e-01 7.712972e-01 5.041440e-01 3.446711e-01 4.980959e-01 4.169582e-01 1.824957e-01
<GCONST> 1.074550e+02
<STATE> 4
<MEAN> 39
 1.252523e+00 -6.693154e-01 -4.608533e+00 -5.906570e+00 -4.006740e+00 4.160822e+00 -9.668986e+00 3.055123e+00 -9.796878e+00 1.094594e+00 4.873269e+00 -5.621137e+00 6.741183e+01 -6.718562e-01 -1.226470e+00 2.844598e+00 -1.300052e+00 1.933240e-01 -1.134398e+00 -1.848324e+00 -9.462369e-01 -1.139950e+00 -3.677756e-01 1.409320e+00 -2.585141e-01 2.288740e+00 3.000652e-02 1.746117e-01 2.895880e-02 2.490227e-02 2.484499e-01 -1.940427e-01 -1.121455e-01 -6.305287e-01 1.620737e-02 -2.429125e-01 -3.349602e-01 2.486739e-01 2.755368e-01
<VARIANCE> 39
 8.515800e+00 3.175879e+01 4.161070e+01 4.566545e+01 1.858719e+01 3.996264e+01 4.339426e+01 3.445984e+01 3.871904e+01 2.986637e+01 3.960542e+01 3.253800e+01 2.212370e+01 2.028923e+00 2.846967e+00 7.285700e+00 2.886038e+00 1.736688e+00 3.599813e+00 5.130285e+00 5.111007e+00 4.330085e+00 2.877048e+00 3.377050e+00 3.338829e+00 2.098034e+00 2.423737e-01 5.880187e-01 8.152869e-01 4.413050e-01 4.221491e-01 5.524557e-01 9.403527e-01 8.210920e-01 7.893888e-01 6.578956e-01 6.794705e-01 6.494449e-01 3.736944e-01
<GCONST> 1.245011e+02
<TRANSP> 5
 0.000000e+00 1.000000e+00 0.000000e+00 0.000000e+00 0.000000e+00
 0.000000e+00 5.080454e-01 4.919547e-01 0.000000e+00 0.000000e+00
 0.000000e+00 0.000000e+00 3.003556e-01 6.996444e-01 0.000000e+00
 0.000000e+00 0.000000e+00 0.000000e+00 4.863970e-01 5.136030e-01
 0.000000e+00 0.000000e+00 0.000000e+00 0.000000e+00 0.000000e+00
<ENDHMM>
~h "ao"
<BEGINHMM>
<NUMSTATES> 5
<STATE> 2
<MEAN> 39
 -2.616217e+00 1.814041e+00 6.720452e+00 -9.190527e+00 -2.581106e+00 2.449257e+00 -1.340788e+01 -1.598588e+00 -9.930755e+00 -6.814642e+00 -2.355217e+00 -4.419013e+00 7.392208e+01 2.277332e+00 -1.042851e-02 2.437899e-01 -1.443119e+00 -2.327887e+00 -2.987747e+00 -2.085681e+00 2.667660e-02 -1.294085e+00 -6.196615e-01 1.191497e+00 -8.482488e-01 6.432897e-01 2.488079e-01 1.569105e-01 -5.582228e-01 -4.110740e-01 -5.685037e-01 -5.675025e-01 3.126284e-01 2.392760e-01 -1.156313e-01 3.283382e-01 5.433501e-01 -4.458795e-01 9.825187e-02
<VARIANCE> 39
 6.129594e+01 1.834671e+01 4.210682e+01 1.135470e+01 2.493873e+01 6.995824e+01 5.411560e+01 5.188097e+01 2.345705e+01 1.338977e+01 3.089957e+01 2.665964e+01 1.293588e+01 6.868814e+00 1.846000e+00 2.631326e+00 1.637082e+00 1.649840e+00 3.696791e+00 2.453288e+00 1.314217e+01 3.330357e+00 1.677993e+00 2.888002e+00 4.040413e+00 1.495614e+00 4.444658e-01 1.172637e-01 4.999414e-01 6.133043e-01 3.631625e-01 8.510286e-01 4.437804e-01 1.299542e+00 3.036343e-01 4.903564e-01 4.739385e-01 5.260985e-01 1.661969e-01
<GCONST> 1.182130e+02
<STATE> 3
<MEAN> 39
 2.991136e+00 1.718102e+00 5.345232e+00 -1.521177e+01 -1.035817e+01 -6.115163e+00 -1.534890e+01 -6.368226e-01 -1.293468e+01 -5.901588e+00 3.627630e+00 -6.485612e+00 7.628261e+01 1.736691e+00 -2.609237e-01 -8.788480e-01 -1.968275e+00 -2.362527e+00 -2.033607e+00 -1.363271e-01 1.798695e+00 -9.914792e-01 1.928920e-01 2.243893e+00 -1.423396e+00 5.366579e-01 -7.337977e-01 -1.378360e-01 -2.136205e-01 2.321214e-01 5.833718e-01 8.297967e-01 8.906780e-01 3.273624e-01 3.907074e-01 2.331281e-01 -3.091891e-01 1.262722e-01 -1.216024e-01
<VARIANCE> 39
 8.834677e+00 1.329240e+01 2.040219e+01 1.392873e+01 1.868281e+01 2.679150e+01 2.551057e+01 1.180002e+02 2.509036e+01 3.534103e+01 2.102678e+01 5.613335e+01 5.787171e+00 3.728062e+00 1.327819e+00 6.804506e-01 2.053462e+00 1.678920e+00 4.015586e+00 3.492592e+00 8.906700e+00 2.799627e+00 3.712175e+00 2.902425e+00 2.812063e+00 7.594485e-01 4.167741e-01 1.956882e-01 1.948828e-01 2.178627e-01 3.172698e-01 4.532495e-01 2.511590e-01 1.248673e+00 5.301040e-01 3.904738e-01 4.681396e-01 6.048682e-01 1.560415e-01
<GCONST> 1.099210e+02
<STATE> 4
<MEAN> 39
 4.905528e+00 1.205151e+00 2.040094e+00 -1.707531e+01 -1.188505e+01 -6.783810e+00 -1.251211e+01 6.450385e+00 -1.549461e+01 -4.774666e+00 6.231716e+00 -1.046547e+01 7.570547e+01 6.007116e-02 -5.976950e-02 -1.452878e-01 3.097729e-01 1.948684e-01 2.715985e-01 -4.533670e-02 -4.222499e-01 -4.274908e-01 3.092007e-01 -1.579154e-02 -8.276481e-02 -1.649643e-01 -3.720390e-02 3.507261e-02 7.027216e-02 2.377843e-01 1.159749e-01 1.342342e-01 -5.866416e-02 -2.207750e-01 9.799145e-02 -1.120756e-02 -1.671245e-01 9.329651e-02 -7.592884e-02
<VARIANCE> 39
 4.590388e+00 1.352592e+01 1.555680e+01 2.733646e+01 4.781293e+01 4.262750e+01 2.870995e+01 8.540183e+01 3.822285e+01 3.755795e+01 1.649282e+01 3.003177e+01 4.085519e+00 2.831330e-01 8.951260e-01 5.600691e-01 1.430561e+00 1.915305e+00 1.619712e+00 1.750799e+00 2.978435e+00 1.998227e+00 1.987351e+00 1.563333e+00 1.670696e+00 2.348041e-01 5.250786e-02 1.150959e-01 8.668546e-02 1.573123e-01 3.543895e-01 2.686097e-01 2.926578e-01 3.972809e-01 3.093890e-01 3.176572e-01 3.723104e-01 2.799428e-01 4.496296e-02
<GCONST> 9.265376e+01
<TRANSP> 5
 0.000000e+00 1.000000e+00 0.000000e+00 0.000000e+00 0.000000e+00
 0.000000e+00 2.859420e-01 7.140579e-01 0.000000e+00 0.000000e+00
 0.000000e+00 0.000000e+00 5.261151e-01 4.738850e-01 0.000000e+00
 0.000000e+00 0.000000e+00 0.000000e+00 9.230572e-01 7.694283e-02
 0.000000e+00 0.000000e+00 0.000000e+00 0.000000e+00 0.000000e+00
<ENDHMM>
~h "aw"
<BEGINHMM>
<NUMSTATES> 5
<STATE> 2
<MEAN> 39
 -2.772749e+00 -1.047136e+00 -4.213277e+00 -1.152060e+01 -5.650486e+00 5.712404e+00 -5.358319e+00 -2.757371e+00 -5.058547e+00 -3.044524e+00 1.260871e+00 7.053679e-02 7.044084e+01 -1.160178e+00 -7.208283e-01 1.488824e+00 -1.736716e+00 -4.277946e-01 -1.357966e-01 7.704445e-01 -1.461304e-01 1.049029e+00 -3.045231e-01 1.569135e-01 5.758462e-01 1.152599e+00 9.279632e-03 6.977271e-03 3.277236e-01 1.824937e-01 1.539088e-01 -8.357472e-02 -2.662111e-02 1.003209e-01 -6.016884e-03 6.219972e-02 -7.138935e-02 -1.170794e-01 -2.256170e-02
<VARIANCE> 39
 2.278442e+01 1.734964e+01 4.793600e+01 6.306758e+01 5.372061e+01 1.941815e+01 5.288068e+01 2.630139e+01 1.817496e+01 1.175871e+01 1.991631e+01 3.092572e+01 3.400963e+01 1.160177e+00 1.027549e+00 2.713355e+00 4.644558e+00 2.638121e+00 2.393350e+00 3.427909e+00 4.081049e+00 2.049104e+00 1.062159e+00 1.150647e+00 2.593943e+00 2.919001e+00 3.736244e-01 2.168239e-01 4.626632e-01 1.185892e+00 3.884582e-01 4.603283e-01 8.852044e-01 1.018482e+00 4.525563e-01 2.407697e-01 2.669590e-01 5.484824e-01 9.243157e-01
<GCONST> 1.161510e+02
<STATE> 3
<MEAN> 39
 -1.350814e+00 4.339998e-01 6.694099e+00 -1.399721e+01 -1.018222e+01 1.906564e+00 -1.085757e+01 1.095064e+00 -5.534886e+00 -4.762269e+00 9.951627e-02 -3.972636e+00 7.202637e+01 1.496820e+00 1.331582e+00 5.674414e-01 -2.916218e-01 -1.241360e+00 -1.189998e+00 -2.174518e+00 7.955441e-01 -1.208265e+00 -4.388713e-01 3.367104e-01 -1.411236e+00 -9.942007e-02 4.035818e-02 -7.343103e-02 -2.178829e-01 -2.266912e-01 -1.804186e-01 -4.525343e-02 2.051045e-01 1.186152e-01 -1.988673e-01 7.428411e-02 2.267112e-01 -7.327086e-02 1.754031e-01
<VARIANCE> 39
 2.754314e+01 3.270003e+01 2.096553e+01 1.853084e+01 2.949536e+01 2.644480e+01 8.964317e+01 6.904747e+00 2.598128e+01 2.538215e+01 1.716471e+01 3.313121e+01 4.421907e+00 1.557577e+00 2.475338e+00 9.606296e-01 1.652017e+00 1.273686e+00 2.230879e+00 7.878652e+00 1.110376e+00 2.741175e+00 2.116185e+00 2.171040e+00 2.309040e+00 7.565047e-01 5.820532e-01 7.792543e-01 1.920293e-01 2.383867e-01 3.131534e-01 5.419568e-01 2.030120e+00 3.482773e-01 6.350332e-01 5.580953e-01 3.133321e-01 5.320305e-01 9.127620e-02
<GCONST> 1.087492e+02
<STATE> 4
<MEAN> 39
 4.299713e+00 3.129083e-02 4.453284e+00 -1.868641e+01 -1.146481e+01 -1.620046e+00 -1.429786e+01 8.497486e+00 -1.357058e+01 -5.500732e+00 7.268241e+00 -9.112024e+00 7.592146e+01 8.944014e-02 -2.055788e-01 -6.023861e-02 3.193963e-01 2.462794e-01 1.521922e-01 2.094506e-01 -2.538278e-01 -5.048569e-01 -2.128121e-01 8.190069e-02 3.625966e-01 4.325383e-02 -3.535628e-02 4.007336e-02 2.120474e-02 1.704608e-01 1.185172e-01 1.105457e-01 -4.446510e-03 -2.332296e-01 6.355864e-02 -5.048978e-02 -1.186909e-01 6.070299e-02 -7.670637e-02
<VARIANCE> 39
 2.691394e+00 1.429238e+01 1.813582e+01 2.506104e+01 4.380002e+01 2.024803e+01 4.401327e+01 3.206733e+01 2.225411e+01 3.156877e+01 1.237765e+01 4.053210e+01 4.240035e+00 1.739026e-01 9.337162e-01 6.374038e-01 1.233513e+00 1.076387e+00 1.252879e+00 2.353871e+00 2.912665e+00 1.605521e+00 1.576629e+00 1.028291e+00 1.779740e+00 2.568722e-01 3.935064e-02 9.767859e-02 7.463830e-02 1.117245e-01 1.867203e-01 2.081595e-01 4.822319e-01 2.337722e-01 3.252320e-01 3.441457e-01 1.674081e-01 2.965112e-01 1.778796e-02
<GCONST> 8.504266e+01
<TRANSP> 5
 0.000000e+00 1.000000e+00 0.000000e+00 0.000000e+00 0.000000e+00
 0.000000e+00 7.954838e-01 2.045162e-01 0.000000e+00 0.000000e+00
 0.000000e+00 0.000000e+00 8.287393e-01 1.712606e-01 0.000000e+00
 0.000000e+00 0.000000e+00 0.000000e+00 9.393744e-01 6.062566e-02
 0.000000e+00 0.000000e+00 0.000000e+00 0.000000e+00 0.000000e+00
<ENDHMM>
~h "ax"
<BEGINHMM>
<NUMSTATES> 5
<STATE> 2
<MEAN> 39
 4.034640e+00 3.886060e+00 -7.672845e+00 -2.093730e+00 -1.998563e+00 5.226019e+00 -8.083667e+00 -1.795291e+00 -1.029614e+01 -1.448557e+00 -1.424944e-01 -3.643980e+00 6.644582e+01 1.279530e-01 4.115604e-01 -8.144842e-02 1.033104e-01 7.159992e-02 3.327691e-01 3.228348e-01 5.666151e-01 1.009474e-01 -3.399743e-01 -4.586212e-01 -1.779804e-01 -2.471560e-01 -2.634506e-01 -2.669187e-01 4.720255e-01 -3.694049e-01 1.709629e-01 -2.660509e-01 -3.548425e-01 -1.367150e-01 -4.723973e-02 1.014263e-02 1.421054e-01 2.808766e-02 3.862461e-01
<VARIANCE> 39
 7.080072e+00 2.124136e+01 6.063345e+01 4.347643e+01 2.271497e+01 3.991737e+01 5.030239e+01 4.068641e+01 5.899026e+01 2.266900e+01 3.094640e+01 2.114853e+01 2.112131e+01 6.426816e-01 6.535794e-01 3.507634e+00 1.537554e+00 1.909656e+00 2.635444e+00 3.202137e+00 2.811615e+00 3.027879e+00 2.645314e+00 1.895551e+00 1.505799e+00 8.799168e-01 2.249167e-01 2.098550e-01 4.764864e-01 3.250555e-01 2.957608e-01 5.831381e-01 5.196999e-01 7.614111e-01 5.838965e-01 4.077052e-01 4.483925e-01 3.307129e-01 1.758454e-01
<GCONST> 1.106816e+02
<STATE> 3
<MEAN> 39
 4.783800e+00 4.973692e+00 -6.551309e+00 -2.417112e+00 -1.228712e+00 6.557638e+00 -8.835018e+00 -7.235732e-01 -9.358080e+00 -1.776381e+00 -2.282198e+00 -3.809714e+00 6.619512e+01 -3.137122e-01 -1.063390e-01 1.467375e+00 -5.352210e-01 6.707225e-01 -4.796843e-04 -7.404119e-01 1.436218e-01 -3.399091e-01 -5.513424e-01 -2.424374e-01 -1.455365e-01 6.613204e-01 -3.447642e-01 -4.010642e-01 5.504273e-01 -4.290475e-01 1.385425e-01 -5.578340e-01 -4.819414e-01 -4.150777e-01 -2.595030e-01 -9.651329e-03 4.419903e-01 1.078663e-01 5.408775e-01
<VARIANCE> 39
 4.456133e+00 2.235532e+01 6.250450e+01 4.491832e+01 2.848102e+01 4.236477e+01 3.622797e+01 4.152423e+01 6.063205e+01 2.629657e+01 3.891766e+01 2.432977e+01 2.119173e+01 7.419767e-01 1.055215e+00 4.389456e+00 2.188004e+00 1.623858e+00 3.325864e+00 3.927503e+00 3.668016e+00 2.936959e+00 1.991689e+00 2.429188e+00 2.023621e+00 8.015047e-01 1.476956e-01 2.686700e-01 6.274853e-01 3.111701e-01 4.259253e-01 6.725473e-01 7.418106e-01 9.855136e-01 6.801634e-01 5.042893e-01 5.209708e-01 4.671967e-01 2.387867e-01
<GCONST> 1.150815e+02
<STATE> 4
<MEAN> 39
 2.399911e+00 2.262647e+00 -4.911558e-01 -7.280541e+00 1.544890e+00 3.233381e+00 -1.455323e+01 -4.652876e+00 -1.362388e+01 -3.110624e+00 1.557626e-01 -3.364338e+00 7.148077e+01 -5.929961e-01 -8.946482e-01 1.685511e+00 -7.533642e-01 2.656821e-01 -1.676708e+00 -1.168159e+00 -1.429261e+00 -8.950800e-01 3.541676e-02 7.784984e-01 -3.148828e-02 1.558329e+00 5.515937e-02 6.382121e-03 -1.244349e-01 5.022090e-02 -9.554340e-02 -7.676907e-02 1.480167e-01 -5.821650e-02 4.861396e-02 1.485894e-01 1.604615e-01 -8.754522e-02 -2.671160e-02
<VARIANCE> 39
 1.104086e+01 2.089119e+01 6.269482e+01 5.844912e+01 4.297848e+01 6.718886e+01 8.486235e+01 5.522919e+01 5.348247e+01 4.628098e+01 4.902652e+01 3.113340e+01 3.056261e+01 1.442902e+00 2.026518e+00 5.235388e+00 3.436673e+00 3.478502e+00 5.176379e+00 7.963685e+00 5.993362e+00 4.403392e+00 3.075728e+00 3.253037e+00 1.917640e+00 1.980201e+00 3.254350e-01 4.011959e-01 7.595689e-01 5.962180e-01 5.355356e-01 1.030889e+00 1.402042e+00 1.188887e+00 7.518078e-01 5.888859e-01 6.893430e-01 3.259051e-01 4.260149e-01
<GCONST> 1.300764e+02
<TRANSP> 5
 0.000000e+00 1.000000e+00 0.000000e+00 0.000000e+00 0.000000e+00
 0.000000e+00 2.738428e-01 7.261572e-01 0.000000e+00 0.000000e+00
 0.000000e+00 0.000000e+00 2.373931e-01 7.626070e-01 0.000000e+00
 0.000000e+00 0.000000e+00 0.000000e+00 6.194533e-01 3.805467e-01
 0.000000e+00 0.000000e+00 0.000000e+00 0.000000e+00 0.000000e+00
<ENDHMM>
~h "ay"
<BEGINHMM>
<NUMSTATES> 5
<STATE> 2
<MEAN> 39
 2.689668e+00 -2.529388e+00 1.957545e+00 -1.736723e+01 -1.509379e+00 -3.044474e+00 -1.683381e+01 -1.592067e+00 -1.101975e+01 4.955148e+00 7.934094e+00 -9.845025e+00 7.796476e+01 5.182127e-02 -3.569046e-01 -1.353920e-02 5.599923e-01 2.763994e-01 -4.142883e-01 -1.282072e-01 -2.854959e-01 -2.407359e-02 7.334807e-01 -4.322653e-01 1.897105e-02 -9.121526e-03 -5.645264e-02 7.728709e-02 6.022072e-02 1.182258e-01 8.399469e-02 -1.167241e-02 -1.131444e-01 -9.575931e-02 -7.424619e-02 -1.333934e-01 -8.156481e-02 1.575654e-01 -6.051812e-02
<VARIANCE> 39
 1.009377e+01 3.385131e+01 1.057671e+01 2.051451e+01 1.463588e+01 2.344073e+01 2.269045e+01 3.202258e+01 2.373408e+01 2.997087e+01 2.188267e+01 2.540800e+01 5.702040e+00 1.651252e-01 5.912257e-01 6.736284e-01 7.985625e-01 7.510532e-01 7.022447e-01 1.387599e+00 1.411613e+00 1.112493e+00 1.227648e+00 1.001102e+00 1.169790e+00 4.845549e-02 5.029111e-02 9.408753e-02 7.600482e-02 9.552345e-02 1.333807e-01 1.499955e-01 2.181635e-01 1.864997e-01 2.561028e-01 2.143449e-01 2.456584e-01 1.669753e-01 1.867227e-02
<GCONST> 7.700529e+01
<STATE> 3
<MEAN> 39
 1.036951e+00 -4.482304e+00 3.077415e+00 -1.407328e+01 1.225730e+00 -4.414705e+00 -1.885953e+01 -5.190451e+00 -1.191289e+01 6.506885e+00 5.139564e+00 -6.170855e+00 7.784167e+01 -1.829408e-02 -4.767859e-02 6.634715e-01 1.168154e+00 -9.219667e-03 -1.029436e-01 -5.954018e-01 -4.286071e-01 -8.487706e-01 -3.147985e-01 -1.052705e-01 3.857939e-01 -2.548182e-01 4.302143e-02 3.146673e-01 -9.489165e-02 5.427833e-02 -3.870438e-02 2.752680e-01 8.117318e-02 2.382094e-01 -3.773762e-02 -2.887534e-01 3.880370e-02 -1.642778e-01 -2.537669e-01
<VARIANCE> 39
 3.981211e+01 2.533138e+01 2.575456e+01 2.536793e+01 1.704291e+01 3.674095e+01 5.814365e+01 2.086875e+01 5.519504e+01 4.410519e+01 2.067595e+01 1.714239e+01 5.455438e+00 1.851996e-01 5.146457e-01 9.692605e-01 5.139914e-01 9.318711e-01 8.353190e-01 1.799009e+00 9.020750e-01 1.166953e+00 2.414980e+00 1.873059e+00 1.393174e+00 7.709306e-02 4.014585e-02 8.571228e-02 1.259925e-01 1.805932e-01 1.620247e-01 2.501765e-01 2.869174e-01 1.817009e-01 3.450287e-01 2.483938e-01 3.145424e-01 1.522162e-01 4.910934e-02
<GCONST> 8.647545e+01
<STATE> 4
<MEAN> 39
 -2.969033e+00 -5.377064e+00 4.247571e+00 -1.366216e+01 6.253605e-01 -6.118132e-01 -1.592430e+01 -5.652880e+00 -8.681392e+00 3.298917e+00 3.955288e+00 -4.042547e+00 7.605904e+01 3.667559e-01 1.815519e-01 2.052257e-01 6.711271e-01 4.684803e-02 3.152613e-01 -4.903162e-01 -1.020869e-01 -7.773493e-01 -6.320428e-01 -2.320441e-01 6.511834e-03 -5.809616e-01 7.829338e-02 3.131514e-01 -2.489710e-01 -3.206628e-02 -2.426942e-02 3.897988e-01 3.238379e-01 3.660923e-01 1.031400e-01 -2.493740e-01 -2.969171e-01 -1.240207e-01 -2.568700e-01
<VARIANCE> 39
 7.814197e+01 2.373579e+01 4.829504e+01 3.269978e+01 1.032729e+01 5.617548e+01 9.646494e+01 2.325245e+01 1.350731e+02 4.644909e+01 2.257596e+01 2.143527e+01 6.994695e+00 3.936633e-01 4.832352e-01 6.095827e-01 1.014470e+00 6.951743e-01 1.413188e+00 1.424925e+00 1.079275e+00 1.508699e+00 2.805085e+00 2.143244e+00 1.016612e+00 1.658594e-01 8.245640e-02 9.674044e-02 1.784408e-01 2.011275e-01 1.263087e-01 1.286166e-01 4.369911e-01 1.372597e-01 4.360012e-01 3.617251e-01 4.013367e-01 1.555658e-01 6.871328e-02
<GCONST> 9.382431e+01
<TRANSP> 5
 0.000000e+00 1.000000e+00 0.000000e+00 0.000000e+00 0.000000e+00
 0.000000e+00 8.842452e-01 1.157548e-01 0.000000e+00 0.000000e+00
 0.000000e+00 0.000000e+00 1.764131e-01 8.235869e-01 0.000000e+00
 0.000000e+00 0.000000e+00 0.000000e+00 4.911092e-01 5.088908e-01
 0.000000e+00 0.000000e+00 0.000000e+00 0.000000e+00 0.000000e+00
<ENDHMM>
~h "ch"
<BEGINHMM>
<NUMSTATES> 5
<STATE> 2
<MEAN> 39
 -7.698916e+00 -2.211222e+00 2.109358e+00 -8.401653e+00 6.709640e-01 6.281902e-01 -8.868906e+00 3.515780e+00 1.975851e-01 -3.365708e+00 -1.054384e+00 -3.459171e+00 7.249024e+01 -2.170501e+00 -1.123924e+00 2.094081e+00 -7.114025e-01 -8.472867e-02 -1.443894e+00 -4.783433e-01 -1.826985e-01 4.867203e-01 -1.095075e+00 -7.348676e-02 2.424012e-01 1.702393e+00 1.844106e-01 -1.101914e-01 4.680512e-01 2.255676e-01 7.797101e-02 1.260902e-01 -4.942617e-01 -2.287526e-01 -5.369321e-01 -9.990194e-02 -1.465923e-01 -2.065748e-01 1.264339e-01
<VARIANCE> 39
 6.129787e+01 3.841058e+01 6.028007e+01 6.905222e+01 3.026650e+01 3.797629e+01 4.486899e+01 1.105264e+01 5.351121e+01 2.157050e+01 2.488344e+01 3.415626e+01 2.705323e+01 1.021894e+01 3.697872e+00 4.101057e+00 5.719310e+00 1.450251e+00 4.456828e+00 3.531883e+00 1.196705e+00 7.364923e+00 1.636841e+00 2.707422e+00 3.405192e+00 3.474961e+00 1.954215e+00 7.151755e-01 1.166434e+00 1.240266e+00 4.340891e-01 1.371095e+00 5.796089e-01 2.272186e-01 1.085432e+00 3.480224e-01 5.517767e-01 5.406530e-01 1.025485e+00
<GCONST> 1.301738e+02
<STATE> 3
<MEAN> 39
 -6.178880e+00 -5.102118e+00 1.174942e+01 -6.880741e+00 -1.238204e+00 -1.143712e+00 -1.390408e+01 6.161125e-01 -7.375269e+00 -5.554593e+00 -5.098286e+00 -6.941475e+00 7.487297e+01 -3.386220e-01 -6.048049e-01 2.607110e-02 6.513427e-01 -1.220714e-01 -1.398782e-01 3.612962e-01 7.495913e-02 7.926401e-02 1.615071e-01 1.374852e-01 -5.681049e-02 1.895523e-01 5.643250e-02 -1.036083e-02 -1.838451e-01 1.602620e-02 1.101267e-01 2.684499e-02 7.303574e-03 -9.064861e-03 1.539050e-01 1.144672e-01 2.415579e-02 4.421163e-02 -6.230595e-02
<VARIANCE> 39
 5.563810e+01 2.173959e+01 3.931705e+01 2.797312e+01 3.621847e+01 3.159829e+01 8.940137e+01 3.334617e+01 3.278293e+01 1.908883e+01 1.958380e+01 1.952003e+01 1.204291e+01 4.285582e+00 1.558138e+00 2.086805e+00 2.108391e+00 1.908248e+00 4.715475e+00 5.825421e+00 2.811758e+00 3.203634e+00 1.447747e+00 2.123729e+00 1.286247e+00 1.496568e+00 8.551648e-01 2.432391e-01 4.466644e-01 3.896312e-01 3.145606e-01 9.711733e-01 8.012216e-01 5.440524e-01 4.055563e-01 2.995378e-01 4.158921e-01 1.549850e-01 3.432356e-01
<GCONST> 1.157563e+02
<STATE> 4
<MEAN> 39
 -4.005224e+00 -8.225348e+00 3.133085e+00 -1.872483e-01 9.759852e-01 -5.510412e+00 -1.377101e+01 -6.337804e+00 -9.549791e+00 -5.048240e-01 -5.280283e-01 -4.444495e+00 7.610796e+01 2.094655e+00 1.191541e+00 -7.929162e-01 -8.196306e-02 6.130544e-01 3.870268e-01 -1.182308e+00 -1.217009e+00 -1.951027e+00 5.549827e-01 1.957548e-01 -3.574236e-01 -6.183552e-01 5.907578e-02 1.582607e-01 -6.556122e-02 -4.223219e-02 -1.429155e-01 1.100818e-01 2.447579e-01 1.329418e-01 -1.788638e-01 6.198772e-02 9.546792e-02 -6.986452e-02 -9.520297e-02
<VARIANCE> 39
 7.281532e+01 6.122092e+01 2.533641e+01 3.440415e+01 2.720488e+01 1.554025e+01 4.674252e+01 6.956709e+01 9.729284e+01 1.876397e+01 1.531171e+01 1.099907e+01 1.234298e+01 2.578541e+00 2.573837e+00 1.474312e+00 1.192851e+00 9.646239e-01 2.356780e+00 4.011530e+00 4.934855e+00 5.184510e+00 2.328368e+00 2.412282e+00 1.528773e+00 6.724292e-01 7.567292e-01 7.491973e-01 2.943959e-01 2.571409e-01 1.904812e-01 4.330596e-01 4.936819e-01 7.258219e-01 1.029977e+00 4.083002e-01 5.296871e-01 2.139917e-01 2.067935e-01
<GCONST> 1.145066e+02
<TRANSP> 5
 0.000000e+00 1.000000e+00 0.000000e+00 0.000000e+00 0.000000e+00
 0.000000e+00 7.751408e-01 2.248593e-01 0.000000e+00 0.000000e+00
 0.000000e+00 0.000000e+00 9.097934e-01 9.020665e-02 0.000000e+00
 0.000000e+00 0.000000e+00 0.000000e+00 8.712363e-01 1.287637e-01
 0.000000e+00 0.000000e+00 0.000000e+00 0.000000e+00 0.000000e+00
<ENDHMM>
~h "dh"
<BEGINHMM>
<NUMSTATES> 5
<STATE> 2
<MEAN> 39
 -9.383509e-01 3.588994e+00 -8.491553e+00 -8.397847e+00 -3.010228e+00 5.487398e+00 -3.771547e+00 2.152422e+00 -3.682034e+00 2.691813e-01 6.689187e-01 -6.585334e-01 6.414152e+01 -2.602908e-02 -1.016866e-01 1.305717e-01 1.942095e-03 -8.029282e-02 -3.057820e-02 -1.013129e-01 2.984562e-02 -1.542508e-01 -1.917901e-01 -2.181155e-01 5.542762e-03 -1.160911e-02 1.933381e-01 1.494898e-01 -1.494700e-01 2.251154e-01 5.761793e-02 8.467578e-02 -1.062017e-01 -1.193254e-01 -1.139372e-01 -4.229542e-02 -1.822845e-01 -4.576844e-02 -7.723417e-02
<VARIANCE> 39
 2.107042e+01 1.722175e+01 5.742250e+01 3.570007e+01 1.947337e+01 2.064824e+01 2.668387e+01 2.851712e+01 1.993420e+01 3.266550e+01 2.918030e+01 1.561148e+01 1.479013e+01 2.110067e+00 1.733409e+00 5.701579e+00 2.490953e+00 2.033209e+00 2.061524e+00 2.766938e+00 3.229125e+00 1.566912e+00 3.163390e+00 2.436141e+00 1.066595e+00 1.563339e+00 3.437947e-01 3.225726e-01 8.700790e-01 3.286362e-01 4.049794e-01 4.391043e-01 5.799566e-01 7.250597e-01 3.946840e-01 6.414049e-01 4.463236e-01 3.148500e-01 2.291785e-01
<GCONST> 1.128443e+02
<STATE> 3
<MEAN> 39
 2.867492e+00 5.268246e+00 -1.259996e+01 -3.870931e+00 -2.973056e+00 7.324937e+00 -5.444811e+00 1.172346e+00 -5.684582e+00 -8.678080e-02 -1.261609e+00 -8.172007e-01 6.264402e+01 4.356074e-01 5.859770e-01 -1.982487e-01 5.478533e-01 5.257458e-01 2.507019e-01 -4.720218e-01 -3.723021e-01 -4.604609e-01 -8.649265e-01 -8.544205e-01 -4.262512e-01 -2.067558e-01 -1.143953e-01 -6.629516e-02 4.732174e-01 -1.657579e-01 1.851937e-01 -5.775819e-02 -3.516598e-02 -6.342707e-03 -9.692331e-02 -1.280386e-01 -1.024285e-03 -1.670561e-01 2.498460e-01
<VARIANCE> 39
 3.725074e+00 5.795043e+00 4.090290e+01 1.863969e+01 1.392197e+01 2.101392e+01 2.252634e+01 1.543542e+01 1.272773e+01 1.865751e+01 1.459477e+01 1.111535e+01 1.150101e+01 2.363863e-01 5.230024e-01 3.512578e+00 7.199991e-01 8.710558e-01 1.209669e+00 1.604411e+00 2.060780e+00 1.629039e+00 2.423630e+00 1.640069e+00 1.441221e+00 7.390925e-01 1.166464e-01 1.188370e-01 2.497812e-01 1.449392e-01 2.104090e-01 4.064562e-01 1.738397e-01 2.123862e-01 2.393260e-01 2.231344e-01 2.358729e-01 3.041592e-01 4.638124e-02
<GCONST> 8.594333e+01
<STATE> 4
<MEAN> 39
 1.489014e+00 2.224565e-01 -1.419283e+01 -3.659496e-01 -4.957628e+00 5.023235e+00 -2.984732e+00 1.657447e+00 -5.594697e+00 2.790684e+00 4.279080e-01 -1.279581e+00 6.277429e+01 4.579869e-02 8.453076e-02 4.679039e-02 6.616126e-02 6.503753e-02 6.300060e-02 2.635021e-02 -1.072779e-02 -4.014424e-02 -1.491188e-01 -4.591937e-02 -8.946427e-02 2.218670e-02 -1.524714e-02 9.405642e-03 1.040535e-01 -7.204225e-02 3.086763e-02 -7.062003e-04 -3.502217e-02 2.573482e-03 -3.865518e-02 -1.981813e-02 2.765455e-02 -1.444040e-02 4.905451e-02
<VARIANCE> 39
 2.645836e+00 3.235263e+01 1.974862e+01 2.466003e+01 1.178604e+01 1.225912e+01 1.527973e+01 1.404415e+01 1.274310e+01 1.086672e+01 1.650137e+01 8.743724e+00 5.964524e+00 1.988676e-01 7.224135e-01 1.164179e+00 7.504389e-01 1.005735e+00 9.359409e-01 1.020019e+00 1.455750e+00 1.240320e+00 1.218350e+00 1.067557e+00 9.116967e-01 2.318558e-01 3.907415e-02 7.248838e-02 1.549973e-01 1.192098e-01 1.814390e-01 1.628968e-01 1.971744e-01 3.371015e-01 2.127070e-01 1.847884e-01 1.802203e-01 1.516729e-01 4.485415e-02
<GCONST> 7.549836e+01
<TRANSP> 5
 0.000000e+00 1.000000e+00 0.000000e+00 0.000000e+00 0.000000e+00
 0.000000e+00 5.801020e-01 4.198980e-01 0.000000e+00 0.000000e+00
 0.000000e+00 0.000000e+00 2.968093e-01 7.031907e-01 0.000000e+00
 0.000000e+00 0.000000e+00 0.000000e+00 8.404568e-01 1.595432e-01
 0.000000e+00 0.000000e+00 0.000000e+00 0.000000e+00 0.000000e+00
<ENDHMM>
~h "ea"
<BEGINHMM>
<NUMSTATES> 5
<STATE> 2
<MEAN> 39
 1.243263e+00 2.009342e+00 -3.600729e+00 -7.780252e+00 -2.124930e+00 2.943915e+00 -9.405266e+00 5.574683e-01 -8.480373e+00 -8.431195e-01 1.753790e+00 -3.834116e+00 6.933920e+01 6.608545e-03 -7.871487e-04 5.575932e-03 9.451325e-03 1.243685e-02 3.598967e-04 4.977515e-03 7.675061e-03 8.751670e-03 -1.601357e-04 -6.787761e-03 1.796699e-03 7.823239e-03 1.084905e-04 6.917859e-04 -1.452734e-03 -1.623669e-04 -1.531235e-03 -6.168764e-04 -1.016060e-04 5.717326e-04 -8.436721e-04 1.307740e-03 2.658077e-04 -1.178421e-04 -1.493792e-03
<VARIANCE> 39
 3.560448e+01 3.133138e+01 1.175854e+02 5.757076e+01 3.574751e+01 4.825400e+01 6.299704e+01 4.654386e+01 5.944289e+01 3.514179e+01 3.786765e+01 3.343571e+01 4.679148e+01 1.818672e+00 1.507933e+00 2.670334e+00 2.176207e+00 1.716306e+00 2.419825e+00 3.138164e+00 2.909526e+00 2.711722e+00 1.967625e+00 2.125080e+00 1.650968e+00 1.255564e+00 2.970746e-01 2.534214e-01 4.172046e-01 3.324886e-01 2.983715e-01 4.159752e-01 5.145366e-01 5.176500e-01 4.586368e-01 3.470287e-01 3.812441e-01 2.994810e-01 2.048787e-01
<GCONST> 1.175816e+02
<STATE> 3
<MEAN> 39
 1.243263e+00 2.009342e+00 -3.600729e+00 -7.780252e+00 -2.124930e+00 2.943915e+00 -9.405266e+00 5.574683e-01 -8.480373e+00 -8.431195e-01 1.753790e+00 -3.834116e+00 6.933920e+01 6.608545e-03 -7.871487e-04 5.575932e-03 9.451325e-03 1.243685e-02 3.598967e-04 4.977515e-03 7.675061e-03 8.751670e-03 -1.601357e-04 -6.787761e-03 1.796699e-03 7.823239e-03 1.084905e-04 6.917859e-04 -1.452734e-03 -1.623669e-04 -1.531235e-03 -6.168764e-04 -1.016060e-04 5.717326e-04 -8.436721e-04 1.307740e-03 2.658077e-04 -1.178421e-04 -1.493792e-03
<VARIANCE> 39
 3.560448e+01 3.133138e+01 1.175854e+02 5.757076e+01 3.574751e+01 4.825400e+01 6.299704e+01 4.654386e+01 5.944289e+01 3.514179e+01 3.786765e+01 3.343571e+01 4.679148e+01 1.818672e+00 1.507933e+00 2.670334e+00 2.176207e+00 1.716306e+00 2.419825e+00 3.138164e+00 2.909526e+00 2.711722e+00 1.967625e+00 2.125080e+00 1.650968e+00 1.255564e+00 2.970746e-01 2.534214e-01 4.172046e-01 3.324886e-01 2.983715e-01 4.159752e-01 5.145366e-01 5.176500e-01 4.586368e-01 3.470287e-01 3.812441e-01 2.994810e-01 2.048787e-01
<GCONST> 1.175816e+02
<STATE> 4
<MEAN> 39
 1.243263e+00 2.009342e+00 -3.600729e+00 -7.780252e+00 -2.124930e+00 2.943915e+00 -9.405266e+00 5.574683e-01 -8.480373e+00 -8.431195e-01 1.753790e+00 -3.834116e+00 6.933920e+01 6.608545e-03 -7.871487e-04 5.575932e-03 9.451325e-03 1.243685e-02 3.598967e-04 4.977515e-03 7.675061e-03 8.751670e-03 -1.601357e-04 -6.787761e-03 1.796699e-03 7.823239e-03 1.084905e-04 6.917859e-04 -1.452734e-03 -1.623669e-04 -1.531235e-03 -6.168764e-04 -1.016060e-04 5.717326e-04 -8.436721e-04 1.307740e-03 2.658077e-04 -1.178421e-04 -1.493792e-03
<VARIANCE> 39
 3.560448e+01 3.133138e+01 1.175854e+02 5.757076e+01 3.574751e+01 4.825400e+01 6.299704e+01 4.654386e+01 5.944289e+01 3.514179e+01 3.786765e+01 3.343571e+01 4.679148e+01 1.818672e+00 1.507933e+00 2.670334e+00 2.176207e+00 1.716306e+00 2.419825e+00 3.138164e+00 2.909526e+00 2.711722e+00 1.967625e+00 2.125080e+00 1.650968e+00 1.255564e+00 2.970746e-01 2.534214e-01 4.172046e-01 3.324886e-01 2.983715e-01 4.159752e-01 5.145366e-01 5.176500e-01 4.586368e-01 3.470287e-01 3.812441e-01 2.994810e-01 2.048787e-01
<GCONST> 1.175816e+02
<TRANSP> 5
 0.000000e+00 1.000000e+00 0.000000e+00 0.000000e+00 0.000000e+00
 0.000000e+00 6.000000e-01 4.000000e-01 0.000000e+00 0.000000e+00
 0.000000e+00 0.000000e+00 6.000000e-01 4.000000e-01 0.000000e+00
 0.000000e+00 0.000000e+00 0.000000e+00 7.000000e-01 3.000000e-01
 0.000000e+00 0.000000e+00 0.000000e+00 0.000000e+00 0.000000e+00
<ENDHMM>
~h "eh"
<BEGINHMM>
<NUMSTATES> 5
<STATE> 2
<MEAN> 39
 9.416049e-01 -1.822634e+00 3.687061e+00 -8.996222e+00 -2.499843e+00 -3.262406e+00 -1.195273e+01 -2.477950e-01 -1.861369e+01 1.578607e+00 5.245602e+00 -8.816559e+00 7.459003e+01 -1.776813e-01 -5.657781e-01 7.339374e-01 -9.951305e-02 1.097152e+00 -6.736721e-01 -1.412948e+00 -5.792415e-01 -4.425184e-01 7.928111e-01 7.856767e-01 -1.298713e-01 5.895443e-01 7.692076e-02 1.244516e-01 -2.035336e-02 2.529750e-01 9.416217e-02 1.755252e-01 -1.294920e-01 -1.383904e-01 3.461589e-01 -2.868803e-01 -1.839759e-01 4.084593e-02 -1.468746e-01
<VARIANCE> 39
 1.118620e+01 2.632747e+01 6.269862e+01 3.059888e+01 4.500322e+01 2.292484e+01 1.157645e+02 3.813241e+01 5.138779e+01 4.024520e+01 3.100563e+01 2.668329e+01 9.066195e+00 1.396466e+00 2.705406e+00 1.759440e+00 2.671537e+00 2.287511e+00 3.469068e+00 2.536242e+00 3.568363e+00 3.901950e+00 2.010860e+00 3.427008e+00 2.889454e+00 8.795514e-01 2.813106e-01 6.118455e-01 2.365157e-01 2.388488e-01 3.541392e-01 7.762255e-01 7.415257e-01 5.207217e-01 8.004282e-01 5.402645e-01 4.419267e-01 5.496876e-01 2.296844e-01
<GCONST> 1.175854e+02
<STATE> 3
<MEAN> 39
 1.764733e+00 -3.709836e+00 6.053482e+00 -1.050585e+01 8.376796e-01 -5.368662e+00 -1.940004e+01 1.039710e+00 -1.462513e+01 2.223414e+00 8.986349e+00 -9.618061e+00 7.692943e+01 3.274022e-02 -8.589923e-02 1.747656e-01 5.297057e-01 5.739476e-01 -4.422107e-01 -9.276380e-01 -1.344401e-01 4.530295e-01 -1.129903e-01 1.587838e-01 1.481021e-01 5.445226e-02 8.759568e-02 4.587795e-01 -1.304883e-01 2.235993e-01 -3.085239e-01 6.037002e-01 6.858029e-01 -6.195397e-02 3.916227e-02 -3.999936e-01 -4.780480e-01 9.373149e-02 -3.694548e-01
<VARIANCE> 39
 4.619362e+00 1.846501e+01 4.639893e+01 3.233520e+01 3.491973e+01 1.822547e+01 6.359132e+01 3.528461e+01 2.952192e+01 2.630903e+01 3.465667e+01 4.190328e+01 2.718434e+00 4.373568e-01 1.177748e+00 1.737503e+00 4.335926e+00 1.666929e+00 3.503406e+00 2.144624e+00 3.045396e+00 1.930714e+00 3.011435e+00 3.734897e+00 1.211656e+00 1.555330e+00 6.111965e-02 1.034359e-01 2.701967e-01 2.380375e-01 1.703635e-01 4.202537e-01 5.298999e-01 5.270368e-01 5.465217e-01 3.757480e-01 3.460669e-01 2.514696e-01 9.083918e-02
<GCONST> 1.031104e+02
<STATE> 4
<MEAN> 39
 6.608579e-01 -2.144445e+00 1.077950e+01 -8.398520e+00 3.012816e+00 -5.378431e+00 -2.376037e+01 5.293182e-01 -1.389907e+01 -9.320975e-01 3.040387e+00 -8.540296e+00 7.616196e+01 -5.084914e-02 5.920790e-01 -6.100249e-02 5.926559e-02 -4.589626e-02 7.377738e-01 7.284511e-01 1.222949e-01 3.732038e-01 -3.764230e-01 -3.128245e-01 2.075988e-01 -3.778382e-01 -1.421687e-01 3.216748e-02 -1.176720e-01 9.662578e-02 -2.533672e-02 2.637383e-01 4.103583e-01 1.491531e-01 2.409588e-01 -4.192139e-02 -1.511150e-01 -1.534563e-02 -1.096872e-01
<VARIANCE> 39
 3.427057e+00 2.107301e+01 1.603979e+01 1.748480e+01 1.734058e+01 3.558272e+01 3.590847e+01 3.604992e+01 1.570669e+01 4.838493e+01 3.851524e+01 3.038132e+01 4.993627e+00 3.178979e-01 1.032091e+00 1.340092e+00 1.566211e+00 1.115909e+00 2.930324e+00 2.681656e+00 1.451283e+00 1.708451e+00 1.919850e+00 2.455788e+00 1.007922e+00 6.571360e-01 1.699572e-01 1.354238e-01 2.125422e-01 2.156829e-01 2.649297e-01 3.306032e-01 5.317979e-01 2.434766e-01 2.945068e-01 2.487262e-01 3.054688e-01 2.160640e-01 8.837797e-02
<GCONST> 9.524381e+01
<TRANSP> 5
 0.000000e+00 1.000000e+00 0.000000e+00 0.000000e+00 0.000000e+00
 0.000000e+00 4.365824e-01 5.634177e-01 0.000000e+00 0.000000e+00
 0.000000e+00 0.000000e+00 4.874561e-01 5.125439e-01 0.000000e+00
 0.000000e+00 0.000000e+00 0.000000e+00 8.496122e-01 1.503878e-01
 0.000000e+00 0.000000e+00 0.000000e+00 0.000000e+00 0.000000e+00
