~o
<STREAMINFO> 1 39
<VECSIZE> 39<NULLD><MFCC_D_A_0><DIAGC>
~s "silst"
<MEAN> 39
 4.268171e-01 1.170388e+00 -1.158617e+01 2.175404e+00 -1.936132e+00 7.828207e+00 -2.385048e+00 3.490684e+00 -2.089186e+00 2.830103e+00 -3.330844e-01 7.247919e-01 6.166318e+01 4.974115e-02 1.000181e-01 -5.183362e-01 -1.568886e-03 -8.069184e-02 -1.638832e-01 1.584346e-01 -1.367976e-02 1.002736e-01 1.579972e-01 -7.620082e-02 1.872979e-01 -1.739744e-01 -4.324297e-02 -4.113984e-03 7.773248e-02 -1.146082e-01 3.545044e-02 -1.842185e-02 -9.645023e-02 -1.967556e-02 -2.735049e-02 -3.695396e-02 1.343388e-02 -3.302548e-02 3.763875e-02
<VARIANCE> 39
 3.549168e+00 2.037772e+01 1.238994e+01 1.830281e+01 1.688981e+01 1.780515e+01 1.958726e+01 2.446012e+01 2.027973e+01 1.634886e+01 1.397517e+01 1.235467e+01 2.051890e+00 2.630523e-01 7.072595e-01 1.216891e+00 1.127389e+00 1.199235e+00 1.137274e+00 1.228068e+00 1.244168e+00 1.105723e+00 1.260335e+00 1.140770e+00 1.065080e+00 1.561932e-01 4.395970e-02 9.709921e-02 2.249767e-01 1.723202e-01 2.125892e-01 2.233084e-01 2.418732e-01 2.367917e-01 2.328005e-01 2.669161e-01 2.271212e-01 2.173158e-01 2.913416e-02
<GCONST> 7.903584e+01
~h "b"
<BEGINHMM>
<NUMSTATES> 5
<STATE> 2
<MEAN> 39
 4.158578e+00 7.163457e+00 -5.170474e+00 4.922431e+00 7.620276e-01 8.020061e+00 -3.988408e+00 1.751075e+00 -7.255484e+00 -7.603610e-01 -3.915676e+00 -4.760466e+00 6.335706e+01 -1.757061e-01 4.466265e-02 -3.114915e-01 -8.772393e-02 8.967628e-02 2.189534e-01 2.982531e-01 1.286466e-01 7.010813e-01 -8.049078e-02 -8.809931e-02 1.985496e-01 -1.278888e-01 -2.028703e-01 -4.729216e-01 6.556318e-01 -6.496773e-01 -1.751418e-01 -6.519242e-01 -6.601307e-01 -7.214998e-01 -4.811458e-01 -8.605241e-02 6.003937e-01 -4.500581e-02 6.841874e-01
<VARIANCE> 39
 7.621208e+00 1.081513e+01 2.712557e+01 2.586454e+01 1.186061e+01 1.276648e+01 1.816487e+01 1.924232e+01 1.741176e+01 9.665281e+00 1.954830e+01 1.105768e+01 3.857622e+00 8.714318e-01 1.704740e+00 3.527562e+00 3.338708e+00 1.274007e+00 2.354404e+00 4.154500e+00 4.022661e+00 3.156168e+00 1.401209e+00 2.923054e+00 1.251166e+00 2.011135e+00 1.050841e-01 1.657805e-01 3.074479e-01 5.733437e-01 2.843624e-01 4.257015e-01 5.644234e-01 6.289666e-01 5.538272e-01 3.470431e-01 4.633600e-01 2.755877e-01 1.732203e-01
<GCONST> 1.012361e+02
<STATE> 3
<MEAN> 39
 1.880019e+00 3.998369e+00 4.146157e-01 -2.039122e+00 2.587510e-02 4.547566e+00 -8.550906e+00 -3.670956e+00 -9.707524e+00 -2.791058e+00 4.423918e-01 -5.082356e+00 6.833958e+01 -3.560528e-01 -2.107481e+00 2.418797e+00 -3.269602e+00 -8.317483e-01 -3.667315e+00 -3.109712e+00 -3.595690e+00 -3.139361e+00 -1.533756e-01 3.402471e+00 -2.409822e-01 3.425448e+00 1.714416e-01 -6.307112e-02 -2.120849e-02 -1.059810e-01 2.933498e-03 -5.340077e-01 -2.267691e-01 -1.239244e-02 -2.172513e-01 2.354009e-01 1.898627e-01 -1.604340e-01 2.989387e-01
<VARIANCE> 39
 1.023939e+01 1.333095e+01 2.522932e+01 4.035686e+01 1.613222e+01 4.312927e+01 4.088087e+01 4.124788e+01 6.812268e+01 1.242625e+01 3.724419e+01 2.317043e+01 1.599004e+01 1.288080e+00 1.634556e+00 2.315379e+00 8.375429e+00 3.464746e+00 2.186066e+00 5.415847e+00 3.908920e+00 4.835204e+00 2.246627e+00 3.103289e+00 3.175056e+00 8.731658e-01 2.900299e-01 2.388824e-01 5.441492e-01 6.396114e-01 3.596677e-01 7.561681e-01 9.751005e-01 1.102503e+00 1.420337e+00 3.895909e-01 7.039112e-01 3.716302e-01 3.171712e-01
<GCONST> 1.190566e+02
<STATE> 4
<MEAN> 39
 1.886587e+00 -1.198952e-01 3.018037e+00 -5.521309e+00 -1.325098e+00 -2.680213e+00 -1.517918e+01 -8.851653e+00 -1.280552e+01 -1.034800e+00 6.570302e+00 -4.905605e+00 7.455170e+01 9.094252e-02 -1.187496e+00 1.444514e+00 -1.596590e+00 -6.454158e-01 -2.430120e+00 -1.870708e+00 -1.418394e+00 -1.269184e+00 3.198299e-01 1.582628e+00 -3.144371e-01 2.098880e+00 1.091248e-01 3.660115e-01 -2.903425e-01 5.357797e-01 2.164532e-01 5.082573e-01 5.539074e-01 8.460740e-01 5.524922e-01 6.773780e-02 -6.462340e-01 -9.642334e-02 -5.346441e-01
<VARIANCE> 39
 1.497188e+01 1.578456e+01 1.349784e+01 6.105682e+01 2.525313e+01 3.749749e+01 5.431052e+01 3.872765e+01 5.224709e+01 2.196368e+01 3.962765e+01 3.219807e+01 1.823122e+01 1.507605e+00 2.775157e+00 3.239330e+00 6.940641e+00 3.131364e+00 6.509662e+00 6.194420e+00 7.211244e+00 4.201792e+00 3.081933e+00 3.844353e+00 3.135043e+00 3.389436e+00 3.676585e-01 3.313328e-01 4.569041e-01 1.115552e+00 3.081523e-01 9.595031e-01 1.175062e+00 1.287352e+00 1.486109e+00 3.732839e-01 7.583905e-01 3.778074e-01 4.939966e-01
<GCONST> 1.269621e+02
<TRANSP> 5
 0.000000e+00 1.000000e+00 0.000000e+00 0.000000e+00 0.000000e+00
 0.000000e+00 8.217888e-01 1.782112e-01 0.000000e+00 0.000000e+00
 0.000000e+00 0.000000e+00 2.822802e-01 7.177199e-01 0.000000e+00
 0.000000e+00 0.000000e+00 0.000000e+00 4.321432e-01 5.678569e-01
 0.000000e+00 0.000000e+00 0.000000e+00 0.000000e+00 0.000000e+00
<ENDHMM>
~h "d"
<BEGINHMM>
<NUMSTATES> 5
<STATE> 2
<MEAN> 39
 1.814872e+00 1.029926e+00 3.797713e+00 -8.691734e-01 1.120379e+00 3.940975e-01 -1.369473e+01 -2.154565e+00 -1.171528e+01 -1.833818e+00 1.304418e+00 -5.192657e+00 7.057381e+01 1.217284e-01 6.863092e-01 -1.090682e+00 1.218105e+00 1.185951e-01 1.469029e+00 1.593791e+00 1.262434e+00 1.070810e+00 -3.891568e-01 -1.004322e+00 2.880138e-01 -1.204417e+00 -2.915558e-01 -3.397118e-01 1.092838e-01 -1.841247e-01 -9.609014e-02 -2.796093e-01 1.323528e-01 -2.777477e-01 1.978865e-01 -1.251909e-02 1.804258e-01 1.679639e-03 2.961283e-01
<VARIANCE> 39
 1.047348e+01 2.658963e+01 7.365829e+01 4.358904e+01 2.947243e+01 5.131461e+01 6.181340e+01 4.377937e+01 4.014574e+01 2.729275e+01 4.421189e+01 1.927471e+01 3.175307e+01 9.944311e-01 1.763691e+00 3.700988e+00 1.822654e+00 2.585036e+00 3.494031e+00 4.718204e+00 5.375444e+00 4.197148e+00 2.103182e+00 2.191197e+00 2.061561e+00 1.559031e+00 2.894547e-01 3.968548e-01 5.729784e-01 4.595015e-01 4.055102e-01 7.415188e-01 8.040358e-01 8.708615e-01 6.191541e-01 4.666715e-01 4.433984e-01 3.265592e-01 3.724460e-01
<GCONST> 1.206269e+02
<STATE> 3
<MEAN> 39
 1.978839e+00 3.270559e+00 8.578364e-02 3.055036e+00 2.758027e-01 4.801706e+00 -7.463514e+00 4.696059e-01 -7.825601e+00 -3.332864e+00 -1.701324e+00 -4.881925e+00 6.681345e+01 -1.422491e+00 -1.403889e+00 3.829514e-01 1.952846e-01 1.017179e-01 -5.065294e-01 1.329388e+00 -8.586839e-01 1.389961e+00 -3.567616e-01 2.467509e-01 4.140884e-01 8.004140e-01 -4.194568e-01 -5.766612e-01 8.742168e-01 -7.901405e-01 1.085023e-01 -9.501733e-01 -9.994637e-01 -1.117622e+00 -6.095485e-01 7.249477e-02 6.227753e-01 -1.688182e-01 9.292936e-01
<VARIANCE> 39
 1.402130e+01 1.871973e+01 4.821162e+01 3.394647e+01 2.443570e+01 3.268007e+01 4.231602e+01 2.929778e+01 3.083126e+01 2.043079e+01 2.330619e+01 1.775986e+01 1.263608e+01 2.797386e+00 3.624405e+00 6.272539e+00 4.081373e+00 3.018676e+00 6.818465e+00 5.838005e+00 8.078095e+00 4.007903e+00 2.107131e+00 3.116707e+00 1.749417e+00 3.463787e+00 5.264887e-01 6.004866e-01 1.033040e+00 5.490881e-01 4.716797e-01 1.005821e+00 1.255099e+00 1.190162e+00 8.979250e-01 4.856568e-01 4.859767e-01 4.203751e-01 4.579609e-01
<GCONST> 1.257081e+02
<STATE> 4
<MEAN> 39
 -4.186521e+00 -3.553837e+00 5.044230e+00 -2.512328e+00 6.530213e-01 7.445297e-01 -9.283324e+00 -4.939207e+00 -7.411545e+00 -2.279189e+00 1.623002e+00 -3.867093e+00 7.229842e+01 -2.764792e-01 -4.604779e-01 5.945838e-01 -9.800411e-01 2.555015e-01 -9.504802e-01 -1.065814e+00 -1.256054e+00 -7.206992e-01 4.254798e-01 7.442752e-01 -8.587467e-02 9.483927e-01 4.499266e-01 4.088055e-01 -2.483894e-01 -1.776265e-01 -5.438050e-02 1.388111e-01 -2.707288e-01 1.919913e-01 -3.702276e-01 2.167128e-01 -5.652814e-02 -1.018756e-01 -2.056593e-01
<VARIANCE> 39
 3.315189e+01 2.684088e+01 5.711536e+01 6.035979e+01 2.806087e+01 7.121552e+01 6.030236e+01 7.822622e+01 4.746190e+01 3.481184e+01 3.376495e+01 2.098188e+01 2.807364e+01 5.528641e+00 3.767591e+00 7.390097e+00 4.416138e+00 2.274043e+00 5.617322e+00 7.178840e+00 8.150034e+00 5.218906e+00 2.333052e+00 4.244761e+00 2.067194e+00 3.969390e+00 8.288231e-01 6.177022e-01 1.039588e+00 7.344031e-01 5.080228e-01 9.066150e-01 1.660169e+00 1.310268e+00 1.139398e+00 4.111647e-01 7.063785e-01 3.468902e-01 5.111526e-01
<GCONST> 1.353956e+02
<TRANSP> 5
 0.000000e+00 1.000000e+00 0.000000e+00 0.000000e+00 0.000000e+00
 0.000000e+00 4.558651e-01 5.441350e-01 0.000000e+00 0.000000e+00
 0.000000e+00 0.000000e+00 5.000667e-01 4.999333e-01 0.000000e+00
 0.000000e+00 0.000000e+00 0.000000e+00 5.642742e-01 4.357259e-01
 0.000000e+00 0.000000e+00 0.000000e+00 0.000000e+00 0.000000e+00
<ENDHMM>
~h "f"
<BEGINHMM>
<NUMSTATES> 5
<STATE> 2
<MEAN> 39
 -7.086700e+00 2.281557e+00 6.705778e-01 -4.051094e-01 -5.360091e-01 7.382125e-01 -1.697894e+00 -5.606236e+00 -2.755023e+00 -3.466276e+00 2.046718e+00 -4.600573e+00 7.215936e+01 -3.509341e+00 3.278532e-01 -9.090912e-01 8.009999e-01 4.922064e-01 3.505059e-01 2.699850e+00 -3.673493e-01 2.515714e+00 -7.920706e-01 -4.213466e-02 7.852612e-02 6.031050e-01 -6.824928e-02 -3.092906e-01 1.459498e-01 -3.413237e-01 -1.268522e-01 -1.051846e-01 -6.118166e-01 2.783192e-01 -3.654257e-01 9.434738e-02 1.191350e-01 1.012604e-01 2.226469e-01
<VARIANCE> 39
 5.446824e+01 3.736678e+01 4.102271e+01 1.889081e+01 3.634433e+01 2.046601e+01 4.807483e+01 5.156908e+01 3.389811e+01 2.512935e+01 1.830198e+01 1.629054e+01 1.796792e+01 2.892839e+00 2.879632e+00 2.882849e+00 2.241511e+00 3.113955e+00 3.825200e+00 4.271821e+00 2.750296e+00 4.430524e+00 2.603200e+00 1.859180e+00 1.145959e+00 1.287606e+00 7.017789e-01 6.162361e-01 4.900984e-01 2.474023e-01 5.648146e-01 5.645871e-01 9.986735e-01 2.843942e-01 7.726730e-01 4.578311e-01 3.558658e-01 1.678079e-01 2.837178e-01
<GCONST> 1.176241e+02
<STATE> 3
<MEAN> 39
 -1.698646e+01 -2.654257e-01 -1.124724e+00 -6.287208e-01 2.140087e-01 1.259239e+00 -6.195965e-01 -4.221749e+00 1.168675e-01 -3.439457e+00 3.005990e+00 -2.654421e+00 7.485509e+01 -2.575099e-01 -3.521024e-01 -3.959960e-01 -1.433301e-01 6.778371e-03 4.257790e-03 -2.297789e-01 3.189654e-01 1.044799e-01 1.631356e-01 1.131555e-01 3.333089e-01 -1.037027e-01 6.411459e-01 1.758735e-02 1.516348e-01 -1.264734e-01 -6.456055e-02 -9.641682e-02 -3.127386e-01 -1.081852e-01 -3.335235e-01 5.284302e-02 -5.720786e-02 -4.742053e-02 -1.437960e-01
<VARIANCE> 39
 6.068529e+00 1.927312e+01 1.463766e+01 1.352788e+01 1.566005e+01 1.724667e+01 2.138406e+01 2.977379e+01 1.578466e+01 1.642502e+01 1.293652e+01 1.450141e+01 5.043947e+00 1.725006e+00 1.945688e+00 1.281691e+00 9.067453e-01 1.066943e+00 9.032688e-01 1.266677e+00 1.301669e+00 1.032465e+00 1.196262e+00 1.010935e+00 7.276873e-01 5.807222e-01 3.174599e-01 3.696111e-01 2.256227e-01 2.073533e-01 2.062589e-01 2.570741e-01 4.107431e-01 3.401873e-01 4.118462e-01 2.803316e-01 2.151397e-01 1.632725e-01 8.444222e-02
<GCONST> 8.928826e+01
<STATE> 4
<MEAN> 39
 -9.220715e+00 1.309168e-01 -1.353478e+00 -3.391919e+00 -2.262311e+00 -9.693514e-01 -4.396903e+00 -5.750380e+00 -3.908809e+00 -3.399873e+00 2.361390e+00 -2.946132e+00 7.290668e+01 4.060440e+00 9.705558e-01 7.411399e-01 -1.230374e+00 -8.046752e-01 -1.582050e+00 -2.832537e+00 -9.470219e-01 -2.969582e+00 6.177189e-03 3.848561e-02 -1.062849e+00 -2.988123e-01 3.367790e-01 1.704819e-01 2.066579e-01 -2.181204e-01 -4.436966e-02 -1.910377e-01 -4.770721e-01 6.110495e-02 -4.588364e-01 5.334821e-03 3.132605e-01 -2.634801e-01 2.097439e-01
<VARIANCE> 39
 5.756386e+01 2.449662e+01 1.177464e+01 2.793585e+01 2.264909e+01 2.319496e+01 3.852692e+01 2.761137e+01 4.425921e+01 1.704108e+01 2.007603e+01 2.144056e+01 8.505184e+00 2.326694e+00 2.503812e+00 1.631951e+00 2.914289e+00 2.163622e+00 2.024894e+00 4.057760e+00 4.254390e+00 3.439075e+00 2.879090e+00 2.491176e+00 1.639165e+00 9.401325e-01 1.106453e+00 5.357426e-01 2.083615e-01 3.711159e-01 3.090506e-01 4.689777e-01 8.665292e-01 6.115377e-01 8.769771e-01 3.694879e-01 3.715748e-01 3.745408e-01 1.017184e-01
<GCONST> 1.130411e+02
<TRANSP> 5
 0.000000e+00 1.000000e+00 0.000000e+00 0.000000e+00 0.000000e+00
 0.000000e+00 5.819395e-01 4.180605e-01 0.000000e+00 0.000000e+00
 0.000000e+00 0.000000e+00 8.557588e-01 1.442413e-01 0.000000e+00
 0.000000e+00 0.000000e+00 0.000000e+00 6.514896e-01 3.485104e-01
 0.000000e+00 0.000000e+00 0.000000e+00 0.000000e+00 0.000000e+00
<ENDHMM>
~h "g"
<BEGINHMM>
<NUMSTATES> 5
<STATE> 2
<MEAN> 39
 -4.121865e-01 1.580429e+00 9.221457e-01 -1.111106e-01 2.771210e+00 1.534803e+00 -1.062685e+01 -7.625313e+00 -1.021672e+01 -3.319276e-01 8.503605e-01 -5.605405e+00 7.094609e+01 -6.284896e-02 2.355335e-02 -4.084729e-01 -1.385582e+00 -7.429486e-01 6.632847e-01 5.421618e-02 5.672073e-01 -1.624314e-01 1.406021e-01 -2.272978e-02 7.969113e-01 5.085186e-02 -1.314499e-01 -1.289176e-01 -4.009075e-02 -2.679102e-01 6.868559e-02 -1.681473e-01 2.522164e-02 8.107910e-02 -8.763124e-02 2.737691e-02 5.409377e-02 1.396466e-01 2.203405e-01
<VARIANCE> 39
 4.123471e+01 2.585904e+01 6.621995e+01 6.436290e+01 3.035834e+01 4.458408e+01 7.060349e+01 4.768124e+01 5.703539e+01 1.751140e+01 3.718686e+01 2.927311e+01 2.263247e+01 5.581516e+00 1.899600e+00 5.128887e+00 5.294879e+00 2.731931e+00 4.387708e+00 1.066961e+01 1.099161e+01 6.419709e+00 3.536288e+00 5.969867e+00 3.615924e+00 3.492391e+00 8.048837e-01 5.550417e-01 1.082946e+00 8.489986e-01 4.935849e-01 1.110626e+00 2.415371e+00 1.308836e+00 8.548841e-01 5.054386e-01 8.301602e-01 6.182152e-01 5.283711e-01
<GCONST> 1.372294e+02
<STATE> 3
<MEAN> 39
 1.173473e+00 3.389986e+00 -1.127609e+00 -2.407401e+00 7.591642e-01 3.789212e+00 -8.946410e+00 -4.710972e+00 -1.067683e+01 3.228824e-01 7.178824e-01 -5.212820e+00 7.018673e+01 -1.148814e-01 -4.172084e-01 -1.137470e+00 -5.221550e-01 -4.622747e-01 2.004585e-01 1.250274e+00 1.304818e+00 5.943430e-01 1.232294e-01 -5.104218e-01 5.120050e-01 -2.179336e-01 -3.264022e-01 -3.658025e-01 1.324217e-01 9.745763e-02 3.037096e-01 -9.275907e-01 -3.011991e-01 -5.778394e-01 -2.467475e-01 -3.249322e-01 3.167679e-01 -1.641642e-01 4.809767e-01
<VARIANCE> 39
 4.335286e+01 1.925492e+01 6.001775e+01 7.843942e+01 3.581599e+01 4.085947e+01 5.041256e+01 5.750993e+01 6.325439e+01 2.028594e+01 5.058554e+01 3.117463e+01 3.387948e+01 1.111781e+00 6.642312e-01 6.117809e+00 3.286263e+00 2.174601e+00 1.467479e+00 2.946134e+00 3.932995e+00 3.117889e+00 1.943140e+00 2.582478e+00 1.700651e+00 1.450281e+00 6.846866e-01 3.237472e-01 5.451907e-01 7.609846e-01 3.896441e-01 1.090235e+00 1.114526e+00 1.352880e+00 7.127689e-01 5.691816e-01 1.018172e+00 8.119894e-01 6.590233e-01
<GCONST> 1.257850e+02
<STATE> 4
<MEAN> 39
 6.919144e-01 1.649595e+00 -2.686786e+00 -3.409914e+00 -2.202773e+00 2.705896e+00 -6.245977e+00 -3.353226e+00 -7.662874e+00 -1.585939e-01 -2.891405e+00 -2.179020e+00 6.983686e+01 -5.147059e-01 -7.004368e-01 6.383476e-02 -1.366657e-01 -2.705693e-01 -1.546241e+00 7.475071e-02 -2.184605e-01 -3.636580e-01 -5.325559e-01 3.798850e-01 -3.551386e-02 7.917081e-01 3.841264e-02 9.397843e-02 6.044506e-01 1.019509e-02 2.211028e-01 -4.629954e-01 -6.183725e-01 -4.228603e-01 -5.223371e-01 -2.696991e-01 2.789692e-01 -2.513504e-01 3.414272e-01
<VARIANCE> 39
 4.477806e+01 1.394798e+01 5.153826e+01 9.314458e+01 5.514959e+01 3.368345e+01 3.331944e+01 3.754321e+01 4.604255e+01 1.963659e+01 4.317257e+01 3.236582e+01 3.278386e+01 1.904447e+00 1.459675e+00 8.371801e+00 3.447382e+00 3.143419e+00 4.371766e+00 4.045726e+00 4.224371e+00 3.365851e+00 2.064898e+00 2.876282e+00 1.973284e+00 1.545967e+00 3.941416e-01 2.685502e-01 6.891301e-01 4.160678e-01 5.522170e-01 6.823258e-01 6.866314e-01 9.456104e-01 3.411600e-01 5.323772e-01 5.045980e-01 5.409442e-01 4.609159e-01
<GCONST> 1.240615e+02
<TRANSP> 5
 0.000000e+00 1.000000e+00 0.000000e+00 0.000000e+00 0.000000e+00
 0.000000e+00 4.555144e-01 5.444857e-01 0.000000e+00 0.000000e+00
 0.000000e+00 0.000000e+00 1.661167e-01 8.338833e-01 0.000000e+00
 0.000000e+00 0.000000e+00 0.000000e+00 5.055199e-01 4.944802e-01
 0.000000e+00 0.000000e+00 0.000000e+00 0.000000e+00 0.000000e+00
<ENDHMM>
~h "k"
<BEGINHMM>
<NUMSTATES> 5
<STATE> 2
<MEAN> 39
 1.471584e+00 3.106166e+00 -4.465361e+00 3.343807e-01 -1.666915e+00 5.164708e+00 -6.505207e+00 -1.149233e+00 -8.475879e+00 -1.206880e-01 -8.839155e-01 -5.764875e+00 6.503866e+01 -9.861460e-01 -7.130499e-01 -1.830054e+00 2.565901e-01 -4.116872e-01 -2.863648e-01 1.217129e+00 5.222917e-01 1.245239e+00 -8.309429e-01 2.195445e-01 8.658398e-01 -9.293646e-02 -5.969746e-01 -6.539420e-01 6.862558e-01 -4.649788e-01 1.980041e-01 -8.638788e-01 -1.878744e-01 -1.072663e+00 -2.702011e-01 -9.181008e-02 6.792265e-01 6.455503e-02 1.068119e+00
<VARIANCE> 39
 8.594032e+00 1.208740e+01 4.536285e+01 2.131921e+01 2.116253e+01 2.202695e+01 2.451240e+01 2.401867e+01 3.229461e+01 2.942055e+01 1.824870e+01 2.095509e+01 7.501691e+00 1.958776e+00 2.721861e+00 3.747776e+00 3.298981e+00 3.364072e+00 7.284225e+00 3.433077e+00 7.770027e+00 4.270646e+00 3.324140e+00 4.402405e+00 2.410510e+00 4.669526e+00 2.782656e-01 2.485758e-01 8.081840e-01 4.550480e-01 5.091064e-01 7.591925e-01 5.507675e-01 8.899961e-01 5.532178e-01 4.761742e-01 4.803694e-01 3.651960e-01 2.977450e-01
<GCONST> 1.181414e+02
<STATE> 3
<MEAN> 39
 -6.833692e+00 -4.677853e+00 -4.759711e+00 -2.140165e+00 -8.189318e-01 -3.486684e+00 -2.513001e+00 -9.216328e+00 -6.911773e+00 -3.149149e+00 5.833261e+00 -3.235333e+00 7.416396e+01 -2.361667e+00 -2.238523e+00 1.937685e+00 -8.007160e-01 2.559951e-01 -1.566256e+00 -9.742567e-02 -2.385830e+00 3.712594e-01 -1.688346e-01 9.987277e-01 9.103931e-01 2.432677e+00 4.289430e-01 3.746475e-01 6.810524e-01 -1.981008e-02 -1.542713e-02 7.258530e-01 -6.290990e-01 4.951987e-01 -1.066550e-01 4.142464e-01 -7.017428e-01 -2.582709e-01 -5.737601e-01
<VARIANCE> 39
 1.315940e+01 2.256484e+01 5.636535e+01 5.924695e+01 4.659418e+01 8.020740e+01 3.933130e+01 3.880502e+01 4.177721e+01 4.741740e+01 3.283192e+01 4.670988e+01 1.298707e+01 4.292542e+00 1.735009e+00 5.515213e+00 4.847877e+00 3.002255e+00 6.134275e+00 4.177634e+00 3.875120e+00 4.199498e+00 3.520194e+00 3.709378e+00 2.814761e+00 2.713172e+00 6.690778e-01 5.507455e-01 8.519529e-01 7.325492e-01 6.189727e-01 1.340987e+00 7.915902e-01 8.505309e-01 1.023937e+00 7.304975e-01 7.535915e-01 8.542044e-01 5.630045e-01
<GCONST> 1.322035e+02
<STATE> 4
<MEAN> 39
 -8.215235e+00 -8.567579e+00 1.808368e+00 -3.215070e+00 -1.486654e+00 -1.811366e+00 -4.334067e+00 -7.622775e+00 -5.562037e+00 -5.589728e-01 2.931546e+00 -2.386887e+00 7.365659e+01 9.341166e-01 6.996609e-01 1.120176e+00 -4.483680e-01 4.533680e-01 9.271901e-01 -9.424613e-01 8.006802e-01 -8.090501e-01 3.313308e-01 -8.985372e-01 -8.353307e-01 -4.326037e-01 6.806421e-01 8.874163e-01 -1.986651e-01 -7.129895e-02 -1.602418e-02 7.301400e-02 -3.576538e-01 3.139009e-01 -4.917399e-01 -1.531975e-01 -7.596384e-03 -4.144947e-01 -2.045327e-01
<VARIANCE> 39
 2.632904e+01 1.951846e+01 4.036158e+01 3.758811e+01 3.380320e+01 4.299882e+01 3.412796e+01 4.361557e+01 4.068039e+01 3.475658e+01 2.525764e+01 2.533598e+01 1.200580e+01 4.725291e+00 3.892518e+00 2.748573e+00 2.021599e+00 1.984215e+00 2.885732e+00 4.427580e+00 3.786964e+00 4.638103e+00 2.833231e+00 2.876964e+00 3.186306e+00 1.653343e+00 3.810506e-01 4.345883e-01 5.689535e-01 4.917029e-01 4.808876e-01 9.435312e-01 7.687914e-01 9.701438e-01 7.591090e-01 5.158376e-01 6.716834e-01 6.247379e-01 5.132434e-01
<GCONST> 1.238889e+02
<TRANSP> 5
 0.000000e+00 1.000000e+00 0.000000e+00 0.000000e+00 0.000000e+00
 0.000000e+00 7.467180e-01 2.532820e-01 0.000000e+00 0.000000e+00
 0.000000e+00 0.000000e+00 5.888400e-01 4.111600e-01 0.000000e+00
 0.000000e+00 0.000000e+00 0.000000e+00 6.719826e-01 3.280174e-01
 0.000000e+00 0.000000e+00 0.000000e+00 0.000000e+00 0.000000e+00
<ENDHMM>
~h "l"
<BEGINHMM>
<NUMSTATES> 5
<STATE> 2
<MEAN> 39
 3.754365e+00 3.195130e+00 6.035308e+00 -9.494604e+00 -1.174006e+01 -5.226223e+00 -1.240304e+01 -2.103117e+00 -1.097341e+01 -5.294024e+00 1.244406e+00 -5.929217e+00 7.296973e+01 7.488374e-01 2.323816e-01 8.846593e-01 -1.294007e-01 -2.019231e+00 -5.720320e-01 -4.145341e-01 1.414061e+00 -2.960508e-01 -1.084127e-01 1.416008e-01 -1.013840e+00 3.071516e-02 -2.849663e-01 -2.605091e-01 -1.581088e-01 7.129405e-02 2.917673e-01 2.973696e-01 1.429090e-01 5.071200e-03 8.141956e-02 2.337995e-01 2.650510e-01 1.274585e-01 -1.106943e-02
<VARIANCE> 39
 6.560236e+00 1.824395e+01 3.522996e+01 2.532010e+01 3.372856e+01 3.990273e+01 3.434075e+01 4.017621e+01 1.763717e+01 2.592278e+01 2.424233e+01 2.208020e+01 9.722481e+00 1.270054e+00 1.916813e+00 1.967451e+00 2.381641e+00 2.981566e+00 2.925683e+00 4.647429e+00 3.265158e+00 2.455547e+00 2.165304e+00 2.600142e+00 2.069312e+00 1.024766e+00 2.527070e-01 3.552654e-01 4.622011e-01 3.412921e-01 6.458536e-01 5.589377e-01 1.081490e+00 4.976336e-01 5.234255e-01 4.874569e-01 4.518430e-01 4.602341e-01 1.408378e-01
<GCONST> 1.122782e+02
<STATE> 3
<MEAN> 39
 4.617186e+00 3.563750e+00 8.245470e+00 -1.001731e+01 -1.635077e+01 -5.969059e+00 -1.303307e+01 2.706037e+00 -1.122955e+01 -4.708630e+00 4.353280e+00 -8.522537e+00 7.265683e+01 -5.979551e-02 -6.779324e-02 7.509574e-02 5.311383e-02 -1.049154e-01 8.898129e-02 1.153980e-01 3.694482e-01 -6.529807e-02 -2.194897e-01 1.334237e-01 -7.574647e-02 -5.539132e-03 -1.130744e-01 -9.884546e-02 -1.958513e-01 7.700641e-02 3.975942e-01 1.363463e-01 1.427812e-01 -2.360198e-01 1.159521e-01 -4.965239e-02 -1.303338e-01 2.517099e-01 3.159237e-02
<VARIANCE> 39
 3.231519e+00 1.216386e+01 1.270488e+01 2.794782e+01 2.297449e+01 2.672751e+01 3.834536e+01 2.956671e+01 2.359719e+01 2.299759e+01 2.517732e+01 2.309001e+01 7.547403e+00 2.983298e-01 1.409377e+00 1.081665e+00 1.132313e+00 1.892854e+00 2.259238e+00 3.252021e+00 2.132922e+00 1.427587e+00 1.551844e+00 1.421312e+00 1.552213e+00 6.678730e-01 8.266677e-02 1.623636e-01 1.455661e-01 1.618759e-01 3.736752e-01 3.229240e-01 5.670770e-01 3.649207e-01 3.316592e-01 3.039199e-01 2.529317e-01 2.766892e-01 6.893986e-02
<GCONST> 9.388904e+01
<STATE> 4
<MEAN> 39
 3.540463e+00 3.731897e-01 6.012932e+00 -9.798141e+00 -1.421819e+01 -4.148269e+00 -8.979736e+00 3.365719e+00 -9.963106e+00 -6.530092e+00 2.258921e+00 -5.242968e+00 7.403753e+01 -4.160016e-01 -6.130967e-01 -6.817015e-01 4.577425e-01 1.861592e+00 7.879969e-01 3.371550e-01 -1.229196e+00 2.875477e-01 2.548998e-01 1.194286e-02 8.949989e-01 1.675840e-01 -1.625600e-01 1.085785e-01 2.291160e-02 1.289788e-01 4.811950e-01 4.427079e-03 -1.587529e-01 -3.318110e-01 3.518953e-02 3.681289e-01 9.301560e-02 -1.606703e-01 -6.616646e-02
<VARIANCE> 39
 4.393548e+00 1.909412e+01 2.239931e+01 4.547515e+01 2.789618e+01 3.493102e+01 3.691976e+01 5.694455e+01 3.187758e+01 2.587050e+01 2.672432e+01 2.709707e+01 1.642295e+01 8.149779e-01 1.507646e+00 1.459183e+00 1.521351e+00 2.444249e+00 2.676799e+00 2.971507e+00 3.759980e+00 2.885682e+00 2.305500e+00 2.373990e+00 1.779546e+00 6.271378e-01 2.365439e-01 2.475545e-01 1.976507e-01 2.608605e-01 3.482508e-01 3.967077e-01 6.682245e-01 5.523745e-01 5.021185e-01 4.134662e-01 3.194227e-01 3.596783e-01 1.364262e-01
<GCONST> 1.073223e+02
<TRANSP> 5
 0.000000e+00 1.000000e+00 0.000000e+00 0.000000e+00 0.000000e+00
 0.000000e+00 6.003678e-01 3.996322e-01 0.000000e+00 0.000000e+00
 0.000000e+00 0.000000e+00 8.284631e-01 1.715368e-01 0.000000e+00
 0.000000e+00 0.000000e+00 0.000000e+00 6.163661e-01 3.836339e-01
 0.000000e+00 0.000000e+00 0.000000e+00 0.000000e+00 0.000000e+00
<ENDHMM>
~h "m"
<BEGINHMM>
<NUMSTATES> 5
<STATE> 2
<MEAN> 39
 4.316276e+00 4.443790e+00 3.806853e+00 -2.974002e+00 -2.081802e+00 8.451454e+00 -1.217186e+01 2.706858e+00 -9.004859e+00 -5.234253e+00 1.013259e+00 -3.515017e+00 6.871765e+01 6.472328e-01 1.270768e+00 -7.446554e-02 1.295433e+00 -2.398541e-01 3.196093e+00 -3.494432e-01 1.281740e-01 1.088872e+00 -1.640696e+00 -1.326170e+00 3.426602e-01 -1.378865e+00 -1.626991e-01 -1.364175e-01 -6.196564e-03 -1.585023e-01 2.977353e-01 -5.820705e-01 -7.069030e-02 -3.040367e-01 -7.265825e-02 9.994026e-02 3.196516e-01 -1.357867e-01 3.075714e-01
<VARIANCE> 39
 2.619818e+00 9.318916e+00 1.470405e+01 3.036670e+01 1.780293e+01 2.261698e+01 1.534135e+01 2.674406e+01 1.484759e+01 1.866662e+01 2.709801e+01 2.919867e+01 4.021216e+00 2.541476e-01 6.187211e-01 8.542639e-01 2.082475e+00 9.762644e-01 2.376354e+00 1.802237e+00 3.186716e+00 2.307869e+00 2.049477e+00 2.099687e+00 1.139068e+00 5.196497e-01 3.340494e-02 1.139277e-01 1.574262e-01 2.380742e-01 1.836352e-01 5.342549e-01 2.970091e-01 3.666700e-01 2.811092e-01 3.469763e-01 4.041231e-01 2.365386e-01 6.543001e-02
<GCONST> 8.896932e+01
<STATE> 3
<MEAN> 39
 5.545234e+00 8.029811e+00 3.152058e+00 -8.473979e-01 -5.931920e-01 1.456410e+01 -1.352268e+01 1.387256e+00 -4.953644e+00 -7.892225e+00 -1.839406e-01 -1.706798e+00 6.653412e+01 8.779484e-02 4.388842e-01 -2.234177e-01 1.103076e-01 2.987739e-01 3.553760e-01 -3.777721e-02 -1.601598e-01 3.282156e-01 -1.061670e-01 -2.162816e-02 -1.352252e-01 -2.262081e-01 -1.592635e-01 -3.003314e-01 -7.991260e-02 -3.094495e-01 2.271993e-02 -8.620812e-01 3.220518e-01 1.345108e-01 -3.086804e-01 3.985971e-01 3.221219e-01 -1.332623e-01 3.025169e-01
<VARIANCE> 39
 1.523274e+00 7.579918e+00 1.430011e+01 1.329571e+01 1.054072e+01 1.650468e+01 2.074626e+01 1.357184e+01 1.828152e+01 1.365113e+01 1.432854e+01 1.815213e+01 3.036444e+00 1.207438e-01 4.104675e-01 6.136248e-01 1.357567e+00 7.767656e-01 1.576047e+00 1.226382e+00 9.417391e-01 1.658879e+00 1.050932e+00 1.359498e+00 9.976929e-01 2.413234e-01 4.440587e-02 1.022370e-01 1.130413e-01 2.229029e-01 1.769403e-01 4.996343e-01 2.834834e-01 3.509976e-01 2.746467e-01 2.669415e-01 2.086703e-01 1.435024e-01 8.070856e-02
<GCONST> 7.651253e+01
<STATE> 4
<MEAN> 39
 5.101992e+00 6.933582e+00 2.297557e+00 -4.203151e+00 -2.816752e-01 9.718332e+00 -1.241960e+01 2.591699e+00 -7.674027e+00 -7.189473e+00 2.308009e+00 -3.484833e+00 6.844486e+01 -5.513816e-01 -1.152599e+00 -1.163804e-01 -1.182857e+00 -6.403381e-02 -3.075572e+00 1.176401e+00 7.151433e-01 -5.574378e-01 9.433866e-01 1.505577e+00 -4.989727e-01 1.303963e+00 -3.459087e-01 -4.266897e-01 1.430075e-01 -8.870523e-02 -6.801905e-02 -5.502919e-01 2.743106e-01 -3.467963e-02 9.696657e-02 3.022200e-01 1.608826e-01 -1.529800e-01 2.797428e-01
<VARIANCE> 39
 2.204890e+00 1.048517e+01 1.734423e+01 4.886513e+01 2.253907e+01 5.030642e+01 2.715247e+01 3.352307e+01 3.450370e+01 1.975272e+01 3.950941e+01 3.271172e+01 1.368719e+01 5.205165e-01 1.826014e+00 2.110764e+00 4.093713e+00 2.577037e+00 5.628269e+00 2.687739e+00 5.252996e+00 2.185485e+00 2.748721e+00 3.158228e+00 1.729368e+00 1.555008e+00 1.575426e-01 2.205573e-01 3.683998e-01 6.126183e-01 3.016327e-01 1.216378e+00 5.614367e-01 5.263864e-01 3.337384e-01 5.079650e-01 4.373441e-01 3.380864e-01 2.341192e-01
<GCONST> 1.108642e+02
<TRANSP> 5
 0.000000e+00 1.000000e+00 0.000000e+00 0.000000e+00 0.000000e+00
 0.000000e+00 5.967168e-01 4.032832e-01 0.000000e+00 0.000000e+00
 0.000000e+00 0.000000e+00 7.223824e-01 2.776177e-01 0.000000e+00
 0.000000e+00 0.000000e+00 0.000000e+00 5.685785e-01 4.314215e-01
 0.000000e+00 0.000000e+00 0.000000e+00 0.000000e+00 0.000000e+00
<ENDHMM>
~h "n"
<BEGINHMM>
<NUMSTATES> 5
<STATE> 2
<MEAN> 39
 3.841222e-01 -1.219488e+00 7.462110e+00 -6.821532e+00 2.889610e+00 -1.960804e+00 -1.356475e+01 -3.782063e-01 -1.254704e+01 1.132662e+00 8.766274e+00 -5.166605e+00 7.479610e+01 5.362003e-01 1.191633e+00 -2.038713e-01 6.499388e-01 -2.443950e-01 1.768325e+00 1.374402e-01 9.755044e-01 3.597959e-01 -8.141766e-01 -8.932890e-01 2.832901e-01 -1.181265e+00 6.948269e-02 2.669690e-01 -8.286538e-02 1.948243e-01 -2.083464e-01 4.905000e-01 5.995177e-02 1.598604e-02 2.463426e-01 -3.697425e-01 -5.288506e-01 -1.841322e-02 -2.618584e-01
<VARIANCE> 39
 5.824538e+00 1.809216e+01 3.318170e+01 3.339117e+01 2.808434e+01 4.784137e+01 4.137140e+01 4.780777e+01 2.544777e+01 3.468648e+01 3.209483e+01 3.533146e+01 9.204348e+00 4.415342e-01 1.272372e+00 1.140313e+00 2.926793e+00 1.640525e+00 3.127078e+00 1.938639e+00 2.825844e+00 2.647809e+00 2.380735e+00 3.830570e+00 1.667506e+00 8.934907e-01 9.265198e-02 2.027982e-01 1.695729e-01 3.199092e-01 3.309031e-01 5.637966e-01 3.942335e-01 4.876575e-01 4.645401e-01 3.641649e-01 4.895882e-01 2.581424e-01 9.340204e-02
<GCONST> 1.052887e+02
<STATE> 3
<MEAN> 39
 3.119382e+00 3.409024e+00 5.985872e+00 -2.894340e+00 4.129073e-01 6.068175e+00 -1.326853e+01 1.877568e+00 -1.049016e+01 -3.057472e+00 2.541257e+00 -4.767463e+00 6.985199e+01 7.293357e-01 1.371804e+00 -2.633831e-01 1.128996e+00 -9.145527e-01 2.497402e+00 -1.946049e-01 5.661529e-01 1.053937e+00 -1.365292e+00 -1.663151e+00 1.334513e-02 -1.405477e+00 -2.666207e-01 -2.774172e-01 9.114633e-03 -1.882443e-01 2.358942e-01 -6.477262e-01 1.267691e-01 -2.964012e-01 7.126705e-02 1.740010e-01 3.514314e-01 -1.055210e-01 3.680319e-01
<VARIANCE> 39
 4.193491e+00 1.152426e+01 2.151386e+01 3.224391e+01 2.494927e+01 3.497164e+01 2.359049e+01 2.461777e+01 1.887933e+01 2.755155e+01 2.702486e+01 2.430103e+01 5.892641e+00 3.536508e-01 8.887463e-01 1.401675e+00 1.503147e+00 1.739306e+00 3.275104e+00 2.287898e+00 2.436675e+00 1.951999e+00 1.759846e+00 2.871108e+00 1.564179e+00 6.548906e-01 8.283568e-02 1.696311e-01 1.825052e-01 1.959785e-01 2.935552e-01 7.160906e-01 4.694190e-01 3.360621e-01 3.923623e-01 3.425972e-01 4.929212e-01 3.111022e-01 1.146617e-01
<GCONST> 9.805712e+01
<STATE> 4
<MEAN> 39
 3.778352e+00 4.914945e+00 3.429128e+00 -2.428724e-01 6.470144e-01 6.412802e+00 -1.232812e+01 1.970678e+00 -7.776388e+00 -4.235703e+00 1.841798e+00 -4.375742e+00 6.853378e+01 -3.364170e-01 -1.599589e-01 -1.666046e-01 2.907190e-01 3.910199e-01 -9.966685e-01 6.580255e-01 -1.030804e-01 2.878852e-01 1.780727e-01 2.080102e-01 -1.840447e-01 2.159261e-01 -4.321875e-01 -5.361948e-01 1.746394e-01 -3.413620e-01 2.778547e-01 -8.348920e-01 2.541280e-01 -2.230380e-01 -1.954029e-01 4.539356e-01 4.468296e-01 -1.116218e-01 5.177634e-01
<VARIANCE> 39
 6.120001e+00 1.684968e+01 3.197586e+01 3.516557e+01 2.723756e+01 6.411368e+01 3.354553e+01 2.525514e+01 3.079330e+01 3.326710e+01 2.828061e+01 2.524723e+01 1.306769e+01 1.030021e+00 2.566379e+00 2.149456e+00 2.120323e+00 2.398344e+00 8.579575e+00 3.112873e+00 2.122307e+00 3.057703e+00 3.610615e+00 4.590861e+00 1.895313e+00 1.853875e+00 2.690881e-01 4.186007e-01 3.465738e-01 3.142281e-01 5.254010e-01 1.610302e+00 6.751857e-01 4.595474e-01 7.310262e-01 6.730087e-01 8.482298e-01 3.606252e-01 3.394888e-01
<GCONST> 1.174891e+02
<TRANSP> 5
 0.000000e+00 1.000000e+00 0.000000e+00 0.000000e+00 0.000000e+00
 0.000000e+00 5.646654e-01 4.353346e-01 0.000000e+00 0.000000e+00
 0.000000e+00 0.000000e+00 4.464494e-01 5.535507e-01 0.000000e+00
 0.000000e+00 0.000000e+00 0.000000e+00 5.647272e-01 4.352728e-01
 0.000000e+00 0.000000e+00 0.000000e+00 0.000000e+00 0.000000e+00
<ENDHMM>
~h "p"
<BEGINHMM>
<NUMSTATES> 5
<STATE> 2
<MEAN> 39
 1.132596e+00 3.004355e+00 -6.321998e+00 -1.040490e-01 -3.262715e+00 4.917706e+00 -5.230687e+00 1.608844e+00 -5.061117e+00 -7.180943e-02 -1.922419e+00 -2.375788e+00 6.415688e+01 -9.683859e-02 1.476363e-01 -1.437110e+00 2.891207e-01 6.977675e-02 4.610096e-01 5.659374e-01 4.649919e-01 8.420339e-01 4.344084e-01 -3.088132e-01 2.293353e-01 -9.371406e-01 -2.138896e-01 -2.578625e-01 4.566982e-01 -2.673424e-01 -4.775484e-03 -4.289894e-01 -3.235000e-01 -5.835204e-01 -2.460145e-01 -1.769416e-01 2.843989e-01 3.723162e-03 5.462204e-01
<VARIANCE> 39
 2.231951e+01 1.065386e+01 4.071617e+01 3.580277e+01 1.656867e+01 1.879285e+01 2.114896e+01 1.512866e+01 2.633665e+01 1.221242e+01 1.170983e+01 1.285076e+01 6.390120e+00 7.133203e-01 5.176358e-01 1.697893e+00 1.480213e+00 1.223601e+00 1.730244e+00 2.107862e+00 2.249297e+00 1.522153e+00 1.124536e+00 1.283048e+00 1.154911e+00 9.238735e-01 9.393849e-02 1.304073e-01 3.944182e-01 2.926501e-01 2.297376e-01 3.892930e-01 3.023826e-01 3.616392e-01 2.981657e-01 2.530716e-01 3.282809e-01 2.740375e-01 7.897335e-02
<GCONST> 9.294768e+01
<STATE> 3
<MEAN> 39
 -1.046344e+00 1.742552e+00 -6.889289e+00 -1.602610e+00 -2.680057e+00 5.732110e+00 -4.574823e+00 -1.467342e-01 -3.405036e+00 7.397863e-01 -2.001019e+00 -7.207822e-01 6.402908e+01 -6.628874e-01 -9.859937e-01 1.797353e+00 -2.523609e-01 8.714713e-02 -1.419791e+00 -1.001697e+00 -1.844815e+00 -9.208080e-01 -8.266730e-01 9.434787e-01 -3.048625e-01 1.698750e+00 1.270119e-01 -2.354221e-01 8.847929e-01 -1.491000e-01 -6.368657e-02 -6.357843e-01 -5.007190e-01 -3.387831e-01 -6.603385e-01 -2.508755e-01 2.061234e-01 -4.697799e-01 6.888688e-01
<VARIANCE> 39
 1.798597e+01 1.779933e+01 4.122090e+01 2.944842e+01 1.226078e+01 2.018034e+01 1.429894e+01 2.360632e+01 1.305458e+01 1.288860e+01 1.894930e+01 1.283716e+01 8.775054e+00 3.411438e+00 2.453392e+00 4.757504e+00 4.138829e+00 2.390997e+00 3.544090e+00 4.919384e+00 3.056069e+00 3.671950e+00 1.905892e+00 3.264200e+00 2.687753e+00 1.331042e+00 2.936126e-01 5.498124e-01 4.787596e-01 5.473989e-01 5.065835e-01 4.944665e-01 4.048739e-01 6.705841e-01 3.565612e-01 4.153109e-01 5.472208e-01 3.848111e-01 1.625740e-01
<GCONST> 1.118918e+02
<STATE> 4
<MEAN> 39
 -2.428740e+00 -2.782409e+00 -1.183511e-01 -3.714212e+00 -2.599688e+00 -4.639614e-01 -6.785630e+00 -3.947147e+00 -6.982598e+00 -1.111818e+00 1.453680e+00 -3.893941e+00 7.106056e+01 4.419489e-01 -2.164826e-01 1.819191e+00 -8.706053e-01 -3.678790e-01 -1.779282e+00 -1.601631e+00 -5.862709e-01 -1.609570e+00 -5.318540e-01 4.596086e-01 -1.335374e+00 1.620263e+00 2.573955e-01 2.482140e-01 -1.117162e-01 -8.910882e-02 -1.925092e-01 -2.905012e-02 -1.135579e-01 3.332970e-01 -1.257671e-01 1.206871e-01 -7.098395e-02 -5.056571e-02 -1.464626e-01
<VARIANCE> 39
 2.010204e+01 4.863070e+01 3.042574e+01 3.575912e+01 3.686459e+01 2.450263e+01 4.520797e+01 3.697149e+01 5.520243e+01 3.263532e+01 3.344239e+01 4.019179e+01 1.774958e+01 2.770427e+00 7.334347e+00 3.993118e+00 3.816386e+00 4.832432e+00 3.238086e+00 4.883408e+00 4.151916e+00 5.190063e+00 3.996903e+00 3.634640e+00 3.973552e+00 1.510018e+00 4.124725e-01 1.031174e+00 5.045177e-01 3.706920e-01 4.739551e-01 4.941820e-01 1.035036e+00 6.116901e-01 9.583325e-01 7.309974e-01 6.354814e-01 7.777182e-01 1.703050e-01
<GCONST> 1.276970e+02
<TRANSP> 5
 0.000000e+00 1.000000e+00 0.000000e+00 0.000000e+00 0.000000e+00
 0.000000e+00 7.649410e-01 2.350590e-01 0.000000e+00 0.000000e+00
 0.000000e+00 0.000000e+00 4.635697e-01 5.364304e-01 0.000000e+00
 0.000000e+00 0.000000e+00 0.000000e+00 6.139962e-01 3.860037e-01
 0.000000e+00 0.000000e+00 0.000000e+00 0.000000e+00 0.000000e+00
<ENDHMM>
~h "r"
<BEGINHMM>
<NUMSTATES> 5
<STATE> 2
<MEAN> 39
 -6.540545e+00 -3.941314e+00 -1.997528e+00 -2.097051e+00 5.205410e+00 -3.307486e-01 -6.875210e+00 -6.758159e+00 -9.280660e+00 -4.334880e+00 3.282811e+00 -6.594486e-01 7.459433e+01 1.836829e+00 1.319693e+00 2.171524e-01 -1.189240e+00 3.966361e-01 -5.103300e-01 -1.279312e+00 -1.039931e+00 -2.408622e+00 -7.351562e-01 2.784144e-02 4.586259e-01 -1.120359e-01 7.044749e-01 5.929948e-01 1.255393e-01 -2.817197e-01 -1.219065e-01 -9.012428e-02 -5.637885e-01 -8.430713e-02 -6.372458e-01 1.644763e-01 2.565818e-02 -1.090919e-01 -2.107631e-01
<VARIANCE> 39
 5.970312e+01 4.157944e+01 4.793192e+01 3.681340e+01 1.544180e+01 4.934684e+01 3.791934e+01 4.832717e+01 5.810866e+01 2.622537e+01 2.392407e+01 3.521075e+01 1.777158e+01 4.703493e+00 3.430703e+00 4.566276e+00 1.810029e+00 1.595978e+00 3.103783e+00 5.661959e+00 3.644077e+00 5.098832e+00 2.320963e+00 2.084241e+00 1.747654e+00 1.869975e+00 6.418414e-01 4.478541e-01 9.534550e-01 3.705181e-01 3.960518e-01 8.184804e-01 7.888968e-01 1.014886e+00 6.692778e-01 3.826900e-01 6.395942e-01 4.117259e-01 4.117430e-01
<GCONST> 1.247520e+02
<STATE> 3
<MEAN> 39
 3.903809e+00 5.225450e+00 -1.308560e+00 -8.692429e+00 4.507641e+00 -3.828251e+00 -1.437590e+01 -9.227847e+00 -2.074097e+01 -5.560337e+00 3.173258e+00 -1.391713e+00 7.281223e+01 1.687163e+00 1.608115e+00 -4.720595e-01 -2.473195e+00 1.466544e-01 -6.084710e-01 -1.482904e+00 2.372480e-01 -2.593518e+00 3.157322e-01 1.411176e+00 -6.730328e-02 9.156531e-02 -6.267251e-01 -6.621030e-01 -1.449721e-01 8.684710e-02 -5.454405e-02 1.911687e-01 5.243809e-01 3.711429e-01 6.641330e-01 3.733136e-01 4.039864e-01 -2.360669e-01 1.932845e-01
<VARIANCE> 39
 6.165966e+00 2.210072e+01 1.520009e+01 5.419994e+01 2.281347e+01 3.417864e+01 2.261260e+01 5.112185e+01 3.042880e+01 4.282273e+01 3.161504e+01 2.423315e+01 4.203684e+00 2.129993e+00 2.130671e+00 1.817568e+00 2.266208e+00 2.310877e+00 2.133297e+00 3.152857e+00 3.880941e+00 3.817742e+00 2.397481e+00 2.830274e+00 1.911479e+00 5.432758e-01 2.831419e-01 3.969900e-01 4.208523e-01 5.751610e-01 2.642982e-01 3.101786e-01 6.264814e-01 6.951303e-01 6.314714e-01 4.856277e-01 3.661186e-01 1.922591e-01 8.136421e-02
<GCONST> 1.093060e+02
<STATE> 4
<MEAN> 39
 5.243600e+00 5.222270e+00 -3.808607e+00 -1.412080e+01 6.724271e+00 -3.902055e+00 -1.478118e+01 -5.822743e+00 -2.598612e+01 -2.897634e+00 9.648305e+00 -2.006464e+00 7.366396e+01 -2.319824e-01 -6.834031e-01 2.085107e-01 1.199673e-01 -3.493333e-02 -2.791185e-01 4.398861e-01 -1.360580e-01 5.334219e-02 6.352563e-01 8.205596e-01 -7.135175e-01 3.779957e-01 -1.841676e-01 -2.053053e-01 2.408774e-01 4.178258e-01 -1.540380e-01 3.581683e-02 1.740583e-01 -7.546525e-03 4.109749e-01 3.770184e-03 -2.928796e-01 -1.208443e-01 -2.174448e-02
<VARIANCE> 39
 5.610179e+00 2.227635e+01 1.589882e+01 4.453391e+01 3.311737e+01 3.069934e+01 2.893601e+01 6.455762e+01 6.171624e+01 4.205840e+01 3.272226e+01 3.561010e+01 4.920582e+00 2.477655e-01 1.240064e+00 8.712658e-01 2.843659e+00 1.486018e+00 2.009634e+00 1.761086e+00 2.525932e+00 2.586613e+00 2.852511e+00 2.776010e+00 2.477541e+00 3.515275e-01 1.075460e-01 2.066801e-01 1.536630e-01 3.202836e-01 2.323420e-01 3.840392e-01 3.440263e-01 4.412622e-01 5.439911e-01 4.232032e-01 4.351339e-01 3.697554e-01 6.240697e-02
<GCONST> 1.020461e+02
<TRANSP> 5
 0.000000e+00 1.000000e+00 0.000000e+00 0.000000e+00 0.000000e+00
 0.000000e+00 5.447554e-01 4.552446e-01 0.000000e+00 0.000000e+00
 0.000000e+00 0.000000e+00 5.947195e-01 4.052805e-01 0.000000e+00
 0.000000e+00 0.000000e+00 0.000000e+00 8.145381e-01 1.854620e-01
 0.000000e+00 0.000000e+00 0.000000e+00 0.000000e+00 0.000000e+00
<ENDHMM>
~h "s"
<BEGINHMM>
<NUMSTATES> 5
<STATE> 2
<MEAN> 39
 -1.177307e+01 -5.462929e-01 1.477800e+01 -9.889784e+00 3.351496e+00 5.375362e+00 -8.708489e+00 -8.976567e+00 -3.549472e+00 -5.112486e+00 -9.717950e-01 -3.888803e+00 7.681647e+01 -4.418700e+00 1.074877e-01 1.131672e+00 -1.226760e+00 3.821679e-01 9.807806e-01 2.248891e+00 1.516677e-01 3.031149e+00 -3.162272e-01 -1.881242e-01 1.720566e-01 1.223273e+00 6.917830e-02 6.663319e-02 -5.976321e-01 -9.895758e-02 -2.267777e-01 -2.497846e-01 -2.093182e-01 3.661883e-01 -3.551897e-01 2.217390e-01 3.167610e-01 -2.658721e-02 -8.570136e-02
<VARIANCE> 39
 6.757689e+01 3.190150e+01 2.983231e+01 4.283321e+01 3.415792e+01 3.047961e+01 6.599853e+01 5.302080e+01 4.586835e+01 2.042177e+01 1.635936e+01 2.353783e+01 1.260885e+01 2.607109e+00 2.583627e+00 2.458950e+00 3.295818e+00 3.352556e+00 2.963815e+00 4.955072e+00 3.456760e+00 3.573948e+00 2.036502e+00 1.974970e+00 1.575407e+00 8.295711e-01 1.344682e+00 4.267456e-01 3.738578e-01 7.216595e-01 4.031141e-01 4.639421e-01 1.013096e+00 4.749911e-01 8.352211e-01 3.333445e-01 3.449568e-01 2.392287e-01 2.959892e-01
<GCONST> 1.197503e+02
<STATE> 3
<MEAN> 39
 -2.393291e+01 -1.150149e-01 1.292907e+01 -1.584174e+01 3.187151e+00 6.123635e+00 -5.530604e+00 -3.664124e+00 1.161468e+00 -4.582364e+00 7.497044e-01 -2.740957e+00 7.860532e+01 -1.003480e-01 -2.658825e-01 -6.222479e-01 2.278943e-02 -2.512130e-01 -3.980938e-01 1.732434e-01 1.864520e-01 8.237021e-02 1.631366e-01 1.405712e-01 2.869917e-01 -2.233874e-01 8.852187e-01 -5.964956e-02 -1.478126e-01 3.362582e-01 -5.032320e-02 -2.037883e-01 -2.288282e-01 -2.264537e-01 -3.765753e-01 5.534349e-03 -8.721862e-02 -1.388153e-03 -2.646840e-01
<VARIANCE> 39
 8.408306e+00 1.376614e+01 2.071216e+01 1.288012e+01 2.557319e+01 2.124514e+01 2.501359e+01 4.150388e+01 1.959547e+01 1.417587e+01 1.390032e+01 1.575550e+01 6.795498e+00 2.486343e+00 9.015567e-01 9.640763e-01 1.608961e+00 1.107689e+00 1.580011e+00 1.762315e+00 1.806061e+00 1.298257e+00 1.206635e+00 1.366121e+00 8.961865e-01 4.849260e-01 4.200312e-01 1.746604e-01 2.103036e-01 2.188467e-01 2.517651e-01 2.959782e-01 4.544098e-01 3.977578e-01 4.942303e-01 2.454967e-01 2.862882e-01 2.078622e-01 8.771723e-02
<GCONST> 9.371845e+01
<STATE> 4
<MEAN> 39
 -1.369531e+01 -1.401632e+00 9.396978e+00 -1.073344e+01 6.012316e-01 2.215875e+00 -6.194879e+00 -7.764455e+00 -2.193020e+00 -3.546949e+00 -3.305800e-01 -1.527646e+00 7.494698e+01 3.918772e+00 4.076194e-01 -9.103404e-01 8.764037e-01 -1.066783e-01 -1.193180e+00 -1.609061e+00 -6.825025e-01 -2.160762e+00 1.709469e-01 -3.689878e-01 -2.630634e-01 -1.069146e+00 1.613571e-02 4.886176e-02 1.596273e-01 -1.592554e-01 -3.466517e-03 9.518144e-02 -2.425889e-01 2.379251e-01 -1.973899e-01 1.061751e-01 1.655446e-01 -1.872597e-01 1.748085e-01
<VARIANCE> 39
 4.828304e+01 2.451856e+01 2.266851e+01 2.854778e+01 3.007413e+01 3.552599e+01 7.623928e+01 4.440697e+01 4.246146e+01 2.003715e+01 1.922772e+01 1.717514e+01 1.666183e+01 2.775775e+00 1.645999e+00 2.045865e+00 2.277105e+00 2.110060e+00 3.737414e+00 5.044137e+00 5.345228e+00 4.733162e+00 2.383910e+00 2.385773e+00 1.930334e+00 1.165831e+00 8.539718e-01 4.148535e-01 2.917299e-01 3.658170e-01 3.640380e-01 6.012965e-01 7.893373e-01 7.780719e-01 8.608572e-01 4.474444e-01 4.438319e-01 3.329844e-01 1.917022e-01
<GCONST> 1.184084e+02
<TRANSP> 5
 0.000000e+00 1.000000e+00 0.000000e+00 0.000000e+00 0.000000e+00
 0.000000e+00 6.822309e-01 3.177691e-01 0.000000e+00 0.000000e+00
 0.000000e+00 0.000000e+00 8.417408e-01 1.582592e-01 0.000000e+00
 0.000000e+00 0.000000e+00 0.000000e+00 6.803873e-01 3.196127e-01
 0.000000e+00 0.000000e+00 0.000000e+00 0.000000e+00 0.000000e+00
<ENDHMM>
~h "t"
<BEGINHMM>
<NUMSTATES> 5
<STATE> 2
<MEAN> 39
 -8.414912e-02 2.959988e+00 -1.320716e+00 -2.176639e+00 -6.028832e-01 4.262754e+00 -6.928460e+00 -3.606630e-01 -7.167522e+00 -1.909480e+00 -1.239535e+00 -4.056270e+00 6.699335e+01 -1.409669e+00 -8.182376e-01 1.076608e-01 1.747121e-01 -1.725756e-01 1.321801e-01 1.028689e+00 3.262720e-02 1.457476e+00 -1.404689e-01 -2.928782e-02 4.659112e-01 2.068483e-01 -7.826286e-01 -6.719050e-01 9.730841e-01 -5.982407e-01 2.028708e-01 -7.052670e-01 -5.593777e-01 -7.367818e-01 -2.336054e-01 -6.340718e-02 5.683085e-01 -2.384900e-02 1.026050e+00
<VARIANCE> 39
 2.691741e+01 1.380186e+01 5.023974e+01 4.952603e+01 2.660690e+01 3.780366e+01 3.144717e+01 3.284198e+01 3.531620e+01 2.711798e+01 2.113045e+01 1.902331e+01 1.519169e+01 4.117154e+00 3.605076e+00 7.665589e+00 5.603885e+00 3.138710e+00 4.558077e+00 4.793396e+00 4.859453e+00 4.039930e+00 2.739246e+00 3.233116e+00 2.511846e+00 4.186330e+00 5.312976e-01 3.321895e-01 8.544517e-01 7.863217e-01 3.832660e-01 5.798570e-01 8.815092e-01 8.163755e-01 6.148000e-01 4.172263e-01 4.752179e-01 4.864303e-01 3.335506e-01
<GCONST> 1.251578e+02
<STATE> 3
<MEAN> 39
 -1.321494e+01 -5.335666e+00 9.161847e+00 -7.109039e+00 8.658162e-02 9.842105e-01 -6.239926e+00 -5.004862e+00 -1.970316e+00 -3.269400e+00 2.150399e+00 -2.383776e+00 7.610278e+01 -1.894763e+00 -1.807884e+00 1.639710e+00 -7.014257e-02 1.299134e-01 -8.579642e-01 -6.746673e-01 -1.432164e+00 2.798862e-01 1.328132e-01 6.500837e-01 1.970013e-01 1.722138e+00 1.005793e+00 4.816203e-01 -5.542421e-01 2.721328e-01 -2.284525e-02 3.995084e-03 -3.903874e-01 -9.789667e-02 -6.360852e-01 1.917910e-01 -1.638206e-01 -1.411034e-01 -4.254872e-01
<VARIANCE> 39
 6.821326e+01 2.983282e+01 4.812976e+01 7.271813e+01 3.282327e+01 4.271882e+01 3.493264e+01 2.994889e+01 3.884191e+01 2.078526e+01 1.956696e+01 1.991787e+01 1.704340e+01 7.273423e+00 2.676850e+00 6.064435e+00 5.744833e+00 2.368817e+00 4.352535e+00 4.489769e+00 3.646719e+00 3.556042e+00 2.345241e+00 3.035678e+00 2.078705e+00 3.127288e+00 1.039288e+00 7.188637e-01 8.487664e-01 1.064162e+00 5.124534e-01 6.597891e-01 9.070439e-01 6.572091e-01 8.026204e-01 5.304461e-01 4.870531e-01 4.314143e-01 5.330588e-01
<GCONST> 1.288632e+02
<STATE> 4
<MEAN> 39
 -8.537002e+00 -6.350206e+00 7.448924e+00 -4.846111e+00 1.415908e-01 -1.608004e+00 -1.002872e+01 -8.245686e+00 -6.591259e+00 -1.317444e+00 2.740104e+00 -2.745686e+00 7.564755e+01 1.868091e+00 6.394820e-01 -1.799839e-01 3.996067e-02 1.058734e-01 -5.160636e-01 -1.416839e+00 -9.802181e-01 -1.909230e+00 2.390849e-01 -4.800441e-02 -5.016433e-01 -1.040332e-01 4.252391e-01 5.227488e-01 -2.243963e-01 -2.303709e-01 -1.040334e-01 2.438916e-01 -3.375607e-02 3.447081e-01 -2.220573e-01 6.159187e-02 -2.667755e-02 -1.656357e-01 -2.534219e-01
<VARIANCE> 39
 6.562701e+01 2.981177e+01 3.846830e+01 4.708273e+01 3.037404e+01 5.525655e+01 6.146111e+01 3.619308e+01 8.280927e+01 3.193670e+01 3.075593e+01 3.181926e+01 1.463172e+01 7.530399e+00 2.778412e+00 2.919971e+00 3.677562e+00 2.135570e+00 4.478123e+00 6.250915e+00 4.365290e+00 5.596928e+00 3.232616e+00 2.597267e+00 2.303375e+00 2.516685e+00 7.495384e-01 6.345835e-01 5.251324e-01 6.039181e-01 4.519176e-01 6.900787e-01 9.884476e-01 6.893635e-01 1.058824e+00 6.800846e-01 5.408345e-01 4.908630e-01 3.763347e-01
<GCONST> 1.298544e+02
<TRANSP> 5
 0.000000e+00 1.000000e+00 0.000000e+00 0.000000e+00 0.000000e+00
 0.000000e+00 6.056479e-01 3.943520e-01 0.000000e+00 0.000000e+00
 0.000000e+00 0.000000e+00 5.504692e-01 4.495309e-01 0.000000e+00
 0.000000e+00 0.000000e+00 0.000000e+00 4.869178e-01 5.130822e-01
 0.000000e+00 0.000000e+00 0.000000e+00 0.000000e+00 0.000000e+00
<ENDHMM>
~h "v"
<BEGINHMM>
<NUMSTATES> 5
<STATE> 2
<MEAN> 39
 3.303656e+00 1.769354e-01 2.838366e+00 -5.445297e+00 -1.055874e+00 -3.467519e+00 -1.369812e+01 -7.638704e+00 -1.809486e+01 8.461812e-01 6.392406e+00 -4.268315e+00 7.397633e+01 -2.399723e-01 1.875399e+00 -1.132620e+00 7.297447e-01 5.447127e-01 8.261340e-01 2.428920e+00 2.952022e-01 1.258665e+00 -9.328765e-01 -1.104421e+00 5.775100e-01 -1.199252e+00 -7.631489e-01 2.804273e-01 -2.601777e-02 3.748685e-01 2.578517e-01 -2.926696e-02 7.883059e-01 3.161994e-02 9.353031e-01 -3.971302e-01 -5.075053e-01 -1.560502e-01 -6.015693e-02
<VARIANCE> 39
 7.678669e+00 2.151795e+01 1.904907e+01 4.046449e+01 3.635227e+01 5.028107e+01 3.650928e+01 6.957139e+01 7.902643e+01 3.414345e+01 2.876434e+01 3.041112e+01 8.904708e+00 1.263490e+00 1.167127e+00 1.927368e+00 1.955457e+00 2.503115e+00 2.393015e+00 2.723342e+00 2.929116e+00 1.789903e+00 1.607451e+00 1.514465e+00 1.777032e+00 5.309529e-01 1.565394e-01 1.798468e-01 1.995531e-01 3.294398e-01 3.467806e-01 2.815624e-01 5.872612e-01 3.625185e-01 6.382303e-01 3.464587e-01 2.666419e-01 1.799108e-01 8.831403e-02
<GCONST> 1.055006e+02
<STATE> 3
<MEAN> 39
 2.762161e+00 4.228567e+00 1.183645e+00 -4.531273e+00 -1.861946e-01 -2.497949e+00 -9.401649e+00 -6.891037e+00 -1.663652e+01 -1.613572e+00 3.936756e+00 -4.098007e+00 7.145993e+01 -1.377739e+00 1.713726e+00 -8.684930e-01 1.524861e+00 8.780924e-01 6.617201e-01 2.872915e+00 1.459422e-01 2.624935e+00 -1.286544e+00 -1.730951e+00 1.760443e-01 -1.012118e+00 -5.738787e-01 -2.795365e-01 1.460868e-01 7.552502e-02 8.245802e-02 -3.236967e-02 2.485703e-03 -2.851716e-02 4.855234e-01 -7.082644e-02 -1.164121e-01 -1.300908e-01 2.650229e-01
<VARIANCE> 39
 8.379316e+00 1.262922e+01 2.404039e+01 3.503229e+01 2.679583e+01 3.741185e+01 2.222624e+01 3.537840e+01 8.802811e+01 2.175241e+01 1.594672e+01 2.848754e+01 5.987567e+00 1.709525e+00 1.729784e+00 1.683411e+00 1.809625e+00 2.435568e+00 2.104610e+00 4.915141e+00 3.855226e+00 3.359181e+00 1.886084e+00 1.888296e+00 1.405803e+00 4.601147e-01 2.198051e-01 1.316454e-01 2.003962e-01 2.457014e-01 2.560594e-01 2.800217e-01 2.975184e-01 3.046631e-01 4.832257e-01 2.518235e-01 1.538438e-01 2.200518e-01 1.059492e-01
<GCONST> 1.016122e+02
<STATE> 4
<MEAN> 39
 -3.000268e+00 6.574483e+00 -1.969168e+00 -3.433068e+00 3.035819e+00 -6.952158e-01 -5.664797e+00 -6.995056e+00 -1.072513e+01 -4.749518e+00 1.353608e+00 -1.760401e+00 7.100294e+01 -4.628697e-01 6.197343e-02 -2.547154e-01 1.998785e-02 9.013330e-02 1.649578e-01 9.215721e-02 2.494497e-01 5.291572e-01 -2.248472e-01 -2.264708e-01 9.143864e-03 -1.299627e-01 4.830112e-01 -3.342192e-01 1.953213e-01 -1.922265e-01 -2.686775e-01 -9.646077e-02 -7.141219e-01 5.924017e-02 -5.333742e-01 2.577473e-01 3.850145e-01 -5.341914e-02 6.522387e-02
<VARIANCE> 39
 4.228040e+01 1.352119e+01 1.580188e+01 5.565237e+01 2.666890e+01 3.254786e+01 6.934074e+01 2.634322e+01 1.166806e+02 1.866856e+01 2.246028e+01 2.319177e+01 7.217157e+00 4.435987e+00 1.876796e+00 9.695440e-01 2.842625e+00 1.749740e+00 1.747726e+00 5.532579e+00 2.667784e+00 6.390808e+00 1.969638e+00 2.656667e+00 1.251352e+00 8.109105e-01 5.777193e-01 3.708669e-01 3.113218e-01 3.939581e-01 3.786769e-01 3.758111e-01 1.104700e+00 4.136222e-01 9.261197e-01 3.517224e-01 4.880735e-01 2.773836e-01 1.751116e-01
<GCONST> 1.142314e+02
<TRANSP> 5
 0.000000e+00 1.000000e+00 0.000000e+00 0.000000e+00 0.000000e+00
 0.000000e+00 1.805508e-01 8.194492e-01 0.000000e+00 0.000000e+00
 0.000000e+00 0.000000e+00 2.861460e-01 7.138540e-01 0.000000e+00
 0.000000e+00 0.000000e+00 0.000000e+00 7.876942e-01 2.123058e-01
 0.000000e+00 0.000000e+00 0.000000e+00 0.000000e+00 0.000000e+00
<ENDHMM>
~h "w"
<BEGINHMM>
<NUMSTATES> 5
<STATE> 2
<MEAN> 39
 3.175089e+00 5.083293e+00 -1.088110e+00 5.678508e-01 -1.541199e+00 -1.590633e+00 -9.497748e+00 -4.279459e+00 -1.336931e+01 -4.677990e+00 -1.784248e+00 -3.719716e+00 6.817428e+01 1.292098e+00 1.703068e+00 -7.604004e-02 -5.556666e-02 -1.170240e+00 -7.020715e-01 -1.650260e-01 4.278763e-01 -6.690081e-01 -2.607598e-01 -7.273670e-01 -6.111577e-01 -5.328685e-01 -2.062030e-01 -1.800688e-01 2.233954e-01 -2.677062e-01 -8.822116e-02 -2.896705e-01 -4.392362e-02 1.344629e-01 1.867187e-01 1.156447e-01 3.575011e-01 -1.494264e-01 2.856024e-01
<VARIANCE> 39
 1.269352e+01 2.570765e+01 3.669108e+01 2.930389e+01 2.005398e+01 2.551213e+01 3.102332e+01 4.784491e+01 5.115732e+01 1.837271e+01 2.927911e+01 1.942638e+01 1.955453e+01 1.139586e+00 1.339210e+00 1.972560e+00 2.458494e+00 1.599332e+00 2.860193e+00 4.929248e+00 4.042562e+00 4.220019e+00 2.315042e+00 2.630620e+00 2.379515e+00 1.183915e+00 1.420877e-01 3.033138e-01 3.121812e-01 4.244686e-01 2.446079e-01 4.828020e-01 5.192983e-01 7.893624e-01 6.633516e-01 3.323511e-01 4.884333e-01 4.015191e-01 1.459524e-01
<GCONST> 1.116855e+02
<STATE> 3
<MEAN> 39
 6.103089e+00 8.277321e+00 1.356693e-01 -2.183116e+00 -5.937304e+00 -6.547709e+00 -9.986644e+00 -3.786458e+00 -1.481918e+01 -4.262720e+00 -7.762519e-02 -7.893981e+00 6.932481e+01 2.833075e-01 -2.003567e-02 3.122781e-03 -8.668858e-01 -7.045119e-01 -6.873323e-01 6.546803e-02 7.599774e-01 2.418123e-02 1.126688e-01 6.106289e-01 -3.742957e-01 3.228328e-01 -1.989809e-01 -4.942889e-01 7.258392e-02 -2.049083e-01 2.942564e-01 2.353253e-01 -1.507735e-01 -2.530024e-01 -9.893258e-02 3.218078e-02 3.567188e-01 2.394531e-01 2.979759e-01
<VARIANCE> 39
 5.625007e+00 1.332715e+01 1.224370e+01 2.909754e+01 2.295012e+01 2.613108e+01 2.733333e+01 2.999690e+01 3.046115e+01 2.326052e+01 1.991339e+01 2.792428e+01 7.540586e+00 3.093781e-01 1.291868e+00 8.606499e-01 2.825114e+00 1.564019e+00 1.904980e+00 1.920464e+00 3.130401e+00 3.343405e+00 1.642685e+00 2.444096e+00 2.103447e+00 1.290181e+00 5.452381e-02 1.124366e-01 1.142097e-01 3.640979e-01 2.633278e-01 4.223250e-01 4.029023e-01 5.453995e-01 4.701100e-01 4.075498e-01 2.974348e-01 4.318552e-01 7.625268e-02
<GCONST> 9.806766e+01
<STATE> 4
<MEAN> 39
 5.557183e+00 4.151978e+00 1.084693e+00 -9.106819e+00 -4.382801e+00 -4.669045e+00 -1.398681e+01 -1.765205e+00 -1.550529e+01 -3.876273e+00 6.842692e+00 -4.898799e+00 7.277634e+01 -2.577652e-01 -9.500549e-01 5.163920e-02 -6.795925e-01 7.681726e-01 3.400236e-01 -6.965225e-02 -4.692988e-01 -3.300232e-01 2.589326e-01 9.595641e-01 5.758812e-01 7.127861e-01 -7.433432e-02 -8.209758e-04 6.990767e-02 2.608276e-01 1.885023e-01 1.584231e-01 -1.025792e-01 -1.997458e-01 9.747452e-02 4.753004e-02 -9.553667e-02 9.935072e-02 -9.695506e-02
<VARIANCE> 39
 4.880895e+00 2.262270e+01 1.393988e+01 3.007125e+01 6.222170e+01 3.124086e+01 6.228310e+01 1.037247e+02 5.974022e+01 3.445074e+01 3.994246e+01 3.057561e+01 1.069521e+01 2.003397e-01 1.355638e+00 7.734206e-01 2.077903e+00 2.238555e+00 2.030056e+00 3.219646e+00 4.657771e+00 3.864715e+00 3.101067e+00 2.985873e+00 2.039001e+00 5.949019e-01 3.066999e-02 1.242545e-01 1.665384e-01 2.899445e-01 3.024191e-01 3.348138e-01 5.365908e-01 7.012182e-01 7.109873e-01 5.172490e-01 5.303762e-01 3.652733e-01 5.685697e-02
<GCONST> 1.056590e+02
<TRANSP> 5
 0.000000e+00 1.000000e+00 0.000000e+00 0.000000e+00 0.000000e+00
 0.000000e+00 5.882879e-01 4.117121e-01 0.000000e+00 0.000000e+00
 0.000000e+00 0.000000e+00 7.635642e-01 2.364359e-01 0.000000e+00
 0.000000e+00 0.000000e+00 0.000000e+00 7.869617e-01 2.130383e-01
 0.000000e+00 0.000000e+00 0.000000e+00 0.000000e+00 0.000000e+00
<ENDHMM>
~h "y"
<BEGINHMM>
<NUMSTATES> 5
<STATE> 2
<MEAN> 39
 -6.156788e-01 1.888124e+00 1.463956e+00 4.751667e+00 3.274048e+00 -1.294535e+00 -1.032764e+01 -8.879282e+00 -1.236398e+01 -3.900864e+00 3.567237e+00 -7.781666e+00 7.080799e+01 7.026594e-01 -2.349058e-01 1.068726e+00 8.771710e-01 -7.050189e-02 -5.467733e-01 -1.516819e+00 1.523363e-01 -1.265886e+00 -7.429204e-01 4.284475e-01 -1.482232e+00 1.789607e-01 -8.912267e-02 -2.363725e-01 3.618993e-01 -4.858714e-01 -2.472597e-01 -1.600075e-01 -1.460302e-01 2.890133e-01 -2.312533e-01 2.206641e-01 7.097170e-02 -2.619693e-01 2.142212e-01
<VARIANCE> 39
 2.212136e+01 2.840832e+01 6.984896e+01 1.134516e+01 1.926075e+01 4.053417e+01 2.824016e+01 7.291739e+01 8.818803e+01 4.237904e+01 3.301551e+01 2.361180e+01 2.151576e+01 4.751608e+00 1.611159e+00 3.034645e+00 1.883647e+00 1.206144e+00 2.748765e+00 7.867982e+00 4.862244e+00 5.876199e+00 2.120060e+00 3.466107e+00 1.752594e+00 3.536889e-01 2.834850e-01 4.482434e-01 6.782858e-01 2.870667e-01 2.112853e-01 3.380127e-01 4.179377e-01 6.339875e-01 1.006855e+00 6.839447e-01 3.936759e-01 2.552308e-01 4.207872e-02
<GCONST> 1.154426e+02
<STATE> 3
<MEAN> 39
 -2.349286e+00 -4.368614e-01 6.002973e+00 5.158936e+00 1.382958e+00 -3.331640e+00 -9.618862e+00 -4.390662e+00 -1.158990e+01 -4.376737e+00 2.479239e+00 -9.475341e+00 7.164169e+01 4.332043e-01 -1.056096e+00 2.369713e+00 5.074121e-01 3.224826e-01 -2.023567e+00 -1.319749e+00 -1.126335e+00 -2.111074e+00 3.443225e-01 6.516126e-01 -1.184195e+00 1.144779e+00 2.048924e-02 1.653745e-01 -2.307343e-01 -2.511385e-01 -1.224093e-02 2.033290e-01 -1.644571e-01 -3.184687e-01 3.147415e-01 3.527074e-01 1.743626e-01 1.586196e-01 -2.566955e-02
<VARIANCE> 39
 2.992728e+01 2.095017e+01 7.236410e+01 2.823841e+01 2.985675e+01 4.469220e+01 4.111591e+01 3.444914e+01 4.586570e+01 3.303465e+01 2.738407e+01 3.179537e+01 2.191974e+01 2.265817e+00 2.576697e+00 7.076290e+00 1.802674e+00 2.157408e+00 3.218186e+00 4.451736e+00 2.972736e+00 5.029718e+00 5.050317e+00 2.171907e+00 1.739860e+00 1.367037e+00 5.259161e-01 5.251083e-01 1.629147e+00 3.192846e-01 3.020256e-01 9.422019e-01 7.884204e-01 3.656633e-01 1.134871e+00 6.294641e-01 4.667076e-01 4.563948e-01 2.365376e-01
<GCONST> 1.233150e+02
<STATE> 4
<MEAN> 39
 5.374885e-01 -1.644458e+00 8.812521e+00 3.500579e+00 2.483024e+00 -5.012302e+00 -1.485198e+01 -9.520072e+00 -1.640333e+01 -4.201118e-01 7.370075e+00 -9.563908e+00 7.473939e+01 3.673307e-01 8.958297e-02 -6.185262e-01 -7.968076e-01 -2.409450e-02 1.855718e-01 -4.122093e-01 -6.656805e-01 -4.074578e-01 8.405614e-01 -2.965861e-03 2.978659e-01 5.789566e-02 3.446569e-03 9.490588e-02 -1.839077e-01 -7.114014e-02 -4.352312e-02 1.773058e-01 2.141574e-01 1.421144e-01 7.918686e-02 -8.393671e-02 -1.935704e-01 2.293339e-01 -9.936439e-02
<VARIANCE> 39
 1.174769e+01 1.449533e+01 4.490342e+01 2.777248e+01 1.739116e+01 2.949182e+01 4.873035e+01 5.400554e+01 3.510610e+01 4.414766e+01 1.576462e+01 2.777235e+01 4.369982e+00 1.922499e-01 5.458670e-01 1.063933e+00 1.412446e+00 1.152824e+00 1.614343e+00 4.368052e+00 2.911458e+00 2.079658e+00 1.398071e+00 1.879840e+00 1.614421e+00 1.161462e-01 6.591441e-02 8.406418e-02 2.307204e-01 1.444494e-01 2.246615e-01 2.533620e-01 7.722313e-01 6.318391e-01 4.616155e-01 3.422600e-01 3.165253e-01 2.282677e-01 3.444026e-02
<GCONST> 9.428085e+01
<TRANSP> 5
 0.000000e+00 1.000000e+00 0.000000e+00 0.000000e+00 0.000000e+00
 0.000000e+00 3.582879e-01 6.417121e-01 0.000000e+00 0.000000e+00
 0.000000e+00 0.000000e+00 6.321388e-01 3.678612e-01 0.000000e+00
 0.000000e+00 0.000000e+00 0.000000e+00 8.658767e-01 1.341233e-01
 0.000000e+00 0.000000e+00 0.000000e+00 0.000000e+00 0.000000e+00
<ENDHMM>
~h "z"
<BEGINHMM>
<NUMSTATES> 5
<STATE> 2
<MEAN> 39
 -9.280686e+00 -1.118320e-01 1.445954e+01 -8.866157e+00 8.418009e-01 4.908025e+00 -8.561069e+00 -8.371690e+00 -6.403409e+00 -4.656394e+00 -1.183029e+00 -4.001925e+00 7.517501e+01 -3.871892e+00 1.585891e-01 1.179758e+00 -1.737623e+00 5.245321e-01 1.212207e+00 2.205871e+00 -7.291811e-02 2.907238e+00 -3.506557e-01 -2.356319e-01 4.589268e-01 1.000205e+00 1.635495e-02 6.254917e-02 -5.423221e-01 7.406008e-02 -3.355157e-02 -2.721536e-01 -7.300384e-02 1.834581e-01 -1.901458e-01 9.450320e-02 1.771964e-01 -1.280567e-01 1.875744e-02
<VARIANCE> 39
 7.392266e+01 1.444486e+01 3.409953e+01 5.175692e+01 2.356599e+01 2.643552e+01 7.206126e+01 5.532048e+01 6.509380e+01 1.849267e+01 1.825397e+01 1.830973e+01 1.384152e+01 3.888338e+00 2.274954e+00 3.780439e+00 3.056659e+00 2.184514e+00 2.258558e+00 5.025236e+00 3.566884e+00 3.871977e+00 1.995722e+00 1.746060e+00 1.120665e+00 7.913569e-01 1.324949e+00 3.179674e-01 5.128384e-01 5.890686e-01 3.490419e-01 3.283547e-01 9.636317e-01 6.007954e-01 9.596489e-01 3.450001e-01 3.288551e-01 1.865057e-01 2.258188e-01
<GCONST> 1.178166e+02
<STATE> 3
<MEAN> 39
 -1.933226e+01 1.355785e+00 1.349362e+01 -1.337728e+01 3.270547e+00 6.600399e+00 -4.283852e+00 -6.226113e+00 -3.915821e-01 -5.727455e+00 -1.040993e+00 -3.603914e+00 7.737392e+01 -9.919834e-01 -4.819630e-02 -3.930112e-01 1.312245e-01 5.225841e-02 -1.090873e-03 4.995508e-01 3.176515e-01 6.453730e-01 -3.704079e-01 -1.653315e-01 1.407977e-01 7.643330e-02 1.154462e+00 -2.309875e-01 -2.136422e-01 5.344182e-01 -2.998275e-01 -4.178753e-01 -5.551962e-01 -1.878693e-01 -6.985626e-01 1.108698e-01 7.563730e-02 -2.772491e-02 -3.165932e-01
<VARIANCE> 39
 3.740919e+01 1.338899e+01 2.612665e+01 3.279781e+01 2.187331e+01 2.278157e+01 3.880025e+01 4.476561e+01 3.977732e+01 1.799245e+01 1.753378e+01 1.597852e+01 7.484879e+00 5.445846e+00 1.670749e+00 2.142509e+00 1.974519e+00 1.691821e+00 2.143669e+00 3.311084e+00 2.298065e+00 3.652542e+00 1.096680e+00 1.569608e+00 1.061280e+00 9.687467e-01 8.922606e-01 2.772861e-01 3.673480e-01 4.430465e-01 3.087310e-01 3.463999e-01 6.865505e-01 4.191475e-01 7.042236e-01 2.731961e-01 3.818006e-01 1.812103e-01 1.687804e-01
<GCONST> 1.085822e+02
<STATE> 4
<MEAN> 39
 -1.535438e+01 -2.161721e-01 1.027726e+01 -1.206126e+01 1.636279e+00 4.279073e+00 -6.322424e+00 -5.221520e+00 -2.266390e+00 -4.852547e+00 -8.409367e-01 -2.298394e+00 7.496959e+01 1.746868e+00 -1.147381e-01 -8.623301e-01 5.663648e-01 -3.421444e-01 -7.209151e-01 -7.005667e-01 -1.516758e-01 -9.243882e-01 4.781050e-01 3.191340e-01 2.145937e-02 -5.802833e-01 2.874835e-01 5.682791e-02 -1.418207e-01 2.916337e-02 5.508184e-03 -6.072286e-02 -1.138173e-01 9.148353e-02 -1.469408e-01 1.618724e-01 1.543266e-01 -6.219169e-02 -4.582952e-02
<VARIANCE> 39
 5.894572e+01 1.807552e+01 2.908039e+01 4.331528e+01 1.863675e+01 3.052556e+01 4.562302e+01 6.876962e+01 5.374635e+01 1.605274e+01 2.156200e+01 1.301212e+01 1.649991e+01 4.843354e+00 1.861857e+00 2.052819e+00 1.640707e+00 1.620525e+00 2.854858e+00 3.691160e+00 3.115541e+00 3.500962e+00 1.783602e+00 2.399354e+00 1.210291e+00 1.553013e+00 6.200325e-01 4.012126e-01 3.345710e-01 3.321387e-01 2.660028e-01 4.875858e-01 6.991943e-01 5.941985e-01 6.171500e-01 3.444124e-01 3.400890e-01 2.342197e-01 2.276438e-01
<GCONST> 1.140399e+02
<TRANSP> 5
 0.000000e+00 1.000000e+00 0.000000e+00 0.000000e+00 0.000000e+00
 0.000000e+00 7.351214e-01 2.648786e-01 0.000000e+00 0.000000e+00
 0.000000e+00 0.000000e+00 5.257513e-01 4.742487e-01 0.000000e+00
 0.000000e+00 0.000000e+00 0.000000e+00 8.097407e-01 1.902593e-01
 0.000000e+00 0.000000e+00 0.000000e+00 0.000000e+00 0.000000e+00
<ENDHMM>
~h "aa"
<BEGINHMM>
<NUMSTATES> 5
<STATE> 2
<MEAN> 39
 2.618804e+00 1.372617e+00 -8.546858e-01 -1.552026e+01 -4.089114e+00 -3.913739e+00 -5.270789e+00 2.152030e+00 -1.039804e+01 -7.772226e-01 4.660233e+00 -2.549006e+00 7.395712e+01 1.084180e-01 2.054617e-01 9.252951e-02 -7.144513e-01 -1.446097e-02 3.142661e-01 -2.073363e-01 4.131800e-01 -2.158241e-01 -1.997114e-01 1.820842e-01 -1.849602e-01 8.023722e-02 -5.222545e-02 -3.350553e-02 8.944876e-02 1.218146e-01 2.043886e-02 1.539146e-01 -5.320542e-02 -3.925307e-02 6.065609e-02 -7.813323e-02 3.176643e-02 5.776103e-04 -2.999694e-02
<VARIANCE> 39
 3.506001e+00 1.185127e+01 3.258090e+01 2.108025e+01 3.259656e+01 3.488969e+01 2.548557e+01 6.803529e+01 5.940112e+01 2.360210e+01 3.644683e+01 2.748383e+01 7.975722e+00 1.833586e-01 6.831619e-01 1.055887e+00 1.214567e+00 8.555139e-01 1.056133e+00 2.007014e+00 1.899850e+00 1.505967e+00 1.028869e+00 1.518657e+00 7.781545e-01 2.003399e-01 6.182446e-02 1.196228e-01 1.498810e-01 1.272791e-01 1.206525e-01 2.526743e-01 3.631444e-01 2.475481e-01 2.338080e-01 2.668456e-01 2.393679e-01 1.396701e-01 3.053273e-02
<GCONST> 8.664052e+01
<STATE> 3
<MEAN> 39
 3.915014e+00 9.703864e-01 -1.395446e+00 -1.658368e+01 -2.062237e+00 -2.301291e+00 -1.100878e+01 -5.281944e+00 -1.879859e+01 1.029293e+00 1.063244e+01 -5.352092e+00 7.501675e+01 5.849446e-02 1.845916e-01 -6.372661e-02 2.475603e-01 7.852273e-01 5.503120e-01 -4.970532e-01 -5.170840e-01 -6.291363e-01 -1.027258e-01 2.852427e-01 4.111248e-01 -2.414659e-01 -5.374191e-02 -1.281390e-04 -1.001660e-02 4.283835e-01 1.260919e-01 1.084602e-01 5.072846e-02 -1.457045e-01 -1.014495e-02 -4.014729e-02 -2.742223e-01 -3.627626e-03 -1.344075e-01
<VARIANCE> 39
 3.022029e+00 2.742957e+01 2.515876e+01 2.827358e+01 4.747639e+01 2.262846e+01 3.957822e+01 7.259003e+01 4.311044e+01 3.844652e+01 3.241249e+01 4.050623e+01 9.053368e+00 1.312414e-01 4.868799e-01 8.220448e-01 2.204649e+00 1.222015e+00 1.080613e+00 1.604439e+00 2.988905e+00 1.850825e+00 1.558712e+00 1.565881e+00 1.754233e+00 1.840324e-01 2.781633e-02 7.831337e-02 1.090400e-01 1.368482e-01 1.374082e-01 2.135526e-01 2.400726e-01 3.917946e-01 3.499610e-01 2.564334e-01 2.212701e-01 3.265998e-01 2.203140e-02
<GCONST> 8.938772e+01
<STATE> 4
<MEAN> 39
 1.850077e+00 -1.410483e+00 1.745939e+00 -9.712919e+00 9.283738e-01 -2.472140e+00 -1.379240e+01 -5.997722e+00 -1.728417e+01 3.628632e+00 6.676517e+00 -7.100103e+00 7.406596e+01 -7.251601e-03 2.974187e-01 -1.142136e-01 1.283293e+00 3.654594e-01 3.508386e-01 1.590324e-02 -1.961064e-01 3.819119e-01 -3.010651e-01 -9.153879e-01 -3.435175e-01 -4.728937e-01 -1.812593e-01 5.819410e-02 -1.790610e-01 1.980647e-02 -1.831024e-01 1.431160e-01 3.933019e-01 4.159220e-01 6.820618e-01 -1.220280e-01 -3.158457e-01 1.309901e-01 -1.482279e-01
<VARIANCE> 39
 7.667891e+00 2.279014e+01 4.562490e+01 4.528417e+01 3.990337e+01 3.336726e+01 4.953428e+01 1.061306e+02 1.048657e+02 2.476517e+01 2.804920e+01 2.063753e+01 2.752963e+01 5.323072e-01 8.817266e-01 2.405867e+00 3.888866e+00 1.218465e+00 3.287325e+00 2.919410e+00 3.957745e+00 3.823536e+00 1.323403e+00 2.509326e+00 2.240093e+00 2.441629e+00 2.356391e-01 6.932367e-02 1.902328e-01 3.759236e-01 3.314559e-01 3.958106e-01 3.718896e-01 7.041461e-01 7.845590e-01 1.468834e-01 3.305547e-01 3.810122e-01 1.718502e-01
<GCONST> 1.112116e+02
<TRANSP> 5
 0.000000e+00 1.000000e+00 0.000000e+00 0.000000e+00 0.000000e+00
 0.000000e+00 8.296230e-01 1.703770e-01 0.000000e+00 0.000000e+00
 0.000000e+00 0.000000e+00 8.358812e-01 1.641188e-01 0.000000e+00
 0.000000e+00 0.000000e+00 0.000000e+00 7.331476e-01 2.668525e-01
 0.000000e+00 0.000000e+00 0.000000e+00 0.000000e+00 0.000000e+00
<ENDHMM>
~h "ae"
<BEGINHMM>
<NUMSTATES> 5
<STATE> 2
<MEAN> 39
 -8.518414e-01 -5.815547e+00 4.522734e+00 -8.610123e+00 2.756869e+00 -9.378927e-01 -1.311978e+01 -3.396922e+00 -7.887871e+00 2.553056e+00 5.282760e+00 -8.241205e+00 7.749579e+01 4.400517e-01 6.926581e-02 -1.431073e-01 -1.062297e+00 -6.064191e-01 2.159935e-01 1.304272e-01 7.031078e-01 6.200377e-02 5.416558e-01 4.789232e-01 -1.770007e-01 2.362205e-01 -2.074365e-01 3.351577e-02 -1.398993e-02 1.683670e-01 5.044797e-03 9.105445e-02 3.039538e-01 9.432214e-02 2.347627e-01 -1.071195e-01 -2.432413e-01 6.437930e-02 -1.895008e-01
<VARIANCE> 39
 9.516900e+00 2.126258e+01 2.280841e+01 3.244957e+01 4.017954e+01 4.606789e+01 6.381626e+01 3.830291e+01 5.072435e+01 2.301966e+01 2.624908e+01 4.203112e+01 1.026210e+01 3.689589e-01 1.548501e+00 8.357217e-01 1.259974e+00 1.285368e+00 1.436852e+00 3.370092e+00 2.185659e+00 1.502102e+00 1.771457e+00 1.618541e+00 1.542052e+00 1.994443e-01 1.772979e-01 3.293993e-01 1.551644e-01 2.525937e-01 2.760347e-01 3.163924e-01 7.153251e-01 2.525256e-01 4.134303e-01 3.809934e-01 3.084090e-01 2.600420e-01 6.939750e-02
<GCONST> 1.004313e+02
<STATE> 3
<MEAN> 39
 1.610999e+00 -4.780267e+00 3.172257e+00 -1.448829e+01 -8.291582e-01 -7.247704e-02 -1.203330e+01 -3.537572e-01 -8.569256e+00 2.892287e+00 6.671536e+00 -6.391098e+00 7.775413e+01 2.284872e-02 2.867469e-02 -3.883995e-02 6.563463e-02 1.405719e-01 -1.278338e-01 4.856972e-02 -8.068209e-02 -1.770319e-01 1.641174e-01 -2.465793e-02 -7.654550e-02 -9.712312e-02 -1.967209e-02 1.396772e-01 7.670202e-02 2.568396e-01 6.716884e-02 -7.544290e-02 -1.100588e-01 -1.784373e-01 -1.048512e-01 -3.748686e-02 -7.200049e-02 3.840644e-02 -1.079754e-01
<VARIANCE> 39
 4.216123e+00 2.096925e+01 2.417230e+01 1.624942e+01 2.149502e+01 3.100636e+01 3.310274e+01 4.305943e+01 3.380961e+01 3.238156e+01 2.828944e+01 3.502683e+01 8.209124e+00 1.240678e-01 8.093470e-01 4.652441e-01 7.633152e-01 7.358190e-01 9.864506e-01 9.597793e-01 1.550001e+00 9.197394e-01 9.704620e-01 9.672564e-01 8.018585e-01 9.881064e-02 2.936047e-02 1.631488e-01 8.076715e-02 1.118222e-01 1.106835e-01 2.138835e-01 1.858850e-01 1.702020e-01 1.763788e-01 1.746529e-01 1.610237e-01 1.117963e-01 3.896647e-02
<GCONST> 7.797215e+01
<STATE> 4
<MEAN> 39
 1.121667e+00 -4.496868e+00 2.751005e+00 -9.560842e+00 -4.483489e-01 -4.926826e+00 -1.587125e+01 -7.257703e+00 -1.175143e+01 6.951919e+00 6.118414e+00 -8.042851e+00 7.630943e+01 1.655120e-01 9.039601e-01 4.187022e-01 1.135368e+00 3.254357e-01 -1.552900e-01 -1.795392e-01 -1.571096e-01 -4.845493e-01 -2.220787e-01 -4.925871e-01 -4.274518e-02 -5.867063e-01 -5.264247e-02 2.649748e-01 -2.022078e-01 3.177053e-01 -9.990519e-02 5.656916e-01 4.856461e-01 4.355299e-01 3.427208e-01 -4.409806e-01 -2.582979e-01 1.967807e-01 -3.672871e-01
<VARIANCE> 39
 4.908886e+00 2.680527e+01 4.006831e+01 2.309294e+01 1.698007e+01 4.471275e+01 4.549398e+01 5.792278e+01 3.457445e+01 4.650225e+01 3.051483e+01 5.123730e+01 2.701549e+01 3.272546e-01 3.046960e+00 2.703364e+00 2.310449e+00 1.843414e+00 4.042480e+00 3.414835e+00 3.628523e+00 2.814066e+00 3.962957e+00 1.932720e+00 1.943132e+00 3.342984e+00 1.192230e-01 4.216231e-01 3.853855e-01 2.716914e-01 3.488121e-01 5.105878e-01 6.429703e-01 6.585442e-01 6.515790e-01 5.809136e-01 3.890840e-01 4.736744e-01 2.976880e-01
<GCONST> 1.155196e+02
<TRANSP> 5
 0.000000e+00 1.000000e+00 0.000000e+00 0.000000e+00 0.000000e+00
 0.000000e+00 6.392310e-01 3.607690e-01 0.000000e+00 0.000000e+00
 0.000000e+00 0.000000e+00 8.064113e-01 1.935887e-01 0.000000e+00
 0.000000e+00 0.000000e+00 0.000000e+00 6.104096e-01 3.895904e-01
 0.000000e+00 0.000000e+00 0.000000e+00 0.000000e+00 0.000000e+00
<ENDHMM>
~h "ah"
<BEGINHMM>
<NUMSTATES> 5
<STATE> 2
<MEAN> 39
 2.086374e+00 -2.643956e+00 2.863492e+00 -9.365122e+00 1.757710e-01 -6.790905e+00 -1.350999e+01 -7.921834e+00 -1.624970e+01 1.105704e+00 7.442097e+00 -6.442689e+00 7.719884e+01 2.831498e-01 -1.746474e-01 -3.622464e-01 -5.789408e-01 -4.186119e-01 -7.232539e-02 6.189333e-01 8.294854e-01 -1.129407e-01 6.674401e-01 4.908921e-01 -2.857635e-01 2.001754e-01 -1.544850e-01 2.346230e-01 -1.366549e-01 4.735727e-01 -1.265345e-01 7.074904e-01 3.737033e-01 5.817711e-01 5.726261e-01 -3.500119e-01 -5.611963e-01 2.009453e-01 -4.905550e-01
<VARIANCE> 39
 4.095202e+00 2.194741e+01 2.060822e+01 5.116774e+01 2.557752e+01 3.164444e+01 5.911372e+01 1.039218e+02 3.286929e+01 4.508477e+01 1.998033e+01 3.245043e+01 8.011037e+00 8.052395e-01 2.421913e+00 1.746320e+00 5.152601e+00 1.777868e+00 5.225871e+00 3.743865e+00 5.434229e+00 3.460806e+00 2.665391e+00 3.575523e+00 1.380791e+00 2.119963e+00 2.381595e-01 3.376082e-01 1.699371e-01 4.494179e-01 3.297868e-01 6.926480e-01 1.064661e+00 9.574964e-01 7.433398e-01 4.468555e-01 5.113449e-01 3.579763e-01 1.651900e-01
<GCONST> 1.159381e+02
<STATE> 3
<MEAN> 39
 2.766377e+00 -1.441181e+00 1.398482e+00 -1.046515e+01 -1.174064e+00 -4.296362e+00 -1.015500e+01 -5.128272e-01 -1.376010e+01 1.328245e+00 6.985118e+00 -6.934611e+00 7.588779e+01 5.944825e-02 3.266987e-01 -3.092637e-01 4.545652e-01 -5.762398e-01 9.373609e-01 8.199436e-01 1.633800e+00 9.561803e-01 -4.391542e-01 -7.178245e-01 4.289338e-01 -7.613080e-01 -1.006632e-01 1.777603e-01 -3.133669e-02 4.096524e-01 2.041539e-02 4.185929e-01 -4.161537e-02 -1.621050e-01 2.652848e-01 -1.791447e-01 -3.546773e-01 2.271843e-01 -3.112110e-01
<VARIANCE> 39
 3.589979e+00 1.492591e+01 2.324101e+01 4.873690e+01 2.353069e+01 3.476786e+01 3.096366e+01 9.001694e+01 2.521540e+01 4.494035e+01 2.874131e+01 2.544522e+01 1.040261e+01 5.319533e-01 1.745070e+00 9.879361e-01 3.673028e+00 1.711018e+00 3.640893e+00 2.561493e+00 4.755820e+00 3.271730e+00 1.876959e+00 2.657447e+00 1.271171e+00 1.867758e+00 1.602691e-01 2.665449e-01 1.674994e-01 4.012046e-01 2.416099e-01 5.642219e-01 3.790888e-01 7.106866e-01 4.173993e-01 4.409291e-01 4.723213e-01 2.980617e-01 1.819279e-01
<GCONST> 1.079864e+02
<STATE> 4
<MEAN> 39
 2.128339e+00 1.808022e-01 4.629339e+00 -1.037876e+01 -3.653456e+00 -5.979600e-01 -7.024727e+00 6.988623e+00 -1.000473e+01 -3.831337e+00 6.093165e+00 -2.653214e+00 7.421390e+01 -6.059673e-02 4.181624e-01 -7.544874e-02 9.174436e-01 1.743459e-02 8.490909e-01 2.716810e-01 7.669400e-02 4.741581e-01 -1.531418e-01 -7.261020e-01 3.254344e-01 -6.769489e-01 -9.362513e-02 8.060752e-02 -5.823922e-02 1.117662e-01 1.739095e-01 1.214434e-01 -1.459549e-01 -3.384672e-01 1.262645e-02 -3.626755e-02 -4.568639e-02 -4.738784e-02 -5.653065e-02
<VARIANCE> 39
 4.496776e+00 1.322895e+01 2.375791e+01 4.686190e+01 2.983405e+01 3.383803e+01 2.497282e+01 7.375429e+01 2.145050e+01 4.072933e+01 3.143881e+01 2.219779e+01 1.134595e+01 6.902662e-01 1.572839e+00 1.326828e+00 2.063348e+00 1.287336e+00 2.443353e+00 2.151965e+00 3.796791e+00 3.065805e+00 1.827506e+00 2.007027e+00 1.039829e+00 1.151933e+00 1.376183e-01 2.729056e-01 1.862040e-01 3.446009e-01 2.740945e-01 5.163502e-01 3.891283e-01 6.066196e-01 4.623341e-01 3.765705e-01 4.299169e-01 1.744052e-01 2.017621e-01
<GCONST> 1.045332e+02
<TRANSP> 5
 0.000000e+00 1.000000e+00 0.000000e+00 0.000000e+00 0.000000e+00
 0.000000e+00 5.784134e-01 4.215866e-01 0.000000e+00 0.000000e+00
 0.000000e+00 0.000000e+00 4.605698e-01 5.394302e-01 0.000000e+00
 0.000000e+00 0.000000e+00 0.000000e+00 7.064660e-01 2.935340e-01
 0.000000e+00 0.000000e+00 0.000000e+00 0.000000e+00 0.000000e+00
<ENDHMM>
~h "ao"
<BEGINHMM>
<NUMSTATES> 5
<STATE> 2
<MEAN> 39
 4.970812e+00 4.091259e+00 3.119337e+00 -1.083883e+01 -9.832021e+00 -9.492570e+00 -1.142506e+01 -1.436001e+00 -1.335104e+01 -1.348126e+00 3.909323e+00 -4.094328e+00 7.381342e+01 2.054868e-01 8.438530e-02 -8.306172e-02 -8.835226e-01 -2.523624e-02 2.897653e-01 -3.222626e-01 3.712932e-01 -1.376046e-01 -4.757763e-01 4.418687e-01 2.146629e-01 5.632119e-02 -1.533716e-01 -5.037997e-02 -1.701024e-03 6.935316e-02 2.477321e-01 3.398308e-01 -2.922257e-02 -1.036270e-01 -4.948353e-03 -1.659405e-01 9.042910e-02 1.070103e-01 -4.112342e-02
<VARIANCE> 39
 4.722955e+00 2.927786e+01 2.499835e+01 3.469190e+01 4.406644e+01 2.213749e+01 2.716666e+01 3.827234e+01 4.329632e+01 4.021763e+01 3.010667e+01 5.259604e+01 8.157652e+00 4.235115e-01 6.240762e-01 6.534572e-01 1.241030e+00 1.729221e+00 1.740810e+00 1.721214e+00 2.804865e+00 2.065069e+00 1.809900e+00 1.960283e+00 1.644087e+00 1.885677e-01 1.263932e-01 1.335179e-01 9.099559e-02 1.443766e-01 1.333722e-01 2.335032e-01 3.726834e-01 3.719434e-01 3.334269e-01 2.537946e-01 2.614806e-01 2.675188e-01 2.678278e-02
<GCONST> 9.347795e+01
<STATE> 3
<MEAN> 39
 4.858140e+00 4.881783e+00 -1.253898e+00 -1.816807e+01 1.127365e+00 -1.026043e+00 -1.299709e+01 -3.223342e+00 -2.239470e+01 -6.448526e+00 9.919240e+00 -8.544591e-01 7.397985e+01 4.866633e-02 1.532083e-01 -2.250053e-01 4.670646e-01 7.099722e-01 1.021739e+00 -1.439802e-01 2.253391e-02 -5.388356e-01 -1.862701e-01 1.361457e-01 1.988104e-02 -3.413795e-01 -7.037552e-02 3.485740e-03 -9.431435e-03 6.220634e-01 -1.379489e-01 -1.597883e-01 2.172023e-01 -5.675356e-02 3.300823e-01 4.037755e-01 -4.147530e-01 -2.476691e-01 -1.533851e-01
<VARIANCE> 39
 2.232256e+00 1.024845e+01 1.997313e+01 2.591493e+01 5.124909e+01 1.913351e+01 2.173735e+01 5.605166e+01 6.955342e+01 5.015137e+01 2.179179e+01 2.725229e+01 3.919816e+00 1.699434e-01 4.368881e-01 5.507754e-01 2.209638e+00 1.958123e+00 2.170067e+00 1.123847e+00 3.139558e+00 2.913517e+00 3.129896e+00 1.495211e+00 1.858749e+00 2.683463e-01 7.143702e-02 8.672477e-02 1.346789e-01 1.859962e-01 2.342863e-01 2.647642e-01 2.571649e-01 4.068613e-01 5.796284e-01 4.269019e-01 2.579696e-01 2.293467e-01 5.253435e-02
<GCONST> 9.220194e+01
<STATE> 4
<MEAN> 39
 4.240156e+00 4.411321e+00 -1.328516e+00 -1.069290e+01 -3.056174e+00 3.585752e-01 -1.146995e+01 -2.505790e+00 -1.592887e+01 -4.516323e+00 4.825600e+00 -2.948822e+00 7.093347e+01 -2.803308e-01 -1.396075e-01 -1.102623e-01 2.050902e+00 9.121981e-02 2.998859e-01 6.352236e-01 4.318678e-01 1.859212e+00 4.805287e-01 -1.440301e+00 -1.769911e-01 -7.430924e-01 -2.540173e-01 -3.185493e-01 1.383721e-01 1.475254e-01 -8.205847e-02 -2.540711e-01 2.408666e-01 1.730279e-01 5.467833e-01 1.266060e-01 -2.348328e-01 8.667769e-02 9.637122e-02
<VARIANCE> 39
 5.182884e+00 2.581348e+01 3.609606e+01 3.227646e+01 7.734042e+01 5.435059e+01 1.810038e+01 9.513042e+01 1.081510e+02 4.660273e+01 4.682663e+01 2.639697e+01 1.584560e+01 8.364104e-01 2.182909e+00 3.680873e+00 4.523254e+00 3.323770e+00 6.100642e+00 2.700073e+00 2.787718e+00 6.697383e+00 4.359489e+00 2.397075e+00 2.186797e+00 2.061067e+00 2.708240e-01 4.814804e-01 6.403437e-01 5.796794e-01 3.087845e-01 7.163767e-01 3.426038e-01 7.113276e-01 1.420449e+00 1.114591e+00 6.376843e-01 4.547283e-01 3.196780e-01
<GCONST> 1.241654e+02
<TRANSP> 5
 0.000000e+00 1.000000e+00 0.000000e+00 0.000000e+00 0.000000e+00
 0.000000e+00 8.489925e-01 1.510076e-01 0.000000e+00 0.000000e+00
 0.000000e+00 0.000000e+00 7.456362e-01 2.543638e-01 0.000000e+00
 0.000000e+00 0.000000e+00 0.000000e+00 5.370512e-01 4.629488e-01
 0.000000e+00 0.000000e+00 0.000000e+00 0.000000e+00 0.000000e+00
<ENDHMM>
~h "aw"
<BEGINHMM>
<NUMSTATES> 5
<STATE> 2
<MEAN> 39
 3.652918e+00 -7.898011e-01 -1.158011e+00 -1.424223e+01 -3.815243e+00 -6.433743e+00 -1.175824e+01 1.173783e+00 -1.353182e+01 -2.195397e-01 7.372970e+00 -1.002013e+01 7.683824e+01 2.137214e-01 2.515626e-01 -1.391720e-01 -1.248192e-01 1.169591e-01 3.701067e-01 4.153075e-01 1.119200e-01 -4.387220e-01 -3.558747e-01 7.876217e-02 2.330728e-01 -2.402649e-01 -3.840499e-02 7.010935e-02 1.226640e-01 1.314697e-01 6.675474e-02 1.168332e-02 -4.277632e-02 -8.891501e-02 -1.074736e-02 -1.979014e-01 -5.402518e-02 1.651659e-01 -7.915042e-02
<VARIANCE> 39
 6.597485e+00 2.920809e+01 1.296056e+01 2.424018e+01 2.607942e+01 2.932100e+01 3.162183e+01 3.175250e+01 2.607044e+01 4.413518e+01 1.621021e+01 3.034808e+01 7.351836e+00 1.732304e-01 1.131351e+00 6.726937e-01 1.288531e+00 1.903029e+00 2.060113e+00 1.681425e+00 1.481227e+00 2.100695e+00 1.913260e+00 1.253592e+00 1.259788e+00 2.350589e-01 2.585618e-02 1.316194e-01 8.919542e-02 1.478367e-01 2.400892e-01 2.538223e-01 3.792877e-01 1.810517e-01 2.434741e-01 3.145556e-01 2.376437e-01 1.713876e-01 4.915220e-02
<GCONST> 8.811618e+01
<STATE> 3
<MEAN> 39
 2.763915e+00 8.722050e-01 7.979605e-01 -1.504821e+01 5.756489e-01 -1.336529e+00 -7.311410e+00 9.445728e+00 -1.401431e+01 -3.425733e+00 7.236875e+00 -3.297293e+00 7.424197e+01 4.931721e-02 2.520374e-01 1.700008e-01 6.974670e-01 4.527987e-01 6.464922e-02 -2.710717e-01 8.255977e-02 -5.219547e-01 -3.070119e-01 -2.581117e-02 3.507187e-01 -3.566149e-01 2.521566e-02 3.243133e-03 -1.075045e-02 2.384449e-01 -3.574384e-02 5.554393e-02 -1.199133e-01 -1.354105e-01 2.834444e-02 2.556126e-01 -6.842012e-02 -1.153956e-01 -5.214720e-02
<VARIANCE> 39
 6.069489e+00 9.725291e+00 7.134513e+00 2.128599e+01 2.620077e+01 2.719252e+01 1.725243e+01 6.269874e+01 4.240362e+01 2.149148e+01 1.432501e+01 1.835785e+01 5.260477e+00 1.019603e-01 4.666617e-01 4.407182e-01 9.559221e-01 1.007131e+00 1.000902e+00 1.681851e+00 2.291028e+00 2.195629e+00 1.735318e+00 6.010500e-01 9.108645e-01 1.519664e-01 1.789875e-02 5.611654e-02 4.996651e-02 1.127481e-01 1.681705e-01 2.533821e-01 2.082634e-01 1.618554e-01 5.060387e-01 2.010538e-01 8.167900e-02 1.722125e-01 2.100963e-02
<GCONST> 7.563860e+01
<STATE> 4
<MEAN> 39
 4.841728e+00 2.687847e+00 1.776413e+00 -7.873855e+00 5.322812e-01 -3.731018e-01 -1.216730e+01 2.777862e-01 -1.810472e+01 -3.349040e+00 6.689015e+00 -4.291697e+00 7.241300e+01 9.649818e-02 6.260259e-01 -6.051706e-03 1.747617e+00 4.323196e-01 1.205291e+00 -5.540472e-01 -6.941703e-01 5.585641e-01 5.120103e-01 -6.261861e-01 1.894332e-01 -9.562927e-01 -1.118984e-01 -4.983425e-02 -2.239328e-01 1.436690e-01 -1.778041e-01 1.643863e-01 4.945273e-01 3.424016e-01 7.002850e-01 -7.636308e-02 -1.644289e-01 -9.535607e-02 -1.296613e-01
<VARIANCE> 39
 3.521919e+00 9.493255e+00 2.287330e+01 4.304006e+01 3.799406e+01 8.658760e+01 2.738550e+01 9.263801e+01 7.567417e+01 3.392278e+01 2.260472e+01 1.978921e+01 8.265519e+00 2.444275e-01 9.117643e-01 1.547603e+00 1.692035e+00 2.710273e+00 3.546792e+00 3.244739e+00 2.006045e+00 3.677109e+00 1.327617e+00 8.161137e-01 1.669501e+00 8.746176e-01 5.195808e-02 1.342114e-01 1.927257e-01 4.295176e-01 3.157016e-01 6.658728e-01 5.791373e-01 6.054855e-01 9.909150e-01 3.098238e-01 1.462608e-01 1.191447e-01 1.238307e-01
<GCONST> 1.020564e+02
<TRANSP> 5
 0.000000e+00 1.000000e+00 0.000000e+00 0.000000e+00 0.000000e+00
 0.000000e+00 8.838935e-01 1.161064e-01 0.000000e+00 0.000000e+00
 0.000000e+00 0.000000e+00 7.762521e-01 2.237478e-01 0.000000e+00
 0.000000e+00 0.000000e+00 0.000000e+00 5.996952e-01 4.003048e-01
 0.000000e+00 0.000000e+00 0.000000e+00 0.000000e+00 0.000000e+00
<ENDHMM>
~h "ax"
<BEGINHMM>
<NUMSTATES> 5
<STATE> 2
<MEAN> 39
 -1.675658e+00 4.886352e-01 5.912731e+00 -3.033704e+00 9.882277e-01 -1.134283e+00 -1.116037e+01 -1.046421e+01 -1.257279e+01 -3.605761e+00 2.552631e+00 -4.303203e+00 7.425418e+01 8.742681e-01 -2.906359e-01 8.318218e-01 -3.485064e-01 -2.218772e-02 -1.475563e+00 -2.200684e+00 -2.278539e+00 -2.447155e+00 1.657557e-01 7.628508e-01 1.216179e-01 1.071611e+00 3.039824e-01 2.832489e-01 -3.595267e-01 7.525404e-02 -2.790563e-03 3.436871e-01 1.357022e-01 6.026590e-01 9.438394e-02 2.427825e-01 -6.497799e-02 2.033810e-02 -3.769042e-01
<VARIANCE> 39
 3.033018e+01 2.129647e+01 5.291049e+01 5.062098e+01 3.701502e+01 4.779188e+01 7.195712e+01 5.717723e+01 6.433305e+01 2.759292e+01 3.681226e+01 2.832488e+01 1.198899e+01 4.712895e+00 3.760046e+00 4.507721e+00 3.537863e+00 2.829299e+00 4.662907e+00 6.041378e+00 6.707108e+00 6.568882e+00 3.319819e+00 3.225255e+00 2.337173e+00 2.449268e+00 8.447102e-01 5.415083e-01 7.674457e-01 5.026855e-01 4.653567e-01 6.635394e-01 1.234965e+00 1.307929e+00 1.189153e+00 4.750093e-01 4.993785e-01 3.857405e-01 3.755441e-01
<GCONST> 1.310521e+02
<STATE> 3
<MEAN> 39
 1.450252e+00 -5.006689e-01 5.849197e+00 -3.969464e+00 1.690414e+00 -5.027999e+00 -1.704129e+01 -1.453338e+01 -1.855441e+01 -7.733778e-01 5.019754e+00 -4.769339e+00 7.588325e+01 7.708350e-01 2.288636e-01 -3.261460e-01 -1.982442e-01 1.047350e-01 2.242633e-01 -9.855470e-02 1.664841e-01 -7.325977e-01 7.891351e-01 5.308551e-01 5.325713e-02 -1.618135e-01 -3.188539e-01 1.515726e-01 -2.190616e-01 2.573794e-01 -1.911071e-02 6.557091e-01 8.642455e-01 9.802070e-01 9.516727e-01 -1.508952e-01 -4.174869e-01 -2.679095e-02 -4.184195e-01
<VARIANCE> 39
 9.484220e+00 1.748792e+01 5.018026e+01 3.984537e+01 3.342513e+01 3.837091e+01 4.216937e+01 5.832991e+01 3.135090e+01 3.465963e+01 3.478314e+01 3.579566e+01 6.139545e+00 1.189377e+00 1.313173e+00 2.292917e+00 2.681193e+00 1.714645e+00 2.774398e+00 3.672697e+00 3.378282e+00 3.079448e+00 2.246074e+00 2.503943e+00 1.733366e+00 7.026792e-01 3.922008e-01 3.197956e-01 3.742390e-01 3.767684e-01 3.536489e-01 5.129700e-01 8.422216e-01 7.865532e-01 7.420177e-01 5.294551e-01 5.148194e-01 3.559377e-01 2.061504e-01
<GCONST> 1.143106e+02
<STATE> 4
<MEAN> 39
 2.933846e+00 1.979758e+00 3.039259e+00 -4.220102e+00 3.242875e+00 -1.294360e+00 -1.383210e+01 -1.080892e+01 -1.905389e+01 -4.031933e-01 5.400368e+00 -4.652866e+00 7.327293e+01 8.208861e-03 4.437534e-01 -2.639195e-01 7.826228e-01 -1.464774e-01 1.266962e+00 1.185772e+00 1.946207e+00 1.577980e+00 -3.134485e-01 -1.256401e+00 -2.981085e-02 -9.808431e-01 -3.967628e-01 -5.912805e-02 -1.892034e-02 1.528597e-01 -1.287118e-01 2.461466e-01 4.399515e-01 3.825699e-01 7.224234e-01 -1.960917e-01 -3.187688e-01 -1.089961e-02 -1.134009e-01
<VARIANCE> 39
 7.991841e+00 2.424834e+01 4.506855e+01 4.612154e+01 4.691606e+01 3.965149e+01 3.142830e+01 7.062137e+01 4.372364e+01 3.707435e+01 4.486658e+01 2.515088e+01 1.260690e+01 1.188316e+00 1.677667e+00 3.000834e+00 3.070063e+00 2.422631e+00 3.124343e+00 3.080101e+00 4.023252e+00 3.048858e+00 2.372135e+00 2.750962e+00 1.751356e+00 1.308419e+00 3.651519e-01 3.189634e-01 3.150105e-01 4.250280e-01 4.117628e-01 4.896670e-01 6.472638e-01 6.202756e-01 6.679327e-01 3.991066e-01 5.343474e-01 2.865022e-01 1.755820e-01
<GCONST> 1.164287e+02
<TRANSP> 5
 0.000000e+00 1.000000e+00 0.000000e+00 0.000000e+00 0.000000e+00
 0.000000e+00 4.043565e-01 5.956435e-01 0.000000e+00 0.000000e+00
 0.000000e+00 0.000000e+00 5.288885e-01 4.711115e-01 0.000000e+00
 0.000000e+00 0.000000e+00 0.000000e+00 4.817225e-01 5.182775e-01
 0.000000e+00 0.000000e+00 0.000000e+00 0.000000e+00 0.000000e+00
<ENDHMM>
~h "ay"
<BEGINHMM>
<NUMSTATES> 5
<STATE> 2
<MEAN> 39
 1.826600e+00 -2.682979e+00 -2.384184e-01 -1.138393e+01 -3.124102e+00 -2.444298e+00 -1.164600e+01 6.347128e-01 -1.077993e+01 2.555639e+00 7.541719e+00 -6.628481e+00 7.476103e+01 -4.486888e-02 -8.976498e-01 4.667715e-01 -4.305565e-01 2.428436e-01 -4.868674e-01 -2.107150e-01 9.890479e-02 -2.398081e-01 8.542639e-01 8.436462e-01 -8.175823e-01 8.936083e-01 -1.571155e-01 1.375722e-01 4.061297e-02 3.617239e-01 1.973461e-01 1.490781e-01 -1.264975e-02 -1.503608e-01 1.446651e-01 -1.391588e-01 -2.119628e-01 1.524578e-01 -1.506155e-01
<VARIANCE> 39
 8.485980e+00 3.125058e+01 4.296126e+01 3.467188e+01 1.617569e+01 4.151822e+01 5.577729e+01 6.630236e+01 3.024588e+01 2.720156e+01 3.142837e+01 2.829387e+01 3.557870e+01 6.386549e-01 2.088389e+00 2.423036e+00 2.123537e+00 1.548998e+00 1.741576e+00 3.012270e+00 3.177746e+00 2.506239e+00 2.301687e+00 1.749227e+00 1.673285e+00 1.350690e+00 2.304796e-01 4.473027e-01 2.692907e-01 4.082018e-01 2.298067e-01 3.213046e-01 5.184183e-01 4.810568e-01 6.002836e-01 3.424552e-01 3.824036e-01 2.954778e-01 2.303820e-01
<GCONST> 1.109631e+02
<STATE> 3
<MEAN> 39
 1.600992e+00 -5.537418e+00 2.935043e+00 -1.055093e+01 -5.879356e-01 -5.762871e+00 -1.402840e+01 -2.655801e+00 -1.094169e+01 6.574609e+00 9.453711e+00 -7.576343e+00 7.821262e+01 -6.118421e-02 -1.568469e-01 1.803540e-01 4.683577e-01 4.615624e-01 -4.054785e-01 -4.067792e-01 -3.627726e-01 -2.496511e-01 5.390570e-01 -1.309146e-02 -9.839255e-02 -5.224429e-02 -4.161001e-03 1.497797e-01 6.608097e-02 1.115131e-01 -2.647329e-02 -1.245355e-02 -4.396292e-02 -2.127760e-02 -7.440109e-02 -2.135417e-01 -9.497616e-02 6.350958e-02 -8.953872e-02
<VARIANCE> 39
 2.603116e+00 1.682222e+01 1.303852e+01 2.085706e+01 1.924006e+01 3.646157e+01 3.607621e+01 4.735508e+01 2.285394e+01 2.877008e+01 2.294468e+01 2.456606e+01 8.059261e+00 1.249181e-01 5.443134e-01 7.322437e-01 1.058285e+00 7.398084e-01 1.068657e+00 1.639512e+00 1.522804e+00 1.022525e+00 1.145928e+00 1.068395e+00 7.901406e-01 1.661938e-01 1.935693e-02 1.008144e-01 1.100714e-01 1.139389e-01 1.235529e-01 1.634226e-01 2.074202e-01 2.049007e-01 1.688888e-01 1.962201e-01 1.669276e-01 1.653525e-01 2.045450e-02
<GCONST> 7.733460e+01
<STATE> 4
<MEAN> 39
 2.100051e+00 -3.092153e+00 2.295458e+00 -7.897798e+00 4.138129e+00 -5.941226e+00 -1.799724e+01 -5.375020e+00 -1.593886e+01 5.572180e+00 1.075649e+01 -6.840968e+00 7.640335e+01 9.105603e-02 9.192123e-01 -2.620151e-02 5.142427e-01 3.382213e-01 8.533617e-01 1.870576e-01 4.513077e-01 -1.204338e-01 -1.193216e+00 -7.077781e-01 4.030285e-01 -6.972181e-01 2.526673e-02 1.806185e-01 -1.503872e-01 -1.280898e-02 -1.110924e-01 4.376861e-01 3.879746e-01 2.461029e-01 1.870277e-01 -2.714276e-01 -1.781984e-01 7.619467e-02 -2.054500e-01
<VARIANCE> 39
 8.082153e+00 2.347125e+01 3.838714e+01 3.931836e+01 2.546293e+01 7.941953e+01 2.836971e+01 3.566379e+01 4.090137e+01 3.016601e+01 5.652020e+01 3.745357e+01 1.211904e+01 2.113211e-01 7.027236e-01 1.381593e+00 1.482349e+00 7.485319e-01 2.631444e+00 2.441315e+00 2.193252e+00 1.853392e+00 1.946156e+00 1.746119e+00 1.627139e+00 6.017078e-01 5.798479e-02 1.243227e-01 2.031657e-01 1.569228e-01 1.047540e-01 5.223121e-01 3.383186e-01 4.603642e-01 2.712104e-01 3.239881e-01 2.905426e-01 2.893423e-01 8.965699e-02
<GCONST> 9.856531e+01
<TRANSP> 5
 0.000000e+00 1.000000e+00 0.000000e+00 0.000000e+00 0.000000e+00
 0.000000e+00 7.283517e-01 2.716483e-01 0.000000e+00 0.000000e+00
 0.000000e+00 0.000000e+00 8.462002e-01 1.537998e-01 0.000000e+00
 0.000000e+00 0.000000e+00 0.000000e+00 7.725515e-01 2.274485e-01
 0.000000e+00 0.000000e+00 0.000000e+00 0.000000e+00 0.000000e+00
<ENDHMM>
~h "ch"
<BEGINHMM>
<NUMSTATES> 5
<STATE> 2
<MEAN> 39
 -1.425112e+01 -8.474032e+00 1.188891e+01 2.093645e+00 -5.823049e+00 -9.824244e-01 -3.367589e+00 -4.648962e+00 -4.477216e+00 -3.911668e+00 -2.279041e+00 -5.765646e+00 7.678705e+01 -2.219911e+00 -1.987584e+00 8.380852e-01 5.056327e-01 -1.825284e-01 -4.458514e-01 3.398079e-03 5.574828e-01 1.246521e+00 3.572973e-01 7.420235e-01 7.982833e-01 1.426428e+00 4.783395e-01 1.018955e-01 -2.814389e-01 -5.491221e-02 4.488495e-01 -1.199529e-01 -3.917733e-01 -1.747006e-01 -6.745494e-02 1.318319e-01 1.423997e-01 6.177880e-02 -1.757069e-01
<VARIANCE> 39
 9.689108e+01 4.175200e+01 5.901464e+01 2.065454e+01 2.416341e+01 1.984231e+01 1.680704e+01 2.111886e+01 1.902457e+01 1.151917e+01 1.980634e+01 1.250724e+01 4.166716e+01 5.586524e+00 1.901525e+00 7.433968e+00 2.443486e+00 6.276962e+00 4.490668e+00 3.766198e+00 2.001109e+00 2.086446e+00 1.380970e+00 1.741233e+00 1.416569e+00 3.975801e+00 1.912791e+00 5.793250e-01 2.345153e+00 3.628452e-01 8.674643e-01 5.755205e-01 4.889947e-01 5.315498e-01 6.966757e-01 2.942176e-01 3.799356e-01 3.926092e-01 1.337237e+00
<GCONST> 1.224294e+02
<STATE> 3
<MEAN> 39
 -1.520664e+01 -1.471881e+01 1.052122e+01 3.008222e+00 -1.030468e+00 -3.413421e+00 -6.648735e+00 -4.696761e+00 -1.212269e+00 1.494173e-01 1.874691e+00 -1.045710e+00 7.810324e+01 3.271089e+00 1.383428e+00 -1.675009e+00 -1.865995e-01 8.743492e-01 4.481228e-01 -6.326215e-01 -1.219076e+00 -1.768625e+00 -2.034147e-01 -1.481678e-01 1.876738e-01 -1.629602e+00 8.543326e-01 9.670452e-01 1.526580e-02 -1.884249e-01 -3.690130e-01 -2.025736e-01 -3.514133e-01 -7.012667e-01 -1.212093e+00 -5.408043e-01 -1.313919e-01 -7.273877e-01 -6.308760e-02
<VARIANCE> 39
 5.746006e+01 2.748869e+01 1.885182e+01 5.825942e+00 9.674017e+00 4.056972e+01 1.016748e+01 2.877714e+01 3.591838e+01 1.025221e+01 2.633749e+01 9.705956e+00 1.938308e+01 3.744816e+00 2.820114e+00 1.891139e+00 6.729962e-01 1.159992e+00 4.109710e+00 2.985198e+00 7.122151e+00 7.562178e+00 2.296922e+00 2.028076e+00 2.796606e+00 2.504513e-01 4.315555e-01 3.325081e-01 4.595307e-01 3.731745e-01 1.992727e-01 6.530251e-01 2.803413e-01 5.463137e-01 9.729369e-01 4.805154e-01 3.870108e-01 2.316823e-01 1.915023e-01
<GCONST> 1.077867e+02
<STATE> 4
<MEAN> 39
 -1.181733e+00 -3.494553e+00 2.573389e+00 3.624916e+00 -2.975193e+00 6.964245e-01 -4.905228e+00 -5.122116e+00 -9.715400e+00 -2.010121e+00 1.610162e-01 -4.138590e+00 7.019405e+01 6.180748e-01 8.422328e-01 -3.663903e-01 -6.650402e-01 -4.750155e-01 -1.166205e+00 -3.763963e-01 -1.678100e+00 -7.596868e-01 -3.682747e-01 7.190470e-01 -6.554841e-01 3.024116e-01 -1.045635e+00 -6.574450e-01 8.866435e-01 -4.521962e-01 -5.324727e-02 -6.131303e-01 -1.358695e-01 -2.196412e-02 4.529349e-01 2.136550e-01 2.991515e-01 1.695917e-02 7.748724e-01
<VARIANCE> 39
 1.217945e+01 1.356007e+01 5.992481e+01 9.025144e+00 1.867059e+01 6.710127e+01 6.672568e+01 1.150910e+02 2.520367e+01 2.619595e+01 1.335756e+01 4.511654e+00 3.351654e+01 1.362897e+01 6.491953e+00 1.033869e+01 2.270285e+00 1.399292e+00 3.810256e+00 6.597799e+00 5.806989e+00 8.688316e+00 3.154206e+00 2.046572e+00 1.098696e+00 3.913609e+00 3.194428e-01 3.045908e-01 1.235443e+00 4.000791e-01 3.362963e-01 7.666747e-01 3.925139e-01 1.229617e+00 6.341796e-01 7.760919e-01 3.005712e-01 2.255070e-01 2.942790e-01
<GCONST> 1.219613e+02
<TRANSP> 5
 0.000000e+00 1.000000e+00 0.000000e+00 0.000000e+00 0.000000e+00
 0.000000e+00 7.698519e-01 2.301481e-01 0.000000e+00 0.000000e+00
 0.000000e+00 0.000000e+00 5.843750e-01 4.156251e-01 0.000000e+00
 0.000000e+00 0.000000e+00 0.000000e+00 6.708870e-01 3.291130e-01
 0.000000e+00 0.000000e+00 0.000000e+00 0.000000e+00 0.000000e+00
<ENDHMM>
~h "dh"
<BEGINHMM>
<NUMSTATES> 5
<STATE> 2
<MEAN> 39
 1.245860e+00 5.527429e+00 2.976474e-02 -2.449817e+00 6.658040e-01 5.816551e+00 -8.242928e+00 -5.087585e-01 -7.767812e+00 -2.332602e+00 -1.971930e-01 -2.677145e+00 6.712858e+01 5.650060e-01 8.064369e-01 -3.655137e-01 1.041717e+00 2.635061e-01 1.019667e+00 7.878752e-01 1.139494e+00 4.952365e-01 -3.341830e-01 -8.991545e-01 -5.708541e-01 -9.130210e-01 -2.691636e-01 -3.171318e-01 3.545063e-01 -1.324463e-01 -7.901142e-02 -3.582961e-01 -1.118043e-01 -4.126140e-01 -1.606415e-01 -1.560258e-01 3.286595e-01 -9.498239e-02 4.511297e-01
<VARIANCE> 39
 1.973906e+01 1.349744e+01 8.639394e+01 2.944004e+01 3.484589e+01 3.035986e+01 4.543258e+01 4.115061e+01 6.219792e+01 3.100463e+01 1.102660e+01 2.228625e+01 2.279738e+01 1.090262e+00 1.315122e+00 3.515030e+00 1.673100e+00 1.959842e+00 2.024285e+00 4.561388e+00 4.215345e+00 3.980502e+00 2.687599e+00 1.300419e+00 1.847949e+00 1.452950e+00 2.172356e-01 2.339485e-01 5.627763e-01 3.538945e-01 3.625755e-01 4.830216e-01 5.455889e-01 6.696376e-01 6.375356e-01 3.552339e-01 4.129837e-01 3.705177e-01 1.336863e-01
<GCONST> 1.131667e+02
<STATE> 3
<MEAN> 39
 2.585475e+00 6.828239e+00 -5.344020e-01 -1.841123e-01 1.305890e+00 7.325391e+00 -7.978395e+00 1.075718e+00 -7.569147e+00 -3.513890e+00 -1.466828e+00 -4.423681e+00 6.578110e+01 -2.295426e-01 1.799584e-01 4.413189e-01 5.971073e-01 2.491746e-01 3.673887e-01 5.063764e-01 1.640553e-02 1.256719e-01 -4.633492e-01 -1.227027e-01 -5.618327e-01 8.864959e-02 -5.665556e-01 -6.287541e-01 7.427320e-01 -5.720303e-01 -1.736939e-01 -7.333464e-01 -5.295516e-01 -1.058191e+00 -3.253119e-01 1.212968e-03 4.538473e-01 2.249649e-01 8.422310e-01
<VARIANCE> 39
 1.284254e+01 1.110801e+01 4.246788e+01 3.196352e+01 1.876405e+01 2.559267e+01 3.978407e+01 2.627914e+01 3.193533e+01 2.238791e+01 1.658706e+01 1.782744e+01 1.050730e+01 1.373347e+00 1.663427e+00 5.750795e+00 2.058737e+00 2.366832e+00 1.881276e+00 4.172679e+00 3.176337e+00 4.173235e+00 2.610725e+00 1.466500e+00 2.525646e+00 1.292853e+00 2.232575e-01 2.619141e-01 4.862907e-01 2.941767e-01 3.762943e-01 5.213418e-01 7.560273e-01 8.705734e-01 7.134749e-01 4.861452e-01 2.733334e-01 3.871905e-01 2.064344e-01
<GCONST> 1.112078e+02
<STATE> 4
<MEAN> 39
 4.738953e-02 5.497838e+00 2.265798e+00 -1.308896e+00 6.614056e-01 6.306326e+00 -8.547490e+00 -1.921867e+00 -7.444938e+00 -3.466985e+00 -6.424037e-01 -4.244342e+00 6.812172e+01 -1.218872e+00 -1.566070e+00 2.317610e+00 -8.241701e-01 -2.793098e-01 -1.477952e+00 -1.453670e+00 -2.893564e+00 -8.224663e-01 -2.299155e-01 8.967944e-01 3.114163e-01 2.212449e+00 9.576527e-02 -4.294883e-01 2.847083e-01 -3.521194e-01 -1.366108e-01 -7.538058e-01 -8.012688e-01 -8.588689e-01 -6.840070e-01 6.216684e-02 3.784134e-01 1.437556e-01 5.587186e-01
<VARIANCE> 39
 2.459638e+01 2.239580e+01 3.874921e+01 3.796289e+01 2.108831e+01 4.151025e+01 7.472446e+01 6.261690e+01 4.283230e+01 2.105793e+01 1.890903e+01 1.695870e+01 2.120036e+01 2.298975e+00 1.607181e+00 5.154016e+00 2.178147e+00 2.492422e+00 3.666744e+00 6.932993e+00 5.633282e+00 4.581664e+00 2.838452e+00 2.065979e+00 2.300307e+00 1.491075e+00 4.010969e-01 4.263305e-01 1.091808e+00 5.583799e-01 4.885298e-01 6.609820e-01 1.463621e+00 1.618182e+00 8.599324e-01 6.018121e-01 3.795182e-01 4.957331e-01 4.464948e-01
<GCONST> 1.245983e+02
<TRANSP> 5
 0.000000e+00 1.000000e+00 0.000000e+00 0.000000e+00 0.000000e+00
 0.000000e+00 2.137960e-01 7.862040e-01 0.000000e+00 0.000000e+00
 0.000000e+00 0.000000e+00 2.417437e-01 7.582564e-01 0.000000e+00
 0.000000e+00 0.000000e+00 0.000000e+00 5.010216e-01 4.989784e-01
 0.000000e+00 0.000000e+00 0.000000e+00 0.000000e+00 0.000000e+00
<ENDHMM>
~h "ea"
<BEGINHMM>
<NUMSTATES> 5
<STATE> 2
<MEAN> 39
 8.760709e-01 1.463932e-02 2.750182e+00 -3.960550e+00 5.196863e+00 -2.225575e+00 -2.153827e+01 -1.351252e+01 -1.647599e+01 1.849530e+00 8.750422e+00 -6.082876e+00 7.600049e+01 6.085341e-01 -2.387183e-01 -1.845454e+00 1.155708e+00 -2.967114e-01 -9.745306e-01 1.035596e+00 3.087385e-01 1.707481e-01 1.599287e+00 1.582957e-01 -5.576997e-01 -2.220332e-01 -7.154929e-02 3.885785e-01 -3.134440e-01 -1.163212e-01 -1.934082e-01 2.851846e-01 9.255471e-01 5.063739e-01 2.415736e-01 -3.011774e-02 -2.686499e-01 2.467905e-01 -4.687349e-01
<VARIANCE> 39
 1.194067e+01 3.528076e+01 4.762971e+01 1.581198e+01 7.942912e+01 7.061988e+01 3.853123e+01 5.912933e+01 2.205874e+01 2.134768e+01 1.156061e+01 1.817979e+01 3.333537e+01 1.125496e+00 9.312721e-01 1.154589e+00 2.300577e+00 1.497818e+00 2.701301e+00 5.139865e+00 2.125356e+00 2.987779e+00 1.463385e+00 4.166815e+00 1.041459e+00 1.245891e+00 2.333394e-01 3.318928e-01 5.391222e-01 3.422845e-01 6.546093e-01 5.886053e-01 1.008438e+00 7.155426e-01 4.883492e-01 4.364892e-01 2.995721e-01 2.442962e-01 1.583427e-01
<GCONST> 1.121612e+02
<STATE> 3
<MEAN> 39
 2.834851e+00 -7.039493e-01 -1.105615e+00 -2.257532e+00 2.178871e+00 -3.919218e+00 -1.839680e+01 -1.215780e+01 -1.711998e+01 5.025793e+00 8.880338e+00 -5.052164e+00 7.507099e+01 2.759573e-01 9.034114e-01 -1.561227e+00 -4.087465e-01 -2.916283e-01 -4.277048e-01 2.262867e+00 8.067866e-02 -1.702585e-01 6.082843e-01 6.842704e-02 3.545665e-01 -5.886889e-01 -1.395808e-01 2.464710e-01 3.248033e-01 -5.167426e-01 -8.191456e-03 3.276738e-01 1.024884e-01 -2.563051e-02 -1.731178e-02 -5.940917e-01 -1.482403e-01 1.712012e-01 -4.593066e-02
<VARIANCE> 39
 4.404252e+00 2.569539e+01 2.809491e+01 1.132820e+01 2.870623e+01 7.684164e+01 3.487498e+01 5.063471e+01 2.496015e+01 1.115316e+01 3.651040e+01 1.351559e+01 4.262324e+01 2.547625e-01 9.008128e-01 1.693427e+00 3.288918e+00 3.890256e+00 3.876265e+00 2.005972e+00 3.958906e+00 3.116105e+00 1.122050e+00 1.167364e+00 8.094296e-01 4.158472e-01 7.804745e-02 9.025365e-02 1.642662e-01 8.077858e-02 2.823358e-01 4.218123e-01 5.540300e-01 3.534366e-01 1.401511e-01 2.769602e-01 2.915205e-01 2.561675e-01 4.171428e-02
<GCONST> 9.621887e+01
<STATE> 4
<MEAN> 39
 3.111927e+00 3.121575e+00 -2.620871e+00 -7.721685e+00 2.896330e+00 -6.197001e+00 -1.460841e+01 -1.401036e+01 -2.175204e+01 4.561542e+00 9.798595e+00 -5.221247e+00 7.498881e+01 3.398661e-01 8.855721e-01 -4.412578e-01 -5.889317e-01 1.396709e-01 5.251244e-01 4.782552e-01 8.805147e-01 -3.552222e-01 -1.318775e+00 -2.423167e-01 4.480355e-01 -5.870695e-01 -6.014231e-02 -1.798919e-01 2.706307e-01 2.649870e-01 -9.316241e-02 1.807872e-01 -2.110310e-01 8.627478e-02 3.609698e-01 -3.849572e-01 -2.936608e-01 1.337097e-02 -2.694882e-03
<VARIANCE> 39
 6.083462e+00 1.202213e+01 1.688176e+01 1.793968e+01 8.833392e+00 3.203671e+01 1.726588e+01 4.200289e+01 2.630353e+01 2.054535e+01 1.077578e+01 8.536340e+00 1.698720e+01 9.494156e-02 8.945428e-01 9.232934e-01 2.579920e+00 1.862088e+00 1.547834e+00 2.225996e+00 2.497438e+00 1.500232e+00 2.083023e+00 1.270137e+00 1.048621e+00 1.678504e-01 3.911351e-02 3.389466e-01 2.165985e-01 3.259258e-01 1.011122e-01 1.879097e-01 3.461346e-01 4.108177e-01 3.312901e-01 3.744381e-01 8.495229e-02 1.560246e-01 5.087147e-02
<GCONST> 8.610171e+01
<TRANSP> 5
 0.000000e+00 1.000000e+00 0.000000e+00 0.000000e+00 0.000000e+00
 0.000000e+00 6.776286e-01 3.223714e-01 0.000000e+00 0.000000e+00
 0.000000e+00 0.000000e+00 2.148076e-01 7.851924e-01 0.000000e+00
 0.000000e+00 0.000000e+00 0.000000e+00 7.624133e-01 2.375867e-01
 0.000000e+00 0.000000e+00 0.000000e+00 0.000000e+00 0.000000e+00
<ENDHMM>
~h "eh"
<BEGINHMM>
<NUMSTATES> 5
<STATE> 2
<MEAN> 39
 -1.830721e+00 -3.195889e+00 5.962278e+00 -4.829824e+00 1.393657e+00 -4.415166e+00 -1.388466e+01 -8.476778e+00 -1.270463e+01 -7.193008e-02 4.824913e+00 -6.005320e+00 7.633704e+01 6.894490e-01 -7.138690e-01 6.687540e-01 -1.542150e+00 2.414499e-01 -1.894014e+00 -2.355379e+00 -8.486324e-01 -1.281488e+00 1.302628e+00 1.368700e+00 -1.001788e+00 1.373991e+00 -3.851743e-02 1.242255e-01 -2.680717e-01 -6.149530e-02 -9.946052e-02 4.733488e-01 2.238847e-01 7.603715e-01 5.479070e-01 1.376609e-01 -1.503833e-01 1.261455e-01 -2.762477e-01
<VARIANCE> 39
 1.437670e+01 2.372182e+01 2.494263e+01 4.046875e+01 3.097576e+01 3.200624e+01 6.668274e+01 6.049321e+01 3.984502e+01 4.023394e+01 5.475843e+01 3.004964e+01 1.576254e+01 4.149607e+00 3.934250e+00 2.846501e+00 3.442585e+00 2.863062e+00 4.254001e+00 6.927248e+00 3.481348e+00 5.309099e+00 4.939423e+00 3.685857e+00 2.115215e+00 1.881238e+00 7.064941e-01 5.794202e-01 4.725594e-01 4.787933e-01 4.582774e-01 8.951490e-01 1.237599e+00 8.407517e-01 7.473151e-01 6.764356e-01 6.012065e-01 2.902814e-01 3.319838e-01
<GCONST> 1.271199e+02
<STATE> 3
<MEAN> 39
 2.495912e-01 -6.804461e+00 6.236984e+00 -1.099499e+01 3.404720e-01 -6.632174e+00 -1.799146e+01 -5.527301e+00 -1.286535e+01 6.058673e+00 9.572756e+00 -7.389753e+00 7.945737e+01 1.038083e-01 -1.277224e-01 -9.420455e-02 -2.105210e-01 9.053879e-03 -1.339757e-01 1.339543e-01 5.920575e-01 1.288779e-01 2.264124e-01 -1.087365e-01 -9.678579e-02 -4.397760e-02 -7.320333e-02 2.973825e-01 -4.607310e-03 3.594523e-01 -2.134531e-02 3.312621e-01 3.028308e-01 8.265502e-02 1.125724e-01 -4.141124e-01 -3.750411e-01 1.327022e-01 -2.982480e-01
<VARIANCE> 39
 2.964223e+00 1.503327e+01 1.478655e+01 1.834616e+01 2.503528e+01 1.477913e+01 3.100565e+01 4.223217e+01 1.838240e+01 3.143689e+01 3.059672e+01 1.772214e+01 3.182117e+00 2.780916e-01 9.263958e-01 8.412112e-01 1.684292e+00 1.328561e+00 1.117108e+00 1.708176e+00 1.887050e+00 1.241392e+00 1.853110e+00 1.400432e+00 8.036907e-01 2.502743e-01 1.292819e-01 2.039991e-01 1.072843e-01 1.822565e-01 2.622619e-01 3.429824e-01 4.778264e-01 4.198506e-01 3.494927e-01 2.718263e-01 3.261515e-01 1.766769e-01 7.468646e-02
<GCONST> 8.871729e+01
<STATE> 4
<MEAN> 39
 8.010545e-01 -3.363956e+00 6.359744e+00 -8.582792e+00 -1.637993e-01 -5.718077e+00 -1.708905e+01 -5.147955e+00 -1.359589e+01 2.635568e+00 6.340545e+00 -6.203347e+00 7.657498e+01 2.460036e-01 1.186790e+00 -2.893176e-01 1.227086e+00 -4.108303e-01 1.637864e+00 1.250392e+00 1.283375e+00 6.374438e-01 -6.700420e-01 -1.532014e+00 3.510985e-01 -1.563826e+00 -1.692853e-01 5.293059e-02 -1.476188e-01 1.315316e-01 -1.506343e-01 3.781422e-01 3.641823e-01 2.426303e-01 4.147722e-01 -1.379216e-01 -9.487861e-02 7.798172e-02 -1.920380e-01
<VARIANCE> 39
 5.351017e+00 1.472089e+01 1.414739e+01 3.434952e+01 3.931432e+01 2.396380e+01 3.653190e+01 3.848320e+01 2.944497e+01 3.254943e+01 3.516138e+01 2.030646e+01 1.011603e+01 6.454993e-01 1.037825e+00 1.618873e+00 2.130406e+00 2.618062e+00 2.539435e+00 3.596953e+00 3.062784e+00 2.281090e+00 1.729480e+00 2.558148e+00 1.324720e+00 1.093041e+00 2.232455e-01 2.186613e-01 2.946854e-01 3.808904e-01 5.561895e-01 6.123115e-01 7.911820e-01 4.962551e-01 3.899263e-01 4.406987e-01 5.826794e-01 1.738470e-01 1.884692e-01
<GCONST> 1.069513e+02
<TRANSP> 5
 0.000000e+00 1.000000e+00 0.000000e+00 0.000000e+00 0.000000e+00
 0.000000e+00 5.528222e-01 4.471778e-01 0.000000e+00 0.000000e+00
 0.000000e+00 0.000000e+00 8.005401e-01 1.994599e-01 0.000000e+00
 0.000000e+00 0.000000e+00 0.000000e+00 5.119294e-01 4.880706e-01
