~o
<STREAMINFO> 1 39
<VECSIZE> 39<NULLD><MFCC_D_A_0><DIAGC>
~s "silst"
<MEAN> 39
 9.218959e-01 3.506294e+00 -1.149217e+01 -4.280823e+00 -2.675584e+00 7.303943e+00 -3.356362e+00 3.149582e+00 -2.274628e+00 3.650760e-01 -1.470694e+00 -3.511308e-01 6.328096e+01 9.589820e-02 8.684381e-02 -1.078327e-01 1.820217e-01 1.123793e-01 5.670056e-02 2.430686e-01 1.558264e-01 1.642449e-01 1.156640e-01 -8.187185e-02 6.234869e-02 -4.145630e-02 5.184427e-02 3.002598e-02 -1.089058e-01 2.950666e-02 -3.378463e-02 -4.665609e-02 -1.199322e-03 2.117600e-02 -3.861285e-02 6.609853e-02 2.238069e-02 2.796163e-02 -3.870761e-02
<VARIANCE> 39
 1.127553e+01 1.521462e+01 3.062131e+01 2.358232e+01 2.319312e+01 2.118334e+01 1.965523e+01 1.879877e+01 2.031463e+01 1.969093e+01 1.689143e+01 1.596323e+01 5.705581e+00 1.171106e+00 9.636644e-01 3.663429e+00 1.965967e+00 1.936413e+00 1.542462e+00 1.627205e+00 1.788175e+00 1.934799e+00 1.808806e+00 1.586143e+00 1.444872e+00 7.489024e-01 2.207541e-01 1.652937e-01 5.854126e-01 3.749278e-01 3.477540e-01 3.081477e-01 3.327231e-01 3.731102e-01 3.510711e-01 3.343117e-01 3.155893e-01 2.966762e-01 1.289025e-01
<GCONST> 9.918748e+01
~h "b"
<BEGINHMM>
<NUMSTATES> 5
<STATE> 2
<MEAN> 39
 7.201825e+00 8.729739e+00 -6.947421e+00 8.024425e-01 -1.170619e+00 8.128561e+00 -5.010529e+00 1.806650e+00 -9.370195e+00 -1.493845e+00 -4.387365e-01 -5.658295e+00 6.503076e+01 -2.862757e-01 2.029499e-01 -4.041002e-01 3.291368e-01 1.940895e-01 3.458590e-01 6.813106e-01 4.291562e-01 1.239726e+00 1.599380e-01 -6.058482e-01 3.828180e-01 -4.048921e-01 -2.018672e-01 -3.518508e-01 5.571877e-01 -8.242840e-01 -2.531276e-01 -7.282252e-01 -7.659193e-01 -2.034473e-01 -3.753485e-01 -3.809235e-01 3.474037e-01 -1.130285e-01 5.786539e-01
<VARIANCE> 39
 1.896619e+00 1.060062e+01 1.506232e+01 1.611423e+01 1.315481e+01 1.342443e+01 1.990242e+01 2.181029e+01 3.222530e+01 1.529476e+01 1.675718e+01 2.811595e+01 4.922853e+00 8.334447e-01 1.256903e+00 2.447414e+00 2.940889e+00 1.199627e+00 2.516294e+00 3.217167e+00 2.116352e+00 2.496587e+00 1.826680e+00 1.283947e+00 1.361398e+00 1.547659e+00 8.391549e-02 1.197037e-01 3.124459e-01 2.814599e-01 2.885192e-01 4.813720e-01 4.922703e-01 3.677930e-01 3.860994e-01 4.029764e-01 2.360388e-01 3.416985e-01 1.273097e-01
<GCONST> 9.576823e+01
<STATE> 3
<MEAN> 39
 3.324109e+00 5.786861e+00 -4.824460e-01 -7.529974e+00 -3.131070e+00 1.793898e+00 -1.224956e+01 1.140023e+00 -1.005877e+01 -8.398033e+00 1.707028e+00 -4.514947e+00 7.035130e+01 5.688142e-02 -1.008696e+00 2.243770e+00 -3.858281e+00 -1.896855e+00 -3.725801e+00 -3.702091e+00 -1.482341e-01 -1.757278e+00 -2.388783e+00 1.717258e+00 -4.650362e-01 2.443488e+00 4.230432e-01 1.628524e-01 -3.098493e-01 -4.741519e-02 -1.170127e-01 -1.116888e-01 1.567462e-01 6.074204e-02 -7.585289e-02 3.873727e-01 1.712442e-01 -3.316561e-02 -6.020988e-02
<VARIANCE> 39
 2.020883e+01 1.696738e+01 2.326063e+01 4.270380e+01 3.599096e+01 6.140979e+01 5.379781e+01 1.698666e+01 3.974226e+01 2.983158e+01 2.624837e+01 2.487241e+01 1.329510e+01 1.619563e+00 2.581354e+00 2.598188e+00 2.046005e+00 3.974893e+00 3.714336e+00 3.484592e+00 2.219426e+00 3.226633e+00 2.527350e+00 2.317589e+00 1.555674e+00 8.864319e-01 3.481881e-01 4.346532e-01 4.887451e-01 9.375519e-01 6.428218e-01 1.035590e+00 1.225905e+00 2.444446e-01 6.608652e-01 5.707553e-01 4.223631e-01 2.543048e-01 3.677564e-01
<GCONST> 1.176933e+02
<STATE> 4
<MEAN> 39
 5.942413e+00 3.569659e+00 2.522430e+00 -1.546278e+01 -8.246997e+00 -6.461789e+00 -1.645750e+01 1.300337e+00 -1.217383e+01 -8.609274e+00 7.500095e+00 -5.232270e+00 7.522407e+01 -8.676229e-02 -4.175028e-01 3.465412e-01 -6.865948e-02 -1.344406e-01 -1.736921e-02 3.985760e-01 -6.179789e-01 -2.408638e-01 3.502998e-01 -1.244410e-01 3.375734e-01 2.901571e-01 -2.789965e-02 1.089518e-01 -1.565235e-01 4.283250e-01 2.202646e-01 4.358632e-01 2.676822e-01 -1.339346e-01 3.275237e-02 1.837071e-01 -2.299480e-01 4.157039e-02 -2.590992e-01
<VARIANCE> 39
 2.630765e+00 2.160603e+01 1.706914e+01 1.971135e+01 3.945028e+01 3.247980e+01 3.117034e+01 3.649049e+01 6.451546e+01 2.929284e+01 3.056006e+01 2.982215e+01 4.553455e+00 3.408875e-01 1.003417e+00 9.540403e-01 2.182076e+00 1.609895e+00 2.073425e+00 1.884930e+00 2.178834e+00 1.712902e+00 1.156714e+00 1.862093e+00 1.560949e+00 6.037002e-01 2.829770e-02 1.502705e-01 1.618857e-01 2.498930e-01 2.505760e-01 4.692328e-01 4.780520e-01 3.345040e-01 2.950321e-01 2.387899e-01 2.736077e-01 2.694563e-01 7.925255e-02
<GCONST> 9.469073e+01
<TRANSP> 5
 0.000000e+00 1.000000e+00 0.000000e+00 0.000000e+00 0.000000e+00
 0.000000e+00 8.374249e-01 1.625751e-01 0.000000e+00 0.000000e+00
 0.000000e+00 0.000000e+00 6.570439e-01 3.429561e-01 0.000000e+00
 0.000000e+00 0.000000e+00 0.000000e+00 8.487961e-01 1.512039e-01
 0.000000e+00 0.000000e+00 0.000000e+00 0.000000e+00 0.000000e+00
<ENDHMM>
~h "d"
<BEGINHMM>
<NUMSTATES> 5
<STATE> 2
<MEAN> 39
 -2.459671e+00 6.490241e-02 3.936719e+00 -6.861408e+00 -2.927691e-01 3.156157e+00 -1.040150e+01 -2.351764e+00 -7.637468e+00 -3.175850e+00 8.252833e-01 -3.534936e+00 7.197950e+01 -1.288408e-01 -3.541353e-01 6.837201e-01 -2.328515e-01 -9.136540e-02 -2.231608e-01 -4.957660e-01 -7.129481e-01 -3.486773e-01 -2.851821e-01 1.756648e-01 2.366178e-01 3.562590e-01 4.127067e-01 1.486615e-01 -2.450801e-01 1.245964e-01 -7.349836e-02 -4.480556e-02 -2.074854e-01 -2.000558e-02 -2.872210e-01 1.594029e-01 1.300809e-01 -2.590279e-02 -1.023107e-01
<VARIANCE> 39
 5.022913e+01 3.746723e+01 7.301664e+01 4.240512e+01 2.985147e+01 4.363680e+01 5.828680e+01 5.129138e+01 5.951793e+01 3.816050e+01 2.361770e+01 2.531420e+01 2.385453e+01 5.801130e+00 3.522734e+00 6.705354e+00 4.619606e+00 2.915333e+00 4.938497e+00 7.736758e+00 6.103680e+00 5.456483e+00 3.121064e+00 2.789466e+00 1.693471e+00 3.650264e+00 1.295284e+00 8.591421e-01 1.424901e+00 7.580786e-01 5.446919e-01 7.255371e-01 9.411913e-01 1.121139e+00 8.954371e-01 6.783232e-01 6.393830e-01 3.640917e-01 7.552401e-01
<GCONST> 1.354510e+02
<STATE> 3
<MEAN> 39
 1.272748e+00 -1.344473e+00 8.339393e+00 -8.112111e+00 -5.529541e-01 -1.687804e+00 -1.804416e+01 -8.379157e+00 -1.599035e+01 -2.996201e+00 4.646166e+00 -4.631398e+00 7.561850e+01 1.150430e+00 3.698121e-01 -9.891059e-01 4.219091e-01 6.021156e-02 2.033302e-01 -2.656449e-01 6.103072e-01 -5.285800e-01 5.284230e-01 7.089034e-01 -9.626177e-02 -5.146344e-01 -2.443759e-01 6.876717e-02 -4.734165e-01 1.347476e-01 -1.872077e-02 4.655934e-01 7.933694e-01 6.930349e-01 6.728041e-01 1.462143e-01 -2.644716e-01 8.791109e-03 -3.006414e-01
<VARIANCE> 39
 6.864934e+00 1.673005e+01 5.075292e+01 2.496283e+01 2.173408e+01 3.130279e+01 4.996092e+01 3.667070e+01 3.424186e+01 3.339429e+01 3.343683e+01 2.627116e+01 6.854671e+00 2.118055e+00 2.159689e+00 2.506610e+00 3.005200e+00 1.677149e+00 3.972855e+00 5.911450e+00 4.545662e+00 3.663954e+00 2.477864e+00 4.075765e+00 1.519823e+00 1.447800e+00 2.207196e-01 3.038884e-01 3.388191e-01 2.896426e-01 2.795998e-01 3.845099e-01 5.612524e-01 6.621274e-01 4.047499e-01 3.539177e-01 5.921516e-01 2.666890e-01 1.284980e-01
<GCONST> 1.123888e+02
<STATE> 4
<MEAN> 39
 3.108074e+00 7.630024e-01 -1.257954e-01 -4.702714e+00 -7.970185e-01 3.049539e+00 -1.260804e+01 -2.442803e+00 -1.310146e+01 -1.990065e+00 1.677149e+00 -4.465843e+00 7.047868e+01 1.712226e-01 7.277138e-01 -1.482276e+00 5.098737e-01 -2.257349e-01 1.176773e+00 1.541228e+00 1.210497e+00 1.064291e+00 2.958677e-01 -5.204132e-01 3.066984e-01 -1.046298e+00 -4.451343e-01 -1.731298e-01 3.258039e-01 -4.233670e-01 9.631412e-02 -4.005379e-01 -4.987148e-02 -3.555305e-01 6.698865e-02 -1.702711e-01 3.844520e-02 9.792867e-02 3.653814e-01
<VARIANCE> 39
 9.344254e+00 1.822441e+01 7.417774e+01 2.470249e+01 1.946709e+01 4.209304e+01 5.859806e+01 4.749433e+01 4.223880e+01 3.846027e+01 3.720795e+01 2.496341e+01 1.987424e+01 1.164298e+00 1.369203e+00 3.637178e+00 2.854636e+00 2.346794e+00 3.453336e+00 4.426687e+00 3.965603e+00 3.497169e+00 3.116728e+00 2.227416e+00 1.961344e+00 1.653930e+00 4.547362e-01 4.470007e-01 8.184208e-01 3.702199e-01 3.183523e-01 4.507502e-01 4.997622e-01 7.178427e-01 4.677491e-01 5.073736e-01 5.124305e-01 2.864837e-01 3.723904e-01
<GCONST> 1.182162e+02
<TRANSP> 5
 0.000000e+00 1.000000e+00 0.000000e+00 0.000000e+00 0.000000e+00
 0.000000e+00 6.588413e-01 3.411587e-01 0.000000e+00 0.000000e+00
 0.000000e+00 0.000000e+00 5.945119e-01 4.054882e-01 0.000000e+00
 0.000000e+00 0.000000e+00 0.000000e+00 4.059481e-01 5.940520e-01
 0.000000e+00 0.000000e+00 0.000000e+00 0.000000e+00 0.000000e+00
<ENDHMM>
~h "f"
<BEGINHMM>
<NUMSTATES> 5
<STATE> 2
<MEAN> 39
 -1.166782e+01 -3.830590e+00 6.316014e+00 -1.063821e+01 -2.122772e+00 5.268439e+00 -5.044369e+00 -2.084817e+00 -2.852180e+00 1.519254e+00 2.201072e+00 -2.538963e+00 7.472792e+01 -4.731288e-01 -4.019587e-01 3.590281e-01 -2.088321e-01 -7.545835e-02 4.026096e-03 -2.175014e-01 -6.590839e-01 1.627875e-01 -3.194374e-01 -3.357022e-01 -7.059153e-02 1.418467e-01 4.259579e-01 1.815830e-01 -4.534776e-02 2.713256e-03 5.220006e-02 -5.618275e-02 -1.492009e-01 -2.461639e-02 -2.158185e-01 -1.570927e-01 6.525117e-02 -3.199609e-02 -1.120819e-01
<VARIANCE> 39
 7.423677e+01 1.670579e+01 3.104734e+01 3.429723e+01 1.271833e+01 1.638010e+01 3.276027e+01 2.690469e+01 6.410376e+01 7.764721e+00 1.722634e+01 1.112084e+01 1.786321e+01 1.235313e+01 1.646079e+00 4.525525e+00 2.350864e+00 1.734538e+00 1.786887e+00 4.646616e+00 2.420189e+00 6.199024e+00 5.546255e-01 2.020119e+00 3.159888e-01 3.676665e+00 2.592006e+00 3.430392e-01 1.160058e+00 5.284305e-01 3.695567e-01 3.495745e-01 1.074056e+00 4.286048e-01 1.373830e+00 1.420341e-01 6.764756e-01 1.056530e-01 9.649427e-01
<GCONST> 1.155182e+02
<STATE> 3
<MEAN> 39
 -6.472425e+00 -6.128607e-01 2.785728e+00 -8.776337e+00 2.668546e+00 2.786111e+00 -9.203408e+00 -1.008176e+01 -1.185580e+01 -1.417686e+00 -5.323659e-01 -5.905226e+00 7.527647e+01 -2.056841e+00 6.961701e-01 -4.110802e-01 -1.809418e-01 2.287049e-01 2.484458e-01 1.603873e+00 5.789952e-01 1.955909e+00 -1.316377e+00 5.355570e-01 5.005106e-01 2.695893e-01 -2.300458e-01 -1.433576e-01 -7.718024e-02 -6.421582e-02 -2.801698e-01 -1.130446e-01 -1.904590e-01 2.668344e-01 -1.976010e-02 3.400634e-01 3.170940e-01 -1.523263e-02 5.137904e-02
<VARIANCE> 39
 4.273189e+01 1.196539e+01 2.535959e+01 4.416492e+01 1.000048e+01 1.348476e+01 4.106114e+01 1.380641e+01 4.878711e+01 2.051749e+01 5.507744e+00 8.037638e+00 8.806118e+00 7.554635e+00 9.547943e-01 1.742380e+00 1.793949e+00 2.402683e+00 2.197516e+00 7.138274e+00 2.357136e+00 7.545309e+00 1.679967e+00 1.153479e+00 1.368487e+00 2.598289e-01 7.077664e-01 1.116488e-01 2.123705e-01 2.374422e-01 4.556315e-01 5.031036e-01 9.788409e-01 3.953281e-01 1.070156e+00 3.522719e-01 2.271630e-01 1.652143e-01 4.512765e-02
<GCONST> 1.030008e+02
<STATE> 4
<MEAN> 39
 -9.519400e+00 -1.634928e+00 5.597831e+00 -6.173536e+00 -1.308137e+00 9.535428e-01 -1.075146e+01 -3.571869e+00 -7.466351e+00 -5.099758e+00 2.230104e+00 -8.773257e+00 7.613898e+01 2.549171e-01 8.389299e-02 7.936917e-02 8.567011e-02 -1.887862e-01 -5.285664e-03 -1.040072e-01 1.016078e-01 -1.690155e-01 9.321272e-02 4.293492e-02 -1.011591e-01 -4.214435e-02 1.788397e-01 1.964813e-02 8.107688e-02 -5.652551e-02 -1.503242e-02 -6.086180e-03 -4.737328e-02 -6.911642e-03 -9.871858e-02 1.228166e-02 -4.361949e-02 -3.847221e-02 -4.010764e-02
<VARIANCE> 39
 4.586821e+01 1.529894e+01 5.199660e+01 2.582113e+01 8.455359e+00 1.535905e+01 6.778101e+01 1.511766e+01 4.348325e+01 1.348153e+01 1.021887e+01 3.032699e+01 4.199720e+00 3.205428e+00 6.788501e-01 2.482399e+00 8.406290e-01 7.035853e-01 1.116711e+00 5.555746e+00 1.578361e+00 2.907436e+00 9.206141e-01 1.283191e+00 1.561083e+00 3.012727e-01 6.005226e-01 1.034778e-01 3.187348e-01 1.025764e-01 1.482804e-01 2.012423e-01 9.965656e-01 3.687793e-01 5.654929e-01 1.844128e-01 2.242088e-01 3.386594e-01 4.494543e-02
<GCONST> 9.604682e+01
<TRANSP> 5
 0.000000e+00 1.000000e+00 0.000000e+00 0.000000e+00 0.000000e+00
 0.000000e+00 8.157973e-01 1.842026e-01 0.000000e+00 0.000000e+00
 0.000000e+00 0.000000e+00 6.610430e-01 3.389570e-01 0.000000e+00
 0.000000e+00 0.000000e+00 0.000000e+00 9.221599e-01 7.784007e-02
 0.000000e+00 0.000000e+00 0.000000e+00 0.000000e+00 0.000000e+00
<ENDHMM>
~h "g"
<BEGINHMM>
<NUMSTATES> 5
<STATE> 2
<MEAN> 39
 -1.688391e+00 1.025040e+00 3.465907e-01 -7.044852e+00 -1.441223e+00 3.246591e+00 -8.490275e+00 -4.950874e+00 -8.864512e+00 -7.850577e+00 -4.501737e+00 -5.249058e+00 7.287902e+01 -6.125163e-01 -7.563847e-01 1.084047e+00 -1.053254e+00 2.310379e-01 -2.490128e+00 -1.318488e+00 -2.787194e+00 -1.235896e+00 -6.397635e-01 1.365492e+00 1.095100e+00 1.821490e+00 8.739320e-01 4.180448e-01 -4.025829e-01 5.814159e-02 -2.641917e-01 -1.807693e-01 -5.670378e-01 -1.419151e-01 -5.690597e-01 3.064172e-01 5.664939e-01 3.860463e-02 -2.996635e-01
<VARIANCE> 39
 2.568342e+01 4.146180e+01 1.377252e+02 3.004150e+01 5.470470e+01 4.125455e+01 2.972996e+01 5.581252e+01 3.286698e+01 4.778147e+01 3.096562e+01 2.927253e+01 2.356401e+01 3.793891e+00 3.295889e+00 1.644343e+01 3.284573e+00 4.455881e+00 2.108911e+00 7.291058e+00 6.124775e+00 4.855241e+00 2.462211e+00 3.167374e+00 1.770943e+00 2.294543e+00 7.870761e-01 8.328793e-01 2.634822e+00 5.858521e-01 6.610349e-01 5.285531e-01 6.934672e-01 1.810574e+00 7.052617e-01 5.018520e-01 4.279765e-01 3.622596e-01 5.845850e-01
<GCONST> 1.327789e+02
<STATE> 3
<MEAN> 39
 3.158317e+00 7.329551e-01 3.910800e+00 -1.188131e+01 -4.808804e+00 -3.715813e+00 -1.738158e+01 -1.163565e+01 -1.601195e+01 -3.929104e+00 4.992439e+00 -2.133946e+00 7.631641e+01 1.716970e+00 9.132764e-01 -9.698738e-01 -2.010397e+00 -6.922111e-01 -1.267172e+00 -1.125638e+00 1.341790e+00 -8.966613e-01 1.291173e+00 2.069609e+00 -3.272880e-01 -8.578198e-02 -2.352257e-01 3.274267e-02 -3.809187e-01 -2.598522e-01 8.342475e-02 5.548385e-01 7.533600e-01 1.190733e+00 6.925306e-01 1.340621e-01 -2.813282e-01 -4.391028e-01 -2.497353e-01
<VARIANCE> 39
 3.464757e+00 1.614149e+01 6.600621e+01 3.147970e+01 3.571969e+01 3.806981e+01 3.196982e+01 3.491321e+01 3.292513e+01 3.715868e+01 4.433266e+01 2.119108e+01 7.392588e+00 8.716798e-01 7.800447e-01 4.377308e+00 1.066132e+00 1.571480e+00 2.135082e+00 4.528613e+00 4.815129e+00 2.272775e+00 1.763848e+00 1.975718e+00 1.617693e+00 1.364510e-01 1.732263e-01 1.791927e-01 7.634518e-01 1.747433e-01 3.000176e-01 2.181296e-01 5.537263e-01 1.165136e+00 3.015045e-01 6.185656e-01 6.948036e-01 2.458662e-01 1.173580e-01
<GCONST> 1.052938e+02
<STATE> 4
<MEAN> 39
 6.245015e+00 8.755795e-01 -2.087264e+00 -2.307638e+01 -4.003511e+00 -1.684612e+00 -1.575641e+01 1.919226e+00 -1.640238e+01 -1.280419e+00 8.994627e+00 -9.040291e+00 7.646014e+01 1.425161e-01 1.645031e-01 -4.496284e-01 2.138298e-01 2.180506e-01 3.920068e-01 4.267467e-01 3.038056e-01 -1.606011e-01 1.940614e-01 -2.398644e-01 -3.497458e-01 -3.574361e-01 -6.378679e-02 -2.855882e-02 -4.865164e-02 3.328862e-01 -1.754474e-02 5.475106e-02 8.829286e-02 -1.009815e-01 1.173245e-01 -1.879776e-02 -6.919498e-02 9.288783e-02 -7.738437e-02
<VARIANCE> 39
 1.940535e+00 2.112108e+01 2.973351e+01 3.230186e+01 3.418801e+01 2.186807e+01 2.410789e+01 5.219397e+01 3.100871e+01 1.965609e+01 1.828457e+01 2.840083e+01 5.108154e+00 1.259594e-01 6.206962e-01 7.520179e-01 3.674441e+00 1.751101e+00 7.920876e-01 1.680578e+00 4.725594e+00 2.772570e+00 1.195338e+00 1.514985e+00 1.383995e+00 6.564579e-01 4.334889e-02 1.122724e-01 1.729701e-01 1.698803e-01 2.934287e-01 1.635864e-01 3.090841e-01 6.460609e-01 5.409501e-01 2.127544e-01 2.594306e-01 2.062900e-01 8.150817e-02
<GCONST> 9.159592e+01
<TRANSP> 5
 0.000000e+00 1.000000e+00 0.000000e+00 0.000000e+00 0.000000e+00
 0.000000e+00 7.281128e-01 2.718872e-01 0.000000e+00 0.000000e+00
 0.000000e+00 0.000000e+00 6.666818e-01 3.333182e-01 0.000000e+00
 0.000000e+00 0.000000e+00 0.000000e+00 8.962364e-01 1.037635e-01
 0.000000e+00 0.000000e+00 0.000000e+00 0.000000e+00 0.000000e+00
<ENDHMM>
~h "k"
<BEGINHMM>
<NUMSTATES> 5
<STATE> 2
<MEAN> 39
 -3.177507e+00 -4.748805e+00 -4.848718e+00 -4.793587e+00 -4.581232e-01 -1.680981e-01 -7.616501e+00 -6.345278e+00 -9.044473e+00 1.254264e+00 3.828778e+00 -2.712940e+00 7.209480e+01 -2.376496e-01 -5.139422e-01 4.052094e-01 5.153213e-02 2.225258e-01 2.409462e-01 3.356757e-01 2.042113e-02 2.265721e-02 1.738749e-01 -5.968416e-02 -2.790855e-01 1.951251e-01 3.632018e-01 4.041509e-01 6.502053e-02 -3.060691e-02 -6.355330e-02 1.467545e-01 -1.797805e-01 2.446308e-01 -3.083198e-01 -1.485577e-01 -9.147173e-02 -2.506532e-01 -1.447292e-01
<VARIANCE> 39
 2.651014e+01 4.551088e+01 4.615669e+01 3.371518e+01 2.721807e+01 3.416779e+01 4.105165e+01 4.316388e+01 3.494748e+01 4.470313e+01 3.436475e+01 3.270294e+01 2.132074e+01 3.514360e+00 3.838528e+00 4.664905e+00 1.828718e+00 2.469431e+00 4.381492e+00 2.931813e+00 5.101859e+00 3.079440e+00 2.661748e+00 3.825216e+00 3.001207e+00 3.107784e+00 6.109816e-01 7.842272e-01 8.928939e-01 2.980374e-01 5.283063e-01 1.082512e+00 5.751238e-01 1.034145e+00 5.897433e-01 6.768588e-01 8.485560e-01 6.027675e-01 6.663724e-01
<GCONST> 1.282536e+02
<STATE> 3
<MEAN> 39
 1.517177e-02 -2.058534e+00 -6.483762e-01 -7.082504e+00 -1.137061e+00 4.057170e+00 -8.653434e+00 -2.884880e+00 -9.616397e+00 8.762197e-01 1.222817e+00 -6.823760e+00 7.085899e+01 1.508996e+00 2.301300e+00 2.179335e-01 -9.595513e-02 -1.428823e-01 3.140458e-01 -1.024042e+00 9.558114e-01 -1.591556e+00 -1.223893e+00 3.357780e-01 -1.467964e+00 -2.515187e-01 -1.197349e-01 1.142488e-01 4.493434e-02 -3.045876e-01 -2.756443e-01 -2.893937e-01 -2.280322e-01 1.929149e-02 4.896725e-02 -2.386702e-01 3.562544e-01 2.793222e-01 1.765288e-01
<VARIANCE> 39
 1.046011e+01 2.497646e+01 3.503499e+01 3.379605e+01 3.511963e+01 3.417609e+01 6.210593e+01 4.379969e+01 5.652121e+01 2.757460e+01 3.063644e+01 3.315795e+01 1.819343e+01 1.860509e+00 2.678544e+00 5.092492e+00 2.914183e+00 2.241472e+00 3.477083e+00 6.763002e+00 4.295382e+00 2.540262e+00 2.419537e+00 2.314014e+00 3.907347e+00 1.654323e+00 2.016325e-01 3.662625e-01 5.578946e-01 4.823133e-01 3.975945e-01 6.550696e-01 9.711311e-01 9.662578e-01 5.694435e-01 4.245009e-01 5.418936e-01 4.501305e-01 5.020145e-01
<GCONST> 1.218937e+02
<STATE> 4
<MEAN> 39
 2.624472e+00 2.823958e+00 -3.435518e+00 -5.640320e+00 -1.444392e+00 3.984841e+00 -1.094211e+01 -3.007653e+00 -1.274230e+01 -1.539160e+00 3.627578e+00 -7.213603e+00 6.906708e+01 1.016880e-01 6.263103e-01 -1.186199e+00 -6.526585e-02 -7.085075e-01 1.045330e-01 8.639306e-01 7.532877e-01 3.034208e-01 -3.467259e-01 1.440144e-01 3.821543e-01 -4.778434e-01 -4.150759e-01 -3.974368e-01 1.457703e-01 -3.353074e-01 1.737312e-02 -3.581219e-01 9.667522e-02 -1.306559e-01 1.069264e-01 3.353027e-02 1.311706e-01 2.951063e-01 3.523413e-01
<VARIANCE> 39
 4.802947e+00 1.202366e+01 5.505813e+01 3.428522e+01 2.788610e+01 1.991376e+01 3.477384e+01 4.561505e+01 4.985266e+01 1.944345e+01 2.849809e+01 2.564529e+01 2.548997e+01 1.894000e+00 2.103547e+00 3.517638e+00 4.627173e+00 2.192725e+00 4.869609e+00 5.909869e+00 5.340906e+00 3.757635e+00 2.586124e+00 3.560551e+00 2.696596e+00 3.228769e+00 2.675667e-01 2.163100e-01 7.784169e-01 4.461015e-01 5.682235e-01 4.926051e-01 7.267144e-01 1.097722e+00 7.203906e-01 4.333590e-01 4.651985e-01 4.276288e-01 6.237448e-01
<GCONST> 1.207169e+02
<TRANSP> 5
 0.000000e+00 1.000000e+00 0.000000e+00 0.000000e+00 0.000000e+00
 0.000000e+00 6.737367e-01 3.262633e-01 0.000000e+00 0.000000e+00
 0.000000e+00 0.000000e+00 3.210080e-01 6.789921e-01 0.000000e+00
 0.000000e+00 0.000000e+00 0.000000e+00 6.199924e-01 3.800076e-01
 0.000000e+00 0.000000e+00 0.000000e+00 0.000000e+00 0.000000e+00
<ENDHMM>
~h "l"
<BEGINHMM>
<NUMSTATES> 5
<STATE> 2
<MEAN> 39
 4.276355e+00 4.595925e+00 9.241744e+00 -1.236112e+01 -1.151176e+01 1.299539e+00 -1.646670e+01 2.041986e+00 -1.300660e+01 -5.270447e+00 4.925159e+00 -7.859309e+00 7.246700e+01 -7.025008e-02 -5.708215e-02 5.794550e-02 -4.496982e-01 -6.186109e-01 -4.956399e-02 1.634964e-01 3.482819e-01 4.363952e-02 1.167465e-01 4.835729e-01 -2.082116e-01 1.615426e-01 -1.649450e-01 -2.961968e-01 -2.080895e-01 9.022167e-02 1.755070e-01 -6.059290e-02 3.663642e-01 8.364609e-02 1.474124e-01 -4.579198e-02 -1.128895e-01 8.804182e-02 9.085493e-02
<VARIANCE> 39
 4.690991e+00 1.577399e+01 1.911654e+01 2.348054e+01 3.689932e+01 4.863341e+01 3.555835e+01 3.949765e+01 2.318862e+01 5.281091e+01 2.488760e+01 2.563616e+01 5.485028e+00 4.898617e-01 1.056022e+00 1.033993e+00 1.634033e+00 3.406583e+00 1.929948e+00 3.135209e+00 4.861107e+00 1.853678e+00 2.406506e+00 2.316541e+00 2.218546e+00 6.999426e-01 9.943354e-02 2.006607e-01 1.541426e-01 2.126540e-01 5.375265e-01 3.202523e-01 5.864277e-01 6.727187e-01 3.441044e-01 4.724480e-01 3.915461e-01 4.057286e-01 6.935771e-02
<GCONST> 1.029999e+02
<STATE> 3
<MEAN> 39
 2.241762e+00 1.337182e+00 7.350169e+00 -1.183248e+01 -1.041672e+01 4.123347e-01 -1.198534e+01 3.387735e+00 -1.116415e+01 -4.327606e+00 5.408646e+00 -7.853717e+00 7.379134e+01 -1.539076e-01 -1.091627e+00 -6.282560e-01 4.371595e-01 7.930512e-01 -1.177983e-01 8.267381e-01 1.009409e+00 2.732784e-01 -2.457751e-02 -1.150808e-01 4.421177e-02 1.530693e-01 8.496855e-02 1.019505e-01 -4.351688e-02 1.511556e-01 5.258431e-01 1.857150e-01 -3.857065e-01 -6.330872e-02 -8.278754e-02 7.462662e-02 -1.429031e-01 -4.772809e-02 -1.547475e-01
<VARIANCE> 39
 6.588094e+00 1.345803e+01 2.681390e+01 3.541048e+01 9.068808e+01 4.301295e+01 4.335832e+01 6.036033e+01 2.149360e+01 2.597102e+01 2.529454e+01 2.244585e+01 1.014342e+01 2.884810e-01 1.657892e+00 1.126153e+00 1.692430e+00 3.512435e+00 2.875058e+00 2.935637e+00 5.047256e+00 1.746862e+00 2.182117e+00 1.732872e+00 1.859958e+00 1.006204e+00 3.205512e-02 1.576476e-01 2.120100e-01 2.184594e-01 6.395376e-01 2.922261e-01 5.681521e-01 9.825936e-01 3.416667e-01 4.106312e-01 3.983721e-01 4.398629e-01 5.950907e-02
<GCONST> 1.044228e+02
<STATE> 4
<MEAN> 39
 3.278485e+00 -1.731154e+00 3.864332e+00 -1.583370e+01 -1.089737e+01 -3.897147e-01 -1.062751e+01 6.628354e+00 -9.337848e+00 -6.093908e+00 5.634388e+00 -7.389927e+00 7.636498e+01 -2.630453e-02 -1.344282e-01 -5.113432e-01 5.059013e-01 1.063760e+00 1.733276e-01 2.652856e-02 -4.138484e-01 -6.827880e-04 2.659044e-01 -3.914826e-01 5.730093e-02 -1.839774e-01 -2.519067e-03 2.227075e-01 9.174956e-03 7.077776e-02 1.652005e-02 2.720734e-02 7.359141e-03 -1.576388e-01 -8.652401e-02 3.120807e-02 -2.651364e-02 2.748650e-02 -1.155647e-01
<VARIANCE> 39
 5.201995e+00 1.856065e+01 2.699070e+01 3.589718e+01 3.246375e+01 4.324721e+01 5.008029e+01 3.401736e+01 1.939516e+01 2.662260e+01 1.707430e+01 1.856053e+01 1.236766e+01 1.259994e-01 7.118867e-01 9.075621e-01 1.075520e+00 1.035959e+00 1.016469e+00 1.749889e+00 2.118292e+00 1.590205e+00 1.230185e+00 1.424290e+00 1.053866e+00 4.063963e-01 2.810289e-02 8.699703e-02 1.075166e-01 1.763854e-01 1.564771e-01 2.294768e-01 2.987465e-01 3.956291e-01 2.653198e-01 1.663582e-01 2.007997e-01 1.775852e-01 5.373401e-02
<GCONST> 8.661546e+01
<TRANSP> 5
 0.000000e+00 1.000000e+00 0.000000e+00 0.000000e+00 0.000000e+00
 0.000000e+00 7.848195e-01 2.151806e-01 0.000000e+00 0.000000e+00
 0.000000e+00 0.000000e+00 5.021313e-01 4.978687e-01 0.000000e+00
 0.000000e+00 0.000000e+00 0.000000e+00 7.233577e-01 2.766423e-01
 0.000000e+00 0.000000e+00 0.000000e+00 0.000000e+00 0.000000e+00
<ENDHMM>
~h "m"
<BEGINHMM>
<NUMSTATES> 5
<STATE> 2
<MEAN> 39
 5.707229e+00 9.274311e+00 -9.357571e-01 -2.834399e+00 -1.607211e+00 1.604318e+01 -8.474236e+00 1.831174e-01 -1.518004e+00 -4.938376e+00 -5.183107e+00 -8.493040e-01 6.556457e+01 1.632235e-01 6.416394e-02 -5.396749e-01 1.009219e+00 2.277365e-01 7.912789e-01 6.693793e-01 -1.331571e-01 3.462853e-01 -9.839291e-02 -6.257159e-01 -3.281191e-01 -3.876994e-01 -7.650170e-02 -1.098463e-01 -1.043741e-01 -2.177225e-01 2.897106e-02 -3.717729e-01 4.238455e-02 1.694081e-01 -1.752922e-01 1.833721e-01 3.258519e-01 -7.885749e-03 9.687827e-02
<VARIANCE> 39
 3.073526e+00 7.785696e+00 1.996578e+01 2.636378e+01 1.033062e+01 2.936136e+01 2.272262e+01 1.737833e+01 4.354698e+01 1.662214e+01 1.452890e+01 2.831057e+01 5.988816e+00 1.414918e-01 4.152459e-01 5.196117e-01 1.345514e+00 8.418654e-01 3.133846e+00 9.043992e-01 1.331745e+00 1.810326e+00 2.083489e+00 1.969609e+00 1.060122e+00 1.212717e-01 1.457488e-02 6.407773e-02 7.383082e-02 1.481451e-01 1.611882e-01 3.160315e-01 1.514063e-01 1.767769e-01 2.614614e-01 2.325160e-01 3.545045e-01 1.962578e-01 2.720201e-02
<GCONST> 7.796396e+01
<STATE> 3
<MEAN> 39
 5.165194e+00 5.430279e+00 2.951993e+00 -3.000641e+00 -5.558037e+00 1.215748e+01 -8.940095e+00 1.236612e-01 -8.661467e+00 -4.731334e+00 -1.843545e+00 -5.810969e+00 6.772936e+01 5.338644e-02 -1.331318e-01 -1.604941e-01 5.103061e-01 1.747290e-01 3.569276e-01 -1.425055e-01 -2.379221e-01 6.909118e-02 2.380812e-02 -1.095817e-01 1.037841e-02 -2.045546e-01 -1.252236e-01 -1.843131e-02 1.220923e-01 -7.629874e-01 -7.555829e-02 -7.935894e-01 -2.706623e-01 4.575045e-01 -2.571735e-01 2.179591e-01 5.760759e-01 6.834320e-02 2.511303e-01
<VARIANCE> 39
 3.662343e+00 1.231680e+01 4.195115e+01 3.520641e+01 2.231931e+01 1.195987e+01 4.308313e+01 6.494666e+01 1.696733e+01 9.342161e+00 3.656721e+01 1.850728e+01 5.306743e+00 3.037463e-01 2.160257e-01 4.619669e-01 1.442402e+00 5.224726e-01 9.470674e-01 8.286524e-01 1.786844e+00 6.935268e-01 1.256559e+00 1.378056e+00 7.283119e-01 9.822903e-02 5.405086e-02 1.138235e-01 1.819943e-01 2.093941e-01 1.716124e-01 2.368026e-01 3.984559e-01 3.416708e-01 1.620880e-01 2.042679e-01 2.828355e-01 2.383901e-01 2.736248e-02
<GCONST> 8.040588e+01
<STATE> 4
<MEAN> 39
 5.047359e+00 5.947528e+00 2.134818e+00 -4.165244e+00 -3.780897e+00 1.193545e+01 -8.903101e+00 6.717304e-02 -9.865493e+00 -4.253389e+00 -1.863628e+00 -6.340490e+00 6.800596e+01 -1.359152e-01 -3.420705e-01 -6.086503e-02 -1.788866e+00 -4.648068e-01 -2.247080e+00 -9.382278e-01 1.643971e+00 -3.306657e-01 4.410293e-01 2.002477e+00 9.788589e-03 6.440681e-01 -9.891614e-02 -3.496008e-02 -3.011336e-03 -7.277228e-01 -6.956822e-02 -7.680964e-01 -2.375059e-01 4.773593e-01 -4.784098e-03 -1.592401e-02 5.111276e-01 -1.812618e-01 2.877225e-01
<VARIANCE> 39
 2.465523e+00 1.054550e+01 5.175711e+01 2.783115e+01 2.065587e+01 1.307722e+01 2.675757e+01 5.646833e+01 2.295273e+01 1.157813e+01 3.802096e+01 1.713593e+01 8.870023e+00 9.521318e-01 1.049532e+00 1.329391e+00 2.217069e+00 1.956925e+00 3.094866e+00 4.425008e+00 1.795862e+00 6.378121e-01 1.830862e+00 1.108988e+00 1.053897e+00 5.816743e-01 1.291790e-02 9.982520e-02 8.866607e-02 2.030923e-01 2.600749e-01 4.305358e-01 2.209808e-01 5.156140e-01 2.970651e-01 4.439410e-01 3.286681e-01 1.772457e-01 5.851391e-02
<GCONST> 9.135587e+01
<TRANSP> 5
 0.000000e+00 1.000000e+00 0.000000e+00 0.000000e+00 0.000000e+00
 0.000000e+00 7.522929e-01 2.477071e-01 0.000000e+00 0.000000e+00
 0.000000e+00 0.000000e+00 5.404353e-01 4.595647e-01 0.000000e+00
 0.000000e+00 0.000000e+00 0.000000e+00 3.276532e-01 6.723468e-01
 0.000000e+00 0.000000e+00 0.000000e+00 0.000000e+00 0.000000e+00
<ENDHMM>
~h "n"
<BEGINHMM>
<NUMSTATES> 5
<STATE> 2
<MEAN> 39
 2.270039e+00 1.159331e+00 6.196445e+00 -6.215795e+00 1.311778e+00 2.513479e+00 -1.280566e+01 1.611073e+00 -1.029461e+01 1.691549e-01 5.360768e+00 -5.722847e+00 7.303644e+01 7.017052e-01 1.212568e+00 -3.542410e-01 1.123597e+00 -7.670817e-01 2.097138e+00 2.429924e-01 -7.330455e-02 7.008168e-01 -7.268409e-01 -2.137282e+00 2.755630e-01 -1.251260e+00 -1.153212e-01 -4.714387e-02 -2.912812e-02 -7.490470e-02 2.709650e-02 9.144150e-02 2.487414e-01 7.540508e-02 5.778271e-02 -9.564638e-02 -1.577563e-01 5.815886e-02 2.907288e-02
<VARIANCE> 39
 4.320046e+00 1.278070e+01 2.479044e+01 3.362144e+01 1.730495e+01 4.801585e+01 1.434024e+01 1.822075e+01 1.715137e+01 2.382747e+01 4.510104e+01 1.264961e+01 1.069118e+01 6.032062e-01 1.180823e+00 1.781533e+00 1.282280e+00 1.477147e+00 2.417841e+00 1.761608e+00 1.625488e+00 2.191018e+00 1.544803e+00 3.506732e+00 1.660336e+00 6.888019e-01 3.146493e-01 3.135030e-01 3.436525e-01 2.025646e-01 3.133216e-01 8.821534e-01 3.495284e-01 2.536769e-01 4.404464e-01 2.457985e-01 5.956096e-01 2.408134e-01 2.243664e-01
<GCONST> 1.005016e+02
<STATE> 3
<MEAN> 39
 4.987399e+00 4.955790e+00 2.191792e+00 -2.139529e+00 9.931596e-02 1.049648e+01 -1.066496e+01 1.971992e+00 -8.081858e+00 -3.113119e+00 -9.965513e-01 -5.091221e+00 6.839448e+01 -2.263000e-01 4.555546e-01 -5.673282e-01 4.361089e-01 8.190506e-02 4.701100e-01 1.362214e+00 -4.723780e-02 5.508211e-01 -2.644273e-01 -8.977767e-01 2.486934e-01 -4.753721e-01 -7.400432e-01 -5.273823e-01 4.879432e-01 -4.948805e-01 2.127742e-01 -6.634561e-01 2.492217e-01 -2.450441e-03 6.568946e-02 3.072493e-01 4.428475e-01 5.084243e-02 5.080496e-01
<VARIANCE> 39
 4.130483e+00 7.516419e+00 3.002321e+01 2.987237e+01 1.371191e+01 1.676516e+01 2.235870e+01 2.620663e+01 2.345054e+01 1.693072e+01 1.854899e+01 1.504879e+01 6.831239e+00 1.204889e+00 9.250976e-01 3.034823e+00 1.085749e+00 1.843775e+00 3.088535e+00 2.709294e+00 2.849369e+00 2.523043e+00 2.051758e+00 2.697611e+00 1.683161e+00 6.445574e-01 4.237401e-01 2.345045e-01 7.202640e-01 4.220932e-01 4.017905e-01 6.579879e-01 4.968947e-01 6.029578e-01 5.961776e-01 3.224053e-01 5.204512e-01 3.343346e-01 2.051701e-01
<GCONST> 1.040449e+02
<STATE> 4
<MEAN> 39
 -4.184956e+00 1.943909e+00 5.525787e+00 -9.594150e+00 2.891941e+00 8.078652e+00 -5.434671e+00 1.827724e+00 -5.519262e+00 -3.253542e+00 -2.338998e+00 -3.200824e+00 7.087530e+01 -3.292566e+00 -1.521517e+00 2.315139e+00 -2.014699e+00 1.084265e-01 -8.416698e-01 6.787360e-01 -3.478372e-01 1.060242e+00 -7.876416e-02 6.741953e-01 3.421271e-01 1.791615e+00 1.671438e-02 -1.984485e-01 7.788503e-02 -1.645369e-02 -3.603863e-01 -2.486695e-01 -5.656679e-01 -3.368014e-01 -8.548363e-02 -2.135418e-02 3.154072e-01 -8.924239e-02 2.661546e-01
<VARIANCE> 39
 7.815105e+01 2.329500e+01 6.703707e+01 1.092288e+02 2.817119e+01 2.237467e+01 2.596546e+01 1.980827e+01 2.489938e+01 2.091813e+01 2.458653e+01 1.997003e+01 2.270164e+01 5.195378e+00 2.473734e+00 5.064770e+00 5.431033e+00 3.172393e+00 2.943510e+00 3.424577e+00 2.695055e+00 3.919319e+00 2.457065e+00 4.054006e+00 1.393669e+00 1.954047e+00 1.754445e+00 4.532503e-01 1.598777e+00 1.419444e+00 5.543623e-01 5.639614e-01 6.859674e-01 5.433151e-01 6.325380e-01 5.015209e-01 6.880088e-01 3.102497e-01 5.966818e-01
<GCONST> 1.265689e+02
<TRANSP> 5
 0.000000e+00 1.000000e+00 0.000000e+00 0.000000e+00 0.000000e+00
 0.000000e+00 4.925784e-01 5.074216e-01 0.000000e+00 0.000000e+00
 0.000000e+00 0.000000e+00 6.450757e-01 3.549243e-01 0.000000e+00
 0.000000e+00 0.000000e+00 0.000000e+00 5.883885e-01 4.116115e-01
 0.000000e+00 0.000000e+00 0.000000e+00 0.000000e+00 0.000000e+00
<ENDHMM>
~h "p"
<BEGINHMM>
<NUMSTATES> 5
<STATE> 2
<MEAN> 39
 3.090399e+00 4.362988e-02 -1.063885e+01 -3.057017e+00 -5.009645e+00 3.532968e+00 -6.373494e+00 1.962489e+00 -8.394790e+00 2.521704e+00 1.485114e+00 -6.745648e+00 6.635505e+01 -4.684172e-01 -8.351676e-03 1.276652e-01 3.129187e-01 3.977456e-01 1.325854e-01 3.741336e-03 -2.202421e-01 5.510404e-01 5.601010e-02 2.861742e-01 3.170221e-01 -1.310733e-01 -2.676513e-02 -2.710694e-01 5.125659e-01 -3.871865e-01 1.729175e-01 -5.371501e-01 -6.381911e-01 -4.960467e-01 -4.045519e-01 1.126635e-01 1.215762e-01 -1.556817e-01 5.096530e-01
<VARIANCE> 39
 1.240691e+01 1.352060e+01 3.167324e+01 9.834393e+00 8.433763e+00 1.245357e+01 1.383532e+01 2.785823e+01 2.235865e+01 1.642376e+01 3.895733e+01 3.515670e+01 1.036608e+01 1.090447e+00 2.301143e+00 8.796488e+00 2.729211e+00 2.057184e+00 3.447109e+00 5.229010e+00 2.788765e+00 4.076768e+00 2.504571e+00 3.268560e+00 3.391083e+00 3.941830e+00 2.194265e-01 2.457706e-01 6.914035e-01 2.686293e-01 3.492438e-01 4.776309e-01 4.607037e-01 4.379396e-01 4.942963e-01 5.159960e-01 7.135080e-01 9.004121e-01 2.723786e-01
<GCONST> 1.123496e+02
<STATE> 3
<MEAN> 39
 -1.914152e+00 -6.094090e+00 2.659804e-01 -3.480072e+00 1.978958e+00 -1.543266e-01 -9.508129e+00 -2.116316e+00 -6.956421e+00 4.543331e+00 1.378003e+00 -5.987249e+00 7.232821e+01 9.191649e-02 -4.768926e-01 2.003949e+00 -2.086533e-01 1.771069e+00 -2.324495e+00 -2.421010e+00 -1.272990e+00 -1.550729e+00 -7.971320e-02 -2.334026e-01 -2.172809e+00 1.715765e+00 3.037987e-01 5.784627e-01 -2.516213e-01 -4.035096e-02 -1.533569e-01 -1.769404e-01 -2.811128e-01 3.435849e-01 -1.527386e-01 -4.415399e-01 -9.037474e-02 -2.514934e-01 -1.554953e-01
<VARIANCE> 39
 1.530662e+01 2.920903e+01 2.380960e+01 8.514057e+00 3.666785e+01 1.209266e+01 3.448227e+01 2.530894e+01 3.900146e+01 2.201622e+01 3.050489e+01 1.429474e+01 1.176013e+01 4.126215e-01 3.963831e+00 4.204034e+00 7.951570e-01 1.613415e+00 3.760270e+00 6.054801e+00 6.404046e+00 4.623918e+00 5.866467e+00 1.534697e+00 4.416499e+00 2.012536e+00 1.468725e-01 5.996534e-01 6.182302e-01 2.326058e-01 4.561819e-01 3.436368e-01 5.009632e-01 2.532424e-01 4.516991e-01 8.912629e-01 5.341585e-01 2.288171e-01 1.084393e-01
<GCONST> 1.108089e+02
<STATE> 4
<MEAN> 39
 6.757483e-01 -5.736271e+00 4.332692e+00 -5.364106e+00 2.582485e+00 -8.891132e+00 -2.151299e+01 -5.681184e+00 -1.453924e+01 1.837828e+00 3.098408e+00 -1.461104e+01 7.665240e+01 1.634550e-01 -2.986928e-02 7.614437e-01 -8.809727e-01 3.234775e-01 -1.237242e+00 -1.099080e+00 7.930445e-01 -7.352563e-01 -2.586464e-01 -9.782185e-02 -4.808322e-01 6.868283e-01 -4.908179e-02 2.667802e-01 -5.352109e-01 -4.521605e-02 -2.552914e-01 7.229772e-01 1.034830e+00 6.788842e-01 6.882240e-01 1.671378e-01 -2.716604e-01 6.675035e-01 -5.330862e-01
<VARIANCE> 39
 8.589265e+00 3.051606e+01 4.171295e+01 1.786199e+01 3.083208e+01 2.901993e+01 3.933083e+01 1.341544e+02 3.418965e+01 1.618175e+01 2.210757e+01 4.320362e+01 1.207835e+01 5.526193e-01 2.961718e+00 4.150010e+00 1.300682e+00 1.591552e+00 3.853801e+00 7.974038e+00 5.568183e+00 3.802729e+00 1.920670e+00 2.691505e+00 4.927337e+00 1.416074e+00 7.789902e-02 4.622623e-01 6.600734e-01 2.320086e-01 2.900789e-01 4.899693e-01 7.407095e-01 8.126568e-01 7.507333e-01 5.546423e-01 3.932630e-01 7.225673e-01 1.878793e-01
<GCONST> 1.161377e+02
<TRANSP> 5
 0.000000e+00 1.000000e+00 0.000000e+00 0.000000e+00 0.000000e+00
 0.000000e+00 8.134121e-01 1.865879e-01 0.000000e+00 0.000000e+00
 0.000000e+00 0.000000e+00 4.942997e-01 5.057003e-01 0.000000e+00
 0.000000e+00 0.000000e+00 0.000000e+00 7.217494e-01 2.782506e-01
 0.000000e+00 0.000000e+00 0.000000e+00 0.000000e+00 0.000000e+00
<ENDHMM>
~h "r"
<BEGINHMM>
<NUMSTATES> 5
<STATE> 2
<MEAN> 39
 5.271512e+00 5.779950e+00 -3.739590e+00 -1.264401e+01 2.043333e+00 -5.859558e+00 -1.416004e+01 -4.000456e+00 -2.055427e+01 -4.085299e+00 3.562881e+00 -4.647781e+00 7.245669e+01 5.983994e-01 1.229020e+00 -2.703516e-01 -1.778480e+00 6.536517e-01 4.240866e-01 -1.252803e+00 1.221348e+00 -9.162804e-01 -9.691717e-01 9.601422e-01 -1.954870e-02 -2.093373e-01 -1.803895e-01 -2.192101e-01 7.957659e-02 -2.234391e-02 5.869202e-02 1.999699e-01 -7.836519e-02 4.223433e-02 1.246811e-01 6.681907e-02 9.906411e-02 5.311610e-02 6.876179e-02
<VARIANCE> 39
 4.006566e+00 1.892214e+01 1.908885e+01 2.346264e+01 2.610400e+01 3.425261e+01 3.187258e+01 5.046881e+01 2.702414e+01 6.385576e+01 4.592914e+01 3.679085e+01 6.173862e+00 5.128275e-01 1.043489e+00 1.001251e+00 1.706763e+00 1.405562e+00 1.437272e+00 2.826123e+00 2.958367e+00 3.043694e+00 2.824792e+00 2.562388e+00 1.879813e+00 3.726363e-01 1.415422e-01 1.950110e-01 1.278600e-01 2.897672e-01 2.674240e-01 1.974286e-01 4.505619e-01 6.028805e-01 6.941049e-01 4.945945e-01 4.892060e-01 3.827549e-01 9.009662e-02
<GCONST> 1.021875e+02
<STATE> 3
<MEAN> 39
 7.084113e+00 8.875334e+00 -4.013611e+00 -2.216872e+01 5.047690e+00 -5.446351e-01 -2.193846e+01 2.926107e+00 -2.217234e+01 -9.109221e+00 1.124640e+01 -4.316256e+00 7.297605e+01 -6.634861e-02 -3.922110e-01 1.413310e-01 -5.766391e-01 4.054090e-02 1.910985e-02 -2.438295e-01 -3.162766e-02 3.979270e-01 5.298098e-01 9.751126e-01 -7.568649e-02 4.191516e-01 -1.057454e-01 -2.537272e-01 1.044435e-01 3.550552e-01 -2.121078e-01 -1.559207e-01 3.616837e-01 -2.574255e-01 2.074210e-01 3.234531e-01 -1.462017e-01 -1.853873e-01 6.081823e-02
<VARIANCE> 39
 1.977106e+00 1.501290e+01 1.105355e+01 2.471767e+01 2.183872e+01 2.386521e+01 2.923735e+01 2.954219e+01 4.615099e+01 3.030069e+01 3.889838e+01 2.945737e+01 4.040539e+00 1.631465e-01 1.046244e+00 5.172824e-01 1.353817e+00 1.396323e+00 1.208918e+00 2.069505e+00 2.579109e+00 2.278118e+00 2.695990e+00 2.519949e+00 2.332554e+00 3.349644e-01 3.179726e-02 1.006641e-01 9.592446e-02 1.990339e-01 1.973904e-01 1.941468e-01 3.063577e-01 3.413278e-01 4.422380e-01 2.610309e-01 4.051424e-01 4.565343e-01 3.291421e-02
<GCONST> 8.946259e+01
<STATE> 4
<MEAN> 39
 4.181795e+00 1.029635e+00 -1.751121e+00 -1.734431e+01 4.086260e+00 -5.050627e+00 -1.871432e+01 -5.047253e+00 -1.797383e+01 1.646061e+00 1.196196e+01 -6.774721e+00 7.670561e+01 -4.865487e-01 -8.456118e-01 9.327214e-01 1.097107e+00 -6.632427e-01 -3.928416e-01 8.262106e-01 -6.510150e-01 6.998722e-01 1.166221e+00 -2.109845e-01 -1.095544e+00 3.815152e-01 5.363577e-02 2.638872e-01 -6.292906e-03 8.403873e-02 -3.513196e-02 2.246020e-01 1.001535e-03 2.599671e-01 -1.596935e-02 -3.936117e-01 -3.013054e-01 5.819770e-02 -2.102529e-01
<VARIANCE> 39
 4.221967e+00 2.018307e+01 2.511197e+01 5.282000e+01 2.787337e+01 3.929093e+01 1.680282e+01 7.017361e+01 4.408116e+01 4.524474e+01 2.057956e+01 4.480059e+01 2.584750e+00 1.236844e-01 1.146448e+00 5.296217e-01 1.130620e+00 1.080967e+00 1.556337e+00 1.693781e+00 2.763317e+00 2.290518e+00 3.545927e+00 1.724881e+00 2.065562e+00 2.737464e-01 2.941131e-02 1.010008e-01 1.079493e-01 1.699844e-01 1.860314e-01 3.562228e-01 2.897539e-01 4.421820e-01 3.239667e-01 4.317462e-01 3.518692e-01 3.588780e-01 3.320865e-02
<GCONST> 9.239786e+01
<TRANSP> 5
 0.000000e+00 1.000000e+00 0.000000e+00 0.000000e+00 0.000000e+00
 0.000000e+00 7.529962e-01 2.470038e-01 0.000000e+00 0.000000e+00
 0.000000e+00 0.000000e+00 8.465543e-01 1.534457e-01 0.000000e+00
 0.000000e+00 0.000000e+00 0.000000e+00 7.179484e-01 2.820516e-01
 0.000000e+00 0.000000e+00 0.000000e+00 0.000000e+00 0.000000e+00
<ENDHMM>
~h "s"
<BEGINHMM>
<NUMSTATES> 5
<STATE> 2
<MEAN> 39
 -8.939109e+00 -4.187738e-02 9.263236e+00 -1.431531e+01 1.316739e+00 6.335175e+00 -9.726620e+00 -5.090391e+00 -5.013024e+00 -2.948528e+00 1.712686e+00 -1.671833e+00 7.654809e+01 -4.658449e+00 -3.058430e-01 1.398315e+00 -1.314443e+00 9.626748e-01 4.087909e-01 1.402324e+00 1.438412e-01 2.377097e+00 -2.794186e-01 -1.739134e-01 9.949400e-01 1.741566e+00 -8.085249e-02 1.259610e-01 -2.842894e-01 -7.987360e-03 -2.258203e-01 -2.013220e-01 -2.541010e-01 5.612207e-01 -1.763384e-01 1.850098e-01 1.408741e-01 -1.518249e-01 -5.680977e-02
<VARIANCE> 39
 7.860007e+01 2.552756e+01 6.470232e+01 3.685373e+01 2.767243e+01 1.908797e+01 5.930395e+01 5.781133e+01 3.678545e+01 2.286961e+01 2.750109e+01 3.055837e+01 1.630531e+01 2.719916e+00 1.695763e+00 3.486503e+00 2.797925e+00 2.577418e+00 1.671577e+00 4.602620e+00 5.183945e+00 3.226389e+00 2.291862e+00 2.968886e+00 2.236888e+00 1.820084e+00 1.193824e+00 3.507185e-01 6.422559e-01 6.315778e-01 4.786581e-01 2.863382e-01 6.662051e-01 1.048660e+00 7.633999e-01 3.738593e-01 6.190512e-01 5.285217e-01 4.741613e-01
<GCONST> 1.234236e+02
<STATE> 3
<MEAN> 39
 -2.243783e+01 -4.327630e-01 1.069070e+01 -1.815792e+01 2.163329e+00 6.623078e+00 -6.800210e+00 1.009424e+00 -3.039220e-01 -2.612066e+00 2.100305e+00 -2.862684e-01 8.000616e+01 -8.310510e-02 -2.575455e-01 -4.555667e-01 -9.743661e-03 -1.755373e-01 -2.314649e-01 3.425027e-01 2.067939e-01 -8.795621e-03 1.235982e-01 -3.159428e-02 6.577265e-02 -2.211915e-01 8.308906e-01 -8.225129e-02 -1.575926e-01 2.542697e-01 -1.033771e-01 -1.471388e-01 -4.756763e-02 -2.750411e-01 -2.758413e-01 -4.962701e-02 -9.580544e-02 -1.378715e-02 -2.844323e-01
<VARIANCE> 39
 6.135227e+00 1.767179e+01 1.282129e+01 1.321233e+01 1.484759e+01 1.489777e+01 2.191024e+01 2.587383e+01 1.868286e+01 1.621602e+01 1.363136e+01 1.684171e+01 2.861561e+00 2.321447e+00 1.089588e+00 9.520087e-01 1.379032e+00 1.123151e+00 1.110583e+00 1.587891e+00 2.174144e+00 9.466622e-01 1.146797e+00 1.085574e+00 1.159711e+00 4.255093e-01 3.044782e-01 2.132779e-01 1.875110e-01 2.286369e-01 2.067708e-01 2.479602e-01 3.194543e-01 3.368397e-01 3.518496e-01 2.780458e-01 2.346340e-01 2.598143e-01 8.033124e-02
<GCONST> 8.882676e+01
<STATE> 4
<MEAN> 39
 -1.077000e+01 -8.971469e-01 7.734919e+00 -1.488801e+01 -1.488637e-01 2.216253e+00 -7.470944e+00 -4.067319e+00 -5.312328e+00 -4.094758e+00 -8.326044e-01 -6.227629e-01 7.591085e+01 3.720857e+00 6.872571e-01 -3.150384e-02 4.220480e-01 -1.035927e+00 -1.071518e+00 -1.250068e+00 -9.478104e-01 -2.218845e+00 -4.508336e-01 -3.313223e-01 -5.943072e-01 -8.934546e-01 -1.128258e-01 2.802542e-02 1.748561e-01 -1.384560e-01 -1.667995e-01 9.460416e-02 -3.036536e-01 2.859018e-01 -1.446221e-01 2.128925e-01 3.488825e-01 -2.558112e-01 1.946394e-01
<VARIANCE> 39
 5.507707e+01 3.102928e+01 1.654605e+01 2.539276e+01 2.287417e+01 2.996358e+01 6.348067e+01 3.797726e+01 4.975802e+01 2.431584e+01 2.539596e+01 2.174179e+01 8.718216e+00 2.002912e+00 3.747344e+00 2.457662e+00 2.314145e+00 1.970141e+00 1.632806e+00 4.094239e+00 3.495539e+00 3.338459e+00 3.012603e+00 3.178204e+00 1.832948e+00 8.611936e-01 7.631921e-01 8.748748e-01 2.816890e-01 4.894982e-01 3.544978e-01 4.658734e-01 9.663510e-01 6.201425e-01 9.552297e-01 4.673932e-01 4.582383e-01 2.970987e-01 8.639102e-02
<GCONST> 1.166138e+02
<TRANSP> 5
 0.000000e+00 1.000000e+00 0.000000e+00 0.000000e+00 0.000000e+00
 0.000000e+00 7.028527e-01 2.971472e-01 0.000000e+00 0.000000e+00
 0.000000e+00 0.000000e+00 8.608181e-01 1.391818e-01 0.000000e+00
 0.000000e+00 0.000000e+00 0.000000e+00 6.864718e-01 3.135283e-01
 0.000000e+00 0.000000e+00 0.000000e+00 0.000000e+00 0.000000e+00
<ENDHMM>
~h "t"
<BEGINHMM>
<NUMSTATES> 5
<STATE> 2
<MEAN> 39
 -7.360304e+00 -2.217128e+00 3.877169e+00 -1.171414e+01 7.237390e-01 3.599050e+00 -8.374637e+00 -2.859819e-01 -4.689475e+00 -7.472916e-01 1.995118e+00 -3.278958e+00 7.313464e+01 -1.377553e+00 -1.552172e+00 6.232070e-01 4.218951e-01 -2.753139e-01 -5.820531e-01 4.049653e-01 -7.763631e-01 6.573505e-01 8.505992e-02 8.887868e-02 1.169438e-01 9.639729e-01 2.268319e-01 1.360896e-02 4.255146e-02 2.405017e-01 -3.338495e-02 -8.777045e-02 -2.018572e-01 -2.333137e-01 -2.463131e-01 -1.303514e-02 -1.786443e-01 -8.505629e-02 4.424806e-02
<VARIANCE> 39
 6.418000e+01 3.511599e+01 5.228298e+01 4.992456e+01 2.933774e+01 3.425951e+01 4.594521e+01 3.220193e+01 4.079099e+01 2.677065e+01 1.845418e+01 1.722472e+01 3.058465e+01 6.696974e+00 3.667062e+00 7.551902e+00 7.778072e+00 2.791637e+00 3.929051e+00 3.222308e+00 4.206730e+00 3.681223e+00 1.725291e+00 2.415312e+00 1.844863e+00 4.587718e+00 1.752009e+00 6.817088e-01 1.523222e+00 1.222120e+00 6.052144e-01 6.814019e-01 7.386935e-01 7.311619e-01 7.304260e-01 4.253394e-01 5.319248e-01 3.907626e-01 1.073164e+00
<GCONST> 1.314251e+02
<STATE> 3
<MEAN> 39
 -8.264764e+00 -8.321474e+00 7.427810e+00 -6.796544e+00 -8.831825e-01 -1.812644e+00 -9.511407e+00 -5.429514e+00 -6.062785e+00 -1.514598e+00 1.199075e+00 -3.438239e+00 7.676726e+01 2.481461e+00 7.958364e-01 -3.412879e-01 8.506603e-01 3.896480e-01 -4.558385e-01 -1.827455e+00 -1.199630e+00 -1.996476e+00 -1.101795e-02 -5.459232e-01 -5.552471e-01 -5.418030e-01 5.821770e-01 7.655549e-01 -3.132820e-01 -3.526619e-01 6.639659e-02 4.921772e-01 -1.568773e-01 2.999162e-01 -3.152499e-01 1.301172e-01 9.463638e-02 -6.786703e-02 -3.769071e-01
<VARIANCE> 39
 4.158237e+01 2.736883e+01 1.825515e+01 3.920238e+01 2.036056e+01 3.194376e+01 6.298227e+01 3.635261e+01 5.466532e+01 2.365424e+01 2.568589e+01 2.118109e+01 8.366426e+00 4.189100e+00 3.534718e+00 2.462376e+00 2.219318e+00 2.936798e+00 2.207897e+00 5.040303e+00 4.178995e+00 4.317258e+00 2.028255e+00 2.155349e+00 2.423187e+00 1.235034e+00 1.093400e+00 6.352611e-01 5.443693e-01 4.820902e-01 5.692882e-01 3.911527e-01 1.083724e+00 7.688648e-01 1.206501e+00 4.022688e-01 6.011639e-01 4.031232e-01 3.248543e-01
<GCONST> 1.217822e+02
<STATE> 4
<MEAN> 39
 7.827628e-01 -1.699809e+00 4.870713e+00 -6.324578e+00 5.865732e-01 -3.767425e-01 -1.472842e+01 -7.459356e+00 -1.222420e+01 8.724374e-01 1.636192e+00 -4.107034e+00 7.336379e+01 1.096495e+00 9.857701e-01 -9.280795e-01 3.985709e-01 9.667241e-02 1.089480e+00 3.206319e-01 8.960335e-01 -3.053567e-01 2.584216e-01 -2.591217e-01 -9.270921e-02 -8.672788e-01 -4.562195e-01 -1.899108e-01 -1.020896e-01 3.399523e-02 -1.941509e-01 1.792161e-01 5.610843e-01 5.451890e-01 5.579855e-01 -1.600315e-01 -1.995759e-02 7.475416e-02 5.306695e-03
<VARIANCE> 39
 1.715532e+01 2.206187e+01 3.014116e+01 3.939072e+01 2.327252e+01 3.896979e+01 5.322104e+01 3.815915e+01 3.742034e+01 2.593524e+01 2.175313e+01 2.115992e+01 8.006714e+00 1.681000e+00 1.375203e+00 1.486512e+00 2.015396e+00 2.430227e+00 2.484672e+00 4.344991e+00 3.014641e+00 3.718986e+00 3.051080e+00 2.587172e+00 1.443386e+00 9.541250e-01 2.886358e-01 1.994067e-01 3.018082e-01 3.005009e-01 2.356823e-01 3.535523e-01 8.748426e-01 6.638957e-01 4.162417e-01 3.534685e-01 4.575596e-01 2.475022e-01 1.887546e-01
<GCONST> 1.101689e+02
<TRANSP> 5
 0.000000e+00 1.000000e+00 0.000000e+00 0.000000e+00 0.000000e+00
 0.000000e+00 6.750383e-01 3.249617e-01 0.000000e+00 0.000000e+00
 0.000000e+00 0.000000e+00 5.795036e-01 4.204964e-01 0.000000e+00
 0.000000e+00 0.000000e+00 0.000000e+00 5.842275e-01 4.157725e-01
 0.000000e+00 0.000000e+00 0.000000e+00 0.000000e+00 0.000000e+00
<ENDHMM>
~h "v"
<BEGINHMM>
<NUMSTATES> 5
<STATE> 2
<MEAN> 39
 1.708565e+00 -1.262501e+00 4.136115e+00 -9.534555e+00 -1.140404e+00 -1.096772e+00 -1.472557e+01 -6.254902e+00 -1.518936e+01 1.602294e+00 7.566554e+00 -3.425220e+00 7.476003e+01 -1.463170e+00 -3.428655e-01 1.512316e+00 -2.951061e-01 9.265471e-02 3.562745e-01 -1.061494e-01 -1.591963e+00 9.446760e-02 -7.555929e-01 -3.752266e-01 2.003063e-01 7.565109e-01 -2.846523e-01 1.355160e-01 -1.157037e-01 1.210891e-01 1.283718e-01 2.414152e-01 6.541728e-01 2.932295e-02 7.127918e-01 -4.707553e-01 -5.321999e-01 -1.124351e-01 2.122858e-02
<VARIANCE> 39
 2.094762e+01 3.478624e+01 1.349359e+01 1.835563e+01 3.028424e+01 3.665928e+01 6.352692e+01 2.435376e+01 1.026162e+02 1.217976e+01 2.985983e+01 2.495011e+01 5.436935e+00 3.203897e+00 5.204884e+00 8.353046e+00 5.458326e+00 7.462245e-01 2.091291e+00 9.407934e+00 7.749545e+00 8.753735e+00 4.972328e+00 6.107658e+00 1.389501e+00 5.569527e+00 7.488121e-01 2.249848e-01 2.360986e-01 4.196740e-02 3.372736e-01 3.245143e-01 1.942507e+00 4.345729e-01 2.837802e+00 2.371339e-01 4.079020e-01 2.313862e-01 5.973438e-02
<GCONST> 1.182202e+02
<STATE> 3
<MEAN> 39
 -3.282052e+00 2.398060e-01 2.799320e+00 -8.196751e+00 -6.698812e-01 1.049176e+00 -8.476203e+00 -7.192965e+00 -8.714574e+00 -1.590182e+00 2.560380e+00 -3.026876e+00 7.521066e+01 -1.972472e+00 -3.537107e-01 9.494204e-01 -2.420843e-01 -3.493612e-01 7.878560e-01 9.938602e-01 -9.104779e-01 1.369299e+00 -6.713738e-01 -8.456975e-01 -5.765560e-02 5.932810e-01 7.494153e-01 1.488637e-01 -5.060275e-01 5.551321e-03 2.486473e-02 7.905333e-02 -2.740039e-01 5.666701e-01 -3.966323e-01 3.278229e-02 8.609834e-02 -1.482570e-01 -4.795502e-01
<VARIANCE> 39
 3.416166e+01 4.060024e+01 2.461731e+01 2.846584e+01 2.735417e+01 5.736597e+01 1.133552e+02 3.223851e+01 1.087771e+02 1.862689e+01 3.676560e+01 2.774206e+01 1.059327e+01 3.325975e+00 2.683276e+00 6.134761e+00 2.680207e+00 1.064525e+00 1.546966e+00 1.755950e+01 8.084700e+00 1.558458e+01 4.551165e+00 4.585086e+00 8.921177e-01 2.968970e+00 1.094911e+00 6.248041e-01 5.699885e-01 5.388853e-01 3.429819e-01 7.091582e-01 2.230765e+00 4.110211e-01 2.495761e+00 6.964999e-01 7.508025e-01 1.682946e-01 2.473018e-01
<GCONST> 1.291560e+02
<STATE> 4
<MEAN> 39
 -6.170052e+00 -4.411013e+00 6.151345e+00 -1.262746e+01 -3.116304e+00 1.476179e+00 -1.446729e+01 -1.083834e+01 -1.036603e+01 5.721221e-02 1.942922e+00 -3.732320e+00 7.535188e+01 -2.114625e-01 5.548531e-01 -6.683069e-03 -1.737612e-01 8.529899e-01 1.361828e+00 2.918322e-01 8.498564e-01 9.619166e-01 -7.065902e-01 -8.105045e-01 -9.736987e-03 -6.818212e-01 4.440956e-01 2.549759e-01 -6.397675e-01 2.470841e-01 -2.215566e-02 -8.943353e-02 2.865909e-01 5.113041e-01 5.819977e-02 -6.311187e-02 -1.489688e-01 9.397596e-03 -4.570697e-01
<VARIANCE> 39
 5.998876e+01 2.905348e+01 3.117459e+01 3.168658e+01 2.192161e+01 5.792445e+01 5.805793e+01 4.810166e+01 9.315709e+01 2.203329e+01 3.410220e+01 1.510305e+01 2.198295e+01 5.869222e+00 1.870400e+00 6.033731e+00 2.919034e+00 2.253957e+00 3.582036e+00 6.570724e+00 6.112495e+00 1.050636e+01 2.505575e+00 2.951384e+00 8.396758e-01 3.881495e+00 1.497864e+00 6.582915e-01 1.376501e+00 5.895846e-01 3.616779e-01 8.514635e-01 9.874105e-01 1.281156e+00 2.092027e+00 6.054404e-01 7.601136e-01 8.215437e-02 1.029207e+00
<GCONST> 1.309852e+02
<TRANSP> 5
 0.000000e+00 1.000000e+00 0.000000e+00 0.000000e+00 0.000000e+00
 0.000000e+00 1.829000e-01 8.171000e-01 0.000000e+00 0.000000e+00
 0.000000e+00 0.000000e+00 3.076721e-01 6.923279e-01 0.000000e+00
 0.000000e+00 0.000000e+00 0.000000e+00 6.260312e-01 3.739688e-01
 0.000000e+00 0.000000e+00 0.000000e+00 0.000000e+00 0.000000e+00
<ENDHMM>
~h "w"
<BEGINHMM>
<NUMSTATES> 5
<STATE> 2
<MEAN> 39
 -2.782040e+00 2.010535e-01 -9.718836e+00 -7.100245e+00 -4.886539e+00 -5.166518e+00 -5.953074e-01 2.646646e-01 -1.420616e+01 -3.913918e+00 6.796088e+00 -3.495948e+00 7.194749e+01 -1.382379e+00 -1.732120e+00 1.413077e+00 -9.135619e-01 4.684420e-01 -6.793746e-01 5.178154e-01 -3.843437e-01 -5.235038e-01 -6.877950e-01 2.916568e-01 1.003213e+00 1.514153e+00 4.772102e-01 -5.054289e-02 3.917077e-01 3.304141e-01 2.763383e-01 1.198864e+00 -6.605996e-01 -1.042964e-01 4.142123e-01 2.878300e-01 -8.477495e-01 -1.338926e-02 -5.761248e-01
<VARIANCE> 39
 1.014567e+01 2.162268e+01 2.525477e+01 2.434698e+01 2.079870e+01 3.844059e+01 3.837593e+01 2.542671e+01 3.862725e+01 1.926776e+01 1.524040e+01 2.676299e+01 9.653623e+00 9.373991e-01 9.097543e-01 1.877719e+00 2.803504e+00 1.027021e+00 6.396395e+00 3.965024e+00 2.245675e+00 3.083731e+00 1.600058e+00 3.767054e+00 2.775960e+00 1.726650e+00 2.070964e-01 4.073741e-01 4.377496e-01 4.333838e-01 2.605409e-01 8.272077e-01 7.789481e-01 5.035861e-01 5.462658e-01 3.936380e-01 4.175203e-01 6.899852e-01 2.103074e-01
<GCONST> 1.110616e+02
<STATE> 3
<MEAN> 39
 -1.199008e+00 -2.574672e+00 -3.543403e+00 -6.485320e+00 -2.060042e+00 1.230407e+00 -4.569498e+00 -2.197279e+00 -1.419229e+01 -4.458691e+00 -3.083279e-02 -3.389177e+00 7.132818e+01 1.744944e+00 1.179401e+00 1.197631e+00 2.543554e-02 1.956653e-01 2.264350e-02 -2.048428e+00 -1.458750e+00 -2.438795e+00 3.888196e-02 -6.516867e-01 -1.559532e+00 4.129652e-02 2.874837e-01 4.226162e-01 -1.315742e-01 -1.394820e-01 -7.263338e-02 -4.647917e-01 -2.957080e-01 -3.258054e-01 -6.701336e-01 3.306606e-01 6.577987e-01 -4.057460e-01 1.326724e-01
<VARIANCE> 39
 2.095241e+01 2.742891e+01 1.237682e+01 1.737669e+01 1.067169e+01 1.900115e+01 3.670935e+01 2.910201e+01 5.899362e+01 1.049877e+01 2.371972e+01 2.945134e+01 4.064205e+00 1.572638e+00 3.835797e+00 1.107127e+00 2.011458e+00 9.394739e-01 4.084999e+00 2.773114e+00 2.644979e+00 6.603605e+00 1.649892e+00 3.605428e+00 3.422923e+00 6.118424e-01 5.955757e-01 1.120795e+00 3.103096e-01 2.490367e-01 1.574431e-01 6.377639e-01 5.161514e-01 3.257551e-01 1.119681e+00 3.534387e-01 6.353483e-01 7.113769e-01 1.898622e-01
<GCONST> 1.099846e+02
<STATE> 4
<MEAN> 39
 4.172196e+00 1.376111e+00 1.900630e+00 -5.448215e+00 -2.592196e+00 -1.340915e+00 -1.411205e+01 -7.441001e+00 -2.209879e+01 -9.600819e-01 6.835379e+00 -1.051284e+01 7.318729e+01 -5.249596e-02 -1.534431e-01 2.621967e-01 2.696728e-01 -1.517546e-01 3.782092e-01 -3.386914e-01 4.010230e-01 6.393842e-01 3.784533e-01 5.050606e-01 -5.414465e-01 -1.480182e-01 -1.822126e-01 -1.090276e-01 -1.994818e-01 1.301414e-01 -8.680598e-02 6.600051e-02 4.003239e-01 4.731379e-01 5.164992e-01 -1.649549e-01 -2.310266e-01 3.021668e-01 -1.687846e-01
<VARIANCE> 39
 6.483448e+00 2.498171e+01 2.116368e+01 2.117597e+01 3.483281e+01 2.428577e+01 2.998071e+01 5.466912e+01 2.726206e+01 2.568796e+01 2.641078e+01 3.376259e+01 1.028426e+01 6.058607e-01 2.383221e+00 4.035880e+00 2.377705e+00 2.212443e+00 2.418186e+00 4.521350e+00 6.672993e+00 4.543621e+00 3.128753e+00 3.168885e+00 3.789205e+00 2.007325e+00 1.857316e-01 5.469211e-01 4.826502e-01 3.290010e-01 4.323270e-01 4.289672e-01 5.007944e-01 1.101378e+00 8.027362e-01 5.997270e-01 4.328448e-01 8.777846e-01 1.947012e-01
<GCONST> 1.164947e+02
<TRANSP> 5
 0.000000e+00 1.000000e+00 0.000000e+00 0.000000e+00 0.000000e+00
 0.000000e+00 6.394292e-01 3.605709e-01 0.000000e+00 0.000000e+00
 0.000000e+00 0.000000e+00 7.348702e-01 2.651298e-01 0.000000e+00
 0.000000e+00 0.000000e+00 0.000000e+00 8.468772e-01 1.531228e-01
 0.000000e+00 0.000000e+00 0.000000e+00 0.000000e+00 0.000000e+00
<ENDHMM>
~h "y"
<BEGINHMM>
<NUMSTATES> 5
<STATE> 2
<MEAN> 39
 -2.812095e+00 -1.012016e+00 8.119963e+00 -1.526335e+00 -1.547094e+00 2.863913e+00 -7.324838e+00 1.660187e-01 -6.019795e+00 -2.194187e+00 -3.480074e+00 -6.828461e+00 7.282865e+01 -1.423768e+00 -1.307383e+00 1.890960e+00 -5.211658e-01 -2.342806e-01 -5.365983e-01 -5.842201e-01 -7.150178e-01 3.589755e-01 -7.419682e-01 -7.345819e-01 -9.103382e-02 1.104706e+00 3.254444e-01 6.090802e-02 1.253774e-01 1.289112e-01 1.213583e-01 -1.903215e-01 -6.326178e-01 1.398257e-02 -3.753308e-01 -3.516531e-02 -2.760805e-02 -1.710091e-01 1.870490e-02
<VARIANCE> 39
 4.745589e+01 4.398040e+01 8.274920e+01 3.322187e+01 4.165850e+01 2.045928e+01 6.352975e+01 4.001096e+01 2.520746e+01 1.839725e+01 3.531556e+01 1.480307e+01 2.581889e+01 6.528819e+00 2.961528e+00 1.160845e+01 2.075859e+00 2.488635e+00 2.482154e+00 1.027854e+01 4.265722e+00 3.844844e+00 1.745633e+00 2.586805e+00 1.795499e+00 3.282414e+00 1.492831e+00 7.383279e-01 2.599607e+00 5.909526e-01 5.616639e-01 3.853172e-01 2.049209e+00 9.138910e-01 6.799470e-01 3.822284e-01 5.271234e-01 3.913089e-01 7.891241e-01
<GCONST> 1.303123e+02
<STATE> 3
<MEAN> 39
 -4.857161e+00 -6.622538e+00 1.416916e+01 -1.588326e+00 -1.687640e+00 -2.329233e+00 -1.306255e+01 -1.403461e-01 -6.175773e+00 -5.545753e+00 -4.617066e+00 -7.939004e+00 7.604404e+01 2.436639e+00 1.145089e+00 1.278202e-01 9.680321e-01 -3.563114e-02 -5.181587e-01 -2.248976e+00 7.027652e-02 -1.955268e+00 -7.801187e-02 2.994568e-01 -2.938882e-01 -5.644103e-01 4.535692e-02 1.947941e-01 -3.468990e-01 -1.448554e-01 -9.095370e-02 9.404276e-02 1.357182e-01 2.464797e-01 -1.793381e-01 4.702202e-01 4.460713e-01 7.651383e-02 -1.047472e-01
<VARIANCE> 39
 5.651210e+01 5.233413e+01 2.459180e+01 3.686968e+01 1.270422e+01 1.753383e+01 2.314551e+01 1.938572e+01 3.980350e+01 2.199836e+01 1.726332e+01 1.080367e+01 1.161548e+01 1.676023e+00 1.586512e+00 1.771960e+00 1.059901e+00 1.184436e+00 9.381155e-01 2.297728e+00 1.147854e+00 4.302415e+00 2.312625e+00 2.124235e+00 1.960785e+00 3.083664e-01 8.415490e-01 5.666072e-01 3.259522e-01 3.944261e-01 1.443690e-01 1.540573e-01 3.434337e-01 4.204957e-01 7.282683e-01 3.750853e-01 4.413000e-01 3.491229e-01 2.213564e-01
<GCONST> 1.044697e+02
<STATE> 4
<MEAN> 39
 2.251637e+00 -1.009702e+00 1.437518e+01 -3.232548e+00 -3.318648e-01 -1.070870e+00 -2.117793e+01 1.139533e+00 -1.437734e+01 -3.521109e+00 -1.559400e+00 -8.121274e+00 7.465395e+01 2.966647e-01 -2.356232e-01 -4.792153e-01 -7.417726e-01 1.723354e-01 -4.515133e-01 -1.567958e+00 -1.048081e-01 -4.842532e-01 1.900987e+00 9.611948e-01 7.120471e-02 2.909597e-01 -3.336501e-01 -2.002023e-01 -1.700199e-01 -3.368098e-01 1.912474e-01 -5.957419e-02 1.662893e-01 -4.856186e-01 5.142692e-01 2.339147e-01 5.413251e-02 2.655361e-01 1.232277e-01
<VARIANCE> 39
 2.573536e+00 2.437393e+01 3.889570e+01 3.395405e+01 1.366196e+01 1.949557e+01 3.087344e+01 1.298517e+01 1.202598e+01 2.728577e+01 1.302350e+01 2.225587e+01 8.874997e+00 1.247514e-01 8.979448e-01 6.045418e-01 5.176886e-01 8.647144e-01 8.888107e-01 1.257028e+00 1.997300e+00 1.504877e+00 1.199313e+00 7.517523e-01 1.191461e+00 3.281415e-01 8.873957e-02 1.864653e-01 1.605945e-01 1.230090e-01 7.436457e-02 1.359009e-01 2.147720e-01 2.280467e-01 2.325863e-01 2.785273e-01 1.213516e-01 1.716563e-01 4.607417e-02
<GCONST> 7.957652e+01
<TRANSP> 5
 0.000000e+00 1.000000e+00 0.000000e+00 0.000000e+00 0.000000e+00
 0.000000e+00 7.906430e-01 2.093570e-01 0.000000e+00 0.000000e+00
 0.000000e+00 0.000000e+00 6.794146e-01 3.205854e-01 0.000000e+00
 0.000000e+00 0.000000e+00 0.000000e+00 7.107463e-01 2.892537e-01
 0.000000e+00 0.000000e+00 0.000000e+00 0.000000e+00 0.000000e+00
<ENDHMM>
~h "z"
<BEGINHMM>
<NUMSTATES> 5
<STATE> 2
<MEAN> 39
 1.243263e+00 2.009342e+00 -3.600729e+00 -7.780252e+00 -2.124930e+00 2.943915e+00 -9.405266e+00 5.574683e-01 -8.480373e+00 -8.431195e-01 1.753790e+00 -3.834116e+00 6.933920e+01 6.608545e-03 -7.871487e-04 5.575932e-03 9.451325e-03 1.243685e-02 3.598967e-04 4.977515e-03 7.675061e-03 8.751670e-03 -1.601357e-04 -6.787761e-03 1.796699e-03 7.823239e-03 1.084905e-04 6.917859e-04 -1.452734e-03 -1.623669e-04 -1.531235e-03 -6.168764e-04 -1.016060e-04 5.717326e-04 -8.436721e-04 1.307740e-03 2.658077e-04 -1.178421e-04 -1.493792e-03
<VARIANCE> 39
 3.560448e+01 3.133138e+01 1.175854e+02 5.757076e+01 3.574751e+01 4.825400e+01 6.299704e+01 4.654386e+01 5.944289e+01 3.514179e+01 3.786765e+01 3.343571e+01 4.679148e+01 1.818672e+00 1.507933e+00 2.670334e+00 2.176207e+00 1.716306e+00 2.419825e+00 3.138164e+00 2.909526e+00 2.711722e+00 1.967625e+00 2.125080e+00 1.650968e+00 1.255564e+00 2.970746e-01 2.534214e-01 4.172046e-01 3.324886e-01 2.983715e-01 4.159752e-01 5.145366e-01 5.176500e-01 4.586368e-01 3.470287e-01 3.812441e-01 2.994810e-01 2.048787e-01
<GCONST> 1.175816e+02
<STATE> 3
<MEAN> 39
 1.243263e+00 2.009342e+00 -3.600729e+00 -7.780252e+00 -2.124930e+00 2.943915e+00 -9.405266e+00 5.574683e-01 -8.480373e+00 -8.431195e-01 1.753790e+00 -3.834116e+00 6.933920e+01 6.608545e-03 -7.871487e-04 5.575932e-03 9.451325e-03 1.243685e-02 3.598967e-04 4.977515e-03 7.675061e-03 8.751670e-03 -1.601357e-04 -6.787761e-03 1.796699e-03 7.823239e-03 1.084905e-04 6.917859e-04 -1.452734e-03 -1.623669e-04 -1.531235e-03 -6.168764e-04 -1.016060e-04 5.717326e-04 -8.436721e-04 1.307740e-03 2.658077e-04 -1.178421e-04 -1.493792e-03
<VARIANCE> 39
 3.560448e+01 3.133138e+01 1.175854e+02 5.757076e+01 3.574751e+01 4.825400e+01 6.299704e+01 4.654386e+01 5.944289e+01 3.514179e+01 3.786765e+01 3.343571e+01 4.679148e+01 1.818672e+00 1.507933e+00 2.670334e+00 2.176207e+00 1.716306e+00 2.419825e+00 3.138164e+00 2.909526e+00 2.711722e+00 1.967625e+00 2.125080e+00 1.650968e+00 1.255564e+00 2.970746e-01 2.534214e-01 4.172046e-01 3.324886e-01 2.983715e-01 4.159752e-01 5.145366e-01 5.176500e-01 4.586368e-01 3.470287e-01 3.812441e-01 2.994810e-01 2.048787e-01
<GCONST> 1.175816e+02
<STATE> 4
<MEAN> 39
 1.243263e+00 2.009342e+00 -3.600729e+00 -7.780252e+00 -2.124930e+00 2.943915e+00 -9.405266e+00 5.574683e-01 -8.480373e+00 -8.431195e-01 1.753790e+00 -3.834116e+00 6.933920e+01 6.608545e-03 -7.871487e-04 5.575932e-03 9.451325e-03 1.243685e-02 3.598967e-04 4.977515e-03 7.675061e-03 8.751670e-03 -1.601357e-04 -6.787761e-03 1.796699e-03 7.823239e-03 1.084905e-04 6.917859e-04 -1.452734e-03 -1.623669e-04 -1.531235e-03 -6.168764e-04 -1.016060e-04 5.717326e-04 -8.436721e-04 1.307740e-03 2.658077e-04 -1.178421e-04 -1.493792e-03
<VARIANCE> 39
 3.560448e+01 3.133138e+01 1.175854e+02 5.757076e+01 3.574751e+01 4.825400e+01 6.299704e+01 4.654386e+01 5.944289e+01 3.514179e+01 3.786765e+01 3.343571e+01 4.679148e+01 1.818672e+00 1.507933e+00 2.670334e+00 2.176207e+00 1.716306e+00 2.419825e+00 3.138164e+00 2.909526e+00 2.711722e+00 1.967625e+00 2.125080e+00 1.650968e+00 1.255564e+00 2.970746e-01 2.534214e-01 4.172046e-01 3.324886e-01 2.983715e-01 4.159752e-01 5.145366e-01 5.176500e-01 4.586368e-01 3.470287e-01 3.812441e-01 2.994810e-01 2.048787e-01
<GCONST> 1.175816e+02
<TRANSP> 5
 0.000000e+00 1.000000e+00 0.000000e+00 0.000000e+00 0.000000e+00
 0.000000e+00 6.000000e-01 4.000000e-01 0.000000e+00 0.000000e+00
 0.000000e+00 0.000000e+00 6.000000e-01 4.000000e-01 0.000000e+00
 0.000000e+00 0.000000e+00 0.000000e+00 7.000000e-01 3.000000e-01
 0.000000e+00 0.000000e+00 0.000000e+00 0.000000e+00 0.000000e+00
<ENDHMM>
~h "aa"
<BEGINHMM>
<NUMSTATES> 5
<STATE> 2
<MEAN> 39
 2.155970e+00 1.670760e+00 8.556175e+00 -1.822113e+01 -6.075221e+00 -4.505363e+00 -1.034618e+01 1.109901e+01 -1.034122e+01 1.144929e+00 5.224265e+00 -7.518743e+00 7.570025e+01 1.576475e-01 2.785214e-01 1.490405e-01 -1.823829e-01 -3.548512e-01 2.045334e-01 2.039471e-01 6.951133e-01 7.748932e-02 3.130628e-01 5.852501e-01 9.393472e-02 -2.476850e-01 -6.742743e-02 -6.628224e-02 -8.727271e-02 3.403292e-01 2.176982e-01 4.000184e-01 1.331212e-01 -2.952259e-01 3.662971e-02 -1.808885e-01 -1.060638e-01 1.148729e-01 -9.978326e-02
<VARIANCE> 39
 2.934079e+00 1.600105e+01 2.039256e+01 1.497381e+01 2.704979e+01 1.111945e+01 7.007096e+01 1.072874e+02 1.335237e+01 3.730695e+01 1.593800e+01 2.119826e+01 4.538555e+00 1.009480e-01 5.826288e-01 1.194392e+00 1.705346e+00 1.175909e+00 1.308832e+00 2.358778e+00 4.402210e+00 1.058199e+00 2.176977e+00 8.420891e-01 1.259519e+00 1.319443e-01 3.218441e-02 1.922255e-01 7.271931e-02 1.742622e-01 1.540196e-01 1.414485e-01 3.675546e-01 2.314933e-01 1.666956e-01 5.319062e-01 1.884108e-01 2.463156e-01 1.067209e-02
<GCONST> 8.316515e+01
<STATE> 3
<MEAN> 39
 3.378304e+00 3.740783e+00 3.275049e+00 -2.155779e+01 7.638412e-01 4.581565e+00 -1.411091e+01 4.207061e+00 -1.259255e+01 -1.777153e+00 1.094209e+01 -2.956398e+00 7.406139e+01 9.328757e-03 3.094779e-01 6.546258e-02 9.896495e-02 3.351882e-01 8.461897e-01 5.942229e-02 -3.152493e-02 -4.408773e-01 -5.905911e-01 -7.198115e-02 4.453346e-01 -3.221024e-01 -4.028026e-02 2.382594e-02 3.006616e-02 1.688597e-01 1.656899e-02 3.253875e-02 -3.085386e-02 -4.636621e-02 4.439859e-02 9.717865e-03 -1.162971e-01 -5.489167e-02 -5.077728e-02
<VARIANCE> 39
 4.505400e+00 2.405001e+01 2.957749e+01 2.748920e+01 3.195834e+01 2.349655e+01 2.171579e+01 2.359712e+01 4.230722e+01 2.325952e+01 1.619749e+01 3.687795e+01 7.663142e+00 6.337575e-02 4.562886e-01 5.461009e-01 1.611251e+00 8.287882e-01 1.214838e+00 1.061440e+00 1.123363e+00 1.653740e+00 9.565808e-01 9.544708e-01 1.011985e+00 1.498821e-01 3.225452e-02 7.306667e-02 8.612359e-02 1.045089e-01 1.538644e-01 1.618524e-01 1.968851e-01 1.566291e-01 2.544304e-01 1.912149e-01 1.530231e-01 1.650047e-01 1.683513e-02
<GCONST> 7.756301e+01
<STATE> 4
<MEAN> 39
 -1.891510e+00 1.750107e+00 2.592965e+00 -1.204466e+01 9.909229e-03 7.273921e+00 -8.592840e+00 3.477466e+00 -9.678291e+00 -1.511721e+00 4.681276e+00 -3.927250e+00 7.108836e+01 -9.808752e-01 7.623002e-02 -2.356074e-01 1.258028e+00 5.915924e-01 1.053292e+00 6.672257e-01 -6.646431e-02 1.038088e+00 -8.335713e-02 -5.538881e-01 1.541162e-01 -5.702153e-01 -3.479809e-01 -1.185522e-01 -7.675761e-02 -2.085880e-01 -4.041617e-02 -1.364351e-01 2.034616e-01 3.603933e-02 3.481547e-01 3.987711e-02 1.971133e-03 2.101263e-01 1.901926e-01
<VARIANCE> 39
 6.384735e+01 2.133515e+01 5.062703e+01 3.599571e+01 5.913762e+01 1.759726e+01 3.785037e+01 1.815301e+01 4.442801e+01 1.085427e+01 1.758656e+01 1.374683e+01 1.931065e+01 5.134319e+00 1.219834e+00 3.734601e+00 4.642059e+00 3.071007e+00 1.616825e+00 2.396531e+00 1.642983e+00 2.529691e+00 2.169733e+00 1.312262e+00 1.628390e+00 2.104316e+00 1.008646e+00 1.409816e-01 4.838769e-01 4.651695e-01 5.163430e-01 2.569869e-01 5.180438e-01 3.459581e-01 5.543626e-01 3.137870e-01 2.147392e-01 2.663393e-01 3.269404e-01
<GCONST> 1.124667e+02
<TRANSP> 5
 0.000000e+00 1.000000e+00 0.000000e+00 0.000000e+00 0.000000e+00
 0.000000e+00 7.825853e-01 2.174147e-01 0.000000e+00 0.000000e+00
 0.000000e+00 0.000000e+00 8.720754e-01 1.279246e-01 0.000000e+00
 0.000000e+00 0.000000e+00 0.000000e+00 6.562116e-01 3.437884e-01
 0.000000e+00 0.000000e+00 0.000000e+00 0.000000e+00 0.000000e+00
<ENDHMM>
~h "ae"
<BEGINHMM>
<NUMSTATES> 5
<STATE> 2
<MEAN> 39
 2.099693e+00 4.863141e+00 -3.081014e+00 -8.333254e+00 -3.501978e-01 1.141232e+01 -7.199168e+00 -5.333457e-02 -7.322589e+00 -6.936640e-01 -3.415869e-01 -3.381385e+00 6.768302e+01 1.037806e-01 -1.571812e-01 3.049940e-01 -4.651015e-01 -3.520465e-01 -6.287752e-01 -7.727709e-03 2.239848e-01 -5.370199e-01 6.765910e-01 4.334311e-01 -2.029461e-01 3.158514e-01 -1.499046e-01 -2.339026e-01 1.662431e-01 -1.285648e-01 6.985300e-02 -1.834474e-01 4.365723e-02 6.767417e-02 -3.871703e-02 6.930653e-02 1.955735e-01 -6.982886e-02 1.694333e-01
<VARIANCE> 39
 1.536861e+01 2.596639e+01 7.280892e+01 3.723595e+01 1.564748e+01 5.614701e+01 3.403498e+01 1.691716e+01 5.021014e+01 1.495675e+01 2.025711e+01 2.181741e+01 3.095009e+01 1.926645e+00 1.840456e+00 5.480862e+00 4.172053e+00 1.718124e+00 3.166697e+00 2.123741e+00 2.254486e+00 4.468235e+00 1.595802e+00 3.234633e+00 1.719377e+00 1.267150e+00 4.254115e-01 3.173530e-01 8.944156e-01 7.664101e-01 2.421058e-01 4.892734e-01 7.828209e-01 5.947255e-01 9.235590e-01 2.766885e-01 5.765345e-01 3.623796e-01 2.186156e-01
<GCONST> 1.166945e+02
<STATE> 3
<MEAN> 39
 1.605281e+00 -5.784093e+00 2.542660e-01 -1.551235e+01 -3.644031e+00 -3.423518e+00 -1.389766e+01 -1.892258e+00 -1.307180e+01 5.159064e+00 5.273493e+00 -8.198896e+00 7.806301e+01 2.164600e-01 -2.040252e-01 1.268136e-01 1.320440e-01 -2.514687e-01 -4.710997e-01 -1.570233e-02 6.339172e-02 1.887468e-02 5.726059e-01 6.282461e-01 4.031313e-01 -1.363076e-01 4.189937e-02 3.866087e-01 -4.195666e-01 7.258829e-01 2.295838e-01 5.939913e-01 3.906771e-01 1.411086e-01 4.917281e-01 -4.142292e-01 -6.309040e-01 -4.460705e-02 -5.180558e-01
<VARIANCE> 39
 3.596849e+00 4.689403e+01 6.487457e+01 1.648327e+01 1.754141e+01 2.352490e+01 3.088965e+01 4.126431e+01 1.881096e+01 3.029553e+01 2.653601e+01 2.488524e+01 1.190518e+01 5.731357e-01 1.942045e+00 2.428441e+00 5.364454e+00 1.374710e+00 2.614914e+00 2.390478e+00 2.476744e+00 2.453355e+00 1.387106e+00 3.625702e+00 1.769879e+00 2.923696e+00 1.084092e-01 1.758452e-01 4.731655e-01 2.532339e-01 2.791161e-01 2.960703e-01 6.057462e-01 7.505162e-01 5.348535e-01 2.487406e-01 4.186066e-01 4.962876e-01 1.076847e-01
<GCONST> 1.069763e+02
<STATE> 4
<MEAN> 39
 1.075884e+00 -1.048818e+00 2.637521e+00 -1.489210e+01 9.077523e-01 6.977392e-01 -1.126880e+01 4.584665e-01 -9.219577e+00 4.651403e+00 6.955317e+00 -8.488258e+00 7.658018e+01 6.078133e-02 1.643087e-01 -1.226581e-01 4.700440e-01 1.785316e-01 3.274251e-01 -1.457926e-02 2.199665e-02 1.752482e-01 9.313307e-02 -4.707647e-01 -1.437926e-01 -4.165867e-01 -2.119363e-02 2.867535e-02 3.852969e-03 1.208547e-01 8.788879e-06 1.216471e-01 1.038020e-01 2.829469e-02 -8.707177e-02 -7.695829e-02 -7.504047e-02 -2.399852e-02 -1.037636e-01
<VARIANCE> 39
 2.292979e+00 1.211898e+01 1.278365e+01 1.788798e+01 2.405042e+01 1.113811e+01 2.184982e+01 4.720891e+01 1.632869e+01 3.112982e+01 1.108278e+01 1.314262e+01 4.200667e+00 1.098266e-01 7.760568e-01 1.763281e+00 1.725825e+00 7.680265e-01 1.705210e+00 1.819612e+00 2.880604e+00 1.774729e+00 2.139774e+00 1.061465e+00 1.086997e+00 9.970525e-01 2.637980e-02 1.004283e-01 1.917124e-01 1.183359e-01 1.273834e-01 2.166778e-01 2.562748e-01 3.159234e-01 3.297782e-01 2.763970e-01 1.605494e-01 1.230938e-01 6.785311e-02
<GCONST> 8.282962e+01
<TRANSP> 5
 0.000000e+00 1.000000e+00 0.000000e+00 0.000000e+00 0.000000e+00
 0.000000e+00 7.880396e-01 2.119605e-01 0.000000e+00 0.000000e+00
 0.000000e+00 0.000000e+00 7.423013e-01 2.576987e-01 0.000000e+00
 0.000000e+00 0.000000e+00 0.000000e+00 8.296517e-01 1.703483e-01
 0.000000e+00 0.000000e+00 0.000000e+00 0.000000e+00 0.000000e+00
<ENDHMM>
~h "ah"
<BEGINHMM>
<NUMSTATES> 5
<STATE> 2
<MEAN> 39
 3.300661e+00 3.659588e+00 -8.409968e+00 -2.587068e+00 -3.702688e+00 5.188592e+00 -5.222916e+00 1.467636e+00 -6.825819e+00 -8.007012e-01 -8.383094e-01 -3.926006e+00 6.558169e+01 7.446639e-02 3.503214e-01 -1.190481e+00 3.603146e-01 -2.512061e-01 2.903564e-01 2.990797e-01 5.059404e-01 8.614055e-01 5.389825e-01 -1.191938e-01 3.135700e-01 -7.421956e-01 -2.356809e-01 -3.979053e-01 7.234589e-01 -5.502000e-01 -1.799518e-02 -2.228642e-01 -4.092751e-01 -1.847397e-01 -3.946587e-01 8.353010e-02 5.724420e-01 -1.523191e-01 5.115374e-01
<VARIANCE> 39
 7.357221e+00 1.192455e+01 5.391991e+01 2.038727e+01 1.115997e+01 4.634508e+01 1.763534e+01 1.779447e+01 3.126260e+01 2.357058e+01 2.093592e+01 2.676145e+01 1.959652e+01 5.422668e-01 5.621743e-01 3.298373e+00 1.627720e+00 1.189025e+00 1.420432e+00 2.213081e+00 2.626482e+00 2.111934e+00 1.530425e+00 2.148250e+00 1.602786e+00 8.894179e-01 1.979935e-01 2.118645e-01 4.684830e-01 2.032720e-01 2.450895e-01 4.834329e-01 1.759493e-01 9.098838e-01 5.209624e-01 3.770181e-01 3.836602e-01 4.986008e-01 1.898544e-01
<GCONST> 1.016957e+02
<STATE> 3
<MEAN> 39
 3.185972e+00 4.516932e+00 -1.224236e+01 -4.554266e+00 -4.102575e+00 5.530313e+00 -6.367878e+00 2.313835e+00 -5.451734e+00 9.757431e-01 3.661456e-01 -3.342921e+00 6.341262e+01 -1.023103e+00 -1.532237e+00 2.569258e+00 -1.640980e+00 -2.905239e-01 -3.342360e-01 -1.030813e+00 2.760037e-01 -1.295363e+00 1.815567e-01 1.838111e+00 -8.062245e-01 1.458145e+00 -3.007132e-01 -6.242523e-01 1.244733e+00 -4.481086e-01 1.928471e-01 -4.879072e-01 -5.929326e-01 -3.146231e-01 -5.636244e-01 -1.503875e-01 4.131070e-01 -1.034130e-01 9.131740e-01
<VARIANCE> 39
 4.638512e+00 9.330415e+00 2.393354e+01 2.331327e+01 1.330248e+01 2.818172e+01 2.735412e+01 1.513605e+01 1.701003e+01 2.191015e+01 2.924901e+01 1.853825e+01 1.271150e+01 9.076651e-01 2.242373e+00 4.214767e+00 1.391356e+00 1.696272e+00 1.748236e+00 2.679842e+00 3.638971e+00 4.188491e+00 2.184780e+00 3.137996e+00 3.779351e+00 9.831710e-01 2.511279e-01 2.799955e-01 3.743545e-01 3.659321e-01 2.744723e-01 3.767964e-01 4.788469e-01 6.238819e-01 3.521630e-01 4.617710e-01 6.140507e-01 3.049112e-01 1.470284e-01
<GCONST> 1.054661e+02
<STATE> 4
<MEAN> 39
 1.086643e+00 -1.630668e+00 -7.935634e-02 -9.966683e+00 -3.828707e+00 8.106276e-01 -1.326507e+01 2.363169e+00 -1.317740e+01 1.257748e+00 7.144790e+00 -6.880760e+00 7.132209e+01 -2.313785e-01 -7.221742e-01 3.094848e+00 -8.424248e-01 6.783507e-01 -1.308713e+00 -2.199932e+00 -1.485285e+00 -1.377030e+00 -8.786098e-01 1.056115e+00 -2.919307e-01 2.521337e+00 6.442628e-02 4.655526e-01 -4.301483e-01 3.304045e-01 3.053119e-01 2.517570e-01 2.783059e-01 -4.090447e-01 3.848388e-01 -2.750876e-01 -6.165238e-01 2.776274e-01 -1.859513e-01
<VARIANCE> 39
 1.262072e+01 2.932101e+01 3.494387e+01 2.831095e+01 1.792084e+01 3.900037e+01 6.045373e+01 3.691544e+01 4.767632e+01 2.874877e+01 4.000381e+01 2.590864e+01 2.766359e+01 2.289693e+00 3.962215e+00 5.530020e+00 3.980279e+00 1.880057e+00 4.287151e+00 5.289508e+00 4.437096e+00 4.570687e+00 3.169908e+00 4.529121e+00 2.649280e+00 2.908525e+00 2.703332e-01 6.599299e-01 8.978431e-01 4.855925e-01 3.109715e-01 8.513817e-01 1.235310e+00 1.016390e+00 8.141290e-01 6.419412e-01 6.108637e-01 6.266209e-01 6.931571e-01
<GCONST> 1.273689e+02
<TRANSP> 5
 0.000000e+00 1.000000e+00 0.000000e+00 0.000000e+00 0.000000e+00
 0.000000e+00 5.473396e-01 4.526604e-01 0.000000e+00 0.000000e+00
 0.000000e+00 0.000000e+00 4.171005e-01 5.828995e-01 0.000000e+00
 0.000000e+00 0.000000e+00 0.000000e+00 5.737077e-01 4.262924e-01
 0.000000e+00 0.000000e+00 0.000000e+00 0.000000e+00 0.000000e+00
<ENDHMM>
~h "ao"
<BEGINHMM>
<NUMSTATES> 5
<STATE> 2
<MEAN> 39
 -1.479186e+00 2.511949e+00 4.885162e+00 -9.928301e+00 -4.244460e+00 -1.038867e-01 -1.311942e+01 -2.081217e+00 -1.031245e+01 -6.675056e+00 -2.612262e+00 -5.105854e+00 7.426630e+01 2.172874e+00 9.049511e-02 -1.869955e-01 -1.357648e+00 -1.680597e+00 -2.091015e+00 -1.354270e+00 7.388695e-01 -8.844659e-01 -8.604838e-01 1.367704e+00 -1.340937e+00 1.856774e-01 3.237046e-02 -7.789557e-02 -1.561027e-01 -5.746701e-01 -4.038047e-01 -4.220678e-01 2.889745e-01 4.356623e-01 1.094727e-02 3.468665e-01 7.214282e-01 -4.788957e-01 2.115906e-01
<VARIANCE> 39
 6.609528e+01 2.163973e+01 2.864972e+01 1.634592e+01 1.963240e+01 8.414909e+01 4.490077e+01 3.756247e+01 1.947720e+01 9.940508e+00 2.454483e+01 2.887464e+01 1.183946e+01 7.362070e+00 1.189433e+00 1.295221e+00 1.806152e+00 3.869341e+00 4.262302e+00 3.588470e+00 8.505870e+00 4.086745e+00 1.293234e+00 2.712231e+00 3.246619e+00 5.316484e-01 3.943959e-01 1.836501e-01 1.125259e-01 4.569086e-01 5.538864e-01 7.881369e-01 4.404137e-01 6.178458e-01 3.106315e-01 4.330156e-01 3.530526e-01 4.768056e-01 9.991147e-02
<GCONST> 1.128677e+02
<STATE> 3
<MEAN> 39
 3.262970e+00 1.510113e+00 4.374504e+00 -1.657953e+01 -1.173215e+01 -6.545896e+00 -1.361770e+01 1.311108e+00 -1.270315e+01 -7.182218e+00 4.348473e+00 -7.765437e+00 7.648094e+01 1.394137e+00 -3.476768e-01 -9.470428e-01 -1.811150e+00 -1.739419e+00 -1.747688e+00 3.613920e-01 1.905463e+00 -5.560197e-01 7.857803e-02 2.090153e+00 -1.622895e+00 4.314508e-01 -7.057365e-01 -1.089909e-01 -1.620730e-02 3.283086e-01 6.808171e-01 7.792283e-01 5.942590e-01 -5.638528e-03 2.454389e-01 3.193898e-01 -4.347048e-01 1.938247e-01 -8.336204e-02
<VARIANCE> 39
 7.115438e+00 1.207773e+01 1.720093e+01 1.359323e+01 1.933040e+01 2.194817e+01 1.828341e+01 1.283526e+02 1.950561e+01 3.928239e+01 1.704981e+01 5.953194e+01 4.911618e+00 3.902325e+00 1.165206e+00 5.891876e-01 2.033458e+00 2.550852e+00 3.550173e+00 3.556888e+00 7.303084e+00 2.651918e+00 3.559526e+00 2.846037e+00 2.503309e+00 6.009893e-01 3.588277e-01 1.570474e-01 1.418943e-01 2.165224e-01 3.254312e-01 2.263474e-01 3.033419e-01 1.280111e+00 5.935847e-01 3.413067e-01 5.479528e-01 5.788494e-01 5.618662e-02
<GCONST> 1.058703e+02
<STATE> 4
<MEAN> 39
 4.770527e+00 7.072950e-01 1.416232e+00 -1.734509e+01 -1.109569e+01 -6.981106e+00 -1.178703e+01 5.545883e+00 -1.643238e+01 -3.484868e+00 6.117574e+00 -1.149589e+01 7.591727e+01 5.293892e-02 -1.245410e-01 -9.042451e-02 3.724475e-01 2.587979e-01 3.008424e-01 -2.047504e-01 -5.635272e-01 -5.191808e-01 4.404482e-01 7.005320e-03 2.030394e-02 -1.528373e-01 -2.480477e-02 2.521048e-02 8.518593e-02 2.250371e-01 1.950258e-02 9.330215e-02 -1.047629e-01 -1.966381e-01 1.272540e-01 -4.920648e-02 -1.520859e-01 1.389541e-01 -5.754132e-02
<VARIANCE> 39
 4.352780e+00 1.223615e+01 1.705469e+01 2.484014e+01 5.317394e+01 4.312780e+01 2.113152e+01 9.969362e+01 3.457565e+01 4.533172e+01 1.610123e+01 3.529590e+01 3.710066e+00 2.340841e-01 1.018940e+00 5.616466e-01 1.262563e+00 1.870142e+00 1.492847e+00 1.656145e+00 2.669494e+00 2.138084e+00 2.203917e+00 1.409329e+00 1.608189e+00 2.141866e-01 4.543093e-02 1.055749e-01 8.761812e-02 1.542491e-01 2.998067e-01 2.076467e-01 2.507194e-01 3.061801e-01 3.294447e-01 3.151457e-01 3.046670e-01 2.494785e-01 2.708722e-02
<GCONST> 9.022823e+01
<TRANSP> 5
 0.000000e+00 1.000000e+00 0.000000e+00 0.000000e+00 0.000000e+00
 0.000000e+00 2.697571e-01 7.302429e-01 0.000000e+00 0.000000e+00
 0.000000e+00 0.000000e+00 5.946895e-01 4.053105e-01 0.000000e+00
 0.000000e+00 0.000000e+00 0.000000e+00 9.185848e-01 8.141514e-02
 0.000000e+00 0.000000e+00 0.000000e+00 0.000000e+00 0.000000e+00
<ENDHMM>
~h "aw"
<BEGINHMM>
<NUMSTATES> 5
<STATE> 2
<MEAN> 39
 -2.587131e+00 -9.246770e-01 -4.673607e+00 -1.086115e+01 -5.488123e+00 6.124021e+00 -4.554412e+00 -2.317112e+00 -5.127371e+00 -2.884516e+00 1.069832e+00 -1.391752e-01 7.019931e+01 -1.071471e+00 -7.844989e-01 1.460412e+00 -1.528704e+00 -5.703143e-01 1.444914e-02 7.437034e-01 -2.247285e-01 9.022032e-01 -1.984147e-01 1.183563e-01 3.968956e-01 1.046549e+00 -1.680348e-03 -2.405517e-02 3.369018e-01 1.188985e-01 9.119249e-02 -1.044935e-01 -7.438386e-02 1.074245e-01 3.429082e-02 7.509567e-02 -5.515118e-02 -1.267871e-01 -1.225844e-02
<VARIANCE> 39
 2.258877e+01 1.798681e+01 4.798025e+01 5.851145e+01 4.571745e+01 1.749777e+01 4.949019e+01 2.847454e+01 1.561419e+01 9.969752e+00 1.842964e+01 2.838732e+01 3.447137e+01 1.307732e+00 1.230685e+00 2.916310e+00 4.167343e+00 2.269542e+00 2.071574e+00 3.161793e+00 4.706069e+00 1.902897e+00 1.167137e+00 1.456062e+00 2.781987e+00 3.290499e+00 4.184155e-01 2.588273e-01 4.756719e-01 1.035564e+00 3.534295e-01 3.876094e-01 7.987278e-01 1.150322e+00 3.968228e-01 2.000484e-01 3.213769e-01 5.495420e-01 9.797666e-01
<GCONST> 1.157255e+02
<STATE> 3
<MEAN> 39
 -1.127471e+00 4.099546e-01 7.012128e+00 -1.409647e+01 -1.074377e+01 1.920283e+00 -1.119580e+01 1.465740e+00 -5.719187e+00 -4.516847e+00 2.546742e-01 -4.303982e+00 7.197978e+01 1.401540e+00 1.233629e+00 5.486833e-01 -3.597349e-01 -1.274982e+00 -1.206550e+00 -2.000362e+00 8.784180e-01 -1.225797e+00 -3.283328e-01 4.100655e-01 -1.333940e+00 -6.710938e-02 -6.339842e-04 -8.784532e-02 -2.359365e-01 -2.098880e-01 -1.392987e-01 -3.326757e-02 3.186731e-01 1.015454e-01 -1.831666e-01 5.250157e-02 2.132659e-01 -2.407133e-02 1.912533e-01
<VARIANCE> 39
 2.702680e+01 3.369870e+01 1.928526e+01 1.929476e+01 2.702014e+01 2.951020e+01 9.666985e+01 7.563235e+00 2.816060e+01 2.714180e+01 1.751836e+01 3.128089e+01 4.035949e+00 1.618065e+00 2.518832e+00 9.748106e-01 1.526206e+00 1.218374e+00 2.076443e+00 8.077930e+00 1.211453e+00 2.534214e+00 2.212723e+00 2.050940e+00 2.292168e+00 7.107166e-01 5.454884e-01 7.703438e-01 1.865297e-01 2.300006e-01 3.001774e-01 5.321034e-01 2.068143e+00 3.586071e-01 5.856852e-01 5.386786e-01 3.136880e-01 5.401564e-01 7.526194e-02
<GCONST> 1.083043e+02
<STATE> 4
<MEAN> 39
 4.288673e+00 -6.611719e-02 4.300643e+00 -1.877067e+01 -1.144927e+01 -1.644360e+00 -1.409163e+01 8.721650e+00 -1.345338e+01 -5.396185e+00 7.349875e+00 -9.233017e+00 7.601589e+01 9.639463e-02 -2.087737e-01 -6.881832e-02 3.194306e-01 2.959401e-01 1.385886e-01 1.718377e-01 -2.733659e-01 -5.172177e-01 -2.440324e-01 8.309463e-02 3.665659e-01 5.137785e-02 -1.914510e-02 5.121684e-02 3.370860e-02 1.783305e-01 1.170770e-01 1.051080e-01 -5.359729e-02 -2.610673e-01 3.954385e-02 -5.651522e-02 -1.114856e-01 5.984146e-02 -7.957150e-02
<VARIANCE> 39
 2.746985e+00 1.404825e+01 1.750505e+01 2.463507e+01 4.462614e+01 2.010494e+01 4.260490e+01 3.019141e+01 2.251686e+01 3.014353e+01 1.223763e+01 4.090943e+01 4.039865e+00 1.734574e-01 9.440522e-01 6.269931e-01 1.204514e+00 9.840177e-01 1.182606e+00 2.359143e+00 2.817101e+00 1.582056e+00 1.548290e+00 9.731099e-01 1.744919e+00 2.414926e-01 3.069370e-02 8.933261e-02 6.851532e-02 1.073078e-01 1.932014e-01 2.084980e-01 3.960234e-01 2.141562e-01 3.258505e-01 3.374532e-01 1.688271e-01 2.789707e-01 1.665582e-02
<GCONST> 8.359869e+01
<TRANSP> 5
 0.000000e+00 1.000000e+00 0.000000e+00 0.000000e+00 0.000000e+00
 0.000000e+00 8.361546e-01 1.638453e-01 0.000000e+00 0.000000e+00
 0.000000e+00 0.000000e+00 8.379676e-01 1.620324e-01 0.000000e+00
 0.000000e+00 0.000000e+00 0.000000e+00 9.373380e-01 6.266204e-02
 0.000000e+00 0.000000e+00 0.000000e+00 0.000000e+00 0.000000e+00
<ENDHMM>
~h "ax"
<BEGINHMM>
<NUMSTATES> 5
<STATE> 2
<MEAN> 39
 4.023921e+00 3.506428e+00 -6.104560e+00 -2.115645e+00 -1.550732e+00 4.397427e+00 -9.078038e+00 -2.325230e+00 -1.147777e+01 -5.408258e-01 3.466986e-01 -3.377353e+00 6.699555e+01 1.784173e-01 4.830837e-01 -2.200767e-01 4.817490e-01 7.854940e-02 7.233950e-01 5.839353e-01 1.061585e+00 3.408956e-01 -5.498269e-01 -5.664867e-01 -3.032053e-01 -4.982830e-01 -2.842322e-01 -2.902479e-01 4.299817e-01 -3.264099e-01 4.090600e-02 -2.597088e-01 -2.506627e-01 -1.145248e-01 7.797851e-02 -1.065708e-01 1.714796e-01 2.059428e-02 3.848353e-01
<VARIANCE> 39
 5.859647e+00 1.700020e+01 7.186814e+01 4.242000e+01 2.918402e+01 4.221532e+01 4.855069e+01 4.523608e+01 6.256493e+01 2.829460e+01 3.533205e+01 1.948065e+01 2.089467e+01 6.118314e-01 7.765920e-01 4.673144e+00 2.246832e+00 2.045125e+00 3.663799e+00 4.314679e+00 3.893852e+00 3.582138e+00 2.453094e+00 2.327881e+00 1.577878e+00 1.315613e+00 2.292012e-01 2.645558e-01 6.381674e-01 3.503457e-01 3.306004e-01 7.053851e-01 6.241574e-01 8.808013e-01 5.895489e-01 4.720638e-01 5.360853e-01 2.851115e-01 2.270900e-01
<GCONST> 1.153610e+02
<STATE> 3
<MEAN> 39
 4.981881e+00 5.584714e+00 -5.989713e+00 -2.374498e+00 -2.810419e-01 7.545316e+00 -8.666216e+00 3.007301e-01 -1.030348e+01 -3.037730e+00 -2.544582e+00 -4.677559e+00 6.605635e+01 -8.551822e-01 -6.816447e-01 1.939917e+00 -8.630834e-01 6.802329e-01 -6.594808e-01 -9.266482e-01 -1.861858e-01 -3.182591e-01 -8.082498e-01 2.552226e-01 -2.215196e-02 1.237024e+00 -4.070818e-01 -5.521351e-01 5.109929e-01 -4.920177e-01 5.802827e-02 -8.052667e-01 -5.373703e-01 -7.848966e-01 -2.955718e-01 1.966086e-01 5.587049e-01 2.726646e-01 6.568968e-01
<VARIANCE> 39
 4.041358e+00 2.323631e+01 4.392923e+01 4.719205e+01 2.910770e+01 5.270575e+01 3.257005e+01 3.511976e+01 5.497145e+01 3.500720e+01 3.098943e+01 2.407924e+01 1.572758e+01 1.084890e+00 1.828906e+00 6.608766e+00 2.992560e+00 2.198561e+00 5.197159e+00 5.778493e+00 4.676086e+00 3.855067e+00 3.041092e+00 3.188662e+00 2.339369e+00 1.256493e+00 1.665489e-01 2.711797e-01 5.264174e-01 3.635122e-01 4.969440e-01 6.883707e-01 8.559042e-01 7.858886e-01 8.865832e-01 5.505170e-01 4.676708e-01 4.611646e-01 2.342695e-01
<GCONST> 1.193458e+02
<STATE> 4
<MEAN> 39
 1.197773e+00 8.337247e-01 2.567047e+00 -8.104883e+00 1.544122e-01 1.322605e+00 -1.592392e+01 -6.136386e+00 -1.451775e+01 -3.904666e+00 1.364604e+00 -3.347428e+00 7.340005e+01 -3.910976e-01 -9.936221e-01 1.327919e+00 -5.045790e-01 1.479284e-01 -1.928812e+00 -1.271388e+00 -1.759567e+00 -1.171938e+00 3.257234e-01 1.368438e+00 -8.628361e-03 1.634043e+00 2.262887e-01 2.808313e-01 -4.927408e-01 2.432709e-01 7.971057e-02 3.388236e-01 4.063286e-01 2.749246e-01 1.903539e-01 1.838986e-01 -3.119238e-02 -1.785020e-01 -3.538687e-01
<VARIANCE> 39
 1.030998e+01 1.597542e+01 5.597470e+01 5.424369e+01 3.212975e+01 6.251128e+01 9.015049e+01 6.141206e+01 4.773783e+01 4.310982e+01 4.449795e+01 3.462025e+01 2.040381e+01 1.911830e+00 2.458651e+00 4.981950e+00 3.386169e+00 2.799432e+00 5.435233e+00 8.819526e+00 7.376121e+00 5.026455e+00 2.900526e+00 2.965961e+00 1.998421e+00 2.932175e+00 2.500152e-01 3.440974e-01 8.093568e-01 6.684885e-01 4.897054e-01 1.205848e+00 1.490652e+00 1.532773e+00 8.318954e-01 6.328388e-01 7.556534e-01 3.655410e-01 3.967137e-01
<GCONST> 1.301942e+02
<TRANSP> 5
 0.000000e+00 1.000000e+00 0.000000e+00 0.000000e+00 0.000000e+00
 0.000000e+00 4.249762e-01 5.750238e-01 0.000000e+00 0.000000e+00
 0.000000e+00 0.000000e+00 4.342329e-01 5.657672e-01 0.000000e+00
 0.000000e+00 0.000000e+00 0.000000e+00 5.900930e-01 4.099070e-01
 0.000000e+00 0.000000e+00 0.000000e+00 0.000000e+00 0.000000e+00
<ENDHMM>
~h "ay"
<BEGINHMM>
<NUMSTATES> 5
<STATE> 2
<MEAN> 39
 2.727939e+00 -2.293305e+00 1.871520e+00 -1.781889e+01 -1.703842e+00 -2.503909e+00 -1.643855e+01 -1.242501e+00 -1.089849e+01 4.311924e+00 8.270822e+00 -9.852011e+00 7.793192e+01 4.192233e-02 -3.799792e-01 -6.088278e-02 5.388520e-01 3.073087e-01 -4.458423e-01 -6.386317e-02 -2.772721e-01 3.798842e-02 8.338298e-01 -3.983065e-01 -3.146599e-02 4.576094e-03 -5.151806e-02 8.403754e-02 4.828006e-02 1.217626e-01 1.090093e-01 -4.261894e-02 -1.427300e-01 -1.347207e-01 -7.795707e-02 -8.178955e-02 -9.387188e-02 1.628738e-01 -6.009649e-02
<VARIANCE> 39
 1.017996e+01 3.728771e+01 9.337433e+00 1.944069e+01 1.363267e+01 2.191411e+01 2.082755e+01 3.198150e+01 2.432007e+01 3.085583e+01 2.149403e+01 2.854799e+01 5.550090e+00 1.536137e-01 5.774578e-01 5.465431e-01 7.433325e-01 7.110396e-01 6.775979e-01 1.362979e+00 1.316075e+00 1.001405e+00 1.046537e+00 8.998640e-01 1.025942e+00 4.880683e-02 4.370227e-02 8.979275e-02 7.669515e-02 1.033135e-01 1.229550e-01 1.367803e-01 2.190868e-01 1.805380e-01 2.547089e-01 2.049676e-01 2.328635e-01 1.648394e-01 1.983351e-02
<GCONST> 7.542360e+01
<STATE> 3
<MEAN> 39
 2.349113e+00 -3.868366e+00 1.556850e+00 -1.439686e+01 1.667140e+00 -5.791006e+00 -1.995727e+01 -5.155539e+00 -1.299326e+01 7.831258e+00 4.705413e+00 -6.731977e+00 7.744279e+01 -6.079090e-02 -9.206869e-02 6.970640e-01 1.048423e+00 -4.532237e-02 -2.155184e-02 -7.378324e-01 -5.475199e-01 -8.094356e-01 -6.260912e-01 3.838840e-02 5.466570e-01 -1.919807e-01 1.783306e-02 2.200243e-01 4.391860e-02 1.278850e-02 -1.100345e-01 2.712439e-01 5.291640e-02 2.275865e-01 -7.117016e-02 -3.365083e-01 1.100407e-01 -1.254706e-01 -1.597487e-01
<VARIANCE> 39
 2.468192e+01 1.926913e+01 4.237939e+01 2.870668e+01 1.453513e+01 2.826985e+01 4.315353e+01 3.138576e+01 5.080765e+01 3.386232e+01 2.049636e+01 1.593761e+01 6.331793e+00 1.363473e-01 3.094943e-01 1.104324e+00 6.014541e-01 9.066783e-01 9.447604e-01 1.501379e+00 1.035870e+00 1.448901e+00 2.383254e+00 2.010324e+00 1.158152e+00 4.239339e-02 2.544111e-02 7.154836e-02 1.334824e-01 1.299529e-01 1.491368e-01 1.682139e-01 2.355395e-01 1.333157e-01 1.920359e-01 2.293495e-01 2.748342e-01 1.604221e-01 4.060651e-02
<GCONST> 8.193845e+01
<STATE> 4
<MEAN> 39
 -3.085528e+00 -5.277816e+00 5.641298e+00 -1.272656e+01 5.274132e-01 -2.880138e-01 -1.619025e+01 -5.017557e+00 -8.108230e+00 2.445787e+00 4.659167e+00 -4.490325e+00 7.612271e+01 4.130447e-01 3.817427e-01 1.550288e-01 4.929631e-01 9.832314e-02 4.078557e-01 -3.392707e-01 1.052848e-01 -7.248330e-01 -4.791028e-01 -6.106293e-01 -1.232978e-01 -6.545743e-01 1.131784e-01 3.615051e-01 -3.460047e-01 -9.398235e-04 -2.578884e-02 4.204611e-01 4.445564e-01 3.748243e-01 1.345770e-01 -2.392960e-01 -4.504472e-01 -5.252019e-02 -3.108159e-01
<VARIANCE> 39
 7.291218e+01 2.310225e+01 2.464872e+01 3.592612e+01 1.082107e+01 5.289651e+01 9.585966e+01 2.125277e+01 1.222438e+02 4.149250e+01 2.338707e+01 2.230095e+01 8.121546e+00 3.442579e-01 5.402361e-01 4.787621e-01 1.064514e+00 7.743453e-01 1.766984e+00 1.569809e+00 1.308027e+00 1.347913e+00 2.279567e+00 1.929530e+00 1.102397e+00 1.615812e-01 5.683757e-02 9.597420e-02 1.043404e-01 1.855520e-01 1.547073e-01 1.444982e-01 4.534915e-01 1.410681e-01 4.082907e-01 4.467908e-01 3.472184e-01 1.939372e-01 5.767038e-02
<GCONST> 9.251786e+01
<TRANSP> 5
 0.000000e+00 1.000000e+00 0.000000e+00 0.000000e+00 0.000000e+00
 0.000000e+00 8.773458e-01 1.226543e-01 0.000000e+00 0.000000e+00
 0.000000e+00 0.000000e+00 5.520191e-01 4.479809e-01 0.000000e+00
 0.000000e+00 0.000000e+00 0.000000e+00 4.522659e-01 5.477341e-01
 0.000000e+00 0.000000e+00 0.000000e+00 0.000000e+00 0.000000e+00
<ENDHMM>
~h "ch"
<BEGINHMM>
<NUMSTATES> 5
<STATE> 2
<MEAN> 39
 -8.763118e+00 -3.769780e+00 3.799289e+00 -5.799482e+00 -2.025924e+00 1.229660e+00 -5.973084e+00 3.616530e+00 -1.740237e+00 -2.063091e+00 -2.204731e-01 -3.454432e+00 7.289545e+01 -3.404028e+00 -2.322552e+00 2.601305e+00 -1.736745e-01 -2.202687e-02 -2.032280e+00 -7.704241e-01 -1.639837e-01 8.992365e-01 -7.602019e-01 8.714775e-02 -1.402471e-01 2.430362e+00 2.732460e-01 -1.108034e-01 2.690225e-01 2.225054e-01 2.182923e-01 7.284009e-02 -6.138448e-01 -2.123469e-01 -3.248861e-01 -1.968198e-01 -1.450927e-01 -1.523634e-01 7.653739e-02
<VARIANCE> 39
 7.826022e+01 5.825755e+01 6.522223e+01 7.971609e+01 3.602297e+01 3.440873e+01 4.019448e+01 2.371573e+01 4.481742e+01 1.486045e+01 1.381203e+01 1.874272e+01 3.333442e+01 5.351531e+00 2.776510e+00 3.764490e+00 3.243170e+00 2.081553e+00 4.970326e+00 2.439547e+00 1.733752e+00 3.348874e+00 1.214172e+00 2.082323e+00 1.400267e+00 2.189548e+00 2.134817e+00 8.581850e-01 1.696507e+00 4.232126e-01 3.041849e-01 1.251695e+00 4.379377e-01 3.210325e-01 1.132671e+00 1.757736e-01 3.835971e-01 2.850685e-01 1.096937e+00
<GCONST> 1.240529e+02
<STATE> 3
<MEAN> 39
 -8.084608e+00 -5.918297e+00 1.451297e+01 -7.717122e+00 -3.692793e+00 -5.336618e-01 -1.384924e+01 -1.720622e+00 -7.767667e+00 -5.269492e+00 -5.345642e+00 -8.649334e+00 7.588194e+01 -2.304020e-01 -4.967282e-01 1.033857e-01 6.255029e-01 -1.898941e-01 -3.243962e-01 2.075280e-01 7.798444e-02 5.840193e-02 1.012986e-01 1.509145e-02 -1.122939e-01 2.124123e-01 1.112808e-01 4.527396e-02 -2.426150e-01 2.529442e-03 1.085326e-01 2.662645e-02 3.832500e-02 4.564280e-02 1.334392e-01 1.549012e-01 7.003013e-02 7.449367e-02 -1.044025e-01
<VARIANCE> 39
 5.909872e+01 2.733554e+01 1.753742e+01 2.923055e+01 2.700462e+01 2.659959e+01 9.508842e+01 2.414775e+01 2.951964e+01 2.334076e+01 2.347228e+01 1.545464e+01 1.138288e+01 4.783029e+00 1.456520e+00 1.381416e+00 2.712832e+00 2.062126e+00 3.453732e+00 6.464591e+00 3.016856e+00 4.221632e+00 1.783510e+00 2.132496e+00 1.647384e+00 1.216922e+00 8.799807e-01 2.326786e-01 3.582543e-01 5.001958e-01 3.458611e-01 7.873300e-01 7.560991e-01 5.494206e-01 4.019988e-01 3.246625e-01 4.745109e-01 1.616884e-01 3.143322e-01
<GCONST> 1.149031e+02
<STATE> 4
<MEAN> 39
 -3.953010e+00 -8.210268e+00 4.430343e+00 -3.856952e-01 2.072532e+00 -6.729372e+00 -1.534487e+01 -7.262816e+00 -9.345200e+00 1.112192e+00 -1.924275e+00 -4.426006e+00 7.635027e+01 1.923386e+00 1.172182e+00 -8.883674e-01 -1.492805e-01 7.060680e-01 -7.526106e-03 -1.030287e+00 -1.391830e+00 -1.501249e+00 8.450878e-01 -3.633882e-02 -6.669074e-02 -5.777960e-01 4.223775e-02 1.712192e-01 3.716481e-02 -1.054400e-02 -1.612299e-01 1.652011e-01 2.423683e-01 8.923388e-02 -1.481739e-01 -2.535459e-02 -2.400830e-02 -7.412221e-02 -9.703185e-02
<VARIANCE> 39
 7.703759e+01 5.395444e+01 3.834968e+01 2.450107e+01 4.943225e+01 1.574763e+01 4.572716e+01 6.313962e+01 1.009055e+02 2.944412e+01 1.632565e+01 1.326070e+01 8.743112e+00 2.716746e+00 2.220954e+00 1.322486e+00 8.168272e-01 1.150069e+00 2.030277e+00 2.924271e+00 3.143802e+00 4.253021e+00 2.029617e+00 1.885023e+00 1.025218e+00 4.256482e-01 6.960340e-01 5.484563e-01 2.754609e-01 2.314378e-01 2.378908e-01 3.340247e-01 4.604866e-01 6.845713e-01 8.408116e-01 3.934143e-01 3.992113e-01 2.158026e-01 1.713619e-01
<GCONST> 1.111995e+02
<TRANSP> 5
 0.000000e+00 1.000000e+00 0.000000e+00 0.000000e+00 0.000000e+00
 0.000000e+00 7.382436e-01 2.617564e-01 0.000000e+00 0.000000e+00
 0.000000e+00 0.000000e+00 8.706282e-01 1.293718e-01 0.000000e+00
 0.000000e+00 0.000000e+00 0.000000e+00 8.963348e-01 1.036652e-01
 0.000000e+00 0.000000e+00 0.000000e+00 0.000000e+00 0.000000e+00
<ENDHMM>
~h "dh"
<BEGINHMM>
<NUMSTATES> 5
<STATE> 2
<MEAN> 39
 -9.246824e-01 3.673650e+00 -8.638619e+00 -8.320798e+00 -3.011808e+00 5.473799e+00 -3.642012e+00 1.994660e+00 -3.719630e+00 7.259847e-02 7.395167e-01 -4.791969e-01 6.406852e+01 -3.604819e-02 -8.087425e-02 1.468380e-01 -4.230895e-02 -3.534494e-02 -6.816199e-02 -4.699711e-02 4.136981e-02 -1.766989e-01 -1.775153e-01 -1.377663e-01 3.339227e-02 1.861425e-02 1.897710e-01 1.574605e-01 -1.291812e-01 2.212860e-01 7.175270e-02 9.778307e-02 -1.135788e-01 -8.618495e-02 -1.210750e-01 6.218343e-03 -1.978822e-01 -9.421981e-02 -8.248176e-02
<VARIANCE> 39
 2.026612e+01 1.746261e+01 5.755710e+01 3.519436e+01 1.966665e+01 2.127434e+01 2.577412e+01 2.799085e+01 1.983154e+01 3.318842e+01 2.975070e+01 1.464961e+01 1.504909e+01 2.071727e+00 1.718269e+00 5.437706e+00 2.439696e+00 2.019406e+00 1.978056e+00 2.773931e+00 3.044211e+00 1.445000e+00 3.101001e+00 2.356640e+00 1.054842e+00 1.461141e+00 3.411400e-01 3.113774e-01 8.699654e-01 3.188510e-01 4.001338e-01 4.534419e-01 5.834573e-01 6.869571e-01 3.844195e-01 6.511106e-01 4.434115e-01 3.053009e-01 2.221882e-01
<GCONST> 1.121840e+02
<STATE> 3
<MEAN> 39
 2.700921e+00 5.006038e+00 -1.297332e+01 -4.248777e+00 -3.292523e+00 7.061619e+00 -5.075411e+00 9.788709e-01 -5.772902e+00 1.191180e-02 -1.240410e+00 -8.294591e-01 6.267190e+01 4.498567e-01 5.827566e-01 -8.810172e-02 5.594945e-01 6.223457e-01 2.934514e-01 -5.410058e-01 -3.550603e-01 -5.682451e-01 -8.546943e-01 -7.159148e-01 -3.879557e-01 -1.773744e-01 -1.141171e-01 -5.365751e-02 5.229189e-01 -1.114582e-01 2.099244e-01 -6.147239e-02 -7.215472e-02 6.035318e-03 -1.269081e-01 -1.125846e-01 -5.038353e-02 -2.144764e-01 2.407506e-01
<VARIANCE> 39
 3.339650e+00 5.934422e+00 4.278875e+01 1.503883e+01 1.315484e+01 2.037184e+01 2.246676e+01 1.351930e+01 1.426152e+01 2.002124e+01 1.745492e+01 1.253299e+01 1.274252e+01 2.396771e-01 5.230673e-01 3.225655e+00 8.090087e-01 8.664947e-01 1.268407e+00 1.442953e+00 2.167750e+00 1.706698e+00 2.622576e+00 1.787382e+00 1.628753e+00 7.554846e-01 1.298356e-01 1.207076e-01 2.695660e-01 1.192851e-01 2.116201e-01 4.068605e-01 1.655029e-01 1.915945e-01 2.288358e-01 2.591654e-01 2.518269e-01 3.051544e-01 5.131010e-02
<GCONST> 8.657225e+01
<STATE> 4
<MEAN> 39
 1.472352e+00 3.033729e-01 -1.419248e+01 -4.613152e-01 -4.949143e+00 5.021262e+00 -2.938458e+00 1.589521e+00 -5.610667e+00 2.784514e+00 5.074078e-01 -1.233399e+00 6.277179e+01 5.789476e-02 1.037574e-01 5.652383e-02 8.095136e-02 7.307938e-02 4.726474e-02 7.890405e-03 -3.445181e-02 -6.622424e-02 -1.518034e-01 -8.182467e-02 -1.180160e-01 2.073241e-02 -2.053371e-02 1.077545e-03 1.166588e-01 -6.814546e-02 3.008035e-02 7.351141e-03 -4.286455e-02 -4.438640e-03 -4.439652e-02 -3.290610e-02 1.137828e-02 -2.636179e-02 5.454477e-02
<VARIANCE> 39
 2.626562e+00 3.294593e+01 1.992569e+01 2.524974e+01 1.179233e+01 1.270876e+01 1.543821e+01 1.467797e+01 1.310570e+01 1.147344e+01 1.608853e+01 8.643146e+00 6.033042e+00 2.071778e-01 7.253122e-01 1.136561e+00 7.459719e-01 1.009793e+00 1.007107e+00 9.876656e-01 1.483732e+00 1.249906e+00 1.204070e+00 1.067268e+00 9.299358e-01 2.408668e-01 4.323281e-02 7.656117e-02 1.719187e-01 1.199430e-01 1.865411e-01 1.666001e-01 1.991327e-01 3.590324e-01 2.213047e-01 1.854598e-01 1.802667e-01 1.519666e-01 5.028613e-02
<GCONST> 7.637075e+01
<TRANSP> 5
 0.000000e+00 1.000000e+00 0.000000e+00 0.000000e+00 0.000000e+00
 0.000000e+00 5.893776e-01 4.106223e-01 0.000000e+00 0.000000e+00
 0.000000e+00 0.000000e+00 2.470160e-01 7.529840e-01 0.000000e+00
 0.000000e+00 0.000000e+00 0.000000e+00 8.409995e-01 1.590005e-01
 0.000000e+00 0.000000e+00 0.000000e+00 0.000000e+00 0.000000e+00
<ENDHMM>
~h "ea"
<BEGINHMM>
<NUMSTATES> 5
<STATE> 2
<MEAN> 39
 1.243263e+00 2.009342e+00 -3.600729e+00 -7.780252e+00 -2.124930e+00 2.943915e+00 -9.405266e+00 5.574683e-01 -8.480373e+00 -8.431195e-01 1.753790e+00 -3.834116e+00 6.933920e+01 6.608545e-03 -7.871487e-04 5.575932e-03 9.451325e-03 1.243685e-02 3.598967e-04 4.977515e-03 7.675061e-03 8.751670e-03 -1.601357e-04 -6.787761e-03 1.796699e-03 7.823239e-03 1.084905e-04 6.917859e-04 -1.452734e-03 -1.623669e-04 -1.531235e-03 -6.168764e-04 -1.016060e-04 5.717326e-04 -8.436721e-04 1.307740e-03 2.658077e-04 -1.178421e-04 -1.493792e-03
<VARIANCE> 39
 3.560448e+01 3.133138e+01 1.175854e+02 5.757076e+01 3.574751e+01 4.825400e+01 6.299704e+01 4.654386e+01 5.944289e+01 3.514179e+01 3.786765e+01 3.343571e+01 4.679148e+01 1.818672e+00 1.507933e+00 2.670334e+00 2.176207e+00 1.716306e+00 2.419825e+00 3.138164e+00 2.909526e+00 2.711722e+00 1.967625e+00 2.125080e+00 1.650968e+00 1.255564e+00 2.970746e-01 2.534214e-01 4.172046e-01 3.324886e-01 2.983715e-01 4.159752e-01 5.145366e-01 5.176500e-01 4.586368e-01 3.470287e-01 3.812441e-01 2.994810e-01 2.048787e-01
<GCONST> 1.175816e+02
<STATE> 3
<MEAN> 39
 1.243263e+00 2.009342e+00 -3.600729e+00 -7.780252e+00 -2.124930e+00 2.943915e+00 -9.405266e+00 5.574683e-01 -8.480373e+00 -8.431195e-01 1.753790e+00 -3.834116e+00 6.933920e+01 6.608545e-03 -7.871487e-04 5.575932e-03 9.451325e-03 1.243685e-02 3.598967e-04 4.977515e-03 7.675061e-03 8.751670e-03 -1.601357e-04 -6.787761e-03 1.796699e-03 7.823239e-03 1.084905e-04 6.917859e-04 -1.452734e-03 -1.623669e-04 -1.531235e-03 -6.168764e-04 -1.016060e-04 5.717326e-04 -8.436721e-04 1.307740e-03 2.658077e-04 -1.178421e-04 -1.493792e-03
<VARIANCE> 39
 3.560448e+01 3.133138e+01 1.175854e+02 5.757076e+01 3.574751e+01 4.825400e+01 6.299704e+01 4.654386e+01 5.944289e+01 3.514179e+01 3.786765e+01 3.343571e+01 4.679148e+01 1.818672e+00 1.507933e+00 2.670334e+00 2.176207e+00 1.716306e+00 2.419825e+00 3.138164e+00 2.909526e+00 2.711722e+00 1.967625e+00 2.125080e+00 1.650968e+00 1.255564e+00 2.970746e-01 2.534214e-01 4.172046e-01 3.324886e-01 2.983715e-01 4.159752e-01 5.145366e-01 5.176500e-01 4.586368e-01 3.470287e-01 3.812441e-01 2.994810e-01 2.048787e-01
<GCONST> 1.175816e+02
<STATE> 4
<MEAN> 39
 1.243263e+00 2.009342e+00 -3.600729e+00 -7.780252e+00 -2.124930e+00 2.943915e+00 -9.405266e+00 5.574683e-01 -8.480373e+00 -8.431195e-01 1.753790e+00 -3.834116e+00 6.933920e+01 6.608545e-03 -7.871487e-04 5.575932e-03 9.451325e-03 1.243685e-02 3.598967e-04 4.977515e-03 7.675061e-03 8.751670e-03 -1.601357e-04 -6.787761e-03 1.796699e-03 7.823239e-03 1.084905e-04 6.917859e-04 -1.452734e-03 -1.623669e-04 -1.531235e-03 -6.168764e-04 -1.016060e-04 5.717326e-04 -8.436721e-04 1.307740e-03 2.658077e-04 -1.178421e-04 -1.493792e-03
<VARIANCE> 39
 3.560448e+01 3.133138e+01 1.175854e+02 5.757076e+01 3.574751e+01 4.825400e+01 6.299704e+01 4.654386e+01 5.944289e+01 3.514179e+01 3.786765e+01 3.343571e+01 4.679148e+01 1.818672e+00 1.507933e+00 2.670334e+00 2.176207e+00 1.716306e+00 2.419825e+00 3.138164e+00 2.909526e+00 2.711722e+00 1.967625e+00 2.125080e+00 1.650968e+00 1.255564e+00 2.970746e-01 2.534214e-01 4.172046e-01 3.324886e-01 2.983715e-01 4.159752e-01 5.145366e-01 5.176500e-01 4.586368e-01 3.470287e-01 3.812441e-01 2.994810e-01 2.048787e-01
<GCONST> 1.175816e+02
<TRANSP> 5
 0.000000e+00 1.000000e+00 0.000000e+00 0.000000e+00 0.000000e+00
 0.000000e+00 6.000000e-01 4.000000e-01 0.000000e+00 0.000000e+00
 0.000000e+00 0.000000e+00 6.000000e-01 4.000000e-01 0.000000e+00
 0.000000e+00 0.000000e+00 0.000000e+00 7.000000e-01 3.000000e-01
 0.000000e+00 0.000000e+00 0.000000e+00 0.000000e+00 0.000000e+00
<ENDHMM>
~h "eh"
<BEGINHMM>
<NUMSTATES> 5
<STATE> 2
<MEAN> 39
 1.474935e+00 -3.364098e+00 7.053121e+00 -1.165650e+01 -5.419717e-03 -3.563903e+00 -1.896672e+01 2.056823e+00 -1.572193e+01 3.431161e+00 5.852642e+00 -7.806719e+00 7.559944e+01 -2.278360e-01 -4.625703e-01 1.448994e-01 -2.337862e-01 1.184195e+00 -1.717667e+00 -1.732147e+00 -3.493040e-01 6.923873e-02 1.151258e+00 1.359357e+00 3.595217e-01 7.706590e-01 9.513518e-02 3.250323e-01 -2.889117e-02 4.050959e-01 -1.082195e-02 3.141803e-01 -1.963951e-02 -3.874716e-01 2.959440e-01 -4.493281e-01 -2.908656e-01 9.474091e-02 -1.740640e-01
<VARIANCE> 39
 9.686621e+00 2.364772e+01 4.349169e+01 3.689598e+01 4.842798e+01 2.127765e+01 7.828152e+01 2.939996e+01 2.787086e+01 5.467583e+01 4.087876e+01 2.206028e+01 8.408191e+00 3.446193e-01 8.321832e-01 1.215654e+00 3.643021e+00 1.541388e+00 2.172245e+00 1.809967e+00 3.660447e+00 1.054217e+00 2.090477e+00 3.590600e+00 1.361183e+00 7.490438e-01 4.559908e-02 9.705697e-02 1.364928e-01 3.475910e-01 1.743341e-01 4.442419e-01 7.348195e-01 4.244552e-01 2.482862e-01 6.695976e-01 1.645697e-01 1.629439e-01 2.180723e-01
<GCONST> 1.017321e+02
<STATE> 3
<MEAN> 39
 1.570645e+00 -4.369201e+00 6.895790e+00 -1.165132e+01 1.552030e+00 -5.676852e+00 -2.107028e+01 1.716279e+00 -1.460219e+01 3.158173e+00 1.022110e+01 -8.313337e+00 7.741447e+01 2.753647e-02 2.043602e-02 1.332627e-01 4.611415e-01 2.071811e-01 -1.529863e-02 -4.699058e-01 -6.777948e-01 3.150411e-01 3.233629e-01 3.270951e-01 4.041801e-01 -1.329039e-02 5.650953e-02 4.432018e-01 -3.152561e-02 3.131233e-01 -2.916725e-01 6.917790e-01 6.547547e-01 7.592274e-02 1.575554e-01 -4.233115e-01 -6.617751e-01 -1.330120e-02 -4.098938e-01
<VARIANCE> 39
 4.196157e+00 1.815689e+01 3.606575e+01 2.130851e+01 3.249725e+01 1.809153e+01 6.531451e+01 3.487097e+01 2.406239e+01 1.893437e+01 2.812534e+01 1.934008e+01 2.872592e+00 3.553440e-01 1.040003e+00 1.161810e+00 3.595174e+00 1.446651e+00 2.050069e+00 2.065981e+00 1.342035e+00 1.126812e+00 2.208152e+00 2.899452e+00 1.072104e+00 1.077425e+00 5.329373e-02 8.869912e-02 2.524132e-01 1.695151e-01 1.801226e-01 2.521905e-01 4.024008e-01 3.401017e-01 3.086871e-01 2.527048e-01 3.589534e-01 1.948400e-01 8.533009e-02
<GCONST> 9.364058e+01
<STATE> 4
<MEAN> 39
 6.523758e-01 -1.460369e+00 1.150848e+01 -7.960456e+00 2.625676e+00 -6.699841e+00 -2.537172e+01 -3.333283e-01 -1.359457e+01 1.931178e-01 2.161385e+00 -7.404462e+00 7.624076e+01 -1.130336e-01 7.996504e-01 -9.374053e-02 2.997491e-01 3.127095e-02 1.147633e+00 1.114003e+00 2.775247e-01 5.339708e-01 -7.797062e-01 -7.142365e-01 5.982579e-02 -6.109841e-01 -2.142328e-01 -2.459878e-03 -1.971754e-01 6.820884e-02 5.839784e-03 3.050698e-01 5.471024e-01 2.180692e-01 3.474262e-01 -5.442670e-02 -1.829729e-01 2.278544e-02 -1.120207e-01
<VARIANCE> 39
 4.011734e+00 1.983860e+01 1.404591e+01 1.344741e+01 1.876964e+01 3.256983e+01 2.469468e+01 3.417231e+01 1.278889e+01 2.993228e+01 4.403135e+01 1.741866e+01 4.590517e+00 3.270490e-01 7.151820e-01 1.531159e+00 1.697057e+00 9.512171e-01 2.459221e+00 2.202655e+00 1.304400e+00 1.641310e+00 1.055034e+00 1.955345e+00 1.001946e+00 5.958880e-01 2.346140e-01 1.234830e-01 1.945560e-01 2.132831e-01 2.142898e-01 1.989416e-01 4.748704e-01 2.382178e-01 2.968296e-01 1.899320e-01 2.656603e-01 2.374750e-01 9.297236e-02
<GCONST> 9.060149e+01
<TRANSP> 5
 0.000000e+00 1.000000e+00 0.000000e+00 0.000000e+00 0.000000e+00
 0.000000e+00 2.186508e-01 7.813492e-01 0.000000e+00 0.000000e+00
 0.000000e+00 0.000000e+00 6.052840e-01 3.947160e-01 0.000000e+00
 0.000000e+00 0.000000e+00 0.000000e+00 7.757310e-01 2.242691e-01
 0.000000e+00 0.000000e+00 0.000000e+00 0.000000e+00 0.000000e+00
<ENDHMM>
