~o
<STREAMINFO> 1 39
<VECSIZE> 39<NULLD><MFCC_D_A_0><DIAGC>
~s "silst"
<MEAN> 39
 7.472430e-01 1.534354e+00 -1.196561e+01 2.633939e+00 -1.593135e+00 8.043828e+00 -1.916404e+00 3.634079e+00 -2.273891e+00 2.676717e+00 -5.973080e-01 8.123560e-01 6.150164e+01 1.876405e-03 4.168008e-02 -5.198877e-01 -6.977334e-02 -1.145636e-01 -2.038274e-01 1.333750e-01 5.363832e-02 1.186287e-01 1.888521e-01 -4.745588e-02 2.147893e-01 -1.769979e-01 -5.169292e-02 -2.633529e-02 6.656601e-02 -1.311633e-01 -1.506131e-02 -4.868576e-02 -1.160518e-01 -3.244793e-02 -3.794803e-02 -4.456972e-02 1.700787e-02 -3.209731e-02 3.534628e-02
<VARIANCE> 39
 3.285306e+00 1.887485e+01 1.341504e+01 1.376763e+01 1.601551e+01 1.957286e+01 1.652139e+01 2.305897e+01 2.045642e+01 1.712055e+01 1.371106e+01 1.356989e+01 1.664119e+00 1.941273e-01 5.649951e-01 1.006944e+00 8.713702e-01 9.450534e-01 1.030829e+00 1.198336e+00 1.123942e+00 1.104530e+00 1.121581e+00 1.072228e+00 1.069867e+00 1.235672e-01 3.352656e-02 8.026239e-02 1.763078e-01 1.412144e-01 1.715905e-01 1.990620e-01 2.215512e-01 2.151832e-01 2.250884e-01 2.333297e-01 2.145434e-01 2.147012e-01 2.277003e-02
<GCONST> 7.466103e+01
~h "b"
<BEGINHMM>
<NUMSTATES> 5
<STATE> 2
<MEAN> 39
 4.585158e+00 7.566251e+00 -4.959691e+00 5.684761e+00 7.438663e-01 7.788339e+00 -3.842326e+00 1.561998e+00 -7.423680e+00 -7.655913e-01 -4.196343e+00 -4.990324e+00 6.341464e+01 -2.337217e-01 9.088007e-02 -5.192093e-01 8.582264e-02 1.515933e-01 3.317316e-01 5.161907e-01 2.773942e-01 9.413369e-01 -7.529709e-02 -2.450874e-01 2.518158e-01 -2.926324e-01 -2.417562e-01 -4.932120e-01 7.231241e-01 -6.678460e-01 -1.645115e-01 -6.933913e-01 -7.058755e-01 -8.022749e-01 -5.041230e-01 -1.236264e-01 5.900651e-01 -5.809748e-02 7.186903e-01
<VARIANCE> 39
 5.060368e+00 8.131485e+00 2.423797e+01 1.856380e+01 1.075090e+01 1.230732e+01 1.727716e+01 1.476255e+01 1.671564e+01 8.354672e+00 1.454462e+01 9.150390e+00 3.573551e+00 9.128831e-01 1.638441e+00 2.983147e+00 2.558643e+00 1.058157e+00 2.023070e+00 3.490035e+00 3.511487e+00 2.734978e+00 1.357406e+00 2.217949e+00 1.041009e+00 1.564427e+00 9.934384e-02 1.601442e-01 2.394848e-01 4.498505e-01 2.622111e-01 4.136349e-01 4.869486e-01 5.716466e-01 5.427648e-01 3.184640e-01 3.475662e-01 2.840873e-01 1.448280e-01
<GCONST> 9.546008e+01
<STATE> 3
<MEAN> 39
 7.961630e-01 4.120022e+00 -3.588985e-02 1.456964e+00 4.267104e-01 7.096338e+00 -5.768452e+00 -1.787057e+00 -5.729079e+00 -2.953234e+00 -2.282114e+00 -4.769767e+00 6.651952e+01 -4.721549e-01 -1.962006e+00 2.788425e+00 -2.785346e+00 -1.095682e+00 -3.528061e+00 -3.119860e+00 -3.505786e+00 -2.888418e+00 -4.806905e-01 2.917126e+00 -3.985824e-01 3.218437e+00 3.054125e-01 -1.203969e-01 2.065395e-01 -5.663696e-01 -7.849745e-02 -9.205636e-01 -6.939214e-01 -3.001878e-01 -8.213100e-01 2.525821e-01 5.734423e-01 -1.742370e-01 5.848895e-01
<VARIANCE> 39
 1.361890e+01 1.788598e+01 2.812185e+01 1.958729e+01 1.576151e+01 2.559148e+01 3.347029e+01 3.465936e+01 2.101830e+01 1.184457e+01 1.690760e+01 1.275606e+01 1.151267e+01 1.296080e+00 1.781999e+00 1.977584e+00 7.398274e+00 3.121173e+00 2.358125e+00 4.262558e+00 3.765376e+00 4.103014e+00 1.950827e+00 2.562323e+00 3.043113e+00 8.408972e-01 3.434867e-01 3.961944e-01 5.162082e-01 4.074078e-01 4.891399e-01 3.697942e-01 6.761117e-01 9.250956e-01 7.213906e-01 4.374159e-01 4.804159e-01 2.931304e-01 2.148145e-01
<GCONST> 1.117427e+02
<STATE> 4
<MEAN> 39
 3.020542e+00 1.260905e+00 2.733194e+00 -7.318176e+00 -2.025776e+00 -3.633306e+00 -1.468120e+01 -9.982294e+00 -1.656631e+01 -2.135229e+00 5.907747e+00 -5.347491e+00 7.463939e+01 2.104726e-01 -1.688812e+00 1.712360e+00 -2.953099e+00 -6.644237e-01 -3.155494e+00 -2.573872e+00 -2.154929e+00 -2.358464e+00 5.448757e-01 2.715137e+00 -2.744724e-01 3.013764e+00 8.598812e-02 3.850297e-01 -4.659227e-01 6.977113e-01 2.977087e-01 7.280058e-01 7.993508e-01 1.085270e+00 9.217546e-01 1.974122e-01 -7.446569e-01 -2.468021e-02 -6.483500e-01
<VARIANCE> 39
 1.183772e+01 1.427833e+01 1.337439e+01 5.314939e+01 2.779065e+01 2.494546e+01 3.325726e+01 3.613142e+01 5.415551e+01 2.185012e+01 2.524437e+01 3.939143e+01 9.286742e+00 1.403405e+00 2.071405e+00 2.924649e+00 5.654271e+00 4.082005e+00 4.474742e+00 5.911212e+00 5.788458e+00 5.697739e+00 3.134782e+00 2.761929e+00 3.400785e+00 1.148956e+00 2.716791e-01 2.135920e-01 2.879301e-01 8.904924e-01 2.181618e-01 3.510513e-01 6.542470e-01 6.344523e-01 7.910083e-01 3.915501e-01 3.313769e-01 3.530407e-01 1.677021e-01
<GCONST> 1.160254e+02
<TRANSP> 5
 0.000000e+00 1.000000e+00 0.000000e+00 0.000000e+00 0.000000e+00
 0.000000e+00 7.946929e-01 2.053071e-01 0.000000e+00 0.000000e+00
 0.000000e+00 0.000000e+00 3.541904e-01 6.458095e-01 0.000000e+00
 0.000000e+00 0.000000e+00 0.000000e+00 3.516065e-01 6.483935e-01
 0.000000e+00 0.000000e+00 0.000000e+00 0.000000e+00 0.000000e+00
<ENDHMM>
~h "d"
<BEGINHMM>
<NUMSTATES> 5
<STATE> 2
<MEAN> 39
 2.315881e+00 2.846084e+00 2.018037e+00 5.726732e-01 8.246994e-01 2.428302e+00 -1.164344e+01 -1.362820e+00 -1.138954e+01 -2.730759e+00 -2.589544e-01 -5.469641e+00 6.846458e+01 2.516912e-01 8.012247e-01 -1.610146e+00 1.462585e+00 -1.644378e-01 1.781863e+00 2.265730e+00 1.736618e+00 1.617716e+00 -2.131068e-01 -1.382525e+00 4.127353e-01 -1.562783e+00 -3.761389e-01 -5.000358e-01 2.209828e-01 -2.689803e-01 -9.975179e-02 -5.283747e-01 -1.905148e-02 -4.784413e-01 2.030232e-01 3.464216e-02 3.306874e-01 3.474328e-02 4.719426e-01
<VARIANCE> 39
 1.160264e+01 1.585088e+01 5.145813e+01 3.847699e+01 3.142321e+01 3.806364e+01 4.214884e+01 4.651672e+01 4.587123e+01 2.288780e+01 2.684187e+01 2.058430e+01 1.387812e+01 1.070423e+00 1.713500e+00 3.659032e+00 1.700387e+00 2.737060e+00 3.248065e+00 3.627619e+00 5.424342e+00 3.803144e+00 2.285252e+00 1.826190e+00 2.473913e+00 1.418786e+00 3.353947e-01 3.745763e-01 6.286753e-01 5.069499e-01 3.674971e-01 6.663628e-01 6.975240e-01 8.647275e-01 5.883343e-01 4.435976e-01 3.428205e-01 3.308224e-01 3.195790e-01
<GCONST> 1.168796e+02
<STATE> 3
<MEAN> 39
 2.878801e+00 4.087643e+00 -1.303784e+00 3.234876e+00 1.964112e-01 5.689930e+00 -7.449440e+00 1.479457e+00 -8.337649e+00 -2.721213e+00 -2.126746e+00 -5.055906e+00 6.580345e+01 -1.536051e+00 -1.456796e+00 5.596974e-01 1.135065e-01 5.189848e-02 -4.478904e-01 1.417810e+00 -9.702855e-01 1.610470e+00 -3.193176e-01 2.869139e-01 4.760243e-01 8.465315e-01 -5.931815e-01 -7.143599e-01 1.057957e+00 -8.123542e-01 1.377545e-01 -1.082117e+00 -9.951099e-01 -1.254977e+00 -5.719782e-01 -3.508274e-02 6.713297e-01 -1.299880e-01 1.090808e+00
<VARIANCE> 39
 8.343770e+00 1.486969e+01 3.745971e+01 2.814427e+01 2.162441e+01 2.298198e+01 3.030142e+01 2.137141e+01 2.627380e+01 1.606224e+01 2.354880e+01 1.847918e+01 8.045046e+00 2.610212e+00 3.319241e+00 5.884394e+00 4.258906e+00 3.183323e+00 5.373261e+00 4.889401e+00 6.509576e+00 3.487180e+00 2.141844e+00 2.726724e+00 1.336812e+00 2.810549e+00 3.434309e-01 4.793285e-01 7.265496e-01 5.014194e-01 3.971801e-01 8.184823e-01 1.110195e+00 9.179437e-01 8.187599e-01 4.259510e-01 4.824317e-01 4.259438e-01 2.791443e-01
<GCONST> 1.185335e+02
<STATE> 4
<MEAN> 39
 -5.118057e+00 -3.859019e+00 6.012986e+00 -1.604486e+00 5.023988e-01 8.415602e-01 -8.135181e+00 -5.600895e+00 -5.838573e+00 -4.154645e+00 1.018154e+00 -3.917426e+00 7.268797e+01 -5.446538e-01 -7.322878e-01 8.572169e-01 -9.511804e-01 2.745245e-01 -1.435392e+00 -1.423673e+00 -1.773995e+00 -9.322875e-01 1.294162e-01 8.304818e-01 1.020218e-02 1.264728e+00 6.468416e-01 5.290477e-01 -3.346908e-01 -2.468674e-01 -2.796627e-02 1.176681e-01 -5.265395e-01 2.173341e-01 -6.720212e-01 3.171131e-01 -1.156823e-02 -1.456857e-01 -2.653852e-01
<VARIANCE> 39
 3.257563e+01 2.415640e+01 6.352628e+01 6.602716e+01 2.968593e+01 6.683830e+01 5.998777e+01 6.914556e+01 4.536737e+01 2.425679e+01 3.225114e+01 1.899915e+01 2.641816e+01 5.558146e+00 3.691278e+00 7.449985e+00 4.479440e+00 2.297720e+00 5.679914e+00 7.757071e+00 7.691928e+00 5.642070e+00 2.325886e+00 3.799688e+00 2.040240e+00 3.901242e+00 8.190285e-01 6.663432e-01 1.130247e+00 8.068881e-01 5.963234e-01 8.471027e-01 1.605962e+00 1.312988e+00 1.163755e+00 4.622479e-01 7.766821e-01 3.777124e-01 5.148785e-01
<GCONST> 1.353311e+02
<TRANSP> 5
 0.000000e+00 1.000000e+00 0.000000e+00 0.000000e+00 0.000000e+00
 0.000000e+00 3.467092e-01 6.532908e-01 0.000000e+00 0.000000e+00
 0.000000e+00 0.000000e+00 4.628485e-01 5.371515e-01 0.000000e+00
 0.000000e+00 0.000000e+00 0.000000e+00 5.987554e-01 4.012447e-01
 0.000000e+00 0.000000e+00 0.000000e+00 0.000000e+00 0.000000e+00
<ENDHMM>
~h "f"
<BEGINHMM>
<NUMSTATES> 5
<STATE> 2
<MEAN> 39
 -8.294076e+00 2.134501e+00 2.857980e-01 -1.599834e-01 -5.670938e-01 7.950930e-01 -1.085682e+00 -5.440176e+00 -1.996146e+00 -3.952647e+00 2.192211e+00 -4.748987e+00 7.239922e+01 -3.154673e+00 3.970098e-01 -1.060586e+00 7.467832e-01 5.428192e-01 3.347712e-01 2.254921e+00 -2.400641e-01 2.312250e+00 -7.840916e-01 -1.555875e-02 1.009329e-01 4.813883e-01 4.370490e-02 -2.660534e-01 1.768244e-01 -4.101613e-01 -1.358191e-01 -8.612757e-02 -6.369361e-01 2.426907e-01 -3.930162e-01 1.662653e-01 1.027041e-01 1.329666e-01 1.717136e-01
<VARIANCE> 39
 5.355734e+01 3.890364e+01 3.505716e+01 1.696003e+01 3.313318e+01 2.055161e+01 4.450294e+01 4.992064e+01 2.976699e+01 2.344694e+01 1.754273e+01 1.543330e+01 1.663701e+01 3.696650e+00 3.022932e+00 2.857416e+00 2.077408e+00 3.057789e+00 3.186095e+00 4.815969e+00 2.611836e+00 4.399982e+00 2.334234e+00 1.735184e+00 1.091307e+00 1.358647e+00 7.090088e-01 6.134424e-01 4.533505e-01 2.246772e-01 5.238910e-01 5.895164e-01 9.660817e-01 3.196918e-01 7.626489e-01 4.244873e-01 3.341700e-01 1.606528e-01 2.660254e-01
<GCONST> 1.163315e+02
<STATE> 3
<MEAN> 39
 -1.693276e+01 -1.176109e-01 -1.643544e+00 -7.629233e-01 4.227022e-01 1.361177e+00 -7.148932e-01 -4.085553e+00 1.298658e-01 -3.435672e+00 3.085396e+00 -2.415291e+00 7.469633e+01 -1.060645e-01 -4.268255e-01 -2.278787e-01 -2.249838e-01 -3.974213e-02 -7.438638e-03 -2.827716e-01 2.898813e-01 2.434829e-02 2.130380e-01 8.244957e-02 3.263287e-01 -1.244870e-01 6.778641e-01 3.126249e-02 1.821434e-01 -1.022147e-01 -8.283819e-02 -1.401266e-01 -3.247855e-01 -1.434107e-01 -3.771280e-01 4.073334e-02 -6.181983e-02 -1.003838e-01 -1.284635e-01
<VARIANCE> 39
 5.638351e+00 1.602398e+01 9.807703e+00 1.436167e+01 1.420605e+01 1.707681e+01 1.955630e+01 2.955083e+01 1.573270e+01 1.636883e+01 1.293926e+01 1.408815e+01 4.365193e+00 1.756306e+00 1.743039e+00 9.318862e-01 7.841416e-01 9.343573e-01 9.130311e-01 1.209482e+00 1.332121e+00 1.033892e+00 1.158031e+00 1.029003e+00 7.461127e-01 5.677478e-01 3.192886e-01 3.675534e-01 2.046408e-01 1.889997e-01 1.938617e-01 2.421482e-01 3.741603e-01 3.413556e-01 4.115016e-01 2.748928e-01 2.167087e-01 1.709020e-01 8.086494e-02
<GCONST> 8.718079e+01
<STATE> 4
<MEAN> 39
 -8.821215e+00 2.780024e-01 -1.384310e+00 -3.212102e+00 -2.067889e+00 -1.069001e+00 -4.657150e+00 -6.172104e+00 -4.312577e+00 -3.235559e+00 2.107584e+00 -3.019338e+00 7.275556e+01 4.394269e+00 1.112579e+00 8.370162e-01 -1.312615e+00 -8.594245e-01 -1.794289e+00 -3.238587e+00 -1.261152e+00 -3.329908e+00 -4.040128e-02 8.138377e-02 -1.283397e+00 -2.064853e-01 2.592868e-01 1.088442e-01 1.830635e-01 -2.589980e-01 -7.315020e-02 -1.551565e-01 -4.574683e-01 1.270275e-01 -4.010127e-01 3.943902e-02 4.012179e-01 -2.379099e-01 2.558193e-01
<VARIANCE> 39
 5.346053e+01 2.263369e+01 1.103131e+01 2.682259e+01 2.060725e+01 2.238743e+01 3.559015e+01 3.133559e+01 4.847598e+01 1.631564e+01 2.004560e+01 2.106236e+01 8.394250e+00 1.787000e+00 2.436468e+00 1.695344e+00 3.133723e+00 2.331994e+00 1.988359e+00 4.453678e+00 4.976562e+00 2.986485e+00 3.194303e+00 2.529285e+00 1.519841e+00 9.179928e-01 1.019894e+00 5.068542e-01 2.164794e-01 3.144229e-01 3.160454e-01 5.314416e-01 8.547145e-01 6.567993e-01 8.447658e-01 3.587710e-01 3.527839e-01 3.704116e-01 9.669924e-02
<GCONST> 1.124794e+02
<TRANSP> 5
 0.000000e+00 1.000000e+00 0.000000e+00 0.000000e+00 0.000000e+00
 0.000000e+00 6.260905e-01 3.739096e-01 0.000000e+00 0.000000e+00
 0.000000e+00 0.000000e+00 8.487198e-01 1.512802e-01 0.000000e+00
 0.000000e+00 0.000000e+00 0.000000e+00 6.039447e-01 3.960554e-01
 0.000000e+00 0.000000e+00 0.000000e+00 0.000000e+00 0.000000e+00
<ENDHMM>
~h "g"
<BEGINHMM>
<NUMSTATES> 5
<STATE> 2
<MEAN> 39
 -9.043886e-01 1.359630e+00 2.384423e+00 2.189481e+00 4.486863e+00 4.795707e-01 -9.070460e+00 -5.878513e+00 -1.004955e+01 8.386724e-02 -9.942721e-02 -6.814589e+00 7.115578e+01 5.523617e-01 -2.653212e-01 8.643640e-02 -1.159340e-01 -8.049861e-01 -4.418714e-01 -1.016207e+00 -2.937875e-01 -1.233544e+00 7.015769e-01 3.773013e-01 -3.726348e-01 3.168140e-01 6.116777e-02 -3.461266e-03 2.844793e-02 -4.610424e-01 -1.366326e-01 1.466462e-01 -2.337783e-01 -1.665764e-01 -1.199530e-01 -8.664423e-02 3.152483e-01 3.202869e-01 1.466022e-01
<VARIANCE> 39
 2.225158e+01 3.258056e+01 5.522174e+01 4.694204e+01 2.236528e+01 4.964219e+01 8.458329e+01 6.137965e+01 5.798272e+01 2.997246e+01 2.466007e+01 2.319445e+01 2.400257e+01 3.500849e+00 4.827446e+00 5.592772e+00 5.905433e+00 2.229148e+00 8.404911e+00 1.341854e+01 1.081901e+01 7.793752e+00 3.024744e+00 4.951257e+00 2.861593e+00 4.365153e+00 6.476336e-01 9.908863e-01 1.134977e+00 8.333432e-01 4.899223e-01 1.210338e+00 2.655012e+00 1.369406e+00 9.617005e-01 5.525865e-01 5.268798e-01 5.912069e-01 6.333761e-01
<GCONST> 1.382100e+02
<STATE> 3
<MEAN> 39
 2.658173e+00 4.376392e+00 -1.660728e+00 1.217726e+00 1.647371e+00 4.172997e+00 -9.624622e+00 -5.000589e+00 -1.026815e+01 3.657091e-01 -1.338308e+00 -6.199828e+00 6.816827e+01 -2.800244e-02 -4.374345e-01 -1.680579e+00 -3.466947e-01 -3.862864e-01 4.841703e-01 1.284586e+00 1.072137e+00 6.222605e-01 6.005223e-02 -2.571850e-01 8.223256e-01 -4.635635e-01 -5.895339e-01 -5.016646e-01 -4.389133e-02 -2.413367e-01 2.946675e-01 -9.418369e-01 2.658222e-04 -6.355563e-01 -1.365390e-01 -3.682583e-01 5.072424e-01 2.518447e-02 7.153769e-01
<VARIANCE> 39
 1.328843e+01 1.481338e+01 5.854105e+01 4.388183e+01 1.968268e+01 3.553490e+01 5.472164e+01 4.862825e+01 4.166690e+01 1.400804e+01 3.145433e+01 1.352186e+01 2.775961e+01 1.363311e+00 6.564008e-01 4.684980e+00 3.882916e+00 2.495037e+00 2.780159e+00 2.771549e+00 4.478988e+00 3.461065e+00 2.929368e+00 3.784176e+00 1.996479e+00 1.462363e+00 3.340609e-01 1.728456e-01 5.831341e-01 8.042696e-01 4.375588e-01 9.475897e-01 1.229566e+00 1.393352e+00 7.234401e-01 3.851083e-01 6.080579e-01 6.597572e-01 5.320901e-01
<GCONST> 1.201842e+02
<STATE> 4
<MEAN> 39
 -1.010904e+00 9.206650e-01 -5.751207e+00 -4.397788e-01 1.123825e+00 1.055048e+00 -5.460479e+00 -5.051800e+00 -7.901385e+00 -1.372029e+00 -3.662541e-01 -4.370048e+00 6.966805e+01 -1.131833e+00 -9.281180e-01 4.443627e-01 -7.016070e-01 2.305234e-01 -2.310241e+00 -2.781643e-01 -1.038916e+00 -9.051461e-01 -1.237938e+00 9.496313e-01 1.795178e-02 1.823382e+00 2.210323e-01 2.880644e-01 1.151125e+00 -2.333773e-02 1.112546e-01 -2.517310e-01 -9.223976e-01 -4.213852e-01 -6.859012e-01 -1.720865e-01 -5.221117e-03 -2.724953e-01 2.653343e-01
<VARIANCE> 39
 1.748461e+01 1.959126e+01 6.302023e+01 6.744344e+01 4.804343e+01 6.713772e+01 5.182828e+01 4.170402e+01 5.674865e+01 2.911528e+01 4.975149e+01 2.423446e+01 2.747073e+01 3.313125e+00 1.985465e+00 9.917337e+00 5.213843e+00 4.034171e+00 5.117655e+00 5.529384e+00 5.376173e+00 4.058261e+00 3.752048e+00 3.719000e+00 4.338552e+00 1.907189e+00 6.947587e-01 2.853929e-01 8.644011e-01 6.306010e-01 6.461600e-01 1.251864e+00 1.122413e+00 1.382590e+00 6.366602e-01 6.382684e-01 7.004585e-01 8.329602e-01 5.500631e-01
<GCONST> 1.338076e+02
<TRANSP> 5
 0.000000e+00 1.000000e+00 0.000000e+00 0.000000e+00 0.000000e+00
 0.000000e+00 5.587676e-01 4.412325e-01 0.000000e+00 0.000000e+00
 0.000000e+00 0.000000e+00 3.542213e-01 6.457787e-01 0.000000e+00
 0.000000e+00 0.000000e+00 0.000000e+00 5.748922e-01 4.251078e-01
 0.000000e+00 0.000000e+00 0.000000e+00 0.000000e+00 0.000000e+00
<ENDHMM>
~h "k"
<BEGINHMM>
<NUMSTATES> 5
<STATE> 2
<MEAN> 39
 1.512680e+00 3.043443e+00 -4.764091e+00 3.948721e-01 -2.190697e+00 5.247077e+00 -6.383923e+00 -8.485348e-01 -8.249867e+00 -4.610065e-02 -9.434997e-01 -5.618990e+00 6.481905e+01 -1.014910e+00 -7.079332e-01 -1.784512e+00 2.530977e-01 -3.782222e-01 -2.782952e-01 1.118773e+00 4.097821e-01 1.261048e+00 -7.888621e-01 2.942656e-01 8.033056e-01 -4.966324e-02 -6.263843e-01 -6.399928e-01 7.174166e-01 -4.550032e-01 2.571227e-01 -8.998095e-01 -1.768649e-01 -1.132335e+00 -2.781415e-01 -1.080037e-01 6.628764e-01 2.848083e-02 1.099200e+00
<VARIANCE> 39
 8.283025e+00 1.227419e+01 4.231321e+01 1.963610e+01 2.057678e+01 2.089648e+01 2.358283e+01 1.944071e+01 2.857588e+01 2.836601e+01 1.781256e+01 1.952534e+01 6.051009e+00 2.112830e+00 2.714543e+00 3.930041e+00 3.188463e+00 3.427923e+00 7.280574e+00 3.505056e+00 7.443141e+00 4.368525e+00 3.401060e+00 4.217437e+00 2.390483e+00 4.634206e+00 2.804796e-01 2.446956e-01 7.450875e-01 4.628461e-01 4.769100e-01 7.152678e-01 5.196337e-01 8.077181e-01 5.219026e-01 4.705795e-01 5.087368e-01 3.581574e-01 2.763891e-01
<GCONST> 1.167789e+02
<STATE> 3
<MEAN> 39
 -6.871972e+00 -4.314221e+00 -5.177671e+00 -2.160484e+00 -7.307536e-01 -3.854636e+00 -2.593446e+00 -9.124982e+00 -6.647259e+00 -3.299532e+00 5.773337e+00 -3.589470e+00 7.430450e+01 -2.464478e+00 -2.318273e+00 1.837402e+00 -6.898901e-01 4.263345e-01 -1.788660e+00 1.075074e-02 -2.469142e+00 3.021781e-01 -2.394143e-01 1.162101e+00 8.841933e-01 2.586228e+00 4.673150e-01 3.303395e-01 7.612860e-01 -4.787765e-02 -2.919879e-02 7.643953e-01 -6.926279e-01 4.318513e-01 -1.680434e-01 4.123748e-01 -7.435172e-01 -1.918723e-01 -5.937950e-01
<VARIANCE> 39
 1.330981e+01 2.274836e+01 5.824622e+01 6.113010e+01 4.830445e+01 7.969784e+01 3.775623e+01 3.815805e+01 4.387253e+01 5.113970e+01 3.108828e+01 4.974971e+01 1.149947e+01 3.720705e+00 1.424612e+00 5.696211e+00 4.797161e+00 3.171586e+00 5.796664e+00 4.289985e+00 3.611212e+00 4.227256e+00 3.811454e+00 3.552394e+00 2.793696e+00 1.981337e+00 6.345560e-01 4.939127e-01 7.924882e-01 7.857786e-01 6.679554e-01 1.348863e+00 7.402613e-01 7.835457e-01 1.120231e+00 7.852267e-01 6.854825e-01 9.359429e-01 5.162419e-01
<GCONST> 1.314682e+02
<STATE> 4
<MEAN> 39
 -7.988320e+00 -8.448702e+00 1.477367e+00 -2.773894e+00 -1.135847e+00 -2.098759e+00 -4.477559e+00 -7.683186e+00 -5.995910e+00 -2.621427e-01 2.924793e+00 -2.568341e+00 7.345524e+01 9.037623e-01 5.761660e-01 1.112540e+00 -5.461222e-01 4.642469e-01 1.037265e+00 -8.863968e-01 7.880256e-01 -8.097267e-01 3.146901e-01 -9.535481e-01 -6.801707e-01 -4.832121e-01 6.607820e-01 8.702487e-01 -1.959020e-01 -8.721706e-02 -4.387867e-02 1.103971e-01 -3.242617e-01 3.184876e-01 -4.384381e-01 -1.267406e-01 -2.568524e-02 -4.140020e-01 -2.058969e-01
<VARIANCE> 39
 2.382697e+01 1.949070e+01 3.896585e+01 3.668387e+01 3.265631e+01 4.114211e+01 3.444702e+01 4.903090e+01 4.214182e+01 3.319963e+01 2.826713e+01 2.684004e+01 1.173917e+01 4.296911e+00 3.754678e+00 2.797410e+00 2.165710e+00 1.936808e+00 2.801273e+00 4.468171e+00 3.812947e+00 4.772493e+00 2.969115e+00 2.877485e+00 3.650987e+00 1.640842e+00 3.783933e-01 4.280945e-01 5.481781e-01 4.682937e-01 4.576734e-01 9.652553e-01 7.498041e-01 1.045475e+00 7.247876e-01 5.427115e-01 7.331603e-01 6.246323e-01 5.335696e-01
<GCONST> 1.240805e+02
<TRANSP> 5
 0.000000e+00 1.000000e+00 0.000000e+00 0.000000e+00 0.000000e+00
 0.000000e+00 7.432683e-01 2.567317e-01 0.000000e+00 0.000000e+00
 0.000000e+00 0.000000e+00 5.594299e-01 4.405701e-01 0.000000e+00
 0.000000e+00 0.000000e+00 0.000000e+00 6.901228e-01 3.098772e-01
 0.000000e+00 0.000000e+00 0.000000e+00 0.000000e+00 0.000000e+00
<ENDHMM>
~h "l"
<BEGINHMM>
<NUMSTATES> 5
<STATE> 2
<MEAN> 39
 3.721541e+00 3.101292e+00 5.944555e+00 -8.708733e+00 -1.193294e+01 -5.150873e+00 -1.184962e+01 -1.536138e+00 -1.051967e+01 -5.118163e+00 6.527802e-01 -6.213405e+00 7.269998e+01 7.733848e-01 4.019991e-01 8.908971e-01 -6.324214e-02 -1.965801e+00 -4.087604e-01 -4.879022e-01 1.247130e+00 -2.912878e-01 -4.624932e-02 1.288463e-01 -9.979882e-01 -9.074620e-02 -2.685691e-01 -2.355554e-01 -1.337714e-01 -2.608638e-02 3.228753e-01 3.102760e-01 3.583415e-02 -4.853086e-02 3.337130e-02 2.101166e-01 3.552696e-01 1.660760e-01 1.741581e-02
<VARIANCE> 39
 6.812901e+00 1.695481e+01 3.267043e+01 2.980264e+01 2.937499e+01 4.146180e+01 3.038885e+01 4.220447e+01 1.465722e+01 2.328446e+01 2.136145e+01 2.151085e+01 1.194055e+01 1.242647e+00 1.851595e+00 1.904321e+00 2.275273e+00 3.041037e+00 2.904198e+00 4.208811e+00 3.527630e+00 2.107286e+00 2.104625e+00 2.439139e+00 2.090468e+00 1.066745e+00 2.422544e-01 3.322242e-01 4.618946e-01 3.430382e-01 5.424817e-01 5.278238e-01 1.051604e+00 5.303359e-01 5.088996e-01 4.453692e-01 4.172984e-01 4.430416e-01 1.437330e-01
<GCONST> 1.110621e+02
<STATE> 3
<MEAN> 39
 4.681472e+00 3.834451e+00 8.100368e+00 -1.005322e+01 -1.617051e+01 -6.416501e+00 -1.329156e+01 2.927444e+00 -1.096838e+01 -4.781746e+00 4.485597e+00 -8.456458e+00 7.265413e+01 -5.777562e-02 -2.531990e-02 1.119881e-01 -1.848044e-02 -9.375861e-02 7.988450e-02 2.669863e-02 2.945271e-01 -1.710897e-01 -1.764574e-01 2.324881e-01 -1.149490e-01 -4.856378e-03 -1.131998e-01 -1.245324e-01 -1.737229e-01 6.696562e-02 3.340139e-01 1.081781e-01 1.878171e-01 -1.830840e-01 9.787093e-02 -8.437205e-02 -1.587361e-01 2.374347e-01 4.237870e-02
<VARIANCE> 39
 3.046306e+00 1.135325e+01 1.214036e+01 2.745740e+01 2.409698e+01 3.129872e+01 3.909405e+01 3.042244e+01 2.549209e+01 2.410921e+01 2.480787e+01 2.547888e+01 7.526717e+00 2.690492e-01 1.170331e+00 1.106999e+00 1.018448e+00 1.599332e+00 1.988557e+00 3.158872e+00 1.905748e+00 1.412946e+00 1.396990e+00 1.245624e+00 1.371978e+00 5.730227e-01 6.842824e-02 1.637785e-01 1.474750e-01 1.448027e-01 3.752911e-01 2.994291e-01 5.027742e-01 3.241253e-01 3.013171e-01 2.660927e-01 2.190626e-01 2.630411e-01 6.096227e-02
<GCONST> 9.168786e+01
<STATE> 4
<MEAN> 39
 3.286478e+00 5.653020e-01 7.059853e+00 -1.054585e+01 -1.470444e+01 -4.017710e+00 -1.011045e+01 2.831673e+00 -1.109994e+01 -6.845154e+00 2.552494e+00 -5.932896e+00 7.413110e+01 -5.132650e-01 -9.447368e-01 -6.159841e-01 4.067869e-01 1.890306e+00 8.386346e-01 5.718637e-01 -1.108011e+00 4.460551e-01 1.309298e-01 -8.234742e-02 1.057776e+00 3.264054e-01 -1.502855e-01 8.304503e-02 -8.244973e-02 1.967743e-01 6.257750e-01 2.559605e-02 -1.488645e-01 -3.883795e-01 1.377016e-01 3.974963e-01 7.420717e-02 -1.089648e-01 -8.142576e-02
<VARIANCE> 39
 3.622263e+00 1.774060e+01 1.979725e+01 3.663371e+01 2.760164e+01 3.649357e+01 4.180188e+01 5.367001e+01 2.926472e+01 2.866069e+01 2.771636e+01 3.250642e+01 1.263880e+01 7.953337e-01 1.579932e+00 1.293455e+00 1.632242e+00 2.565670e+00 3.514839e+00 3.581017e+00 4.556195e+00 2.892873e+00 2.708396e+00 2.604421e+00 1.755151e+00 7.681144e-01 2.587046e-01 2.250746e-01 1.993552e-01 2.502830e-01 3.425115e-01 4.374861e-01 8.798736e-01 6.210733e-01 5.725322e-01 4.707786e-01 3.355655e-01 4.264241e-01 1.335550e-01
<GCONST> 1.087990e+02
<TRANSP> 5
 0.000000e+00 1.000000e+00 0.000000e+00 0.000000e+00 0.000000e+00
 0.000000e+00 6.233419e-01 3.766580e-01 0.000000e+00 0.000000e+00
 0.000000e+00 0.000000e+00 8.221803e-01 1.778197e-01 0.000000e+00
 0.000000e+00 0.000000e+00 0.000000e+00 5.945475e-01 4.054525e-01
 0.000000e+00 0.000000e+00 0.000000e+00 0.000000e+00 0.000000e+00
<ENDHMM>
~h "m"
<BEGINHMM>
<NUMSTATES> 5
<STATE> 2
<MEAN> 39
 4.391866e+00 4.708864e+00 3.997756e+00 -3.231464e+00 -1.841459e+00 8.653296e+00 -1.224950e+01 2.609700e+00 -9.092059e+00 -5.027392e+00 1.120539e+00 -3.307440e+00 6.873319e+01 6.664769e-01 1.305942e+00 -1.005642e-01 1.387801e+00 -2.566724e-01 3.269993e+00 -3.657733e-01 2.061380e-01 1.130891e+00 -1.742903e+00 -1.395613e+00 3.136288e-01 -1.452129e+00 -1.741424e-01 -1.472340e-01 -2.525289e-02 -1.571409e-01 2.830577e-01 -5.769808e-01 -7.736169e-02 -2.929915e-01 -6.213359e-02 7.574258e-02 3.466462e-01 -1.507642e-01 3.102948e-01
<VARIANCE> 39
 2.593861e+00 8.746592e+00 1.475488e+01 2.957713e+01 1.843045e+01 1.939722e+01 1.509158e+01 2.488434e+01 1.596541e+01 1.856148e+01 2.620942e+01 2.940063e+01 3.637110e+00 2.605594e-01 6.350423e-01 8.591185e-01 2.205616e+00 1.040304e+00 2.262841e+00 1.857686e+00 3.362461e+00 2.424144e+00 1.909614e+00 2.178268e+00 1.197192e+00 4.778410e-01 3.449786e-02 1.135213e-01 1.609595e-01 2.186694e-01 1.921884e-01 5.051982e-01 3.143745e-01 3.573916e-01 2.837581e-01 3.484566e-01 3.771921e-01 2.435731e-01 5.914796e-02
<GCONST> 8.865913e+01
<STATE> 3
<MEAN> 39
 5.483552e+00 7.893862e+00 3.145714e+00 -7.797092e-01 -5.793597e-01 1.466562e+01 -1.336679e+01 1.391193e+00 -5.035369e+00 -7.800875e+00 -2.951118e-01 -1.794793e+00 6.653433e+01 1.002959e-01 4.689346e-01 -2.098558e-01 1.850117e-01 3.090477e-01 5.128815e-01 -5.547708e-02 -1.780522e-01 4.128153e-01 -1.680332e-01 -1.169774e-01 -1.180507e-01 -2.738891e-01 -1.496343e-01 -2.782957e-01 -7.770158e-02 -2.943138e-01 3.247654e-02 -8.461118e-01 2.924749e-01 1.057072e-01 -2.988772e-01 3.839512e-01 3.145513e-01 -1.227413e-01 2.919234e-01
<VARIANCE> 39
 1.539283e+00 7.944911e+00 1.433229e+01 1.299683e+01 1.042703e+01 1.550233e+01 2.129887e+01 1.355038e+01 1.738437e+01 1.316936e+01 1.419896e+01 1.755251e+01 3.141756e+00 1.234093e-01 4.190676e-01 5.728537e-01 1.174109e+00 7.196008e-01 1.338858e+00 1.088335e+00 9.061286e-01 1.597198e+00 1.054906e+00 1.148797e+00 9.768121e-01 1.993127e-01 4.147251e-02 9.149295e-02 1.147941e-01 2.148682e-01 1.612553e-01 4.495705e-01 2.884795e-01 3.435259e-01 2.696891e-01 2.639808e-01 2.110516e-01 1.371884e-01 7.525031e-02
<GCONST> 7.488592e+01
<STATE> 4
<MEAN> 39
 5.233068e+00 7.045789e+00 2.685472e+00 -3.877328e+00 -4.906828e-01 1.006559e+01 -1.290247e+01 2.533971e+00 -7.707454e+00 -7.484865e+00 2.213583e+00 -3.344216e+00 6.831001e+01 -4.665641e-01 -1.059732e+00 -7.401437e-02 -1.275535e+00 -1.514938e-01 -3.143485e+00 1.033197e+00 8.340929e-01 -6.291320e-01 7.657180e-01 1.672353e+00 -4.146687e-01 1.317680e+00 -3.651983e-01 -4.582865e-01 1.345884e-01 -1.695930e-01 -6.782985e-02 -6.492164e-01 3.143423e-01 -6.128033e-03 7.254967e-02 3.427043e-01 2.204774e-01 -1.638978e-01 3.276187e-01
<VARIANCE> 39
 1.972713e+00 9.033898e+00 1.681677e+01 4.317570e+01 2.303333e+01 4.821296e+01 2.648434e+01 3.526864e+01 3.384149e+01 2.063762e+01 3.676048e+01 3.377815e+01 1.138389e+01 4.953428e-01 1.915868e+00 2.006436e+00 4.154043e+00 2.671024e+00 5.823845e+00 2.804998e+00 5.642321e+00 2.067430e+00 2.851986e+00 3.232906e+00 1.711421e+00 1.457798e+00 1.481652e-01 2.077658e-01 3.639604e-01 5.155646e-01 3.142953e-01 1.251643e+00 5.528494e-01 5.296554e-01 3.450700e-01 5.121288e-01 4.000220e-01 3.094544e-01 2.191672e-01
<GCONST> 1.098834e+02
<TRANSP> 5
 0.000000e+00 1.000000e+00 0.000000e+00 0.000000e+00 0.000000e+00
 0.000000e+00 5.380381e-01 4.619618e-01 0.000000e+00 0.000000e+00
 0.000000e+00 0.000000e+00 7.217796e-01 2.782204e-01 0.000000e+00
 0.000000e+00 0.000000e+00 0.000000e+00 5.729051e-01 4.270949e-01
 0.000000e+00 0.000000e+00 0.000000e+00 0.000000e+00 0.000000e+00
<ENDHMM>
~h "n"
<BEGINHMM>
<NUMSTATES> 5
<STATE> 2
<MEAN> 39
 4.676432e-01 -7.585466e-01 7.335134e+00 -6.715328e+00 2.965219e+00 -1.300767e+00 -1.316604e+01 -3.870539e-01 -1.233228e+01 6.854354e-01 8.333071e+00 -4.754982e+00 7.452097e+01 6.457605e-01 1.366037e+00 -1.745652e-01 8.935138e-01 -3.800572e-01 2.091404e+00 4.423229e-02 9.200689e-01 3.976568e-01 -9.423865e-01 -1.269768e+00 2.828982e-01 -1.385202e+00 7.115063e-02 2.363144e-01 -3.355446e-02 1.719621e-01 -2.537774e-01 4.736944e-01 -2.535225e-02 -2.851834e-02 2.216449e-01 -3.342681e-01 -5.322745e-01 -5.621551e-02 -2.406955e-01
<VARIANCE> 39
 5.205879e+00 1.809107e+01 3.109485e+01 3.544997e+01 2.229892e+01 4.869392e+01 3.704895e+01 4.051006e+01 2.160663e+01 4.113132e+01 3.631361e+01 3.796094e+01 8.323174e+00 4.254356e-01 1.182462e+00 1.239582e+00 2.774553e+00 1.445737e+00 2.900130e+00 1.963212e+00 2.591010e+00 2.602393e+00 2.323190e+00 3.827532e+00 1.666943e+00 7.611838e-01 8.867523e-02 2.174224e-01 1.822900e-01 3.221206e-01 2.628483e-01 5.901023e-01 3.490718e-01 4.725828e-01 4.516984e-01 3.569821e-01 4.714175e-01 2.685861e-01 9.512045e-02
<GCONST> 1.039636e+02
<STATE> 3
<MEAN> 39
 3.525461e+00 4.210792e+00 5.952160e+00 -2.179327e+00 9.885637e-02 7.639504e+00 -1.292519e+01 2.242076e+00 -9.468612e+00 -3.644424e+00 1.779534e+00 -4.326293e+00 6.920311e+01 6.930411e-01 1.288421e+00 -2.486410e-01 1.084144e+00 -7.832020e-01 2.228142e+00 -3.635397e-01 3.703418e-01 1.092802e+00 -1.207562e+00 -1.459947e+00 3.191982e-03 -1.261920e+00 -2.725054e-01 -2.979962e-01 -5.539672e-03 -2.008208e-01 2.713228e-01 -7.249141e-01 1.540265e-01 -2.553824e-01 -2.335530e-02 1.972023e-01 4.173920e-01 -7.145885e-02 3.742579e-01
<VARIANCE> 39
 3.942080e+00 1.065417e+01 1.890728e+01 2.837287e+01 2.377629e+01 2.744022e+01 2.202298e+01 2.181236e+01 1.894825e+01 2.774903e+01 2.791789e+01 2.296998e+01 5.031831e+00 3.010787e-01 7.841454e-01 1.241861e+00 1.394207e+00 1.501482e+00 2.910274e+00 1.927478e+00 2.118258e+00 1.821890e+00 1.731669e+00 2.490020e+00 1.402184e+00 5.751080e-01 6.588748e-02 1.410852e-01 1.965978e-01 1.898304e-01 2.252749e-01 5.024304e-01 4.681843e-01 3.393195e-01 4.039602e-01 3.131929e-01 4.202620e-01 2.910704e-01 8.242898e-02
<GCONST> 9.388313e+01
<STATE> 4
<MEAN> 39
 3.600666e+00 4.711606e+00 4.463463e+00 -5.113219e-01 5.523666e-01 5.900619e+00 -1.338200e+01 1.761398e+00 -7.881945e+00 -4.703990e+00 2.082556e+00 -4.777818e+00 6.897843e+01 -4.493804e-01 -4.323745e-01 -1.125837e-01 1.431865e-01 5.871443e-01 -1.566352e+00 5.662597e-01 -1.781167e-01 -4.704735e-02 4.630695e-01 6.524062e-01 -2.962519e-01 4.866098e-01 -4.919105e-01 -5.820601e-01 1.567422e-01 -4.120360e-01 2.975672e-01 -8.352179e-01 3.830824e-01 -2.395172e-01 -1.436919e-01 5.514144e-01 4.563950e-01 -1.219574e-01 5.716093e-01
<VARIANCE> 39
 6.271649e+00 1.573653e+01 2.423132e+01 3.139286e+01 2.826645e+01 6.663097e+01 3.162894e+01 2.669652e+01 3.262143e+01 3.398237e+01 3.109187e+01 2.607514e+01 1.101778e+01 8.810117e-01 2.623006e+00 2.069681e+00 2.338883e+00 2.439615e+00 8.633659e+00 3.064531e+00 2.023101e+00 3.054787e+00 3.802464e+00 5.094900e+00 1.994985e+00 1.886274e+00 2.928065e-01 4.429517e-01 3.162739e-01 3.490471e-01 5.732111e-01 1.852109e+00 6.623697e-01 4.178998e-01 7.861717e-01 6.407340e-01 9.923659e-01 3.932755e-01 3.468501e-01
<GCONST> 1.178274e+02
<TRANSP> 5
 0.000000e+00 1.000000e+00 0.000000e+00 0.000000e+00 0.000000e+00
 0.000000e+00 5.072279e-01 4.927721e-01 0.000000e+00 0.000000e+00
 0.000000e+00 0.000000e+00 5.536855e-01 4.463145e-01 0.000000e+00
 0.000000e+00 0.000000e+00 0.000000e+00 5.234385e-01 4.765615e-01
 0.000000e+00 0.000000e+00 0.000000e+00 0.000000e+00 0.000000e+00
<ENDHMM>
~h "p"
<BEGINHMM>
<NUMSTATES> 5
<STATE> 2
<MEAN> 39
 1.334889e+00 3.043608e+00 -6.371305e+00 3.044814e-01 -3.299796e+00 4.739473e+00 -5.077066e+00 1.545608e+00 -5.527481e+00 -4.546792e-01 -2.018615e+00 -2.626988e+00 6.416978e+01 -6.545520e-02 1.963494e-01 -1.591459e+00 3.872046e-01 1.436495e-01 4.585848e-01 6.090066e-01 5.775825e-01 8.868608e-01 5.497407e-01 -3.496020e-01 3.039032e-01 -1.048473e+00 -1.986073e-01 -2.277801e-01 3.941091e-01 -2.810643e-01 4.441393e-03 -3.649130e-01 -3.338900e-01 -5.361890e-01 -2.073715e-01 -1.365822e-01 2.631885e-01 2.753097e-02 4.968038e-01
<VARIANCE> 39
 2.163423e+01 1.037467e+01 3.790684e+01 3.594533e+01 1.799776e+01 1.671194e+01 2.118665e+01 1.606659e+01 2.791150e+01 1.208343e+01 1.207103e+01 1.261929e+01 6.071206e+00 5.989308e-01 3.802763e-01 1.278258e+00 1.416062e+00 1.182724e+00 1.774031e+00 1.839933e+00 1.973254e+00 1.447753e+00 1.254327e+00 1.251645e+00 1.127891e+00 6.808736e-01 7.800007e-02 1.133225e-01 3.165303e-01 2.499547e-01 2.157438e-01 3.565668e-01 2.765816e-01 3.418584e-01 2.638561e-01 2.602776e-01 2.913334e-01 2.348160e-01 5.953322e-02
<GCONST> 8.982568e+01
<STATE> 3
<MEAN> 39
 -2.369827e-01 2.751058e+00 -8.047395e+00 -1.308612e+00 -2.497948e+00 6.294579e+00 -4.418248e+00 9.399727e-01 -3.022112e+00 9.065338e-01 -2.628923e+00 -9.878985e-01 6.308130e+01 -9.116356e-01 -1.024456e+00 1.586182e+00 -5.705266e-01 -1.061701e-02 -1.038797e+00 -7.106106e-01 -1.715031e+00 -4.568751e-01 -6.044671e-01 9.888763e-01 2.774642e-02 1.477146e+00 -2.697294e-02 -3.822813e-01 9.918143e-01 -1.343771e-01 -8.228158e-02 -6.732106e-01 -5.056950e-01 -5.002091e-01 -6.088672e-01 -3.251015e-01 3.126232e-01 -3.767440e-01 8.028829e-01
<VARIANCE> 39
 1.528554e+01 1.216754e+01 4.146138e+01 3.303521e+01 1.199178e+01 1.945431e+01 1.401169e+01 1.448999e+01 1.350351e+01 1.342322e+01 1.372614e+01 1.215080e+01 4.849298e+00 2.520162e+00 1.807657e+00 4.979002e+00 3.026323e+00 2.181840e+00 2.980198e+00 4.138464e+00 3.059065e+00 2.638520e+00 1.784755e+00 2.721428e+00 1.582168e+00 1.513990e+00 2.446492e-01 3.920687e-01 4.589807e-01 5.729629e-01 4.760588e-01 4.883759e-01 4.005917e-01 5.886046e-01 3.605449e-01 3.786198e-01 5.087066e-01 3.513724e-01 1.064478e-01
<GCONST> 1.063132e+02
<STATE> 4
<MEAN> 39
 -3.159238e+00 -3.275622e+00 -6.103120e-01 -3.065788e+00 -1.854406e+00 4.800532e-01 -6.178051e+00 -4.522121e+00 -6.463526e+00 -3.894836e-01 1.400363e+00 -3.054965e+00 7.079419e+01 4.144470e-01 -2.407645e-01 1.812459e+00 -5.978418e-01 -9.169538e-02 -1.657277e+00 -1.562934e+00 -8.131948e-01 -1.713879e+00 -6.142589e-01 3.671941e-01 -1.434243e+00 1.641061e+00 3.777589e-01 3.608161e-01 -5.980937e-02 -1.289798e-01 -2.076144e-01 -1.093764e-01 -2.283601e-01 3.460414e-01 -2.515843e-01 3.501626e-02 -8.135682e-02 -1.761827e-01 -1.235537e-01
<VARIANCE> 39
 2.003791e+01 4.877631e+01 2.743859e+01 2.946970e+01 2.895665e+01 2.031953e+01 3.755472e+01 3.808340e+01 5.021908e+01 2.980224e+01 3.441051e+01 3.684059e+01 1.739505e+01 2.762161e+00 7.061203e+00 3.603757e+00 4.533553e+00 4.165155e+00 3.663357e+00 5.583415e+00 3.854810e+00 5.505002e+00 4.043283e+00 3.715860e+00 3.883959e+00 1.485320e+00 3.740499e-01 9.537303e-01 5.189562e-01 3.457935e-01 4.355580e-01 4.636795e-01 8.597271e-01 6.149439e-01 8.891975e-01 6.642407e-01 6.415491e-01 7.539898e-01 1.609407e-01
<GCONST> 1.258735e+02
<TRANSP> 5
 0.000000e+00 1.000000e+00 0.000000e+00 0.000000e+00 0.000000e+00
 0.000000e+00 7.724947e-01 2.275053e-01 0.000000e+00 0.000000e+00
 0.000000e+00 0.000000e+00 5.115063e-01 4.884937e-01 0.000000e+00
 0.000000e+00 0.000000e+00 0.000000e+00 6.516981e-01 3.483019e-01
 0.000000e+00 0.000000e+00 0.000000e+00 0.000000e+00 0.000000e+00
<ENDHMM>
~h "r"
<BEGINHMM>
<NUMSTATES> 5
<STATE> 2
<MEAN> 39
 -6.152536e+00 -4.006671e+00 -1.203888e+00 -2.807677e+00 5.648878e+00 4.618046e-01 -8.204501e+00 -7.669758e+00 -1.077400e+01 -3.974543e+00 3.912752e+00 4.284309e-01 7.484935e+01 2.138308e+00 1.674322e+00 3.780517e-03 -1.185494e+00 1.518783e-01 -3.830814e-02 -1.130228e+00 -8.796375e-01 -2.334167e+00 -5.613526e-01 -1.903687e-01 3.752228e-01 -5.426556e-01 5.655966e-01 5.132343e-01 1.628169e-02 -2.976694e-01 -1.728689e-01 -2.330326e-01 -4.244294e-01 9.756148e-02 -4.657405e-01 9.713820e-02 8.789892e-02 -1.882199e-01 -1.588114e-01
<VARIANCE> 39
 6.819640e+01 4.478649e+01 3.348862e+01 4.192777e+01 1.281057e+01 4.460836e+01 4.550938e+01 4.083422e+01 7.461761e+01 3.015231e+01 2.720330e+01 2.469069e+01 1.747271e+01 3.242830e+00 2.707519e+00 3.332057e+00 1.499118e+00 1.453075e+00 2.531715e+00 5.397084e+00 3.554235e+00 4.014353e+00 1.438709e+00 1.483375e+00 1.872789e+00 8.213777e-01 6.068765e-01 3.810321e-01 5.796537e-01 3.327185e-01 2.721109e-01 5.728189e-01 8.199131e-01 7.877454e-01 7.044301e-01 4.456800e-01 5.308538e-01 3.505800e-01 3.638196e-01
<GCONST> 1.192724e+02
<STATE> 3
<MEAN> 39
 4.178648e+00 5.731214e+00 -1.560521e+00 -9.965615e+00 4.493670e+00 -3.264082e+00 -1.480296e+01 -8.916641e+00 -2.093342e+01 -6.015469e+00 3.829061e+00 -9.063482e-01 7.281500e+01 1.511502e+00 1.422370e+00 -4.171003e-01 -2.440537e+00 5.355434e-02 -3.950434e-01 -1.401096e+00 4.205832e-01 -2.249621e+00 2.286520e-01 1.513012e+00 -2.432579e-01 1.208512e-01 -6.448438e-01 -7.189695e-01 -1.057615e-01 1.711143e-01 -1.647221e-02 1.796854e-01 5.506978e-01 2.957200e-01 6.732931e-01 4.358129e-01 3.794095e-01 -2.443166e-01 2.026452e-01
<VARIANCE> 39
 5.442328e+00 2.012767e+01 1.486057e+01 4.703997e+01 2.381598e+01 2.767097e+01 2.610992e+01 5.208105e+01 3.411089e+01 3.470188e+01 3.440119e+01 1.790928e+01 4.232914e+00 2.030508e+00 2.238909e+00 1.374749e+00 2.207093e+00 1.983999e+00 2.296109e+00 3.141383e+00 3.529175e+00 3.408202e+00 2.558329e+00 3.204092e+00 1.806101e+00 5.464393e-01 2.516820e-01 3.411285e-01 3.790052e-01 5.921178e-01 2.592612e-01 2.693229e-01 6.176125e-01 6.904622e-01 6.634527e-01 3.930129e-01 3.920379e-01 1.881827e-01 7.542864e-02
<GCONST> 1.074360e+02
<STATE> 4
<MEAN> 39
 5.307281e+00 5.989820e+00 -3.755312e+00 -1.545933e+01 7.169734e+00 -2.535705e+00 -1.605725e+01 -5.338180e+00 -2.621306e+01 -3.791277e+00 1.040880e+01 -1.794615e+00 7.326553e+01 -2.293354e-01 -5.875949e-01 1.007717e-01 1.617291e-01 1.317186e-01 -2.332453e-01 4.908239e-01 -1.888463e-01 3.249433e-02 6.508988e-01 8.151419e-01 -7.292532e-01 3.173614e-01 -1.543016e-01 -2.143847e-01 1.750267e-01 4.457429e-01 -1.584892e-01 -4.313411e-02 2.371634e-01 -5.660083e-02 3.558893e-01 7.060444e-02 -2.687300e-01 -1.338678e-01 -6.752752e-03
<VARIANCE> 39
 5.120726e+00 1.778886e+01 1.487414e+01 4.059413e+01 2.648797e+01 2.828339e+01 3.015878e+01 6.151819e+01 5.859174e+01 3.686282e+01 3.211787e+01 3.497026e+01 4.687595e+00 2.013743e-01 1.151774e+00 5.915716e-01 2.395253e+00 1.238236e+00 1.893064e+00 1.730123e+00 2.274347e+00 2.512707e+00 2.620253e+00 2.368035e+00 1.982274e+00 3.617622e-01 7.014685e-02 1.567228e-01 1.148498e-01 2.584354e-01 1.974160e-01 3.234871e-01 2.779916e-01 3.915843e-01 4.603752e-01 3.680012e-01 4.337724e-01 3.036895e-01 5.249362e-02
<GCONST> 9.676101e+01
<TRANSP> 5
 0.000000e+00 1.000000e+00 0.000000e+00 0.000000e+00 0.000000e+00
 0.000000e+00 4.994807e-01 5.005193e-01 0.000000e+00 0.000000e+00
 0.000000e+00 0.000000e+00 5.765023e-01 4.234978e-01 0.000000e+00
 0.000000e+00 0.000000e+00 0.000000e+00 8.047042e-01 1.952957e-01
 0.000000e+00 0.000000e+00 0.000000e+00 0.000000e+00 0.000000e+00
<ENDHMM>
~h "s"
<BEGINHMM>
<NUMSTATES> 5
<STATE> 2
<MEAN> 39
 -1.114433e+01 -8.881128e-01 1.437750e+01 -9.469300e+00 3.099392e+00 5.137429e+00 -8.609263e+00 -8.953601e+00 -3.888428e+00 -4.854881e+00 -9.837227e-01 -4.094152e+00 7.671825e+01 -4.475108e+00 5.108755e-02 1.210155e+00 -1.234429e+00 3.904525e-01 1.005413e+00 2.246896e+00 3.380435e-02 3.109191e+00 -3.163669e-01 -2.696842e-01 2.805603e-01 1.242535e+00 -1.077326e-02 1.103890e-01 -5.809776e-01 -1.679415e-01 -2.139405e-01 -2.290574e-01 -1.796277e-01 3.821709e-01 -2.934624e-01 1.995387e-01 3.279365e-01 -1.212173e-02 -6.536093e-02
<VARIANCE> 39
 6.997404e+01 3.266278e+01 3.226192e+01 4.275324e+01 3.948847e+01 3.320294e+01 6.692707e+01 5.550161e+01 4.860356e+01 2.100191e+01 1.743124e+01 2.370838e+01 1.301729e+01 2.481349e+00 2.866895e+00 2.517486e+00 3.391978e+00 3.487686e+00 3.150685e+00 4.983485e+00 3.454688e+00 3.488248e+00 1.989695e+00 2.116444e+00 1.522620e+00 7.897766e-01 1.324107e+00 4.354316e-01 3.988135e-01 7.094659e-01 4.126351e-01 4.862291e-01 9.988496e-01 5.067872e-01 8.554296e-01 3.340082e-01 3.600427e-01 2.198937e-01 3.134266e-01
<GCONST> 1.207299e+02
<STATE> 3
<MEAN> 39
 -2.403314e+01 -7.258061e-02 1.294437e+01 -1.597508e+01 3.247172e+00 6.092069e+00 -5.684363e+00 -3.756008e+00 1.145157e+00 -4.626492e+00 7.064952e-01 -2.743416e+00 7.869753e+01 -2.662231e-01 -2.228108e-01 -5.643354e-01 -5.673115e-02 -2.233290e-01 -3.656682e-01 1.728857e-01 2.363044e-01 1.440247e-01 1.764663e-01 1.735792e-01 2.766390e-01 -1.598310e-01 8.725863e-01 -8.258741e-02 -1.710914e-01 3.585441e-01 -5.611865e-02 -1.992428e-01 -1.993794e-01 -2.156965e-01 -3.614670e-01 1.652247e-02 -6.582198e-02 -3.350802e-04 -2.663920e-01
<VARIANCE> 39
 7.931014e+00 1.337250e+01 2.026683e+01 1.221544e+01 2.497387e+01 2.091571e+01 2.437404e+01 4.234921e+01 1.958486e+01 1.398810e+01 1.352378e+01 1.639421e+01 6.541812e+00 2.273442e+00 9.363524e-01 9.205037e-01 1.610764e+00 1.085893e+00 1.589559e+00 1.698430e+00 1.787921e+00 1.265412e+00 1.199190e+00 1.346006e+00 8.989014e-01 4.226301e-01 4.079727e-01 1.673579e-01 2.115883e-01 2.201894e-01 2.408491e-01 2.923154e-01 4.494160e-01 3.833488e-01 4.734024e-01 2.392555e-01 2.758329e-01 2.061990e-01 8.984888e-02
<GCONST> 9.287838e+01
<STATE> 4
<MEAN> 39
 -1.532288e+01 -1.632852e+00 9.386977e+00 -1.133163e+01 4.465161e-01 2.763725e+00 -5.180456e+00 -7.530303e+00 -1.251457e+00 -3.463773e+00 -9.287195e-03 -1.321512e+00 7.523369e+01 3.905060e+00 3.698160e-01 -1.038566e+00 9.074116e-01 -1.059768e-01 -1.102863e+00 -1.386095e+00 -6.594669e-01 -2.035205e+00 8.516401e-02 -4.222461e-01 -1.352599e-01 -1.211289e+00 1.956652e-01 9.611693e-02 1.420509e-01 -1.318214e-01 1.816502e-02 2.801872e-02 -3.444467e-01 1.773065e-01 -2.990325e-01 5.262266e-02 9.817889e-02 -1.956202e-01 1.254402e-01
<VARIANCE> 39
 4.377193e+01 2.459868e+01 2.139485e+01 2.691183e+01 3.072042e+01 3.198398e+01 6.597267e+01 4.309290e+01 3.902191e+01 1.936159e+01 1.786581e+01 1.614346e+01 1.583234e+01 2.602706e+00 1.514094e+00 1.935365e+00 2.099617e+00 2.139784e+00 3.485720e+00 5.121531e+00 5.051736e+00 4.532359e+00 2.271583e+00 2.306460e+00 1.854293e+00 9.740324e-01 8.392922e-01 4.055426e-01 2.997054e-01 3.635617e-01 3.849381e-01 5.559193e-01 6.525906e-01 6.918127e-01 8.139613e-01 4.500370e-01 4.628452e-01 3.351476e-01 2.043624e-01
<GCONST> 1.166186e+02
<TRANSP> 5
 0.000000e+00 1.000000e+00 0.000000e+00 0.000000e+00 0.000000e+00
 0.000000e+00 6.703416e-01 3.296584e-01 0.000000e+00 0.000000e+00
 0.000000e+00 0.000000e+00 8.382981e-01 1.617019e-01 0.000000e+00
 0.000000e+00 0.000000e+00 0.000000e+00 6.802603e-01 3.197397e-01
 0.000000e+00 0.000000e+00 0.000000e+00 0.000000e+00 0.000000e+00
<ENDHMM>
~h "t"
<BEGINHMM>
<NUMSTATES> 5
<STATE> 2
<MEAN> 39
 -1.600798e-01 2.959811e+00 -1.605968e+00 -2.145279e+00 -5.899299e-01 4.249417e+00 -6.764894e+00 -2.157474e-01 -7.153762e+00 -1.939686e+00 -1.291681e+00 -4.101571e+00 6.681263e+01 -1.469377e+00 -8.364631e-01 1.577535e-01 9.356169e-02 -2.085533e-01 1.784406e-01 1.112114e+00 7.646679e-03 1.534009e+00 -1.348659e-01 -3.159814e-02 5.104258e-01 2.366887e-01 -7.862124e-01 -6.664240e-01 9.929148e-01 -5.653889e-01 1.980974e-01 -6.927037e-01 -5.597972e-01 -7.479830e-01 -2.196760e-01 -8.074316e-02 5.565311e-01 -2.813133e-02 1.030994e+00
<VARIANCE> 39
 2.631964e+01 1.336995e+01 4.919310e+01 5.111144e+01 2.612500e+01 3.579380e+01 3.139338e+01 3.204114e+01 3.384227e+01 2.664447e+01 2.091394e+01 1.985127e+01 1.437203e+01 4.451451e+00 3.638009e+00 7.935424e+00 5.880534e+00 3.172441e+00 4.493906e+00 4.886100e+00 5.157278e+00 4.117636e+00 2.836773e+00 3.120211e+00 2.484106e+00 4.326391e+00 5.236802e-01 3.259607e-01 8.379600e-01 7.898845e-01 3.768532e-01 5.518328e-01 8.434539e-01 8.003545e-01 5.764602e-01 4.118944e-01 4.482734e-01 4.887755e-01 3.273742e-01
<GCONST> 1.248884e+02
<STATE> 3
<MEAN> 39
 -1.332002e+01 -5.234667e+00 9.403561e+00 -7.438700e+00 2.502295e-02 1.169132e+00 -6.341494e+00 -4.735114e+00 -1.776758e+00 -3.454551e+00 2.235592e+00 -2.212854e+00 7.606566e+01 -1.897104e+00 -1.832596e+00 1.551491e+00 3.219965e-03 6.884052e-02 -7.053862e-01 -4.912367e-01 -1.302218e+00 4.342132e-01 1.684159e-01 5.878474e-01 2.534476e-01 1.622218e+00 9.647624e-01 4.235578e-01 -5.647856e-01 3.003896e-01 -1.741330e-02 -1.270547e-02 -3.487414e-01 -1.047246e-01 -6.344376e-01 2.225242e-01 -1.553891e-01 -1.576138e-01 -4.107566e-01
<VARIANCE> 39
 6.849890e+01 2.933159e+01 4.678631e+01 7.376330e+01 3.207014e+01 4.127108e+01 3.611424e+01 2.968353e+01 3.903013e+01 2.004113e+01 1.858582e+01 2.000061e+01 1.683032e+01 6.738431e+00 2.588637e+00 5.954920e+00 5.301313e+00 2.408566e+00 4.158745e+00 4.269286e+00 3.461556e+00 2.905100e+00 2.395533e+00 2.984205e+00 2.004531e+00 3.204938e+00 1.033630e+00 6.668792e-01 8.335572e-01 1.035100e+00 4.904137e-01 6.577597e-01 9.446409e-01 6.859127e-01 8.273202e-01 5.043522e-01 4.630685e-01 4.074171e-01 5.386814e-01
<GCONST> 1.279546e+02
<STATE> 4
<MEAN> 39
 -8.872987e+00 -6.585601e+00 7.319710e+00 -4.476554e+00 -2.104306e-01 -1.283921e+00 -8.877625e+00 -8.045576e+00 -5.999957e+00 -1.430411e+00 2.146107e+00 -2.654025e+00 7.546225e+01 1.930283e+00 6.686801e-01 -1.456171e-01 1.981843e-01 2.183087e-01 -6.820911e-01 -1.475376e+00 -1.180322e+00 -2.075212e+00 1.304171e-01 -1.013224e-01 -5.476966e-01 -5.682514e-02 5.272720e-01 6.420403e-01 -2.153653e-01 -3.016269e-01 -6.588299e-02 2.091297e-01 -2.029287e-01 2.729332e-01 -3.567868e-01 4.609683e-02 -5.503072e-04 -2.136296e-01 -2.479905e-01
<VARIANCE> 39
 6.507759e+01 3.219738e+01 4.287656e+01 4.794357e+01 3.074194e+01 5.320517e+01 5.421160e+01 3.673038e+01 7.667800e+01 3.088836e+01 2.873183e+01 3.162861e+01 1.562685e+01 8.030560e+00 2.672983e+00 3.148987e+00 3.813943e+00 2.022679e+00 4.538736e+00 6.351751e+00 4.449173e+00 5.484724e+00 3.297084e+00 2.548714e+00 2.253267e+00 2.745737e+00 7.743052e-01 6.972469e-01 5.554627e-01 6.718754e-01 5.009910e-01 7.033041e-01 9.556497e-01 7.326632e-01 1.016058e+00 7.270101e-01 5.626226e-01 4.849958e-01 4.162841e-01
<GCONST> 1.305645e+02
<TRANSP> 5
 0.000000e+00 1.000000e+00 0.000000e+00 0.000000e+00 0.000000e+00
 0.000000e+00 5.953746e-01 4.046254e-01 0.000000e+00 0.000000e+00
 0.000000e+00 0.000000e+00 5.494557e-01 4.505443e-01 0.000000e+00
 0.000000e+00 0.000000e+00 0.000000e+00 4.439662e-01 5.560337e-01
 0.000000e+00 0.000000e+00 0.000000e+00 0.000000e+00 0.000000e+00
<ENDHMM>
~h "v"
<BEGINHMM>
<NUMSTATES> 5
<STATE> 2
<MEAN> 39
 3.562956e+00 7.193654e-01 2.973306e+00 -4.677496e+00 -1.235117e+00 -4.392811e+00 -1.466941e+01 -7.971036e+00 -1.875969e+01 6.199751e-01 6.024537e+00 -4.508232e+00 7.348626e+01 -4.738064e-01 1.924198e+00 -1.316625e+00 1.133362e+00 9.730127e-01 9.826556e-01 2.712557e+00 2.219335e-01 1.580380e+00 -1.076504e+00 -1.358230e+00 4.395801e-01 -1.365187e+00 -8.649924e-01 2.676150e-01 -7.865095e-02 2.515106e-01 3.404450e-01 1.186954e-01 9.015623e-01 -4.218911e-02 1.132271e+00 -3.933938e-01 -5.151730e-01 -9.753730e-02 9.861196e-03
<VARIANCE> 39
 5.995105e+00 2.073881e+01 2.436819e+01 3.304089e+01 4.137653e+01 6.108711e+01 2.338811e+01 7.340428e+01 6.983201e+01 2.735990e+01 2.986307e+01 2.909803e+01 8.763464e+00 8.501475e-01 1.332521e+00 1.398763e+00 2.019808e+00 1.998048e+00 2.146224e+00 1.891293e+00 3.142202e+00 1.868048e+00 1.241101e+00 1.606857e+00 1.835032e+00 2.615252e-01 1.539909e-01 1.815907e-01 2.532719e-01 3.056980e-01 3.226699e-01 2.867848e-01 3.801492e-01 3.584828e-01 5.952673e-01 3.695686e-01 2.174716e-01 1.970535e-01 5.955213e-02
<GCONST> 1.019563e+02
<STATE> 3
<MEAN> 39
 2.019295e+00 5.005744e+00 9.400306e-01 -2.727476e+00 5.372698e-01 -2.184866e+00 -7.731230e+00 -6.537528e+00 -1.320797e+01 -3.287906e+00 2.678637e+00 -3.561341e+00 7.094062e+01 -2.068074e+00 1.863954e+00 -1.196349e+00 1.494283e+00 1.485141e+00 8.969933e-01 3.522197e+00 -1.148344e-01 3.554757e+00 -1.359197e+00 -1.965701e+00 1.061921e-01 -8.725932e-01 -5.632776e-01 -3.501709e-01 2.284039e-01 -5.739075e-02 -3.229556e-02 -1.610075e-01 -2.105080e-01 -9.401307e-02 1.921264e-01 1.023222e-01 6.593902e-02 -1.242071e-01 4.022981e-01
<VARIANCE> 39
 8.561480e+00 1.078931e+01 2.065069e+01 1.423843e+01 2.576170e+01 3.701020e+01 1.567613e+01 3.762680e+01 5.825366e+01 1.796111e+01 1.366916e+01 1.777453e+01 5.220269e+00 1.131023e+00 1.722178e+00 1.339645e+00 1.744935e+00 2.168058e+00 2.148899e+00 2.564265e+00 3.891415e+00 2.652671e+00 1.891254e+00 1.611186e+00 1.548256e+00 3.476950e-01 2.381041e-01 1.527390e-01 1.698381e-01 1.789477e-01 2.109482e-01 2.062996e-01 4.463248e-01 3.772795e-01 4.439361e-01 1.773379e-01 2.105406e-01 1.894615e-01 4.144937e-02
<GCONST> 9.538028e+01
<STATE> 4
<MEAN> 39
 -6.429563e+00 6.195868e+00 -1.019545e+00 -3.071117e-01 2.474625e+00 -9.809765e-01 -1.821014e+00 -6.983298e+00 -5.020290e+00 -4.262458e+00 -6.648405e-01 -3.257047e+00 7.134750e+01 -5.303081e-01 -3.225665e-01 -1.722855e-01 4.538581e-02 -7.905629e-02 1.040831e-01 -2.468302e-01 1.520817e-01 3.220150e-01 2.377394e-02 -1.880098e-01 1.266830e-01 -1.059091e-02 8.457347e-01 -3.857108e-01 2.216497e-01 -3.415018e-01 -3.920932e-01 -1.487146e-01 -9.822891e-01 1.330732e-01 -8.947133e-01 3.191746e-01 4.713341e-01 4.246055e-02 -1.147717e-03
<VARIANCE> 39
 2.755026e+01 1.790429e+01 1.690523e+01 1.775013e+01 2.604263e+01 2.371800e+01 2.826511e+01 3.114746e+01 3.875867e+01 1.769319e+01 1.170117e+01 1.745906e+01 6.034133e+00 5.232941e+00 1.991686e+00 1.418602e+00 2.096038e+00 2.075601e+00 2.227059e+00 6.016952e+00 3.334525e+00 5.286257e+00 1.966291e+00 1.965362e+00 1.016881e+00 1.034448e+00 4.125885e-01 5.067672e-01 3.640070e-01 3.453919e-01 3.590419e-01 4.163064e-01 9.454257e-01 5.179396e-01 7.938911e-01 3.994054e-01 4.561822e-01 2.579938e-01 1.766251e-01
<GCONST> 1.101918e+02
<TRANSP> 5
 0.000000e+00 1.000000e+00 0.000000e+00 0.000000e+00 0.000000e+00
 0.000000e+00 1.897618e-01 8.102382e-01 0.000000e+00 0.000000e+00
 0.000000e+00 0.000000e+00 3.437783e-01 6.562217e-01 0.000000e+00
 0.000000e+00 0.000000e+00 0.000000e+00 7.593002e-01 2.406998e-01
 0.000000e+00 0.000000e+00 0.000000e+00 0.000000e+00 0.000000e+00
<ENDHMM>
~h "w"
<BEGINHMM>
<NUMSTATES> 5
<STATE> 2
<MEAN> 39
 2.736981e+00 5.230361e+00 -2.207599e-01 -9.767123e-02 -1.645932e+00 -1.760848e+00 -8.587171e+00 -4.261518e+00 -1.356256e+01 -5.072641e+00 -2.096529e+00 -3.765805e+00 6.839950e+01 1.423026e+00 1.784955e+00 -4.372663e-02 2.097552e-01 -1.210779e+00 -6.620474e-01 -2.611167e-01 5.260876e-01 -4.433029e-01 -6.857941e-02 -8.260854e-01 -7.851868e-01 -6.771683e-01 -2.277963e-01 -2.272431e-01 1.574095e-01 -1.614365e-01 -6.829363e-02 -2.385440e-01 -1.605712e-01 2.667707e-02 2.497982e-01 2.410376e-01 4.459169e-01 -8.142835e-02 2.876896e-01
<VARIANCE> 39
 1.251170e+01 1.978757e+01 3.717325e+01 2.746905e+01 1.912088e+01 3.397878e+01 2.507800e+01 3.792675e+01 6.252955e+01 1.453685e+01 2.526495e+01 2.490162e+01 1.653092e+01 1.304900e+00 1.140868e+00 1.716691e+00 2.250110e+00 1.629605e+00 2.391425e+00 4.431089e+00 4.285602e+00 4.376004e+00 2.421057e+00 2.714430e+00 2.269856e+00 1.071128e+00 1.646437e-01 2.935759e-01 2.932817e-01 4.277797e-01 2.304554e-01 5.142397e-01 5.520708e-01 6.559347e-01 7.268019e-01 3.721648e-01 4.735007e-01 3.845154e-01 1.383056e-01
<GCONST> 1.105714e+02
<STATE> 3
<MEAN> 39
 6.809713e+00 9.259521e+00 -1.747546e-02 -1.077651e+00 -6.666748e+00 -6.096273e+00 -1.194590e+01 -3.343615e+00 -1.361473e+01 -3.967189e+00 7.824419e-01 -6.586483e+00 6.835138e+01 2.320502e-01 -9.700368e-02 2.060311e-02 -8.688532e-01 -6.361059e-01 -8.309461e-01 -1.278250e-01 7.082177e-01 1.931705e-01 1.634701e-01 7.434718e-01 -1.545818e-01 3.956110e-01 -1.735687e-01 -4.417261e-01 7.267200e-02 -3.481640e-01 2.389441e-01 1.473063e-01 2.594935e-02 -1.183049e-01 -2.287452e-01 -5.542839e-02 2.072912e-01 1.147190e-01 3.263785e-01
<VARIANCE> 39
 4.598166e+00 1.109215e+01 1.400354e+01 2.027413e+01 1.847137e+01 2.480680e+01 3.564080e+01 2.061388e+01 2.556888e+01 2.088362e+01 2.004886e+01 2.740360e+01 5.442082e+00 2.445545e-01 8.883724e-01 8.285745e-01 2.703748e+00 1.488323e+00 2.066005e+00 2.077280e+00 2.725344e+00 3.082034e+00 1.755853e+00 2.026634e+00 2.195404e+00 9.909127e-01 4.539821e-02 1.154156e-01 1.054927e-01 2.782143e-01 2.383618e-01 4.061874e-01 4.284787e-01 5.276387e-01 3.666031e-01 3.384888e-01 3.503571e-01 4.487793e-01 6.331277e-02
<GCONST> 9.427870e+01
<STATE> 4
<MEAN> 39
 5.361714e+00 3.310216e+00 1.083660e+00 -9.376248e+00 -5.270319e+00 -6.672814e+00 -1.019341e+01 4.645506e-01 -1.533986e+01 -4.295393e+00 6.392842e+00 -6.202304e+00 7.394086e+01 -4.233876e-01 -1.479265e+00 2.595347e-02 -1.008312e+00 1.180933e+00 4.880245e-01 2.022830e-01 -7.697858e-01 -8.833708e-01 2.514698e-01 1.187205e+00 6.925019e-01 1.099036e+00 -1.075964e-01 1.536082e-02 1.191621e-01 4.273712e-01 3.473466e-01 3.264400e-01 -3.433541e-01 -4.739296e-01 1.547344e-01 1.000596e-01 -1.628751e-02 2.667607e-01 -1.758017e-01
<VARIANCE> 39
 4.282328e+00 2.069145e+01 1.181665e+01 1.911512e+01 5.307829e+01 2.155850e+01 3.954693e+01 1.278449e+02 6.540990e+01 3.608357e+01 4.234017e+01 3.306554e+01 5.778846e+00 1.755519e-01 8.398640e-01 7.843137e-01 1.884606e+00 2.183541e+00 1.864375e+00 3.418196e+00 5.192116e+00 3.852206e+00 3.154289e+00 3.001725e+00 1.989326e+00 3.390509e-01 3.859118e-02 1.514205e-01 2.010727e-01 2.430072e-01 3.092720e-01 3.291897e-01 4.437489e-01 7.876570e-01 7.977937e-01 5.716099e-01 5.819366e-01 3.784880e-01 3.742898e-02
<GCONST> 1.027961e+02
<TRANSP> 5
 0.000000e+00 1.000000e+00 0.000000e+00 0.000000e+00 0.000000e+00
 0.000000e+00 6.184175e-01 3.815825e-01 0.000000e+00 0.000000e+00
 0.000000e+00 0.000000e+00 7.846468e-01 2.153532e-01 0.000000e+00
 0.000000e+00 0.000000e+00 0.000000e+00 7.058011e-01 2.941989e-01
 0.000000e+00 0.000000e+00 0.000000e+00 0.000000e+00 0.000000e+00
<ENDHMM>
~h "y"
<BEGINHMM>
<NUMSTATES> 5
<STATE> 2
<MEAN> 39
 -3.374389e+00 -7.647985e-01 7.102955e-01 5.249625e+00 2.810805e+00 -2.347252e+00 -9.114181e+00 -6.783184e+00 -8.994766e+00 -4.021321e+00 1.412512e+00 -6.776828e+00 7.115557e+01 1.448903e+00 -5.548172e-01 1.832430e+00 8.552741e-01 -5.868236e-02 -1.152747e+00 -1.593053e+00 -4.024757e-01 -2.454676e+00 -6.153218e-01 2.521643e-01 -1.572368e+00 2.292831e-01 9.891835e-02 2.749340e-01 5.688502e-01 -5.069231e-01 -2.406782e-01 3.679742e-02 -7.998087e-02 -1.927179e-02 -3.837410e-01 2.458666e-02 2.185749e-01 -4.624100e-01 1.335919e-01
<VARIANCE> 39
 3.934880e+01 2.617224e+01 7.436156e+01 1.942268e+01 2.391964e+01 3.782270e+01 2.877746e+01 6.876624e+01 6.634623e+01 4.590279e+01 3.261891e+01 1.900179e+01 2.987079e+01 4.328947e+00 2.907570e+00 2.767117e+00 1.467012e+00 1.663390e+00 3.687439e+00 6.186306e+00 4.368319e+00 6.073658e+00 3.484387e+00 3.299870e+00 1.843482e+00 6.037331e-01 3.952895e-01 4.382809e-01 6.818635e-01 1.946844e-01 1.659473e-01 2.171123e-01 3.050496e-01 5.461031e-01 7.583961e-01 4.861285e-01 5.808982e-01 2.322036e-01 8.939104e-02
<GCONST> 1.172289e+02
<STATE> 3
<MEAN> 39
 -1.541858e+00 -7.134730e-01 9.707646e+00 3.950920e+00 3.477992e-01 -4.271185e+00 -9.026261e+00 -4.234300e+00 -1.503053e+01 -4.911755e+00 3.722068e+00 -1.007791e+01 7.206807e+01 3.507754e-01 -5.135978e-01 2.644625e+00 2.039822e-01 1.564812e-01 -1.642516e+00 -1.334854e+00 -1.136644e+00 -1.761917e+00 7.078364e-02 9.416870e-01 -1.334832e+00 1.200028e+00 -1.608874e-01 1.325511e-01 -6.780524e-01 -2.147260e-01 5.582315e-02 2.957764e-01 -2.978271e-01 -1.325863e-01 7.881857e-01 3.606872e-01 1.093428e-01 3.036073e-01 -4.943680e-02
<VARIANCE> 39
 7.935441e+00 1.638690e+01 7.381364e+01 3.133521e+01 2.838903e+01 4.026310e+01 4.544596e+01 3.197705e+01 1.695342e+01 3.458067e+01 2.643714e+01 3.010006e+01 2.028206e+01 2.020472e+00 1.510667e+00 6.701641e+00 1.332432e+00 2.075212e+00 2.890695e+00 5.035976e+00 3.778800e+00 4.850574e+00 4.086420e+00 2.376603e+00 1.571162e+00 1.438935e+00 3.613982e-01 3.310769e-01 1.299247e+00 3.674092e-01 2.895717e-01 8.945493e-01 9.616902e-01 2.490823e-01 5.025638e-01 5.936335e-01 4.323995e-01 3.073292e-01 2.389797e-01
<GCONST> 1.170864e+02
<STATE> 4
<MEAN> 39
 9.654707e-02 -2.162801e+00 9.370036e+00 4.380560e+00 2.717196e+00 -5.666200e+00 -1.625916e+01 -9.324528e+00 -1.485620e+01 -7.172444e-01 7.524210e+00 -1.035333e+01 7.500004e+01 3.820481e-01 4.987475e-02 -6.713843e-01 -7.316471e-01 1.116682e-01 2.592378e-01 -6.891313e-01 -1.025948e+00 -3.259659e-01 9.883602e-01 1.238323e-01 2.342689e-01 1.109803e-01 6.965735e-03 1.270840e-01 -2.199124e-01 -1.425945e-01 -2.895257e-02 2.060671e-01 3.695355e-01 6.237678e-02 -4.127574e-02 -1.445954e-02 -2.188594e-01 3.019855e-01 -1.042122e-01
<VARIANCE> 39
 1.052342e+01 1.364851e+01 4.469513e+01 2.541846e+01 2.087743e+01 3.178639e+01 2.951919e+01 5.853966e+01 2.194884e+01 4.924813e+01 1.567944e+01 2.719243e+01 4.721673e+00 1.535610e-01 5.000009e-01 1.028214e+00 1.524965e+00 1.270555e+00 1.271715e+00 3.990883e+00 2.728316e+00 2.135392e+00 1.377152e+00 1.845442e+00 1.744108e+00 9.047229e-02 6.252808e-02 8.572752e-02 2.209118e-01 1.445956e-01 2.580656e-01 2.839656e-01 5.669034e-01 7.647229e-01 4.545380e-01 3.763239e-01 3.473017e-01 2.344987e-01 3.943239e-02
<GCONST> 9.319211e+01
<TRANSP> 5
 0.000000e+00 1.000000e+00 0.000000e+00 0.000000e+00 0.000000e+00
 0.000000e+00 3.856940e-01 6.143060e-01 0.000000e+00 0.000000e+00
 0.000000e+00 0.000000e+00 5.609202e-01 4.390798e-01 0.000000e+00
 0.000000e+00 0.000000e+00 0.000000e+00 8.330542e-01 1.669458e-01
 0.000000e+00 0.000000e+00 0.000000e+00 0.000000e+00 0.000000e+00
<ENDHMM>
~h "z"
<BEGINHMM>
<NUMSTATES> 5
<STATE> 2
<MEAN> 39
 -5.483361e+00 -7.058196e-01 1.369119e+01 -6.856698e+00 8.477495e-01 3.457184e+00 -1.026035e+01 -9.543191e+00 -9.577577e+00 -4.856036e+00 -1.443473e+00 -4.039825e+00 7.457481e+01 -4.401680e+00 3.160474e-02 2.030417e+00 -1.767521e+00 3.902120e-01 1.540314e+00 2.802256e+00 -2.874619e-01 3.577132e+00 -6.139281e-01 -4.380475e-01 3.981034e-01 1.181788e+00 -4.834587e-01 1.554577e-01 -5.277553e-01 -1.641423e-01 -5.867748e-02 -1.715647e-01 1.931437e-01 2.753731e-01 1.400360e-01 2.490419e-01 3.073564e-01 -1.379444e-01 1.718051e-01
<VARIANCE> 39
 4.470249e+01 1.977163e+01 3.654119e+01 4.685791e+01 2.773555e+01 2.718799e+01 6.953210e+01 5.007497e+01 5.535333e+01 2.016680e+01 1.581972e+01 1.971973e+01 1.362081e+01 2.672077e+00 3.093663e+00 3.134372e+00 3.332304e+00 3.243522e+00 2.431865e+00 4.115816e+00 4.020533e+00 3.465458e+00 2.268250e+00 1.869858e+00 1.303455e+00 8.167510e-01 9.295006e-01 4.022573e-01 5.614885e-01 5.558737e-01 4.103711e-01 2.726690e-01 1.029476e+00 6.148241e-01 1.029031e+00 2.987282e-01 3.007226e-01 2.170803e-01 2.024437e-01
<GCONST> 1.178386e+02
<STATE> 3
<MEAN> 39
 -2.103831e+01 9.138885e-01 1.485642e+01 -1.386685e+01 1.826515e+00 7.880517e+00 -3.931310e+00 -6.455736e+00 1.049258e+00 -5.329429e+00 -5.750507e-01 -3.388549e+00 7.818579e+01 -1.351493e+00 -8.969893e-02 -5.843134e-01 -5.780627e-02 -2.853176e-02 1.022583e-01 4.833658e-01 4.571001e-01 6.508933e-01 -6.618070e-02 2.247823e-02 9.794224e-02 2.131162e-01 1.376667e+00 -1.538915e-01 -3.797859e-01 5.889223e-01 -1.216835e-01 -5.399107e-01 -6.576086e-01 -1.981421e-01 -9.131556e-01 -9.645747e-03 -5.734344e-02 -1.969071e-02 -4.253273e-01
<VARIANCE> 39
 1.353594e+01 1.199077e+01 2.239133e+01 2.027519e+01 2.116419e+01 1.674180e+01 2.911535e+01 3.858383e+01 2.787141e+01 1.912906e+01 1.573563e+01 1.436369e+01 5.399248e+00 4.697530e+00 1.187960e+00 1.218743e+00 2.175896e+00 1.719155e+00 1.522429e+00 2.790671e+00 2.366276e+00 2.668694e+00 1.198918e+00 1.519069e+00 9.691662e-01 6.720665e-01 4.537745e-01 2.062362e-01 3.341281e-01 2.964258e-01 3.266407e-01 2.788700e-01 6.534013e-01 6.050490e-01 5.231210e-01 3.163626e-01 3.307683e-01 2.023027e-01 7.831563e-02
<GCONST> 1.008063e+02
<STATE> 4
<MEAN> 39
 -1.624569e+01 1.592472e-02 9.948331e+00 -1.262064e+01 1.951967e+00 4.297750e+00 -5.607546e+00 -3.959345e+00 -1.473825e+00 -5.183781e+00 -6.843224e-01 -2.423527e+00 7.461279e+01 2.279625e+00 8.251932e-02 -1.140887e+00 6.317137e-01 -1.775356e-01 -8.111650e-01 -9.585450e-01 -4.551411e-02 -1.093103e+00 3.907815e-01 9.373312e-04 4.302390e-02 -9.687711e-01 2.304445e-01 2.802628e-02 -9.245386e-02 1.899622e-02 8.280852e-03 3.010024e-02 -1.397799e-01 1.584866e-01 -4.560177e-02 2.235892e-01 1.672052e-01 -5.274028e-02 -1.731552e-02
<VARIANCE> 39
 4.470889e+01 1.577923e+01 2.661733e+01 4.060825e+01 2.150919e+01 2.372738e+01 3.722799e+01 7.114559e+01 3.949161e+01 1.570033e+01 2.119240e+01 1.325743e+01 1.522067e+01 3.634041e+00 1.214127e+00 1.518442e+00 1.236506e+00 1.462265e+00 2.665153e+00 3.396734e+00 3.192493e+00 3.282519e+00 1.820789e+00 1.958660e+00 1.041805e+00 9.267754e-01 4.438573e-01 3.200916e-01 2.178541e-01 2.172787e-01 2.643965e-01 4.035880e-01 4.597293e-01 4.714566e-01 4.681637e-01 3.336496e-01 3.637244e-01 2.102624e-01 1.880368e-01
<GCONST> 1.075453e+02
<TRANSP> 5
 0.000000e+00 1.000000e+00 0.000000e+00 0.000000e+00 0.000000e+00
 0.000000e+00 6.914932e-01 3.085069e-01 0.000000e+00 0.000000e+00
 0.000000e+00 0.000000e+00 7.393194e-01 2.606806e-01 0.000000e+00
 0.000000e+00 0.000000e+00 0.000000e+00 7.584044e-01 2.415956e-01
 0.000000e+00 0.000000e+00 0.000000e+00 0.000000e+00 0.000000e+00
<ENDHMM>
~h "aa"
<BEGINHMM>
<NUMSTATES> 5
<STATE> 2
<MEAN> 39
 2.563222e+00 7.701890e-01 -2.280914e-01 -1.530196e+01 -5.295449e+00 -4.505729e+00 -5.179627e+00 2.284588e+00 -9.779322e+00 -8.311397e-01 4.664128e+00 -2.849112e+00 7.429827e+01 7.798843e-02 1.421057e-01 1.429520e-01 -7.317508e-01 -1.209479e-01 3.019858e-01 -5.412709e-02 3.320111e-01 -1.569701e-01 -1.790741e-01 1.807597e-01 -7.257386e-02 8.583669e-02 -4.090786e-02 -1.516784e-02 7.192945e-02 1.521273e-01 3.895193e-02 1.873785e-01 -6.816514e-02 -6.232695e-02 -9.011705e-03 -1.301516e-01 1.802174e-03 9.308586e-03 -4.796684e-02
<VARIANCE> 39
 3.721339e+00 1.693357e+01 3.124324e+01 1.679319e+01 4.178081e+01 2.997360e+01 2.170215e+01 7.144888e+01 4.781057e+01 2.633796e+01 3.359147e+01 2.766785e+01 7.669631e+00 2.188476e-01 6.986785e-01 1.263570e+00 1.174881e+00 9.813235e-01 1.118367e+00 1.941933e+00 2.106826e+00 1.489381e+00 9.843270e-01 1.603432e+00 1.024614e+00 2.106364e-01 6.485738e-02 1.255192e-01 1.572503e-01 1.443997e-01 1.447491e-01 2.519815e-01 3.388727e-01 2.729617e-01 2.675302e-01 2.748133e-01 2.375675e-01 1.671236e-01 3.250400e-02
<GCONST> 8.836247e+01
<STATE> 3
<MEAN> 39
 4.132255e+00 1.425542e+00 -2.956836e+00 -1.812968e+01 -3.320419e-01 -1.741584e+00 -1.057687e+01 -7.029667e+00 -2.111847e+01 1.743483e+00 1.217686e+01 -5.256556e+00 7.520531e+01 3.869410e-02 2.963421e-01 -9.007306e-02 2.520037e-01 1.032251e+00 3.924518e-01 -7.801944e-01 -6.766015e-01 -1.011778e+00 -1.120829e-01 4.071288e-01 2.604635e-01 -2.255284e-01 -5.396357e-02 9.597464e-03 5.596677e-02 4.442820e-01 9.345683e-02 4.793192e-02 -1.589669e-02 -6.646004e-02 3.375103e-02 -1.548092e-02 -3.101779e-01 -6.533446e-02 -1.401151e-01
<VARIANCE> 39
 2.260272e+00 1.808777e+01 1.341207e+01 1.799304e+01 2.892932e+01 2.094743e+01 3.672998e+01 6.052687e+01 3.213641e+01 3.866154e+01 2.295037e+01 4.504621e+01 7.050982e+00 1.158105e-01 5.580004e-01 5.416768e-01 2.261368e+00 9.183148e-01 9.471247e-01 1.586707e+00 2.890439e+00 1.386665e+00 1.893148e+00 1.412924e+00 2.338112e+00 1.837902e-01 2.756807e-02 6.168782e-02 8.868034e-02 1.509927e-01 1.266405e-01 2.053959e-01 2.119862e-01 4.301617e-01 3.204660e-01 2.892637e-01 1.901430e-01 3.340309e-01 2.317758e-02
<GCONST> 8.468652e+01
<STATE> 4
<MEAN> 39
 2.042489e+00 -1.874833e-01 9.395958e-01 -1.111220e+01 1.374505e+00 -2.453713e+00 -1.308834e+01 -5.523907e+00 -1.791020e+01 2.478787e+00 7.373376e+00 -7.005731e+00 7.383171e+01 -9.517829e-02 2.258133e-01 -1.479293e-01 1.493875e+00 3.282487e-01 5.498774e-01 -1.598463e-02 -3.739904e-02 8.732877e-01 -3.579910e-01 -1.279985e+00 -1.527106e-01 -6.144498e-01 -2.244911e-01 -1.864671e-02 -2.103703e-01 8.873970e-03 -1.960384e-01 1.926373e-01 4.233716e-01 3.522772e-01 8.121191e-01 -1.333712e-01 -3.474014e-01 2.319351e-01 -1.104622e-01
<VARIANCE> 39
 8.178643e+00 2.941339e+01 3.627742e+01 2.039793e+01 4.798855e+01 3.468312e+01 4.562871e+01 1.106059e+02 1.013154e+02 2.946501e+01 2.847400e+01 1.937183e+01 2.629353e+01 5.393310e-01 5.950328e-01 1.870735e+00 4.103362e+00 1.481840e+00 3.773029e+00 2.856173e+00 4.749568e+00 4.599884e+00 1.140340e+00 2.200517e+00 1.783586e+00 2.619246e+00 2.481449e-01 8.475025e-02 1.682223e-01 3.721377e-01 3.498750e-01 5.019535e-01 3.340613e-01 6.344900e-01 6.991789e-01 1.416528e-01 3.901709e-01 3.478726e-01 1.886646e-01
<GCONST> 1.106113e+02
<TRANSP> 5
 0.000000e+00 1.000000e+00 0.000000e+00 0.000000e+00 0.000000e+00
 0.000000e+00 8.606849e-01 1.393151e-01 0.000000e+00 0.000000e+00
 0.000000e+00 0.000000e+00 8.176900e-01 1.823100e-01 0.000000e+00
 0.000000e+00 0.000000e+00 0.000000e+00 7.473422e-01 2.526577e-01
 0.000000e+00 0.000000e+00 0.000000e+00 0.000000e+00 0.000000e+00
<ENDHMM>
~h "ae"
<BEGINHMM>
<NUMSTATES> 5
<STATE> 2
<MEAN> 39
 -1.028348e-01 -5.578703e+00 4.838971e+00 -9.334359e+00 1.699202e+00 -3.480715e+00 -1.729251e+01 -5.538061e+00 -1.040698e+01 3.089755e+00 6.072253e+00 -8.429853e+00 7.817636e+01 6.415044e-01 -4.346304e-01 -2.050646e-01 -1.299356e+00 -8.598399e-01 -1.612641e-01 -9.056501e-02 7.348303e-01 -5.476544e-02 1.271930e+00 7.632624e-01 -2.858397e-01 4.684855e-01 -3.283096e-01 -7.624635e-03 -1.265595e-01 2.178675e-01 3.901397e-03 1.889192e-01 7.138437e-01 3.027136e-01 5.157088e-01 -1.623309e-01 -2.277769e-01 4.894599e-02 -2.403871e-01
<VARIANCE> 39
 4.567254e+00 1.481701e+01 2.685437e+01 2.868696e+01 3.447211e+01 4.102585e+01 4.815762e+01 4.690202e+01 3.197180e+01 2.347683e+01 2.684014e+01 4.646838e+01 1.109932e+01 8.130268e-01 1.735811e+00 6.696012e-01 1.487388e+00 1.409695e+00 2.080383e+00 3.950200e+00 2.255224e+00 1.689625e+00 2.010662e+00 1.879452e+00 1.703705e+00 4.583692e-01 2.183107e-01 4.222690e-01 2.110187e-01 2.445216e-01 2.445914e-01 4.322478e-01 7.964167e-01 4.769187e-01 3.629997e-01 4.766831e-01 3.479825e-01 3.002521e-01 9.950826e-02
<GCONST> 1.039985e+02
<STATE> 3
<MEAN> 39
 1.438040e+00 -5.462553e+00 3.569584e+00 -1.440467e+01 -1.288588e+00 -1.113802e-02 -1.155146e+01 2.516301e-01 -7.666660e+00 3.398323e+00 6.573793e+00 -6.812816e+00 7.812862e+01 1.307802e-02 1.199131e-02 -6.353150e-02 9.155182e-02 1.327616e-01 -1.476061e-01 7.219303e-02 -4.902807e-02 -1.018187e-01 1.286918e-01 -3.246284e-02 -6.131104e-02 -7.824636e-02 -2.533914e-03 1.725794e-01 5.838473e-02 2.469933e-01 9.395599e-02 -7.039697e-02 -1.372029e-01 -1.850820e-01 -1.457632e-01 -4.241619e-02 -4.876914e-02 4.844400e-02 -1.206346e-01
<VARIANCE> 39
 3.828597e+00 1.742960e+01 1.868590e+01 1.279494e+01 2.181410e+01 3.161397e+01 3.046228e+01 3.616633e+01 2.598314e+01 3.284183e+01 2.811018e+01 3.596566e+01 7.181168e+00 1.313790e-01 8.344043e-01 4.250887e-01 8.388833e-01 7.497976e-01 1.051484e+00 1.129493e+00 1.763014e+00 9.242368e-01 9.144381e-01 9.517990e-01 7.769737e-01 9.858511e-02 2.117760e-02 1.589628e-01 8.286221e-02 1.117461e-01 1.183647e-01 2.085470e-01 1.914539e-01 1.745974e-01 1.467402e-01 1.774981e-01 1.406597e-01 1.024698e-01 4.095155e-02
<GCONST> 7.639833e+01
<STATE> 4
<MEAN> 39
 1.156700e+00 -4.621647e+00 2.183195e+00 -8.931549e+00 8.083202e-02 -5.548446e+00 -1.612100e+01 -7.067503e+00 -1.151833e+01 7.098391e+00 6.061586e+00 -8.320223e+00 7.618059e+01 1.605578e-01 1.013426e+00 2.828589e-01 1.145114e+00 2.538154e-01 -2.369602e-03 3.147281e-02 6.021438e-04 -5.736775e-01 -3.840974e-01 -4.445936e-01 1.152801e-01 -7.126946e-01 -6.370103e-02 2.224789e-01 -2.012841e-01 2.332244e-01 -1.732739e-01 5.715876e-01 4.877732e-01 4.050215e-01 3.428475e-01 -4.133671e-01 -2.122500e-01 2.346602e-01 -3.317385e-01
<VARIANCE> 39
 5.494035e+00 2.595789e+01 3.674188e+01 2.297680e+01 1.848763e+01 5.259766e+01 4.709340e+01 5.601360e+01 3.544726e+01 4.366845e+01 3.064801e+01 5.193284e+01 2.956045e+01 3.790542e-01 3.182895e+00 3.293900e+00 2.759212e+00 2.071828e+00 4.381179e+00 4.068466e+00 4.301332e+00 3.378326e+00 3.969410e+00 2.277596e+00 2.615558e+00 3.795449e+00 1.085398e-01 4.971306e-01 4.091317e-01 3.263959e-01 3.407576e-01 5.347436e-01 7.246267e-01 6.848481e-01 6.932006e-01 5.903382e-01 4.126055e-01 4.763194e-01 3.396248e-01
<GCONST> 1.184775e+02
<TRANSP> 5
 0.000000e+00 1.000000e+00 0.000000e+00 0.000000e+00 0.000000e+00
 0.000000e+00 6.304714e-01 3.695286e-01 0.000000e+00 0.000000e+00
 0.000000e+00 0.000000e+00 8.426499e-01 1.573502e-01 0.000000e+00
 0.000000e+00 0.000000e+00 0.000000e+00 6.621601e-01 3.378400e-01
 0.000000e+00 0.000000e+00 0.000000e+00 0.000000e+00 0.000000e+00
<ENDHMM>
~h "ah"
<BEGINHMM>
<NUMSTATES> 5
<STATE> 2
<MEAN> 39
 1.874004e+00 -2.765061e+00 4.417399e+00 -1.080785e+01 -1.329302e-03 -6.054999e+00 -1.397859e+01 -3.412243e+00 -1.464054e+01 1.237237e-01 8.743835e+00 -5.619330e+00 7.747200e+01 4.000812e-01 -7.144231e-01 -5.819219e-01 -1.454741e+00 -6.757550e-01 -6.977324e-01 6.622137e-01 5.934650e-01 -5.892380e-01 1.086504e+00 1.177608e+00 -6.527793e-02 8.071510e-01 -1.564491e-01 1.993286e-01 -1.263546e-01 5.127457e-01 -1.353608e-01 7.359143e-01 3.901117e-01 3.133660e-01 4.246136e-01 -2.340445e-01 -6.572781e-01 6.558803e-02 -4.949645e-01
<VARIANCE> 39
 3.486924e+00 1.805354e+01 1.932734e+01 3.495723e+01 2.642760e+01 3.056065e+01 6.503689e+01 1.078225e+02 2.940039e+01 4.497862e+01 2.127226e+01 2.947435e+01 5.494570e+00 1.460993e+00 2.250450e+00 1.201042e+00 3.083669e+00 1.938209e+00 3.990529e+00 4.291352e+00 4.557323e+00 2.932351e+00 2.691626e+00 2.368009e+00 1.180358e+00 9.362026e-01 2.941242e-01 4.252637e-01 1.983135e-01 3.566215e-01 3.100601e-01 5.168002e-01 1.007715e+00 9.079484e-01 5.927606e-01 4.258600e-01 4.718033e-01 3.225083e-01 1.216526e-01
<GCONST> 1.117494e+02
<STATE> 3
<MEAN> 39
 2.883498e+00 -3.097768e+00 -3.235722e-03 -1.311919e+01 -2.161096e+00 -5.332640e+00 -9.197269e+00 -2.958760e+00 -1.516697e+01 2.990296e+00 6.624720e+00 -7.829988e+00 7.732231e+01 1.165267e-01 3.466848e-01 -3.670706e-01 4.252774e-01 -4.762416e-01 5.607432e-01 5.937467e-01 5.982473e-01 2.786357e-01 -9.558796e-02 -7.637206e-01 2.942788e-02 -6.121725e-01 -2.269667e-02 3.372118e-01 7.033994e-03 5.358055e-01 6.185586e-02 4.042448e-01 -1.915817e-01 8.542858e-02 2.492896e-01 -2.833277e-01 -3.071763e-01 2.098826e-01 -4.402902e-01
<VARIANCE> 39
 2.828247e+00 1.220115e+01 1.655420e+01 3.839297e+01 1.362838e+01 3.310568e+01 2.601505e+01 9.417035e+01 3.184443e+01 3.620813e+01 2.017472e+01 2.374939e+01 5.049544e+00 3.207117e-01 1.312427e+00 8.735714e-01 2.678377e+00 1.513814e+00 1.793209e+00 1.971944e+00 4.204071e+00 1.454482e+00 1.600713e+00 1.360380e+00 1.542507e+00 1.063155e+00 1.081892e-01 2.189162e-01 1.454321e-01 1.871300e-01 2.022263e-01 4.102184e-01 2.554865e-01 8.909550e-01 3.713869e-01 3.335924e-01 3.120711e-01 2.625388e-01 9.261911e-02
<GCONST> 9.689003e+01
<STATE> 4
<MEAN> 39
 1.886337e+00 8.932776e-02 4.699726e+00 -1.217073e+01 -4.308179e+00 -1.508703e+00 -6.214481e+00 8.001610e+00 -1.034527e+01 -4.503128e+00 6.171148e+00 -2.258410e+00 7.468069e+01 6.356798e-02 5.376164e-01 3.467860e-02 1.021320e+00 1.189480e-01 8.607832e-01 5.940435e-02 1.976330e-01 2.788698e-01 -1.983520e-01 -5.884701e-01 2.437556e-01 -7.642326e-01 -4.710129e-02 8.782452e-02 -6.873712e-02 1.652905e-01 1.502251e-01 2.167207e-01 -1.468688e-01 -2.279318e-01 9.276085e-02 -1.041127e-02 -6.426892e-02 -3.389563e-02 -1.161944e-01
<VARIANCE> 39
 3.980082e+00 1.059747e+01 2.108082e+01 2.785988e+01 3.004129e+01 2.492103e+01 2.493873e+01 6.892582e+01 2.470213e+01 3.768108e+01 2.989831e+01 2.151966e+01 7.148661e+00 3.848654e-01 1.183817e+00 1.148128e+00 1.712397e+00 1.249534e+00 2.106992e+00 1.764428e+00 4.064768e+00 2.104081e+00 1.925479e+00 1.831065e+00 1.000779e+00 1.014975e+00 1.020961e-01 1.793890e-01 1.451435e-01 2.007498e-01 3.120135e-01 3.648570e-01 3.916110e-01 4.663200e-01 4.200296e-01 3.343020e-01 3.475170e-01 1.758723e-01 8.420949e-02
<GCONST> 9.733826e+01
<TRANSP> 5
 0.000000e+00 1.000000e+00 0.000000e+00 0.000000e+00 0.000000e+00
 0.000000e+00 4.540580e-01 5.459419e-01 0.000000e+00 0.000000e+00
 0.000000e+00 0.000000e+00 6.598091e-01 3.401910e-01 0.000000e+00
 0.000000e+00 0.000000e+00 0.000000e+00 7.132162e-01 2.867838e-01
 0.000000e+00 0.000000e+00 0.000000e+00 0.000000e+00 0.000000e+00
<ENDHMM>
~h "ao"
<BEGINHMM>
<NUMSTATES> 5
<STATE> 2
<MEAN> 39
 4.766682e+00 3.434043e+00 2.995955e+00 -1.128021e+01 -9.644997e+00 -8.540428e+00 -1.114746e+01 -1.668168e+00 -1.330253e+01 -8.422513e-01 4.184564e+00 -4.922752e+00 7.414352e+01 2.408696e-01 1.175965e-01 -1.934584e-01 -8.491510e-01 -6.796835e-02 2.728774e-01 -2.823949e-01 4.617810e-01 2.837370e-02 -4.890142e-01 2.912865e-01 2.246276e-01 1.379286e-02 -1.620940e-01 -5.826728e-02 2.133800e-02 8.148890e-02 2.497804e-01 2.940609e-01 -3.099780e-02 -1.544686e-01 -2.478771e-03 -1.561626e-01 8.034313e-02 1.061790e-01 -3.680976e-02
<VARIANCE> 39
 3.485991e+00 2.552290e+01 2.614740e+01 2.754129e+01 4.262894e+01 1.775784e+01 2.769752e+01 3.974841e+01 4.577865e+01 3.714288e+01 2.969885e+01 5.462685e+01 6.087148e+00 3.327197e-01 5.775287e-01 6.474942e-01 1.245377e+00 1.799368e+00 1.744194e+00 1.743358e+00 2.901507e+00 2.180950e+00 1.501265e+00 2.126877e+00 1.780418e+00 1.765427e-01 1.116011e-01 1.290274e-01 9.889659e-02 1.410221e-01 1.373291e-01 2.177376e-01 3.696438e-01 3.967742e-01 3.739841e-01 2.714006e-01 2.450086e-01 2.684537e-01 2.805376e-02
<GCONST> 9.217274e+01
<STATE> 3
<MEAN> 39
 4.866162e+00 4.975443e+00 -1.444102e+00 -1.861945e+01 1.168691e+00 -1.205966e+00 -1.286238e+01 -3.693915e+00 -2.246285e+01 -6.361567e+00 9.913265e+00 -7.992529e-01 7.412679e+01 4.134042e-02 9.986602e-02 -2.554719e-01 2.615532e-01 8.448011e-01 1.042450e+00 -1.551915e-01 -1.267262e-02 -6.397417e-01 -3.158288e-01 3.173741e-01 1.769179e-01 -2.681628e-01 -7.581406e-02 1.723326e-03 6.331044e-03 6.358073e-01 -1.562522e-01 -1.824565e-01 2.157284e-01 -3.717576e-02 2.881877e-01 4.110938e-01 -4.057657e-01 -2.684699e-01 -1.394741e-01
<VARIANCE> 39
 2.041493e+00 1.007045e+01 1.642869e+01 2.268160e+01 4.254272e+01 2.010505e+01 2.141388e+01 4.545433e+01 6.350821e+01 5.225119e+01 2.168038e+01 2.608630e+01 3.328704e+00 1.842154e-01 4.200138e-01 5.440991e-01 2.161377e+00 1.631247e+00 2.081498e+00 1.051020e+00 3.280771e+00 2.915629e+00 3.278742e+00 1.681735e+00 1.828712e+00 2.522895e-01 7.697127e-02 8.445930e-02 1.225807e-01 1.817703e-01 2.097276e-01 2.465432e-01 2.479967e-01 3.822078e-01 5.448859e-01 3.864664e-01 2.513295e-01 2.158741e-01 4.622735e-02
<GCONST> 9.026380e+01
<STATE> 4
<MEAN> 39
 4.221042e+00 4.176472e+00 -1.263822e+00 -1.067054e+01 -2.778552e+00 3.545296e-01 -1.161375e+01 -2.362297e+00 -1.637358e+01 -4.142058e+00 5.092977e+00 -2.992499e+00 7.107408e+01 -2.931151e-01 -1.487509e-01 -8.393285e-02 1.987248e+00 3.688155e-02 3.133366e-01 6.324935e-01 4.289118e-01 1.763767e+00 4.091894e-01 -1.442857e+00 -4.702558e-02 -6.975437e-01 -2.520606e-01 -2.738341e-01 1.414018e-01 1.118566e-01 -1.066112e-01 -2.522199e-01 2.812717e-01 1.820053e-01 5.858020e-01 1.395959e-01 -2.504688e-01 7.193127e-02 7.899871e-02
<VARIANCE> 39
 5.101389e+00 2.538394e+01 3.510382e+01 3.044596e+01 7.460387e+01 5.030060e+01 1.793648e+01 9.508434e+01 1.074586e+02 4.704132e+01 4.400888e+01 2.712436e+01 1.498283e+01 8.178226e-01 2.131620e+00 3.348429e+00 4.190336e+00 3.241986e+00 6.307527e+00 2.277121e+00 2.980721e+00 6.578620e+00 4.239027e+00 2.352865e+00 2.118521e+00 1.957324e+00 2.660016e-01 4.226581e-01 6.335166e-01 5.636673e-01 3.049068e-01 6.341384e-01 3.397726e-01 5.737063e-01 1.328570e+00 1.119079e+00 5.758814e-01 4.403098e-01 2.940125e-01
<GCONST> 1.225497e+02
<TRANSP> 5
 0.000000e+00 1.000000e+00 0.000000e+00 0.000000e+00 0.000000e+00
 0.000000e+00 8.295956e-01 1.704044e-01 0.000000e+00 0.000000e+00
 0.000000e+00 0.000000e+00 7.346577e-01 2.653423e-01 0.000000e+00
 0.000000e+00 0.000000e+00 0.000000e+00 5.626695e-01 4.373305e-01
 0.000000e+00 0.000000e+00 0.000000e+00 0.000000e+00 0.000000e+00
<ENDHMM>
~h "aw"
<BEGINHMM>
<NUMSTATES> 5
<STATE> 2
<MEAN> 39
 2.982923e+00 -2.400557e+00 -1.682908e+00 -1.503374e+01 -3.127359e+00 -6.230714e+00 -1.095113e+01 3.995641e-01 -1.396906e+01 8.639375e-01 7.966164e+00 -9.991017e+00 7.767218e+01 2.159641e-01 2.368437e-01 -2.204700e-01 -2.760355e-01 1.179573e-01 5.039306e-01 5.255038e-01 2.546546e-01 -3.344410e-01 -2.897951e-01 4.220548e-02 1.442940e-01 -2.040434e-01 -8.184151e-03 1.389756e-01 1.287222e-01 1.743212e-01 4.503264e-02 1.555084e-02 -6.727967e-02 -7.434458e-02 -3.300568e-02 -2.143772e-01 -6.991640e-02 1.323617e-01 -1.237497e-01
<VARIANCE> 39
 7.039780e+00 2.176338e+01 1.060677e+01 2.321870e+01 2.346564e+01 2.666459e+01 3.006456e+01 2.879430e+01 2.542888e+01 4.126414e+01 1.487861e+01 2.576131e+01 5.553850e+00 1.603195e-01 1.204211e+00 8.087366e-01 1.131300e+00 1.746500e+00 1.911905e+00 1.535127e+00 1.362921e+00 2.361106e+00 2.265277e+00 1.479639e+00 9.878228e-01 1.861929e-01 2.328515e-02 1.344613e-01 8.390067e-02 1.502032e-01 2.024959e-01 2.764267e-01 3.688210e-01 1.957501e-01 2.441788e-01 3.682817e-01 2.371551e-01 1.693071e-01 3.591979e-02
<GCONST> 8.602090e+01
<STATE> 3
<MEAN> 39
 2.765484e+00 9.399934e-01 3.915331e-01 -1.554064e+01 1.149398e+00 -7.272174e-01 -7.412772e+00 9.067937e+00 -1.398482e+01 -2.712710e+00 7.183022e+00 -3.166412e+00 7.426340e+01 6.036600e-02 2.884434e-01 1.140460e-01 6.810503e-01 4.557309e-01 3.254884e-03 -1.942660e-01 1.111448e-01 -6.207178e-01 -2.579151e-01 5.779879e-02 3.281750e-01 -3.636430e-01 3.249608e-02 3.798343e-03 -1.249205e-02 2.611100e-01 -1.295324e-02 -1.794348e-02 -1.452056e-01 -1.149754e-01 -2.780915e-03 1.706309e-01 -3.358354e-02 -1.006782e-01 -4.806836e-02
<VARIANCE> 39
 5.760984e+00 1.081348e+01 7.279248e+00 1.502781e+01 2.131687e+01 1.938258e+01 1.627466e+01 5.787483e+01 4.835456e+01 2.169367e+01 1.430352e+01 1.394234e+01 5.581798e+00 1.208664e-01 3.622043e-01 3.770702e-01 9.950211e-01 9.702706e-01 7.682707e-01 1.465101e+00 2.297586e+00 1.934960e+00 1.531803e+00 6.401543e-01 8.346289e-01 9.921577e-02 1.386932e-02 5.867985e-02 4.159177e-02 9.362826e-02 1.667212e-01 2.311794e-01 1.750750e-01 1.302664e-01 5.116324e-01 2.538975e-01 1.018031e-01 1.688274e-01 1.262123e-02
<GCONST> 7.213100e+01
<STATE> 4
<MEAN> 39
 5.225116e+00 1.927818e+00 7.458934e-01 -8.236279e+00 -8.189831e-01 -3.070060e+00 -1.230569e+01 -1.957360e+00 -1.907304e+01 -8.084338e-01 5.888438e+00 -6.422988e+00 7.320765e+01 3.392864e-02 6.959127e-01 -2.137572e-01 1.799379e+00 7.775251e-01 1.393727e+00 -6.999071e-01 -2.601684e-01 3.742145e-01 -2.203423e-01 -5.727496e-01 8.292858e-01 -1.131929e+00 -1.395644e-01 -4.951091e-02 -2.228511e-01 2.018278e-01 -1.563017e-01 3.781620e-01 4.965016e-01 3.243758e-01 8.229676e-01 -3.457886e-02 -2.418361e-01 -6.270504e-02 -2.211923e-01
<VARIANCE> 39
 4.783550e+00 8.856398e+00 2.388062e+01 4.836727e+01 4.313824e+01 6.158737e+01 2.848254e+01 7.810309e+01 5.573299e+01 3.708443e+01 3.498929e+01 1.919502e+01 6.346486e+00 2.842239e-01 4.630362e-01 1.190083e+00 1.495024e+00 1.934583e+00 3.342747e+00 3.128712e+00 2.517256e+00 4.359692e+00 2.177564e+00 7.518651e-01 1.240381e+00 6.054376e-01 5.226116e-02 1.285295e-01 1.632075e-01 2.503768e-01 3.531292e-01 6.126398e-01 5.774390e-01 5.288261e-01 1.162556e+00 3.915242e-01 1.697139e-01 1.429215e-01 6.583235e-02
<GCONST> 1.000721e+02
<TRANSP> 5
 0.000000e+00 1.000000e+00 0.000000e+00 0.000000e+00 0.000000e+00
 0.000000e+00 8.572429e-01 1.427571e-01 0.000000e+00 0.000000e+00
 0.000000e+00 0.000000e+00 7.754310e-01 2.245690e-01 0.000000e+00
 0.000000e+00 0.000000e+00 0.000000e+00 5.359380e-01 4.640620e-01
 0.000000e+00 0.000000e+00 0.000000e+00 0.000000e+00 0.000000e+00
<ENDHMM>
~h "ax"
<BEGINHMM>
<NUMSTATES> 5
<STATE> 2
<MEAN> 39
 -5.555550e-01 3.600000e-01 5.958973e+00 -4.686583e+00 6.832961e-01 -2.404763e+00 -1.393641e+01 -1.246712e+01 -1.547727e+01 -3.734388e+00 3.501457e+00 -3.522809e+00 7.504430e+01 1.663441e+00 1.596183e-01 4.240533e-01 -5.768270e-01 1.069195e-02 -1.305923e+00 -2.379612e+00 -2.107071e+00 -3.035630e+00 4.624828e-01 1.049839e+00 1.288566e-01 7.298867e-01 1.213960e-01 3.729297e-01 -4.437539e-01 1.612347e-01 7.859199e-02 5.720019e-01 5.633250e-01 9.573044e-01 5.464046e-01 2.543297e-01 -2.011567e-01 -1.446238e-02 -5.325081e-01
<VARIANCE> 39
 2.307349e+01 1.480183e+01 4.855790e+01 4.409859e+01 4.098518e+01 3.936186e+01 4.412048e+01 6.168261e+01 4.431078e+01 3.079348e+01 4.035204e+01 2.566084e+01 7.210111e+00 3.427454e+00 2.978261e+00 3.024673e+00 3.683325e+00 2.736726e+00 3.747987e+00 4.442066e+00 4.950119e+00 5.347603e+00 2.945323e+00 3.285158e+00 2.246146e+00 1.397310e+00 6.022650e-01 3.565259e-01 5.465308e-01 5.183663e-01 4.347581e-01 5.553205e-01 8.793764e-01 1.022027e+00 8.794955e-01 4.262697e-01 5.736934e-01 3.978410e-01 2.818095e-01
<GCONST> 1.238012e+02
<STATE> 3
<MEAN> 39
 1.913468e+00 3.142071e-01 4.287336e+00 -5.045605e+00 1.965517e+00 -4.425868e+00 -1.595773e+01 -1.537188e+01 -1.939907e+01 -2.667746e-01 6.143089e+00 -4.076536e+00 7.562423e+01 8.161018e-01 4.156003e-01 -2.824402e-01 -2.010103e-01 2.269462e-01 4.063024e-01 -5.525263e-02 1.837005e-01 -6.896757e-01 7.309492e-01 4.941705e-01 2.592248e-02 -2.497718e-01 -4.053083e-01 1.725093e-01 -1.688105e-01 3.899907e-01 9.349425e-03 7.142430e-01 9.401378e-01 1.100150e+00 1.116768e+00 -2.743498e-01 -5.696833e-01 -2.189289e-02 -4.642953e-01
<VARIANCE> 39
 6.870679e+00 1.489915e+01 5.019505e+01 3.971984e+01 3.598765e+01 3.777825e+01 3.000694e+01 5.744501e+01 3.006264e+01 3.516081e+01 3.742352e+01 3.232725e+01 5.165307e+00 1.173764e+00 1.292023e+00 2.260403e+00 2.876960e+00 1.552032e+00 2.316184e+00 3.474111e+00 3.300529e+00 3.377088e+00 2.160042e+00 2.552529e+00 1.857544e+00 6.571192e-01 3.724577e-01 3.429607e-01 3.659091e-01 3.769292e-01 3.783579e-01 5.707454e-01 8.826798e-01 6.862026e-01 6.898780e-01 4.820550e-01 5.480937e-01 3.810534e-01 2.185633e-01
<GCONST> 1.131446e+02
<STATE> 4
<MEAN> 39
 3.288290e+00 3.286760e+00 2.516857e+00 -4.616305e+00 4.004799e+00 -2.960209e-01 -1.404444e+01 -1.068031e+01 -1.919444e+01 -7.999862e-01 5.834329e+00 -3.922426e+00 7.268140e+01 5.706282e-02 5.885517e-01 -3.364140e-01 1.140234e+00 -7.503270e-02 1.373195e+00 1.294523e+00 2.157959e+00 1.717038e+00 -3.565741e-01 -1.482095e+00 -5.234356e-02 -1.171259e+00 -3.921885e-01 -1.109566e-01 -7.348757e-02 1.993697e-01 -1.879998e-01 3.048935e-01 4.704487e-01 4.184511e-01 7.795593e-01 -2.033021e-01 -3.347973e-01 1.041103e-02 -1.395796e-01
<VARIANCE> 39
 7.091018e+00 2.094392e+01 4.387834e+01 4.583243e+01 3.985956e+01 4.074831e+01 2.832936e+01 6.491926e+01 4.099559e+01 3.645486e+01 4.540444e+01 2.975075e+01 1.170313e+01 1.003450e+00 1.480441e+00 2.789877e+00 2.654471e+00 2.026242e+00 3.254767e+00 3.190098e+00 3.829592e+00 3.169008e+00 2.147304e+00 2.485467e+00 1.834582e+00 1.248749e+00 3.365033e-01 2.852848e-01 3.208133e-01 4.072081e-01 3.820311e-01 4.902097e-01 5.788507e-01 6.461815e-01 6.028417e-01 3.990442e-01 5.372903e-01 3.307199e-01 1.721042e-01
<GCONST> 1.146667e+02
<TRANSP> 5
 0.000000e+00 1.000000e+00 0.000000e+00 0.000000e+00 0.000000e+00
 0.000000e+00 2.547112e-01 7.452888e-01 0.000000e+00 0.000000e+00
 0.000000e+00 0.000000e+00 4.425113e-01 5.574887e-01 0.000000e+00
 0.000000e+00 0.000000e+00 0.000000e+00 5.114815e-01 4.885185e-01
 0.000000e+00 0.000000e+00 0.000000e+00 0.000000e+00 0.000000e+00
<ENDHMM>
~h "ay"
<BEGINHMM>
<NUMSTATES> 5
<STATE> 2
<MEAN> 39
 2.131401e+00 -3.012232e+00 -7.250413e-01 -1.127082e+01 -2.967937e+00 -2.895419e+00 -1.440522e+01 6.118025e-01 -1.216368e+01 1.790892e+00 7.804684e+00 -6.803842e+00 7.457286e+01 1.581910e-01 -9.108876e-01 4.822199e-01 -7.078686e-01 4.735173e-02 -8.360716e-01 -3.680540e-01 -2.647957e-02 -3.923887e-01 9.913944e-01 1.186267e+00 -9.002954e-01 1.159273e+00 -2.594556e-01 1.094226e-01 6.104716e-02 3.982584e-01 1.469758e-01 2.552398e-01 2.094306e-01 -1.241947e-01 2.862469e-01 -1.260284e-01 -2.834454e-01 1.446908e-01 -1.681688e-01
<VARIANCE> 39
 9.015510e+00 2.433149e+01 4.305883e+01 4.123068e+01 1.769096e+01 4.098147e+01 5.265379e+01 7.595804e+01 3.295243e+01 3.036242e+01 3.732198e+01 2.981084e+01 4.012115e+01 9.063113e-01 2.178309e+00 2.610620e+00 2.259553e+00 1.514484e+00 2.314434e+00 3.562987e+00 4.548031e+00 2.714502e+00 2.351139e+00 2.078554e+00 2.041055e+00 1.626896e+00 2.716550e-01 4.486046e-01 2.737078e-01 5.069464e-01 2.242051e-01 3.936157e-01 6.815992e-01 6.232418e-01 6.737818e-01 3.596713e-01 5.469773e-01 3.710152e-01 3.009301e-01
<GCONST> 1.157474e+02
<STATE> 3
<MEAN> 39
 2.064832e+00 -4.448999e+00 2.417369e+00 -1.154676e+01 -8.676862e-01 -5.722595e+00 -1.292338e+01 -2.391230e+00 -1.137229e+01 6.038790e+00 9.934874e+00 -7.333602e+00 7.816592e+01 -9.436692e-02 -2.211494e-01 2.000501e-01 4.897017e-01 4.831728e-01 -3.044936e-01 -4.005933e-01 -3.308439e-01 -1.588271e-01 5.084960e-01 1.953468e-02 -9.976697e-02 -4.795025e-03 -5.693782e-03 1.226436e-01 9.785236e-02 1.095886e-01 1.341321e-02 -6.058421e-03 -1.136125e-01 -1.509384e-02 -8.739102e-02 -1.956192e-01 -1.138473e-01 6.203862e-02 -8.641447e-02
<VARIANCE> 39
 2.054297e+00 2.097023e+01 1.534364e+01 2.177826e+01 2.230045e+01 3.033279e+01 3.911617e+01 5.368109e+01 2.744062e+01 3.257257e+01 2.601505e+01 2.397316e+01 5.651095e+00 1.257331e-01 5.924189e-01 7.567545e-01 9.944843e-01 8.296801e-01 1.066669e+00 1.654611e+00 1.395707e+00 1.013425e+00 1.219642e+00 1.165740e+00 8.798700e-01 7.913122e-02 1.775979e-02 1.088488e-01 9.037365e-02 1.149279e-01 1.400268e-01 1.621382e-01 2.345922e-01 2.124936e-01 1.693702e-01 1.875104e-01 1.946049e-01 1.662191e-01 2.214575e-02
<GCONST> 7.762450e+01
<STATE> 4
<MEAN> 39
 1.314775e+00 -4.239485e+00 4.399551e+00 -6.170331e+00 3.468894e+00 -7.309861e+00 -1.943887e+01 -6.369162e+00 -1.515310e+01 6.042541e+00 8.711559e+00 -7.816273e+00 7.686932e+01 1.149782e-01 1.045073e+00 -5.486166e-03 6.926279e-01 3.516515e-01 8.598077e-01 4.381526e-01 4.174083e-01 -3.321292e-01 -1.282381e+00 -9.640256e-01 2.547213e-01 -8.931435e-01 6.402782e-02 2.313970e-01 -2.417100e-01 -7.084708e-02 -1.539036e-01 5.425687e-01 4.758834e-01 3.335078e-01 2.053346e-01 -3.589405e-01 -8.891308e-02 8.238724e-02 -2.335968e-01
<VARIANCE> 39
 6.219787e+00 1.910589e+01 2.996563e+01 2.879496e+01 2.242884e+01 6.654121e+01 2.734802e+01 3.679633e+01 3.951270e+01 2.222783e+01 4.860483e+01 2.426204e+01 8.792362e+00 2.747605e-01 7.100087e-01 1.361022e+00 1.619953e+00 8.342999e-01 3.248717e+00 2.687215e+00 3.064144e+00 2.180997e+00 2.003487e+00 1.724209e+00 1.665440e+00 6.771646e-01 6.803352e-02 1.236952e-01 2.072783e-01 1.453125e-01 1.221983e-01 5.989935e-01 3.390999e-01 5.130102e-01 3.647493e-01 3.341856e-01 2.639387e-01 2.522871e-01 8.944452e-02
<GCONST> 9.799148e+01
<TRANSP> 5
 0.000000e+00 1.000000e+00 0.000000e+00 0.000000e+00 0.000000e+00
 0.000000e+00 7.380400e-01 2.619600e-01 0.000000e+00 0.000000e+00
 0.000000e+00 0.000000e+00 8.676295e-01 1.323705e-01 0.000000e+00
 0.000000e+00 0.000000e+00 0.000000e+00 7.486306e-01 2.513695e-01
 0.000000e+00 0.000000e+00 0.000000e+00 0.000000e+00 0.000000e+00
<ENDHMM>
~h "ch"
<BEGINHMM>
<NUMSTATES> 5
<STATE> 2
<MEAN> 39
 -1.183589e+01 -6.129011e+00 1.087101e+01 8.100345e-01 -5.174695e+00 7.469764e-01 -2.872980e+00 -5.133752e+00 -5.516986e+00 -4.106422e+00 -2.786527e+00 -5.602209e+00 7.487857e+01 -2.323013e+00 -1.693617e+00 6.408780e-01 3.971398e-01 -6.535891e-01 -4.043915e-01 2.783313e-01 6.204163e-01 1.102351e+00 2.952502e-01 4.710903e-01 6.320912e-01 1.214213e+00 1.562761e-01 -2.102798e-01 -7.725218e-02 4.899792e-02 3.291003e-01 -3.773064e-01 -5.490417e-01 -1.366879e-01 2.886716e-03 8.136529e-02 2.549543e-01 -1.536956e-02 1.135561e-01
<VARIANCE> 39
 8.989702e+01 4.463830e+01 6.578437e+01 3.013846e+01 3.363337e+01 3.371362e+01 1.947977e+01 2.584315e+01 1.694250e+01 1.323064e+01 2.142153e+01 1.222321e+01 4.256594e+01 5.366409e+00 2.981729e+00 8.941639e+00 2.070322e+00 5.950162e+00 4.151776e+00 4.090364e+00 3.503669e+00 2.327533e+00 1.598395e+00 1.874234e+00 1.466049e+00 5.046984e+00 1.766625e+00 6.951013e-01 2.268236e+00 4.528560e-01 1.019831e+00 6.944727e-01 5.223827e-01 5.102288e-01 6.000030e-01 3.732591e-01 3.700274e-01 3.696930e-01 1.319582e+00
<GCONST> 1.264132e+02
<STATE> 3
<MEAN> 39
 -1.614573e+01 -1.487006e+01 1.023514e+01 3.479185e+00 -9.821912e-01 -3.730570e+00 -6.648986e+00 -4.724798e+00 -1.043178e+00 -8.761496e-02 2.027340e+00 -1.318345e+00 7.858450e+01 3.171916e+00 1.110632e+00 -1.744539e+00 -5.937722e-02 1.002577e+00 1.229348e-02 -8.231187e-01 -1.297188e+00 -1.621106e+00 -4.199107e-03 -3.620221e-02 3.080733e-01 -1.475213e+00 9.223848e-01 9.129583e-01 5.231966e-02 -2.414993e-01 -3.872079e-01 -1.673889e-01 -2.847125e-01 -7.530457e-01 -1.170966e+00 -4.996580e-01 -1.477961e-01 -6.553271e-01 -1.245632e-01
<VARIANCE> 39
 6.012744e+01 2.691215e+01 1.315532e+01 3.891276e+00 8.964225e+00 3.358715e+01 1.231033e+01 3.188210e+01 3.429510e+01 9.278239e+00 2.342574e+01 1.096601e+01 2.144557e+01 3.491706e+00 3.388282e+00 2.042666e+00 6.736155e-01 1.233051e+00 2.444839e+00 2.487173e+00 6.658517e+00 7.055848e+00 2.627725e+00 2.118153e+00 2.787975e+00 3.760421e-01 4.997376e-01 3.446590e-01 2.648854e-01 2.881810e-01 1.811980e-01 6.895601e-01 2.888634e-01 3.949799e-01 9.148695e-01 4.251178e-01 3.167937e-01 3.030117e-01 2.553276e-01
<GCONST> 1.062415e+02
<STATE> 4
<MEAN> 39
 -1.117453e+00 -3.376885e+00 1.858218e+00 3.617791e+00 -3.534393e+00 5.905310e-01 -4.325044e+00 -5.026317e+00 -9.111205e+00 -1.602115e+00 4.488002e-01 -3.800642e+00 6.987624e+01 2.659890e-01 6.580347e-01 1.427149e-02 -7.228318e-01 -4.389766e-01 -1.254517e+00 -3.061131e-01 -1.862295e+00 -7.198731e-01 -5.068440e-01 7.066643e-01 -6.850538e-01 5.011991e-01 -1.086931e+00 -6.901424e-01 1.001997e+00 -4.644275e-01 -3.049651e-02 -5.817759e-01 -1.698518e-01 -2.991378e-02 4.138379e-01 1.377343e-01 2.899466e-01 1.457286e-02 8.257149e-01
<VARIANCE> 39
 1.138131e+01 1.194868e+01 5.785599e+01 9.725777e+00 2.267614e+01 6.145837e+01 6.409985e+01 1.091048e+02 2.331290e+01 2.865531e+01 1.476516e+01 5.037035e+00 3.247380e+01 1.478158e+01 7.009998e+00 1.036259e+01 2.250837e+00 1.342091e+00 3.411881e+00 6.834387e+00 4.442312e+00 8.734539e+00 2.746588e+00 1.999026e+00 9.329213e-01 3.917694e+00 2.650993e-01 2.874556e-01 1.164718e+00 4.473487e-01 3.637702e-01 7.121777e-01 3.502348e-01 1.285234e+00 6.077304e-01 8.531098e-01 3.198034e-01 2.181888e-01 2.785930e-01
<GCONST> 1.212276e+02
<TRANSP> 5
 0.000000e+00 1.000000e+00 0.000000e+00 0.000000e+00 0.000000e+00
 0.000000e+00 8.078721e-01 1.921279e-01 0.000000e+00 0.000000e+00
 0.000000e+00 0.000000e+00 6.374445e-01 3.625555e-01 0.000000e+00
 0.000000e+00 0.000000e+00 0.000000e+00 6.502618e-01 3.497382e-01
 0.000000e+00 0.000000e+00 0.000000e+00 0.000000e+00 0.000000e+00
<ENDHMM>
~h "dh"
<BEGINHMM>
<NUMSTATES> 5
<STATE> 2
<MEAN> 39
 1.226191e+00 5.367043e+00 -1.114336e+00 -2.265803e+00 1.043640e+00 6.604522e+00 -7.986849e+00 1.442906e-01 -7.270719e+00 -2.216146e+00 -1.228431e-01 -2.394517e+00 6.649330e+01 4.933621e-01 7.767392e-01 -2.552237e-01 1.078745e+00 1.827069e-01 1.040565e+00 7.972805e-01 1.058044e+00 3.276263e-01 -2.694032e-01 -7.942991e-01 -4.830317e-01 -8.253692e-01 -2.616576e-01 -3.235575e-01 4.667954e-01 -1.384270e-01 -1.160604e-01 -4.215855e-01 -1.829107e-01 -5.780556e-01 -2.537442e-01 -1.586546e-01 3.242975e-01 -1.160783e-01 5.267893e-01
<VARIANCE> 39
 2.454702e+01 1.129802e+01 8.905829e+01 3.329872e+01 3.461174e+01 2.131211e+01 4.728283e+01 3.521402e+01 5.967696e+01 2.900357e+01 1.188903e+01 2.018287e+01 2.041189e+01 1.241449e+00 1.276808e+00 3.923714e+00 1.783588e+00 2.155594e+00 2.086555e+00 4.348229e+00 4.430755e+00 4.144924e+00 2.690984e+00 1.449896e+00 1.948821e+00 1.616307e+00 2.235516e-01 2.472600e-01 5.296353e-01 3.771193e-01 4.257397e-01 5.737436e-01 5.738661e-01 6.654227e-01 5.601327e-01 3.793473e-01 3.580961e-01 3.668050e-01 1.626491e-01
<GCONST> 1.137968e+02
<STATE> 3
<MEAN> 39
 2.625017e+00 7.258534e+00 -1.580833e+00 6.537548e-01 1.558057e+00 8.248867e+00 -6.893013e+00 1.590863e+00 -7.282586e+00 -3.178811e+00 -1.794290e+00 -4.888893e+00 6.508216e+01 -8.266442e-01 -4.811099e-01 1.299908e+00 1.490911e-01 5.846605e-02 -1.031658e-01 2.148625e-01 -7.723135e-01 1.552632e-01 -5.004426e-01 6.984791e-02 -3.569925e-01 8.018472e-01 -5.262085e-01 -7.576959e-01 8.788464e-01 -6.617860e-01 -2.360276e-01 -9.252687e-01 -8.433740e-01 -1.348441e+00 -4.611436e-01 -5.038729e-02 4.468370e-01 2.642421e-01 9.707149e-01
<VARIANCE> 39
 1.541245e+01 9.234544e+00 3.340659e+01 3.445045e+01 1.641555e+01 1.597112e+01 3.034311e+01 2.282612e+01 2.729302e+01 1.997565e+01 1.780294e+01 2.093072e+01 6.929089e+00 1.693783e+00 2.164633e+00 6.007862e+00 2.407883e+00 2.452337e+00 2.570637e+00 4.336842e+00 3.616318e+00 4.222010e+00 2.327666e+00 1.643288e+00 2.754879e+00 1.528368e+00 2.371605e-01 2.673911e-01 5.059749e-01 3.269058e-01 3.951116e-01 5.099369e-01 8.972064e-01 8.330911e-01 7.600405e-01 5.487616e-01 2.991374e-01 4.447833e-01 2.014148e-01
<GCONST> 1.117904e+02
<STATE> 4
<MEAN> 39
 -2.594943e+00 2.806563e+00 4.580180e+00 -2.069853e+00 5.505548e-01 5.007083e+00 -7.219786e+00 -4.778685e+00 -6.198465e+00 -3.948828e+00 -2.471039e-01 -3.429490e+00 7.026529e+01 -9.878256e-01 -1.765375e+00 2.798475e+00 -1.037978e+00 -3.374059e-01 -2.319703e+00 -2.547512e+00 -4.034027e+00 -1.796839e+00 -4.138911e-01 1.001432e+00 2.169838e-01 2.728085e+00 5.432114e-01 -6.560773e-02 -1.590152e-01 -1.076479e-01 -6.131954e-02 -5.207891e-01 -8.279024e-01 -4.357417e-01 -8.542114e-01 1.823325e-01 3.003564e-01 5.790448e-02 1.971690e-01
<VARIANCE> 39
 2.795849e+01 2.409368e+01 4.331756e+01 4.271399e+01 2.464758e+01 5.049636e+01 8.026678e+01 5.065367e+01 4.272882e+01 1.941750e+01 1.826717e+01 2.030530e+01 1.974156e+01 2.493087e+00 2.080387e+00 3.897753e+00 3.354851e+00 2.472881e+00 4.218533e+00 6.927418e+00 5.083101e+00 3.691681e+00 3.110893e+00 1.948212e+00 2.643986e+00 1.348120e+00 4.609986e-01 4.998651e-01 9.852925e-01 7.171648e-01 5.075330e-01 9.387754e-01 1.119001e+00 1.510828e+00 7.948304e-01 5.966640e-01 4.237059e-01 4.781454e-01 4.177965e-01
<GCONST> 1.260251e+02
<TRANSP> 5
 0.000000e+00 1.000000e+00 0.000000e+00 0.000000e+00 0.000000e+00
 0.000000e+00 2.704090e-01 7.295909e-01 0.000000e+00 0.000000e+00
 0.000000e+00 0.000000e+00 3.962922e-01 6.037077e-01 0.000000e+00
 0.000000e+00 0.000000e+00 0.000000e+00 5.030056e-01 4.969943e-01
 0.000000e+00 0.000000e+00 0.000000e+00 0.000000e+00 0.000000e+00
<ENDHMM>
~h "ea"
<BEGINHMM>
<NUMSTATES> 5
<STATE> 2
<MEAN> 39
 7.316487e-01 -1.767746e+00 5.843717e+00 -5.506356e+00 2.562676e+00 -2.716616e+00 -2.308427e+01 -1.593736e+01 -1.860418e+01 6.307544e-01 9.086461e+00 -4.699599e+00 7.770642e+01 5.508196e-01 -5.006087e-01 -1.296584e+00 6.705793e-01 4.427393e-02 -1.750820e+00 -2.062400e-01 -5.640180e-01 -2.756681e-01 1.444785e+00 1.147158e+00 -5.164648e-01 6.117879e-01 -1.380198e-02 4.911087e-01 -7.416149e-01 1.988194e-01 -1.285023e-02 2.629701e-01 1.293524e+00 7.893933e-01 5.485631e-01 9.737282e-02 -4.529366e-01 -3.087950e-02 -6.318122e-01
<VARIANCE> 39
 1.133483e+01 2.505821e+01 4.054566e+01 1.759053e+01 6.164645e+01 2.302191e+01 3.994345e+01 2.148120e+01 2.488903e+01 2.691639e+01 1.622905e+01 1.897033e+01 1.216151e+01 1.165530e+00 1.615128e+00 1.663431e+00 1.689519e+00 1.836358e+00 1.621237e+00 6.121901e+00 2.947877e+00 2.863751e+00 1.140887e+00 4.583728e+00 9.751875e-01 1.478288e+00 2.513947e-01 3.368529e-01 4.962529e-01 2.931349e-01 5.345970e-01 3.834853e-01 9.341018e-01 6.977862e-01 5.339827e-01 5.022005e-01 2.098742e-01 2.885795e-01 1.390833e-01
<GCONST> 1.088636e+02
<STATE> 3
<MEAN> 39
 1.602560e+00 -1.237278e+00 3.982050e-01 -3.490173e+00 2.255961e+00 -8.020636e+00 -1.809811e+01 -1.669973e+01 -1.830257e+01 4.399147e+00 1.092824e+01 -4.765953e+00 7.778889e+01 4.461998e-01 1.019669e+00 -1.845275e+00 -2.968448e-01 7.504979e-01 -1.135719e+00 1.687599e+00 -2.663795e-01 -7.036778e-01 8.912830e-01 -3.573731e-02 1.432357e-01 -4.613718e-01 -3.661358e-02 1.885966e-01 4.043742e-01 -5.694488e-01 -8.506161e-02 6.969004e-01 -1.774352e-01 4.896076e-01 -1.679516e-01 -6.054943e-01 -2.190674e-01 9.030127e-02 -1.742578e-01
<VARIANCE> 39
 5.672466e+00 1.397674e+01 1.746929e+01 9.498210e+00 3.806343e+01 1.920382e+01 4.152790e+01 2.795519e+01 1.144139e+01 9.603256e+00 1.532671e+01 2.096052e+01 1.131348e+01 3.749941e-01 5.738752e-01 1.095741e+00 2.006952e+00 1.330083e+00 1.237209e+00 3.116817e+00 2.046613e+00 2.133384e+00 2.188138e+00 1.634384e+00 4.890376e-01 2.535594e-01 1.121186e-01 6.946688e-02 1.679767e-01 1.238838e-01 3.377734e-01 1.070052e-01 6.395445e-01 5.188658e-01 2.831559e-01 1.033813e-01 1.532115e-01 1.724649e-01 1.863513e-02
<GCONST> 8.496010e+01
<STATE> 4
<MEAN> 39
 3.887372e+00 4.180069e+00 -2.050654e+00 -9.217626e+00 3.491641e+00 -5.577499e+00 -1.670009e+01 -1.172318e+01 -2.133959e+01 1.795472e+00 1.049539e+01 -4.505495e+00 7.432466e+01 4.160075e-01 7.535244e-01 -2.720056e-01 -3.581963e-01 -1.298668e-01 8.089088e-01 1.521381e-02 1.035413e+00 1.726604e-01 -1.295777e+00 -4.872328e-01 1.950677e-01 -6.424124e-01 -6.229283e-02 -1.746561e-01 2.006254e-01 4.234561e-01 -1.807196e-01 1.122646e-01 -2.638347e-02 2.586818e-02 4.195666e-01 -1.431832e-01 -3.130189e-01 -5.551032e-02 -2.315498e-02
<VARIANCE> 39
 7.635922e+00 9.973204e+00 1.886128e+01 1.453700e+01 2.204232e+01 2.316127e+01 2.353604e+01 3.676006e+01 1.666777e+01 3.597248e+01 1.122129e+01 1.264868e+01 8.587885e+00 9.084420e-02 8.173777e-01 6.197649e-01 2.908362e+00 1.574226e+00 7.797604e-01 1.773406e+00 1.866409e+00 1.820946e+00 2.025815e+00 1.816766e+00 1.162472e+00 1.686279e-01 2.449594e-02 2.801170e-01 1.865681e-01 2.470728e-01 9.185012e-02 2.156227e-01 2.423842e-01 2.423649e-01 2.396157e-01 6.016705e-01 1.102810e-01 2.227454e-01 2.917112e-02
<GCONST> 8.379483e+01
<TRANSP> 5
 0.000000e+00 1.000000e+00 0.000000e+00 0.000000e+00 0.000000e+00
 0.000000e+00 6.543715e-01 3.456286e-01 0.000000e+00 0.000000e+00
 0.000000e+00 0.000000e+00 4.685651e-01 5.314349e-01 0.000000e+00
 0.000000e+00 0.000000e+00 0.000000e+00 8.171014e-01 1.828986e-01
 0.000000e+00 0.000000e+00 0.000000e+00 0.000000e+00 0.000000e+00
<ENDHMM>
~h "eh"
<BEGINHMM>
<NUMSTATES> 5
<STATE> 2
<MEAN> 39
 -1.317086e+00 -3.377792e+00 6.382594e+00 -6.621196e+00 9.073948e-01 -5.514524e+00 -1.602492e+01 -9.118549e+00 -1.345083e+01 -1.666510e-01 5.399619e+00 -6.516424e+00 7.705302e+01 9.757864e-01 -6.059915e-01 2.547058e-01 -1.616681e+00 -9.269197e-02 -1.598078e+00 -2.065207e+00 -2.470210e-01 -1.055835e+00 1.386055e+00 1.373005e+00 -8.998550e-01 1.128105e+00 -2.447119e-01 3.137116e-02 -2.261654e-01 1.541042e-02 -9.364460e-02 6.384053e-01 5.077258e-01 8.214720e-01 7.271540e-01 1.620840e-01 -1.648394e-01 1.684424e-01 -2.425522e-01
<VARIANCE> 39
 1.052374e+01 1.605863e+01 2.183128e+01 3.925702e+01 3.037752e+01 2.924367e+01 6.827695e+01 6.490932e+01 2.275603e+01 4.012415e+01 5.774144e+01 2.956931e+01 1.592970e+01 3.752549e+00 3.355886e+00 2.759521e+00 3.081489e+00 2.458067e+00 3.989153e+00 5.467063e+00 3.090711e+00 4.950047e+00 4.599496e+00 2.748835e+00 1.780910e+00 1.279760e+00 6.793606e-01 5.238643e-01 3.638683e-01 4.378834e-01 4.643103e-01 8.367927e-01 1.093906e+00 7.884149e-01 5.873206e-01 6.795326e-01 6.431264e-01 2.990907e-01 2.991084e-01
<GCONST> 1.227811e+02
<STATE> 3
<MEAN> 39
 4.287621e-01 -7.127758e+00 6.266070e+00 -1.151798e+01 -1.131131e-01 -6.344476e+00 -1.835060e+01 -4.891778e+00 -1.249582e+01 6.207038e+00 9.860702e+00 -7.112102e+00 7.975513e+01 8.209211e-02 -8.236440e-02 -8.244435e-02 -9.860637e-02 5.298923e-02 -3.440680e-02 2.038996e-01 4.975617e-01 1.220477e-01 5.530412e-02 -1.346374e-01 -2.674110e-02 -6.747092e-02 -5.909340e-02 3.029337e-01 1.323941e-02 3.293122e-01 4.854359e-02 2.401839e-01 1.924124e-01 -1.649990e-02 1.777910e-02 -3.846774e-01 -3.184203e-01 1.089129e-01 -2.640720e-01
<VARIANCE> 39
 2.961854e+00 1.347463e+01 1.397952e+01 1.554940e+01 2.110960e+01 1.347549e+01 3.392281e+01 4.031858e+01 1.569649e+01 2.978545e+01 2.614023e+01 1.766665e+01 3.725391e+00 2.461402e-01 7.808028e-01 7.541351e-01 1.243487e+00 1.161070e+00 9.182752e-01 1.385436e+00 2.077169e+00 1.145958e+00 1.704000e+00 1.132745e+00 7.521151e-01 1.822974e-01 1.020245e-01 1.768675e-01 9.889749e-02 1.725017e-01 2.038283e-01 2.790327e-01 3.813850e-01 3.232346e-01 2.725633e-01 2.344695e-01 2.729155e-01 1.702510e-01 6.423116e-02
<GCONST> 8.381836e+01
<STATE> 4
<MEAN> 39
 8.147843e-01 -3.493288e+00 6.299562e+00 -8.695794e+00 -5.676528e-01 -5.848551e+00 -1.756213e+01 -5.467385e+00 -1.336469e+01 2.360825e+00 6.857130e+00 -5.898036e+00 7.695389e+01 3.229807e-01 1.238182e+00 -3.554784e-01 1.230016e+00 -2.018177e-01 1.511651e+00 1.225977e+00 1.251679e+00 3.834060e-01 -5.829958e-01 -1.529028e+00 2.744190e-01 -1.581081e+00 -1.188493e-01 8.483931e-02 -1.484331e-01 1.868080e-01 -1.227036e-01 3.840073e-01 3.903870e-01 2.981601e-01 4.076708e-01 -8.516364e-02 -1.585245e-01 3.326749e-02 -2.500640e-01
<VARIANCE> 39
 5.350700e+00 1.343468e+01 1.121274e+01 3.326115e+01 3.455824e+01 2.273141e+01 4.073109e+01 3.529853e+01 2.364863e+01 3.409032e+01 2.972104e+01 2.132706e+01 1.056768e+01 4.606036e-01 9.542350e-01 1.378004e+00 1.917579e+00 2.749299e+00 2.395819e+00 3.772668e+00 3.052199e+00 2.095522e+00 1.668466e+00 2.481565e+00 1.431083e+00 1.007602e+00 2.059867e-01 1.923506e-01 2.944542e-01 3.538376e-01 5.190911e-01 5.679944e-01 7.789251e-01 4.822468e-01 3.587336e-01 4.511054e-01 4.493144e-01 1.932631e-01 1.857943e-01
<GCONST> 1.046794e+02
<TRANSP> 5
 0.000000e+00 1.000000e+00 0.000000e+00 0.000000e+00 0.000000e+00
 0.000000e+00 5.814075e-01 4.185925e-01 0.000000e+00 0.000000e+00
 0.000000e+00 0.000000e+00 8.105939e-01 1.894061e-01 0.000000e+00
 0.000000e+00 0.000000e+00 0.000000e+00 5.238158e-01 4.761842e-01
