~o
<STREAMINFO> 1 39
<VECSIZE> 39<NULLD><MFCC_D_A_0><DIAGC>
~s "silst"
<MEAN> 39
 7.555260e-01 3.552637e+00 -1.162403e+01 -4.300342e+00 -2.567250e+00 6.769872e+00 -3.215620e+00 3.211130e+00 -2.138994e+00 5.083424e-01 -1.302441e+00 -2.600174e-01 6.328946e+01 7.756383e-02 2.388404e-02 1.383741e-01 1.844370e-01 1.754136e-01 1.239628e-01 1.895535e-01 1.933831e-01 7.705759e-02 9.538723e-02 1.244301e-02 7.191054e-03 5.562120e-02 8.537445e-02 4.749099e-02 -1.805625e-01 6.176336e-02 -6.862423e-02 -5.776795e-04 2.879888e-02 3.297531e-02 -1.256572e-02 7.963833e-02 -7.096664e-03 4.496974e-02 -8.162222e-02
<VARIANCE> 39
 1.126085e+01 1.493526e+01 3.023146e+01 2.360767e+01 2.407075e+01 1.735207e+01 1.935430e+01 1.946767e+01 2.064320e+01 2.015526e+01 1.569168e+01 1.669051e+01 5.973051e+00 1.244598e+00 9.575143e-01 3.487969e+00 2.025771e+00 1.966272e+00 1.514913e+00 1.528790e+00 1.827788e+00 1.881000e+00 1.831545e+00 1.517076e+00 1.448039e+00 7.189894e-01 2.306388e-01 1.764795e-01 5.958347e-01 3.914757e-01 3.666837e-01 3.034158e-01 3.260362e-01 3.878837e-01 3.468990e-01 3.385186e-01 3.071710e-01 3.053249e-01 1.244672e-01
<GCONST> 9.915587e+01
~h "b"
<BEGINHMM>
<NUMSTATES> 5
<STATE> 2
<MEAN> 39
 7.257501e+00 8.770812e+00 -7.091032e+00 9.423463e-01 -1.077167e+00 8.136690e+00 -5.191764e+00 1.510050e+00 -9.298123e+00 -1.479572e+00 -6.400172e-01 -5.537525e+00 6.498921e+01 -2.844256e-01 2.344609e-01 -4.101782e-01 3.568236e-01 2.025447e-01 3.409655e-01 6.944376e-01 4.173884e-01 1.289393e+00 1.777183e-01 -6.051592e-01 4.234110e-01 -4.181695e-01 -2.155668e-01 -3.545952e-01 5.571279e-01 -8.006915e-01 -2.365860e-01 -7.186664e-01 -7.222398e-01 -1.897125e-01 -3.840889e-01 -3.698648e-01 3.448291e-01 -1.139808e-01 5.682553e-01
<VARIANCE> 39
 1.815707e+00 1.032261e+01 1.523578e+01 1.568705e+01 1.297276e+01 1.303511e+01 2.036152e+01 2.374238e+01 3.103794e+01 1.460219e+01 1.638960e+01 2.666750e+01 4.766909e+00 8.337911e-01 1.196521e+00 2.272471e+00 2.744798e+00 1.134408e+00 2.379297e+00 3.006062e+00 2.071712e+00 2.300004e+00 1.775749e+00 1.217559e+00 1.269367e+00 1.432346e+00 8.139821e-02 1.172617e-01 3.032610e-01 2.876841e-01 2.807538e-01 4.603812e-01 5.246287e-01 3.667263e-01 3.689003e-01 4.075396e-01 2.281556e-01 3.327392e-01 1.273843e-01
<GCONST> 9.468755e+01
<STATE> 3
<MEAN> 39
 3.413372e+00 5.878109e+00 -6.850314e-01 -7.325708e+00 -3.039749e+00 1.975222e+00 -1.206784e+01 1.173361e+00 -1.001059e+01 -8.199485e+00 1.689088e+00 -4.506333e+00 7.017403e+01 1.601632e-02 -1.030419e+00 2.243369e+00 -3.798398e+00 -1.868566e+00 -3.694184e+00 -3.619849e+00 -1.259898e-01 -1.765082e+00 -2.363916e+00 1.702308e+00 -4.851813e-01 2.421234e+00 4.191669e-01 1.538762e-01 -2.806462e-01 -9.200156e-02 -1.252950e-01 -1.342062e-01 1.100249e-01 5.392189e-02 -1.090482e-01 3.491854e-01 1.939212e-01 -4.357105e-02 -3.390131e-02
<VARIANCE> 39
 1.984134e+01 1.695001e+01 2.423457e+01 4.314646e+01 3.540741e+01 6.132847e+01 5.441128e+01 1.670999e+01 3.933429e+01 3.088419e+01 2.585386e+01 2.509794e+01 1.392256e+01 1.640315e+00 2.554290e+00 2.557474e+00 2.170477e+00 3.879611e+00 3.648751e+00 3.715723e+00 2.212299e+00 3.175122e+00 2.494986e+00 2.274297e+00 1.571324e+00 8.940373e-01 3.398020e-01 4.279191e-01 5.144340e-01 9.801102e-01 6.474072e-01 1.055359e+00 1.275484e+00 2.437296e-01 6.905370e-01 6.064223e-01 4.301232e-01 2.507944e-01 3.775731e-01
<GCONST> 1.180555e+02
<STATE> 4
<MEAN> 39
 5.970819e+00 3.637078e+00 2.461140e+00 -1.542824e+01 -8.249286e+00 -6.569520e+00 -1.651496e+01 1.377009e+00 -1.207859e+01 -8.585415e+00 7.506813e+00 -5.268957e+00 7.519620e+01 -8.913919e-02 -4.247163e-01 3.375489e-01 -8.837482e-02 -1.380802e-01 -4.211473e-02 4.130919e-01 -5.999032e-01 -2.392951e-01 3.562193e-01 -1.086871e-01 3.141210e-01 3.001930e-01 -2.939107e-02 1.077729e-01 -1.533014e-01 4.242465e-01 2.216333e-01 4.360650e-01 2.666540e-01 -1.448080e-01 2.819258e-02 1.848535e-01 -2.274114e-01 4.754933e-02 -2.551766e-01
<VARIANCE> 39
 2.624572e+00 2.137301e+01 1.698979e+01 1.996059e+01 3.949992e+01 3.287138e+01 3.113686e+01 3.637740e+01 6.530981e+01 2.914864e+01 3.053033e+01 2.945046e+01 4.581318e+00 3.406547e-01 9.946973e-01 9.521474e-01 2.145563e+00 1.616959e+00 2.042519e+00 1.879948e+00 2.180297e+00 1.706584e+00 1.136417e+00 1.842358e+00 1.555421e+00 5.905806e-01 2.847351e-02 1.501873e-01 1.611566e-01 2.571712e-01 2.502743e-01 4.684962e-01 4.781858e-01 3.220744e-01 2.993803e-01 2.392002e-01 2.740624e-01 2.632761e-01 7.983882e-02
<GCONST> 9.458756e+01
<TRANSP> 5
 0.000000e+00 1.000000e+00 0.000000e+00 0.000000e+00 0.000000e+00
 0.000000e+00 8.388333e-01 1.611667e-01 0.000000e+00 0.000000e+00
 0.000000e+00 0.000000e+00 6.693015e-01 3.306985e-01 0.000000e+00
 0.000000e+00 0.000000e+00 0.000000e+00 8.482776e-01 1.517224e-01
 0.000000e+00 0.000000e+00 0.000000e+00 0.000000e+00 0.000000e+00
<ENDHMM>
~h "d"
<BEGINHMM>
<NUMSTATES> 5
<STATE> 2
<MEAN> 39
 -2.572152e+00 1.690879e-01 3.271203e+00 -6.702257e+00 -3.828948e-01 3.066246e+00 -9.857056e+00 -2.229054e+00 -7.320798e+00 -2.977481e+00 6.282412e-01 -3.312729e+00 7.176149e+01 -1.181072e-01 -3.294871e-01 6.519709e-01 -2.286784e-01 -1.015302e-01 -1.979182e-01 -4.718164e-01 -6.405548e-01 -2.870564e-01 -2.687620e-01 1.510099e-01 1.942279e-01 2.991503e-01 3.948635e-01 1.465457e-01 -2.324174e-01 1.260437e-01 -6.474072e-02 -4.192523e-02 -1.941029e-01 -1.641819e-02 -2.766711e-01 1.473353e-01 1.352200e-01 -1.948801e-02 -9.783565e-02
<VARIANCE> 39
 4.856794e+01 3.594457e+01 8.079784e+01 4.145596e+01 2.856759e+01 4.238105e+01 6.075933e+01 5.031099e+01 5.840925e+01 3.674646e+01 2.335975e+01 2.575867e+01 2.526750e+01 5.662001e+00 3.352442e+00 6.543145e+00 4.430873e+00 2.827893e+00 4.762122e+00 7.366656e+00 6.087327e+00 5.302870e+00 3.047139e+00 2.676382e+00 1.684001e+00 3.676330e+00 1.305109e+00 8.174151e-01 1.412897e+00 7.401242e-01 5.215560e-01 7.080102e-01 9.069194e-01 1.115778e+00 8.854138e-01 6.587613e-01 6.167641e-01 3.594962e-01 7.772421e-01
<GCONST> 1.348151e+02
<STATE> 3
<MEAN> 39
 1.248815e+00 -1.327443e+00 8.390860e+00 -8.098880e+00 -5.284190e-01 -1.593378e+00 -1.808039e+01 -8.450989e+00 -1.607407e+01 -3.021477e+00 4.605325e+00 -4.661617e+00 7.561275e+01 1.144489e+00 3.588060e-01 -9.684502e-01 4.325132e-01 3.873629e-02 2.080353e-01 -2.719849e-01 5.964375e-01 -5.470221e-01 4.917226e-01 7.060422e-01 -9.173732e-02 -5.085680e-01 -2.455309e-01 6.716772e-02 -4.883309e-01 1.467547e-01 -2.198822e-02 4.632652e-01 8.048413e-01 6.962337e-01 6.845178e-01 1.477368e-01 -2.633906e-01 2.060525e-02 -3.078985e-01
<VARIANCE> 39
 6.572774e+00 1.631709e+01 4.920157e+01 2.530923e+01 2.197033e+01 3.140381e+01 4.980156e+01 3.571733e+01 3.387888e+01 3.347308e+01 3.253205e+01 2.614550e+01 6.667845e+00 2.137440e+00 2.191366e+00 2.558559e+00 3.058529e+00 1.701934e+00 4.043307e+00 6.128206e+00 4.655315e+00 3.692831e+00 2.447383e+00 4.137273e+00 1.543464e+00 1.499515e+00 2.180492e-01 3.006016e-01 3.360473e-01 2.870842e-01 2.854434e-01 3.879917e-01 5.535238e-01 6.600714e-01 3.963778e-01 3.496998e-01 5.944467e-01 2.665747e-01 1.262636e-01
<GCONST> 1.123599e+02
<STATE> 4
<MEAN> 39
 2.844803e+00 7.648931e-01 -8.410352e-01 -4.753768e+00 -1.194032e+00 3.841325e+00 -1.226758e+01 -2.264233e+00 -1.195829e+01 -2.006515e+00 1.328966e+00 -3.705281e+00 6.983542e+01 2.576491e-01 8.265989e-01 -1.642341e+00 5.540393e-01 -1.725403e-01 9.743767e-01 1.510776e+00 1.064214e+00 9.880477e-01 3.357066e-01 -4.599391e-01 3.528658e-01 -1.054496e+00 -4.128882e-01 -1.591352e-01 3.110833e-01 -3.991418e-01 9.492925e-02 -4.212824e-01 -3.730151e-02 -3.087425e-01 5.760300e-02 -1.065617e-01 5.756244e-02 4.068324e-02 3.480616e-01
<VARIANCE> 39
 1.002877e+01 1.748656e+01 7.182198e+01 2.276199e+01 1.932197e+01 5.089172e+01 5.479204e+01 4.690419e+01 5.584456e+01 3.494325e+01 3.344794e+01 2.763504e+01 2.310060e+01 1.064645e+00 1.380431e+00 3.353754e+00 2.542288e+00 2.160562e+00 3.878294e+00 3.979778e+00 3.831515e+00 3.364069e+00 3.148646e+00 2.169643e+00 1.818369e+00 1.481985e+00 3.971915e-01 4.206083e-01 7.258123e-01 3.314256e-01 2.900276e-01 4.533004e-01 4.779090e-01 6.927145e-01 4.742114e-01 5.439656e-01 4.870608e-01 3.011240e-01 3.317704e-01
<GCONST> 1.173091e+02
<TRANSP> 5
 0.000000e+00 1.000000e+00 0.000000e+00 0.000000e+00 0.000000e+00
 0.000000e+00 6.794101e-01 3.205900e-01 0.000000e+00 0.000000e+00
 0.000000e+00 0.000000e+00 5.874686e-01 4.125314e-01 0.000000e+00
 0.000000e+00 0.000000e+00 0.000000e+00 4.728716e-01 5.271283e-01
 0.000000e+00 0.000000e+00 0.000000e+00 0.000000e+00 0.000000e+00
<ENDHMM>
~h "f"
<BEGINHMM>
<NUMSTATES> 5
<STATE> 2
<MEAN> 39
 -1.223066e+01 -3.903851e+00 6.703717e+00 -1.131087e+01 -1.540285e+00 5.428336e+00 -4.689887e+00 -1.340182e+00 -2.699464e+00 1.128423e+00 2.281941e+00 -2.334805e+00 7.469789e+01 -7.820602e-01 -4.666660e-01 5.373762e-01 -2.925032e-01 -1.836916e-02 1.556494e-03 -1.675459e-01 -6.833673e-01 3.221457e-01 -3.651364e-01 -2.673125e-01 -1.238577e-02 2.916184e-01 4.470710e-01 1.500743e-01 -8.587125e-02 3.737209e-02 -1.128187e-02 -5.534585e-02 -2.022910e-01 -8.937304e-02 -2.005395e-01 -9.540000e-02 6.664758e-02 -3.609984e-02 -1.113111e-01
<VARIANCE> 39
 7.261694e+01 1.647324e+01 3.162265e+01 3.811733e+01 1.327787e+01 1.550930e+01 2.963873e+01 2.694626e+01 5.260433e+01 9.033988e+00 1.716213e+01 1.021115e+01 1.683939e+01 1.297723e+01 1.622276e+00 5.165866e+00 2.599221e+00 1.735423e+00 1.682281e+00 4.363299e+00 2.298367e+00 5.672637e+00 6.079208e-01 2.015844e+00 3.366363e-01 3.943483e+00 2.499295e+00 3.227279e-01 1.152975e+00 5.620846e-01 3.197661e-01 3.317133e-01 9.936780e-01 4.031754e-01 1.261914e+00 1.566363e-01 6.437275e-01 1.041028e-01 9.201403e-01
<GCONST> 1.150519e+02
<STATE> 3
<MEAN> 39
 -6.205972e+00 -6.008395e-01 2.772088e+00 -8.780847e+00 2.705052e+00 2.789520e+00 -9.340301e+00 -1.018259e+01 -1.208811e+01 -1.342292e+00 -5.107480e-01 -5.945935e+00 7.518601e+01 -2.038065e+00 7.524913e-01 -3.600883e-01 -1.628850e-01 2.507830e-01 2.991807e-01 1.690269e+00 5.880465e-01 1.995233e+00 -1.383149e+00 4.963183e-01 4.975376e-01 2.614044e-01 -2.656644e-01 -1.497043e-01 -7.835442e-02 -7.219484e-02 -2.988567e-01 -1.191392e-01 -1.896865e-01 2.724485e-01 3.876223e-03 3.352602e-01 3.151636e-01 -7.498726e-03 6.139271e-02
<VARIANCE> 39
 4.146927e+01 1.175497e+01 2.614120e+01 4.491647e+01 1.020184e+01 1.348887e+01 4.157705e+01 1.363165e+01 4.799992e+01 2.047828e+01 5.572729e+00 8.343068e+00 8.718957e+00 7.828496e+00 9.028020e-01 1.728272e+00 1.826212e+00 2.420465e+00 2.189801e+00 7.200644e+00 2.400462e+00 7.760049e+00 1.586687e+00 1.141180e+00 1.410904e+00 2.678393e-01 6.832021e-01 1.089130e-01 2.122079e-01 2.468564e-01 4.611744e-01 5.091958e-01 9.878736e-01 3.893592e-01 1.056637e+00 3.594883e-01 2.287695e-01 1.657850e-01 4.320992e-02
<GCONST> 1.030531e+02
<STATE> 4
<MEAN> 39
 -9.523244e+00 -1.592698e+00 5.545081e+00 -6.164422e+00 -1.288979e+00 9.372616e-01 -1.073071e+01 -3.601530e+00 -7.481653e+00 -5.107888e+00 2.216101e+00 -8.768594e+00 7.615080e+01 2.237614e-01 7.563443e-02 6.747936e-02 7.656124e-02 -1.907786e-01 -1.498756e-02 -1.146477e-01 1.014414e-01 -1.582567e-01 9.385128e-02 5.666889e-02 -9.966788e-02 -3.258007e-02 1.840076e-01 1.838612e-02 8.289225e-02 -5.373053e-02 -1.350090e-02 -7.647122e-03 -4.985797e-02 -9.017254e-03 -1.043682e-01 1.661120e-02 -4.029774e-02 -4.203920e-02 -3.940285e-02
<VARIANCE> 39
 4.567008e+01 1.507202e+01 5.179657e+01 2.571294e+01 8.515779e+00 1.517043e+01 6.774592e+01 1.508214e+01 4.312843e+01 1.348784e+01 1.026877e+01 3.017733e+01 4.239748e+00 3.250026e+00 6.828076e-01 2.488171e+00 8.426214e-01 7.026693e-01 1.128469e+00 5.540228e+00 1.579244e+00 2.913293e+00 9.222435e-01 1.300530e+00 1.559710e+00 2.942536e-01 6.035234e-01 1.039164e-01 3.178756e-01 1.015364e-01 1.479840e-01 2.011600e-01 9.941974e-01 3.679888e-01 5.689871e-01 1.858036e-01 2.252438e-01 3.380499e-01 4.443154e-02
<GCONST> 9.603143e+01
<TRANSP> 5
 0.000000e+00 1.000000e+00 0.000000e+00 0.000000e+00 0.000000e+00
 0.000000e+00 8.269652e-01 1.730348e-01 0.000000e+00 0.000000e+00
 0.000000e+00 0.000000e+00 6.481827e-01 3.518173e-01 0.000000e+00
 0.000000e+00 0.000000e+00 0.000000e+00 9.223840e-01 7.761599e-02
 0.000000e+00 0.000000e+00 0.000000e+00 0.000000e+00 0.000000e+00
<ENDHMM>
~h "g"
<BEGINHMM>
<NUMSTATES> 5
<STATE> 2
<MEAN> 39
 -1.608229e+00 1.074681e+00 3.000102e-01 -6.995151e+00 -1.494784e+00 3.265729e+00 -8.476502e+00 -4.904089e+00 -8.943160e+00 -7.860395e+00 -4.484894e+00 -5.298615e+00 7.282581e+01 -6.016579e-01 -7.393154e-01 1.038742e+00 -1.027580e+00 2.426866e-01 -2.475661e+00 -1.298767e+00 -2.760165e+00 -1.209516e+00 -6.217063e-01 1.357364e+00 1.084277e+00 1.793267e+00 8.603285e-01 4.031767e-01 -3.948207e-01 5.230958e-02 -2.649510e-01 -1.893904e-01 -5.627428e-01 -1.486329e-01 -5.668456e-01 3.070320e-01 5.688962e-01 4.345731e-02 -2.874509e-01
<VARIANCE> 39
 2.620460e+01 4.138521e+01 1.370507e+02 2.994453e+01 5.479096e+01 4.105797e+01 2.945620e+01 5.562728e+01 3.325052e+01 4.728322e+01 3.084419e+01 2.913276e+01 2.374952e+01 3.776308e+00 3.301214e+00 1.647395e+01 3.327842e+00 4.436791e+00 2.127930e+00 7.288142e+00 6.162209e+00 4.909958e+00 2.470879e+00 3.144908e+00 1.769240e+00 2.352372e+00 8.040462e-01 8.478139e-01 2.627728e+00 5.838034e-01 6.557456e-01 5.308098e-01 6.828713e-01 1.798661e+00 7.041665e-01 4.962557e-01 4.246980e-01 3.594360e-01 5.980377e-01
<GCONST> 1.328288e+02
<STATE> 3
<MEAN> 39
 3.151373e+00 8.131763e-01 3.887762e+00 -1.186071e+01 -4.908031e+00 -3.761703e+00 -1.727323e+01 -1.151376e+01 -1.595457e+01 -3.911628e+00 5.076271e+00 -2.246554e+00 7.630409e+01 1.693442e+00 8.833541e-01 -9.511588e-01 -2.023700e+00 -6.924241e-01 -1.231804e+00 -1.100790e+00 1.373351e+00 -8.760380e-01 1.272972e+00 2.063275e+00 -3.549317e-01 -8.332875e-02 -2.405919e-01 2.319461e-02 -3.757094e-01 -2.572304e-01 8.089870e-02 5.520815e-01 7.551432e-01 1.169439e+00 6.910006e-01 1.272772e-01 -2.929442e-01 -4.323245e-01 -2.418851e-01
<VARIANCE> 39
 3.526899e+00 1.663353e+01 6.491515e+01 3.114616e+01 3.619107e+01 3.741909e+01 3.247015e+01 3.546703e+01 3.321193e+01 3.687184e+01 4.422232e+01 2.140556e+01 7.419487e+00 8.802270e-01 8.239890e-01 4.301544e+00 1.071607e+00 1.546972e+00 2.159034e+00 4.487372e+00 4.791996e+00 2.264413e+00 1.749255e+00 2.000500e+00 1.643069e+00 1.343429e-01 1.709593e-01 1.834995e-01 7.563297e-01 1.727702e-01 3.006802e-01 2.141816e-01 5.462857e-01 1.164029e+00 2.966563e-01 6.129060e-01 6.933643e-01 2.428572e-01 1.182440e-01
<GCONST> 1.053148e+02
<STATE> 4
<MEAN> 39
 6.249888e+00 8.677651e-01 -2.087848e+00 -2.336276e+01 -4.007156e+00 -1.783564e+00 -1.597835e+01 2.051864e+00 -1.621967e+01 -1.415269e+00 9.079538e+00 -8.999577e+00 7.653919e+01 1.393916e-01 1.386466e-01 -4.149306e-01 1.713431e-01 2.297521e-01 3.545635e-01 4.033265e-01 2.309493e-01 -1.997978e-01 2.202279e-01 -2.432868e-01 -3.714634e-01 -3.051196e-01 -5.848277e-02 -1.900159e-02 -3.968978e-02 3.576017e-01 -2.370965e-02 5.274027e-02 1.041312e-01 -1.175514e-01 8.834217e-02 -1.996335e-03 -8.566907e-02 8.890766e-02 -8.344375e-02
<VARIANCE> 39
 1.929981e+00 2.090989e+01 2.998291e+01 2.831824e+01 3.446707e+01 2.123783e+01 2.139417e+01 5.166103e+01 2.985922e+01 1.879633e+01 1.798462e+01 2.868038e+01 4.608061e+00 1.255183e-01 6.013020e-01 6.631376e-01 3.482020e+00 1.752291e+00 7.854887e-01 1.634182e+00 4.570036e+00 2.632982e+00 1.116242e+00 1.507245e+00 1.337918e+00 5.339636e-01 4.226054e-02 1.078886e-01 1.706050e-01 1.431044e-01 2.986801e-01 1.564494e-01 2.925423e-01 6.303501e-01 5.121281e-01 1.997406e-01 2.509451e-01 2.082376e-01 7.793946e-02
<GCONST> 8.992094e+01
<TRANSP> 5
 0.000000e+00 1.000000e+00 0.000000e+00 0.000000e+00 0.000000e+00
 0.000000e+00 7.299665e-01 2.700335e-01 0.000000e+00 0.000000e+00
 0.000000e+00 0.000000e+00 6.737080e-01 3.262920e-01 0.000000e+00
 0.000000e+00 0.000000e+00 0.000000e+00 8.943954e-01 1.056046e-01
 0.000000e+00 0.000000e+00 0.000000e+00 0.000000e+00 0.000000e+00
<ENDHMM>
~h "k"
<BEGINHMM>
<NUMSTATES> 5
<STATE> 2
<MEAN> 39
 -3.307814e+00 -4.850285e+00 -4.328139e+00 -4.939181e+00 -2.922560e-01 -2.649285e-01 -7.832846e+00 -6.822762e+00 -9.414474e+00 1.299436e+00 4.121922e+00 -3.036354e+00 7.247451e+01 -2.124570e-01 -4.440336e-01 3.817419e-01 1.928417e-01 2.079546e-01 4.630120e-01 3.912561e-01 6.572168e-02 1.070147e-01 1.734003e-01 -1.386756e-01 -3.088974e-01 5.735042e-02 4.140440e-01 4.189544e-01 5.618638e-03 -1.857275e-03 -9.565035e-02 1.702646e-01 -1.827428e-01 3.468117e-01 -2.510705e-01 -1.325379e-01 -1.374189e-01 -1.969652e-01 -2.167578e-01
<VARIANCE> 39
 2.565691e+01 4.417956e+01 4.829172e+01 3.275448e+01 2.655831e+01 3.417328e+01 4.387479e+01 4.140337e+01 4.044826e+01 4.547266e+01 3.335240e+01 3.469113e+01 1.953396e+01 3.409526e+00 4.066847e+00 4.545738e+00 2.184634e+00 2.379840e+00 4.433201e+00 2.979148e+00 4.950984e+00 2.893013e+00 2.666931e+00 3.929999e+00 3.080697e+00 3.026276e+00 5.608984e-01 7.405702e-01 8.943962e-01 2.790737e-01 5.296752e-01 9.657594e-01 5.738928e-01 1.028317e+00 6.705699e-01 6.293982e-01 7.796355e-01 6.198539e-01 6.287153e-01
<GCONST> 1.280337e+02
<STATE> 3
<MEAN> 39
 8.844156e-02 -1.563071e+00 3.636942e-01 -7.586506e+00 -5.555065e-01 3.675938e+00 -9.433103e+00 -4.158859e+00 -1.064586e+01 8.687323e-02 2.083804e+00 -7.311814e+00 7.154716e+01 1.521508e+00 2.286152e+00 -3.201823e-02 5.581421e-02 -1.705357e-01 6.235617e-01 -7.621248e-01 1.269325e+00 -1.087340e+00 -1.095425e+00 7.415923e-02 -1.119804e+00 -5.851837e-01 -7.128533e-02 5.368020e-02 -8.553822e-02 -2.477479e-01 -3.170808e-01 -2.885617e-01 -2.006752e-01 1.256836e-01 9.737473e-02 -1.285829e-01 2.884242e-01 3.319696e-01 1.064238e-01
<VARIANCE> 39
 9.396004e+00 2.554018e+01 2.388081e+01 3.297230e+01 3.389482e+01 3.116520e+01 5.841386e+01 4.696903e+01 5.997897e+01 2.827411e+01 3.601846e+01 3.191688e+01 1.369509e+01 1.521092e+00 2.403966e+00 5.113549e+00 4.042209e+00 1.908394e+00 2.927656e+00 7.394584e+00 3.193300e+00 3.371018e+00 2.759378e+00 2.526045e+00 4.194777e+00 1.701029e+00 1.536879e-01 3.413757e-01 4.897408e-01 3.894843e-01 3.642106e-01 4.913801e-01 8.213251e-01 8.582680e-01 6.214221e-01 4.334601e-01 5.097172e-01 4.944145e-01 3.435647e-01
<GCONST> 1.197027e+02
<STATE> 4
<MEAN> 39
 3.173831e+00 3.357541e+00 -5.588744e+00 -4.012243e+00 -2.150247e+00 5.606484e+00 -9.140994e+00 -1.208714e+00 -1.068786e+01 -7.909827e-01 2.428177e+00 -6.056062e+00 6.719761e+01 8.692042e-03 4.366059e-01 -1.412321e+00 -1.816953e-01 -8.255627e-01 -1.873184e-01 9.232231e-01 7.753471e-01 4.167708e-01 -1.612703e-01 4.551493e-02 4.586454e-01 -4.584725e-01 -4.639207e-01 -3.989541e-01 3.540975e-01 -5.181218e-01 1.175567e-01 -4.764962e-01 -4.152683e-02 -3.107973e-01 -7.715970e-02 -5.714432e-02 2.656848e-01 1.750159e-01 5.298938e-01
<VARIANCE> 39
 5.232983e+00 1.375778e+01 5.202999e+01 2.349013e+01 2.281268e+01 2.141809e+01 3.444070e+01 3.313949e+01 4.560222e+01 2.050236e+01 2.486214e+01 2.911156e+01 1.802089e+01 1.795907e+00 1.844775e+00 3.169906e+00 3.317448e+00 1.841815e+00 4.660180e+00 5.380531e+00 4.772140e+00 3.976672e+00 2.359535e+00 3.351946e+00 2.449113e+00 3.007140e+00 2.449802e-01 2.014758e-01 6.248695e-01 3.158533e-01 4.876527e-01 3.801523e-01 7.803056e-01 7.975199e-01 6.453910e-01 4.374232e-01 4.460521e-01 4.417487e-01 4.040817e-01
<GCONST> 1.164153e+02
<TRANSP> 5
 0.000000e+00 1.000000e+00 0.000000e+00 0.000000e+00 0.000000e+00
 0.000000e+00 6.669104e-01 3.330896e-01 0.000000e+00 0.000000e+00
 0.000000e+00 0.000000e+00 4.124080e-01 5.875920e-01 0.000000e+00
 0.000000e+00 0.000000e+00 0.000000e+00 6.435897e-01 3.564102e-01
 0.000000e+00 0.000000e+00 0.000000e+00 0.000000e+00 0.000000e+00
<ENDHMM>
~h "l"
<BEGINHMM>
<NUMSTATES> 5
<STATE> 2
<MEAN> 39
 4.388853e+00 4.637771e+00 9.187560e+00 -1.239864e+01 -1.157411e+01 1.228888e+00 -1.658782e+01 2.259055e+00 -1.319752e+01 -5.114815e+00 4.790248e+00 -8.063657e+00 7.236397e+01 -4.469798e-02 2.164394e-02 8.059084e-02 -4.873876e-01 -6.702622e-01 7.601453e-03 1.047435e-01 3.184267e-01 2.732565e-02 9.058370e-02 5.054314e-01 -1.818068e-01 1.413301e-01 -1.856371e-01 -3.090166e-01 -2.126953e-01 8.732103e-02 1.509535e-01 -7.309555e-02 4.089926e-01 5.408717e-02 1.759591e-01 -5.895698e-02 -9.022337e-02 1.203481e-01 1.099372e-01
<VARIANCE> 39
 4.497312e+00 1.572691e+01 1.999009e+01 2.356146e+01 3.271735e+01 4.775768e+01 3.396432e+01 3.719669e+01 2.316960e+01 5.426677e+01 2.495617e+01 2.502002e+01 5.467782e+00 4.859900e-01 9.805463e-01 1.089074e+00 1.590267e+00 3.236594e+00 1.894171e+00 3.232181e+00 4.489962e+00 1.820147e+00 2.442547e+00 2.293156e+00 2.145936e+00 6.966658e-01 1.007740e-01 1.991898e-01 1.542530e-01 2.111781e-01 5.174680e-01 3.159305e-01 5.706160e-01 6.500705e-01 3.354452e-01 4.805588e-01 3.751993e-01 3.961785e-01 6.620435e-02
<GCONST> 1.022976e+02
<STATE> 3
<MEAN> 39
 2.394174e+00 1.662622e+00 7.423455e+00 -1.222897e+01 -1.157594e+01 1.725003e-01 -1.175270e+01 3.187044e+00 -1.140077e+01 -4.591361e+00 5.944381e+00 -7.436399e+00 7.392710e+01 -1.567404e-01 -1.167191e+00 -6.269785e-01 3.820813e-01 7.625080e-01 -2.186416e-01 7.619082e-01 8.856280e-01 2.731243e-01 7.944470e-03 3.096116e-02 1.412914e-02 2.462347e-01 8.536128e-02 7.800264e-02 -4.885041e-02 1.716448e-01 6.299827e-01 1.770082e-01 -4.219185e-01 -2.597683e-02 -8.091894e-02 1.139691e-01 -2.004053e-01 -1.089501e-01 -1.698242e-01
<VARIANCE> 39
 6.453491e+00 1.486658e+01 2.705776e+01 3.413297e+01 7.932678e+01 4.425769e+01 4.191225e+01 6.213926e+01 1.967800e+01 2.795501e+01 2.193449e+01 2.522866e+01 9.866456e+00 3.388211e-01 1.612827e+00 1.116244e+00 1.761275e+00 3.703133e+00 2.827974e+00 2.936906e+00 6.090753e+00 1.858003e+00 2.286443e+00 1.766979e+00 2.054890e+00 9.950430e-01 3.587906e-02 1.746381e-01 2.007586e-01 2.137813e-01 5.569736e-01 3.148021e-01 5.475353e-01 1.008227e+00 3.586526e-01 4.130803e-01 4.071777e-01 4.452322e-01 5.831571e-02
<GCONST> 1.050333e+02
<STATE> 4
<MEAN> 39
 3.308045e+00 -1.734074e+00 3.823155e+00 -1.584931e+01 -1.093610e+01 -3.409756e-01 -1.065916e+01 6.536901e+00 -9.359829e+00 -6.106113e+00 5.653929e+00 -7.372384e+00 7.634077e+01 -3.976011e-02 -1.407528e-01 -4.918855e-01 5.153827e-01 1.101802e+00 1.658065e-01 3.173478e-03 -4.196726e-01 2.969405e-02 2.773002e-01 -4.263320e-01 2.801633e-02 -1.856317e-01 -7.593310e-03 2.207473e-01 1.918217e-02 6.543036e-02 1.362455e-02 3.004825e-02 1.370799e-02 -1.422840e-01 -8.075453e-02 2.428632e-02 -3.408648e-02 3.106287e-02 -1.120314e-01
<VARIANCE> 39
 5.088789e+00 1.865807e+01 2.739488e+01 3.573072e+01 3.190812e+01 4.329213e+01 5.110442e+01 3.631767e+01 1.945584e+01 2.614993e+01 1.671931e+01 1.811566e+01 1.250068e+01 1.359898e-01 6.966981e-01 8.902541e-01 1.072424e+00 1.029363e+00 1.057820e+00 1.685233e+00 2.118151e+00 1.557515e+00 1.252883e+00 1.419942e+00 1.114780e+00 4.069733e-01 2.689677e-02 8.881123e-02 1.035946e-01 1.747789e-01 1.586938e-01 2.269326e-01 2.902584e-01 4.328791e-01 2.716671e-01 1.720679e-01 2.140326e-01 1.731465e-01 5.592560e-02
<GCONST> 8.683983e+01
<TRANSP> 5
 0.000000e+00 1.000000e+00 0.000000e+00 0.000000e+00 0.000000e+00
 0.000000e+00 7.714833e-01 2.285167e-01 0.000000e+00 0.000000e+00
 0.000000e+00 0.000000e+00 5.285709e-01 4.714291e-01 0.000000e+00
 0.000000e+00 0.000000e+00 0.000000e+00 7.210376e-01 2.789624e-01
 0.000000e+00 0.000000e+00 0.000000e+00 0.000000e+00 0.000000e+00
<ENDHMM>
~h "m"
<BEGINHMM>
<NUMSTATES> 5
<STATE> 2
<MEAN> 39
 5.661780e+00 9.316021e+00 -8.348569e-01 -2.818471e+00 -1.621408e+00 1.607834e+01 -8.277992e+00 1.899667e-01 -1.375932e+00 -4.785588e+00 -5.059218e+00 -6.972002e-01 6.555445e+01 1.638982e-01 2.789549e-02 -5.160349e-01 1.067613e+00 2.265432e-01 8.118452e-01 6.833146e-01 -1.632025e-01 2.960142e-01 -1.069584e-01 -6.709333e-01 -3.713028e-01 -3.916867e-01 -7.359739e-02 -1.065043e-01 -1.049203e-01 -2.236736e-01 3.275852e-02 -3.465659e-01 7.883215e-03 1.792681e-01 -1.689472e-01 1.424140e-01 3.042081e-01 -7.182524e-03 9.031530e-02
<VARIANCE> 39
 3.061713e+00 7.593900e+00 2.047010e+01 2.690346e+01 1.047325e+01 2.971185e+01 2.195278e+01 1.768992e+01 4.320747e+01 1.680641e+01 1.504739e+01 2.712915e+01 6.147346e+00 1.459703e-01 3.835811e-01 5.164414e-01 1.288622e+00 8.788642e-01 3.354774e+00 9.794996e-01 1.391611e+00 1.862880e+00 2.117109e+00 2.103931e+00 1.067096e+00 1.376486e-01 1.272767e-02 6.681201e-02 7.474037e-02 1.365499e-01 1.763293e-01 3.057073e-01 1.360781e-01 1.891401e-01 2.768369e-01 2.359288e-01 3.453754e-01 2.062382e-01 2.679981e-02
<GCONST> 7.832697e+01
<STATE> 3
<MEAN> 39
 5.239983e+00 5.300084e+00 2.843599e+00 -3.295491e+00 -5.556528e+00 1.238167e+01 -9.207205e+00 -2.042019e-01 -8.914449e+00 -4.724959e+00 -1.996578e+00 -6.140836e+00 6.780515e+01 8.938864e-02 -5.908810e-02 -1.793933e-01 3.875655e-01 1.313188e-01 4.913760e-01 -3.300030e-01 -1.868180e-01 1.693931e-01 -8.174505e-02 -9.798075e-02 1.126125e-01 -2.224207e-01 -1.008945e-01 1.009930e-02 6.484121e-02 -7.874795e-01 -5.365293e-02 -8.101829e-01 -2.510675e-01 4.685756e-01 -2.384184e-01 2.635056e-01 6.245028e-01 9.079842e-02 2.588503e-01
<VARIANCE> 39
 3.489524e+00 1.249411e+01 3.936333e+01 3.555547e+01 2.264115e+01 1.309367e+01 4.267921e+01 6.645892e+01 1.772508e+01 9.972325e+00 3.512736e+01 2.014222e+01 5.188830e+00 2.903348e-01 2.870472e-01 4.652750e-01 1.507336e+00 5.700785e-01 8.854676e-01 7.959466e-01 1.656951e+00 7.033077e-01 1.348089e+00 1.586388e+00 8.574429e-01 1.273383e-01 3.312245e-02 9.911446e-02 1.590381e-01 1.834040e-01 1.747739e-01 2.304855e-01 3.769218e-01 3.404387e-01 1.736947e-01 1.955021e-01 3.087291e-01 2.294103e-01 2.732804e-02
<GCONST> 8.051967e+01
<STATE> 4
<MEAN> 39
 4.933224e+00 6.107132e+00 2.379619e+00 -4.030397e+00 -3.600520e+00 1.195751e+01 -8.600044e+00 7.451633e-01 -9.464661e+00 -4.706685e+00 -1.698593e+00 -5.752037e+00 6.795572e+01 -5.504463e-02 -3.074784e-01 -1.312096e-01 -1.882003e+00 -4.295335e-01 -2.254371e+00 -1.044427e+00 1.747761e+00 -3.007011e-01 4.276369e-01 1.950127e+00 -1.203400e-01 6.563534e-01 -1.011509e-01 -3.197863e-02 1.397134e-02 -6.302831e-01 -8.262087e-02 -7.666888e-01 -1.821104e-01 4.284188e-01 3.181157e-02 9.317601e-02 4.843999e-01 -2.132699e-01 2.615300e-01
<VARIANCE> 39
 2.333070e+00 9.144391e+00 5.219077e+01 2.698044e+01 1.961195e+01 1.342862e+01 2.787206e+01 5.308605e+01 2.378580e+01 1.177818e+01 3.977142e+01 1.096616e+01 9.114364e+00 7.614545e-01 1.061179e+00 1.361942e+00 1.979272e+00 2.033195e+00 2.908327e+00 4.082148e+00 1.778259e+00 7.811720e-01 1.653074e+00 1.315327e+00 7.743118e-01 5.994066e-01 1.410541e-02 8.509871e-02 8.220282e-02 2.397780e-01 2.446687e-01 4.380293e-01 2.648268e-01 5.132594e-01 1.994164e-01 4.007066e-01 3.326184e-01 1.473770e-01 5.600863e-02
<GCONST> 8.977850e+01
<TRANSP> 5
 0.000000e+00 1.000000e+00 0.000000e+00 0.000000e+00 0.000000e+00
 0.000000e+00 7.482561e-01 2.517439e-01 0.000000e+00 0.000000e+00
 0.000000e+00 0.000000e+00 5.633927e-01 4.366073e-01 0.000000e+00
 0.000000e+00 0.000000e+00 0.000000e+00 2.909801e-01 7.090200e-01
 0.000000e+00 0.000000e+00 0.000000e+00 0.000000e+00 0.000000e+00
<ENDHMM>
~h "n"
<BEGINHMM>
<NUMSTATES> 5
<STATE> 2
<MEAN> 39
 2.703610e+00 1.910437e+00 5.823314e+00 -5.638427e+00 1.423023e+00 3.148105e+00 -1.268575e+01 1.393057e+00 -1.024837e+01 1.668374e-01 4.419424e+00 -5.559159e+00 7.245915e+01 7.233630e-01 1.172893e+00 -3.859424e-01 1.146308e+00 -7.916577e-01 2.125221e+00 2.276463e-01 3.606254e-03 7.356244e-01 -7.444547e-01 -2.181770e+00 1.760115e-01 -1.247099e+00 -1.749286e-01 -1.403974e-01 1.230463e-02 -1.388452e-01 2.121699e-02 -1.893061e-02 2.076147e-01 5.192301e-02 1.084214e-01 -4.946839e-02 -2.829562e-02 2.889827e-02 1.199232e-01
<VARIANCE> 39
 3.840206e+00 1.132147e+01 2.264386e+01 3.243455e+01 1.802647e+01 4.747372e+01 1.458417e+01 1.794251e+01 1.709317e+01 2.430478e+01 4.040215e+01 1.327475e+01 9.176618e+00 5.891888e-01 1.179307e+00 1.780466e+00 1.173850e+00 1.410807e+00 2.510809e+00 1.778691e+00 1.645408e+00 2.068537e+00 1.526169e+00 3.365874e+00 1.642328e+00 6.796334e-01 2.944321e-01 2.785103e-01 3.403379e-01 1.867712e-01 3.157601e-01 7.990373e-01 3.506891e-01 2.616874e-01 4.046391e-01 2.561184e-01 5.903299e-01 2.587619e-01 1.888682e-01
<GCONST> 9.924857e+01
<STATE> 3
<MEAN> 39
 4.924036e+00 4.673924e+00 1.520050e+00 -1.518561e+00 3.075595e-01 1.029477e+01 -1.008005e+01 2.476160e+00 -7.980995e+00 -3.115976e+00 -7.822199e-01 -5.063468e+00 6.816934e+01 -2.705548e-01 3.523697e-01 -6.413879e-01 3.417990e-01 -6.392199e-03 2.560894e-01 1.332439e+00 -2.374045e-02 5.336980e-01 -1.129487e-01 -7.844391e-01 2.200627e-01 -4.350362e-01 -6.865571e-01 -4.564397e-01 4.381680e-01 -4.909740e-01 1.840121e-01 -5.896060e-01 2.054666e-01 -3.425507e-02 9.664945e-02 2.859967e-01 3.487466e-01 6.589663e-02 4.543429e-01
<VARIANCE> 39
 3.995443e+00 8.633707e+00 3.297542e+01 3.278207e+01 1.401579e+01 1.765373e+01 2.461657e+01 2.908056e+01 2.327370e+01 1.676982e+01 1.922559e+01 1.453230e+01 7.008550e+00 1.103933e+00 1.068702e+00 3.264061e+00 1.224534e+00 1.906830e+00 2.978572e+00 2.582609e+00 2.848976e+00 3.073277e+00 2.114081e+00 3.041392e+00 1.620800e+00 6.605151e-01 4.488057e-01 3.016934e-01 8.039240e-01 4.207660e-01 4.101232e-01 7.131892e-01 5.153363e-01 6.145155e-01 6.808702e-01 3.403625e-01 6.086832e-01 3.228506e-01 2.410031e-01
<GCONST> 1.061956e+02
<STATE> 4
<MEAN> 39
 -4.067726e+00 2.214878e+00 5.155020e+00 -1.018871e+01 2.844726e+00 8.140994e+00 -5.507585e+00 1.565071e+00 -5.317959e+00 -3.069206e+00 -2.737626e+00 -3.179877e+00 7.071677e+01 -3.370753e+00 -1.452402e+00 2.367076e+00 -2.136213e+00 1.890929e-01 -7.545052e-01 6.819869e-01 -3.778257e-01 1.203249e+00 -1.478490e-01 5.535985e-01 3.776726e-01 1.789879e+00 -5.587368e-02 -2.609509e-01 1.837364e-01 -7.143644e-03 -3.407890e-01 -2.777954e-01 -5.633928e-01 -2.883253e-01 -1.382416e-01 -6.954264e-02 3.939521e-01 -9.057686e-02 3.236733e-01
<VARIANCE> 39
 7.617918e+01 2.336649e+01 7.041962e+01 1.002208e+02 2.881623e+01 2.215166e+01 2.638803e+01 1.816578e+01 2.463422e+01 2.155276e+01 2.252240e+01 1.973992e+01 2.291721e+01 5.151291e+00 2.527306e+00 4.928488e+00 5.261593e+00 3.143191e+00 2.866844e+00 3.402071e+00 2.489635e+00 3.276952e+00 2.331444e+00 3.925565e+00 1.517624e+00 1.966228e+00 1.726645e+00 4.015842e-01 1.540558e+00 1.398441e+00 5.737222e-01 5.265458e-01 6.946883e-01 5.527261e-01 5.461171e-01 4.891369e-01 5.938295e-01 3.003395e-01 5.729878e-01
<GCONST> 1.254557e+02
<TRANSP> 5
 0.000000e+00 1.000000e+00 0.000000e+00 0.000000e+00 0.000000e+00
 0.000000e+00 4.832864e-01 5.167137e-01 0.000000e+00 0.000000e+00
 0.000000e+00 0.000000e+00 6.605430e-01 3.394569e-01 0.000000e+00
 0.000000e+00 0.000000e+00 0.000000e+00 5.654506e-01 4.345495e-01
 0.000000e+00 0.000000e+00 0.000000e+00 0.000000e+00 0.000000e+00
<ENDHMM>
~h "p"
<BEGINHMM>
<NUMSTATES> 5
<STATE> 2
<MEAN> 39
 3.300047e+00 1.183897e-01 -1.094253e+01 -2.866803e+00 -5.165797e+00 3.283611e+00 -6.466482e+00 1.746120e+00 -8.504493e+00 2.643969e+00 1.587956e+00 -6.457074e+00 6.625568e+01 -4.858954e-01 4.965851e-02 4.737379e-02 3.437225e-01 4.029540e-01 1.793965e-01 1.238151e-01 -2.731336e-01 6.651351e-01 1.100727e-01 1.535581e-01 4.322957e-01 -1.980572e-01 -5.668706e-02 -2.765685e-01 5.685074e-01 -4.120729e-01 1.735927e-01 -4.872552e-01 -5.877635e-01 -4.257792e-01 -3.936411e-01 7.560430e-02 1.046732e-01 -1.884757e-01 5.103159e-01
<VARIANCE> 39
 1.138179e+01 1.320398e+01 3.015187e+01 9.945427e+00 8.588475e+00 1.259582e+01 1.404332e+01 2.407930e+01 2.237579e+01 1.553835e+01 3.947603e+01 3.801371e+01 9.872935e+00 1.087943e+00 2.109391e+00 8.273316e+00 2.564295e+00 2.076686e+00 3.396072e+00 4.900597e+00 2.626244e+00 3.799430e+00 2.543425e+00 2.960581e+00 3.366316e+00 3.589768e+00 2.078176e-01 2.426846e-01 7.052962e-01 2.668261e-01 3.488221e-01 5.172659e-01 5.142552e-01 4.615188e-01 4.934516e-01 5.161717e-01 7.177584e-01 9.037327e-01 2.659431e-01
<GCONST> 1.116615e+02
<STATE> 3
<MEAN> 39
 -2.028394e+00 -6.038770e+00 4.378382e-01 -3.557457e+00 2.280686e+00 2.309943e-01 -9.369426e+00 -2.142986e+00 -6.681305e+00 4.543209e+00 1.195596e+00 -5.850122e+00 7.237986e+01 2.576581e-02 -5.556092e-01 2.222353e+00 -3.277564e-01 1.740071e+00 -2.288835e+00 -2.353329e+00 -1.245198e+00 -1.612837e+00 -1.964492e-01 -2.370341e-01 -2.337015e+00 1.808273e+00 2.975756e-01 5.499261e-01 -2.649714e-01 -4.504877e-02 -1.860385e-01 -2.179598e-01 -3.351954e-01 3.109681e-01 -2.030839e-01 -4.177880e-01 -4.772952e-02 -3.268573e-01 -1.487075e-01
<VARIANCE> 39
 1.510057e+01 2.959858e+01 2.162174e+01 8.520965e+00 3.034398e+01 1.276501e+01 3.534652e+01 2.459230e+01 3.755574e+01 2.232040e+01 2.943586e+01 1.667936e+01 1.118070e+01 5.241263e-01 3.899440e+00 4.012364e+00 8.360431e-01 1.637938e+00 4.114363e+00 7.124810e+00 6.770977e+00 4.285230e+00 5.349521e+00 1.692738e+00 3.405826e+00 1.897593e+00 2.017208e-01 6.521172e-01 6.355638e-01 2.487498e-01 4.339677e-01 3.206125e-01 4.659806e-01 2.923034e-01 4.582328e-01 9.130947e-01 5.307047e-01 3.211560e-01 1.143150e-01
<GCONST> 1.116503e+02
<STATE> 4
<MEAN> 39
 5.038692e-01 -5.780182e+00 4.585208e+00 -5.541387e+00 2.704373e+00 -8.830177e+00 -2.125857e+01 -5.828178e+00 -1.448612e+01 1.821074e+00 2.919134e+00 -1.482249e+01 7.674001e+01 1.541788e-01 -5.994833e-02 8.067104e-01 -9.016262e-01 2.655844e-01 -1.209041e+00 -1.109468e+00 8.681851e-01 -8.102192e-01 -2.781888e-01 -9.502711e-02 -6.063058e-01 6.908713e-01 -6.142882e-02 2.639931e-01 -5.587021e-01 -3.265323e-02 -2.545957e-01 7.073671e-01 1.002010e+00 6.682084e-01 6.949032e-01 1.919374e-01 -2.392636e-01 6.879367e-01 -5.302407e-01
<VARIANCE> 39
 8.072140e+00 2.997184e+01 3.411520e+01 1.689305e+01 2.936512e+01 3.048641e+01 4.751916e+01 1.342186e+02 3.599437e+01 1.608901e+01 2.058200e+01 3.809978e+01 9.943294e+00 6.073802e-01 3.053203e+00 4.487649e+00 1.355451e+00 1.566435e+00 4.078121e+00 8.027659e+00 5.375274e+00 3.664319e+00 1.945511e+00 2.682406e+00 4.915397e+00 1.414731e+00 9.452278e-02 4.549426e-01 5.751612e-01 2.113931e-01 2.937770e-01 5.118185e-01 8.317170e-01 8.098137e-01 7.487648e-01 5.320534e-01 4.146373e-01 6.939706e-01 1.925031e-01
<GCONST> 1.159784e+02
<TRANSP> 5
 0.000000e+00 1.000000e+00 0.000000e+00 0.000000e+00 0.000000e+00
 0.000000e+00 8.156869e-01 1.843130e-01 0.000000e+00 0.000000e+00
 0.000000e+00 0.000000e+00 5.000285e-01 4.999715e-01 0.000000e+00
 0.000000e+00 0.000000e+00 0.000000e+00 7.182967e-01 2.817034e-01
 0.000000e+00 0.000000e+00 0.000000e+00 0.000000e+00 0.000000e+00
<ENDHMM>
~h "r"
<BEGINHMM>
<NUMSTATES> 5
<STATE> 2
<MEAN> 39
 5.303256e+00 6.090582e+00 -3.626833e+00 -1.313188e+01 2.256974e+00 -5.717156e+00 -1.443189e+01 -3.596425e+00 -2.079462e+01 -4.225454e+00 3.919111e+00 -4.789062e+00 7.243628e+01 5.496407e-01 1.174824e+00 -2.287179e-01 -1.746341e+00 6.665657e-01 5.206493e-01 -1.273697e+00 1.326092e+00 -9.033203e-01 -9.788620e-01 8.943298e-01 3.682321e-02 -2.216383e-01 -1.682408e-01 -2.369323e-01 7.777706e-02 -7.341316e-04 5.672571e-02 1.733360e-01 -7.741451e-02 1.013756e-02 1.088538e-01 8.984874e-02 1.063302e-01 4.467953e-02 7.885916e-02
<VARIANCE> 39
 3.736550e+00 1.930904e+01 1.865204e+01 2.322146e+01 2.677073e+01 3.461739e+01 3.181970e+01 4.894325e+01 2.797245e+01 6.144905e+01 4.789780e+01 3.620579e+01 5.808795e+00 4.763312e-01 9.610413e-01 9.142336e-01 1.639549e+00 1.358020e+00 1.224324e+00 2.424965e+00 2.753087e+00 3.048148e+00 2.865974e+00 2.640948e+00 1.753281e+00 3.699099e-01 1.291859e-01 1.715388e-01 1.172451e-01 2.751948e-01 2.682087e-01 1.807891e-01 4.284095e-01 5.771877e-01 6.556371e-01 4.922756e-01 4.802178e-01 3.681657e-01 8.154251e-02
<GCONST> 1.005753e+02
<STATE> 3
<MEAN> 39
 7.176396e+00 8.984146e+00 -4.072278e+00 -2.225905e+01 5.096867e+00 -4.582790e-01 -2.219626e+01 3.216825e+00 -2.220659e+01 -9.403028e+00 1.122864e+01 -4.157978e+00 7.291173e+01 -7.393119e-02 -4.456939e-01 1.228513e-01 -5.993765e-01 1.665838e-02 -9.697783e-03 -2.488897e-01 -1.066277e-01 5.013945e-01 5.524045e-01 1.051244e+00 -4.815182e-02 4.647835e-01 -1.126310e-01 -2.692948e-01 1.136964e-01 3.690498e-01 -2.332752e-01 -1.632176e-01 3.920437e-01 -2.684313e-01 2.256356e-01 3.294305e-01 -1.476696e-01 -2.038696e-01 6.662839e-02
<VARIANCE> 39
 1.925360e+00 1.494003e+01 1.099865e+01 2.378318e+01 2.156099e+01 2.374969e+01 2.943117e+01 2.939734e+01 4.722470e+01 2.996805e+01 3.857024e+01 2.995083e+01 3.901892e+00 1.575392e-01 9.748850e-01 5.200455e-01 1.359846e+00 1.388065e+00 1.215736e+00 2.051988e+00 2.480871e+00 2.153347e+00 2.541123e+00 2.479354e+00 2.407972e+00 3.117093e-01 3.190317e-02 9.813464e-02 9.767934e-02 2.080939e-01 1.925404e-01 1.981119e-01 3.089033e-01 3.553790e-01 4.438955e-01 2.498744e-01 4.018528e-01 4.640614e-01 3.273863e-02
<GCONST> 8.908898e+01
<STATE> 4
<MEAN> 39
 4.419873e+00 1.253736e+00 -1.763613e+00 -1.801577e+01 3.659087e+00 -4.645254e+00 -1.881275e+01 -4.264759e+00 -1.786156e+01 1.027696e+00 1.226732e+01 -7.079278e+00 7.666324e+01 -4.895440e-01 -8.583215e-01 9.045060e-01 1.052537e+00 -6.856110e-01 -4.086906e-01 8.613079e-01 -6.946173e-01 6.412504e-01 1.205081e+00 -1.394338e-01 -1.151492e+00 4.053194e-01 4.126860e-02 2.610073e-01 -3.922097e-03 8.652723e-02 -2.056530e-02 1.702956e-01 -1.029676e-02 2.334753e-01 -4.625609e-02 -3.537545e-01 -2.897084e-01 7.323569e-02 -1.958626e-01
<VARIANCE> 39
 4.323474e+00 1.976827e+01 2.394803e+01 5.247656e+01 2.864454e+01 3.865076e+01 1.630053e+01 6.749980e+01 4.143999e+01 4.592844e+01 2.202188e+01 4.341158e+01 2.547040e+00 1.130818e-01 1.062013e+00 5.237916e-01 1.080995e+00 9.906779e-01 1.374647e+00 1.673190e+00 2.597190e+00 2.182372e+00 3.423313e+00 1.696311e+00 1.962756e+00 2.301347e-01 2.684544e-02 9.611635e-02 9.903545e-02 1.562348e-01 1.766921e-01 3.244361e-01 2.634916e-01 4.181457e-01 3.138328e-01 4.301764e-01 3.193571e-01 3.519306e-01 2.733742e-02
<GCONST> 9.047702e+01
<TRANSP> 5
 0.000000e+00 1.000000e+00 0.000000e+00 0.000000e+00 0.000000e+00
 0.000000e+00 7.671820e-01 2.328180e-01 0.000000e+00 0.000000e+00
 0.000000e+00 0.000000e+00 8.318539e-01 1.681462e-01 0.000000e+00
 0.000000e+00 0.000000e+00 0.000000e+00 7.378138e-01 2.621863e-01
 0.000000e+00 0.000000e+00 0.000000e+00 0.000000e+00 0.000000e+00
<ENDHMM>
~h "s"
<BEGINHMM>
<NUMSTATES> 5
<STATE> 2
<MEAN> 39
 -8.525929e+00 -9.111756e-03 8.911892e+00 -1.416418e+01 1.125388e+00 6.423656e+00 -9.603010e+00 -4.955215e+00 -5.312076e+00 -2.865577e+00 1.718943e+00 -1.783847e+00 7.632447e+01 -4.615776e+00 -3.200447e-01 1.379332e+00 -1.275411e+00 9.459788e-01 4.312603e-01 1.414156e+00 1.399379e-01 2.366036e+00 -2.937734e-01 -1.450603e-01 1.024625e+00 1.693600e+00 -1.196528e-01 1.148614e-01 -2.519935e-01 -4.334071e-02 -2.115828e-01 -2.191778e-01 -2.677072e-01 5.410402e-01 -1.459891e-01 1.663782e-01 1.519996e-01 -1.448237e-01 -2.299438e-02
<VARIANCE> 39
 8.053568e+01 2.544719e+01 6.896659e+01 3.732389e+01 2.845874e+01 1.885350e+01 6.075806e+01 5.721697e+01 4.050902e+01 2.377902e+01 2.735742e+01 3.152744e+01 1.755068e+01 2.900502e+00 1.722646e+00 3.674546e+00 3.035248e+00 2.618758e+00 1.661148e+00 4.502248e+00 5.159716e+00 3.222782e+00 2.266158e+00 3.007735e+00 2.314292e+00 2.076433e+00 1.194652e+00 3.519917e-01 7.004559e-01 6.386510e-01 4.775575e-01 2.716968e-01 6.457999e-01 1.065150e+00 7.668236e-01 3.672749e-01 6.229507e-01 5.267513e-01 4.913278e-01
<GCONST> 1.242063e+02
<STATE> 3
<MEAN> 39
 -2.242346e+01 -4.224862e-01 1.074119e+01 -1.813980e+01 2.156924e+00 6.607022e+00 -6.837070e+00 9.986399e-01 -2.725940e-01 -2.599662e+00 2.073005e+00 -2.983756e-01 8.001218e+01 -1.197418e-01 -2.460184e-01 -4.516033e-01 -2.563843e-02 -1.670276e-01 -2.249537e-01 3.361832e-01 2.252631e-01 -4.027925e-03 1.180361e-01 -2.180400e-02 6.237223e-02 -2.126006e-01 8.330339e-01 -8.274153e-02 -1.631140e-01 2.539604e-01 -1.037922e-01 -1.440382e-01 -4.771712e-02 -2.751688e-01 -2.786059e-01 -4.766884e-02 -9.229542e-02 -1.435589e-02 -2.861128e-01
<VARIANCE> 39
 6.193591e+00 1.764634e+01 1.228607e+01 1.322133e+01 1.466591e+01 1.485823e+01 2.178306e+01 2.610761e+01 1.837077e+01 1.612078e+01 1.366133e+01 1.667868e+01 2.854008e+00 2.349901e+00 1.090634e+00 9.495627e-01 1.385311e+00 1.111667e+00 1.114022e+00 1.585623e+00 2.182424e+00 9.440029e-01 1.146314e+00 1.084101e+00 1.155999e+00 4.277999e-01 3.049231e-01 2.099711e-01 1.849411e-01 2.294006e-01 2.072942e-01 2.490617e-01 3.182282e-01 3.339114e-01 3.525537e-01 2.779893e-01 2.326452e-01 2.596470e-01 8.031852e-02
<GCONST> 8.871822e+01
<STATE> 4
<MEAN> 39
 -1.089180e+01 -9.283389e-01 7.646338e+00 -1.491803e+01 -1.056902e-01 2.278059e+00 -7.456270e+00 -4.092260e+00 -5.347191e+00 -4.077669e+00 -7.496166e-01 -5.712578e-01 7.596249e+01 3.728576e+00 6.976305e-01 -3.494831e-02 4.007176e-01 -1.033598e+00 -1.049991e+00 -1.228591e+00 -9.681213e-01 -2.196618e+00 -4.509371e-01 -3.545359e-01 -5.766452e-01 -8.975081e-01 -9.553619e-02 3.667593e-02 1.797662e-01 -1.405781e-01 -1.702086e-01 9.615770e-02 -2.992523e-01 2.858445e-01 -1.472987e-01 2.102502e-01 3.376215e-01 -2.538027e-01 1.858972e-01
<VARIANCE> 39
 5.600158e+01 3.088072e+01 1.740147e+01 2.558909e+01 2.312881e+01 3.025208e+01 6.335854e+01 3.795736e+01 4.971914e+01 2.442084e+01 2.585450e+01 2.212724e+01 8.822713e+00 1.966325e+00 3.601071e+00 2.445043e+00 2.172579e+00 1.981229e+00 1.604284e+00 4.145689e+00 3.459181e+00 3.389151e+00 2.994524e+00 3.151592e+00 1.856874e+00 8.530048e-01 7.721829e-01 8.699881e-01 2.792760e-01 4.852928e-01 3.514648e-01 4.597243e-01 9.605796e-01 6.250260e-01 9.530982e-01 4.715353e-01 4.703247e-01 2.910564e-01 8.740013e-02
<GCONST> 1.166129e+02
<TRANSP> 5
 0.000000e+00 1.000000e+00 0.000000e+00 0.000000e+00 0.000000e+00
 0.000000e+00 7.053182e-01 2.946818e-01 0.000000e+00 0.000000e+00
 0.000000e+00 0.000000e+00 8.608270e-01 1.391730e-01 0.000000e+00
 0.000000e+00 0.000000e+00 0.000000e+00 6.875990e-01 3.124009e-01
 0.000000e+00 0.000000e+00 0.000000e+00 0.000000e+00 0.000000e+00
<ENDHMM>
~h "t"
<BEGINHMM>
<NUMSTATES> 5
<STATE> 2
<MEAN> 39
 -7.519527e+00 -2.195696e+00 3.925256e+00 -1.184131e+01 7.459418e-01 3.817140e+00 -8.152517e+00 -1.135883e-01 -4.531691e+00 -7.945073e-01 1.892778e+00 -3.363652e+00 7.305993e+01 -1.419985e+00 -1.595001e+00 6.248429e-01 3.921902e-01 -3.168342e-01 -6.281918e-01 3.751292e-01 -8.091174e-01 6.554939e-01 1.321076e-01 1.663442e-01 1.281396e-01 1.016763e+00 2.230144e-01 -4.482211e-03 5.153573e-02 2.655714e-01 -3.415785e-02 -1.171888e-01 -2.205832e-01 -2.605090e-01 -2.411292e-01 -1.650791e-02 -1.795730e-01 -5.189604e-02 7.027588e-02
<VARIANCE> 39
 6.341705e+01 3.576302e+01 5.220858e+01 5.090577e+01 2.962713e+01 3.309913e+01 4.380264e+01 3.152917e+01 3.817769e+01 2.711479e+01 1.932087e+01 1.689661e+01 3.035907e+01 6.848504e+00 3.639669e+00 7.588281e+00 7.889136e+00 2.810299e+00 3.830644e+00 3.226203e+00 4.243649e+00 3.883048e+00 1.669825e+00 2.355939e+00 1.857403e+00 4.602676e+00 1.774010e+00 6.976240e-01 1.528034e+00 1.256995e+00 6.012667e-01 6.558260e-01 6.785384e-01 6.980113e-01 6.669905e-01 4.348734e-01 5.507681e-01 3.758286e-01 1.075413e+00
<GCONST> 1.311727e+02
<STATE> 3
<MEAN> 39
 -8.684458e+00 -8.428831e+00 7.518308e+00 -6.897232e+00 -8.989315e-01 -1.747354e+00 -9.217396e+00 -5.244321e+00 -5.714891e+00 -1.470607e+00 1.206021e+00 -3.390357e+00 7.685503e+01 2.475148e+00 6.990069e-01 -3.718861e-01 9.374546e-01 3.570603e-01 -4.660213e-01 -1.738067e+00 -1.169711e+00 -1.935152e+00 -2.097057e-02 -6.045927e-01 -5.383271e-01 -5.733194e-01 6.295105e-01 7.895911e-01 -3.181471e-01 -3.542663e-01 8.009002e-02 4.646206e-01 -1.987845e-01 2.742600e-01 -3.662087e-01 1.143085e-01 8.560080e-02 -8.395261e-02 -3.876526e-01
<VARIANCE> 39
 4.159113e+01 2.696306e+01 1.830412e+01 3.881215e+01 2.051604e+01 3.176947e+01 5.918578e+01 3.622159e+01 5.588271e+01 2.320721e+01 2.435090e+01 2.100636e+01 8.506560e+00 4.148478e+00 3.764212e+00 2.388825e+00 2.272583e+00 2.888312e+00 2.231395e+00 5.068227e+00 4.180280e+00 4.407288e+00 1.999397e+00 2.029923e+00 2.453874e+00 1.184012e+00 1.066770e+00 5.896091e-01 5.533446e-01 4.954775e-01 5.729662e-01 3.911805e-01 1.037661e+00 7.688795e-01 1.209855e+00 3.930522e-01 5.921373e-01 4.000542e-01 3.228196e-01
<GCONST> 1.214756e+02
<STATE> 4
<MEAN> 39
 4.666884e-01 -1.646452e+00 3.199273e+00 -7.127337e+00 -7.684420e-01 2.096619e+00 -1.356362e+01 -6.442255e+00 -1.112378e+01 8.704865e-02 5.386943e-01 -3.714538e+00 7.197553e+01 1.128056e+00 1.037926e+00 -1.208892e+00 4.131016e-01 1.121080e-01 9.299906e-01 2.477936e-01 6.865609e-01 -2.778756e-01 2.657820e-01 -2.253890e-01 3.537365e-02 -8.518644e-01 -4.497361e-01 -1.958094e-01 -5.927114e-02 2.110162e-02 -8.644024e-02 8.103595e-02 5.307832e-01 4.779304e-01 5.045059e-01 -9.244572e-02 3.794031e-02 9.678311e-02 5.092433e-02
<VARIANCE> 39
 1.513515e+01 1.953334e+01 4.970576e+01 3.581991e+01 2.898215e+01 7.155033e+01 5.887505e+01 4.287665e+01 4.219008e+01 2.651187e+01 2.839539e+01 2.125876e+01 1.997408e+01 1.524372e+00 1.235410e+00 1.855889e+00 1.799432e+00 2.250350e+00 2.565043e+00 4.309860e+00 2.976768e+00 3.642609e+00 2.933046e+00 2.475476e+00 1.530663e+00 8.995295e-01 2.674035e-01 1.799599e-01 2.910932e-01 2.750027e-01 2.825793e-01 4.000030e-01 8.055102e-01 6.889458e-01 4.234669e-01 3.622057e-01 4.443702e-01 2.507044e-01 1.793643e-01
<GCONST> 1.123619e+02
<TRANSP> 5
 0.000000e+00 1.000000e+00 0.000000e+00 0.000000e+00 0.000000e+00
 0.000000e+00 6.639935e-01 3.360064e-01 0.000000e+00 0.000000e+00
 0.000000e+00 0.000000e+00 5.810908e-01 4.189092e-01 0.000000e+00
 0.000000e+00 0.000000e+00 0.000000e+00 6.374794e-01 3.625206e-01
 0.000000e+00 0.000000e+00 0.000000e+00 0.000000e+00 0.000000e+00
<ENDHMM>
~h "v"
<BEGINHMM>
<NUMSTATES> 5
<STATE> 2
<MEAN> 39
 1.712704e+00 -1.264084e+00 4.135579e+00 -9.536915e+00 -1.138084e+00 -1.095591e+00 -1.473020e+01 -6.250876e+00 -1.519437e+01 1.604986e+00 7.567514e+00 -3.428694e+00 7.476167e+01 -1.461033e+00 -3.403054e-01 1.510507e+00 -2.941336e-01 9.332335e-02 3.563950e-01 -1.073863e-01 -1.589676e+00 9.230857e-02 -7.557288e-01 -3.746844e-01 1.994875e-01 7.542377e-01 -2.849326e-01 1.358424e-01 -1.162829e-01 1.214807e-01 1.284527e-01 2.416939e-01 6.554741e-01 2.937799e-02 7.137226e-01 -4.709323e-01 -5.322562e-01 -1.121746e-01 2.091631e-02
<VARIANCE> 39
 2.094138e+01 3.474909e+01 1.347981e+01 1.834101e+01 3.025668e+01 3.662270e+01 6.348026e+01 2.434212e+01 1.025285e+02 1.217308e+01 2.982936e+01 2.493095e+01 5.432558e+00 3.204294e+00 5.205460e+00 8.347183e+00 5.453352e+00 7.458431e-01 2.088894e+00 9.397814e+00 7.746154e+00 8.746126e+00 4.966937e+00 6.101160e+00 1.388786e+00 5.568458e+00 7.480718e-01 2.247906e-01 2.361747e-01 4.205980e-02 3.368886e-01 3.242479e-01 1.942089e+00 4.340764e-01 2.835553e+00 2.368722e-01 4.074322e-01 2.311910e-01 5.974826e-02
<GCONST> 1.181953e+02
<STATE> 3
<MEAN> 39
 -3.279794e+00 2.387430e-01 2.799637e+00 -8.197748e+00 -6.702681e-01 1.048293e+00 -8.477993e+00 -7.194604e+00 -8.717720e+00 -1.589584e+00 2.560825e+00 -3.028199e+00 7.521111e+01 -1.972876e+00 -3.534081e-01 9.501046e-01 -2.420917e-01 -3.491899e-01 7.881029e-01 9.941643e-01 -9.112732e-01 1.369376e+00 -6.721039e-01 -8.458907e-01 -5.749353e-02 5.937027e-01 7.489935e-01 1.488876e-01 -5.058882e-01 5.622499e-03 2.487564e-02 7.921201e-02 -2.737477e-01 5.667872e-01 -3.959730e-01 3.265945e-02 8.600153e-02 -1.482237e-01 -4.794618e-01
<VARIANCE> 39
 3.415890e+01 4.060570e+01 2.462037e+01 2.846771e+01 2.735823e+01 5.737815e+01 1.133658e+02 3.224218e+01 1.087929e+02 1.863290e+01 3.677213e+01 2.774069e+01 1.059441e+01 3.325828e+00 2.683742e+00 6.133565e+00 2.680704e+00 1.064704e+00 1.547063e+00 1.756277e+01 8.082747e+00 1.558743e+01 4.549677e+00 4.586040e+00 8.923453e-01 2.968464e+00 1.094900e+00 6.249740e-01 5.700383e-01 5.389254e-01 3.430526e-01 7.093123e-01 2.231194e+00 4.110874e-01 2.495691e+00 6.966316e-01 7.509807e-01 1.683344e-01 2.473641e-01
<GCONST> 1.291601e+02
<STATE> 4
<MEAN> 39
 -6.248908e+00 -4.370041e+00 6.028964e+00 -1.271955e+01 -2.895575e+00 1.751907e+00 -1.424253e+01 -1.057109e+01 -1.014172e+01 -6.813485e-02 1.606867e+00 -3.688840e+00 7.511343e+01 -1.706576e-01 5.257120e-01 -5.050914e-02 -1.515218e-01 7.831782e-01 1.248563e+00 2.869273e-01 9.102198e-01 9.489591e-01 -6.914983e-01 -7.876360e-01 -9.489431e-03 -7.016694e-01 3.790904e-01 2.032273e-01 -6.013821e-01 2.754180e-01 -4.982503e-02 -1.154864e-01 2.363400e-01 4.298605e-01 7.928392e-02 -3.269348e-02 -1.156438e-01 1.485137e-02 -3.790563e-01
<VARIANCE> 39
 5.814489e+01 2.812642e+01 3.055353e+01 3.087206e+01 2.257723e+01 5.815062e+01 5.755989e+01 4.852419e+01 9.146159e+01 2.174078e+01 3.620500e+01 1.464982e+01 2.287331e+01 5.721595e+00 1.834689e+00 5.884708e+00 2.836035e+00 2.317801e+00 3.829023e+00 6.350745e+00 6.014070e+00 1.015674e+01 2.428579e+00 2.867539e+00 8.113745e-01 3.764187e+00 1.569196e+00 7.128334e-01 1.372400e+00 5.935380e-01 3.714375e-01 8.421462e-01 1.026554e+00 1.428899e+00 2.034947e+00 6.115291e-01 7.662499e-01 8.027746e-02 1.169448e+00
<GCONST> 1.311215e+02
<TRANSP> 5
 0.000000e+00 1.000000e+00 0.000000e+00 0.000000e+00 0.000000e+00
 0.000000e+00 1.837588e-01 8.162413e-01 0.000000e+00 0.000000e+00
 0.000000e+00 0.000000e+00 3.075475e-01 6.924525e-01 0.000000e+00
 0.000000e+00 0.000000e+00 0.000000e+00 6.386383e-01 3.613617e-01
 0.000000e+00 0.000000e+00 0.000000e+00 0.000000e+00 0.000000e+00
<ENDHMM>
~h "w"
<BEGINHMM>
<NUMSTATES> 5
<STATE> 2
<MEAN> 39
 -2.864791e+00 9.543910e-02 -9.612668e+00 -7.220368e+00 -4.793215e+00 -5.211390e+00 -6.714589e-01 3.205347e-01 -1.422910e+01 -3.894392e+00 6.847722e+00 -3.476638e+00 7.204444e+01 -1.342162e+00 -1.725835e+00 1.408860e+00 -8.852825e-01 5.066078e-01 -5.677571e-01 4.771244e-01 -3.593972e-01 -4.729904e-01 -6.620643e-01 2.048653e-01 9.465331e-01 1.441072e+00 4.964377e-01 -2.492596e-02 3.745848e-01 3.387859e-01 2.638451e-01 1.198046e+00 -6.551589e-01 -1.156773e-01 4.035335e-01 2.810615e-01 -8.621438e-01 -2.163409e-02 -5.890627e-01
<VARIANCE> 39
 9.853576e+00 2.196461e+01 2.513929e+01 2.265867e+01 2.116146e+01 3.803531e+01 3.977287e+01 2.307974e+01 3.976033e+01 1.879333e+01 1.522412e+01 2.600546e+01 9.210487e+00 9.574241e-01 9.868948e-01 1.921329e+00 2.893409e+00 1.069196e+00 6.325523e+00 3.824210e+00 2.434278e+00 3.043786e+00 1.757407e+00 3.711050e+00 2.699465e+00 1.768057e+00 1.970537e-01 4.255702e-01 4.267381e-01 4.190078e-01 2.647932e-01 8.357832e-01 7.916614e-01 4.455911e-01 5.697230e-01 3.785217e-01 4.097686e-01 7.219094e-01 1.992409e-01
<GCONST> 1.109671e+02
<STATE> 3
<MEAN> 39
 -1.338767e+00 -2.680887e+00 -3.636099e+00 -6.393744e+00 -1.974938e+00 1.399813e+00 -4.312194e+00 -2.103579e+00 -1.390525e+01 -4.435565e+00 -2.933415e-01 -3.065884e+00 7.127654e+01 1.777235e+00 1.252294e+00 1.217945e+00 1.461360e-02 1.650481e-01 3.892559e-02 -2.053485e+00 -1.410892e+00 -2.381162e+00 -1.261356e-02 -7.544531e-01 -1.572031e+00 2.003817e-03 3.153574e-01 4.534273e-01 -1.169218e-01 -1.403958e-01 -9.389988e-02 -5.033492e-01 -3.250227e-01 -3.413748e-01 -7.212819e-01 3.287369e-01 6.780666e-01 -4.563867e-01 1.399437e-01
<VARIANCE> 39
 2.040810e+01 2.739879e+01 1.212056e+01 1.644884e+01 1.055527e+01 1.831917e+01 3.457255e+01 2.863747e+01 5.690805e+01 1.091366e+01 2.219289e+01 2.684389e+01 4.089132e+00 1.565977e+00 3.798639e+00 1.061305e+00 2.042618e+00 9.271120e-01 4.153650e+00 2.674298e+00 2.835604e+00 6.334649e+00 1.589958e+00 3.328650e+00 3.416698e+00 5.727426e-01 5.678205e-01 1.084703e+00 3.158004e-01 2.487893e-01 1.598891e-01 6.032951e-01 5.075148e-01 2.827686e-01 1.051720e+00 3.687035e-01 6.125261e-01 6.278158e-01 1.915452e-01
<GCONST> 1.089415e+02
<STATE> 4
<MEAN> 39
 3.936184e+00 7.002392e-01 2.067828e+00 -6.036738e+00 -1.948502e+00 -1.725528e+00 -1.456089e+01 -8.504840e+00 -2.324991e+01 -8.553222e-01 7.009127e+00 -1.093872e+01 7.387246e+01 -8.649483e-03 -2.363053e-01 4.290316e-01 3.851606e-01 -6.152021e-02 4.013463e-01 -5.688537e-01 7.462418e-02 4.442043e-01 5.078036e-01 6.885812e-01 -7.645067e-01 -7.022242e-02 -2.089803e-01 -1.076258e-01 -2.318945e-01 2.349191e-01 -1.296361e-01 1.378015e-01 4.716252e-01 5.361089e-01 6.600626e-01 -1.925634e-01 -2.713271e-01 3.658856e-01 -2.386204e-01
<VARIANCE> 39
 4.974082e+00 1.998244e+01 1.917618e+01 2.016572e+01 3.133274e+01 2.193812e+01 2.989475e+01 4.983004e+01 2.081569e+01 2.737498e+01 2.755472e+01 3.373883e+01 6.107067e+00 6.849686e-01 2.503575e+00 3.178895e+00 1.764436e+00 2.229505e+00 2.473532e+00 4.481233e+00 6.594398e+00 5.386707e+00 3.231277e+00 3.277954e+00 3.588418e+00 1.890285e+00 2.149042e-01 6.133046e-01 5.054331e-01 2.126533e-01 4.089700e-01 4.202642e-01 4.722655e-01 1.073648e+00 7.459813e-01 6.578663e-01 4.457503e-01 8.826137e-01 1.647988e-01
<GCONST> 1.142337e+02
<TRANSP> 5
 0.000000e+00 1.000000e+00 0.000000e+00 0.000000e+00 0.000000e+00
 0.000000e+00 6.405172e-01 3.594828e-01 0.000000e+00 0.000000e+00
 0.000000e+00 0.000000e+00 7.246199e-01 2.753800e-01 0.000000e+00
 0.000000e+00 0.000000e+00 0.000000e+00 8.247594e-01 1.752406e-01
 0.000000e+00 0.000000e+00 0.000000e+00 0.000000e+00 0.000000e+00
<ENDHMM>
~h "y"
<BEGINHMM>
<NUMSTATES> 5
<STATE> 2
<MEAN> 39
 -2.687175e+00 -8.740164e-01 8.020281e+00 -1.490652e+00 -1.511950e+00 2.907404e+00 -7.357993e+00 2.077149e-01 -6.047414e+00 -2.184082e+00 -3.411052e+00 -6.824355e+00 7.274500e+01 -1.451949e+00 -1.302369e+00 1.872501e+00 -5.362352e-01 -2.345751e-01 -5.418361e-01 -5.396752e-01 -7.261514e-01 3.952350e-01 -7.369146e-01 -7.067207e-01 -6.564606e-02 1.104803e+00 2.995756e-01 4.451245e-02 1.502716e-01 1.135085e-01 1.292656e-01 -1.974141e-01 -6.392734e-01 -1.148787e-03 -3.688162e-01 -3.981813e-02 -3.931275e-02 -1.702782e-01 3.753201e-02
<VARIANCE> 39
 4.725301e+01 4.303257e+01 8.314864e+01 3.344128e+01 4.160334e+01 2.059745e+01 6.338257e+01 4.036816e+01 2.544083e+01 1.828659e+01 3.572368e+01 1.488442e+01 2.601136e+01 6.415426e+00 2.975329e+00 1.162258e+01 2.077174e+00 2.477312e+00 2.475342e+00 1.045662e+01 4.265277e+00 3.931674e+00 1.732671e+00 2.586264e+00 1.822133e+00 3.268535e+00 1.493172e+00 7.264636e-01 2.618112e+00 6.019902e-01 5.638031e-01 3.899941e-01 2.040714e+00 9.304941e-01 6.784145e-01 3.813380e-01 5.316147e-01 3.917556e-01 7.968182e-01
<GCONST> 1.304152e+02
<STATE> 3
<MEAN> 39
 -4.961673e+00 -6.733613e+00 1.414206e+01 -1.600309e+00 -1.706852e+00 -2.312838e+00 -1.296708e+01 -1.105583e-01 -6.129094e+00 -5.492511e+00 -4.609750e+00 -7.945816e+00 7.606926e+01 2.448187e+00 1.149163e+00 1.425024e-01 9.718570e-01 -2.737514e-02 -5.187071e-01 -2.245682e+00 5.723936e-02 -1.948449e+00 -1.000576e-01 2.672313e-01 -3.050570e-01 -5.659897e-01 6.748586e-02 2.096928e-01 -3.529099e-01 -1.352074e-01 -9.468650e-02 9.137864e-02 1.323095e-01 2.485059e-01 -1.920775e-01 4.664516e-01 4.482683e-01 7.044768e-02 -1.140380e-01
<VARIANCE> 39
 5.687223e+01 5.254933e+01 2.448163e+01 3.670144e+01 1.265528e+01 1.750908e+01 2.327349e+01 1.938508e+01 3.963771e+01 2.211302e+01 1.719374e+01 1.070746e+01 1.152594e+01 1.670673e+00 1.575442e+00 1.789401e+00 1.057130e+00 1.187903e+00 9.315385e-01 2.296331e+00 1.140620e+00 4.287421e+00 2.348552e+00 2.219573e+00 1.968803e+00 3.068239e-01 8.818682e-01 5.870849e-01 3.298309e-01 4.005676e-01 1.427396e-01 1.534787e-01 3.400769e-01 4.191295e-01 7.335855e-01 3.773803e-01 4.393383e-01 3.495208e-01 2.302100e-01
<GCONST> 1.046231e+02
<STATE> 4
<MEAN> 39
 2.240344e+00 -9.115170e-01 1.440259e+01 -3.378812e+00 -4.039336e-01 -1.001315e+00 -2.118215e+01 1.047056e+00 -1.431762e+01 -3.513953e+00 -1.528770e+00 -8.075089e+00 7.464883e+01 3.059693e-01 -2.220228e-01 -4.742946e-01 -7.238941e-01 1.444037e-01 -4.284489e-01 -1.543691e+00 -1.100287e-01 -4.867798e-01 1.882014e+00 9.498373e-01 7.789790e-02 2.800172e-01 -3.323922e-01 -1.988503e-01 -1.691610e-01 -3.249570e-01 1.992257e-01 -5.799270e-02 1.655593e-01 -4.833062e-01 5.075195e-01 2.296104e-01 5.133447e-02 2.638037e-01 1.213518e-01
<VARIANCE> 39
 2.547433e+00 2.375104e+01 3.833203e+01 3.466682e+01 1.381451e+01 1.914506e+01 3.035422e+01 1.300291e+01 1.179144e+01 2.702200e+01 1.298546e+01 2.189354e+01 8.710005e+00 1.270601e-01 8.895158e-01 5.982281e-01 5.255494e-01 8.621703e-01 8.901810e-01 1.264935e+00 1.986655e+00 1.510182e+00 1.200196e+00 7.458664e-01 1.174166e+00 3.243651e-01 8.876730e-02 1.822139e-01 1.587182e-01 1.321699e-01 7.657647e-02 1.343707e-01 2.136559e-01 2.251617e-01 2.334183e-01 2.776339e-01 1.200378e-01 1.694230e-01 4.545329e-02
<GCONST> 7.943983e+01
<TRANSP> 5
 0.000000e+00 1.000000e+00 0.000000e+00 0.000000e+00 0.000000e+00
 0.000000e+00 7.913409e-01 2.086591e-01 0.000000e+00 0.000000e+00
 0.000000e+00 0.000000e+00 6.810108e-01 3.189892e-01 0.000000e+00
 0.000000e+00 0.000000e+00 0.000000e+00 7.158199e-01 2.841800e-01
 0.000000e+00 0.000000e+00 0.000000e+00 0.000000e+00 0.000000e+00
<ENDHMM>
~h "z"
<BEGINHMM>
<NUMSTATES> 5
<STATE> 2
<MEAN> 39
 1.243263e+00 2.009342e+00 -3.600729e+00 -7.780252e+00 -2.124930e+00 2.943915e+00 -9.405266e+00 5.574683e-01 -8.480373e+00 -8.431195e-01 1.753790e+00 -3.834116e+00 6.933920e+01 6.608545e-03 -7.871487e-04 5.575932e-03 9.451325e-03 1.243685e-02 3.598967e-04 4.977515e-03 7.675061e-03 8.751670e-03 -1.601357e-04 -6.787761e-03 1.796699e-03 7.823239e-03 1.084905e-04 6.917859e-04 -1.452734e-03 -1.623669e-04 -1.531235e-03 -6.168764e-04 -1.016060e-04 5.717326e-04 -8.436721e-04 1.307740e-03 2.658077e-04 -1.178421e-04 -1.493792e-03
<VARIANCE> 39
 3.560448e+01 3.133138e+01 1.175854e+02 5.757076e+01 3.574751e+01 4.825400e+01 6.299704e+01 4.654386e+01 5.944289e+01 3.514179e+01 3.786765e+01 3.343571e+01 4.679148e+01 1.818672e+00 1.507933e+00 2.670334e+00 2.176207e+00 1.716306e+00 2.419825e+00 3.138164e+00 2.909526e+00 2.711722e+00 1.967625e+00 2.125080e+00 1.650968e+00 1.255564e+00 2.970746e-01 2.534214e-01 4.172046e-01 3.324886e-01 2.983715e-01 4.159752e-01 5.145366e-01 5.176500e-01 4.586368e-01 3.470287e-01 3.812441e-01 2.994810e-01 2.048787e-01
<GCONST> 1.175816e+02
<STATE> 3
<MEAN> 39
 1.243263e+00 2.009342e+00 -3.600729e+00 -7.780252e+00 -2.124930e+00 2.943915e+00 -9.405266e+00 5.574683e-01 -8.480373e+00 -8.431195e-01 1.753790e+00 -3.834116e+00 6.933920e+01 6.608545e-03 -7.871487e-04 5.575932e-03 9.451325e-03 1.243685e-02 3.598967e-04 4.977515e-03 7.675061e-03 8.751670e-03 -1.601357e-04 -6.787761e-03 1.796699e-03 7.823239e-03 1.084905e-04 6.917859e-04 -1.452734e-03 -1.623669e-04 -1.531235e-03 -6.168764e-04 -1.016060e-04 5.717326e-04 -8.436721e-04 1.307740e-03 2.658077e-04 -1.178421e-04 -1.493792e-03
<VARIANCE> 39
 3.560448e+01 3.133138e+01 1.175854e+02 5.757076e+01 3.574751e+01 4.825400e+01 6.299704e+01 4.654386e+01 5.944289e+01 3.514179e+01 3.786765e+01 3.343571e+01 4.679148e+01 1.818672e+00 1.507933e+00 2.670334e+00 2.176207e+00 1.716306e+00 2.419825e+00 3.138164e+00 2.909526e+00 2.711722e+00 1.967625e+00 2.125080e+00 1.650968e+00 1.255564e+00 2.970746e-01 2.534214e-01 4.172046e-01 3.324886e-01 2.983715e-01 4.159752e-01 5.145366e-01 5.176500e-01 4.586368e-01 3.470287e-01 3.812441e-01 2.994810e-01 2.048787e-01
<GCONST> 1.175816e+02
<STATE> 4
<MEAN> 39
 1.243263e+00 2.009342e+00 -3.600729e+00 -7.780252e+00 -2.124930e+00 2.943915e+00 -9.405266e+00 5.574683e-01 -8.480373e+00 -8.431195e-01 1.753790e+00 -3.834116e+00 6.933920e+01 6.608545e-03 -7.871487e-04 5.575932e-03 9.451325e-03 1.243685e-02 3.598967e-04 4.977515e-03 7.675061e-03 8.751670e-03 -1.601357e-04 -6.787761e-03 1.796699e-03 7.823239e-03 1.084905e-04 6.917859e-04 -1.452734e-03 -1.623669e-04 -1.531235e-03 -6.168764e-04 -1.016060e-04 5.717326e-04 -8.436721e-04 1.307740e-03 2.658077e-04 -1.178421e-04 -1.493792e-03
<VARIANCE> 39
 3.560448e+01 3.133138e+01 1.175854e+02 5.757076e+01 3.574751e+01 4.825400e+01 6.299704e+01 4.654386e+01 5.944289e+01 3.514179e+01 3.786765e+01 3.343571e+01 4.679148e+01 1.818672e+00 1.507933e+00 2.670334e+00 2.176207e+00 1.716306e+00 2.419825e+00 3.138164e+00 2.909526e+00 2.711722e+00 1.967625e+00 2.125080e+00 1.650968e+00 1.255564e+00 2.970746e-01 2.534214e-01 4.172046e-01 3.324886e-01 2.983715e-01 4.159752e-01 5.145366e-01 5.176500e-01 4.586368e-01 3.470287e-01 3.812441e-01 2.994810e-01 2.048787e-01
<GCONST> 1.175816e+02
<TRANSP> 5
 0.000000e+00 1.000000e+00 0.000000e+00 0.000000e+00 0.000000e+00
 0.000000e+00 6.000000e-01 4.000000e-01 0.000000e+00 0.000000e+00
 0.000000e+00 0.000000e+00 6.000000e-01 4.000000e-01 0.000000e+00
 0.000000e+00 0.000000e+00 0.000000e+00 7.000000e-01 3.000000e-01
 0.000000e+00 0.000000e+00 0.000000e+00 0.000000e+00 0.000000e+00
<ENDHMM>
~h "aa"
<BEGINHMM>
<NUMSTATES> 5
<STATE> 2
<MEAN> 39
 2.090650e+00 1.446425e+00 8.716169e+00 -1.802769e+01 -5.884951e+00 -4.532315e+00 -1.069133e+01 1.085997e+01 -1.026908e+01 1.310272e+00 5.291618e+00 -7.505076e+00 7.579224e+01 1.503978e-01 2.717182e-01 1.181221e-01 -1.922118e-01 -3.243510e-01 2.356443e-01 2.599040e-01 7.050716e-01 8.550402e-02 3.386211e-01 5.912507e-01 8.744530e-02 -2.460335e-01 -6.404293e-02 -5.082843e-02 -7.896110e-02 3.275416e-01 2.118067e-01 4.000441e-01 1.290706e-01 -2.864004e-01 2.515387e-02 -2.015366e-01 -1.120270e-01 1.020645e-01 -9.731869e-02
<VARIANCE> 39
 2.946084e+00 1.696560e+01 2.073911e+01 1.754395e+01 2.842395e+01 1.122927e+01 7.294118e+01 1.074732e+02 1.316007e+01 3.731263e+01 1.593570e+01 2.084944e+01 4.551881e+00 9.788991e-02 5.845769e-01 1.196314e+00 1.616489e+00 1.164756e+00 1.326204e+00 2.326560e+00 4.307570e+00 1.063879e+00 2.222275e+00 8.589956e-01 1.245855e+00 1.278329e-01 3.108006e-02 1.797352e-01 7.393448e-02 1.751740e-01 1.487897e-01 1.373903e-01 3.662328e-01 2.308928e-01 1.732130e-01 5.246629e-01 1.945158e-01 2.400285e-01 1.051100e-02
<GCONST> 8.323349e+01
<STATE> 3
<MEAN> 39
 3.379022e+00 3.741474e+00 3.232464e+00 -2.162452e+01 7.391076e-01 4.622413e+00 -1.405373e+01 4.232070e+00 -1.258004e+01 -1.812962e+00 1.092339e+01 -2.903808e+00 7.406229e+01 9.529408e-03 3.159659e-01 8.223085e-02 7.437542e-02 3.369395e-01 8.374020e-01 4.984511e-02 -3.065579e-02 -4.447883e-01 -5.966235e-01 -7.286795e-02 4.622597e-01 -3.175132e-01 -3.920878e-02 2.260697e-02 3.441748e-02 1.667963e-01 2.023034e-02 2.925225e-02 -3.448452e-02 -4.731442e-02 4.598797e-02 1.140192e-02 -1.135885e-01 -5.991989e-02 -4.790222e-02
<VARIANCE> 39
 4.498347e+00 2.408365e+01 2.937230e+01 2.701281e+01 3.217486e+01 2.332520e+01 2.180225e+01 2.343999e+01 4.211799e+01 2.315381e+01 1.604622e+01 3.697636e+01 7.628051e+00 6.347302e-02 4.516801e-01 5.369447e-01 1.516151e+00 8.308043e-01 1.207806e+00 1.058452e+00 1.120216e+00 1.660252e+00 9.307562e-01 9.243745e-01 9.861478e-01 1.480523e-01 3.107536e-02 7.307036e-02 8.170670e-02 1.042411e-01 1.541151e-01 1.618271e-01 1.957628e-01 1.572897e-01 2.517304e-01 1.916121e-01 1.523088e-01 1.659128e-01 1.558101e-02
<GCONST> 7.714816e+01
<STATE> 4
<MEAN> 39
 -8.227957e-01 2.253734e+00 1.162724e+00 -1.120057e+01 3.719980e-01 7.660324e+00 -8.509798e+00 3.926702e+00 -9.230074e+00 -1.312293e+00 4.425705e+00 -3.704669e+00 7.037700e+01 -6.326503e-01 1.355149e-01 -4.181483e-01 1.470881e+00 3.007157e-01 9.694984e-01 7.732322e-01 -9.547796e-02 1.003651e+00 -3.060692e-02 -7.138324e-01 4.051688e-02 -7.227018e-01 -3.946068e-01 -1.133766e-01 1.626274e-02 -2.516995e-01 8.142894e-03 -1.746529e-01 1.980221e-01 2.535767e-03 2.195285e-01 -6.221352e-03 1.102351e-02 1.675084e-01 2.225836e-01
<VARIANCE> 39
 4.725158e+01 1.917424e+01 5.919575e+01 4.018174e+01 6.152336e+01 2.129981e+01 3.497352e+01 1.407350e+01 3.661265e+01 1.128586e+01 1.737613e+01 1.275774e+01 2.293165e+01 4.090024e+00 1.116396e+00 2.459043e+00 3.980016e+00 3.840343e+00 2.004057e+00 2.470317e+00 1.631831e+00 2.148021e+00 2.148748e+00 1.073688e+00 1.487643e+00 1.257495e+00 9.041787e-01 1.392121e-01 4.155163e-01 4.258645e-01 5.295042e-01 2.837182e-01 5.245020e-01 2.781372e-01 4.745164e-01 3.022638e-01 2.125467e-01 2.023512e-01 2.918294e-01
<GCONST> 1.097118e+02
<TRANSP> 5
 0.000000e+00 1.000000e+00 0.000000e+00 0.000000e+00 0.000000e+00
 0.000000e+00 7.891846e-01 2.108154e-01 0.000000e+00 0.000000e+00
 0.000000e+00 0.000000e+00 8.703318e-01 1.296682e-01 0.000000e+00
 0.000000e+00 0.000000e+00 0.000000e+00 6.442415e-01 3.557585e-01
 0.000000e+00 0.000000e+00 0.000000e+00 0.000000e+00 0.000000e+00
<ENDHMM>
~h "ae"
<BEGINHMM>
<NUMSTATES> 5
<STATE> 2
<MEAN> 39
 1.832834e+00 4.534218e+00 -2.711829e+00 -8.490755e+00 -4.102191e-01 1.090708e+01 -7.671014e+00 -3.508602e-03 -6.972176e+00 -5.276857e-01 -4.382133e-01 -3.876884e+00 6.790514e+01 1.042578e-01 -2.511279e-01 5.941815e-01 -5.680821e-01 -3.011784e-01 -8.348272e-01 -1.846634e-01 2.575822e-01 -8.697228e-01 6.884207e-01 6.468590e-01 -3.619069e-01 5.058516e-01 -9.097818e-02 -1.938295e-01 6.285422e-02 -5.252033e-02 1.953512e-02 -1.835165e-01 1.418447e-01 1.468284e-01 -2.753937e-02 1.488783e-01 1.978305e-01 -1.060689e-02 1.239486e-01
<VARIANCE> 39
 1.544733e+01 2.765357e+01 7.584563e+01 3.920315e+01 1.666835e+01 5.868177e+01 3.408983e+01 2.024988e+01 4.891567e+01 1.627761e+01 1.963482e+01 2.173283e+01 3.249645e+01 1.940862e+00 2.116011e+00 5.395802e+00 4.389067e+00 1.846255e+00 3.148101e+00 2.111676e+00 2.274126e+00 3.670217e+00 1.606392e+00 3.515809e+00 2.099765e+00 1.319324e+00 4.075888e-01 3.335486e-01 8.054763e-01 7.254657e-01 2.101253e-01 4.952008e-01 7.172371e-01 5.347256e-01 1.004434e+00 2.238354e-01 5.757928e-01 3.971026e-01 1.980718e-01
<GCONST> 1.169877e+02
<STATE> 3
<MEAN> 39
 1.570195e+00 -6.251424e+00 2.213310e-01 -1.586177e+01 -3.781698e+00 -3.980337e+00 -1.412494e+01 -2.034473e+00 -1.260534e+01 5.602937e+00 5.551541e+00 -8.296089e+00 7.854317e+01 2.853785e-01 -5.280291e-02 4.290705e-02 2.631302e-01 -3.446206e-01 -4.657788e-01 7.613048e-02 -6.145941e-02 6.493335e-02 4.983102e-01 5.171480e-01 6.159883e-01 -2.213233e-01 5.314034e-02 4.109299e-01 -4.252688e-01 7.723431e-01 2.367383e-01 6.620537e-01 4.095960e-01 1.731081e-01 4.012385e-01 -4.549190e-01 -6.509061e-01 -6.607589e-02 -5.739121e-01
<VARIANCE> 39
 3.659979e+00 4.244540e+01 6.159791e+01 1.368402e+01 1.690784e+01 1.930716e+01 2.922402e+01 3.867830e+01 1.790373e+01 2.730600e+01 2.678087e+01 2.324578e+01 7.347569e+00 4.762083e-01 1.709063e+00 1.878619e+00 4.695189e+00 1.418409e+00 2.587505e+00 1.919128e+00 2.334467e+00 2.308184e+00 1.429369e+00 3.393124e+00 1.161980e+00 2.656042e+00 1.091758e-01 1.748027e-01 4.610356e-01 2.076363e-01 2.861155e-01 3.156616e-01 6.063165e-01 7.100253e-01 5.663981e-01 2.246041e-01 4.015411e-01 4.609745e-01 8.551183e-02
<GCONST> 1.034518e+02
<STATE> 4
<MEAN> 39
 1.070409e+00 -9.224886e-01 2.734089e+00 -1.492844e+01 8.563778e-01 6.722401e-01 -1.143019e+01 1.971077e-01 -9.456644e+00 4.541451e+00 6.850204e+00 -8.263344e+00 7.650069e+01 7.419988e-02 2.141660e-01 -1.722648e-01 5.413653e-01 1.871437e-01 4.270908e-01 4.036325e-02 8.166303e-02 1.656730e-01 5.710335e-02 -5.030501e-01 -1.074628e-01 -5.039740e-01 -1.887001e-02 2.066535e-02 -1.690606e-02 1.230733e-01 1.402686e-03 1.385951e-01 1.141071e-01 5.888649e-02 -4.682377e-02 -5.027955e-02 -7.353086e-02 -5.072457e-02 -1.070118e-01
<VARIANCE> 39
 2.207639e+00 1.201876e+01 1.367602e+01 1.729809e+01 2.380167e+01 1.122729e+01 2.317568e+01 4.833562e+01 1.859944e+01 3.059206e+01 1.083241e+01 1.473979e+01 4.177664e+00 1.195524e-01 8.422127e-01 1.850677e+00 1.847218e+00 7.332777e-01 1.656956e+00 1.909241e+00 2.969523e+00 1.740979e+00 2.128680e+00 1.060131e+00 1.059076e+00 1.104157e+00 2.480462e-02 9.411121e-02 2.165627e-01 1.102253e-01 1.347099e-01 2.392022e-01 2.634875e-01 3.303431e-01 3.589113e-01 2.908918e-01 1.603040e-01 1.369969e-01 6.093876e-02
<GCONST> 8.371872e+01
<TRANSP> 5
 0.000000e+00 1.000000e+00 0.000000e+00 0.000000e+00 0.000000e+00
 0.000000e+00 7.743203e-01 2.256797e-01 0.000000e+00 0.000000e+00
 0.000000e+00 0.000000e+00 7.387697e-01 2.612303e-01 0.000000e+00
 0.000000e+00 0.000000e+00 0.000000e+00 8.327640e-01 1.672360e-01
 0.000000e+00 0.000000e+00 0.000000e+00 0.000000e+00 0.000000e+00
<ENDHMM>
~h "ah"
<BEGINHMM>
<NUMSTATES> 5
<STATE> 2
<MEAN> 39
 3.323772e+00 3.702717e+00 -8.703903e+00 -2.444392e+00 -3.778037e+00 5.205977e+00 -5.240644e+00 1.494097e+00 -6.656386e+00 -6.410871e-01 -8.455307e-01 -3.823643e+00 6.540888e+01 7.156071e-02 3.309513e-01 -1.140581e+00 3.394135e-01 -2.415541e-01 2.831739e-01 2.867894e-01 5.016614e-01 8.510644e-01 5.280957e-01 -9.409659e-02 2.864739e-01 -7.063692e-01 -2.458890e-01 -4.103769e-01 7.568786e-01 -5.588201e-01 -9.356937e-03 -2.202831e-01 -4.099284e-01 -1.790489e-01 -4.160739e-01 6.101233e-02 5.739942e-01 -1.567389e-01 5.240304e-01
<VARIANCE> 39
 7.381323e+00 1.206179e+01 5.320949e+01 1.948992e+01 1.082543e+01 4.558982e+01 1.757799e+01 1.773072e+01 3.098747e+01 2.255198e+01 2.140957e+01 2.664507e+01 1.903931e+01 5.305102e-01 5.759122e-01 3.209446e+00 1.646712e+00 1.176477e+00 1.341545e+00 2.101133e+00 2.562344e+00 2.102690e+00 1.561850e+00 2.120819e+00 1.575916e+00 8.567053e-01 2.053551e-01 2.179318e-01 4.696950e-01 2.074428e-01 2.458648e-01 4.878390e-01 1.725379e-01 8.958024e-01 5.117807e-01 3.733226e-01 3.858234e-01 5.086056e-01 1.914423e-01
<GCONST> 1.013963e+02
<STATE> 3
<MEAN> 39
 3.182949e+00 4.629356e+00 -1.214139e+01 -4.575009e+00 -3.945003e+00 5.712889e+00 -6.369688e+00 2.518112e+00 -5.242540e+00 9.764047e-01 1.801093e-01 -3.282183e+00 6.336110e+01 -1.101230e+00 -1.584250e+00 2.828091e+00 -1.780014e+00 -1.749086e-01 -3.003190e-01 -1.145869e+00 2.780644e-01 -1.339370e+00 6.026464e-02 1.933835e+00 -7.952065e-01 1.593132e+00 -2.919862e-01 -6.023278e-01 1.203214e+00 -4.494267e-01 1.860533e-01 -5.099418e-01 -6.174166e-01 -3.689370e-01 -5.663066e-01 -1.599935e-01 4.279316e-01 -6.963827e-02 9.101302e-01
<VARIANCE> 39
 4.885659e+00 9.747483e+00 2.264820e+01 2.354877e+01 1.309784e+01 2.657773e+01 2.658213e+01 1.407513e+01 1.547702e+01 2.087311e+01 3.390826e+01 1.851284e+01 1.140013e+01 1.114580e+00 2.055737e+00 4.414843e+00 1.871918e+00 1.864528e+00 1.731562e+00 2.777601e+00 3.817730e+00 4.038242e+00 2.420925e+00 3.275277e+00 3.623680e+00 9.954364e-01 2.654714e-01 2.767477e-01 3.864259e-01 3.845541e-01 2.862366e-01 3.356881e-01 5.024931e-01 5.967699e-01 3.231165e-01 4.571376e-01 6.469040e-01 3.177221e-01 1.406094e-01
<GCONST> 1.059533e+02
<STATE> 4
<MEAN> 39
 9.793054e-01 -1.635622e+00 9.292197e-01 -1.085318e+01 -3.279559e+00 7.509783e-01 -1.423899e+01 1.964842e+00 -1.392174e+01 5.974024e-01 7.647934e+00 -6.781553e+00 7.202426e+01 -2.159211e-01 -5.319655e-01 2.933013e+00 -7.988818e-01 8.038055e-01 -1.229316e+00 -2.069780e+00 -1.675792e+00 -1.401606e+00 -9.997610e-01 7.729999e-01 -2.688028e-01 2.469582e+00 6.720553e-02 4.762089e-01 -5.658491e-01 4.420995e-01 2.196085e-01 3.301940e-01 4.235876e-01 -3.202580e-01 4.565350e-01 -2.052926e-01 -6.714282e-01 2.319268e-01 -3.182899e-01
<VARIANCE> 39
 1.266831e+01 2.597388e+01 2.819049e+01 3.065911e+01 2.099790e+01 4.046297e+01 6.155575e+01 4.216946e+01 4.653657e+01 3.044913e+01 3.379368e+01 2.479563e+01 2.504961e+01 2.276552e+00 4.154303e+00 5.290384e+00 3.835700e+00 1.919662e+00 4.156342e+00 5.597346e+00 4.230786e+00 4.704273e+00 3.113977e+00 4.845565e+00 2.630361e+00 2.922161e+00 2.723666e-01 5.902012e-01 8.243060e-01 5.054708e-01 3.612549e-01 9.115884e-01 1.277668e+00 1.184257e+00 8.227789e-01 6.937497e-01 5.243096e-01 6.259934e-01 7.033409e-01
<GCONST> 1.274236e+02
<TRANSP> 5
 0.000000e+00 1.000000e+00 0.000000e+00 0.000000e+00 0.000000e+00
 0.000000e+00 5.466931e-01 4.533069e-01 0.000000e+00 0.000000e+00
 0.000000e+00 0.000000e+00 4.513601e-01 5.486398e-01 0.000000e+00
 0.000000e+00 0.000000e+00 0.000000e+00 6.061121e-01 3.938878e-01
 0.000000e+00 0.000000e+00 0.000000e+00 0.000000e+00 0.000000e+00
<ENDHMM>
~h "ao"
<BEGINHMM>
<NUMSTATES> 5
<STATE> 2
<MEAN> 39
 -1.384047e+00 2.537043e+00 4.823992e+00 -1.007665e+01 -4.342685e+00 -8.666148e-02 -1.303216e+01 -2.148525e+00 -1.050499e+01 -6.728046e+00 -2.701564e+00 -5.148040e+00 7.427374e+01 2.145627e+00 9.999628e-02 -1.879011e-01 -1.368179e+00 -1.637003e+00 -2.016965e+00 -1.351148e+00 7.577204e-01 -9.052845e-01 -8.494240e-01 1.334875e+00 -1.346100e+00 1.840792e-01 2.396159e-02 -8.745062e-02 -1.376580e-01 -5.606967e-01 -3.770680e-01 -4.134265e-01 2.655010e-01 4.398870e-01 1.146766e-02 3.550366e-01 7.290611e-01 -4.597191e-01 2.086947e-01
<VARIANCE> 39
 6.533561e+01 2.130105e+01 2.957433e+01 1.600623e+01 2.083041e+01 8.397356e+01 4.291737e+01 3.703013e+01 1.812958e+01 1.020931e+01 2.381961e+01 2.897846e+01 1.174214e+01 7.391486e+00 1.169587e+00 1.301586e+00 1.813115e+00 3.960891e+00 4.525575e+00 3.586497e+00 8.427991e+00 4.120336e+00 1.384654e+00 2.860428e+00 3.257557e+00 5.319520e-01 3.946110e-01 1.808975e-01 1.216638e-01 4.520843e-01 5.957560e-01 7.971136e-01 4.458438e-01 6.286504e-01 3.267719e-01 4.385127e-01 3.230714e-01 4.791923e-01 9.947564e-02
<GCONST> 1.131142e+02
<STATE> 3
<MEAN> 39
 3.282665e+00 1.439265e+00 4.259023e+00 -1.670163e+01 -1.193922e+01 -6.517575e+00 -1.331072e+01 1.534841e+00 -1.275159e+01 -7.359785e+00 4.400005e+00 -7.928551e+00 7.650570e+01 1.296569e+00 -3.243754e-01 -9.264345e-01 -1.744246e+00 -1.641076e+00 -1.693042e+00 4.215505e-01 1.813781e+00 -4.839957e-01 1.068965e-01 2.007959e+00 -1.550027e+00 4.346401e-01 -6.841898e-01 -9.105569e-02 -5.549388e-04 3.514540e-01 6.954897e-01 7.680460e-01 5.495040e-01 -4.543713e-02 2.346206e-01 3.216447e-01 -4.534774e-01 2.230991e-01 -9.030731e-02
<VARIANCE> 39
 6.747201e+00 1.247467e+01 1.714153e+01 1.272171e+01 1.977616e+01 2.069162e+01 1.848380e+01 1.267642e+02 1.870148e+01 4.241917e+01 1.741922e+01 5.885798e+01 4.707430e+00 3.970916e+00 1.144506e+00 5.895022e-01 2.167690e+00 2.679475e+00 3.597663e+00 3.552373e+00 7.298172e+00 2.952466e+00 3.466227e+00 2.966235e+00 2.562117e+00 5.914243e-01 3.594549e-01 1.636103e-01 1.430102e-01 2.030170e-01 3.240115e-01 2.241112e-01 3.431695e-01 1.262044e+00 5.792585e-01 3.671153e-01 5.527322e-01 5.756990e-01 5.471585e-02
<GCONST> 1.061044e+02
<STATE> 4
<MEAN> 39
 4.762795e+00 6.793287e-01 1.440424e+00 -1.736942e+01 -1.103638e+01 -6.938524e+00 -1.178463e+01 5.549929e+00 -1.652722e+01 -3.382021e+00 6.148004e+00 -1.154693e+01 7.593322e+01 6.311829e-02 -1.272700e-01 -8.734403e-02 3.829280e-01 2.607034e-01 3.069321e-01 -2.288274e-01 -5.669341e-01 -5.320096e-01 4.395969e-01 6.099151e-03 2.470926e-02 -1.619929e-01 -2.255609e-02 2.300377e-02 8.170751e-02 2.219461e-01 6.596449e-03 8.744752e-02 -1.027678e-01 -1.907917e-01 1.344053e-01 -5.655247e-02 -1.465767e-01 1.346684e-01 -5.662493e-02
<VARIANCE> 39
 4.374405e+00 1.205300e+01 1.712026e+01 2.499707e+01 5.343799e+01 4.324724e+01 2.104467e+01 1.005383e+02 3.416437e+01 4.439609e+01 1.596355e+01 3.511484e+01 3.656096e+00 2.177896e-01 1.026852e+00 5.629497e-01 1.233628e+00 1.881823e+00 1.485219e+00 1.592847e+00 2.656989e+00 2.069523e+00 2.224217e+00 1.403667e+00 1.599623e+00 2.082045e-01 4.486618e-02 1.051354e-01 8.786957e-02 1.540379e-01 2.903672e-01 2.066032e-01 2.513578e-01 3.044083e-01 3.276335e-01 3.048020e-01 2.997710e-01 2.452358e-01 2.714860e-02
<GCONST> 8.986462e+01
<TRANSP> 5
 0.000000e+00 1.000000e+00 0.000000e+00 0.000000e+00 0.000000e+00
 0.000000e+00 2.782238e-01 7.217762e-01 0.000000e+00 0.000000e+00
 0.000000e+00 0.000000e+00 6.095877e-01 3.904122e-01 0.000000e+00
 0.000000e+00 0.000000e+00 0.000000e+00 9.172853e-01 8.271475e-02
 0.000000e+00 0.000000e+00 0.000000e+00 0.000000e+00 0.000000e+00
<ENDHMM>
~h "aw"
<BEGINHMM>
<NUMSTATES> 5
<STATE> 2
<MEAN> 39
 -2.610033e+00 -9.450445e-01 -4.690394e+00 -1.097546e+01 -5.523205e+00 6.121320e+00 -4.545705e+00 -2.449104e+00 -5.115858e+00 -2.953345e+00 1.175468e+00 -5.884834e-02 7.028214e+01 -1.098246e+00 -8.058093e-01 1.522129e+00 -1.584674e+00 -5.868120e-01 1.181200e-02 7.638409e-01 -2.308651e-01 9.254076e-01 -2.008795e-01 1.395917e-01 3.866476e-01 1.095071e+00 -8.277991e-03 -2.763398e-02 3.398231e-01 1.280867e-01 9.199081e-02 -9.606192e-02 -5.904351e-02 1.314947e-01 3.974165e-02 8.733616e-02 -6.419273e-02 -1.278387e-01 -2.436231e-02
<VARIANCE> 39
 2.249331e+01 1.807553e+01 4.765216e+01 5.838085e+01 4.648893e+01 1.780774e+01 4.990474e+01 2.849176e+01 1.572396e+01 9.988370e+00 1.844735e+01 2.855688e+01 3.462471e+01 1.320612e+00 1.247282e+00 2.786456e+00 4.155387e+00 2.317568e+00 2.120949e+00 3.159150e+00 4.788685e+00 1.914538e+00 1.105608e+00 1.454859e+00 2.844547e+00 3.290050e+00 4.214923e-01 2.645667e-01 4.787040e-01 1.055076e+00 3.495177e-01 3.894551e-01 8.121295e-01 1.153617e+00 3.945243e-01 1.974534e-01 3.200369e-01 5.589456e-01 9.960971e-01
<GCONST> 1.158674e+02
<STATE> 3
<MEAN> 39
 -1.145266e+00 4.074244e-01 7.025772e+00 -1.414466e+01 -1.075355e+01 1.866835e+00 -1.120312e+01 1.513841e+00 -5.754674e+00 -4.489512e+00 2.670446e-01 -4.304083e+00 7.200091e+01 1.382242e+00 1.212313e+00 5.454031e-01 -3.567328e-01 -1.267777e+00 -1.186081e+00 -1.974798e+00 8.975174e-01 -1.214591e+00 -3.065535e-01 4.128217e-01 -1.319015e+00 -6.876101e-02 3.158444e-03 -8.888616e-02 -2.405029e-01 -2.038387e-01 -1.400053e-01 -2.429308e-02 3.230939e-01 9.700707e-02 -1.848538e-01 4.646672e-02 2.098575e-01 -2.544214e-02 1.870529e-01
<VARIANCE> 39
 2.738806e+01 3.367182e+01 1.920155e+01 1.929044e+01 2.711383e+01 2.985073e+01 9.686713e+01 7.722200e+00 2.889940e+01 2.709799e+01 1.738687e+01 3.125890e+01 4.041874e+00 1.622923e+00 2.523817e+00 9.708787e-01 1.517033e+00 1.238047e+00 2.091538e+00 8.030160e+00 1.232548e+00 2.524645e+00 2.223966e+00 2.022320e+00 2.307593e+00 7.027367e-01 5.479589e-01 7.640762e-01 1.861461e-01 2.308193e-01 3.013906e-01 5.322832e-01 2.062683e+00 3.624523e-01 5.885495e-01 5.355485e-01 3.119042e-01 5.355858e-01 7.605793e-02
<GCONST> 1.083852e+02
<STATE> 4
<MEAN> 39
 4.285607e+00 -1.052965e-01 4.276177e+00 -1.876667e+01 -1.146110e+01 -1.653315e+00 -1.404156e+01 8.785675e+00 -1.342114e+01 -5.410157e+00 7.373291e+00 -9.272930e+00 7.603824e+01 9.941413e-02 -2.150759e-01 -7.451149e-02 3.220088e-01 3.112490e-01 1.350264e-01 1.695997e-01 -2.790890e-01 -5.238938e-01 -2.482760e-01 8.515050e-02 3.774386e-01 5.386701e-02 -1.539178e-02 5.372414e-02 3.543047e-02 1.811651e-01 1.140365e-01 1.035078e-01 -6.086184e-02 -2.651012e-01 3.336262e-02 -5.371592e-02 -1.113329e-01 5.907354e-02 -8.070888e-02
<VARIANCE> 39
 2.756029e+00 1.388628e+01 1.746945e+01 2.475647e+01 4.467104e+01 1.994962e+01 4.232612e+01 2.948457e+01 2.245965e+01 3.016858e+01 1.217061e+01 4.077405e+01 3.987959e+00 1.719876e-01 9.384300e-01 6.193317e-01 1.206539e+00 9.513183e-01 1.185123e+00 2.372539e+00 2.802190e+00 1.565443e+00 1.552259e+00 9.746489e-01 1.730893e+00 2.409751e-01 2.824302e-02 8.849176e-02 6.795038e-02 1.061179e-01 1.917021e-01 2.080768e-01 3.874318e-01 2.129353e-01 3.207011e-01 3.374994e-01 1.694889e-01 2.798420e-01 1.646849e-02
<GCONST> 8.329013e+01
<TRANSP> 5
 0.000000e+00 1.000000e+00 0.000000e+00 0.000000e+00 0.000000e+00
 0.000000e+00 8.310984e-01 1.689017e-01 0.000000e+00 0.000000e+00
 0.000000e+00 0.000000e+00 8.401980e-01 1.598021e-01 0.000000e+00
 0.000000e+00 0.000000e+00 0.000000e+00 9.369094e-01 6.309057e-02
 0.000000e+00 0.000000e+00 0.000000e+00 0.000000e+00 0.000000e+00
<ENDHMM>
~h "ax"
<BEGINHMM>
<NUMSTATES> 5
<STATE> 2
<MEAN> 39
 4.270925e+00 3.554621e+00 -5.359184e+00 -2.079960e+00 -1.517075e+00 4.980820e+00 -9.686202e+00 -2.561028e+00 -1.115874e+01 -7.168181e-01 1.105876e-02 -3.272249e+00 6.721981e+01 2.095296e-01 5.071887e-01 -1.184141e-01 5.464544e-01 1.284663e-02 8.153102e-01 5.453478e-01 1.067140e+00 4.134994e-01 -5.744865e-01 -5.608807e-01 -2.508924e-01 -4.954084e-01 -2.832451e-01 -2.878586e-01 3.553981e-01 -3.016621e-01 5.761310e-02 -2.986860e-01 -1.996299e-01 -5.279994e-02 8.821414e-02 -8.426090e-02 1.912558e-01 -1.086843e-02 3.555712e-01
<VARIANCE> 39
 5.955843e+00 1.734295e+01 7.488418e+01 4.172909e+01 2.841945e+01 4.608838e+01 4.856897e+01 4.478419e+01 6.739881e+01 2.790035e+01 4.031665e+01 1.905765e+01 2.036713e+01 5.816845e-01 7.533159e-01 4.905848e+00 2.260025e+00 2.001747e+00 3.568557e+00 4.329484e+00 3.913994e+00 3.456349e+00 2.353498e+00 2.260497e+00 1.607236e+00 1.368452e+00 2.099602e-01 2.477110e-01 6.672087e-01 3.247167e-01 3.259685e-01 6.871776e-01 6.054481e-01 8.644484e-01 5.525462e-01 4.866956e-01 5.317534e-01 2.706501e-01 2.232656e-01
<GCONST> 1.151180e+02
<STATE> 3
<MEAN> 39
 4.655723e+00 5.362430e+00 -5.782395e+00 -2.708261e+00 2.920308e-03 7.653749e+00 -8.573779e+00 7.920305e-01 -1.056740e+01 -3.265563e+00 -2.167931e+00 -4.977337e+00 6.610172e+01 -1.022534e+00 -8.764166e-01 2.009989e+00 -9.745234e-01 6.601228e-01 -9.485696e-01 -1.012799e+00 -4.032077e-01 -4.048668e-01 -7.387395e-01 4.019549e-01 4.103443e-02 1.396773e+00 -3.634168e-01 -5.350580e-01 5.081379e-01 -4.737884e-01 3.915783e-02 -8.331884e-01 -5.728475e-01 -8.890076e-01 -3.329701e-01 2.407897e-01 5.422847e-01 2.967162e-01 6.732539e-01
<VARIANCE> 39
 4.498750e+00 2.285390e+01 4.301340e+01 4.844566e+01 2.894590e+01 5.443656e+01 3.413397e+01 3.444752e+01 4.743367e+01 3.691820e+01 2.610737e+01 2.264025e+01 1.497215e+01 1.137770e+00 1.910676e+00 6.920897e+00 2.910202e+00 2.322240e+00 5.233052e+00 6.657938e+00 5.221357e+00 4.123181e+00 3.295374e+00 3.250538e+00 2.491859e+00 1.406564e+00 1.834969e-01 2.760049e-01 5.260098e-01 3.791912e-01 5.257252e-01 7.450002e-01 8.431086e-01 7.089857e-01 8.780572e-01 5.683274e-01 4.602627e-01 4.564172e-01 2.067275e-01
<GCONST> 1.199293e+02
<STATE> 4
<MEAN> 39
 1.302252e+00 4.838368e-01 2.779165e+00 -8.255754e+00 1.232263e-01 4.081546e-01 -1.633201e+01 -6.972438e+00 -1.511770e+01 -3.747656e+00 1.854184e+00 -3.285099e+00 7.395197e+01 -2.797057e-01 -8.555226e-01 1.126441e+00 -3.912566e-01 1.987279e-01 -1.911887e+00 -1.166377e+00 -1.712638e+00 -1.227185e+00 3.455925e-01 1.414955e+00 -8.041111e-02 1.531288e+00 2.228480e-01 3.597015e-01 -5.040807e-01 2.627683e-01 7.858243e-02 4.883448e-01 4.655965e-01 4.080101e-01 2.469806e-01 1.188751e-01 -1.126487e-01 -2.269100e-01 -4.293293e-01
<VARIANCE> 39
 9.765501e+00 1.604664e+01 5.609531e+01 5.433693e+01 3.355805e+01 5.906517e+01 8.473211e+01 5.906329e+01 4.991605e+01 4.357027e+01 4.296100e+01 3.637477e+01 1.803090e+01 1.752614e+00 2.468492e+00 4.400414e+00 3.405574e+00 2.715549e+00 5.292422e+00 8.448507e+00 7.117378e+00 4.840107e+00 2.677445e+00 2.835467e+00 2.046900e+00 2.894347e+00 2.375175e-01 3.535831e-01 7.877184e-01 6.732787e-01 5.128971e-01 1.145589e+00 1.437127e+00 1.436604e+00 8.504693e-01 6.595724e-01 7.454680e-01 3.590139e-01 3.355108e-01
<GCONST> 1.292049e+02
<TRANSP> 5
 0.000000e+00 1.000000e+00 0.000000e+00 0.000000e+00 0.000000e+00
 0.000000e+00 4.761055e-01 5.238945e-01 0.000000e+00 0.000000e+00
 0.000000e+00 0.000000e+00 4.602634e-01 5.397366e-01 0.000000e+00
 0.000000e+00 0.000000e+00 0.000000e+00 5.766383e-01 4.233617e-01
 0.000000e+00 0.000000e+00 0.000000e+00 0.000000e+00 0.000000e+00
<ENDHMM>
~h "ay"
<BEGINHMM>
<NUMSTATES> 5
<STATE> 2
<MEAN> 39
 2.682127e+00 -2.331904e+00 1.945359e+00 -1.784521e+01 -1.889295e+00 -2.313717e+00 -1.629443e+01 -1.273767e+00 -1.085391e+01 4.127007e+00 8.304983e+00 -9.787072e+00 7.793481e+01 4.644566e-02 -3.854176e-01 -7.271624e-02 5.271623e-01 3.105615e-01 -4.400657e-01 -3.308935e-02 -2.607938e-01 5.658080e-02 8.662260e-01 -4.186557e-01 -5.452586e-02 6.486885e-03 -5.292284e-02 8.666719e-02 3.857838e-02 1.274960e-01 1.315395e-01 -5.622561e-02 -1.453869e-01 -1.391045e-01 -7.700407e-02 -7.319938e-02 -8.748591e-02 1.525908e-01 -6.059677e-02
<VARIANCE> 39
 1.047046e+01 3.797989e+01 9.096212e+00 1.910452e+01 1.298621e+01 2.049744e+01 2.013607e+01 3.069518e+01 2.493395e+01 3.029827e+01 2.128807e+01 2.864235e+01 5.607386e+00 1.561510e-01 5.938396e-01 5.390380e-01 7.544921e-01 7.058424e-01 6.767505e-01 1.345110e+00 1.335197e+00 1.005352e+00 1.037529e+00 8.689503e-01 1.024681e+00 4.948360e-02 4.487834e-02 9.233216e-02 7.235234e-02 1.008268e-01 1.083433e-01 1.310537e-01 2.224879e-01 1.844079e-01 2.509227e-01 2.029961e-01 2.232893e-01 1.638975e-01 2.073449e-02
<GCONST> 7.506906e+01
<STATE> 3
<MEAN> 39
 2.537134e+00 -3.666277e+00 1.253639e+00 -1.472141e+01 1.794863e+00 -6.003837e+00 -2.016692e+01 -4.596303e+00 -1.298404e+01 7.995544e+00 4.834461e+00 -7.207313e+00 7.744793e+01 -6.489941e-02 -1.133429e-01 6.552444e-01 1.006499e+00 1.753777e-02 -1.024696e-01 -7.562823e-01 -5.674869e-01 -7.893826e-01 -5.558833e-01 5.784722e-02 5.722702e-01 -1.711981e-01 1.005506e-02 1.952167e-01 8.046758e-02 -4.069474e-04 -1.400624e-01 2.722314e-01 5.044143e-02 1.839781e-01 -6.379682e-02 -3.235068e-01 6.520229e-02 -6.581332e-02 -1.425223e-01
<VARIANCE> 39
 2.220760e+01 1.850864e+01 4.026511e+01 2.837317e+01 1.390524e+01 2.805299e+01 4.078072e+01 3.908718e+01 4.838309e+01 3.200346e+01 2.027592e+01 1.952261e+01 6.021781e+00 1.277039e-01 2.852317e-01 1.080374e+00 6.208140e-01 8.925441e-01 9.549606e-01 1.427366e+00 9.897776e-01 1.336292e+00 2.277910e+00 1.943804e+00 1.103011e+00 4.006922e-02 2.376428e-02 6.888868e-02 1.394620e-01 1.329678e-01 1.709249e-01 1.629600e-01 2.297743e-01 1.351956e-01 2.158715e-01 2.294394e-01 3.123636e-01 1.825273e-01 3.614583e-02
<GCONST> 8.168640e+01
<STATE> 4
<MEAN> 39
 -3.132847e+00 -5.296871e+00 5.772481e+00 -1.264696e+01 5.761102e-01 -3.911578e-01 -1.602638e+01 -5.053000e+00 -8.034728e+00 2.506411e+00 4.744322e+00 -4.522045e+00 7.620544e+01 4.234281e-01 3.968374e-01 1.411160e-01 5.056858e-01 8.860563e-02 4.055914e-01 -3.469259e-01 1.048068e-01 -7.272818e-01 -4.576575e-01 -6.224204e-01 -1.276442e-01 -6.649332e-01 1.186785e-01 3.628196e-01 -3.511990e-01 6.355774e-03 -3.821317e-02 4.342993e-01 4.356670e-01 3.867943e-01 1.376246e-01 -2.541302e-01 -4.543491e-01 -5.630211e-02 -3.187490e-01
<VARIANCE> 39
 7.227264e+01 2.325075e+01 2.245591e+01 3.615803e+01 1.139537e+01 5.447640e+01 9.487039e+01 2.118823e+01 1.198974e+02 4.177974e+01 2.381994e+01 2.257794e+01 8.422938e+00 3.360551e-01 5.362452e-01 4.722347e-01 1.047603e+00 7.845281e-01 1.768053e+00 1.610554e+00 1.311653e+00 1.354395e+00 2.231661e+00 1.918824e+00 1.105104e+00 1.567871e-01 5.638497e-02 9.675052e-02 1.023526e-01 1.848211e-01 1.531224e-01 1.413013e-01 4.570995e-01 1.462097e-01 4.107298e-01 4.437723e-01 3.460823e-01 1.921136e-01 5.672237e-02
<GCONST> 9.244001e+01
<TRANSP> 5
 0.000000e+00 1.000000e+00 0.000000e+00 0.000000e+00 0.000000e+00
 0.000000e+00 8.725891e-01 1.274110e-01 0.000000e+00 0.000000e+00
 0.000000e+00 0.000000e+00 6.042124e-01 3.957876e-01 0.000000e+00
 0.000000e+00 0.000000e+00 0.000000e+00 4.516357e-01 5.483643e-01
 0.000000e+00 0.000000e+00 0.000000e+00 0.000000e+00 0.000000e+00
<ENDHMM>
~h "ch"
<BEGINHMM>
<NUMSTATES> 5
<STATE> 2
<MEAN> 39
 -8.980421e+00 -3.927513e+00 3.971302e+00 -5.800507e+00 -2.118832e+00 1.087580e+00 -6.040026e+00 3.560566e+00 -1.748546e+00 -2.045941e+00 -1.868638e-01 -3.471839e+00 7.305586e+01 -3.391002e+00 -2.323685e+00 2.606195e+00 -1.663731e-01 -1.886557e-03 -2.021204e+00 -8.062467e-01 -1.642013e-01 9.166840e-01 -7.770382e-01 7.702650e-02 -1.464500e-01 2.429337e+00 3.059396e-01 -8.589738e-02 2.294138e-01 2.155159e-01 2.282766e-01 9.762084e-02 -6.028571e-01 -2.081851e-01 -3.128783e-01 -1.934643e-01 -1.505458e-01 -1.471625e-01 4.668533e-02
<VARIANCE> 39
 7.882628e+01 5.825021e+01 6.639554e+01 7.937202e+01 3.672796e+01 3.422055e+01 3.937346e+01 2.354120e+01 4.460625e+01 1.486900e+01 1.349071e+01 1.900271e+01 3.364843e+01 5.323366e+00 2.756009e+00 3.619181e+00 3.245723e+00 2.068204e+00 5.023062e+00 2.341963e+00 1.742173e+00 3.341966e+00 1.181159e+00 2.067470e+00 1.389055e+00 2.132080e+00 2.123943e+00 8.478333e-01 1.710568e+00 4.157625e-01 3.018377e-01 1.213331e+00 4.331233e-01 3.169138e-01 1.142428e+00 1.723798e-01 3.806233e-01 2.922309e-01 1.099063e+00
<GCONST> 1.238188e+02
<STATE> 3
<MEAN> 39
 -8.173440e+00 -6.026379e+00 1.452198e+01 -7.622096e+00 -3.715914e+00 -5.737530e-01 -1.383535e+01 -1.677711e+00 -7.659142e+00 -5.255467e+00 -5.353082e+00 -8.628771e+00 7.592554e+01 -2.016892e-01 -4.924537e-01 7.035276e-02 6.200979e-01 -1.757083e-01 -3.217072e-01 1.778690e-01 7.742628e-02 7.413280e-02 1.150144e-01 2.302361e-02 -9.753173e-02 1.947889e-01 1.213210e-01 5.053062e-02 -2.414227e-01 -9.150029e-04 1.008864e-01 2.963578e-02 4.163042e-02 3.809173e-02 1.176314e-01 1.580382e-01 7.203203e-02 6.969349e-02 -1.087853e-01
<VARIANCE> 39
 6.011613e+01 2.828401e+01 1.746219e+01 2.969901e+01 2.652165e+01 2.644600e+01 9.448800e+01 2.404597e+01 3.067174e+01 2.314794e+01 2.344350e+01 1.537790e+01 1.161252e+01 4.734419e+00 1.429728e+00 1.390101e+00 2.701046e+00 2.070334e+00 3.397877e+00 6.543719e+00 2.981966e+00 4.236164e+00 1.771244e+00 2.125257e+00 1.654784e+00 1.191815e+00 8.926065e-01 2.345973e-01 3.509164e-01 4.991694e-01 3.403320e-01 7.822451e-01 7.507845e-01 5.508850e-01 4.091852e-01 3.225597e-01 4.714891e-01 1.594405e-01 3.161754e-01
<GCONST> 1.148827e+02
<STATE> 4
<MEAN> 39
 -3.906630e+00 -8.185085e+00 4.421072e+00 -3.562960e-01 2.121857e+00 -6.855031e+00 -1.532798e+01 -7.232729e+00 -9.255023e+00 1.134424e+00 -1.967313e+00 -4.451192e+00 7.632915e+01 1.957375e+00 1.189827e+00 -8.970708e-01 -1.789370e-01 7.268221e-01 -3.174027e-02 -1.060764e+00 -1.459571e+00 -1.566777e+00 8.963979e-01 -3.147330e-02 -6.346263e-02 -5.664726e-01 2.924882e-02 1.687866e-01 4.907005e-02 -2.143828e-02 -1.490024e-01 1.647155e-01 2.239120e-01 8.595072e-02 -1.534317e-01 -2.116267e-02 -1.913845e-02 -7.092282e-02 -8.314363e-02
<VARIANCE> 39
 7.453462e+01 5.401546e+01 3.726936e+01 2.473683e+01 4.960311e+01 1.554757e+01 4.560442e+01 6.287143e+01 9.901443e+01 3.043758e+01 1.645708e+01 1.342176e+01 8.560337e+00 2.736703e+00 2.205966e+00 1.321986e+00 7.548929e-01 1.134168e+00 2.020018e+00 2.784209e+00 3.008877e+00 4.150388e+00 1.950168e+00 1.911366e+00 1.023888e+00 4.220389e-01 6.838070e-01 5.551196e-01 2.698200e-01 2.222821e-01 2.350735e-01 3.393312e-01 4.516070e-01 6.901687e-01 8.481897e-01 3.968442e-01 4.073630e-01 2.204403e-01 1.649423e-01
<GCONST> 1.108412e+02
<TRANSP> 5
 0.000000e+00 1.000000e+00 0.000000e+00 0.000000e+00 0.000000e+00
 0.000000e+00 7.394227e-01 2.605773e-01 0.000000e+00 0.000000e+00
 0.000000e+00 0.000000e+00 8.713204e-01 1.286796e-01 0.000000e+00
 0.000000e+00 0.000000e+00 0.000000e+00 8.937047e-01 1.062953e-01
 0.000000e+00 0.000000e+00 0.000000e+00 0.000000e+00 0.000000e+00
<ENDHMM>
~h "dh"
<BEGINHMM>
<NUMSTATES> 5
<STATE> 2
<MEAN> 39
 -9.378458e-01 3.676106e+00 -8.704851e+00 -8.316656e+00 -3.028333e+00 5.472461e+00 -3.598573e+00 2.016217e+00 -3.728274e+00 1.428764e-01 8.300465e-01 -4.493575e-01 6.403612e+01 -4.284666e-02 -8.951732e-02 1.606265e-01 -5.426047e-02 -3.133360e-02 -8.378551e-02 -5.769883e-02 4.971723e-02 -1.997638e-01 -1.714144e-01 -1.306800e-01 2.389131e-02 2.599344e-02 1.863754e-01 1.554995e-01 -1.276233e-01 2.143479e-01 6.920995e-02 9.211443e-02 -1.214961e-01 -9.159013e-02 -1.215619e-01 -5.537362e-04 -2.020627e-01 -9.565623e-02 -8.174051e-02
<VARIANCE> 39
 2.014245e+01 1.744425e+01 5.738076e+01 3.528809e+01 1.960013e+01 2.132800e+01 2.551801e+01 2.821575e+01 1.980962e+01 3.323689e+01 2.934619e+01 1.464459e+01 1.514536e+01 2.070028e+00 1.705490e+00 5.387006e+00 2.441887e+00 2.017880e+00 1.957243e+00 2.720632e+00 3.015503e+00 1.397504e+00 3.069290e+00 2.346651e+00 1.031455e+00 1.447000e+00 3.422921e-01 3.115033e-01 8.704419e-01 3.202992e-01 4.006891e-01 4.550022e-01 5.853468e-01 6.902889e-01 3.790708e-01 6.536223e-01 4.394942e-01 3.036793e-01 2.218063e-01
<GCONST> 1.120248e+02
<STATE> 3
<MEAN> 39
 2.687504e+00 4.957311e+00 -1.304577e+01 -4.264234e+00 -3.331871e+00 6.984350e+00 -4.986500e+00 1.041502e+00 -5.751686e+00 -4.422574e-03 -1.281745e+00 -8.634607e-01 6.268725e+01 4.410790e-01 5.843150e-01 -8.899895e-02 5.313313e-01 5.946398e-01 2.807178e-01 -5.716137e-01 -3.754908e-01 -5.614355e-01 -8.849490e-01 -7.164479e-01 -3.323005e-01 -1.828766e-01 -1.067466e-01 -4.664178e-02 5.146580e-01 -1.045817e-01 2.180527e-01 -5.071251e-02 -8.524715e-02 1.351752e-02 -1.227517e-01 -1.100616e-01 -4.806621e-02 -2.069928e-01 2.316242e-01
<VARIANCE> 39
 3.278927e+00 5.852200e+00 4.298497e+01 1.471547e+01 1.309157e+01 2.017263e+01 2.280188e+01 1.318923e+01 1.481528e+01 2.068793e+01 1.763846e+01 1.293055e+01 1.286590e+01 2.348883e-01 5.053149e-01 3.155822e+00 8.235915e-01 8.862004e-01 1.260380e+00 1.431061e+00 2.170682e+00 1.715911e+00 2.583578e+00 1.779366e+00 1.619383e+00 7.478890e-01 1.303233e-01 1.183025e-01 2.824210e-01 1.175534e-01 2.030893e-01 4.095680e-01 1.635234e-01 1.797867e-01 2.241909e-01 2.679142e-01 2.538134e-01 3.190596e-01 5.422489e-02
<GCONST> 8.656672e+01
<STATE> 4
<MEAN> 39
 1.464770e+00 3.430696e-01 -1.420234e+01 -4.957623e-01 -4.936628e+00 5.006763e+00 -2.927996e+00 1.574836e+00 -5.590461e+00 2.788098e+00 4.919947e-01 -1.216252e+00 6.276191e+01 5.908814e-02 9.992159e-02 5.217421e-02 7.724673e-02 7.329182e-02 4.462924e-02 1.494008e-04 -4.019453e-02 -7.422470e-02 -1.520454e-01 -8.622013e-02 -1.220407e-01 1.911106e-02 -1.954819e-02 9.773946e-04 1.179488e-01 -6.382120e-02 2.876255e-02 1.217774e-02 -4.199258e-02 -1.678805e-03 -4.550816e-02 -3.291792e-02 1.054508e-02 -3.114286e-02 5.454591e-02
<VARIANCE> 39
 2.641302e+00 3.306684e+01 1.990582e+01 2.543827e+01 1.185336e+01 1.273391e+01 1.537079e+01 1.494737e+01 1.320339e+01 1.145038e+01 1.609491e+01 8.597970e+00 6.043248e+00 2.081820e-01 7.231132e-01 1.113210e+00 7.392879e-01 1.009752e+00 1.023153e+00 9.884627e-01 1.485528e+00 1.267411e+00 1.201991e+00 1.072713e+00 9.309176e-01 2.405546e-01 4.439104e-02 7.760852e-02 1.750355e-01 1.196834e-01 1.883285e-01 1.704742e-01 2.005916e-01 3.632442e-01 2.216877e-01 1.867105e-01 1.806955e-01 1.520955e-01 5.065857e-02
<GCONST> 7.654291e+01
<TRANSP> 5
 0.000000e+00 1.000000e+00 0.000000e+00 0.000000e+00 0.000000e+00
 0.000000e+00 5.896084e-01 4.103916e-01 0.000000e+00 0.000000e+00
 0.000000e+00 0.000000e+00 2.419830e-01 7.580170e-01 0.000000e+00
 0.000000e+00 0.000000e+00 0.000000e+00 8.420122e-01 1.579878e-01
 0.000000e+00 0.000000e+00 0.000000e+00 0.000000e+00 0.000000e+00
<ENDHMM>
~h "ea"
<BEGINHMM>
<NUMSTATES> 5
<STATE> 2
<MEAN> 39
 1.243263e+00 2.009342e+00 -3.600729e+00 -7.780252e+00 -2.124930e+00 2.943915e+00 -9.405266e+00 5.574683e-01 -8.480373e+00 -8.431195e-01 1.753790e+00 -3.834116e+00 6.933920e+01 6.608545e-03 -7.871487e-04 5.575932e-03 9.451325e-03 1.243685e-02 3.598967e-04 4.977515e-03 7.675061e-03 8.751670e-03 -1.601357e-04 -6.787761e-03 1.796699e-03 7.823239e-03 1.084905e-04 6.917859e-04 -1.452734e-03 -1.623669e-04 -1.531235e-03 -6.168764e-04 -1.016060e-04 5.717326e-04 -8.436721e-04 1.307740e-03 2.658077e-04 -1.178421e-04 -1.493792e-03
<VARIANCE> 39
 3.560448e+01 3.133138e+01 1.175854e+02 5.757076e+01 3.574751e+01 4.825400e+01 6.299704e+01 4.654386e+01 5.944289e+01 3.514179e+01 3.786765e+01 3.343571e+01 4.679148e+01 1.818672e+00 1.507933e+00 2.670334e+00 2.176207e+00 1.716306e+00 2.419825e+00 3.138164e+00 2.909526e+00 2.711722e+00 1.967625e+00 2.125080e+00 1.650968e+00 1.255564e+00 2.970746e-01 2.534214e-01 4.172046e-01 3.324886e-01 2.983715e-01 4.159752e-01 5.145366e-01 5.176500e-01 4.586368e-01 3.470287e-01 3.812441e-01 2.994810e-01 2.048787e-01
<GCONST> 1.175816e+02
<STATE> 3
<MEAN> 39
 1.243263e+00 2.009342e+00 -3.600729e+00 -7.780252e+00 -2.124930e+00 2.943915e+00 -9.405266e+00 5.574683e-01 -8.480373e+00 -8.431195e-01 1.753790e+00 -3.834116e+00 6.933920e+01 6.608545e-03 -7.871487e-04 5.575932e-03 9.451325e-03 1.243685e-02 3.598967e-04 4.977515e-03 7.675061e-03 8.751670e-03 -1.601357e-04 -6.787761e-03 1.796699e-03 7.823239e-03 1.084905e-04 6.917859e-04 -1.452734e-03 -1.623669e-04 -1.531235e-03 -6.168764e-04 -1.016060e-04 5.717326e-04 -8.436721e-04 1.307740e-03 2.658077e-04 -1.178421e-04 -1.493792e-03
<VARIANCE> 39
 3.560448e+01 3.133138e+01 1.175854e+02 5.757076e+01 3.574751e+01 4.825400e+01 6.299704e+01 4.654386e+01 5.944289e+01 3.514179e+01 3.786765e+01 3.343571e+01 4.679148e+01 1.818672e+00 1.507933e+00 2.670334e+00 2.176207e+00 1.716306e+00 2.419825e+00 3.138164e+00 2.909526e+00 2.711722e+00 1.967625e+00 2.125080e+00 1.650968e+00 1.255564e+00 2.970746e-01 2.534214e-01 4.172046e-01 3.324886e-01 2.983715e-01 4.159752e-01 5.145366e-01 5.176500e-01 4.586368e-01 3.470287e-01 3.812441e-01 2.994810e-01 2.048787e-01
<GCONST> 1.175816e+02
<STATE> 4
<MEAN> 39
 1.243263e+00 2.009342e+00 -3.600729e+00 -7.780252e+00 -2.124930e+00 2.943915e+00 -9.405266e+00 5.574683e-01 -8.480373e+00 -8.431195e-01 1.753790e+00 -3.834116e+00 6.933920e+01 6.608545e-03 -7.871487e-04 5.575932e-03 9.451325e-03 1.243685e-02 3.598967e-04 4.977515e-03 7.675061e-03 8.751670e-03 -1.601357e-04 -6.787761e-03 1.796699e-03 7.823239e-03 1.084905e-04 6.917859e-04 -1.452734e-03 -1.623669e-04 -1.531235e-03 -6.168764e-04 -1.016060e-04 5.717326e-04 -8.436721e-04 1.307740e-03 2.658077e-04 -1.178421e-04 -1.493792e-03
<VARIANCE> 39
 3.560448e+01 3.133138e+01 1.175854e+02 5.757076e+01 3.574751e+01 4.825400e+01 6.299704e+01 4.654386e+01 5.944289e+01 3.514179e+01 3.786765e+01 3.343571e+01 4.679148e+01 1.818672e+00 1.507933e+00 2.670334e+00 2.176207e+00 1.716306e+00 2.419825e+00 3.138164e+00 2.909526e+00 2.711722e+00 1.967625e+00 2.125080e+00 1.650968e+00 1.255564e+00 2.970746e-01 2.534214e-01 4.172046e-01 3.324886e-01 2.983715e-01 4.159752e-01 5.145366e-01 5.176500e-01 4.586368e-01 3.470287e-01 3.812441e-01 2.994810e-01 2.048787e-01
<GCONST> 1.175816e+02
<TRANSP> 5
 0.000000e+00 1.000000e+00 0.000000e+00 0.000000e+00 0.000000e+00
 0.000000e+00 6.000000e-01 4.000000e-01 0.000000e+00 0.000000e+00
 0.000000e+00 0.000000e+00 6.000000e-01 4.000000e-01 0.000000e+00
 0.000000e+00 0.000000e+00 0.000000e+00 7.000000e-01 3.000000e-01
 0.000000e+00 0.000000e+00 0.000000e+00 0.000000e+00 0.000000e+00
<ENDHMM>
~h "eh"
<BEGINHMM>
<NUMSTATES> 5
<STATE> 2
<MEAN> 39
 1.477086e+00 -3.337935e+00 6.812898e+00 -1.190816e+01 2.781979e-01 -3.658611e+00 -1.920780e+01 2.427180e+00 -1.556346e+01 3.219810e+00 5.894040e+00 -7.922463e+00 7.567754e+01 -2.152193e-01 -4.946844e-01 1.746048e-01 -2.383495e-01 1.155831e+00 -1.775432e+00 -1.704432e+00 -3.674791e-01 1.951288e-01 1.146651e+00 1.303842e+00 3.142767e-01 8.151035e-01 1.033973e-01 3.160868e-01 -4.727975e-03 4.279218e-01 -5.430752e-02 3.376560e-01 -8.661486e-04 -4.313375e-01 2.616047e-01 -4.301498e-01 -2.992642e-01 7.710016e-02 -1.827543e-01
<VARIANCE> 39
 9.257186e+00 2.336442e+01 4.226609e+01 3.651883e+01 4.877365e+01 2.102459e+01 8.127937e+01 3.101335e+01 2.673295e+01 5.601300e+01 4.206296e+01 2.230842e+01 7.823160e+00 3.614002e-01 8.103186e-01 1.164295e+00 3.599673e+00 1.231148e+00 2.005639e+00 1.858396e+00 3.317241e+00 9.984910e-01 2.275432e+00 3.398597e+00 1.319251e+00 7.225482e-01 4.135606e-02 9.131029e-02 1.304142e-01 3.470519e-01 2.267168e-01 4.391588e-01 6.938652e-01 4.648974e-01 2.557233e-01 6.798624e-01 1.744760e-01 1.589249e-01 2.063159e-01
<GCONST> 1.012714e+02
<STATE> 3
<MEAN> 39
 1.467049e+00 -5.171510e+00 7.826818e+00 -1.119841e+01 1.517535e+00 -5.556345e+00 -2.156150e+01 1.832384e+00 -1.453417e+01 3.866454e+00 1.048458e+01 -8.046583e+00 7.751430e+01 1.413484e-02 1.706308e-01 1.851865e-01 3.745181e-01 5.425954e-02 9.220530e-02 -2.384416e-01 -6.845857e-01 2.873036e-01 2.239670e-01 2.359952e-01 4.189875e-01 -5.431571e-02 4.443405e-02 4.443213e-01 -3.187877e-02 2.969681e-01 -2.361622e-01 6.105994e-01 6.190073e-01 1.276569e-01 1.344471e-01 -4.236927e-01 -6.564087e-01 -4.174572e-02 -3.858485e-01
<VARIANCE> 39
 3.803941e+00 1.958523e+01 3.284233e+01 1.918475e+01 2.824911e+01 1.655593e+01 5.782972e+01 3.590311e+01 2.120290e+01 1.629942e+01 2.296065e+01 1.831674e+01 2.883470e+00 3.079242e-01 9.845396e-01 9.905891e-01 3.023697e+00 1.271625e+00 1.496361e+00 2.057601e+00 1.187624e+00 1.004264e+00 1.879672e+00 2.519232e+00 1.027504e+00 8.526705e-01 4.978818e-02 8.272418e-02 2.508177e-01 1.456296e-01 1.437883e-01 2.505947e-01 3.360628e-01 2.508739e-01 2.507562e-01 1.962100e-01 3.600975e-01 2.089233e-01 8.343776e-02
<GCONST> 8.935208e+01
<STATE> 4
<MEAN> 39
 5.826485e-01 -5.461420e-01 1.152571e+01 -7.730149e+00 2.700916e+00 -6.981751e+00 -2.543964e+01 -8.055232e-01 -1.351561e+01 -6.991777e-01 1.103456e+00 -7.458562e+00 7.605346e+01 -1.194548e-01 8.287756e-01 -1.782858e-01 3.955424e-01 1.205467e-01 1.292932e+00 1.179276e+00 4.030915e-01 5.518247e-01 -8.586851e-01 -8.456282e-01 3.260696e-02 -7.197285e-01 -2.404927e-01 -5.336736e-02 -2.394858e-01 4.012370e-02 1.399185e-02 3.186706e-01 5.648910e-01 2.299490e-01 3.985011e-01 -1.164280e-02 -1.388044e-01 5.996007e-02 -9.590037e-02
<VARIANCE> 39
 4.424049e+00 1.299850e+01 1.512431e+01 1.381947e+01 1.999730e+01 3.462014e+01 2.577510e+01 3.071218e+01 1.363991e+01 2.660063e+01 3.963128e+01 1.817695e+01 4.484044e+00 3.500340e-01 7.337263e-01 1.680208e+00 1.859294e+00 1.120783e+00 2.621177e+00 2.304348e+00 1.302625e+00 1.824557e+00 1.052246e+00 2.121635e+00 1.037393e+00 5.928421e-01 2.623572e-01 1.111387e-01 1.871573e-01 2.248199e-01 2.371270e-01 2.113708e-01 5.448086e-01 2.478199e-01 3.214325e-01 1.896240e-01 2.545525e-01 2.319074e-01 9.593916e-02
<GCONST> 9.146442e+01
<TRANSP> 5
 0.000000e+00 1.000000e+00 0.000000e+00 0.000000e+00 0.000000e+00
 0.000000e+00 2.823305e-01 7.176695e-01 0.000000e+00 0.000000e+00
 0.000000e+00 0.000000e+00 6.669036e-01 3.330964e-01 0.000000e+00
 0.000000e+00 0.000000e+00 0.000000e+00 7.446337e-01 2.553663e-01
 0.000000e+00 0.000000e+00 0.000000e+00 0.000000e+00 0.000000e+00
<ENDHMM>
~h "er"
