~o
<STREAMINFO> 1 39
<VECSIZE> 39<NULLD><MFCC_D_A_0><DIAGC>
~s "silst"
<MEAN> 39
 5.762197e-02 1.420506e+00 -1.185920e+01 1.051407e+00 -2.039528e+00 8.111423e+00 -2.799028e+00 3.967779e+00 -1.013059e+00 3.113436e+00 -4.982654e-01 6.475964e-01 6.138461e+01 9.422259e-02 6.566085e-02 -3.265761e-01 1.288529e-01 -4.149799e-02 -1.251800e-01 1.830323e-01 -7.690872e-02 3.929289e-02 8.222644e-02 -7.912643e-02 8.345082e-02 -8.137143e-02 -3.577770e-02 8.510825e-03 7.954999e-02 -5.223577e-02 4.401103e-02 -1.375018e-02 -2.712234e-02 1.075053e-02 -1.008657e-02 -7.404305e-03 1.306256e-02 -1.441615e-02 3.077707e-02
<VARIANCE> 39
 3.630071e+00 1.544561e+01 1.732913e+01 2.073069e+01 1.632575e+01 1.437477e+01 2.473403e+01 2.355063e+01 1.655107e+01 1.772247e+01 1.522083e+01 1.179284e+01 3.102321e+00 2.982963e-01 7.331546e-01 1.495779e+00 1.146975e+00 1.377770e+00 1.093304e+00 1.287057e+00 1.291803e+00 1.063249e+00 1.370618e+00 1.157819e+00 1.006020e+00 1.929576e-01 5.569720e-02 1.097400e-01 2.644341e-01 1.920366e-01 2.557380e-01 2.138498e-01 2.632124e-01 2.537852e-01 2.310246e-01 2.870682e-01 2.401634e-01 2.045108e-01 3.116391e-02
<GCONST> 8.135337e+01
~h "b"
<BEGINHMM>
<NUMSTATES> 5
<STATE> 2
<MEAN> 39
 3.277881e+00 6.114489e+00 -5.039238e+00 2.999367e+00 1.220019e+00 7.207247e+00 -4.681566e+00 1.559391e+00 -7.895575e+00 -1.115474e+00 -2.978104e+00 -4.760656e+00 6.411578e+01 -7.596852e-02 3.718555e-02 -9.119384e-02 -1.848831e-01 1.759308e-01 4.460261e-02 2.966748e-02 -1.566197e-01 3.052667e-01 -1.279927e-01 -1.741686e-02 5.593496e-02 8.876288e-02 -1.479804e-01 -3.941715e-01 5.010248e-01 -5.243425e-01 -1.355392e-01 -5.585698e-01 -5.289435e-01 -6.182911e-01 -3.851364e-01 -3.676504e-03 5.439723e-01 -2.505685e-02 5.700408e-01
<VARIANCE> 39
 1.035794e+01 1.538222e+01 3.453896e+01 3.754217e+01 1.724459e+01 2.150205e+01 3.186680e+01 2.892473e+01 3.881118e+01 1.183566e+01 2.770218e+01 1.536963e+01 1.006392e+01 7.341774e-01 2.153672e+00 4.189313e+00 4.972445e+00 1.647853e+00 3.746274e+00 5.492035e+00 4.947260e+00 4.477618e+00 1.534159e+00 3.894482e+00 1.556101e+00 2.791042e+00 1.317647e-01 2.706771e-01 4.481414e-01 7.844745e-01 3.190801e-01 5.393321e-01 9.210395e-01 7.018690e-01 7.326737e-01 2.765819e-01 6.102074e-01 3.282737e-01 2.844615e-01
<GCONST> 1.134862e+02
<STATE> 3
<MEAN> 39
 3.305072e+00 4.855059e+00 -6.203464e-01 -2.891639e+00 2.066287e+00 1.121085e+00 -1.046443e+01 -5.699597e+00 -1.514337e+01 -2.044474e+00 2.967637e+00 -6.404477e+00 6.996928e+01 -7.013927e-02 -8.794552e-01 7.051861e-01 -1.839476e+00 -2.124746e-01 -1.687519e+00 -1.562405e+00 -1.566185e+00 -1.480937e+00 6.765851e-02 1.826847e+00 -4.042119e-02 1.523065e+00 -5.598841e-02 -1.014444e-01 -4.507216e-02 -5.564383e-02 8.472390e-03 -1.529541e-01 1.139880e-01 2.129254e-01 2.303880e-01 9.982514e-02 2.105245e-02 -3.932145e-02 8.458810e-02
<VARIANCE> 39
 1.058116e+01 2.139397e+01 2.488059e+01 6.576530e+01 2.034489e+01 4.795717e+01 4.504988e+01 5.275294e+01 8.387892e+01 1.491224e+01 6.549967e+01 3.414757e+01 2.428222e+01 1.147288e+00 3.300019e+00 3.990731e+00 9.207662e+00 2.298311e+00 6.879690e+00 9.489967e+00 9.317664e+00 1.059286e+01 2.108893e+00 7.434422e+00 3.197107e+00 4.488338e+00 2.304742e-01 4.756150e-01 6.502876e-01 1.142355e+00 3.383085e-01 1.132595e+00 1.274528e+00 1.554035e+00 1.477415e+00 3.539832e-01 9.737547e-01 4.896185e-01 4.935019e-01
<GCONST> 1.322655e+02
<STATE> 4
<MEAN> 39
 1.266634e+00 6.544411e-01 1.487168e+00 -4.613592e+00 6.942692e-01 -2.124866e+00 -1.274864e+01 -6.742573e+00 -1.231489e+01 -1.495241e+00 5.241418e+00 -5.552149e+00 7.318246e+01 -6.084710e-01 -1.461455e+00 1.302706e+00 -1.031063e+00 -2.427836e-01 -2.001679e+00 -7.427509e-01 -9.134694e-01 -5.036643e-01 2.586137e-01 1.110796e+00 -3.976141e-01 1.711784e+00 1.175788e-01 2.246415e-01 -3.874025e-02 4.659898e-01 3.807774e-02 2.975971e-01 3.221250e-01 4.433116e-01 2.717422e-01 7.775833e-03 -5.244908e-01 -8.686553e-02 -3.195778e-01
<VARIANCE> 39
 2.623489e+01 3.327509e+01 4.465107e+01 8.328293e+01 1.730447e+01 5.281493e+01 8.185305e+01 5.727803e+01 5.823624e+01 2.474301e+01 4.560507e+01 3.220142e+01 3.230061e+01 3.483355e+00 3.887176e+00 4.275798e+00 5.621620e+00 2.073454e+00 6.698125e+00 8.305183e+00 6.362960e+00 6.263917e+00 3.009510e+00 4.704143e+00 2.910932e+00 3.790628e+00 6.683869e-01 7.305035e-01 8.092074e-01 9.707704e-01 2.586427e-01 1.416917e+00 1.468951e+00 1.634357e+00 1.422197e+00 4.545646e-01 1.008827e+00 4.022564e-01 8.247988e-01
<GCONST> 1.366337e+02
<TRANSP> 5
 0.000000e+00 1.000000e+00 0.000000e+00 0.000000e+00 0.000000e+00
 0.000000e+00 7.782764e-01 2.217236e-01 0.000000e+00 0.000000e+00
 0.000000e+00 0.000000e+00 6.003696e-01 3.996304e-01 0.000000e+00
 0.000000e+00 0.000000e+00 0.000000e+00 5.752597e-01 4.247403e-01
 0.000000e+00 0.000000e+00 0.000000e+00 0.000000e+00 0.000000e+00
<ENDHMM>
~h "d"
<BEGINHMM>
<NUMSTATES> 5
<STATE> 2
<MEAN> 39
 1.555859e+00 8.004835e-02 4.051284e+00 -1.335143e+00 1.051979e+00 -3.599611e-01 -1.463470e+01 -3.065472e+00 -1.248777e+01 -1.329334e+00 2.099335e+00 -6.013616e+00 7.138558e+01 1.204269e-01 4.498881e-01 -7.310894e-01 9.824820e-01 3.367514e-01 8.415602e-01 1.014066e+00 7.800572e-01 6.393496e-01 -9.276436e-02 -6.595479e-01 2.684841e-01 -7.928400e-01 -2.099547e-01 -1.735839e-01 5.486573e-02 -1.327040e-01 -5.591255e-02 -1.173556e-01 2.017199e-01 -1.248296e-01 2.115456e-01 -3.441263e-02 5.677281e-02 5.939894e-02 1.502613e-01
<VARIANCE> 39
 1.117825e+01 3.367986e+01 7.815942e+01 4.720840e+01 2.697291e+01 6.109380e+01 7.504284e+01 5.576301e+01 4.890514e+01 2.832265e+01 4.355553e+01 2.572055e+01 3.678387e+01 1.393976e+00 2.095383e+00 3.349040e+00 2.230506e+00 2.337752e+00 4.313142e+00 4.697969e+00 5.424638e+00 4.132982e+00 2.371068e+00 2.432216e+00 1.882420e+00 1.768480e+00 2.929645e-01 4.841221e-01 6.010519e-01 5.027050e-01 4.256221e-01 8.302260e-01 9.417147e-01 1.056314e+00 7.749610e-01 4.605550e-01 4.926463e-01 3.571347e-01 4.484120e-01
<GCONST> 1.246679e+02
<STATE> 3
<MEAN> 39
 3.383406e-01 5.545149e-01 3.278790e+00 1.249305e+00 8.888066e-01 1.563854e+00 -1.067531e+01 -3.104078e+00 -9.641708e+00 -2.688920e+00 -1.186121e-01 -5.373458e+00 7.006445e+01 -6.416751e-01 -7.107669e-01 2.390100e-02 5.103481e-02 7.066891e-02 -3.101452e-01 5.902354e-01 -5.360680e-01 5.535516e-01 -2.708747e-02 -4.811695e-02 3.402454e-01 3.783789e-01 -1.309183e-01 -2.348195e-01 2.969948e-01 -4.760179e-01 -3.241480e-02 -3.706939e-01 -4.046965e-01 -4.940450e-01 -3.253372e-01 4.701167e-02 3.142420e-01 -1.019555e-01 4.002892e-01
<VARIANCE> 39
 2.453537e+01 3.272873e+01 5.576929e+01 4.094300e+01 2.437256e+01 6.180961e+01 7.659150e+01 6.732404e+01 4.830942e+01 2.588328e+01 2.475095e+01 2.073765e+01 2.750275e+01 3.396447e+00 3.689739e+00 6.401381e+00 3.694440e+00 2.340346e+00 7.054897e+00 9.097878e+00 9.739856e+00 6.603392e+00 2.317952e+00 3.098356e+00 2.186995e+00 4.185004e+00 7.549712e-01 7.609137e-01 1.352850e+00 7.072236e-01 4.594992e-01 1.289704e+00 1.709380e+00 2.045753e+00 1.236047e+00 4.930038e-01 5.050676e-01 4.253170e-01 8.415508e-01
<GCONST> 1.356283e+02
<STATE> 4
<MEAN> 39
 -1.356787e+00 -1.627063e+00 3.335326e+00 -2.465482e+00 1.156466e+00 -1.398762e-01 -1.151772e+01 -5.085987e+00 -9.908334e+00 -6.848285e-01 1.544688e+00 -4.803012e+00 7.197928e+01 -1.750344e-01 -3.310354e-01 2.432064e-01 -7.208251e-01 -1.039152e-01 -3.695304e-01 -3.654063e-03 -6.396860e-01 -1.492782e-01 2.332463e-01 5.026093e-01 4.808431e-02 5.619619e-01 9.124477e-02 1.306621e-01 6.866723e-02 -1.697748e-01 -6.179125e-02 -2.730225e-02 -1.862814e-01 2.111035e-02 -1.298824e-01 5.479606e-03 8.068426e-02 -5.527345e-02 2.017386e-02
<VARIANCE> 39
 3.037144e+01 3.708217e+01 5.053715e+01 5.649603e+01 2.760597e+01 6.929385e+01 7.988747e+01 5.905867e+01 4.990889e+01 3.113008e+01 3.744856e+01 2.909034e+01 3.339484e+01 4.135292e+00 3.721455e+00 6.076979e+00 3.790259e+00 2.433533e+00 5.390709e+00 6.724196e+00 7.338417e+00 4.918472e+00 2.723190e+00 3.239863e+00 2.096488e+00 3.642670e+00 6.517465e-01 6.066217e-01 9.488683e-01 6.771535e-01 4.594781e-01 9.180593e-01 1.742464e+00 1.309693e+00 9.564499e-01 4.530108e-01 6.223228e-01 3.999329e-01 6.314300e-01
<GCONST> 1.345779e+02
<TRANSP> 5
 0.000000e+00 1.000000e+00 0.000000e+00 0.000000e+00 0.000000e+00
 0.000000e+00 4.825030e-01 5.174970e-01 0.000000e+00 0.000000e+00
 0.000000e+00 0.000000e+00 5.792006e-01 4.207994e-01 0.000000e+00
 0.000000e+00 0.000000e+00 0.000000e+00 6.390449e-01 3.609551e-01
 0.000000e+00 0.000000e+00 0.000000e+00 0.000000e+00 0.000000e+00
<ENDHMM>
~h "f"
<BEGINHMM>
<NUMSTATES> 5
<STATE> 2
<MEAN> 39
 -6.218739e+00 2.102642e+00 2.028310e+00 -9.313183e-01 -6.912605e-01 8.389405e-01 -2.179635e+00 -5.358827e+00 -3.535210e+00 -3.539823e+00 1.969551e+00 -4.114699e+00 7.241174e+01 -3.800915e+00 1.117547e-01 -5.139976e-01 5.363260e-01 5.926583e-01 4.803907e-01 2.906793e+00 -5.673105e-01 2.635514e+00 -5.814055e-01 -1.852850e-01 1.461040e-01 8.114300e-01 -1.182181e-01 -2.896907e-01 7.439701e-02 -2.735691e-01 -1.517169e-01 -9.721800e-02 -5.508034e-01 2.043610e-01 -3.496683e-01 1.080963e-01 1.288025e-01 4.552706e-02 2.099742e-01
<VARIANCE> 39
 5.761157e+01 3.529336e+01 5.067506e+01 2.594452e+01 4.305008e+01 2.173821e+01 5.473341e+01 4.519331e+01 3.928607e+01 2.314608e+01 1.748231e+01 1.905752e+01 1.813028e+01 2.604216e+00 3.077824e+00 3.552642e+00 2.447035e+00 3.690819e+00 3.628574e+00 4.295251e+00 2.720291e+00 4.542957e+00 3.045506e+00 1.853635e+00 1.065413e+00 1.322700e+00 9.012544e-01 5.863868e-01 5.647215e-01 3.158782e-01 5.898324e-01 5.610492e-01 1.261927e+00 3.237329e-01 8.497472e-01 4.321849e-01 4.143936e-01 1.746118e-01 3.000710e-01
<GCONST> 1.203399e+02
<STATE> 3
<MEAN> 39
 -1.713045e+01 -4.564156e-01 2.083745e-01 -1.350205e+00 1.987848e-01 1.563094e+00 -5.334944e-01 -5.043316e+00 1.113157e-01 -3.776172e+00 2.550482e+00 -2.833851e+00 7.529654e+01 -5.231921e-01 -4.632425e-01 -4.957801e-01 4.848645e-03 -1.122591e-01 -2.656911e-02 -1.468506e-01 1.974320e-01 1.011329e-01 1.163482e-01 1.967148e-01 2.792377e-01 1.342789e-02 6.820072e-01 5.191990e-02 6.334970e-02 -8.773255e-02 -5.301300e-02 -1.106615e-01 -3.298070e-01 -1.842683e-02 -3.544419e-01 5.817609e-02 -1.452334e-02 -3.515504e-02 -1.908474e-01
<VARIANCE> 39
 9.762907e+00 2.102187e+01 2.676591e+01 2.098640e+01 1.802515e+01 1.999163e+01 2.349202e+01 3.397155e+01 1.822191e+01 1.707726e+01 1.278644e+01 1.450854e+01 6.638246e+00 2.200661e+00 1.850937e+00 1.473192e+00 1.375937e+00 1.488369e+00 1.190828e+00 1.518396e+00 1.468860e+00 1.342308e+00 1.267718e+00 1.102047e+00 7.375605e-01 6.075302e-01 3.127041e-01 3.892569e-01 2.729741e-01 2.594517e-01 2.814637e-01 2.971900e-01 4.410547e-01 3.632520e-01 4.760671e-01 2.990723e-01 2.316886e-01 1.499665e-01 8.564565e-02
<GCONST> 9.523701e+01
<STATE> 4
<MEAN> 39
 -1.157304e+01 1.498147e-01 -1.585005e+00 -2.862238e+00 -2.024535e+00 -1.500588e-01 -2.969131e+00 -5.173071e+00 -2.955842e+00 -2.853742e+00 3.171576e+00 -2.849821e+00 7.320197e+01 2.926589e+00 7.419999e-01 2.870803e-01 -8.692815e-01 -5.892903e-01 -1.069582e+00 -1.882922e+00 -4.181064e-01 -1.950450e+00 7.456412e-02 -3.409705e-03 -6.536359e-01 -3.923977e-01 3.319113e-01 9.276150e-02 2.090942e-01 -1.659404e-01 -2.470880e-02 -1.487432e-01 -3.734161e-01 -1.956808e-02 -3.705452e-01 -4.092017e-02 1.622896e-01 -1.957067e-01 1.394999e-01
<VARIANCE> 39
 6.227690e+01 2.098442e+01 1.269341e+01 2.327921e+01 2.308382e+01 2.357109e+01 4.114868e+01 3.174767e+01 3.850118e+01 1.838039e+01 1.800144e+01 1.903447e+01 8.558816e+00 4.416056e+00 2.571498e+00 1.811006e+00 2.614555e+00 1.893269e+00 2.006805e+00 4.346536e+00 3.801349e+00 4.388858e+00 2.196217e+00 1.972084e+00 1.658636e+00 7.941457e-01 9.070145e-01 4.967794e-01 2.146651e-01 3.372363e-01 2.878147e-01 3.912709e-01 7.573125e-01 5.976213e-01 7.046056e-01 3.428963e-01 3.985041e-01 3.219456e-01 1.164704e-01
<GCONST> 1.118823e+02
<TRANSP> 5
 0.000000e+00 1.000000e+00 0.000000e+00 0.000000e+00 0.000000e+00
 0.000000e+00 5.973414e-01 4.026586e-01 0.000000e+00 0.000000e+00
 0.000000e+00 0.000000e+00 8.468016e-01 1.531984e-01 0.000000e+00
 0.000000e+00 0.000000e+00 0.000000e+00 7.667702e-01 2.332298e-01
 0.000000e+00 0.000000e+00 0.000000e+00 0.000000e+00 0.000000e+00
<ENDHMM>
~h "g"
<BEGINHMM>
<NUMSTATES> 5
<STATE> 2
<MEAN> 39
 -1.745533e+00 9.579781e-01 4.730202e-01 -5.963327e+00 2.474554e+00 3.794288e+00 -1.034551e+01 -6.664336e+00 -1.009109e+01 -1.583059e+00 2.101650e+00 -4.594041e+00 7.195999e+01 -7.695250e-01 1.984466e-01 -3.631939e-01 -8.154448e-01 -8.462126e-01 7.746710e-01 9.337096e-01 1.524667e+00 8.017090e-01 -1.914895e-01 -1.004953e+00 5.226851e-01 -1.962308e-01 -1.006484e-01 -9.999119e-02 7.990444e-02 1.500090e-01 -4.802330e-02 -5.300958e-01 -1.981870e-01 1.852451e-01 -1.464394e-01 1.394566e-01 -9.854727e-02 -1.105014e-01 1.386442e-01
<VARIANCE> 39
 7.801562e+01 2.399227e+01 5.057547e+01 1.011539e+02 3.835971e+01 3.890886e+01 3.848271e+01 3.592629e+01 6.299066e+01 2.612216e+01 5.104386e+01 2.437877e+01 2.485285e+01 5.052003e+00 7.549182e-01 3.113495e+00 4.419840e+00 2.430659e+00 2.589137e+00 3.802665e+00 7.606867e+00 3.079050e+00 3.082721e+00 3.535555e+00 1.926079e+00 3.460266e+00 5.812290e-01 2.633211e-01 7.203309e-01 5.990253e-01 4.492276e-01 8.086432e-01 6.546889e-01 1.141805e+00 3.808336e-01 4.935670e-01 6.690235e-01 4.556364e-01 4.492663e-01
<GCONST> 1.269311e+02
<STATE> 3
<MEAN> 39
 -2.956555e-01 2.213669e+00 -4.335839e-01 -5.457897e+00 1.600861e-02 4.052037e+00 -8.632877e+00 -3.454566e+00 -9.919516e+00 -5.558881e-01 9.318796e-01 -4.854992e+00 7.114046e+01 -2.341493e-01 -1.743694e-03 -8.906096e-01 -2.069918e-01 -5.011877e-01 -3.001081e-02 8.002667e-01 1.328288e+00 6.454672e-01 -1.303715e-01 -7.874643e-01 2.277845e-01 -4.038752e-01 -1.618731e-01 -2.287745e-01 7.930806e-02 1.311556e-01 2.976206e-01 -8.897585e-01 -4.200749e-01 -5.107636e-01 -3.349147e-01 -1.821308e-01 4.136032e-01 -1.265618e-01 3.799366e-01
<VARIANCE> 39
 7.180249e+01 2.083125e+01 5.910428e+01 1.066292e+02 3.473191e+01 4.123445e+01 3.774948e+01 3.886113e+01 7.290217e+01 2.188855e+01 5.151514e+01 3.372904e+01 3.568037e+01 9.746075e-01 9.777783e-01 4.368072e+00 2.879859e+00 2.355646e+00 1.855875e+00 2.890445e+00 3.199183e+00 2.473527e+00 1.355412e+00 2.253201e+00 1.052231e+00 1.256949e+00 5.371612e-01 2.433063e-01 4.454608e-01 7.248482e-01 3.593611e-01 1.021526e+00 7.290107e-01 9.303497e-01 5.529885e-01 7.199457e-01 7.978976e-01 6.341676e-01 5.973844e-01
<GCONST> 1.225160e+02
<STATE> 4
<MEAN> 39
 -6.485499e+00 7.881956e-01 -2.383866e-01 -6.690864e+00 -8.444098e-01 4.670632e+00 -7.406964e+00 -1.858667e+00 -5.935266e+00 -1.391962e+00 -1.486075e+00 -2.852211e+00 7.164037e+01 -3.847521e-01 -4.400950e-01 -2.983865e-01 -1.200905e-01 -2.389633e-01 -1.272559e+00 1.229239e-01 8.823081e-02 -1.068535e-01 -3.670563e-01 2.717977e-01 5.344718e-02 3.262888e-01 9.901962e-02 1.032984e-02 4.463844e-01 -1.135493e-02 2.049944e-01 -4.246001e-01 -4.900310e-01 -5.098308e-01 -4.042329e-01 -1.818402e-01 2.406515e-01 -1.298313e-01 2.752841e-01
<VARIANCE> 39
 1.496722e+02 1.558617e+01 6.474320e+01 1.227098e+02 3.316311e+01 3.712506e+01 3.526406e+01 3.423854e+01 6.619631e+01 2.154160e+01 3.436234e+01 2.310494e+01 3.918734e+01 1.160229e+00 9.446857e-01 5.185040e+00 2.019367e+00 2.478181e+00 4.334356e+00 2.513765e+00 3.371926e+00 2.098285e+00 1.771225e+00 2.712666e+00 1.555573e+00 1.102513e+00 4.221338e-01 2.472605e-01 5.641671e-01 4.899066e-01 5.034813e-01 5.526331e-01 6.159061e-01 7.538977e-01 4.271890e-01 4.616756e-01 4.198706e-01 2.992244e-01 4.368778e-01
<GCONST> 1.199160e+02
<TRANSP> 5
 0.000000e+00 1.000000e+00 0.000000e+00 0.000000e+00 0.000000e+00
 0.000000e+00 2.505541e-01 7.494459e-01 0.000000e+00 0.000000e+00
 0.000000e+00 0.000000e+00 1.175213e-01 8.824787e-01 0.000000e+00
 0.000000e+00 0.000000e+00 0.000000e+00 4.552788e-01 5.447212e-01
 0.000000e+00 0.000000e+00 0.000000e+00 0.000000e+00 0.000000e+00
<ENDHMM>
~h "k"
<BEGINHMM>
<NUMSTATES> 5
<STATE> 2
<MEAN> 39
 8.829968e-01 2.638384e+00 -4.364232e+00 -3.263961e-01 -1.124368e+00 4.121132e+00 -6.645977e+00 -2.477333e+00 -8.532572e+00 1.127635e-01 -8.114877e-02 -5.763892e+00 6.616419e+01 -1.060766e+00 -8.491739e-01 -1.533116e+00 3.313541e-01 -4.245715e-01 -3.771565e-01 1.341883e+00 1.405335e-01 1.292059e+00 -7.952223e-01 3.076103e-01 8.729138e-01 9.256806e-02 -5.640262e-01 -6.808152e-01 7.169887e-01 -4.623111e-01 1.071991e-01 -7.153966e-01 -2.042557e-01 -8.659581e-01 -2.241922e-01 -9.635707e-02 5.430214e-01 1.208459e-01 9.731109e-01
<VARIANCE> 39
 1.465959e+01 1.523597e+01 5.506610e+01 2.863391e+01 2.831492e+01 3.624971e+01 3.752753e+01 4.055674e+01 4.889782e+01 3.867942e+01 2.410847e+01 2.678576e+01 1.677366e+01 2.305706e+00 3.325481e+00 4.109967e+00 3.813582e+00 2.863259e+00 7.766019e+00 3.341363e+00 7.562713e+00 4.853946e+00 3.535145e+00 4.643633e+00 2.655310e+00 5.064021e+00 3.423883e-01 3.699875e-01 9.260163e-01 5.193694e-01 5.511104e-01 1.089298e+00 6.885275e-01 1.242479e+00 7.728824e-01 5.416651e-01 6.598468e-01 4.246656e-01 4.843329e-01
<GCONST> 1.273107e+02
<STATE> 3
<MEAN> 39
 -6.697607e+00 -5.167179e+00 -3.375551e+00 -1.835953e+00 -1.575600e+00 -1.471204e+00 -3.323137e+00 -8.415711e+00 -5.756693e+00 -2.296680e+00 4.785597e+00 -2.507199e+00 7.331039e+01 -2.029027e+00 -1.912709e+00 1.793328e+00 -7.587947e-01 1.282066e-01 -1.217970e+00 -9.979832e-02 -1.818634e+00 3.405354e-01 -1.686257e-01 5.475563e-01 5.892767e-01 1.960696e+00 3.345689e-01 4.853230e-01 5.013594e-01 1.013139e-02 8.052690e-02 4.326984e-01 -4.596216e-01 4.584982e-01 -1.608711e-01 2.948844e-01 -5.278785e-01 -3.694668e-01 -4.216354e-01
<VARIANCE> 39
 1.721853e+01 2.436855e+01 5.027696e+01 5.876678e+01 3.413200e+01 7.538633e+01 3.527265e+01 4.552581e+01 3.430372e+01 4.032357e+01 3.074022e+01 3.850181e+01 1.966971e+01 5.606273e+00 3.115791e+00 5.921161e+00 4.955033e+00 2.865691e+00 6.103860e+00 3.996530e+00 5.098116e+00 3.733619e+00 3.310572e+00 3.799664e+00 3.078472e+00 4.354443e+00 8.333024e-01 7.107364e-01 9.592668e-01 7.060723e-01 4.841695e-01 1.310256e+00 8.082827e-01 9.559726e-01 8.914807e-01 6.553870e-01 8.482492e-01 7.693318e-01 8.117798e-01
<GCONST> 1.339906e+02
<STATE> 4
<MEAN> 39
 -8.506661e+00 -7.957612e+00 2.484800e+00 -3.281436e+00 -2.300107e+00 -1.600502e+00 -4.368976e+00 -7.191276e+00 -4.955682e+00 -1.270212e+00 2.397248e+00 -2.500819e+00 7.387464e+01 8.073761e-01 7.083172e-01 1.115396e+00 -3.942398e-01 4.344632e-01 4.840327e-01 -9.547857e-01 5.573037e-01 -9.227580e-01 2.096156e-01 -6.954432e-01 -8.101062e-01 -2.658536e-01 6.646398e-01 7.715697e-01 -2.072672e-01 -5.843404e-02 3.191124e-02 1.466086e-01 -3.497841e-01 2.961074e-01 -4.350281e-01 -7.666555e-02 -3.417074e-02 -3.439267e-01 -2.596371e-01
<VARIANCE> 39
 3.373421e+01 2.425236e+01 4.095309e+01 4.232171e+01 3.577372e+01 4.984698e+01 3.373479e+01 4.254490e+01 3.837413e+01 3.530163e+01 2.365490e+01 2.424424e+01 1.515231e+01 5.545918e+00 4.029830e+00 3.468187e+00 2.139906e+00 2.199054e+00 3.136382e+00 4.581308e+00 4.033174e+00 4.770524e+00 2.817906e+00 2.699822e+00 3.177900e+00 2.011421e+00 5.091550e-01 4.783131e-01 6.379339e-01 4.771081e-01 5.296204e-01 9.198958e-01 7.470936e-01 9.206923e-01 7.702225e-01 5.124152e-01 6.531308e-01 6.618948e-01 5.560760e-01
<GCONST> 1.262335e+02
<TRANSP> 5
 0.000000e+00 1.000000e+00 0.000000e+00 0.000000e+00 0.000000e+00
 0.000000e+00 7.350640e-01 2.649361e-01 0.000000e+00 0.000000e+00
 0.000000e+00 0.000000e+00 5.808696e-01 4.191304e-01 0.000000e+00
 0.000000e+00 0.000000e+00 0.000000e+00 6.674876e-01 3.325124e-01
 0.000000e+00 0.000000e+00 0.000000e+00 0.000000e+00 0.000000e+00
<ENDHMM>
~h "l"
<BEGINHMM>
<NUMSTATES> 5
<STATE> 2
<MEAN> 39
 3.491031e+00 3.009858e+00 6.102170e+00 -9.401191e+00 -1.153739e+01 -5.183097e+00 -1.299408e+01 -2.403666e+00 -1.100259e+01 -5.419600e+00 2.287731e+00 -6.318498e+00 7.302551e+01 6.142940e-01 1.463622e-01 6.837153e-01 -1.403920e-01 -1.630857e+00 -6.032925e-01 -3.562085e-01 1.202551e+00 -3.287181e-01 -8.044070e-02 2.228597e-01 -8.280470e-01 5.416656e-02 -2.229919e-01 -1.779392e-01 -1.686865e-01 1.130709e-01 2.747222e-01 2.542335e-01 1.739922e-01 6.449382e-02 1.047482e-01 1.701680e-01 7.254282e-02 1.180262e-01 -4.872255e-02
<VARIANCE> 39
 7.456550e+00 1.947092e+01 3.378455e+01 2.766462e+01 4.344648e+01 4.001308e+01 3.765800e+01 4.500958e+01 2.215613e+01 2.872800e+01 2.862233e+01 2.346914e+01 1.050148e+01 1.102846e+00 2.096417e+00 2.001445e+00 2.043561e+00 3.377599e+00 2.906299e+00 4.659118e+00 3.596386e+00 2.379463e+00 2.394178e+00 2.588621e+00 2.086251e+00 9.333898e-01 2.384371e-01 4.080588e-01 3.904686e-01 2.389692e-01 5.963545e-01 5.462176e-01 9.260443e-01 5.236804e-01 5.004597e-01 5.208763e-01 4.860951e-01 4.156012e-01 1.304691e-01
<GCONST> 1.128882e+02
<STATE> 3
<MEAN> 39
 4.457787e+00 2.884684e+00 7.883865e+00 -9.556425e+00 -1.568118e+01 -5.415741e+00 -1.323326e+01 2.706620e+00 -1.168540e+01 -5.022986e+00 3.788071e+00 -8.730410e+00 7.268080e+01 -2.552009e-02 -1.312326e-01 7.203379e-02 1.457915e-01 -1.682035e-01 1.025584e-01 1.419501e-01 3.411737e-01 -7.011141e-05 -1.461201e-01 5.866605e-02 -2.053788e-02 -2.183849e-02 -1.057558e-01 -4.758896e-02 -1.621396e-01 5.589820e-02 4.325058e-01 1.256440e-01 7.248688e-02 -2.862767e-01 1.080368e-01 -1.458868e-02 -7.228014e-02 2.281118e-01 2.109794e-02
<VARIANCE> 39
 3.629531e+00 1.415604e+01 1.762502e+01 2.971708e+01 3.110983e+01 2.912787e+01 4.040859e+01 2.849444e+01 2.324440e+01 2.300537e+01 3.346537e+01 2.573854e+01 8.745421e+00 3.562964e-01 1.464111e+00 1.082196e+00 1.276551e+00 2.399085e+00 2.538614e+00 3.060353e+00 2.716870e+00 1.521691e+00 1.722064e+00 1.660915e+00 1.783824e+00 7.627170e-01 9.816149e-02 1.656604e-01 1.517461e-01 1.934807e-01 4.035012e-01 3.668037e-01 6.173875e-01 4.156127e-01 3.513215e-01 3.449607e-01 3.101921e-01 2.985077e-01 8.253651e-02
<GCONST> 9.841776e+01
<STATE> 4
<MEAN> 39
 3.236418e+00 1.116410e+00 5.309463e+00 -9.508302e+00 -1.308760e+01 -4.035723e+00 -9.002393e+00 3.954409e+00 -9.090119e+00 -4.963904e+00 2.548780e+00 -5.376509e+00 7.344007e+01 -3.306172e-01 -2.686913e-01 -5.393065e-01 3.151029e-01 1.507666e+00 7.709653e-01 2.337617e-01 -8.492574e-01 1.459313e-01 1.233337e-01 -1.934317e-02 6.532036e-01 -3.677820e-04 -1.098786e-01 5.749375e-02 -6.770347e-04 7.147080e-02 3.085235e-01 5.930123e-02 -7.262494e-02 -2.080216e-01 3.324299e-03 1.533578e-01 3.408864e-02 -5.623559e-02 -3.912162e-02
<VARIANCE> 39
 1.637077e+01 1.973260e+01 2.350336e+01 4.510051e+01 3.639347e+01 3.938691e+01 3.682652e+01 5.623427e+01 3.296425e+01 2.441897e+01 2.819362e+01 2.615775e+01 1.528806e+01 1.162916e+00 1.253050e+00 1.331930e+00 1.301230e+00 2.438181e+00 2.323270e+00 2.419988e+00 3.534895e+00 2.563069e+00 1.866214e+00 1.997033e+00 1.560182e+00 6.135105e-01 2.297940e-01 2.089869e-01 1.631092e-01 2.567496e-01 3.550309e-01 3.375699e-01 4.811584e-01 5.125553e-01 4.369480e-01 3.389853e-01 2.829944e-01 3.121447e-01 1.128492e-01
<GCONST> 1.061173e+02
<TRANSP> 5
 0.000000e+00 1.000000e+00 0.000000e+00 0.000000e+00 0.000000e+00
 0.000000e+00 6.900267e-01 3.099733e-01 0.000000e+00 0.000000e+00
 0.000000e+00 0.000000e+00 8.038423e-01 1.961577e-01 0.000000e+00
 0.000000e+00 0.000000e+00 0.000000e+00 7.056340e-01 2.943660e-01
 0.000000e+00 0.000000e+00 0.000000e+00 0.000000e+00 0.000000e+00
<ENDHMM>
~h "m"
<BEGINHMM>
<NUMSTATES> 5
<STATE> 2
<MEAN> 39
 4.388834e+00 4.777635e+00 3.440335e+00 -2.513506e+00 -1.497080e+00 8.795661e+00 -1.212018e+01 2.661450e+00 -8.245313e+00 -5.474451e+00 1.577098e+00 -2.471319e+00 6.860134e+01 5.769647e-01 1.139758e+00 -8.420280e-02 1.081993e+00 -2.486458e-01 2.993919e+00 -3.322219e-01 1.100508e-01 1.126560e+00 -1.376329e+00 -1.175803e+00 4.021702e-01 -1.224360e+00 -1.349404e-01 -1.491075e-01 1.976783e-02 -1.622591e-01 2.261267e-01 -5.346035e-01 -4.761514e-02 -3.015827e-01 -1.421814e-01 1.436113e-01 2.811956e-01 -1.743155e-01 2.863424e-01
<VARIANCE> 39
 3.644233e+00 1.189715e+01 1.657092e+01 2.927310e+01 1.550637e+01 3.520230e+01 1.711018e+01 2.651106e+01 1.647347e+01 2.245903e+01 2.273933e+01 1.974565e+01 5.792813e+00 2.492091e-01 6.511364e-01 9.099618e-01 1.979001e+00 9.934459e-01 3.172110e+00 1.665651e+00 2.871625e+00 2.106009e+00 2.038019e+00 2.140223e+00 1.112193e+00 5.769626e-01 3.615043e-02 1.180212e-01 1.695478e-01 2.562903e-01 1.594532e-01 5.972275e-01 2.875377e-01 3.961215e-01 3.053244e-01 3.546284e-01 4.314792e-01 1.994769e-01 9.097415e-02
<GCONST> 9.089458e+01
<STATE> 3
<MEAN> 39
 5.450467e+00 7.653041e+00 3.193542e+00 -1.089182e+00 -1.027211e+00 1.403240e+01 -1.369884e+01 1.229609e+00 -5.100396e+00 -7.921628e+00 3.773672e-01 -1.548731e+00 6.672351e+01 1.070229e-01 3.984492e-01 -1.887890e-01 -3.582808e-02 2.601447e-01 1.931317e-01 -5.520805e-02 -1.747819e-01 1.672105e-01 -1.110258e-01 7.675872e-02 -1.712518e-01 -1.284528e-01 -1.865010e-01 -3.369072e-01 -5.827933e-02 -3.272789e-01 5.155922e-02 -9.585710e-01 3.345579e-01 1.480120e-01 -3.230470e-01 4.376493e-01 3.463207e-01 -1.814495e-01 3.458041e-01
<VARIANCE> 39
 2.111861e+00 9.165093e+00 1.746971e+01 1.261477e+01 1.201829e+01 2.228735e+01 2.033279e+01 1.612801e+01 2.166123e+01 1.548701e+01 1.495248e+01 1.875093e+01 2.969918e+00 2.102409e-01 5.509239e-01 8.532935e-01 1.934901e+00 8.037518e-01 2.343287e+00 1.349600e+00 1.037614e+00 1.931424e+00 1.272242e+00 1.689357e+00 1.249121e+00 4.674157e-01 4.296413e-02 1.436509e-01 1.381337e-01 2.377956e-01 2.125161e-01 5.614997e-01 3.013671e-01 3.424578e-01 3.202139e-01 2.993966e-01 2.377834e-01 1.699014e-01 9.196797e-02
<GCONST> 8.331924e+01
<STATE> 4
<MEAN> 39
 4.642615e+00 6.861930e+00 9.748441e-01 -2.969357e+00 -6.310984e-02 9.726789e+00 -1.112498e+01 2.421851e+00 -6.429159e+00 -6.040246e+00 1.238922e+00 -3.335885e+00 6.757840e+01 -5.322333e-01 -8.569680e-01 -2.334532e-01 -8.713104e-01 1.640053e-01 -2.247665e+00 1.029854e+00 5.052736e-01 -3.916899e-01 9.431320e-01 1.016245e+00 -5.516785e-01 8.813136e-01 -2.671285e-01 -3.542254e-01 1.463077e-01 -1.095229e-01 -5.673873e-02 -4.444661e-01 1.705737e-01 -5.491321e-03 3.127287e-02 1.583980e-01 1.397846e-01 -8.947045e-02 2.399970e-01
<VARIANCE> 39
 3.875158e+00 1.197438e+01 3.097586e+01 5.089410e+01 2.029036e+01 5.678907e+01 2.965565e+01 3.134540e+01 3.218886e+01 2.088836e+01 3.898677e+01 2.675614e+01 1.746121e+01 4.679680e-01 1.870981e+00 2.062253e+00 3.412157e+00 2.103716e+00 5.782684e+00 2.624551e+00 3.595803e+00 2.171814e+00 2.306750e+00 3.135402e+00 1.422161e+00 1.708111e+00 1.223209e-01 2.368651e-01 3.334398e-01 6.302272e-01 2.926286e-01 1.116234e+00 5.305490e-01 5.492211e-01 3.260479e-01 4.547694e-01 4.340864e-01 3.138328e-01 2.179386e-01
<GCONST> 1.104068e+02
<TRANSP> 5
 0.000000e+00 1.000000e+00 0.000000e+00 0.000000e+00 0.000000e+00
 0.000000e+00 6.801080e-01 3.198920e-01 0.000000e+00 0.000000e+00
 0.000000e+00 0.000000e+00 6.278179e-01 3.721821e-01 0.000000e+00
 0.000000e+00 0.000000e+00 0.000000e+00 6.428524e-01 3.571476e-01
 0.000000e+00 0.000000e+00 0.000000e+00 0.000000e+00 0.000000e+00
<ENDHMM>
~h "n"
<BEGINHMM>
<NUMSTATES> 5
<STATE> 2
<MEAN> 39
 5.462118e-01 -1.171825e+00 7.325087e+00 -6.409108e+00 2.665594e+00 -1.077711e+00 -1.392316e+01 -9.827620e-01 -1.170225e+01 1.541086e+00 7.675817e+00 -5.202120e+00 7.432819e+01 4.206245e-01 8.812151e-01 -1.722262e-01 5.860571e-01 -1.696882e-01 1.362813e+00 9.545103e-02 8.173446e-01 4.852933e-01 -4.996145e-01 -7.589225e-01 2.345489e-01 -9.391325e-01 1.986920e-02 2.219134e-01 -1.007966e-01 1.145163e-01 -1.508741e-01 3.381974e-01 1.280815e-01 3.902163e-02 1.458533e-01 -3.038164e-01 -3.364416e-01 -1.292864e-02 -1.928066e-01
<VARIANCE> 39
 6.667906e+00 1.952335e+01 3.203379e+01 3.329064e+01 2.916581e+01 5.382054e+01 4.314910e+01 4.583361e+01 2.725686e+01 3.215437e+01 3.627021e+01 3.843439e+01 1.129789e+01 4.943548e-01 1.601618e+00 1.151371e+00 2.567117e+00 1.802548e+00 4.181146e+00 1.867219e+00 2.946425e+00 2.614782e+00 2.749327e+00 3.599380e+00 1.543702e+00 1.161385e+00 1.059741e-01 2.359881e-01 1.515392e-01 3.002200e-01 3.857408e-01 7.238495e-01 4.343183e-01 4.551990e-01 5.651591e-01 4.345614e-01 5.842181e-01 2.811909e-01 1.417878e-01
<GCONST> 1.084800e+02
<STATE> 3
<MEAN> 39
 2.352935e+00 2.390467e+00 5.878869e+00 -3.494408e+00 1.124519e+00 3.506245e+00 -1.349360e+01 8.274742e-01 -1.037916e+01 -2.101588e+00 3.689353e+00 -5.099847e+00 7.099494e+01 4.922493e-01 9.848109e-01 -3.781161e-01 8.122312e-01 -4.302219e-01 1.525214e+00 1.293764e-01 5.467128e-01 5.571188e-01 -7.641111e-01 -9.756513e-01 2.948120e-04 -9.916431e-01 -2.001213e-01 -2.177963e-01 -4.234865e-02 -1.359953e-01 1.740372e-01 -4.722264e-01 1.506662e-01 -2.208215e-01 1.300453e-02 1.212558e-01 2.184083e-01 -8.289605e-02 2.723491e-01
<VARIANCE> 39
 7.065773e+00 1.578763e+01 2.774835e+01 3.816766e+01 2.978122e+01 6.172765e+01 3.195826e+01 3.317311e+01 2.253284e+01 3.050112e+01 3.207574e+01 2.884922e+01 1.305618e+01 5.829544e-01 1.689739e+00 1.447235e+00 2.187111e+00 2.374664e+00 7.298376e+00 2.427413e+00 2.753135e+00 2.263095e+00 2.884969e+00 4.470415e+00 1.911695e+00 1.637903e+00 1.284456e-01 2.732577e-01 1.887979e-01 2.743879e-01 4.551986e-01 1.373091e+00 4.220032e-01 3.765475e-01 4.518146e-01 4.727658e-01 7.184377e-01 3.842660e-01 2.505312e-01
<GCONST> 1.113420e+02
<STATE> 4
<MEAN> 39
 3.200363e+00 4.320760e+00 2.513317e+00 -6.852440e-01 1.087146e+00 6.191481e+00 -1.159454e+01 1.708978e+00 -7.890396e+00 -2.717507e+00 2.617089e+00 -3.615811e+00 6.834969e+01 -1.995669e-01 8.086018e-02 -2.781822e-01 3.769703e-01 2.728255e-01 -3.476494e-01 6.685980e-01 -2.504566e-02 3.831870e-01 -7.860813e-02 -2.099632e-01 -6.009262e-02 -7.870024e-02 -3.349782e-01 -3.644816e-01 1.855477e-01 -2.597532e-01 1.549900e-01 -5.821007e-01 1.937774e-01 -2.081604e-01 -8.013761e-02 2.384747e-01 2.380618e-01 -9.196033e-02 3.806412e-01
<VARIANCE> 39
 8.602143e+00 2.052659e+01 5.781593e+01 3.544264e+01 2.524886e+01 5.481698e+01 3.502196e+01 2.367133e+01 2.846406e+01 3.213312e+01 3.082605e+01 2.214783e+01 1.827276e+01 1.063452e+00 2.414076e+00 2.393023e+00 1.873959e+00 2.291039e+00 6.786155e+00 3.017372e+00 2.009386e+00 2.644799e+00 2.824552e+00 3.682681e+00 1.849409e+00 1.577618e+00 2.418996e-01 3.919933e-01 2.934031e-01 2.661234e-01 4.395370e-01 1.279029e+00 5.921068e-01 4.257019e-01 5.633532e-01 5.724480e-01 7.419055e-01 3.162754e-01 2.986878e-01
<GCONST> 1.154046e+02
<TRANSP> 5
 0.000000e+00 1.000000e+00 0.000000e+00 0.000000e+00 0.000000e+00
 0.000000e+00 6.122912e-01 3.877088e-01 0.000000e+00 0.000000e+00
 0.000000e+00 0.000000e+00 4.490845e-01 5.509155e-01 0.000000e+00
 0.000000e+00 0.000000e+00 0.000000e+00 6.278903e-01 3.721097e-01
 0.000000e+00 0.000000e+00 0.000000e+00 0.000000e+00 0.000000e+00
<ENDHMM>
~h "p"
<BEGINHMM>
<NUMSTATES> 5
<STATE> 2
<MEAN> 39
 8.582024e-01 2.435389e+00 -5.940608e+00 4.349314e-01 -2.975516e+00 5.185597e+00 -5.095111e+00 1.030274e+00 -5.200843e+00 5.859188e-01 -1.908161e+00 -1.961450e+00 6.435081e+01 -2.140252e-02 2.780702e-02 -1.288825e+00 2.352971e-01 -1.157160e-01 2.256375e-01 3.788605e-01 5.267421e-01 6.708226e-01 2.559264e-01 -2.481302e-01 1.440464e-01 -7.536789e-01 -1.491555e-01 -1.939514e-01 4.192512e-01 -2.207534e-01 6.122306e-02 -4.730990e-01 -3.442899e-01 -5.656650e-01 -3.020366e-01 -2.128723e-01 2.597136e-01 -8.265666e-02 5.001377e-01
<VARIANCE> 39
 1.856316e+01 1.982950e+01 4.370879e+01 3.589437e+01 1.329911e+01 2.182723e+01 1.972531e+01 1.723879e+01 2.617383e+01 1.374924e+01 1.120652e+01 1.403245e+01 1.078451e+01 9.883545e-01 1.208283e+00 2.229396e+00 1.855422e+00 1.125292e+00 2.185708e+00 3.117851e+00 3.127949e+00 2.244616e+00 1.314391e+00 1.424949e+00 1.198226e+00 1.542991e+00 1.417258e-01 2.560498e-01 3.660180e-01 3.151781e-01 2.212460e-01 4.538753e-01 3.470713e-01 4.162310e-01 3.776739e-01 2.970321e-01 3.008205e-01 3.592772e-01 1.283725e-01
<GCONST> 1.004163e+02
<STATE> 3
<MEAN> 39
 -5.389912e-01 7.535078e-01 -5.660443e+00 -5.815746e-01 -2.355190e+00 3.975631e+00 -5.912646e+00 -8.220667e-01 -4.466071e+00 3.885557e-01 -1.792910e+00 -2.186584e+00 6.557883e+01 -2.421643e-01 -5.430011e-01 1.271158e+00 -1.407974e-01 8.733105e-02 -1.410498e+00 -1.059444e+00 -1.253117e+00 -9.070174e-01 -7.613764e-01 5.494239e-01 -7.662295e-01 1.301588e+00 9.054123e-03 -1.244560e-01 8.036033e-01 -2.528357e-01 -2.917217e-02 -4.163083e-01 -3.226815e-01 -2.738265e-01 -5.411802e-01 -1.632746e-01 2.679079e-01 -3.308432e-01 5.369508e-01
<VARIANCE> 39
 1.919412e+01 3.144126e+01 5.030151e+01 3.433473e+01 1.415110e+01 2.640462e+01 2.525269e+01 2.773407e+01 2.302685e+01 1.301399e+01 2.138372e+01 1.771957e+01 2.094721e+01 3.164993e+00 3.059316e+00 4.682383e+00 4.506357e+00 2.036029e+00 3.984214e+00 5.128634e+00 3.604353e+00 5.298635e+00 2.307170e+00 2.915532e+00 3.610083e+00 1.736444e+00 3.231572e-01 6.573187e-01 5.736122e-01 4.878229e-01 4.170965e-01 6.078002e-01 6.972857e-01 7.345687e-01 5.341802e-01 4.102221e-01 4.854678e-01 4.789087e-01 2.762621e-01
<GCONST> 1.193025e+02
<STATE> 4
<MEAN> 39
 -2.764923e-01 -4.249707e-01 6.299411e-01 -3.543305e+00 -4.183031e+00 6.487188e-02 -7.732558e+00 -3.290999e+00 -8.289719e+00 -1.672304e+00 1.083862e+00 -4.621401e+00 7.050126e+01 1.505371e-01 -9.702995e-02 1.547001e+00 -6.730576e-01 -2.921395e-01 -1.219957e+00 -1.075614e+00 -5.035238e-01 -1.087271e+00 -4.066945e-01 6.450150e-01 -7.478096e-01 1.169293e+00 9.149420e-02 8.450321e-02 -1.675831e-02 -1.327197e-01 -7.986207e-02 -4.197373e-02 -5.475225e-02 1.555070e-01 -8.415412e-02 1.194112e-01 2.989708e-02 3.629152e-02 -1.667259e-02
<VARIANCE> 39
 1.935047e+01 3.726046e+01 4.908176e+01 5.872679e+01 5.693665e+01 4.568066e+01 3.933399e+01 3.516832e+01 5.086398e+01 2.485501e+01 3.192250e+01 4.470452e+01 2.608470e+01 2.324406e+00 4.639604e+00 5.584285e+00 3.215025e+00 4.699795e+00 3.472116e+00 4.621579e+00 4.108413e+00 5.429168e+00 3.298882e+00 2.824108e+00 4.117139e+00 2.043067e+00 3.599611e-01 7.385895e-01 6.135702e-01 4.563371e-01 6.394987e-01 5.483232e-01 9.530697e-01 6.209584e-01 8.531577e-01 7.176268e-01 5.122167e-01 7.480314e-01 2.446684e-01
<GCONST> 1.290141e+02
<TRANSP> 5
 0.000000e+00 1.000000e+00 0.000000e+00 0.000000e+00 0.000000e+00
 0.000000e+00 7.218823e-01 2.781177e-01 0.000000e+00 0.000000e+00
 0.000000e+00 0.000000e+00 4.312223e-01 5.687777e-01 0.000000e+00
 0.000000e+00 0.000000e+00 0.000000e+00 6.695479e-01 3.304521e-01
 0.000000e+00 0.000000e+00 0.000000e+00 0.000000e+00 0.000000e+00
<ENDHMM>
~h "r"
<BEGINHMM>
<NUMSTATES> 5
<STATE> 2
<MEAN> 39
 -5.301706e+00 -2.656096e+00 -1.314130e+00 -2.613345e+00 4.382724e+00 -1.703243e+00 -8.148093e+00 -6.721879e+00 -1.043624e+01 -4.241677e+00 3.015078e+00 -1.801568e+00 7.439989e+01 1.036137e+00 8.698076e-01 1.251505e-01 -1.407965e+00 6.436682e-01 -6.405028e-01 -8.867028e-01 -1.061787e+00 -2.016165e+00 -6.428841e-01 4.470755e-01 5.201527e-01 3.437677e-01 5.382976e-01 4.069177e-01 4.891790e-02 -2.029136e-01 -1.029396e-01 1.152235e-01 -2.975714e-01 -1.310490e-01 -4.707231e-01 2.073050e-01 1.494711e-04 -3.798199e-02 -2.091008e-01
<VARIANCE> 39
 6.838840e+01 4.761812e+01 5.346080e+01 4.847959e+01 1.896686e+01 5.203494e+01 3.840276e+01 5.336793e+01 7.048708e+01 2.894506e+01 2.123368e+01 4.172839e+01 1.987090e+01 6.820451e+00 3.576490e+00 5.631960e+00 2.363361e+00 1.730869e+00 3.657197e+00 5.432967e+00 4.290840e+00 6.999074e+00 2.894021e+00 2.522185e+00 2.008302e+00 2.199412e+00 8.274006e-01 5.976422e-01 9.935029e-01 3.773314e-01 3.890050e-01 7.431145e-01 7.750249e-01 9.472561e-01 8.667196e-01 4.143798e-01 6.245610e-01 4.285513e-01 3.680337e-01
<GCONST> 1.291616e+02
<STATE> 3
<MEAN> 39
 2.423615e+00 3.366693e+00 -1.456837e+00 -7.934112e+00 4.761322e+00 -3.521186e+00 -1.287875e+01 -9.435884e+00 -1.906645e+01 -4.751708e+00 3.817440e+00 -7.901225e-01 7.335291e+01 1.647267e+00 1.406154e+00 -4.663157e-01 -1.947594e+00 1.796933e-01 -5.280780e-01 -1.017834e+00 -3.103537e-01 -2.409194e+00 3.071414e-01 1.015166e+00 1.519057e-01 -3.570688e-02 -4.110891e-01 -4.129810e-01 -1.120793e-01 1.222572e-01 -1.254783e-01 1.265873e-01 3.273432e-01 4.471934e-01 4.458758e-01 3.192204e-01 2.438492e-01 -2.467403e-01 6.993961e-02
<VARIANCE> 39
 2.858424e+01 3.280300e+01 2.081812e+01 6.133219e+01 2.111045e+01 4.037257e+01 3.377298e+01 5.937965e+01 5.700944e+01 5.255392e+01 2.969287e+01 3.153225e+01 7.018783e+00 2.664258e+00 2.520065e+00 2.189562e+00 2.497395e+00 2.248802e+00 2.087743e+00 2.818495e+00 4.066259e+00 3.954688e+00 2.430315e+00 2.717252e+00 2.027383e+00 8.083883e-01 5.104142e-01 4.927034e-01 4.227844e-01 5.187047e-01 2.531876e-01 3.723138e-01 6.872586e-01 6.722580e-01 7.623898e-01 5.745096e-01 3.657846e-01 2.464749e-01 1.291528e-01
<GCONST> 1.168549e+02
<STATE> 4
<MEAN> 39
 3.174128e+00 3.950887e+00 -3.058038e+00 -1.228067e+01 6.938973e+00 -4.066216e+00 -1.330611e+01 -7.628391e+00 -2.463737e+01 -2.572661e+00 8.529808e+00 -1.797456e+00 7.414796e+01 -1.921206e-01 -4.212565e-01 2.944320e-01 -1.170348e-01 -1.537925e-01 -7.920023e-02 1.916324e-01 8.486417e-02 3.469558e-02 4.939934e-01 6.246448e-01 -5.482777e-01 2.224149e-01 -1.757100e-01 -1.770124e-01 2.129391e-01 3.027146e-01 -1.375820e-01 1.247899e-01 1.153750e-01 6.232953e-02 3.783393e-01 3.087736e-03 -2.231169e-01 -7.773738e-02 -3.018104e-02
<VARIANCE> 39
 4.505141e+01 2.601668e+01 2.262076e+01 4.853974e+01 3.403261e+01 3.686226e+01 3.472837e+01 6.335614e+01 9.163576e+01 4.166821e+01 4.212315e+01 3.007998e+01 5.934977e+00 1.026322e+00 1.621585e+00 1.226536e+00 3.387888e+00 1.660940e+00 2.215454e+00 2.181757e+00 2.889911e+00 3.604421e+00 2.925057e+00 3.236240e+00 2.293444e+00 4.252699e-01 2.346246e-01 2.828315e-01 1.789663e-01 3.854330e-01 2.840367e-01 4.187146e-01 4.222095e-01 5.134305e-01 6.251972e-01 4.406634e-01 5.096167e-01 3.607747e-01 9.255211e-02
<GCONST> 1.119241e+02
<TRANSP> 5
 0.000000e+00 1.000000e+00 0.000000e+00 0.000000e+00 0.000000e+00
 0.000000e+00 5.540826e-01 4.459175e-01 0.000000e+00 0.000000e+00
 0.000000e+00 0.000000e+00 4.440805e-01 5.559195e-01 0.000000e+00
 0.000000e+00 0.000000e+00 0.000000e+00 8.403737e-01 1.596263e-01
 0.000000e+00 0.000000e+00 0.000000e+00 0.000000e+00 0.000000e+00
<ENDHMM>
~h "s"
<BEGINHMM>
<NUMSTATES> 5
<STATE> 2
<MEAN> 39
 -1.262785e+01 -1.678966e-01 1.479912e+01 -1.084389e+01 3.337852e+00 5.300353e+00 -9.414974e+00 -8.106171e+00 -3.211218e+00 -5.420885e+00 -1.007000e+00 -3.561409e+00 7.692796e+01 -3.841385e+00 6.629092e-02 9.218931e-01 -1.087926e+00 3.304776e-01 9.015223e-01 1.829587e+00 1.256091e-01 2.467518e+00 -2.352896e-01 -9.605022e-02 1.696959e-01 1.067392e+00 1.759289e-01 1.580239e-02 -5.187392e-01 3.699538e-02 -2.437995e-01 -2.499953e-01 -1.625932e-01 2.653888e-01 -3.410074e-01 2.046742e-01 2.553206e-01 -2.910059e-02 -9.564486e-02
<VARIANCE> 39
 7.708405e+01 2.714224e+01 3.054683e+01 4.197826e+01 2.813246e+01 2.967704e+01 6.292586e+01 5.175508e+01 4.546605e+01 1.929398e+01 1.840574e+01 2.346626e+01 1.349368e+01 5.061087e+00 2.150565e+00 2.767311e+00 3.062211e+00 2.903584e+00 2.888300e+00 5.113509e+00 3.172589e+00 4.263137e+00 1.895525e+00 1.926589e+00 1.524470e+00 1.136293e+00 1.366245e+00 3.888192e-01 3.798775e-01 7.005765e-01 3.620007e-01 4.655966e-01 9.404752e-01 4.247488e-01 8.670828e-01 3.229538e-01 3.321158e-01 2.596778e-01 2.664936e-01
<GCONST> 1.197743e+02
<STATE> 3
<MEAN> 39
 -2.340385e+01 -4.635095e-01 1.285511e+01 -1.531483e+01 2.759689e+00 5.958566e+00 -5.448194e+00 -3.750033e+00 9.334316e-01 -4.473008e+00 6.601201e-01 -2.615646e+00 7.847987e+01 8.468200e-02 -3.081006e-01 -6.217605e-01 1.545351e-01 -2.632108e-01 -4.235578e-01 2.114422e-01 1.400432e-01 1.570253e-02 1.465397e-01 8.944203e-02 2.628157e-01 -2.746428e-01 8.463468e-01 -4.254992e-02 -1.254268e-01 3.125374e-01 -2.992716e-02 -2.107665e-01 -2.652941e-01 -2.222866e-01 -3.847601e-01 6.663599e-03 -6.995187e-02 -8.428214e-03 -2.348878e-01
<VARIANCE> 39
 1.929271e+01 1.552334e+01 2.241622e+01 1.689007e+01 2.393143e+01 2.100032e+01 2.633823e+01 4.275143e+01 2.231074e+01 1.450424e+01 1.457195e+01 1.622215e+01 8.909285e+00 2.858611e+00 1.026881e+00 1.080144e+00 1.760495e+00 1.242688e+00 1.474245e+00 1.916966e+00 1.901111e+00 1.539622e+00 1.167906e+00 1.345984e+00 9.585980e-01 6.080611e-01 4.457543e-01 2.034811e-01 2.317118e-01 2.415303e-01 2.674028e-01 2.902232e-01 4.780853e-01 4.179525e-01 5.124987e-01 2.408174e-01 2.863615e-01 2.144154e-01 1.070461e-01
<GCONST> 9.738964e+01
<STATE> 4
<MEAN> 39
 -1.266413e+01 -1.481920e+00 9.207224e+00 -1.068526e+01 8.109959e-01 1.733737e+00 -7.362405e+00 -7.958509e+00 -3.067814e+00 -3.502371e+00 -5.222150e-04 -1.634405e+00 7.492963e+01 3.635077e+00 2.507718e-01 -7.799751e-01 8.930796e-01 -2.709364e-01 -1.118459e+00 -1.694320e+00 -5.841787e-01 -2.112362e+00 3.735251e-01 -1.821631e-01 -2.772923e-01 -8.798498e-01 -1.507465e-02 4.067257e-02 1.162189e-01 -1.230610e-01 -2.709119e-02 1.062593e-01 -1.419748e-01 2.889149e-01 -1.092092e-01 1.354608e-01 1.466874e-01 -1.725511e-01 1.421131e-01
<VARIANCE> 39
 5.972332e+01 2.382973e+01 2.958044e+01 2.848960e+01 2.531539e+01 3.346714e+01 8.178789e+01 5.256822e+01 4.745225e+01 2.117284e+01 2.210122e+01 1.705908e+01 1.941485e+01 3.260936e+00 1.859239e+00 2.065231e+00 2.145798e+00 1.925063e+00 3.538089e+00 5.017593e+00 5.459563e+00 4.713963e+00 2.442028e+00 2.314283e+00 1.998719e+00 1.204379e+00 8.990784e-01 4.002263e-01 3.057832e-01 3.246215e-01 3.382405e-01 5.133263e-01 8.879107e-01 8.674283e-01 8.715405e-01 4.455469e-01 4.479893e-01 3.268980e-01 1.923523e-01
<GCONST> 1.194148e+02
<TRANSP> 5
 0.000000e+00 1.000000e+00 0.000000e+00 0.000000e+00 0.000000e+00
 0.000000e+00 7.171085e-01 2.828914e-01 0.000000e+00 0.000000e+00
 0.000000e+00 0.000000e+00 8.207277e-01 1.792723e-01 0.000000e+00
 0.000000e+00 0.000000e+00 0.000000e+00 6.921239e-01 3.078761e-01
 0.000000e+00 0.000000e+00 0.000000e+00 0.000000e+00 0.000000e+00
<ENDHMM>
~h "t"
<BEGINHMM>
<NUMSTATES> 5
<STATE> 2
<MEAN> 39
 -9.169466e-01 2.261193e+00 -7.758243e-01 -2.195252e+00 -5.229819e-01 3.028956e+00 -7.036612e+00 -1.104607e+00 -7.459555e+00 -1.978210e+00 -9.701259e-01 -4.405224e+00 6.775682e+01 -1.142381e+00 -7.105883e-01 -5.693766e-02 3.554289e-01 -4.803699e-02 2.299636e-02 9.701850e-01 1.156525e-01 1.106638e+00 -1.833875e-01 1.157217e-01 4.265684e-01 1.754493e-01 -5.914806e-01 -5.696125e-01 8.293906e-01 -4.697956e-01 1.269823e-01 -6.241784e-01 -5.602565e-01 -6.738577e-01 -2.244530e-01 -6.886291e-02 5.204138e-01 -6.406067e-02 8.830611e-01
<VARIANCE> 39
 3.211370e+01 2.038213e+01 5.407096e+01 5.551819e+01 2.668255e+01 4.338819e+01 3.903674e+01 3.734459e+01 3.951233e+01 2.589060e+01 2.446992e+01 2.104814e+01 1.986451e+01 3.886026e+00 3.757050e+00 7.249382e+00 4.623590e+00 3.194130e+00 4.883901e+00 5.271371e+00 4.717045e+00 4.038302e+00 2.407917e+00 3.670112e+00 2.274891e+00 4.240322e+00 6.109823e-01 4.463502e-01 9.934742e-01 7.485741e-01 4.364696e-01 6.861444e-01 1.104367e+00 9.036854e-01 7.294126e-01 4.145863e-01 5.928277e-01 4.617631e-01 4.591056e-01
<GCONST> 1.285927e+02
<STATE> 3
<MEAN> 39
 -1.121173e+01 -4.762212e+00 7.374894e+00 -5.356996e+00 6.520223e-01 -3.056704e-01 -6.630879e+00 -5.367323e+00 -3.649686e+00 -3.152461e+00 2.520574e+00 -3.035315e+00 7.547997e+01 -1.547112e+00 -1.572138e+00 1.665527e+00 -2.564282e-01 1.776626e-01 -1.051769e+00 -9.993500e-01 -1.601653e+00 1.288422e-02 -1.952018e-02 7.315809e-01 1.119010e-01 1.714451e+00 8.284714e-01 4.790514e-01 -3.944118e-01 4.031066e-02 -4.963478e-02 1.174714e-01 -4.431948e-01 -1.151494e-01 -5.116451e-01 2.229552e-01 -1.657111e-01 -8.207296e-02 -3.472495e-01
<VARIANCE> 39
 7.367078e+01 3.514114e+01 6.301954e+01 6.861108e+01 3.362906e+01 4.655567e+01 3.773765e+01 3.613680e+01 5.156219e+01 2.077881e+01 2.473690e+01 2.264739e+01 2.089245e+01 7.752699e+00 3.466648e+00 6.058422e+00 5.578925e+00 2.517210e+00 4.027601e+00 5.567549e+00 4.066014e+00 4.289466e+00 2.290365e+00 3.270258e+00 2.468193e+00 3.363035e+00 1.124433e+00 7.957146e-01 1.060825e+00 1.076188e+00 5.717043e-01 7.377727e-01 1.024113e+00 7.924038e-01 9.356030e-01 5.238366e-01 6.209277e-01 4.662034e-01 6.329192e-01
<GCONST> 1.331992e+02
<STATE> 4
<MEAN> 39
 -6.866508e+00 -5.241791e+00 6.715298e+00 -4.177256e+00 5.765399e-01 -2.756996e+00 -1.100212e+01 -8.858931e+00 -8.153824e+00 -1.910379e+00 2.929979e+00 -3.086524e+00 7.535391e+01 1.531829e+00 5.634223e-01 -1.099842e-01 -2.689765e-01 -3.521846e-02 -2.437549e-01 -1.262083e+00 -7.180917e-01 -1.507145e+00 3.097735e-01 5.365274e-02 -2.212843e-01 -7.940698e-02 3.160353e-01 3.942585e-01 -2.862033e-01 -1.073249e-01 -1.122668e-01 3.156571e-01 1.073162e-01 3.764372e-01 -9.036423e-02 8.424645e-02 -6.449277e-02 -1.357763e-01 -2.587170e-01
<VARIANCE> 39
 6.965627e+01 3.387191e+01 4.352382e+01 5.156075e+01 2.956293e+01 5.542841e+01 5.821934e+01 4.224998e+01 9.086828e+01 2.989989e+01 3.531355e+01 2.929787e+01 1.756804e+01 6.677901e+00 3.471827e+00 3.048293e+00 4.263128e+00 2.295721e+00 4.623172e+00 6.705638e+00 5.625559e+00 6.424642e+00 3.213435e+00 3.560688e+00 2.963271e+00 2.479090e+00 8.659095e-01 6.651064e-01 5.851172e-01 5.749599e-01 4.126476e-01 8.434834e-01 1.179970e+00 8.449980e-01 1.116316e+00 6.342074e-01 6.803699e-01 4.940796e-01 4.434473e-01
<GCONST> 1.331279e+02
<TRANSP> 5
 0.000000e+00 1.000000e+00 0.000000e+00 0.000000e+00 0.000000e+00
 0.000000e+00 6.092280e-01 3.907720e-01 0.000000e+00 0.000000e+00
 0.000000e+00 0.000000e+00 4.787335e-01 5.212665e-01 0.000000e+00
 0.000000e+00 0.000000e+00 0.000000e+00 5.609142e-01 4.390858e-01
 0.000000e+00 0.000000e+00 0.000000e+00 0.000000e+00 0.000000e+00
<ENDHMM>
~h "v"
<BEGINHMM>
<NUMSTATES> 5
<STATE> 2
<MEAN> 39
 3.373232e+00 1.220878e+00 2.116392e+00 -6.658134e+00 -5.349074e-01 -1.653369e+00 -1.363531e+01 -9.035080e+00 -1.895508e+01 -9.721124e-02 6.795633e+00 -3.899622e+00 7.369195e+01 3.889639e-01 1.431804e+00 -3.312536e-01 5.781674e-02 1.703451e-01 3.693617e-01 5.891596e-01 -1.053802e-01 -1.931717e-01 -2.847276e-01 -1.050641e-01 -1.294099e-01 -4.903016e-01 -5.757435e-01 6.003194e-02 -3.886406e-02 2.682134e-01 9.699721e-02 -4.790478e-02 6.477381e-01 2.639886e-01 7.845891e-01 -1.114279e-01 -2.867273e-01 -4.845744e-02 -1.125675e-01
<VARIANCE> 39
 7.236778e+00 2.482962e+01 1.854483e+01 5.442869e+01 4.665415e+01 3.462965e+01 5.580271e+01 4.963313e+01 6.318996e+01 3.617051e+01 3.632904e+01 3.291367e+01 1.374126e+01 2.054742e+00 1.570671e+00 2.220245e+00 2.714701e+00 1.932444e+00 2.387835e+00 7.071310e+00 2.721198e+00 4.681254e+00 1.947524e+00 1.858822e+00 2.104261e+00 8.192007e-01 2.259871e-01 4.010829e-01 2.237569e-01 5.028087e-01 3.007416e-01 2.505322e-01 8.441663e-01 4.642273e-01 6.512727e-01 3.699679e-01 3.705416e-01 2.243835e-01 9.757968e-02
<GCONST> 1.130241e+02
<STATE> 3
<MEAN> 39
 4.472050e+00 4.556241e+00 1.697458e+00 -5.395971e+00 -2.804812e+00 -2.718159e+00 -1.169672e+01 -7.970735e+00 -1.820901e+01 -7.688540e-01 5.784868e+00 -3.022265e+00 7.202988e+01 -4.327188e-01 1.008005e+00 -3.142955e-01 8.743353e-01 2.703857e-01 1.686361e-01 9.617427e-01 3.060455e-01 1.072797e+00 -5.506130e-01 -6.810381e-01 2.870273e-02 -6.243857e-01 -3.072467e-01 -1.122953e-01 1.759311e-02 8.555791e-02 7.659404e-02 5.089898e-02 1.285223e-01 5.309294e-02 3.745600e-01 -3.417946e-02 -1.783460e-01 -2.043820e-03 4.494793e-02
<VARIANCE> 39
 1.237067e+01 1.734204e+01 1.583021e+01 4.313585e+01 9.011689e+01 4.207285e+01 4.388524e+01 2.727939e+01 8.616537e+01 1.915685e+01 3.058793e+01 4.278800e+01 7.410015e+00 1.264511e+00 1.563176e+00 1.569724e+00 2.083006e+00 1.733589e+00 1.530404e+00 5.231061e+00 2.275131e+00 3.844712e+00 1.623017e+00 2.335956e+00 1.158723e+00 5.205959e-01 2.476597e-01 1.470801e-01 1.948135e-01 2.986149e-01 2.295628e-01 2.194503e-01 5.061571e-01 2.942525e-01 6.129084e-01 2.454485e-01 2.593280e-01 2.556730e-01 6.448918e-02
<GCONST> 1.045830e+02
<STATE> 4
<MEAN> 39
 4.504933e-01 6.864938e+00 -1.161916e+00 -4.622610e+00 3.581024e+00 3.755340e-01 -1.047549e+01 -6.504030e+00 -1.537607e+01 -3.849400e+00 3.455010e+00 -2.537599e+00 7.054153e+01 -4.681506e-01 1.733592e-01 -1.870728e-01 1.197775e-01 7.776712e-02 2.039593e-01 4.808291e-01 2.542755e-01 8.885630e-01 -2.146107e-01 -4.330858e-01 7.021213e-02 -1.521367e-01 1.770293e-01 -2.688607e-01 1.116362e-01 -1.628092e-01 -1.639197e-01 5.302877e-03 -2.954605e-01 7.250503e-02 -1.645084e-01 1.681331e-01 1.915561e-01 -4.499920e-02 6.714313e-02
<VARIANCE> 39
 3.643930e+01 1.407689e+01 1.713207e+01 6.198343e+01 3.446082e+01 3.527250e+01 6.729987e+01 2.564376e+01 1.142190e+02 1.577037e+01 2.463346e+01 3.682758e+01 1.045281e+01 2.811332e+00 1.507753e+00 9.961298e-01 3.477144e+00 1.820544e+00 1.511614e+00 4.785701e+00 2.577070e+00 6.560091e+00 1.583487e+00 3.166164e+00 1.442200e+00 6.238236e-01 5.069745e-01 2.335228e-01 2.689663e-01 3.931452e-01 2.883797e-01 2.874278e-01 1.015347e+00 3.773704e-01 1.003384e+00 2.575977e-01 4.971868e-01 2.687530e-01 1.295095e-01
<GCONST> 1.124539e+02
<TRANSP> 5
 0.000000e+00 1.000000e+00 0.000000e+00 0.000000e+00 0.000000e+00
 0.000000e+00 3.508194e-01 6.491806e-01 0.000000e+00 0.000000e+00
 0.000000e+00 0.000000e+00 5.637134e-01 4.362866e-01 0.000000e+00
 0.000000e+00 0.000000e+00 0.000000e+00 7.605855e-01 2.394145e-01
 0.000000e+00 0.000000e+00 0.000000e+00 0.000000e+00 0.000000e+00
<ENDHMM>
~h "w"
<BEGINHMM>
<NUMSTATES> 5
<STATE> 2
<MEAN> 39
 3.062441e+00 4.188192e+00 3.026861e-01 -2.249674e+00 -2.409302e+00 -2.993876e+00 -1.155609e+01 -4.705775e+00 -1.366032e+01 -4.509400e+00 2.233135e-01 -4.881562e+00 6.998907e+01 8.021787e-01 8.909690e-01 -4.253390e-02 -5.380189e-01 -9.542887e-01 -6.315443e-01 2.021678e-01 3.531815e-01 -8.363965e-01 -3.785200e-01 -2.153822e-01 -6.271581e-01 -5.751915e-02 -1.035519e-01 -1.357712e-01 1.228527e-01 -7.395014e-02 -1.102186e-02 -8.505668e-02 1.364589e-02 6.978597e-02 4.258196e-02 3.751387e-02 1.770848e-01 -1.275274e-01 1.774404e-01
<VARIANCE> 39
 1.288132e+01 2.497809e+01 4.133939e+01 3.597453e+01 2.731801e+01 3.182295e+01 4.371635e+01 7.600366e+01 5.410540e+01 2.831554e+01 3.482498e+01 2.666656e+01 2.339199e+01 9.392902e-01 2.252785e+00 2.198602e+00 2.478644e+00 1.435081e+00 2.983130e+00 5.006443e+00 4.779230e+00 4.802842e+00 2.474967e+00 2.849732e+00 2.839489e+00 1.665998e+00 9.658042e-02 2.815956e-01 3.756863e-01 3.945871e-01 3.125108e-01 5.149048e-01 5.644514e-01 9.140547e-01 7.681139e-01 4.292506e-01 4.910761e-01 4.248463e-01 1.891908e-01
<GCONST> 1.167594e+02
<STATE> 3
<MEAN> 39
 4.773579e+00 5.746456e+00 9.317731e-01 -4.245948e+00 -4.649949e+00 -6.003699e+00 -1.029559e+01 -4.421229e+00 -1.600107e+01 -4.539420e+00 7.010375e-01 -7.627803e+00 7.101380e+01 4.215307e-01 1.502916e-01 2.906292e-03 -8.162263e-01 -5.820791e-01 -5.061184e-01 2.147516e-01 6.232736e-01 -4.141487e-01 7.814126e-02 5.800872e-01 -4.520160e-01 2.794046e-01 -1.832958e-01 -3.610494e-01 8.087943e-02 -7.450024e-03 2.686579e-01 1.604378e-01 -2.507032e-01 -2.107040e-01 1.215153e-01 1.106136e-01 3.114576e-01 2.490132e-01 1.599769e-01
<VARIANCE> 39
 7.684022e+00 2.202436e+01 1.589424e+01 3.709028e+01 3.140617e+01 2.834106e+01 3.272201e+01 6.043453e+01 4.691395e+01 2.955952e+01 3.780906e+01 2.688812e+01 1.233387e+01 4.730410e-01 2.226175e+00 1.174365e+00 2.452650e+00 1.873402e+00 2.208266e+00 2.530854e+00 4.141847e+00 3.571670e+00 2.052593e+00 2.921280e+00 2.367494e+00 1.393425e+00 6.335977e-02 2.088531e-01 1.571719e-01 3.874170e-01 2.751136e-01 3.777154e-01 4.226905e-01 6.496258e-01 6.294588e-01 3.879713e-01 4.055668e-01 4.613681e-01 1.137154e-01
<GCONST> 1.074369e+02
<STATE> 4
<MEAN> 39
 5.200084e+00 4.411250e+00 1.271187e+00 -8.392652e+00 -3.584102e+00 -4.021218e+00 -1.362618e+01 -2.882270e+00 -1.573572e+01 -4.163790e+00 6.241605e+00 -5.978466e+00 7.242536e+01 -1.437503e-01 -5.049408e-01 1.004233e-01 -3.043850e-01 4.398920e-01 1.809318e-01 -1.113105e-01 -2.002738e-01 -1.028778e-01 1.666863e-01 5.389756e-01 3.304142e-01 3.653117e-01 -7.126578e-02 -4.842032e-02 5.212467e-02 1.267085e-01 9.468404e-02 1.045029e-01 -5.908112e-02 -7.044271e-02 6.933577e-02 1.776717e-02 -6.592900e-02 6.440897e-02 -2.761962e-02
<VARIANCE> 39
 5.568381e+00 2.618259e+01 1.537410e+01 3.975543e+01 6.013542e+01 3.518031e+01 5.871926e+01 8.244569e+01 4.921224e+01 3.995021e+01 4.323508e+01 3.399404e+01 1.253578e+01 3.034513e-01 1.539137e+00 9.734857e-01 2.856779e+00 2.459917e+00 2.309708e+00 3.052881e+00 4.613202e+00 3.697592e+00 2.981992e+00 3.404341e+00 2.222758e+00 9.167697e-01 5.069447e-02 1.886363e-01 1.806191e-01 3.649106e-01 3.585801e-01 3.741440e-01 4.969589e-01 7.301866e-01 6.736456e-01 5.103883e-01 5.456141e-01 3.971679e-01 1.130030e-01
<GCONST> 1.104340e+02
<TRANSP> 5
 0.000000e+00 1.000000e+00 0.000000e+00 0.000000e+00 0.000000e+00
 0.000000e+00 5.106972e-01 4.893028e-01 0.000000e+00 0.000000e+00
 0.000000e+00 0.000000e+00 5.551813e-01 4.448187e-01 0.000000e+00
 0.000000e+00 0.000000e+00 0.000000e+00 8.648516e-01 1.351484e-01
 0.000000e+00 0.000000e+00 0.000000e+00 0.000000e+00 0.000000e+00
<ENDHMM>
~h "y"
<BEGINHMM>
<NUMSTATES> 5
<STATE> 2
<MEAN> 39
 1.099347e+00 2.347844e+00 2.304243e+00 3.560317e+00 3.185623e+00 -1.625549e+00 -1.140459e+01 -1.004306e+01 -1.486933e+01 -2.727903e+00 5.101003e+00 -8.068867e+00 7.131746e+01 3.362156e-01 -2.007126e-01 6.497793e-01 9.604629e-01 -1.001818e-02 -4.549604e-01 -1.011985e+00 3.840290e-02 -5.314313e-01 -4.563343e-01 4.799525e-01 -8.528664e-01 1.157215e-01 -2.017813e-01 -2.391462e-01 2.012448e-01 -3.786683e-01 -2.321006e-01 -5.760399e-02 2.546035e-02 3.023046e-01 -8.021049e-02 1.211228e-01 1.660547e-02 -1.975286e-01 1.663695e-01
<VARIANCE> 39
 1.098024e+01 2.541961e+01 6.350622e+01 1.932065e+01 1.968758e+01 5.105043e+01 3.112468e+01 7.538703e+01 8.849673e+01 4.744990e+01 3.089052e+01 2.784068e+01 1.753320e+01 3.293792e+00 1.131709e+00 3.063426e+00 3.723076e+00 1.242319e+00 2.975842e+00 8.162128e+00 5.066327e+00 6.711197e+00 2.537323e+00 2.465464e+00 2.471210e+00 3.857076e-01 1.682715e-01 2.768355e-01 6.471210e-01 2.862639e-01 2.132933e-01 4.320490e-01 4.999221e-01 7.662283e-01 8.704010e-01 6.777884e-01 3.642982e-01 3.296250e-01 6.031517e-02
<GCONST> 1.159751e+02
<STATE> 3
<MEAN> 39
 -2.613077e-01 5.780889e-01 5.116659e+00 5.470837e+00 2.111462e+00 -2.909693e+00 -1.102874e+01 -4.977673e+00 -1.254675e+01 -3.851799e+00 3.576645e+00 -9.603133e+00 7.129414e+01 1.490798e-01 -9.093378e-01 1.471320e+00 5.236375e-01 3.086258e-01 -1.586191e+00 -1.115544e+00 -1.154290e+00 -1.627276e+00 5.700703e-01 6.877405e-01 -8.735464e-01 9.942658e-01 -1.446824e-03 5.195852e-02 -1.128097e-01 -2.591045e-01 -2.568322e-02 2.330801e-01 2.437838e-02 -3.278210e-01 9.495933e-02 3.000453e-01 1.335242e-01 2.299335e-01 -1.132821e-02
<VARIANCE> 39
 1.771116e+01 2.405405e+01 6.931030e+01 2.861064e+01 3.378168e+01 6.165156e+01 4.960623e+01 4.221802e+01 5.716377e+01 3.665151e+01 2.789108e+01 3.048452e+01 1.991196e+01 1.396525e+00 1.745205e+00 8.132697e+00 2.495296e+00 2.051173e+00 4.218365e+00 5.718199e+00 4.036865e+00 4.559669e+00 5.210153e+00 1.931661e+00 2.012628e+00 1.251572e+00 3.079211e-01 4.441217e-01 1.531521e+00 2.734104e-01 4.634498e-01 1.085437e+00 7.696339e-01 7.768587e-01 1.399000e+00 7.318763e-01 4.569902e-01 3.012061e-01 2.720806e-01
<GCONST> 1.246223e+02
<STATE> 4
<MEAN> 39
 5.284443e-01 -1.482858e+00 8.606881e+00 2.847881e+00 2.111410e+00 -4.950918e+00 -1.395863e+01 -9.704116e+00 -1.658761e+01 -6.596302e-01 7.517826e+00 -9.060303e+00 7.465244e+01 3.276676e-01 1.151938e-01 -4.440023e-01 -7.297555e-01 -9.283226e-02 1.682702e-01 -2.898819e-01 -5.206302e-01 -4.426389e-01 6.454608e-01 4.698880e-03 3.118573e-01 6.741910e-02 1.528393e-02 1.099612e-01 -1.573069e-01 -3.696170e-02 -5.726018e-02 1.868003e-01 1.326018e-01 2.341204e-01 1.401137e-01 -1.361871e-01 -2.408594e-01 1.665916e-01 -1.123232e-01
<VARIANCE> 39
 1.308693e+01 1.595220e+01 4.652904e+01 2.883428e+01 1.646041e+01 2.320355e+01 5.702307e+01 5.448793e+01 3.764728e+01 4.897152e+01 1.626842e+01 2.852443e+01 5.103597e+00 3.031922e-01 6.399557e-01 1.691898e+00 1.215427e+00 1.172507e+00 1.973332e+00 4.416462e+00 2.837283e+00 2.449914e+00 1.421253e+00 2.162009e+00 1.505761e+00 2.070709e-01 7.984181e-02 9.138108e-02 2.392531e-01 1.475993e-01 1.817181e-01 2.261375e-01 9.371883e-01 5.478042e-01 5.091593e-01 3.521764e-01 3.353190e-01 1.861074e-01 3.788378e-02
<GCONST> 9.690917e+01
<TRANSP> 5
 0.000000e+00 1.000000e+00 0.000000e+00 0.000000e+00 0.000000e+00
 0.000000e+00 3.757887e-01 6.242113e-01 0.000000e+00 0.000000e+00
 0.000000e+00 0.000000e+00 6.131147e-01 3.868853e-01 0.000000e+00
 0.000000e+00 0.000000e+00 0.000000e+00 8.543608e-01 1.456392e-01
 0.000000e+00 0.000000e+00 0.000000e+00 0.000000e+00 0.000000e+00
<ENDHMM>
~h "z"
<BEGINHMM>
<NUMSTATES> 5
<STATE> 2
<MEAN> 39
 -1.060230e+01 1.252011e-01 1.259723e+01 -9.573133e+00 2.000858e+00 3.672942e+00 -9.498503e+00 -5.257207e+00 -6.495443e+00 -4.163858e+00 2.610966e-01 -4.567513e+00 7.501891e+01 -2.010549e+00 2.699881e-01 3.129783e-01 -8.924990e-01 4.330685e-01 6.156197e-01 1.197061e+00 9.508955e-02 1.633681e+00 -4.029008e-01 -2.738379e-01 3.246283e-01 3.105892e-01 7.892989e-02 1.977882e-02 -2.776018e-01 1.246868e-01 -2.524587e-02 -1.794698e-01 6.365168e-02 1.768547e-02 -7.919998e-02 4.179559e-02 6.783074e-02 -7.042813e-02 -5.077017e-03
<VARIANCE> 39
 9.674995e+01 1.204593e+01 4.682962e+01 6.243070e+01 2.178432e+01 3.256370e+01 6.622461e+01 6.217254e+01 7.764012e+01 1.987548e+01 2.313694e+01 1.774689e+01 1.420646e+01 7.682835e+00 1.313996e+00 2.860113e+00 3.256747e+00 1.484579e+00 3.176060e+00 4.560675e+00 2.731386e+00 5.554765e+00 1.743781e+00 1.788208e+00 1.017416e+00 1.143246e+00 1.141170e+00 2.651439e-01 4.753377e-01 4.197624e-01 2.295060e-01 4.442766e-01 8.116760e-01 4.514639e-01 8.496417e-01 3.273984e-01 3.490066e-01 1.863170e-01 1.822757e-01
<GCONST> 1.174296e+02
<STATE> 3
<MEAN> 39
 -1.274574e+01 1.373680e+00 1.010675e+01 -9.937241e+00 2.868852e+00 3.501801e+00 -7.038604e+00 -6.137487e+00 -4.765848e+00 -4.794742e+00 -2.852257e-01 -4.061327e+00 7.485427e+01 -2.664986e-01 2.118007e-01 -3.228306e-01 1.326471e-03 3.806833e-02 2.937017e-02 6.643925e-01 4.898009e-02 6.745395e-01 -2.613203e-01 -3.322939e-01 1.654984e-01 -1.935810e-01 3.483975e-01 -1.669956e-01 -8.859994e-03 1.221542e-01 -1.737985e-01 -1.303216e-01 -2.133809e-01 2.190133e-02 -1.984338e-01 1.931504e-01 1.096798e-01 -2.276639e-02 3.358259e-04
<VARIANCE> 39
 9.045600e+01 1.689449e+01 5.482592e+01 5.462864e+01 2.446644e+01 2.952208e+01 4.972142e+01 6.093430e+01 6.877429e+01 2.284933e+01 2.587769e+01 1.566742e+01 1.727108e+01 9.976069e+00 2.054704e+00 2.771330e+00 2.759386e+00 1.476951e+00 3.072276e+00 6.106704e+00 2.575642e+00 5.613776e+00 1.378854e+00 2.279384e+00 1.120959e+00 1.322208e+00 1.254514e+00 4.298103e-01 3.996690e-01 4.597343e-01 2.464707e-01 4.477874e-01 8.723110e-01 3.814188e-01 8.357921e-01 3.796444e-01 3.967172e-01 1.953362e-01 2.579256e-01
<GCONST> 1.197358e+02
<STATE> 4
<MEAN> 39
 -1.195360e+01 8.103893e-01 1.016659e+01 -1.030458e+01 2.267548e+00 3.784564e+00 -7.238914e+00 -7.145036e+00 -5.013708e+00 -4.140138e+00 -5.730817e-01 -2.995255e+00 7.435428e+01 8.550229e-01 -4.531829e-02 -3.978734e-01 8.290626e-02 -2.386739e-01 -1.563407e-01 -2.117114e-01 8.275820e-02 -1.981574e-01 3.784741e-01 1.353061e-01 1.007295e-01 -3.059871e-01 1.830707e-01 -2.885359e-02 -1.293742e-01 6.468429e-02 -2.892532e-02 -6.008994e-02 -1.400880e-01 6.458554e-02 -1.184336e-01 1.095162e-01 1.406891e-01 -6.138774e-02 -1.762969e-02
<VARIANCE> 39
 8.023795e+01 2.097087e+01 4.385674e+01 4.543720e+01 2.336583e+01 3.411722e+01 5.505118e+01 6.777127e+01 7.175236e+01 1.999234e+01 2.271013e+01 1.334033e+01 2.023792e+01 7.964766e+00 2.242161e+00 3.241799e+00 2.107839e+00 1.505539e+00 2.678325e+00 5.816619e+00 3.096394e+00 5.395675e+00 1.950674e+00 2.574593e+00 1.307763e+00 1.727047e+00 9.537469e-01 4.077622e-01 3.213003e-01 3.921669e-01 2.478170e-01 4.719476e-01 9.560222e-01 5.515137e-01 7.832869e-01 3.567201e-01 3.940185e-01 2.087329e-01 2.406073e-01
<GCONST> 1.198020e+02
<TRANSP> 5
 0.000000e+00 1.000000e+00 0.000000e+00 0.000000e+00 0.000000e+00
 0.000000e+00 6.991455e-01 3.008545e-01 0.000000e+00 0.000000e+00
 0.000000e+00 0.000000e+00 4.865447e-01 5.134553e-01 0.000000e+00
 0.000000e+00 0.000000e+00 0.000000e+00 7.566757e-01 2.433243e-01
 0.000000e+00 0.000000e+00 0.000000e+00 0.000000e+00 0.000000e+00
<ENDHMM>
~h "aa"
<BEGINHMM>
<NUMSTATES> 5
<STATE> 2
<MEAN> 39
 1.988909e+00 1.740232e+00 -1.602474e+00 -1.311584e+01 -3.344098e+00 -1.190180e+00 -5.032421e+00 1.918169e+00 -9.602041e+00 -5.486166e-01 3.839874e+00 -2.345535e+00 7.185918e+01 1.148990e-01 1.988291e-01 -8.185439e-03 -3.612998e-01 2.060963e-01 2.951693e-01 -2.246347e-01 1.344001e-01 -3.388919e-01 -1.402405e-01 1.476843e-01 -1.195704e-01 4.761485e-04 -2.063523e-02 -2.582602e-02 3.312157e-02 1.582290e-01 2.447533e-02 4.988573e-02 -4.390094e-02 -1.004192e-01 5.213120e-03 -1.361201e-02 -2.320060e-02 1.126252e-02 -2.577864e-02
<VARIANCE> 39
 1.006496e+01 1.260603e+01 3.585914e+01 6.260035e+01 3.436112e+01 4.181877e+01 2.610827e+01 5.871987e+01 7.056722e+01 1.683770e+01 3.906441e+01 2.675465e+01 2.307395e+01 3.458554e-01 8.543740e-01 1.981388e+00 1.710089e+00 9.375829e-01 1.248835e+00 1.698335e+00 1.799415e+00 1.428293e+00 1.038734e+00 1.541824e+00 8.479935e-01 2.655564e-01 6.223898e-02 1.193332e-01 3.567440e-01 2.319294e-01 1.131310e-01 2.579887e-01 3.537776e-01 2.163691e-01 2.380823e-01 2.148731e-01 2.357223e-01 1.650212e-01 4.656193e-02
<GCONST> 9.384049e+01
<STATE> 3
<MEAN> 39
 3.509294e+00 1.430911e+00 -2.668119e-01 -1.310298e+01 -4.193110e+00 -2.154687e+00 -8.800593e+00 -2.037542e+00 -1.529317e+01 -1.531934e-01 7.111035e+00 -5.356117e+00 7.317865e+01 2.755678e-02 1.570317e-01 -2.122479e-01 2.933485e-01 3.127732e-01 6.034280e-01 -1.125824e-01 -5.469152e-01 -1.845664e-01 6.336118e-02 -1.976782e-04 3.854366e-01 -3.080319e-01 -9.799780e-02 -8.313071e-02 -5.814791e-02 3.286654e-01 1.042359e-01 1.392351e-01 6.935636e-02 -2.731037e-01 1.253001e-02 3.719112e-02 -1.766860e-01 8.220018e-02 -6.950957e-02
<VARIANCE> 39
 4.670399e+00 3.256667e+01 2.931985e+01 6.286407e+01 4.332424e+01 3.506705e+01 2.220008e+01 9.458160e+01 4.407862e+01 3.359374e+01 3.642670e+01 3.282392e+01 2.881076e+01 2.883147e-01 9.853507e-01 1.330146e+00 2.225287e+00 1.462434e+00 1.504402e+00 1.552649e+00 2.860049e+00 1.735149e+00 1.101253e+00 1.660652e+00 1.608956e+00 2.282807e-01 5.152832e-02 1.042698e-01 1.183034e-01 2.038813e-01 1.656604e-01 2.504912e-01 3.131446e-01 2.626257e-01 2.496273e-01 1.852403e-01 3.781344e-01 2.607774e-01 5.414728e-02
<GCONST> 9.626531e+01
<STATE> 4
<MEAN> 39
 1.202420e+00 -1.762307e+00 7.940485e-01 -1.060927e+01 -2.151409e+00 -2.205631e+00 -1.019821e+01 -1.979729e+00 -1.156677e+01 4.291215e+00 5.084135e+00 -6.487612e+00 7.338812e+01 -1.330101e-01 -1.769869e-01 3.699895e-01 3.407823e-01 4.233142e-01 -1.417232e-01 -4.880739e-01 -1.114718e+00 -5.427038e-01 4.030295e-02 -2.469573e-01 -3.776619e-01 3.178094e-01 -1.144459e-01 5.926304e-02 1.073949e-02 6.339525e-02 7.309605e-02 7.640126e-02 2.604377e-02 -2.713710e-02 5.167770e-02 -5.162982e-02 -1.542803e-01 -5.188267e-02 -4.959068e-02
<VARIANCE> 39
 8.341348e+00 3.319185e+01 4.661907e+01 5.588925e+01 2.832142e+01 5.148377e+01 4.502900e+01 9.490134e+01 6.329267e+01 2.885797e+01 2.956216e+01 3.060182e+01 5.219563e+01 5.662122e-01 8.454976e-01 2.577872e+00 3.380356e+00 1.166413e+00 3.139779e+00 2.257334e+00 2.986432e+00 1.930800e+00 1.400353e+00 2.670248e+00 2.744555e+00 2.099022e+00 1.920511e-01 9.782446e-02 2.235844e-01 4.708337e-01 3.708455e-01 4.301165e-01 4.145061e-01 5.522655e-01 4.907755e-01 2.058747e-01 3.954834e-01 4.363718e-01 1.963641e-01
<GCONST> 1.122337e+02
<TRANSP> 5
 0.000000e+00 1.000000e+00 0.000000e+00 0.000000e+00 0.000000e+00
 0.000000e+00 8.908402e-01 1.091598e-01 0.000000e+00 0.000000e+00
 0.000000e+00 0.000000e+00 6.761634e-01 3.238366e-01 0.000000e+00
 0.000000e+00 0.000000e+00 0.000000e+00 6.165305e-01 3.834695e-01
 0.000000e+00 0.000000e+00 0.000000e+00 0.000000e+00 0.000000e+00
<ENDHMM>
~h "ae"
<BEGINHMM>
<NUMSTATES> 5
<STATE> 2
<MEAN> 39
 -4.855085e-01 -5.479847e+00 3.555051e+00 -9.853905e+00 1.794901e+00 -5.544748e-01 -1.140556e+01 -2.324504e+00 -6.873336e+00 2.439559e+00 5.513823e+00 -7.705567e+00 7.738998e+01 3.308238e-01 1.198332e-01 -1.601786e-01 -8.526525e-01 -4.211177e-01 3.273659e-01 2.507574e-01 7.209250e-01 7.069371e-02 1.274640e-01 3.823739e-01 -2.112775e-01 1.510068e-01 -1.184966e-01 5.129342e-02 5.811059e-02 1.589102e-01 3.907884e-02 8.738938e-02 1.220521e-01 2.292119e-03 9.478775e-02 -4.691911e-02 -1.782379e-01 9.731834e-02 -1.384340e-01
<VARIANCE> 39
 1.168470e+01 2.397023e+01 2.542965e+01 3.853096e+01 3.506278e+01 3.820579e+01 5.397512e+01 3.644505e+01 5.109148e+01 2.414839e+01 2.586400e+01 3.424640e+01 1.145116e+01 4.002898e-01 1.345103e+00 7.337158e-01 1.188651e+00 1.074299e+00 1.261562e+00 3.038111e+00 1.941991e+00 1.414806e+00 1.464250e+00 1.475741e+00 1.142603e+00 1.735614e-01 1.517546e-01 2.749683e-01 1.229103e-01 2.222622e-01 1.900168e-01 2.704214e-01 5.611023e-01 2.753513e-01 3.612910e-01 2.913090e-01 2.405006e-01 2.227340e-01 4.969274e-02
<GCONST> 9.635622e+01
<STATE> 3
<MEAN> 39
 1.525512e+00 -4.574208e+00 3.101663e+00 -1.399421e+01 -6.239822e-01 1.842563e-01 -1.206025e+01 -3.268430e-02 -8.770902e+00 2.784310e+00 6.468414e+00 -6.152392e+00 7.726145e+01 7.743108e-02 8.813104e-02 -5.552841e-02 -2.458016e-02 6.092885e-02 -1.442904e-01 -1.424405e-02 -1.911674e-02 -1.614333e-01 2.414217e-01 -1.836516e-02 -2.740984e-03 -1.251051e-01 -3.986904e-02 9.313840e-02 7.270556e-02 2.646644e-01 7.576997e-02 -1.067174e-01 -8.459160e-02 -1.712478e-01 -6.201283e-02 -3.717878e-02 -8.041141e-02 3.820425e-02 -9.300133e-02
<VARIANCE> 39
 4.831321e+00 2.037042e+01 3.218906e+01 2.538729e+01 2.224920e+01 3.590138e+01 3.401090e+01 4.515466e+01 3.636839e+01 2.798065e+01 3.107755e+01 3.699665e+01 1.425373e+01 1.261036e-01 8.500068e-01 4.730779e-01 8.634146e-01 8.075533e-01 9.962868e-01 9.885178e-01 1.312135e+00 9.588886e-01 8.908187e-01 9.756603e-01 8.682944e-01 1.202657e-01 3.302644e-02 1.842378e-01 8.657247e-02 1.228494e-01 1.078223e-01 2.231424e-01 2.052974e-01 1.727294e-01 1.798667e-01 1.746962e-01 1.808884e-01 1.273994e-01 4.030374e-02
<GCONST> 8.094034e+01
<STATE> 4
<MEAN> 39
 1.224397e+00 -5.009171e+00 2.336865e+00 -1.033210e+01 -1.081499e+00 -4.070502e+00 -1.463130e+01 -5.482751e+00 -1.123462e+01 6.521796e+00 5.876343e+00 -7.355887e+00 7.643887e+01 1.257546e-01 6.772622e-01 5.289670e-01 9.125880e-01 4.190288e-01 -4.823014e-01 -4.685262e-01 -4.620153e-01 -6.565267e-01 -1.233671e-01 -3.277305e-01 -1.104454e-01 -3.309764e-01 -3.513228e-03 2.933741e-01 -1.227041e-01 3.540156e-01 -2.726140e-02 4.365854e-01 3.005017e-01 2.792037e-01 1.960386e-01 -3.439871e-01 -2.454264e-01 1.190748e-01 -3.499157e-01
<VARIANCE> 39
 4.946199e+00 2.669938e+01 4.377887e+01 2.751155e+01 1.750882e+01 3.854144e+01 4.710494e+01 6.133237e+01 3.682541e+01 4.545961e+01 3.385343e+01 4.760263e+01 3.129745e+01 3.044718e-01 2.791574e+00 2.247265e+00 2.190290e+00 1.488315e+00 3.610757e+00 2.711201e+00 3.065999e+00 2.285505e+00 3.773429e+00 1.604282e+00 1.721596e+00 2.770523e+00 9.367500e-02 3.615235e-01 3.669810e-01 2.268243e-01 2.626386e-01 5.437145e-01 5.838655e-01 5.597484e-01 6.124021e-01 5.198506e-01 3.463323e-01 3.808048e-01 2.860849e-01
<GCONST> 1.124510e+02
<TRANSP> 5
 0.000000e+00 1.000000e+00 0.000000e+00 0.000000e+00 0.000000e+00
 0.000000e+00 7.078641e-01 2.921359e-01 0.000000e+00 0.000000e+00
 0.000000e+00 0.000000e+00 7.648409e-01 2.351591e-01 0.000000e+00
 0.000000e+00 0.000000e+00 0.000000e+00 6.196818e-01 3.803182e-01
 0.000000e+00 0.000000e+00 0.000000e+00 0.000000e+00 0.000000e+00
<ENDHMM>
~h "ah"
<BEGINHMM>
<NUMSTATES> 5
<STATE> 2
<MEAN> 39
 2.630749e+00 -1.535345e+00 1.919189e+00 -7.580070e+00 -3.113507e-01 -4.880738e+00 -1.087766e+01 -5.385455e+00 -1.526817e+01 1.009767e+00 6.008683e+00 -6.538469e+00 7.557574e+01 1.239451e-01 3.266547e-02 -1.866446e-01 -7.849733e-02 -4.342555e-01 -6.025083e-02 7.195396e-01 1.162967e+00 1.574980e-01 2.274830e-01 1.840826e-01 -2.845820e-01 -8.565286e-02 -1.546934e-01 8.684528e-02 -1.440340e-01 2.523822e-01 -8.231077e-02 3.941199e-01 7.892497e-02 3.626288e-01 4.438101e-01 -2.723833e-01 -2.555909e-01 2.067302e-01 -3.069867e-01
<VARIANCE> 39
 4.685696e+00 2.393123e+01 2.222171e+01 6.129713e+01 2.417168e+01 5.111584e+01 4.271417e+01 1.012347e+02 3.416830e+01 4.307104e+01 2.327648e+01 3.151590e+01 1.691183e+01 7.069160e-01 2.792324e+00 1.882554e+00 5.694575e+00 1.770057e+00 8.097630e+00 3.451152e+00 6.005628e+00 3.522064e+00 2.904798e+00 3.645735e+00 1.368318e+00 2.718677e+00 2.042953e-01 3.587962e-01 2.064874e-01 5.942656e-01 3.024601e-01 1.044830e+00 8.155894e-01 1.019349e+00 7.268332e-01 5.579132e-01 5.792335e-01 3.555402e-01 2.754477e-01
<GCONST> 1.196840e+02
<STATE> 3
<MEAN> 39
 2.790077e+00 -5.675132e-01 1.683591e+00 -8.360806e+00 -1.433139e+00 -3.337100e+00 -9.615912e+00 1.304974e+00 -1.296183e+01 4.012324e-01 6.313241e+00 -6.295858e+00 7.442423e+01 -3.998391e-04 2.392849e-01 -4.652983e-01 3.756453e-01 -5.702639e-01 6.348658e-01 7.597561e-01 1.559462e+00 8.908337e-01 -4.082781e-01 -3.529316e-01 4.363260e-01 -6.548545e-01 -9.414452e-02 9.122860e-02 -7.423977e-02 2.302103e-01 4.094004e-02 2.882990e-01 -6.334634e-02 -3.234789e-01 1.826700e-01 -1.350678e-01 -2.444215e-01 2.053176e-01 -1.680859e-01
<VARIANCE> 39
 4.117811e+00 1.497053e+01 2.684286e+01 5.598820e+01 2.650299e+01 3.715189e+01 2.940594e+01 9.602158e+01 2.367905e+01 4.954854e+01 2.893517e+01 2.361073e+01 1.648566e+01 5.439023e-01 1.865635e+00 1.123806e+00 4.388253e+00 1.760914e+00 5.489423e+00 2.333669e+00 4.305692e+00 3.354260e+00 2.170941e+00 3.394076e+00 1.355370e+00 2.249170e+00 1.452522e-01 3.024069e-01 1.937259e-01 5.429659e-01 2.982036e-01 8.438179e-01 4.104078e-01 7.593800e-01 5.860304e-01 5.499830e-01 5.624899e-01 2.988008e-01 2.765129e-01
<GCONST> 1.127329e+02
<STATE> 4
<MEAN> 39
 2.575010e+00 5.492008e-01 3.230860e+00 -8.413564e+00 -4.319372e+00 -9.633634e-01 -6.946939e+00 6.026318e+00 -1.013385e+01 -3.339289e+00 5.655342e+00 -3.565522e+00 7.331425e+01 -9.745961e-02 4.148244e-01 -1.624715e-01 7.311044e-01 -2.175690e-02 7.838962e-01 2.176756e-01 -9.392316e-02 5.837659e-01 -2.467776e-01 -6.175886e-01 4.127118e-01 -5.920029e-01 -1.052586e-01 5.409917e-02 1.689335e-02 5.208404e-02 1.949983e-01 8.124093e-02 -1.443919e-01 -3.169076e-01 -1.864525e-02 -5.672830e-02 -5.069013e-02 -3.086033e-02 1.702816e-02
<VARIANCE> 39
 4.064063e+00 1.368849e+01 3.992611e+01 5.786818e+01 2.696585e+01 3.597064e+01 2.438203e+01 7.373936e+01 2.369696e+01 4.341653e+01 3.494868e+01 2.147405e+01 1.832419e+01 7.612931e-01 1.621031e+00 1.532612e+00 2.534593e+00 1.426719e+00 2.461089e+00 2.158218e+00 3.409425e+00 3.078034e+00 2.280529e+00 2.167525e+00 1.272175e+00 1.281229e+00 1.516538e-01 2.974880e-01 2.269188e-01 4.235082e-01 2.591783e-01 6.110804e-01 3.858743e-01 5.806695e-01 5.291485e-01 4.432228e-01 5.342222e-01 1.966585e-01 2.717935e-01
<GCONST> 1.085223e+02
<TRANSP> 5
 0.000000e+00 1.000000e+00 0.000000e+00 0.000000e+00 0.000000e+00
 0.000000e+00 5.397424e-01 4.602576e-01 0.000000e+00 0.000000e+00
 0.000000e+00 0.000000e+00 4.622217e-01 5.377783e-01 0.000000e+00
 0.000000e+00 0.000000e+00 0.000000e+00 7.095100e-01 2.904900e-01
 0.000000e+00 0.000000e+00 0.000000e+00 0.000000e+00 0.000000e+00
<ENDHMM>
~h "ao"
<BEGINHMM>
<NUMSTATES> 5
<STATE> 2
<MEAN> 39
 4.917486e+00 4.765842e+00 3.035514e+00 -1.138165e+01 -9.507423e+00 -9.441869e+00 -1.125387e+01 -1.548558e+00 -1.323801e+01 -1.947022e+00 3.505312e+00 -4.197357e+00 7.364747e+01 2.164840e-01 1.982937e-01 -3.669913e-02 -8.910967e-01 2.970936e-02 1.717401e-01 -3.848726e-01 3.161635e-01 -2.170270e-01 -5.395144e-01 5.642338e-01 2.494723e-01 5.338951e-02 -1.605557e-01 -8.004693e-02 -3.231568e-03 1.147124e-01 2.090308e-01 3.038892e-01 -3.664209e-03 -3.686237e-02 3.149354e-03 -9.027235e-02 6.973407e-02 5.837915e-02 -4.690019e-02
<VARIANCE> 39
 5.820084e+00 2.727236e+01 2.771414e+01 4.844741e+01 5.160992e+01 2.225789e+01 2.158001e+01 3.847198e+01 4.809328e+01 4.119021e+01 2.676703e+01 5.130062e+01 9.400054e+00 6.056693e-01 8.160717e-01 9.862377e-01 1.309453e+00 1.636266e+00 2.184400e+00 1.657243e+00 2.315640e+00 2.030960e+00 1.839632e+00 1.908124e+00 1.577574e+00 2.233376e-01 1.462480e-01 1.341095e-01 1.119542e-01 1.601785e-01 1.326073e-01 2.661089e-01 3.502033e-01 3.870704e-01 3.064638e-01 2.452984e-01 2.972085e-01 2.731890e-01 2.730643e-02
<GCONST> 9.586778e+01
<STATE> 3
<MEAN> 39
 4.805278e+00 4.915831e+00 -6.323408e-01 -1.753330e+01 4.291933e-01 -1.243848e+00 -1.355050e+01 -2.445537e+00 -2.161256e+01 -7.250021e+00 9.546117e+00 -1.142988e+00 7.377215e+01 5.351696e-02 1.795876e-01 -2.523059e-01 5.943267e-01 7.191482e-01 1.004800e+00 -1.473804e-01 -8.845934e-02 -4.117878e-01 -4.598138e-02 7.964525e-02 -6.104494e-02 -3.603919e-01 -8.816892e-02 8.745095e-03 -4.454424e-02 5.789014e-01 -1.244925e-01 -1.018018e-01 2.870626e-01 -1.378324e-01 3.556338e-01 3.798084e-01 -3.759787e-01 -1.924705e-01 -1.427000e-01
<VARIANCE> 39
 3.199631e+00 1.124532e+01 2.498307e+01 3.526819e+01 6.428837e+01 2.303719e+01 2.453575e+01 6.731561e+01 8.241902e+01 4.442118e+01 2.304994e+01 3.340865e+01 4.850165e+00 1.994970e-01 4.555459e-01 8.216373e-01 2.093291e+00 2.162011e+00 2.417075e+00 1.379786e+00 2.654723e+00 2.994103e+00 3.028240e+00 1.276691e+00 1.724546e+00 2.614718e-01 8.924969e-02 9.409013e-02 1.327829e-01 1.913239e-01 2.505512e-01 2.883616e-01 3.328664e-01 4.327769e-01 5.341943e-01 4.993594e-01 2.837157e-01 2.696564e-01 5.692893e-02
<GCONST> 9.615517e+01
<STATE> 4
<MEAN> 39
 4.187451e+00 5.640151e+00 -5.207220e-01 -1.051954e+01 -1.789449e+00 1.064510e+00 -1.213270e+01 -2.228045e+00 -1.465182e+01 -5.858734e+00 4.830187e+00 -2.579306e+00 7.084206e+01 -3.469791e-01 -1.323202e-01 -1.157039e-01 2.114872e+00 1.775788e-01 2.453395e-01 7.550353e-01 7.383316e-02 1.649733e+00 5.930525e-01 -1.250778e+00 -2.434182e-01 -6.094673e-01 -2.090562e-01 -3.634521e-01 1.296874e-01 1.556242e-01 -1.611536e-01 -3.530278e-01 1.077556e-01 1.386346e-01 3.957269e-01 1.609024e-01 -1.380184e-01 8.760474e-02 1.209771e-01
<VARIANCE> 39
 7.582708e+00 1.876891e+01 3.291103e+01 3.787096e+01 7.725648e+01 6.742608e+01 2.365072e+01 8.898064e+01 1.227564e+02 3.709337e+01 4.366171e+01 3.923479e+01 1.309529e+01 9.133239e-01 2.305622e+00 3.717233e+00 3.885950e+00 3.675034e+00 7.033256e+00 3.140400e+00 2.988629e+00 6.202766e+00 3.847520e+00 3.501204e+00 1.773721e+00 2.201677e+00 2.524200e-01 4.359693e-01 5.775045e-01 6.522205e-01 4.819337e-01 9.081938e-01 4.811100e-01 7.094892e-01 1.585501e+00 9.658511e-01 8.621449e-01 3.988083e-01 3.302464e-01
<GCONST> 1.262757e+02
<TRANSP> 5
 0.000000e+00 1.000000e+00 0.000000e+00 0.000000e+00 0.000000e+00
 0.000000e+00 8.695157e-01 1.304843e-01 0.000000e+00 0.000000e+00
 0.000000e+00 0.000000e+00 7.186070e-01 2.813930e-01 0.000000e+00
 0.000000e+00 0.000000e+00 0.000000e+00 6.260933e-01 3.739067e-01
 0.000000e+00 0.000000e+00 0.000000e+00 0.000000e+00 0.000000e+00
<ENDHMM>
~h "aw"
<BEGINHMM>
<NUMSTATES> 5
<STATE> 2
<MEAN> 39
 4.245412e+00 8.709263e-01 -9.177892e-01 -1.420288e+01 -3.228692e+00 -5.152257e+00 -1.259946e+01 1.191768e+00 -1.391109e+01 -1.281729e+00 7.375988e+00 -8.582149e+00 7.587611e+01 1.089361e-01 1.478286e-01 -1.140389e-01 -1.082569e-01 1.864643e-01 2.040721e-01 3.330891e-01 1.867348e-01 -4.084387e-01 -3.150856e-01 1.298724e-01 2.287479e-01 -1.221271e-01 -4.410246e-02 1.777394e-02 9.627966e-02 1.145485e-01 5.585339e-02 3.393176e-02 2.376553e-03 -6.157042e-02 -2.462795e-02 -1.020021e-01 -6.827440e-02 1.355201e-01 -5.775091e-02
<VARIANCE> 39
 7.161372e+00 3.932543e+01 1.291918e+01 2.818322e+01 2.857908e+01 3.826891e+01 3.475934e+01 2.935024e+01 2.882935e+01 4.413536e+01 1.696007e+01 4.097670e+01 1.209758e+01 2.321693e-01 1.250227e+00 6.919535e-01 1.651385e+00 1.932667e+00 1.840536e+00 2.275522e+00 1.550452e+00 2.092230e+00 1.983906e+00 1.192570e+00 1.481634e+00 3.802342e-01 3.183810e-02 1.444634e-01 9.779525e-02 2.112296e-01 2.676424e-01 2.614893e-01 4.015813e-01 1.872474e-01 2.879741e-01 3.216156e-01 2.274581e-01 2.622479e-01 6.399535e-02
<GCONST> 9.332140e+01
<STATE> 3
<MEAN> 39
 2.908865e+00 1.246128e+00 1.348058e+00 -1.380909e+01 -1.220078e+00 -2.236818e+00 -7.424549e+00 1.035566e+01 -1.362043e+01 -3.796561e+00 6.857455e+00 -3.200504e+00 7.390176e+01 -2.341865e-02 4.802472e-02 2.060181e-01 5.744276e-01 3.464832e-01 3.034735e-01 -7.045612e-02 2.873929e-02 -8.333122e-02 -3.201457e-01 -1.747436e-01 4.101395e-01 -2.676116e-01 -5.729298e-04 2.011283e-02 -4.331450e-03 1.696575e-01 -3.443208e-02 1.508918e-01 -7.822980e-02 -1.507481e-01 1.263602e-01 2.108613e-01 -8.291174e-02 -8.410936e-02 -7.664297e-02
<VARIANCE> 39
 7.220646e+00 1.072648e+01 7.651389e+00 2.830479e+01 4.074667e+01 4.492995e+01 2.282522e+01 7.081628e+01 3.792928e+01 2.278090e+01 1.297089e+01 1.969867e+01 4.502153e+00 1.672121e-01 9.347323e-01 6.642997e-01 1.438122e+00 1.495575e+00 1.551247e+00 2.612945e+00 2.194684e+00 1.861684e+00 1.429696e+00 6.042899e-01 1.071994e+00 3.980455e-01 2.727035e-02 7.159375e-02 8.372210e-02 1.847270e-01 1.849088e-01 3.062444e-01 3.538955e-01 2.408607e-01 5.326903e-01 1.841984e-01 8.727010e-02 1.961214e-01 4.571445e-02
<GCONST> 8.520863e+01
<STATE> 4
<MEAN> 39
 4.530047e+00 2.147101e+00 2.010796e+00 -7.277191e+00 -3.135428e-01 4.580142e-02 -1.039481e+01 5.402563e+00 -1.507664e+01 -5.101320e+00 6.300551e+00 -2.469020e+00 7.212355e+01 6.535500e-02 4.812431e-01 3.300340e-01 1.524551e+00 3.268851e-02 1.304023e+00 -5.275508e-01 -1.252397e+00 4.805484e-01 5.687381e-01 -6.803378e-01 2.666356e-01 -7.818903e-01 -5.275157e-02 2.484667e-02 -2.053624e-01 1.393165e-01 -1.300436e-02 1.017146e-01 2.992678e-01 1.290896e-01 3.497011e-01 9.681693e-02 -1.309596e-01 -1.120934e-01 -1.162966e-01
<VARIANCE> 39
 4.104319e+00 1.256260e+01 1.825071e+01 3.998929e+01 4.491137e+01 7.845815e+01 2.451090e+01 8.769498e+01 6.624432e+01 3.001592e+01 1.579565e+01 1.928434e+01 8.925261e+00 2.887308e-01 9.287581e-01 1.807846e+00 1.489451e+00 2.465481e+00 2.717057e+00 2.610032e+00 2.203483e+00 3.292751e+00 1.039663e+00 8.206580e-01 1.070307e+00 8.443886e-01 5.142990e-02 1.845009e-01 2.118676e-01 3.745281e-01 3.454050e-01 4.963371e-01 5.588340e-01 5.677888e-01 8.160917e-01 1.909105e-01 1.776410e-01 1.281080e-01 1.242777e-01
<GCONST> 9.998325e+01
<TRANSP> 5
 0.000000e+00 1.000000e+00 0.000000e+00 0.000000e+00 0.000000e+00
 0.000000e+00 9.122260e-01 8.777403e-02 0.000000e+00 0.000000e+00
 0.000000e+00 0.000000e+00 7.603183e-01 2.396817e-01 0.000000e+00
 0.000000e+00 0.000000e+00 0.000000e+00 5.004297e-01 4.995703e-01
 0.000000e+00 0.000000e+00 0.000000e+00 0.000000e+00 0.000000e+00
<ENDHMM>
~h "ax"
<BEGINHMM>
<NUMSTATES> 5
<STATE> 2
<MEAN> 39
 -1.359397e+00 3.872629e-01 5.166620e+00 -2.397343e+00 1.159963e+00 -1.273501e+00 -1.077841e+01 -9.734594e+00 -1.223437e+01 -2.835933e+00 2.564763e+00 -4.298165e+00 7.375581e+01 4.833612e-01 -2.879979e-01 7.488355e-01 -4.785298e-01 8.950561e-02 -1.120633e+00 -1.636159e+00 -1.893726e+00 -1.718135e+00 2.478589e-01 6.700889e-01 1.118162e-01 9.757881e-01 2.370737e-01 1.782296e-01 -2.693215e-01 6.458788e-02 -6.630917e-02 2.782522e-01 7.120281e-02 4.900259e-01 6.551992e-02 1.315329e-01 -8.471533e-02 1.697827e-02 -2.878035e-01
<VARIANCE> 39
 3.153958e+01 2.396758e+01 5.482053e+01 6.193170e+01 3.526751e+01 5.256777e+01 6.942218e+01 6.473744e+01 7.062597e+01 2.752353e+01 3.625322e+01 2.837980e+01 1.546793e+01 4.098840e+00 3.582257e+00 5.289028e+00 3.471291e+00 2.595121e+00 4.593482e+00 6.538231e+00 7.400288e+00 6.114033e+00 3.425506e+00 3.290285e+00 2.176385e+00 2.823722e+00 8.428068e-01 5.277954e-01 7.674630e-01 5.459906e-01 4.416961e-01 7.501914e-01 1.243050e+00 1.380090e+00 1.320605e+00 5.085446e-01 5.103363e-01 3.742900e-01 3.720834e-01
<GCONST> 1.323343e+02
<STATE> 3
<MEAN> 39
 1.362920e+00 1.806781e-01 4.899662e+00 -4.066248e+00 1.387652e+00 -4.312949e+00 -1.529475e+01 -1.342854e+01 -1.749702e+01 -5.110375e-01 4.958921e+00 -4.581746e+00 7.522435e+01 6.408874e-01 1.613148e-01 -1.033712e-01 -1.390006e-01 3.233713e-02 2.368571e-01 -1.270558e-01 2.727105e-01 -6.533017e-01 4.897930e-01 2.904207e-01 1.611105e-02 -1.410355e-01 -2.228170e-01 1.175938e-01 -2.000558e-01 2.691355e-01 -3.916013e-02 5.896251e-01 6.995907e-01 9.070624e-01 8.005059e-01 -1.824167e-01 -4.055916e-01 -3.248595e-02 -3.977238e-01
<VARIANCE> 39
 1.431847e+01 1.828621e+01 5.009842e+01 4.505114e+01 3.437715e+01 4.129496e+01 4.608730e+01 6.936694e+01 4.271391e+01 3.663313e+01 3.466001e+01 3.537551e+01 1.071916e+01 1.493841e+00 1.620414e+00 2.731912e+00 2.792806e+00 1.992839e+00 3.384280e+00 4.166976e+00 4.144341e+00 3.620660e+00 2.404424e+00 2.723637e+00 1.733011e+00 1.118167e+00 3.884792e-01 3.389432e-01 4.320534e-01 4.087310e-01 3.760945e-01 5.515028e-01 8.954419e-01 8.242841e-01 8.015711e-01 4.962318e-01 4.706621e-01 3.862437e-01 2.367361e-01
<GCONST> 1.189295e+02
<STATE> 4
<MEAN> 39
 2.479616e+00 1.043006e+00 3.047231e+00 -3.834673e+00 2.452614e+00 -1.977948e+00 -1.324576e+01 -1.076997e+01 -1.797736e+01 -5.035479e-03 4.839602e+00 -4.394074e+00 7.344990e+01 5.670922e-02 2.493390e-01 -1.079154e-01 5.614409e-01 -2.204093e-01 1.077034e+00 8.053126e-01 1.661114e+00 1.152493e+00 -3.126331e-01 -9.678059e-01 -5.936066e-02 -7.435838e-01 -3.058460e-01 -4.268881e-03 -1.922030e-02 1.435713e-01 -8.679941e-02 2.110116e-01 3.519601e-01 2.940798e-01 6.058210e-01 -1.642104e-01 -2.430996e-01 -2.179205e-02 -9.123972e-02
<VARIANCE> 39
 1.007278e+01 2.260213e+01 4.920574e+01 4.946702e+01 4.473892e+01 4.290149e+01 3.696407e+01 7.265321e+01 4.885620e+01 3.809583e+01 4.334598e+01 2.793693e+01 1.481100e+01 1.526469e+00 1.956177e+00 2.774090e+00 3.166325e+00 2.539867e+00 3.266583e+00 3.406459e+00 4.573392e+00 3.910785e+00 2.232309e+00 2.814985e+00 1.652065e+00 1.482658e+00 3.434530e-01 3.378451e-01 3.418775e-01 4.645923e-01 3.945262e-01 5.547813e-01 6.523225e-01 8.190637e-01 7.199750e-01 4.101571e-01 5.709734e-01 2.738755e-01 2.457505e-01
<GCONST> 1.192890e+02
<TRANSP> 5
 0.000000e+00 1.000000e+00 0.000000e+00 0.000000e+00 0.000000e+00
 0.000000e+00 4.587365e-01 5.412635e-01 0.000000e+00 0.000000e+00
 0.000000e+00 0.000000e+00 3.945301e-01 6.054699e-01 0.000000e+00
 0.000000e+00 0.000000e+00 0.000000e+00 5.072140e-01 4.927860e-01
 0.000000e+00 0.000000e+00 0.000000e+00 0.000000e+00 0.000000e+00
<ENDHMM>
~h "ay"
<BEGINHMM>
<NUMSTATES> 5
<STATE> 2
<MEAN> 39
 1.682417e+00 -3.043530e+00 9.826448e-01 -1.091045e+01 -3.242491e+00 -2.495586e+00 -1.106511e+01 5.494427e-02 -9.554435e+00 2.467600e+00 7.275702e+00 -5.974930e+00 7.529105e+01 -1.154225e-01 -7.517046e-01 3.255136e-01 -1.333549e-01 2.333461e-01 -1.418748e-01 -4.629186e-02 3.698324e-02 -1.792047e-01 7.518328e-01 4.300135e-01 -5.857261e-01 4.867509e-01 -8.077209e-02 1.370434e-01 6.156437e-02 2.098768e-01 1.448271e-01 9.707721e-02 -7.363615e-02 -1.190903e-01 5.467808e-02 -1.131003e-01 -1.227501e-01 1.061346e-01 -9.812313e-02
<VARIANCE> 39
 6.659019e+00 2.893095e+01 4.375897e+01 3.752288e+01 1.378973e+01 4.333199e+01 5.794474e+01 5.989764e+01 2.821457e+01 2.895934e+01 2.949848e+01 3.002501e+01 3.008800e+01 3.668210e-01 1.636146e+00 1.960395e+00 1.703559e+00 1.246227e+00 1.349110e+00 2.069067e+00 2.093625e+00 1.929149e+00 1.878329e+00 1.318728e+00 1.390362e+00 6.934496e-01 1.517014e-01 3.472179e-01 2.472568e-01 3.239334e-01 1.713350e-01 2.576045e-01 4.136017e-01 3.504285e-01 4.192615e-01 3.084527e-01 2.928926e-01 2.492482e-01 1.172300e-01
<GCONST> 1.026650e+02
<STATE> 3
<MEAN> 39
 7.717432e-01 -6.568471e+00 2.523154e+00 -8.541653e+00 -1.101619e+00 -3.901351e+00 -1.400961e+01 -2.604835e+00 -1.006159e+01 6.212436e+00 8.426951e+00 -6.674230e+00 7.675642e+01 -3.630069e-02 -8.174109e-02 1.867883e-01 3.848864e-01 4.061317e-01 -4.680848e-01 -4.136451e-01 -2.911087e-01 -2.766478e-01 4.141093e-01 3.833932e-02 -7.493684e-02 -1.167125e-02 3.780307e-03 1.385131e-01 1.187077e-02 1.056850e-01 -1.405503e-02 -2.150076e-03 -2.001119e-02 -1.505807e-02 -6.388228e-02 -1.639693e-01 -5.769346e-02 4.611178e-02 -8.542109e-02
<VARIANCE> 39
 5.092377e+00 1.755255e+01 1.821123e+01 3.660239e+01 1.875524e+01 7.522665e+01 3.913303e+01 4.410455e+01 2.778412e+01 2.766552e+01 2.140171e+01 3.555076e+01 2.457024e+01 1.694727e-01 5.979146e-01 8.581799e-01 1.262906e+00 7.782044e-01 9.996561e-01 1.744413e+00 1.634550e+00 1.045297e+00 1.320577e+00 1.216039e+00 8.136168e-01 4.412542e-01 3.110938e-02 9.692786e-02 1.328276e-01 1.671661e-01 1.396248e-01 1.807680e-01 2.076365e-01 2.138869e-01 1.721471e-01 2.010016e-01 1.692866e-01 1.776318e-01 3.065815e-02
<GCONST> 8.518179e+01
<STATE> 4
<MEAN> 39
 1.945769e+00 -2.993663e+00 1.433215e+00 -7.610857e+00 3.419633e+00 -5.322833e+00 -1.740549e+01 -4.450023e+00 -1.491593e+01 4.777208e+00 1.012512e+01 -6.468158e+00 7.549831e+01 8.354080e-02 7.009454e-01 -8.994719e-02 3.804929e-01 2.770621e-01 5.495268e-01 4.086223e-02 2.955629e-01 -1.132210e-02 -8.171014e-01 -3.898402e-01 2.984217e-01 -5.032736e-01 -5.849560e-04 1.281759e-01 -7.770766e-02 -6.435896e-03 -7.600392e-02 2.708626e-01 2.850015e-01 1.439701e-01 1.283055e-01 -2.049156e-01 -1.612519e-01 4.364460e-02 -1.522253e-01
<VARIANCE> 39
 8.277439e+00 2.203634e+01 4.567127e+01 4.307802e+01 2.444039e+01 7.933363e+01 4.667146e+01 4.726533e+01 4.370750e+01 3.389000e+01 5.805960e+01 3.367911e+01 2.207891e+01 2.759270e-01 7.306629e-01 1.871294e+00 1.993069e+00 8.555912e-01 2.511407e+00 2.663295e+00 1.826915e+00 1.551014e+00 2.368586e+00 2.053215e+00 1.679818e+00 7.313823e-01 6.390599e-02 1.244567e-01 2.373095e-01 2.644188e-01 1.259944e-01 4.199791e-01 3.866270e-01 3.765092e-01 2.687376e-01 3.135874e-01 3.326952e-01 2.951149e-01 1.204504e-01
<GCONST> 1.026187e+02
<TRANSP> 5
 0.000000e+00 1.000000e+00 0.000000e+00 0.000000e+00 0.000000e+00
 0.000000e+00 7.611163e-01 2.388837e-01 0.000000e+00 0.000000e+00
 0.000000e+00 0.000000e+00 8.337556e-01 1.662444e-01 0.000000e+00
 0.000000e+00 0.000000e+00 0.000000e+00 8.214188e-01 1.785812e-01
 0.000000e+00 0.000000e+00 0.000000e+00 0.000000e+00 0.000000e+00
<ENDHMM>
~h "ch"
<BEGINHMM>
<NUMSTATES> 5
<STATE> 2
<MEAN> 39
 -1.610564e+01 -1.101806e+01 1.337177e+01 2.982464e+00 -5.905765e+00 -2.314566e+00 -4.556077e+00 -4.098471e+00 -3.859350e+00 -3.529395e+00 -9.746787e-01 -5.540930e+00 7.863033e+01 -1.584557e+00 -1.591495e+00 3.134643e-01 5.656372e-01 5.917114e-01 -2.300687e-01 -2.184432e-01 3.938428e-01 1.304410e+00 5.980918e-01 5.970738e-01 8.480416e-01 9.440065e-01 8.444796e-01 4.161201e-01 -5.945831e-01 -1.626613e-01 4.587914e-01 1.897805e-02 -2.614755e-01 -2.839912e-01 -2.250125e-01 1.096542e-01 -2.869015e-02 1.345510e-01 -4.757058e-01
<VARIANCE> 39
 9.065793e+01 2.774445e+01 3.513211e+01 1.431645e+01 1.955852e+01 1.754096e+01 1.684273e+01 2.176189e+01 3.027247e+01 1.034557e+01 1.935345e+01 1.683618e+01 2.976779e+01 7.178583e+00 1.810251e+00 7.099389e+00 1.922969e+00 3.873065e+00 5.500478e+00 3.578357e+00 2.252601e+00 1.747188e+00 1.202649e+00 1.931221e+00 1.453925e+00 4.457476e+00 1.434115e+00 3.920337e-01 1.366482e+00 2.727939e-01 6.842166e-01 6.406010e-01 3.987639e-01 6.696254e-01 9.753717e-01 2.815993e-01 3.470049e-01 3.740945e-01 8.228179e-01
<GCONST> 1.187536e+02
<STATE> 3
<MEAN> 39
 -1.293643e+01 -1.317524e+01 1.056705e+01 2.597070e+00 -1.253866e+00 -2.270125e+00 -6.275857e+00 -4.502142e+00 -2.796548e+00 -6.124226e-01 1.054874e+00 -1.286932e+00 7.667892e+01 3.103199e+00 1.675311e+00 -1.798693e+00 -2.817543e-01 6.178591e-01 1.176589e+00 -1.643685e-01 -9.756650e-01 -1.665847e+00 -3.000422e-01 -3.818097e-01 -4.846584e-02 -1.793965e+00 6.973595e-01 8.853719e-01 -6.607777e-02 -6.690218e-02 -3.050789e-01 -2.884144e-01 -3.250268e-01 -5.241631e-01 -9.837645e-01 -3.409349e-01 2.054814e-02 -7.539840e-01 1.327950e-02
<VARIANCE> 39
 6.371165e+01 3.567658e+01 2.278627e+01 7.567226e+00 1.288385e+01 4.990310e+01 9.311872e+00 3.374831e+01 3.426899e+01 1.336179e+01 2.952797e+01 1.119834e+01 2.201342e+01 4.865500e+00 1.922944e+00 2.407502e+00 8.104357e-01 1.461867e+00 4.961126e+00 4.116281e+00 7.930732e+00 8.949041e+00 2.031585e+00 2.000310e+00 2.639389e+00 2.162330e-01 4.108972e-01 4.372803e-01 5.981852e-01 5.103554e-01 2.266040e-01 7.044653e-01 2.817279e-01 7.892522e-01 9.971882e-01 6.868842e-01 4.676917e-01 2.520519e-01 1.424040e-01
<GCONST> 1.124890e+02
<STATE> 4
<MEAN> 39
 -1.942173e+00 -4.069288e+00 3.046834e+00 3.636077e+00 -2.832245e+00 7.594166e-01 -4.899945e+00 -4.708926e+00 -9.048710e+00 -2.307587e+00 4.399617e-01 -3.849601e+00 7.050010e+01 7.017637e-01 9.146399e-01 -3.069878e-01 -6.411499e-01 -3.986255e-01 -1.025733e+00 -4.797140e-01 -1.433748e+00 -7.539195e-01 -3.559971e-01 6.620370e-01 -6.236585e-01 2.052844e-01 -9.388161e-01 -5.727891e-01 8.557022e-01 -4.208162e-01 -5.233102e-02 -6.513090e-01 -1.717172e-01 -9.264580e-03 3.151422e-01 1.955748e-01 2.293515e-01 -2.521209e-02 7.303901e-01
<VARIANCE> 39
 2.154482e+01 2.519920e+01 6.090057e+01 7.980667e+00 2.009543e+01 5.722707e+01 6.426216e+01 9.412832e+01 2.638067e+01 3.214693e+01 1.473033e+01 4.809329e+00 3.352787e+01 1.349091e+01 6.352315e+00 1.009940e+01 2.122519e+00 1.500708e+00 3.535318e+00 5.814849e+00 6.388741e+00 7.964691e+00 3.065458e+00 2.427410e+00 1.159076e+00 3.933215e+00 4.237873e-01 4.415193e-01 1.207260e+00 3.695410e-01 3.849429e-01 7.135168e-01 4.424192e-01 1.162403e+00 6.962918e-01 8.763396e-01 2.987611e-01 2.237745e-01 3.099068e-01
<GCONST> 1.240190e+02
<TRANSP> 5
 0.000000e+00 1.000000e+00 0.000000e+00 0.000000e+00 0.000000e+00
 0.000000e+00 7.670788e-01 2.329212e-01 0.000000e+00 0.000000e+00
 0.000000e+00 0.000000e+00 4.462011e-01 5.537989e-01 0.000000e+00
 0.000000e+00 0.000000e+00 0.000000e+00 6.873897e-01 3.126103e-01
 0.000000e+00 0.000000e+00 0.000000e+00 0.000000e+00 0.000000e+00
<ENDHMM>
~h "dh"
<BEGINHMM>
<NUMSTATES> 5
<STATE> 2
<MEAN> 39
 2.215448e+00 3.969702e+00 -3.328833e-01 -2.327940e+00 -1.759191e+00 4.389055e+00 -9.103186e+00 -1.122360e+00 -8.751417e+00 -2.514194e+00 -1.559830e-01 -2.790511e+00 6.796799e+01 5.240227e-01 8.355253e-01 -2.047253e-01 1.016437e+00 1.056632e-01 7.841320e-01 3.271260e-01 1.078324e+00 4.262786e-01 -3.320087e-01 -9.568013e-01 -7.993714e-01 -8.579655e-01 -2.281202e-01 -1.860351e-01 2.364043e-01 -1.022068e-01 9.643497e-02 -2.406539e-01 -4.050299e-02 -2.600288e-01 -3.830339e-02 -7.437533e-02 2.126159e-01 -5.163848e-02 2.718961e-01
<VARIANCE> 39
 1.451005e+01 2.873457e+01 7.365262e+01 3.203818e+01 3.385118e+01 3.524211e+01 5.051770e+01 4.651807e+01 4.872662e+01 3.350995e+01 1.272287e+01 2.020171e+01 3.022684e+01 8.964314e-01 1.068498e+00 3.455581e+00 1.503508e+00 1.730669e+00 1.921777e+00 3.678336e+00 3.120633e+00 3.466340e+00 2.318748e+00 1.651546e+00 1.761772e+00 1.429935e+00 1.792264e-01 2.407255e-01 4.956449e-01 3.087716e-01 3.147847e-01 4.373269e-01 5.659698e-01 6.417448e-01 5.473804e-01 3.250484e-01 3.972130e-01 3.411809e-01 1.966571e-01
<GCONST> 1.120683e+02
<STATE> 3
<MEAN> 39
 3.171204e+00 6.108865e+00 -9.713543e-01 -6.033847e-02 -4.217905e-01 5.762309e+00 -8.831061e+00 3.809944e-02 -8.451497e+00 -3.406843e+00 -1.598801e+00 -4.343759e+00 6.619550e+01 -2.648955e-02 2.867836e-01 1.618868e-01 5.645692e-01 3.070170e-01 3.567263e-01 3.264003e-01 1.912190e-01 2.517725e-01 -2.739655e-01 -2.948216e-01 -5.432661e-01 -1.843780e-01 -4.381441e-01 -4.708629e-01 4.620335e-01 -4.483594e-01 -7.226755e-02 -5.192820e-01 -2.479146e-01 -7.141896e-01 -1.943358e-01 6.323520e-02 3.842908e-01 2.187746e-01 5.993139e-01
<VARIANCE> 39
 1.185723e+01 2.247067e+01 5.036362e+01 2.932244e+01 2.600475e+01 3.345270e+01 4.262528e+01 3.589177e+01 3.170651e+01 2.553424e+01 1.667777e+01 1.305032e+01 1.629149e+01 1.049747e+00 1.329659e+00 5.718848e+00 1.846315e+00 1.705225e+00 1.858627e+00 3.929592e+00 3.385388e+00 3.667777e+00 2.600473e+00 1.407446e+00 2.240604e+00 1.521691e+00 2.046694e-01 2.467104e-01 5.652072e-01 2.799043e-01 3.210073e-01 4.960133e-01 6.976123e-01 7.539263e-01 5.068097e-01 3.872017e-01 2.788740e-01 3.434749e-01 2.618954e-01
<GCONST> 1.111634e+02
<STATE> 4
<MEAN> 39
 2.563705e+00 6.573686e+00 -1.059191e+00 -1.433378e-01 -5.942132e-01 5.204395e+00 -8.935965e+00 -7.765666e-01 -8.060914e+00 -2.997048e+00 -1.270290e+00 -4.173198e+00 6.638162e+01 -9.599981e-01 -8.650236e-01 1.335219e+00 -5.702155e-01 -2.042165e-02 -8.488697e-01 -5.446581e-01 -1.409692e+00 -1.266441e-01 -5.123814e-02 5.620863e-01 2.127393e-01 1.260108e+00 -1.600287e-01 -4.028008e-01 4.348725e-01 -4.141486e-01 -1.460305e-01 -5.608398e-01 -4.843092e-01 -7.087066e-01 -3.851571e-01 1.891729e-05 3.065801e-01 1.795248e-01 5.590129e-01
<VARIANCE> 39
 2.112684e+01 2.620015e+01 4.407035e+01 2.973266e+01 2.393841e+01 4.345850e+01 6.471007e+01 4.568837e+01 3.517239e+01 2.345088e+01 1.830463e+01 1.385592e+01 1.646047e+01 1.557313e+00 1.659299e+00 6.175858e+00 1.882047e+00 1.939981e+00 3.222013e+00 4.721233e+00 5.119185e+00 3.579428e+00 2.047560e+00 1.641943e+00 2.039985e+00 2.196228e+00 2.801967e-01 3.136555e-01 8.577081e-01 4.077953e-01 3.818026e-01 6.207252e-01 1.153105e+00 9.849123e-01 5.728310e-01 4.999046e-01 3.219887e-01 4.028547e-01 3.270507e-01
<GCONST> 1.183649e+02
<TRANSP> 5
 0.000000e+00 1.000000e+00 0.000000e+00 0.000000e+00 0.000000e+00
 0.000000e+00 3.635738e-01 6.364262e-01 0.000000e+00 0.000000e+00
 0.000000e+00 0.000000e+00 2.636403e-01 7.363597e-01 0.000000e+00
 0.000000e+00 0.000000e+00 0.000000e+00 5.387862e-01 4.612138e-01
 0.000000e+00 0.000000e+00 0.000000e+00 0.000000e+00 0.000000e+00
<ENDHMM>
~h "ea"
<BEGINHMM>
<NUMSTATES> 5
<STATE> 2
<MEAN> 39
 2.495481e+00 2.521709e+00 -6.712667e-01 -2.377113e+00 4.068571e+00 -1.347791e+00 -1.679478e+01 -1.047562e+01 -1.512858e+01 3.035350e+00 5.131639e+00 -6.853728e+00 7.275028e+01 4.951985e-01 -4.918486e-02 -1.119486e+00 1.060210e+00 -7.021041e-01 -1.073488e-01 1.222890e+00 1.049777e+00 4.597813e-01 1.350061e+00 -2.018871e-01 -2.232386e-01 -5.995663e-01 -2.262185e-01 1.064062e-01 -5.354549e-02 -4.112147e-01 -2.104748e-01 1.536725e-01 4.594440e-01 1.506481e-01 3.706137e-02 -1.934451e-01 9.708346e-02 4.011443e-01 -1.304162e-01
<VARIANCE> 39
 1.453337e+01 2.558990e+01 2.506715e+01 1.174150e+01 7.106166e+01 7.957330e+01 3.299160e+01 9.795282e+01 3.181448e+01 1.526096e+01 1.912758e+01 1.284904e+01 4.203403e+01 8.219251e-01 4.608124e-01 4.436016e+00 2.678453e+00 1.791165e+00 1.520806e+00 2.626472e+00 1.758904e+00 2.209295e+00 1.323350e+00 1.862102e+00 1.167467e+00 1.169482e+00 2.298857e-01 4.084218e-01 1.576405e-01 2.563047e-01 5.612475e-01 6.653704e-01 8.229432e-01 5.945863e-01 8.358812e-01 2.449938e-01 3.193912e-01 2.528779e-01 2.199957e-01
<GCONST> 1.085818e+02
<STATE> 3
<MEAN> 39
 3.792579e+00 2.967945e+00 -2.369590e+00 -1.643795e+00 1.025025e+00 -8.656794e-01 -1.366545e+01 -8.499278e+00 -1.535975e+01 4.855572e+00 4.352674e+00 -6.610466e+00 7.126154e+01 -1.406742e-02 3.980084e-01 -4.957451e-01 -3.710909e-01 -7.226921e-01 -7.500885e-02 1.256236e+00 5.006642e-01 4.082623e-02 3.713992e-01 -1.187071e-01 2.555755e-01 -2.313641e-01 -1.752165e-01 6.556184e-02 1.710314e-01 -6.024885e-01 8.489855e-02 -4.789599e-02 -2.279851e-01 -3.803551e-01 -1.370455e-01 -5.811813e-01 1.668729e-01 2.842783e-01 2.071482e-01
<VARIANCE> 39
 5.188319e+00 1.996471e+01 2.026646e+01 1.540856e+01 3.834104e+01 6.937564e+01 3.648544e+01 1.064344e+02 3.272475e+01 1.392074e+01 2.826703e+01 9.605350e+00 3.793156e+01 5.900586e-01 1.115328e+00 4.096721e+00 3.733373e+00 3.814407e+00 2.978685e+00 3.794646e+00 3.806812e+00 3.382628e+00 1.482106e+00 1.037086e+00 1.115947e+00 1.351396e+00 8.165401e-02 2.588532e-01 1.273027e-01 1.572575e-01 2.533055e-01 4.339253e-01 7.427057e-01 5.935873e-01 2.452240e-01 1.993082e-01 2.680740e-01 2.681324e-01 1.354107e-01
<GCONST> 1.045968e+02
<STATE> 4
<MEAN> 39
 2.951549e+00 3.152818e+00 -3.069733e+00 -5.495313e+00 1.744632e+00 -3.973378e+00 -1.151687e+01 -1.236684e+01 -1.909062e+01 5.585437e+00 6.910074e+00 -4.886000e+00 7.330161e+01 7.254548e-02 7.782756e-01 -2.634014e-01 -6.168752e-01 3.046555e-01 -2.611141e-01 -1.467662e-01 3.749760e-01 -5.895314e-01 -5.765319e-01 -6.401566e-02 1.498235e-01 -2.176376e-01 -2.207773e-02 -1.334735e-01 2.675416e-01 1.831440e-03 5.738243e-02 1.551607e-01 -4.614918e-01 -2.492818e-01 -2.607893e-02 -4.366135e-01 2.211688e-03 8.405557e-02 9.433825e-02
<VARIANCE> 39
 6.062793e+00 1.169749e+01 1.631513e+01 2.009905e+01 1.926688e+01 6.055406e+01 1.768928e+01 1.097134e+02 6.263593e+01 1.469333e+01 1.448508e+01 7.518457e+00 3.111321e+01 2.511766e-01 1.503816e+00 2.622612e+00 2.369572e+00 2.777698e+00 2.176770e+00 5.220697e+00 3.732777e+00 1.988344e+00 1.157202e+00 7.765560e-01 1.063961e+00 1.265164e+00 3.416454e-02 1.902926e-01 1.289814e-01 4.956682e-01 8.084530e-02 2.736446e-01 3.358387e-01 1.074854e+00 3.187087e-01 2.602437e-01 8.898028e-02 1.540583e-01 1.199828e-01
<GCONST> 9.630168e+01
<TRANSP> 5
 0.000000e+00 1.000000e+00 0.000000e+00 0.000000e+00 0.000000e+00
 0.000000e+00 3.379832e-01 6.620168e-01 0.000000e+00 0.000000e+00
 0.000000e+00 0.000000e+00 1.695498e-01 8.304502e-01 0.000000e+00
 0.000000e+00 0.000000e+00 0.000000e+00 5.075607e-01 4.924394e-01
 0.000000e+00 0.000000e+00 0.000000e+00 0.000000e+00 0.000000e+00
<ENDHMM>
~h "eh"
<BEGINHMM>
<NUMSTATES> 5
<STATE> 2
<MEAN> 39
 -1.734117e+00 -2.848215e+00 6.035547e+00 -4.067377e+00 9.438049e-01 -3.799383e+00 -1.350456e+01 -8.449540e+00 -1.231652e+01 -7.805033e-01 4.269898e+00 -4.724046e+00 7.585902e+01 3.930731e-01 -9.074891e-01 7.919396e-01 -1.285802e+00 1.949262e-01 -1.800341e+00 -1.976830e+00 -7.336733e-01 -1.264363e+00 1.316160e+00 1.276050e+00 -1.049868e+00 1.387886e+00 -8.319002e-02 1.038047e-01 -2.655223e-01 -9.032689e-02 -1.089815e-01 4.078155e-01 2.484927e-01 6.714509e-01 4.671023e-01 1.021649e-01 -1.565544e-01 3.234573e-02 -2.304954e-01
<VARIANCE> 39
 2.257135e+01 3.161328e+01 4.139367e+01 4.577463e+01 2.732072e+01 3.602552e+01 7.375685e+01 4.202205e+01 4.073416e+01 4.028129e+01 5.584543e+01 2.713396e+01 2.192148e+01 5.903742e+00 5.346875e+00 4.086382e+00 3.337423e+00 2.757324e+00 4.805134e+00 6.914868e+00 3.333369e+00 4.427892e+00 4.783584e+00 3.896961e+00 2.106657e+00 2.536626e+00 9.869630e-01 8.220022e-01 7.754014e-01 4.975201e-01 3.867638e-01 9.010810e-01 1.273449e+00 8.035846e-01 7.570314e-01 6.248109e-01 5.613419e-01 3.263896e-01 4.983285e-01
<GCONST> 1.310799e+02
<STATE> 3
<MEAN> 39
 -4.999022e-02 -6.804264e+00 6.249820e+00 -1.022729e+01 5.002867e-01 -6.630481e+00 -1.787698e+01 -5.691082e+00 -1.302127e+01 5.787943e+00 9.130132e+00 -7.474495e+00 7.936747e+01 1.311011e-01 -1.911682e-01 -1.212658e-01 -2.910281e-01 -6.710244e-02 -1.855541e-01 5.094339e-02 5.448970e-01 8.636912e-02 3.880555e-01 -1.481349e-01 -8.822025e-02 -3.583279e-02 -6.822997e-02 2.639754e-01 -1.364680e-02 2.990830e-01 -2.095624e-02 3.106046e-01 2.866525e-01 8.825742e-02 1.560647e-01 -3.936461e-01 -3.451648e-01 1.487354e-01 -2.820942e-01
<VARIANCE> 39
 4.031276e+00 1.723759e+01 1.797760e+01 2.535756e+01 2.515673e+01 1.797833e+01 3.617738e+01 3.662462e+01 2.162322e+01 3.307653e+01 3.622628e+01 1.898543e+01 4.392146e+00 5.367796e-01 1.201798e+00 9.493429e-01 1.925616e+00 1.521434e+00 1.402151e+00 1.884396e+00 1.737096e+00 1.444921e+00 1.797250e+00 1.535020e+00 9.764504e-01 4.025852e-01 1.349510e-01 2.140554e-01 1.301133e-01 2.575776e-01 2.638811e-01 3.714692e-01 5.265692e-01 4.201557e-01 3.807650e-01 3.012210e-01 3.428184e-01 1.751616e-01 8.367170e-02
<GCONST> 9.425732e+01
<STATE> 4
<MEAN> 39
 3.383027e-01 -4.436923e+00 5.750213e+00 -8.877515e+00 7.250395e-01 -5.461370e+00 -1.627942e+01 -3.291646e+00 -1.327535e+01 3.965343e+00 6.482708e+00 -7.250378e+00 7.644672e+01 1.760856e-01 9.204288e-01 -2.158568e-01 7.030165e-01 -3.302952e-01 1.371528e+00 1.027976e+00 9.268915e-01 6.199831e-01 -7.553307e-01 -9.669782e-01 3.376087e-01 -1.081110e+00 -1.262651e-01 1.550323e-01 -3.702715e-02 1.269373e-01 -1.165214e-01 3.007219e-01 1.682337e-01 1.355759e-01 2.552695e-01 -2.239825e-01 -1.186728e-01 8.428860e-02 -1.633579e-01
<VARIANCE> 39
 6.206670e+00 1.555395e+01 1.551160e+01 3.629774e+01 3.216302e+01 2.676797e+01 3.378833e+01 4.960255e+01 3.124145e+01 3.216640e+01 3.558124e+01 2.440352e+01 1.578741e+01 9.527470e-01 1.429427e+00 2.050443e+00 3.018412e+00 2.391336e+00 2.689319e+00 2.951081e+00 3.329928e+00 2.872728e+00 1.908932e+00 3.130785e+00 1.344935e+00 1.946194e+00 2.222014e-01 3.077837e-01 2.414644e-01 3.798333e-01 4.858468e-01 5.901018e-01 6.773112e-01 5.338181e-01 4.837219e-01 4.345809e-01 5.841540e-01 2.004890e-01 2.572774e-01
<GCONST> 1.108843e+02
<TRANSP> 5
 0.000000e+00 1.000000e+00 0.000000e+00 0.000000e+00 0.000000e+00
 0.000000e+00 5.783335e-01 4.216665e-01 0.000000e+00 0.000000e+00
 0.000000e+00 0.000000e+00 7.847013e-01 2.152987e-01 0.000000e+00
 0.000000e+00 0.000000e+00 0.000000e+00 6.319544e-01 3.680457e-01
