~o
<STREAMINFO> 1 39
<VECSIZE> 39<NULLD><MFCC_D_A_0><DIAGC>
~s "silst"
<MEAN> 39
 9.280918e-01 3.524653e+00 -1.136059e+01 -4.204194e+00 -2.667201e+00 7.230268e+00 -3.424288e+00 3.136139e+00 -2.243722e+00 4.372084e-01 -1.463668e+00 -4.433517e-01 6.333010e+01 7.992981e-02 7.237807e-02 -7.702777e-02 1.743754e-01 1.097667e-01 3.809128e-02 2.309074e-01 1.456378e-01 1.770626e-01 1.274789e-01 -8.799314e-02 6.427979e-02 -2.699526e-02 5.615841e-02 2.940491e-02 -1.136476e-01 3.173897e-02 -3.149625e-02 -5.344617e-02 -5.387707e-03 1.496962e-02 -4.519021e-02 6.803982e-02 2.076751e-02 2.167966e-02 -3.817021e-02
<VARIANCE> 39
 1.150554e+01 1.531765e+01 2.980458e+01 2.376790e+01 2.337375e+01 2.113274e+01 1.979195e+01 1.916097e+01 1.995941e+01 1.923762e+01 1.693690e+01 1.521238e+01 5.868201e+00 1.205170e+00 9.844903e-01 3.768570e+00 1.996287e+00 1.939083e+00 1.528931e+00 1.654441e+00 1.832543e+00 1.957396e+00 1.802639e+00 1.589272e+00 1.468698e+00 7.798058e-01 2.256021e-01 1.676494e-01 5.949688e-01 3.792047e-01 3.489348e-01 3.153924e-01 3.359502e-01 3.815332e-01 3.505921e-01 3.341434e-01 3.179188e-01 3.028150e-01 1.309374e-01
<GCONST> 9.952619e+01
~h "b"
<BEGINHMM>
<NUMSTATES> 5
<STATE> 2
<MEAN> 39
 7.272192e+00 8.692669e+00 -6.676303e+00 6.329330e-01 -1.468857e+00 7.923165e+00 -5.028310e+00 1.463485e+00 -1.018937e+01 -1.408247e+00 -1.006608e-01 -5.928411e+00 6.526229e+01 -2.866845e-01 1.837417e-01 -3.662140e-01 3.178397e-01 2.073107e-01 3.703195e-01 6.218506e-01 4.359049e-01 1.264371e+00 4.540731e-02 -6.137206e-01 4.228655e-01 -3.992960e-01 -1.988694e-01 -3.710262e-01 5.537959e-01 -8.481434e-01 -2.906520e-01 -7.841434e-01 -7.922787e-01 -1.610774e-01 -3.541349e-01 -3.761225e-01 3.529490e-01 -1.442782e-01 5.891399e-01
<VARIANCE> 39
 1.954982e+00 1.106667e+01 1.656482e+01 1.715105e+01 1.393588e+01 1.602239e+01 2.196572e+01 2.049974e+01 3.301271e+01 1.624540e+01 1.689267e+01 3.052235e+01 5.468005e+00 8.868803e-01 1.330008e+00 2.607421e+00 3.400607e+00 1.369295e+00 2.921313e+00 3.742083e+00 2.019952e+00 2.553405e+00 1.935148e+00 1.356438e+00 1.410713e+00 1.704073e+00 8.821770e-02 1.201607e-01 3.290343e-01 2.867058e-01 3.050299e-01 4.868594e-01 5.063500e-01 3.574793e-01 4.508707e-01 4.252666e-01 2.442928e-01 3.428098e-01 1.397240e-01
<GCONST> 9.806049e+01
<STATE> 3
<MEAN> 39
 3.238173e+00 5.749733e+00 -3.989657e-01 -7.626199e+00 -3.223409e+00 1.483049e+00 -1.236560e+01 1.049154e+00 -1.005399e+01 -8.379495e+00 1.703411e+00 -4.675156e+00 7.045225e+01 7.777245e-02 -1.045582e+00 2.223156e+00 -3.867954e+00 -1.855978e+00 -3.731001e+00 -3.690303e+00 -1.675753e-01 -1.754192e+00 -2.402770e+00 1.760513e+00 -4.029840e-01 2.452434e+00 4.331155e-01 1.667968e-01 -3.191487e-01 -2.860797e-02 -9.552829e-02 -7.242700e-02 1.716363e-01 7.360511e-02 -5.244512e-02 3.854139e-01 1.725061e-01 -1.419403e-02 -7.569569e-02
<VARIANCE> 39
 2.054125e+01 1.681297e+01 2.067954e+01 4.339838e+01 3.496965e+01 5.520274e+01 5.090696e+01 1.676735e+01 4.117340e+01 3.076063e+01 2.783804e+01 2.509598e+01 1.304054e+01 1.742464e+00 2.614400e+00 2.708776e+00 2.010814e+00 4.031756e+00 3.779016e+00 3.592836e+00 2.274826e+00 3.267370e+00 2.583829e+00 2.321341e+00 1.510911e+00 9.256009e-01 3.558983e-01 4.322555e-01 4.458747e-01 9.186159e-01 6.250992e-01 9.763204e-01 1.154030e+00 2.401064e-01 6.832672e-01 5.800131e-01 4.145497e-01 2.654812e-01 3.556763e-01
<GCONST> 1.175364e+02
<STATE> 4
<MEAN> 39
 5.885671e+00 3.422156e+00 2.579411e+00 -1.551664e+01 -8.118258e+00 -6.133849e+00 -1.621809e+01 1.072355e+00 -1.241807e+01 -8.570360e+00 7.382305e+00 -5.111445e+00 7.523888e+01 -8.245008e-02 -4.073648e-01 3.664631e-01 -1.939073e-02 -1.171431e-01 4.135694e-02 3.712050e-01 -6.335784e-01 -2.165473e-01 3.246275e-01 -1.457393e-01 3.419716e-01 2.651752e-01 -2.681252e-02 1.147243e-01 -1.580369e-01 4.293793e-01 2.056944e-01 4.325190e-01 2.602626e-01 -1.082428e-01 3.824465e-02 1.872454e-01 -2.318802e-01 3.229992e-02 -2.632608e-01
<VARIANCE> 39
 2.613586e+00 2.169751e+01 1.714983e+01 1.943578e+01 3.929427e+01 3.235241e+01 3.088933e+01 3.619640e+01 6.294329e+01 2.952365e+01 3.130057e+01 2.992302e+01 4.715162e+00 3.242726e-01 1.013789e+00 9.835415e-01 2.278335e+00 1.590535e+00 2.153030e+00 2.088866e+00 2.200287e+00 1.738782e+00 1.237076e+00 1.918137e+00 1.623304e+00 6.557549e-01 3.096799e-02 1.541086e-01 1.676342e-01 2.516036e-01 2.528387e-01 4.677344e-01 4.747455e-01 3.506899e-01 2.957902e-01 2.449642e-01 2.764637e-01 2.685507e-01 7.911282e-02
<GCONST> 9.534170e+01
<TRANSP> 5
 0.000000e+00 1.000000e+00 0.000000e+00 0.000000e+00 0.000000e+00
 0.000000e+00 8.265448e-01 1.734553e-01 0.000000e+00 0.000000e+00
 0.000000e+00 0.000000e+00 6.461175e-01 3.538826e-01 0.000000e+00
 0.000000e+00 0.000000e+00 0.000000e+00 8.488790e-01 1.511211e-01
 0.000000e+00 0.000000e+00 0.000000e+00 0.000000e+00 0.000000e+00
<ENDHMM>
~h "d"
<BEGINHMM>
<NUMSTATES> 5
<STATE> 2
<MEAN> 39
 -2.195043e+00 2.207693e-01 3.575702e+00 -6.812098e+00 -2.724926e-01 3.130390e+00 -1.046798e+01 -2.199046e+00 -7.628899e+00 -2.951132e+00 1.000307e+00 -3.259786e+00 7.180617e+01 -1.551623e-01 -3.280295e-01 5.217053e-01 -1.764938e-01 -1.008611e-01 -1.618813e-01 -3.803863e-01 -6.400083e-01 -2.573746e-01 -3.442387e-01 1.300236e-01 2.381752e-01 2.835183e-01 3.805303e-01 1.352159e-01 -2.032880e-01 9.111977e-02 -6.429182e-02 -3.401054e-02 -2.125269e-01 -3.306990e-02 -2.512613e-01 1.549740e-01 9.708740e-02 -2.261883e-02 -9.266621e-02
<VARIANCE> 39
 5.065884e+01 3.682110e+01 7.178158e+01 4.212691e+01 2.897671e+01 4.385477e+01 5.589533e+01 4.984060e+01 5.831775e+01 4.236483e+01 2.315408e+01 2.440888e+01 2.430035e+01 5.606693e+00 3.378133e+00 6.931633e+00 4.796393e+00 2.835732e+00 4.943285e+00 7.334772e+00 6.072706e+00 5.336516e+00 3.071295e+00 2.824421e+00 1.806099e+00 3.637136e+00 1.276204e+00 8.357701e-01 1.477387e+00 7.973139e-01 5.323709e-01 7.116909e-01 9.195907e-01 1.115914e+00 8.879323e-01 6.744689e-01 6.465507e-01 3.694029e-01 7.475424e-01
<GCONST> 1.352895e+02
<STATE> 3
<MEAN> 39
 1.461595e+00 -1.053623e+00 7.539072e+00 -8.434374e+00 -3.054135e-01 -1.682057e+00 -1.782112e+01 -8.497054e+00 -1.596602e+01 -3.009153e+00 5.093952e+00 -4.226186e+00 7.545087e+01 1.122901e+00 4.492145e-01 -9.851314e-01 3.856773e-01 7.879094e-02 3.077437e-01 -3.039533e-01 6.147425e-01 -4.537632e-01 4.725716e-01 6.628969e-01 -1.101390e-01 -5.754634e-01 -2.336772e-01 6.359195e-02 -4.333020e-01 1.075760e-01 8.610286e-03 4.092354e-01 7.127126e-01 6.680458e-01 6.449280e-01 2.007183e-01 -2.630529e-01 -1.816819e-02 -2.789398e-01
<VARIANCE> 39
 7.653931e+00 1.876190e+01 5.599495e+01 2.494215e+01 2.301665e+01 3.060092e+01 4.906137e+01 3.747999e+01 3.304903e+01 3.724377e+01 3.578117e+01 2.593555e+01 7.521363e+00 2.157106e+00 1.981627e+00 2.514483e+00 2.921830e+00 1.530678e+00 4.017671e+00 5.130007e+00 4.440601e+00 3.603314e+00 2.867641e+00 4.007602e+00 1.455781e+00 1.416041e+00 2.182378e-01 2.983598e-01 3.486230e-01 2.797066e-01 2.516429e-01 4.037627e-01 5.412328e-01 6.931179e-01 4.018383e-01 3.598627e-01 5.930283e-01 2.424230e-01 1.369634e-01
<GCONST> 1.125748e+02
<STATE> 4
<MEAN> 39
 3.199886e+00 9.224841e-01 -7.746589e-01 -4.952333e+00 -6.898387e-01 3.106316e+00 -1.253423e+01 -2.349515e+00 -1.308736e+01 -2.117140e+00 1.866308e+00 -4.269506e+00 7.034962e+01 1.707955e-01 6.624899e-01 -1.353012e+00 4.166848e-01 -1.579551e-01 1.130826e+00 1.300799e+00 1.246957e+00 9.274239e-01 4.300778e-01 -5.406970e-01 1.663963e-01 -1.006394e+00 -4.604401e-01 -1.915856e-01 3.642444e-01 -4.151380e-01 6.763811e-02 -3.956274e-01 -3.827915e-02 -3.719991e-01 5.885883e-02 -1.613612e-01 5.338865e-02 1.141156e-01 3.858529e-01
<VARIANCE> 39
 8.965421e+00 1.833173e+01 7.325829e+01 2.445903e+01 2.058150e+01 4.179285e+01 6.039547e+01 4.640751e+01 4.289869e+01 3.950402e+01 4.009094e+01 2.665874e+01 2.000234e+01 1.251070e+00 1.434271e+00 3.864815e+00 3.090817e+00 2.317295e+00 3.124666e+00 4.800179e+00 4.267271e+00 3.947267e+00 3.091568e+00 2.397901e+00 2.082046e+00 1.754296e+00 4.807120e-01 4.291378e-01 8.347397e-01 3.847247e-01 3.047012e-01 4.699438e-01 4.832852e-01 7.265183e-01 4.662017e-01 4.708691e-01 5.232381e-01 2.858684e-01 3.794077e-01
<GCONST> 1.190172e+02
<TRANSP> 5
 0.000000e+00 1.000000e+00 0.000000e+00 0.000000e+00 0.000000e+00
 0.000000e+00 6.601517e-01 3.398484e-01 0.000000e+00 0.000000e+00
 0.000000e+00 0.000000e+00 6.049692e-01 3.950308e-01 0.000000e+00
 0.000000e+00 0.000000e+00 0.000000e+00 3.778046e-01 6.221954e-01
 0.000000e+00 0.000000e+00 0.000000e+00 0.000000e+00 0.000000e+00
<ENDHMM>
~h "f"
<BEGINHMM>
<NUMSTATES> 5
<STATE> 2
<MEAN> 39
 -9.839026e+00 -3.745840e+00 6.073173e+00 -9.399551e+00 -3.086249e+00 4.637244e+00 -5.688495e+00 -4.140228e+00 -4.888629e+00 1.954694e+00 1.718756e+00 -3.453125e+00 7.461045e+01 -2.594726e-01 -4.013741e-01 4.937434e-01 -2.869639e-01 4.166116e-02 -3.523510e-01 -4.688462e-01 -7.527901e-01 -5.357077e-01 -2.331984e-01 -5.590260e-02 -1.406727e-01 2.986738e-01 3.443258e-01 2.859322e-01 -1.947918e-01 -9.488155e-03 2.338613e-01 -1.423704e-02 -8.157951e-02 1.872366e-01 -5.200808e-02 -2.162782e-01 6.010374e-02 3.704067e-02 -1.613917e-01
<VARIANCE> 39
 7.721957e+01 1.553244e+01 2.726594e+01 3.066479e+01 1.440927e+01 1.854159e+01 4.084707e+01 4.697976e+01 1.000025e+02 7.479903e+00 1.552111e+01 1.390114e+01 1.744305e+01 1.154273e+01 1.854954e+00 4.859520e+00 2.157190e+00 2.173685e+00 2.616741e+00 5.646886e+00 2.954578e+00 8.985941e+00 7.679961e-01 2.752801e+00 3.296793e-01 3.948664e+00 2.457897e+00 3.912315e-01 1.377542e+00 4.389252e-01 5.281385e-01 3.972628e-01 1.249936e+00 7.255179e-01 1.677651e+00 1.706878e-01 6.651256e-01 1.102073e-01 9.572756e-01
<GCONST> 1.205591e+02
<STATE> 3
<MEAN> 39
 -6.801636e+00 -5.399350e-01 2.740855e+00 -8.866078e+00 2.677326e+00 2.853203e+00 -8.984326e+00 -9.923038e+00 -1.150457e+01 -1.586313e+00 -4.736186e-01 -5.843527e+00 7.529365e+01 -2.065000e+00 6.387931e-01 -4.469748e-01 -1.887427e-01 1.767608e-01 2.103389e-01 1.525170e+00 6.020241e-01 1.905540e+00 -1.239010e+00 5.766992e-01 4.881536e-01 2.791042e-01 -1.929228e-01 -1.457916e-01 -7.238085e-02 -6.139309e-02 -2.678316e-01 -1.072483e-01 -2.040992e-01 2.586998e-01 -5.869576e-02 3.561916e-01 3.125886e-01 -2.369633e-02 4.556508e-02
<VARIANCE> 39
 4.278186e+01 1.203256e+01 2.469789e+01 4.368721e+01 9.639969e+00 1.305223e+01 3.970600e+01 1.391337e+01 4.809738e+01 2.050969e+01 5.652030e+00 7.946570e+00 8.796155e+00 7.360141e+00 1.014182e+00 1.721772e+00 1.739564e+00 2.287279e+00 2.169673e+00 7.019939e+00 2.353392e+00 7.362239e+00 1.772983e+00 1.159672e+00 1.339813e+00 2.525305e-01 7.076977e-01 1.087937e-01 2.085933e-01 2.295939e-01 4.458933e-01 4.872663e-01 9.363369e-01 3.910715e-01 1.026406e+00 3.416743e-01 2.231888e-01 1.602658e-01 4.503107e-02
<GCONST> 1.024613e+02
<STATE> 4
<MEAN> 39
 -9.486885e+00 -1.658886e+00 5.641720e+00 -6.137817e+00 -1.337181e+00 9.427078e-01 -1.079277e+01 -3.551713e+00 -7.480817e+00 -5.095230e+00 2.234572e+00 -8.803566e+00 7.613998e+01 2.763860e-01 9.157930e-02 9.207129e-02 9.099032e-02 -1.846750e-01 1.570518e-03 -1.001299e-01 9.341395e-02 -1.776112e-01 9.071894e-02 2.943114e-02 -1.019121e-01 -4.703765e-02 1.750344e-01 2.035100e-02 8.147642e-02 -5.773338e-02 -1.631227e-02 -6.588369e-03 -4.545803e-02 -6.093862e-03 -9.326083e-02 6.563258e-03 -4.549880e-02 -3.648639e-02 -4.001256e-02
<VARIANCE> 39
 4.608291e+01 1.533503e+01 5.221742e+01 2.571671e+01 8.416291e+00 1.542017e+01 6.801942e+01 1.520387e+01 4.378627e+01 1.352561e+01 1.024053e+01 3.039018e+01 4.163887e+00 3.171833e+00 6.751983e-01 2.490951e+00 8.397057e-01 7.050788e-01 1.111581e+00 5.587467e+00 1.568178e+00 2.914137e+00 9.205758e-01 1.271518e+00 1.569064e+00 3.036381e-01 6.011887e-01 1.031684e-01 3.201085e-01 1.033280e-01 1.488159e-01 2.017238e-01 1.002524e+00 3.707332e-01 5.658122e-01 1.824506e-01 2.243290e-01 3.405069e-01 4.538077e-02
<GCONST> 9.609003e+01
<TRANSP> 5
 0.000000e+00 1.000000e+00 0.000000e+00 0.000000e+00 0.000000e+00
 0.000000e+00 8.236580e-01 1.763420e-01 0.000000e+00 0.000000e+00
 0.000000e+00 0.000000e+00 6.706347e-01 3.293653e-01 0.000000e+00
 0.000000e+00 0.000000e+00 0.000000e+00 9.215959e-01 7.840409e-02
 0.000000e+00 0.000000e+00 0.000000e+00 0.000000e+00 0.000000e+00
<ENDHMM>
~h "g"
<BEGINHMM>
<NUMSTATES> 5
<STATE> 2
<MEAN> 39
 -1.642843e+00 9.420488e-01 2.268521e-01 -7.135564e+00 -1.937023e+00 3.341854e+00 -8.401167e+00 -5.357836e+00 -8.856301e+00 -7.940974e+00 -4.583858e+00 -5.107789e+00 7.293481e+01 -5.616207e-01 -6.931769e-01 1.018369e+00 -1.007298e+00 2.349337e-01 -2.517700e+00 -1.272055e+00 -2.827674e+00 -1.228227e+00 -7.016634e-01 1.283682e+00 1.137401e+00 1.818079e+00 8.737950e-01 4.466603e-01 -3.754841e-01 4.526860e-02 -2.073622e-01 -1.687772e-01 -5.758274e-01 -5.712705e-02 -5.492446e-01 3.089798e-01 5.584829e-01 1.279392e-02 -3.193308e-01
<VARIANCE> 39
 2.590879e+01 4.138673e+01 1.365291e+02 3.095061e+01 5.292451e+01 4.161996e+01 3.197564e+01 4.399956e+01 3.286522e+01 4.567718e+01 3.042023e+01 2.840667e+01 2.317204e+01 3.564538e+00 3.050081e+00 1.603824e+01 3.191079e+00 4.404165e+00 1.938840e+00 7.319632e+00 5.861454e+00 4.851090e+00 2.672217e+00 3.529740e+00 1.724849e+00 2.362488e+00 7.897871e-01 8.085379e-01 2.715373e+00 5.606590e-01 6.176044e-01 5.138170e-01 7.455826e-01 1.465109e+00 7.016491e-01 4.912046e-01 4.388345e-01 3.383338e-01 5.510120e-01
<GCONST> 1.319660e+02
<STATE> 3
<MEAN> 39
 3.159541e+00 5.556470e-01 3.942917e+00 -1.194855e+01 -4.654900e+00 -3.661691e+00 -1.752991e+01 -1.185600e+01 -1.607091e+01 -3.996358e+00 5.006735e+00 -1.996733e+00 7.638770e+01 1.744019e+00 9.386642e-01 -1.002434e+00 -1.995018e+00 -6.982884e-01 -1.301900e+00 -1.149550e+00 1.304558e+00 -9.248645e-01 1.319932e+00 2.066197e+00 -3.268505e-01 -8.458401e-02 -2.287684e-01 4.592783e-02 -3.808463e-01 -2.591672e-01 8.622073e-02 5.663548e-01 7.592052e-01 1.229049e+00 6.886208e-01 1.492230e-01 -2.829376e-01 -4.428167e-01 -2.633658e-01
<VARIANCE> 39
 3.378668e+00 1.532743e+01 6.618111e+01 3.192553e+01 3.502102e+01 3.860255e+01 3.079084e+01 3.347073e+01 3.263148e+01 3.827578e+01 4.517397e+01 2.094495e+01 7.456728e+00 8.785691e-01 7.568960e-01 4.472379e+00 1.064102e+00 1.569270e+00 2.138113e+00 4.675575e+00 4.936171e+00 2.263318e+00 1.765734e+00 1.988394e+00 1.636248e+00 1.394664e-01 1.791235e-01 1.711888e-01 7.725859e-01 1.688260e-01 2.873378e-01 2.232241e-01 5.596573e-01 1.161707e+00 3.108183e-01 6.278570e-01 7.171009e-01 2.515082e-01 1.149790e-01
<GCONST> 1.053071e+02
<STATE> 4
<MEAN> 39
 6.200567e+00 7.616591e-01 -2.210191e+00 -2.272478e+01 -4.277669e+00 -1.643679e+00 -1.536287e+01 2.156982e+00 -1.618714e+01 -1.154626e+00 8.775362e+00 -9.246257e+00 7.636851e+01 1.466327e-01 1.855474e-01 -4.937203e-01 2.490175e-01 1.940147e-01 4.497700e-01 4.702328e-01 3.561027e-01 -1.661985e-01 1.754595e-01 -2.092352e-01 -3.418890e-01 -4.161962e-01 -7.836602e-02 -4.008221e-02 -4.067558e-02 2.864040e-01 5.568631e-03 6.568135e-02 6.609906e-02 -1.128163e-01 1.180430e-01 -4.188211e-02 -3.672413e-02 1.186595e-01 -5.598133e-02
<VARIANCE> 39
 1.943539e+00 2.113726e+01 3.137884e+01 3.991132e+01 3.368961e+01 2.242945e+01 2.590994e+01 5.257073e+01 3.025176e+01 2.059969e+01 1.908728e+01 2.838465e+01 6.503457e+00 1.377717e-01 6.484812e-01 8.582261e-01 3.856825e+00 1.886543e+00 7.645846e-01 1.797423e+00 5.001598e+00 2.877082e+00 1.290492e+00 1.539178e+00 1.432809e+00 7.621745e-01 4.902549e-02 1.325028e-01 1.865259e-01 2.255760e-01 3.169599e-01 1.670766e-01 3.362300e-01 7.190567e-01 5.519410e-01 2.313526e-01 2.682955e-01 2.111124e-01 1.219851e-01
<GCONST> 9.455123e+01
<TRANSP> 5
 0.000000e+00 1.000000e+00 0.000000e+00 0.000000e+00 0.000000e+00
 0.000000e+00 7.304010e-01 2.695989e-01 0.000000e+00 0.000000e+00
 0.000000e+00 0.000000e+00 6.537645e-01 3.462355e-01 0.000000e+00
 0.000000e+00 0.000000e+00 0.000000e+00 8.943619e-01 1.056381e-01
 0.000000e+00 0.000000e+00 0.000000e+00 0.000000e+00 0.000000e+00
<ENDHMM>
~h "k"
<BEGINHMM>
<NUMSTATES> 5
<STATE> 2
<MEAN> 39
 -2.952950e+00 -4.543941e+00 -5.346699e+00 -4.522160e+00 -7.223449e-01 -9.283278e-02 -7.299017e+00 -5.828992e+00 -9.008295e+00 1.138118e+00 3.523988e+00 -2.846593e+00 7.164928e+01 -2.318260e-01 -4.776990e-01 3.486814e-01 -1.483845e-02 1.991617e-01 1.298849e-01 2.935045e-01 4.595648e-02 -1.767268e-02 1.204785e-01 8.470025e-02 -2.303569e-01 2.573423e-01 3.143049e-01 3.473897e-01 1.350666e-01 -6.565832e-02 -2.415837e-02 1.325663e-01 -2.260210e-01 1.415682e-01 -3.055929e-01 -1.430447e-01 -5.005576e-02 -2.409195e-01 -6.779217e-02
<VARIANCE> 39
 2.610474e+01 4.502472e+01 4.475618e+01 3.343034e+01 2.693391e+01 3.484180e+01 3.855018e+01 4.571564e+01 3.342064e+01 4.474327e+01 3.560432e+01 3.219015e+01 2.169609e+01 3.669455e+00 3.874152e+00 5.035138e+00 1.758027e+00 2.662476e+00 4.647861e+00 3.207800e+00 5.358090e+00 3.300841e+00 2.864350e+00 3.846976e+00 3.248617e+00 3.388870e+00 6.312749e-01 8.648671e-01 9.026734e-01 2.720008e-01 5.109220e-01 1.106494e+00 5.402965e-01 1.092759e+00 5.769030e-01 6.776747e-01 8.737295e-01 6.002343e-01 6.498970e-01
<GCONST> 1.288723e+02
<STATE> 3
<MEAN> 39
 2.625152e-01 -1.709461e+00 -1.079699e+00 -6.739109e+00 -1.632669e+00 4.232226e+00 -8.484095e+00 -2.469082e+00 -9.494743e+00 8.786946e-01 1.307174e+00 -6.699390e+00 7.047425e+01 1.344825e+00 2.086079e+00 2.976142e-01 -2.862940e-01 -6.099433e-02 1.557317e-01 -1.156796e+00 5.259010e-01 -1.649456e+00 -1.126285e+00 5.832321e-01 -1.358263e+00 2.791758e-02 -1.965673e-01 5.276206e-02 1.292144e-01 -3.796895e-01 -1.357999e-01 -2.907865e-01 -2.746687e-01 -1.486641e-01 3.860172e-02 -2.643939e-01 3.149969e-01 2.401779e-01 2.641065e-01
<VARIANCE> 39
 1.076844e+01 2.406866e+01 3.832470e+01 3.388829e+01 3.085209e+01 3.764685e+01 5.650214e+01 4.427071e+01 5.660830e+01 2.581233e+01 2.918612e+01 3.098921e+01 1.954756e+01 2.173658e+00 3.455178e+00 4.955836e+00 2.463193e+00 2.612719e+00 3.341059e+00 6.478621e+00 4.640664e+00 2.741826e+00 2.673881e+00 2.308313e+00 4.020811e+00 1.651178e+00 2.510963e-01 4.179309e-01 6.513965e-01 5.499536e-01 4.449808e-01 7.595287e-01 9.622366e-01 1.084548e+00 5.816243e-01 4.060198e-01 5.896338e-01 4.198680e-01 5.514057e-01
<GCONST> 1.234055e+02
<STATE> 4
<MEAN> 39
 2.503836e+00 2.385028e+00 -2.330086e+00 -6.395355e+00 -1.113684e+00 3.544644e+00 -1.153075e+01 -3.545796e+00 -1.400109e+01 -1.897579e+00 4.077729e+00 -7.532941e+00 7.009183e+01 1.314779e-01 6.786914e-01 -9.626688e-01 -5.590323e-02 -4.698360e-01 1.301390e-01 7.034146e-01 5.674335e-01 1.530880e-01 -4.304629e-01 1.736311e-01 3.063904e-01 -3.837835e-01 -3.768403e-01 -3.411258e-01 3.943605e-02 -2.318775e-01 -7.082555e-02 -2.416892e-01 1.938722e-01 2.575433e-02 2.144972e-01 5.102817e-02 5.162185e-02 3.135033e-01 1.990960e-01
<VARIANCE> 39
 5.120537e+00 1.013259e+01 5.142125e+01 3.771941e+01 2.868891e+01 2.206381e+01 3.779623e+01 4.666980e+01 5.039386e+01 1.866558e+01 2.880890e+01 2.553256e+01 2.606686e+01 1.974676e+00 2.270270e+00 3.657941e+00 4.952961e+00 2.358676e+00 4.377642e+00 6.193963e+00 5.622764e+00 3.926058e+00 2.636555e+00 3.721174e+00 2.822428e+00 3.242174e+00 2.745225e-01 2.274239e-01 7.840087e-01 5.215903e-01 5.702204e-01 4.882383e-01 7.366161e-01 1.039751e+00 7.689827e-01 4.243856e-01 5.069366e-01 4.247340e-01 7.311785e-01
<GCONST> 1.217954e+02
<TRANSP> 5
 0.000000e+00 1.000000e+00 0.000000e+00 0.000000e+00 0.000000e+00
 0.000000e+00 6.885085e-01 3.114915e-01 0.000000e+00 0.000000e+00
 0.000000e+00 0.000000e+00 2.884629e-01 7.115371e-01 0.000000e+00
 0.000000e+00 0.000000e+00 0.000000e+00 6.011720e-01 3.988280e-01
 0.000000e+00 0.000000e+00 0.000000e+00 0.000000e+00 0.000000e+00
<ENDHMM>
~h "l"
<BEGINHMM>
<NUMSTATES> 5
<STATE> 2
<MEAN> 39
 4.142706e+00 4.414051e+00 9.315952e+00 -1.229037e+01 -1.146384e+01 1.437049e+00 -1.633757e+01 1.852003e+00 -1.281519e+01 -5.318634e+00 4.976238e+00 -7.725256e+00 7.258185e+01 -9.796863e-02 -1.331963e-01 3.741437e-02 -4.049554e-01 -5.141070e-01 -1.109219e-01 1.839239e-01 3.829481e-01 4.535335e-02 1.280588e-01 4.417276e-01 -2.447963e-01 1.848163e-01 -1.459516e-01 -2.730244e-01 -2.030720e-01 9.060789e-02 2.007648e-01 -3.972435e-02 3.277532e-01 1.100564e-01 1.247631e-01 -3.461911e-02 -1.271039e-01 6.559765e-02 6.849380e-02
<VARIANCE> 39
 4.705686e+00 1.655703e+01 1.836693e+01 2.303483e+01 3.906134e+01 4.863089e+01 3.658177e+01 4.086538e+01 2.304925e+01 5.111026e+01 2.465816e+01 2.587907e+01 5.491509e+00 4.963537e-01 1.146977e+00 1.024407e+00 1.648003e+00 3.695491e+00 1.954962e+00 3.114418e+00 5.022628e+00 1.847137e+00 2.423388e+00 2.310330e+00 2.255964e+00 6.978019e-01 9.895708e-02 2.065835e-01 1.520974e-01 2.043799e-01 5.409408e-01 3.210497e-01 5.939364e-01 6.957051e-01 3.455076e-01 4.790170e-01 4.037651e-01 4.186461e-01 7.244985e-02
<GCONST> 1.034539e+02
<STATE> 3
<MEAN> 39
 2.102024e+00 1.008546e+00 7.398466e+00 -1.128032e+01 -9.299134e+00 8.666407e-01 -1.212803e+01 3.766404e+00 -1.116876e+01 -4.268646e+00 4.847279e+00 -8.257386e+00 7.352564e+01 -9.253144e-02 -9.781618e-01 -6.417021e-01 4.980398e-01 7.154078e-01 7.283266e-02 8.683702e-01 1.110945e+00 2.513197e-01 -1.326006e-01 -1.398278e-01 4.470424e-02 3.302361e-02 8.176855e-02 1.291266e-01 -5.666608e-02 1.428158e-01 4.043187e-01 1.604088e-01 -3.509619e-01 -1.267401e-01 -6.267452e-02 5.885560e-02 -9.979617e-02 1.834711e-02 -1.340703e-01
<VARIANCE> 39
 6.732229e+00 1.203892e+01 2.857459e+01 3.721447e+01 9.480756e+01 4.726662e+01 4.167949e+01 5.655623e+01 2.181992e+01 2.240476e+01 2.856797e+01 2.115935e+01 1.090857e+01 2.302959e-01 1.631971e+00 1.123909e+00 1.644302e+00 3.123036e+00 2.712335e+00 2.928596e+00 4.046947e+00 1.783789e+00 2.113254e+00 1.720137e+00 1.606200e+00 9.575873e-01 3.065339e-02 1.431228e-01 2.187116e-01 2.210236e-01 7.015405e-01 2.893992e-01 5.974234e-01 9.086233e-01 3.379667e-01 3.588221e-01 3.592061e-01 4.136877e-01 5.970689e-02
<GCONST> 1.032465e+02
<STATE> 4
<MEAN> 39
 3.219503e+00 -1.695053e+00 3.838248e+00 -1.586234e+01 -1.083438e+01 -4.993196e-01 -1.043777e+01 6.850977e+00 -9.236232e+00 -6.027054e+00 5.571146e+00 -7.425640e+00 7.636768e+01 -7.658446e-03 -9.849942e-02 -5.278640e-01 5.098289e-01 1.018018e+00 1.466886e-01 3.966042e-02 -4.119120e-01 -1.094962e-02 2.415107e-01 -3.458090e-01 1.087975e-01 -1.912924e-01 -1.410873e-03 2.208387e-01 4.286484e-03 7.761132e-02 1.908790e-02 2.100589e-02 2.574168e-04 -1.788537e-01 -8.912897e-02 4.324729e-02 -2.424937e-02 2.266114e-02 -1.158482e-01
<VARIANCE> 39
 5.355327e+00 1.839771e+01 2.657458e+01 3.824681e+01 3.240787e+01 4.093893e+01 4.965401e+01 3.057433e+01 1.903081e+01 2.640994e+01 1.753853e+01 1.784168e+01 1.279093e+01 1.241653e-01 7.393379e-01 9.668414e-01 1.070054e+00 9.726810e-01 9.827518e-01 1.796800e+00 2.155530e+00 1.606726e+00 1.182580e+00 1.417457e+00 9.548579e-01 4.115036e-01 2.843188e-02 8.713790e-02 1.168947e-01 1.840025e-01 1.583353e-01 2.283307e-01 3.026402e-01 3.573560e-01 2.618670e-01 1.572216e-01 1.907570e-01 1.797913e-01 5.503737e-02
<GCONST> 8.638666e+01
<TRANSP> 5
 0.000000e+00 1.000000e+00 0.000000e+00 0.000000e+00 0.000000e+00
 0.000000e+00 7.996622e-01 2.003379e-01 0.000000e+00 0.000000e+00
 0.000000e+00 0.000000e+00 4.835741e-01 5.164260e-01 0.000000e+00
 0.000000e+00 0.000000e+00 0.000000e+00 7.238328e-01 2.761671e-01
 0.000000e+00 0.000000e+00 0.000000e+00 0.000000e+00 0.000000e+00
<ENDHMM>
~h "m"
<BEGINHMM>
<NUMSTATES> 5
<STATE> 2
<MEAN> 39
 5.700542e+00 9.245810e+00 -8.583016e-01 -2.804928e+00 -1.708735e+00 1.609660e+01 -8.451981e+00 6.511746e-02 -1.519387e+00 -5.038856e+00 -5.285823e+00 -8.985994e-01 6.557759e+01 1.653189e-01 7.362433e-02 -5.395428e-01 9.914265e-01 2.592930e-01 7.476171e-01 6.622441e-01 -1.449886e-01 3.003590e-01 -7.829427e-02 -6.262966e-01 -3.435813e-01 -3.740712e-01 -7.379470e-02 -1.067057e-01 -1.056126e-01 -2.260965e-01 3.187215e-02 -3.852795e-01 3.576399e-02 1.852409e-01 -1.781460e-01 1.902709e-01 3.318360e-01 -7.121840e-04 9.918811e-02
<VARIANCE> 39
 3.142401e+00 8.011474e+00 1.947905e+01 2.554798e+01 1.156553e+01 2.863795e+01 2.076609e+01 1.858336e+01 4.350438e+01 1.598436e+01 1.242043e+01 2.791261e+01 5.862836e+00 1.396079e-01 3.982071e-01 4.979454e-01 1.245079e+00 7.943236e-01 3.044644e+00 8.745210e-01 1.381455e+00 1.683890e+00 2.057545e+00 2.030860e+00 1.111504e+00 1.139012e-01 1.491260e-02 6.905384e-02 7.089796e-02 1.566690e-01 1.615453e-01 3.121164e-01 1.521513e-01 1.707138e-01 2.639586e-01 2.308037e-01 3.456507e-01 1.823290e-01 2.857732e-02
<GCONST> 7.748750e+01
<STATE> 3
<MEAN> 39
 5.284387e+00 5.728857e+00 3.011198e+00 -2.496899e+00 -4.998416e+00 1.233453e+01 -8.393908e+00 8.817860e-01 -8.477410e+00 -4.599953e+00 -1.484656e+00 -5.948937e+00 6.770142e+01 4.110067e-02 -1.522591e-01 -1.782454e-01 4.533312e-01 2.091857e-01 2.912838e-01 -1.770784e-01 -1.533725e-01 -5.037982e-03 -8.776730e-02 -8.919512e-03 1.006894e-01 -1.893279e-01 -1.385858e-01 -4.021620e-02 1.354159e-01 -7.517006e-01 -1.164001e-01 -7.805766e-01 -2.731675e-01 4.279688e-01 -2.221669e-01 1.978397e-01 5.672192e-01 8.073600e-02 2.472918e-01
<VARIANCE> 39
 3.784311e+00 1.213424e+01 4.425161e+01 3.454597e+01 1.965452e+01 1.195906e+01 3.869486e+01 5.712982e+01 1.642169e+01 1.010931e+01 3.685084e+01 1.983991e+01 5.705449e+00 3.226121e-01 1.898622e-01 4.889886e-01 1.501271e+00 5.381375e-01 9.695388e-01 8.979084e-01 1.588138e+00 7.018906e-01 1.134073e+00 1.236343e+00 7.071624e-01 1.098079e-01 5.875605e-02 1.227232e-01 1.879488e-01 2.257374e-01 1.667233e-01 2.362740e-01 4.202070e-01 3.054252e-01 1.480802e-01 2.388044e-01 2.697767e-01 2.364014e-01 2.919314e-02
<GCONST> 8.046838e+01
<STATE> 4
<MEAN> 39
 4.953314e+00 6.160721e+00 2.181802e+00 -3.728160e+00 -3.588148e+00 1.182623e+01 -8.493553e+00 4.068372e-01 -9.421906e+00 -4.279089e+00 -1.903348e+00 -5.709455e+00 6.781333e+01 -1.358055e-01 -3.730746e-01 -9.972549e-03 -1.597656e+00 -5.379526e-01 -2.111517e+00 -8.630596e-01 1.467645e+00 -2.774417e-01 4.552345e-01 1.864822e+00 -7.670425e-02 5.764230e-01 -8.244378e-02 -1.925681e-02 7.209912e-04 -7.449734e-01 -1.197306e-01 -7.511004e-01 -2.644814e-01 4.792695e-01 4.112750e-04 1.878518e-02 5.611401e-01 -1.570824e-01 2.786166e-01
<VARIANCE> 39
 2.609407e+00 9.985396e+00 5.520864e+01 2.566902e+01 2.043284e+01 1.347568e+01 2.911860e+01 5.789598e+01 2.380458e+01 1.065152e+01 3.864707e+01 1.282986e+01 9.207894e+00 1.034026e+00 1.029142e+00 1.415786e+00 2.467342e+00 1.667935e+00 3.376216e+00 4.811061e+00 1.958670e+00 5.561057e-01 1.753579e+00 1.297022e+00 9.275749e-01 5.765916e-01 1.293067e-02 8.991348e-02 9.507265e-02 2.034671e-01 2.307694e-01 4.258255e-01 2.310242e-01 5.501235e-01 3.058349e-01 3.967278e-01 3.259440e-01 1.849438e-01 5.775983e-02
<GCONST> 9.124271e+01
<TRANSP> 5
 0.000000e+00 1.000000e+00 0.000000e+00 0.000000e+00 0.000000e+00
 0.000000e+00 7.497930e-01 2.502070e-01 0.000000e+00 0.000000e+00
 0.000000e+00 0.000000e+00 4.997939e-01 5.002061e-01 0.000000e+00
 0.000000e+00 0.000000e+00 0.000000e+00 2.844064e-01 7.155936e-01
 0.000000e+00 0.000000e+00 0.000000e+00 0.000000e+00 0.000000e+00
<ENDHMM>
~h "n"
<BEGINHMM>
<NUMSTATES> 5
<STATE> 2
<MEAN> 39
 2.030979e+00 7.131210e-01 6.497925e+00 -6.426197e+00 1.237019e+00 2.256784e+00 -1.295185e+01 1.795297e+00 -1.035660e+01 1.067205e-01 6.178548e+00 -5.849545e+00 7.337944e+01 6.620541e-01 1.219130e+00 -3.531506e-01 1.073054e+00 -6.874855e-01 1.982442e+00 2.530614e-01 -9.420961e-02 7.026887e-01 -6.493804e-01 -2.069356e+00 3.377887e-01 -1.227859e+00 -8.401438e-02 1.569589e-02 -6.073808e-02 -3.907441e-02 2.512329e-02 1.618354e-01 2.967953e-01 7.780405e-02 2.474289e-02 -1.386389e-01 -2.619354e-01 8.143859e-02 -2.532843e-02
<VARIANCE> 39
 4.874337e+00 1.358112e+01 2.731181e+01 3.412469e+01 1.675558e+01 4.738413e+01 1.431828e+01 1.894276e+01 1.802821e+01 2.418526e+01 4.864237e+01 1.241893e+01 1.184843e+01 6.056347e-01 1.171420e+00 1.742547e+00 1.349006e+00 1.454042e+00 2.533577e+00 1.790972e+00 1.613586e+00 2.317863e+00 1.749612e+00 3.685175e+00 1.718104e+00 6.991153e-01 3.386043e-01 3.260350e-01 3.525897e-01 2.261364e-01 3.198305e-01 8.401681e-01 3.574535e-01 2.505198e-01 4.648686e-01 2.321717e-01 5.962842e-01 2.280868e-01 2.342033e-01
<GCONST> 1.015723e+02
<STATE> 3
<MEAN> 39
 4.954196e+00 4.976427e+00 2.178492e+00 -2.197132e+00 1.398765e-01 1.036848e+01 -1.063453e+01 2.050450e+00 -8.198475e+00 -3.155790e+00 -1.072181e+00 -4.983339e+00 6.840377e+01 -2.404111e-01 4.530486e-01 -5.289379e-01 4.210201e-01 1.150328e-01 5.564136e-01 1.383739e+00 -6.675754e-02 5.459059e-01 -3.128437e-01 -9.323233e-01 2.573517e-01 -4.767686e-01 -7.518607e-01 -5.405011e-01 5.033752e-01 -5.188547e-01 2.090673e-01 -6.605742e-01 2.334520e-01 -1.138574e-02 7.361394e-02 3.140924e-01 4.671057e-01 3.843844e-02 5.262767e-01
<VARIANCE> 39
 4.148890e+00 7.573297e+00 3.118025e+01 2.949428e+01 1.349461e+01 1.678055e+01 2.139616e+01 2.540038e+01 2.327007e+01 1.750246e+01 1.912219e+01 1.525862e+01 7.052818e+00 1.328712e+00 9.844329e-01 3.149976e+00 1.255704e+00 1.890892e+00 3.267918e+00 2.674523e+00 2.857107e+00 2.504688e+00 1.966290e+00 2.786963e+00 1.687997e+00 7.174043e-01 4.321612e-01 2.327946e-01 7.404171e-01 4.223493e-01 4.031015e-01 6.516628e-01 4.844919e-01 5.927280e-01 5.880722e-01 3.366022e-01 5.287669e-01 3.423326e-01 2.072497e-01
<GCONST> 1.046709e+02
<STATE> 4
<MEAN> 39
 -4.492568e+00 1.688042e+00 6.038291e+00 -9.626491e+00 2.771724e+00 8.159202e+00 -5.312095e+00 1.702289e+00 -5.411687e+00 -3.118113e+00 -2.235636e+00 -3.244907e+00 7.111471e+01 -3.297498e+00 -1.560281e+00 2.378000e+00 -1.979259e+00 -9.627771e-03 -8.609607e-01 6.356522e-01 -4.371001e-01 1.007656e+00 -1.052643e-01 6.896572e-01 3.026300e-01 1.834571e+00 8.402434e-02 -1.657107e-01 1.846030e-02 2.150872e-02 -3.790045e-01 -2.638614e-01 -5.990605e-01 -3.372200e-01 -1.151833e-01 -3.331385e-02 3.153626e-01 -8.874203e-02 2.338130e-01
<VARIANCE> 39
 7.746882e+01 2.408343e+01 6.705085e+01 1.071727e+02 2.840212e+01 2.344211e+01 2.555849e+01 1.986047e+01 2.614706e+01 2.024309e+01 2.395649e+01 2.066233e+01 2.257889e+01 5.227201e+00 2.503757e+00 5.290129e+00 5.422480e+00 3.332643e+00 3.012503e+00 3.973913e+00 2.992613e+00 4.037214e+00 2.453286e+00 4.011226e+00 1.377992e+00 1.987546e+00 1.764922e+00 4.847865e-01 1.576100e+00 1.387782e+00 5.309752e-01 5.884920e-01 6.961132e-01 5.490500e-01 6.787608e-01 4.901493e-01 6.922424e-01 3.201191e-01 5.914906e-01
<GCONST> 1.271816e+02
<TRANSP> 5
 0.000000e+00 1.000000e+00 0.000000e+00 0.000000e+00 0.000000e+00
 0.000000e+00 5.032376e-01 4.967624e-01 0.000000e+00 0.000000e+00
 0.000000e+00 0.000000e+00 6.471270e-01 3.528730e-01 0.000000e+00
 0.000000e+00 0.000000e+00 0.000000e+00 5.980073e-01 4.019926e-01
 0.000000e+00 0.000000e+00 0.000000e+00 0.000000e+00 0.000000e+00
<ENDHMM>
~h "p"
<BEGINHMM>
<NUMSTATES> 5
<STATE> 2
<MEAN> 39
 2.314735e+00 -6.342273e-01 -1.009346e+01 -4.025245e+00 -4.566448e+00 3.360538e+00 -6.038280e+00 1.885516e+00 -8.950508e+00 1.806874e+00 2.662461e+00 -6.565485e+00 6.721342e+01 -3.875176e-01 -7.929067e-02 5.357262e-02 4.347737e-01 2.518171e-01 1.079003e-02 -2.818727e-02 -4.044161e-01 5.033619e-01 1.997123e-01 2.840509e-01 3.826571e-01 -1.395515e-01 3.488101e-02 -2.115890e-01 4.190812e-01 -2.908890e-01 1.172781e-01 -4.336063e-01 -5.519890e-01 -3.929256e-01 -3.883026e-01 1.726451e-01 7.139945e-02 -1.969896e-01 3.919091e-01
<VARIANCE> 39
 1.371699e+01 1.475173e+01 3.828938e+01 1.533321e+01 9.606211e+00 1.765382e+01 1.513199e+01 2.741291e+01 2.246394e+01 1.632669e+01 3.681799e+01 4.210540e+01 1.861337e+01 1.078097e+00 2.606193e+00 8.352482e+00 2.180793e+00 1.918218e+00 3.705880e+00 4.861073e+00 2.627313e+00 4.153633e+00 2.402280e+00 3.518617e+00 3.806589e+00 3.993712e+00 2.172065e-01 2.815981e-01 6.448274e-01 3.190562e-01 3.717880e-01 4.719149e-01 4.502485e-01 4.199954e-01 5.167934e-01 5.132139e-01 8.731402e-01 9.575306e-01 3.496749e-01
<GCONST> 1.150840e+02
<STATE> 3
<MEAN> 39
 -1.497546e+00 -6.561456e+00 -3.887444e-01 -4.318334e+00 1.473139e+00 -8.319355e-01 -9.410461e+00 -2.161281e+00 -6.893905e+00 5.055866e+00 2.183371e+00 -6.127095e+00 7.301481e+01 1.876962e-01 -3.098564e-01 1.792861e+00 -7.182467e-03 1.612487e+00 -1.791290e+00 -2.094417e+00 -8.129719e-01 -1.327001e+00 -5.151124e-02 -3.324814e-01 -1.853851e+00 1.338671e+00 2.237469e-01 6.176834e-01 -1.379668e-01 -4.308521e-02 -1.283064e-01 -2.274183e-02 -2.887299e-01 4.500030e-01 -1.747735e-01 -5.634068e-01 -2.172124e-01 -2.852297e-01 -2.011143e-01
<VARIANCE> 39
 1.603356e+01 2.703752e+01 2.899990e+01 1.938732e+01 4.249832e+01 1.462024e+01 3.675898e+01 2.053562e+01 3.584837e+01 1.887486e+01 2.722496e+01 1.584303e+01 1.566418e+01 3.558407e-01 4.095264e+00 3.819350e+00 9.608510e-01 1.643570e+00 3.384383e+00 5.091954e+00 4.457436e+00 4.328829e+00 5.376859e+00 1.313599e+00 5.514438e+00 2.423729e+00 8.605434e-02 5.057055e-01 4.959445e-01 2.459781e-01 4.519071e-01 2.564568e-01 5.721218e-01 1.279872e-01 5.019129e-01 7.312834e-01 5.685467e-01 2.167769e-01 1.152108e-01
<GCONST> 1.097381e+02
<STATE> 4
<MEAN> 39
 9.566590e-01 -6.242422e+00 3.685615e+00 -6.052106e+00 1.686622e+00 -7.833128e+00 -2.051118e+01 -3.980073e+00 -1.446904e+01 1.631524e+00 3.495393e+00 -1.459133e+01 7.686764e+01 2.751983e-01 2.410160e-01 5.669495e-01 -6.731483e-01 6.310908e-02 -7.644336e-01 -9.932707e-01 9.471989e-01 -6.575312e-01 -3.582111e-01 -3.075766e-01 -5.048360e-01 3.053682e-01 -6.432877e-02 2.593941e-01 -5.536795e-01 -1.459443e-02 -2.651991e-01 6.304829e-01 1.009102e+00 5.060235e-01 7.330961e-01 2.245792e-01 -2.264321e-01 5.696097e-01 -5.226354e-01
<VARIANCE> 39
 1.076014e+01 2.853359e+01 5.450072e+01 2.551297e+01 3.557160e+01 2.420623e+01 4.178563e+01 1.165518e+02 3.473323e+01 1.384691e+01 2.057383e+01 4.943328e+01 1.259234e+01 5.120998e-01 2.793001e+00 3.747225e+00 2.414929e+00 2.052769e+00 3.525663e+00 7.649156e+00 4.316936e+00 3.735847e+00 1.852408e+00 2.991546e+00 5.186126e+00 2.031354e+00 8.505624e-02 4.448439e-01 7.092892e-01 2.682357e-01 2.981522e-01 4.368125e-01 7.366332e-01 6.101981e-01 7.387938e-01 4.361096e-01 4.254523e-01 8.938956e-01 1.925712e-01
<GCONST> 1.174274e+02
<TRANSP> 5
 0.000000e+00 1.000000e+00 0.000000e+00 0.000000e+00 0.000000e+00
 0.000000e+00 7.683004e-01 2.316997e-01 0.000000e+00 0.000000e+00
 0.000000e+00 0.000000e+00 4.789108e-01 5.210891e-01 0.000000e+00
 0.000000e+00 0.000000e+00 0.000000e+00 7.007327e-01 2.992673e-01
 0.000000e+00 0.000000e+00 0.000000e+00 0.000000e+00 0.000000e+00
<ENDHMM>
~h "r"
<BEGINHMM>
<NUMSTATES> 5
<STATE> 2
<MEAN> 39
 5.340333e+00 5.041814e+00 -4.381464e+00 -1.148030e+01 1.989920e+00 -6.743596e+00 -1.383719e+01 -4.651852e+00 -2.056807e+01 -4.143539e+00 3.022180e+00 -5.378370e+00 7.264730e+01 6.645583e-01 1.312892e+00 -2.743192e-01 -1.907127e+00 6.979079e-01 1.873367e-01 -1.247300e+00 1.217625e+00 -9.238735e-01 -9.209957e-01 9.936471e-01 -6.695211e-02 -1.442669e-01 -1.936761e-01 -1.828756e-01 5.907940e-02 -5.404715e-02 5.491267e-02 2.630820e-01 -4.175071e-02 1.593836e-01 1.773661e-01 3.047177e-02 8.305114e-02 1.160032e-01 2.756164e-02
<VARIANCE> 39
 4.526958e+00 2.111306e+01 1.617053e+01 2.576978e+01 2.601533e+01 3.779943e+01 3.503378e+01 6.585403e+01 2.751965e+01 5.319185e+01 4.640581e+01 3.986002e+01 6.723895e+00 5.853105e-01 1.109309e+00 1.030573e+00 1.693732e+00 1.565418e+00 2.050423e+00 3.546961e+00 4.526866e+00 3.274297e+00 2.943456e+00 2.568823e+00 2.247258e+00 5.293185e-01 1.664661e-01 2.625335e-01 1.592652e-01 3.119143e-01 2.674144e-01 2.430229e-01 5.598288e-01 7.621121e-01 7.469985e-01 4.700124e-01 4.708780e-01 4.513502e-01 1.312706e-01
<GCONST> 1.067280e+02
<STATE> 3
<MEAN> 39
 6.926403e+00 8.593297e+00 -3.991133e+00 -2.205117e+01 5.309259e+00 -3.268880e-01 -2.110100e+01 2.205219e+00 -2.208354e+01 -8.759277e+00 1.151816e+01 -4.076246e+00 7.326236e+01 -7.905659e-02 -3.400158e-01 1.652719e-01 -5.865496e-01 4.758626e-02 -6.636372e-03 -2.041063e-01 1.871183e-02 2.840337e-01 5.329497e-01 8.287641e-01 -1.350810e-01 3.758270e-01 -1.004129e-01 -2.351531e-01 8.787794e-02 3.653507e-01 -1.971830e-01 -1.448185e-01 3.401098e-01 -2.591317e-01 1.835700e-01 3.247560e-01 -1.589518e-01 -1.599118e-01 4.888032e-02
<VARIANCE> 39
 2.278052e+00 1.569513e+01 1.204853e+01 2.704308e+01 2.148357e+01 2.371576e+01 2.749898e+01 2.873164e+01 4.702636e+01 3.156201e+01 3.682634e+01 3.038149e+01 3.392721e+00 1.668455e-01 1.145515e+00 5.262339e-01 1.406855e+00 1.424243e+00 1.260020e+00 2.154185e+00 2.623565e+00 2.368752e+00 2.870223e+00 2.600317e+00 2.256064e+00 3.543617e-01 3.421893e-02 1.076518e-01 1.012469e-01 1.930106e-01 2.152415e-01 2.034647e-01 3.168097e-01 3.498219e-01 4.487817e-01 3.025539e-01 4.371489e-01 4.434049e-01 3.463449e-02
<GCONST> 9.063253e+01
<STATE> 4
<MEAN> 39
 3.940216e+00 9.843327e-01 -1.836072e+00 -1.616416e+01 4.217951e+00 -6.093654e+00 -1.842677e+01 -6.100460e+00 -1.831129e+01 2.389406e+00 1.168767e+01 -6.711135e+00 7.675030e+01 -4.976298e-01 -9.068158e-01 9.657202e-01 1.238563e+00 -6.430350e-01 -3.142991e-01 7.796899e-01 -5.905694e-01 8.685501e-01 1.192652e+00 -3.599955e-01 -1.072590e+00 3.680833e-01 8.010890e-02 2.503617e-01 -2.693602e-02 6.537390e-02 -2.759109e-02 3.217639e-01 -1.932009e-02 3.414763e-01 9.221274e-03 -4.597195e-01 -2.935827e-01 3.598061e-02 -2.369993e-01
<VARIANCE> 39
 3.988827e+00 2.138992e+01 2.765616e+01 5.020249e+01 2.918073e+01 3.766300e+01 1.708523e+01 7.669972e+01 4.734631e+01 4.345684e+01 2.153100e+01 4.259292e+01 2.879159e+00 1.601846e-01 1.086355e+00 5.717555e-01 1.231924e+00 1.170577e+00 1.751987e+00 1.808703e+00 3.192224e+00 2.288525e+00 3.487501e+00 1.724962e+00 1.954621e+00 3.347006e-01 3.375895e-02 1.024225e-01 1.226890e-01 1.869856e-01 2.065624e-01 3.507202e-01 3.351719e-01 4.551368e-01 3.497888e-01 4.260865e-01 4.003712e-01 3.489850e-01 4.119559e-02
<GCONST> 9.461002e+01
<TRANSP> 5
 0.000000e+00 1.000000e+00 0.000000e+00 0.000000e+00 0.000000e+00
 0.000000e+00 7.307582e-01 2.692418e-01 0.000000e+00 0.000000e+00
 0.000000e+00 0.000000e+00 8.563319e-01 1.436681e-01 0.000000e+00
 0.000000e+00 0.000000e+00 0.000000e+00 6.810523e-01 3.189477e-01
 0.000000e+00 0.000000e+00 0.000000e+00 0.000000e+00 0.000000e+00
<ENDHMM>
~h "s"
<BEGINHMM>
<NUMSTATES> 5
<STATE> 2
<MEAN> 39
 -9.323313e+00 -1.163458e-01 9.716030e+00 -1.438077e+01 1.416648e+00 6.172687e+00 -9.829042e+00 -5.257623e+00 -4.820724e+00 -3.001789e+00 1.545899e+00 -1.643660e+00 7.683321e+01 -4.687314e+00 -3.180585e-01 1.415770e+00 -1.299352e+00 9.510132e-01 4.067667e-01 1.441741e+00 1.952314e-01 2.369463e+00 -2.476548e-01 -1.770999e-01 9.575814e-01 1.769359e+00 -3.570389e-02 1.475392e-01 -3.277130e-01 1.344811e-02 -2.432599e-01 -1.732815e-01 -2.321342e-01 5.857437e-01 -1.923944e-01 1.993048e-01 1.323345e-01 -1.574886e-01 -1.040704e-01
<VARIANCE> 39
 7.670663e+01 2.560626e+01 5.766633e+01 3.707772e+01 2.761784e+01 1.957238e+01 5.921120e+01 5.674432e+01 3.528355e+01 2.268480e+01 2.791785e+01 3.037758e+01 1.426788e+01 2.595448e+00 1.724137e+00 3.288623e+00 2.613183e+00 2.477698e+00 1.696326e+00 4.571055e+00 4.956018e+00 3.221087e+00 2.224391e+00 3.003687e+00 2.211343e+00 1.563553e+00 1.185401e+00 3.279189e-01 5.846552e-01 6.182202e-01 4.764628e-01 3.053430e-01 6.955366e-01 9.879047e-01 7.647704e-01 3.789088e-01 6.043239e-01 5.298916e-01 4.327266e-01
<GCONST> 1.224608e+02
<STATE> 3
<MEAN> 39
 -2.244492e+01 -4.288519e-01 1.065225e+01 -1.818820e+01 2.161442e+00 6.622396e+00 -6.759097e+00 1.022996e+00 -3.355994e-01 -2.612054e+00 2.117012e+00 -2.956430e-01 7.999236e+01 -3.267707e-02 -2.742787e-01 -4.626987e-01 1.187301e-02 -1.813700e-01 -2.406723e-01 3.497746e-01 1.877903e-01 -1.566997e-02 1.267369e-01 -4.311934e-02 7.345472e-02 -2.364943e-01 8.264330e-01 -8.476932e-02 -1.506527e-01 2.584139e-01 -1.034049e-01 -1.513361e-01 -4.926603e-02 -2.764388e-01 -2.728438e-01 -5.183897e-02 -9.793802e-02 -1.320777e-02 -2.808785e-01
<VARIANCE> 39
 6.121905e+00 1.780189e+01 1.322022e+01 1.324330e+01 1.515629e+01 1.494858e+01 2.192654e+01 2.550793e+01 1.890979e+01 1.631329e+01 1.354708e+01 1.699245e+01 2.885079e+00 2.278548e+00 1.090778e+00 9.637188e-01 1.370550e+00 1.133808e+00 1.104480e+00 1.591024e+00 2.161988e+00 9.503400e-01 1.146365e+00 1.088485e+00 1.169607e+00 4.275037e-01 3.042260e-01 2.231931e-01 1.903076e-01 2.329662e-01 2.091753e-01 2.476979e-01 3.219271e-01 3.397563e-01 3.514762e-01 2.790021e-01 2.373683e-01 2.593489e-01 8.098735e-02
<GCONST> 8.903777e+01
<STATE> 4
<MEAN> 39
 -1.061707e+01 -9.195196e-01 7.778674e+00 -1.483347e+01 -2.111878e-01 2.149247e+00 -7.443316e+00 -4.016501e+00 -5.299914e+00 -4.132139e+00 -9.043096e-01 -6.191404e-01 7.582313e+01 3.703683e+00 6.489254e-01 -1.866085e-02 4.707287e-01 -1.043983e+00 -1.105282e+00 -1.274120e+00 -9.255799e-01 -2.244995e+00 -4.409657e-01 -3.029954e-01 -6.205736e-01 -8.765019e-01 -1.356624e-01 2.281319e-02 1.686418e-01 -1.339424e-01 -1.569111e-01 9.183118e-02 -3.083631e-01 2.867174e-01 -1.423244e-01 2.144254e-01 3.612266e-01 -2.642399e-01 2.078395e-01
<VARIANCE> 39
 5.347700e+01 3.086281e+01 1.585286e+01 2.507056e+01 2.252750e+01 2.972586e+01 6.397771e+01 3.809341e+01 4.951911e+01 2.412535e+01 2.503028e+01 2.131566e+01 8.714883e+00 2.067112e+00 4.064583e+00 2.427112e+00 2.576983e+00 1.961388e+00 1.702751e+00 4.023716e+00 3.544432e+00 3.302516e+00 3.066077e+00 3.202418e+00 1.784677e+00 8.681717e-01 7.488434e-01 8.644664e-01 2.853444e-01 4.914718e-01 3.566296e-01 4.723154e-01 9.699861e-01 6.093364e-01 9.543869e-01 4.594317e-01 4.435888e-01 3.064225e-01 8.716127e-02
<GCONST> 1.166823e+02
<TRANSP> 5
 0.000000e+00 1.000000e+00 0.000000e+00 0.000000e+00 0.000000e+00
 0.000000e+00 7.026918e-01 2.973082e-01 0.000000e+00 0.000000e+00
 0.000000e+00 0.000000e+00 8.610497e-01 1.389503e-01 0.000000e+00
 0.000000e+00 0.000000e+00 0.000000e+00 6.858857e-01 3.141142e-01
 0.000000e+00 0.000000e+00 0.000000e+00 0.000000e+00 0.000000e+00
<ENDHMM>
~h "t"
<BEGINHMM>
<NUMSTATES> 5
<STATE> 2
<MEAN> 39
 -6.683071e+00 -2.180154e+00 3.732905e+00 -1.107482e+01 9.674711e-02 3.667042e+00 -8.379883e+00 -6.099591e-01 -5.241068e+00 -4.124230e-01 2.441473e+00 -3.245752e+00 7.299404e+01 -1.259938e+00 -1.504332e+00 5.733247e-01 5.419883e-01 -1.599578e-01 -6.293897e-01 3.519001e-01 -7.207532e-01 5.946843e-01 1.167574e-02 5.395643e-02 -2.522077e-02 9.007004e-01 2.343358e-01 3.825723e-02 1.815875e-02 1.902817e-01 1.339084e-02 -9.259037e-02 -2.115435e-01 -2.729661e-01 -2.688090e-01 -1.030322e-02 -1.742719e-01 -8.578525e-02 3.723272e-02
<VARIANCE> 39
 6.758270e+01 3.665510e+01 5.491616e+01 5.139935e+01 2.886387e+01 3.457502e+01 4.760506e+01 3.373357e+01 4.231041e+01 2.611635e+01 1.774685e+01 1.457149e+01 3.129589e+01 6.260848e+00 3.732752e+00 7.668637e+00 6.967057e+00 3.198572e+00 4.197725e+00 4.373145e+00 4.816584e+00 3.804210e+00 1.908522e+00 2.432215e+00 1.522870e+00 4.582238e+00 1.703191e+00 7.496795e-01 1.556359e+00 1.078771e+00 6.011516e-01 7.845740e-01 8.474513e-01 8.406860e-01 8.207294e-01 4.131266e-01 5.494866e-01 3.413512e-01 1.085256e+00
<GCONST> 1.323183e+02
<STATE> 3
<MEAN> 39
 -7.232694e+00 -8.009462e+00 7.196561e+00 -6.705189e+00 -7.595525e-01 -2.384956e+00 -1.081309e+01 -6.102417e+00 -7.199657e+00 -1.242850e+00 1.498169e+00 -3.819201e+00 7.667165e+01 2.433903e+00 8.901553e-01 -2.566946e-01 6.900898e-01 4.211486e-01 -4.347116e-01 -1.901843e+00 -1.227877e+00 -1.980382e+00 1.625776e-02 -4.508877e-01 -5.079294e-01 -4.478647e-01 4.652307e-01 6.886709e-01 -3.350550e-01 -3.394158e-01 1.778191e-02 5.630243e-01 2.576558e-02 3.890270e-01 -1.672401e-01 1.691049e-01 8.042155e-02 -3.244601e-02 -3.816160e-01
<VARIANCE> 39
 4.343785e+01 2.891763e+01 1.927589e+01 3.883575e+01 2.024348e+01 3.677897e+01 7.525806e+01 3.404160e+01 4.779948e+01 2.242400e+01 2.385758e+01 2.158729e+01 8.050166e+00 4.295145e+00 3.455362e+00 2.793508e+00 2.103426e+00 2.838659e+00 2.475172e+00 5.163690e+00 4.566559e+00 4.199226e+00 2.145603e+00 2.289358e+00 2.403491e+00 1.464970e+00 1.065330e+00 6.923467e-01 5.036543e-01 4.786364e-01 5.667127e-01 4.131838e-01 1.179868e+00 7.705712e-01 1.181018e+00 4.141820e-01 5.707074e-01 4.066900e-01 3.085285e-01
<GCONST> 1.224375e+02
<STATE> 4
<MEAN> 39
 8.838177e-01 -1.156823e+00 4.222178e+00 -5.925854e+00 9.075505e-01 4.696410e-01 -1.424397e+01 -6.022895e+00 -1.138953e+01 5.119585e-01 1.220722e+00 -4.311823e+00 7.264021e+01 9.542578e-01 9.317815e-01 -9.956008e-01 4.168296e-01 4.547901e-02 1.215296e+00 6.321585e-01 8.997217e-01 -6.163571e-02 2.510734e-01 -3.355431e-01 -4.969918e-02 -8.676307e-01 -3.898323e-01 -1.528490e-01 -8.289028e-02 1.484742e-02 -1.552481e-01 1.314337e-01 4.482484e-01 3.925215e-01 4.760952e-01 -1.343909e-01 -3.112311e-02 5.967182e-02 2.518036e-02
<VARIANCE> 39
 1.716688e+01 2.783851e+01 3.043538e+01 4.194890e+01 2.501108e+01 4.883819e+01 6.138513e+01 4.162945e+01 4.315681e+01 2.790250e+01 1.958180e+01 1.934225e+01 1.172200e+01 1.560818e+00 1.355381e+00 1.501897e+00 1.994597e+00 2.512899e+00 2.338564e+00 4.193572e+00 2.691760e+00 3.785406e+00 3.038470e+00 2.308743e+00 1.409981e+00 9.096537e-01 2.790639e-01 2.100497e-01 2.995500e-01 2.984270e-01 2.649760e-01 4.025986e-01 9.207752e-01 6.471874e-01 4.964792e-01 3.872041e-01 4.217434e-01 2.464976e-01 1.869033e-01
<GCONST> 1.114167e+02
<TRANSP> 5
 0.000000e+00 1.000000e+00 0.000000e+00 0.000000e+00 0.000000e+00
 0.000000e+00 6.930422e-01 3.069578e-01 0.000000e+00 0.000000e+00
 0.000000e+00 0.000000e+00 5.816329e-01 4.183671e-01 0.000000e+00
 0.000000e+00 0.000000e+00 0.000000e+00 6.089479e-01 3.910521e-01
 0.000000e+00 0.000000e+00 0.000000e+00 0.000000e+00 0.000000e+00
<ENDHMM>
~h "v"
<BEGINHMM>
<NUMSTATES> 5
<STATE> 2
<MEAN> 39
 1.568964e+00 -9.357321e-01 4.176748e+00 -9.585583e+00 -1.203093e+00 -7.614815e-01 -1.448326e+01 -6.142281e+00 -1.472169e+01 1.373344e+00 7.207883e+00 -3.383860e+00 7.463885e+01 -1.469464e+00 -2.650943e-01 1.477966e+00 -2.876363e-01 7.402632e-02 3.595832e-01 -6.699477e-02 -1.588313e+00 6.535305e-02 -8.142239e-01 -4.238138e-01 1.929872e-01 7.286043e-01 -2.651833e-01 7.439626e-02 -1.221434e-01 1.116597e-01 1.266160e-01 1.711328e-01 6.012728e-01 -2.093936e-02 6.415626e-01 -4.261995e-01 -4.803741e-01 -1.181835e-01 5.602695e-02
<VARIANCE> 39
 2.151778e+01 3.580535e+01 1.285124e+01 1.821202e+01 3.107438e+01 3.172772e+01 6.448973e+01 2.217584e+01 1.028587e+02 1.427782e+01 3.790956e+01 2.482139e+01 5.736943e+00 3.180564e+00 4.655241e+00 8.366447e+00 5.453846e+00 7.511360e-01 2.086012e+00 9.265746e+00 7.772239e+00 9.078405e+00 4.522199e+00 5.721558e+00 1.391987e+00 5.501977e+00 7.688952e-01 3.499866e-01 2.300590e-01 5.003435e-02 3.372428e-01 3.949364e-01 2.075132e+00 3.968739e-01 2.961063e+00 3.244593e-01 5.248799e-01 2.314935e-01 8.332901e-02
<GCONST> 1.199412e+02
<STATE> 3
<MEAN> 39
 -3.266369e+00 5.135994e-01 2.769041e+00 -8.138098e+00 -5.799231e-01 1.197537e+00 -8.363404e+00 -6.949040e+00 -8.612315e+00 -1.755104e+00 2.474631e+00 -3.031188e+00 7.510685e+01 -1.954811e+00 -3.770425e-01 9.208497e-01 -2.599926e-01 -3.493216e-01 7.246164e-01 9.419573e-01 -1.010493e+00 1.284037e+00 -6.585865e-01 -8.215700e-01 -4.461737e-02 6.174576e-01 7.659276e-01 8.802442e-02 -5.021617e-01 8.569148e-03 2.679887e-02 2.216297e-02 -3.118505e-01 5.249031e-01 -4.487985e-01 7.565015e-02 1.368484e-01 -1.509885e-01 -4.480714e-01
<VARIANCE> 39
 3.496204e+01 3.674014e+01 2.517548e+01 2.862131e+01 2.585200e+01 5.286460e+01 1.113002e+02 2.574929e+01 1.055120e+02 1.816457e+01 3.723427e+01 2.781520e+01 1.032532e+01 3.384398e+00 2.920925e+00 6.031240e+00 2.666500e+00 1.061358e+00 1.901511e+00 1.784041e+01 8.487924e+00 1.629836e+01 4.806758e+00 4.861166e+00 8.879651e-01 3.018660e+00 1.087384e+00 5.695835e-01 5.773485e-01 5.458592e-01 3.425625e-01 5.808321e-01 2.166416e+00 3.298294e-01 2.294584e+00 6.432501e-01 6.945502e-01 1.669111e-01 2.479768e-01
<GCONST> 1.284069e+02
<STATE> 4
<MEAN> 39
 -5.951315e+00 -4.588047e+00 6.061034e+00 -1.253100e+01 -3.388312e+00 9.809724e-01 -1.471810e+01 -1.141232e+01 -1.092303e+01 1.426433e-01 2.088988e+00 -3.793669e+00 7.557684e+01 -2.843573e-01 4.261754e-01 8.437511e-02 -1.405626e-01 8.806486e-01 1.387772e+00 2.205643e-01 6.808407e-01 9.039019e-01 -6.257717e-01 -7.135501e-01 -2.785993e-02 -5.643664e-01 4.724778e-01 3.083174e-01 -6.525838e-01 2.411950e-01 6.445582e-03 -3.171808e-02 3.371235e-01 5.859527e-01 1.007953e-01 -9.346561e-02 -1.899885e-01 1.036074e-02 -5.131681e-01
<VARIANCE> 39
 6.072969e+01 2.992403e+01 3.257261e+01 3.187809e+01 2.178768e+01 6.355551e+01 5.753507e+01 4.862456e+01 9.391471e+01 2.254362e+01 3.338812e+01 1.514833e+01 2.114589e+01 5.665670e+00 2.273503e+00 6.144200e+00 2.931234e+00 2.215472e+00 3.515589e+00 6.661045e+00 5.891435e+00 1.085048e+01 2.788354e+00 3.310798e+00 8.496060e-01 3.856142e+00 1.444791e+00 6.497260e-01 1.372677e+00 5.895357e-01 3.373617e-01 9.294081e-01 9.554565e-01 1.269410e+00 2.186789e+00 6.279178e-01 7.715902e-01 8.358326e-02 9.556803e-01
<GCONST> 1.314844e+02
<TRANSP> 5
 0.000000e+00 1.000000e+00 0.000000e+00 0.000000e+00 0.000000e+00
 0.000000e+00 1.844279e-01 8.155720e-01 0.000000e+00 0.000000e+00
 0.000000e+00 0.000000e+00 3.085434e-01 6.914566e-01 0.000000e+00
 0.000000e+00 0.000000e+00 0.000000e+00 6.233491e-01 3.766510e-01
 0.000000e+00 0.000000e+00 0.000000e+00 0.000000e+00 0.000000e+00
<ENDHMM>
~h "w"
<BEGINHMM>
<NUMSTATES> 5
<STATE> 2
<MEAN> 39
 -2.365292e+00 2.117699e-01 -9.700713e+00 -6.871994e+00 -4.895429e+00 -4.805505e+00 -8.096780e-01 -4.437127e-02 -1.488479e+01 -3.799758e+00 7.077754e+00 -4.172485e+00 7.196598e+01 -1.371222e+00 -1.695558e+00 1.381755e+00 -1.027119e+00 4.254074e-01 -7.543253e-01 4.781086e-01 -4.276977e-01 -5.470297e-01 -6.629825e-01 5.017825e-01 1.014291e+00 1.557480e+00 4.246620e-01 -6.950290e-02 4.214677e-01 3.080853e-01 2.695574e-01 1.110471e+00 -6.334593e-01 -5.888753e-02 4.717107e-01 2.693902e-01 -8.687826e-01 5.951159e-02 -5.548583e-01
<VARIANCE> 39
 1.017172e+01 2.234762e+01 2.765124e+01 2.687586e+01 2.267302e+01 3.710857e+01 4.715837e+01 3.250386e+01 3.549882e+01 2.290239e+01 1.463659e+01 2.742932e+01 1.064081e+01 8.597587e-01 9.023555e-01 1.854071e+00 2.607126e+00 1.027442e+00 5.726839e+00 4.191616e+00 2.242289e+00 3.493954e+00 1.477869e+00 3.547556e+00 2.968502e+00 1.611273e+00 1.971918e-01 4.267415e-01 4.400570e-01 4.430651e-01 2.670256e-01 7.362068e-01 8.211831e-01 5.648970e-01 5.093967e-01 4.561929e-01 4.609720e-01 6.592849e-01 2.204985e-01
<GCONST> 1.119854e+02
<STATE> 3
<MEAN> 39
 -1.137318e+00 -2.719552e+00 -3.547685e+00 -6.607053e+00 -2.168141e+00 1.097673e+00 -4.612334e+00 -2.106072e+00 -1.453757e+01 -4.247090e+00 6.899937e-01 -3.521255e+00 7.150576e+01 1.645788e+00 1.056311e+00 1.202483e+00 8.181097e-02 2.216068e-01 3.653170e-02 -1.938797e+00 -1.415615e+00 -2.251066e+00 -2.148524e-02 -7.443084e-01 -1.426021e+00 3.611035e-02 3.031531e-01 4.534487e-01 -1.364047e-01 -1.079582e-01 -6.951181e-02 -3.815300e-01 -2.557456e-01 -3.210258e-01 -6.476593e-01 2.793139e-01 5.668473e-01 -3.780358e-01 8.478501e-02
<VARIANCE> 39
 2.058688e+01 2.709357e+01 1.302314e+01 1.929654e+01 1.140171e+01 2.163561e+01 4.159737e+01 3.146338e+01 5.718731e+01 1.289103e+01 2.659316e+01 3.370044e+01 4.461256e+00 1.731674e+00 3.894270e+00 1.202599e+00 2.055496e+00 9.737778e-01 3.810749e+00 3.078583e+00 2.544815e+00 6.969375e+00 1.702305e+00 3.684519e+00 3.646811e+00 6.549640e-01 5.710744e-01 1.063402e+00 3.220196e-01 2.735015e-01 1.657627e-01 6.983442e-01 5.635271e-01 4.044590e-01 1.107047e+00 3.708127e-01 7.243655e-01 7.961513e-01 2.038192e-01
<GCONST> 1.123463e+02
<STATE> 4
<MEAN> 39
 4.255314e+00 1.593428e+00 1.345897e+00 -4.627044e+00 -2.950207e+00 -7.207655e-01 -1.362317e+01 -6.768521e+00 -2.095770e+01 -1.154535e+00 6.276837e+00 -1.005954e+01 7.243329e+01 -7.049819e-02 -2.443554e-02 8.551402e-02 2.242060e-01 -2.316341e-01 2.766628e-01 -1.573812e-01 6.250709e-01 7.678890e-01 2.659137e-01 3.138683e-01 -2.974301e-01 -2.375268e-01 -1.637449e-01 -1.282561e-01 -1.339802e-01 1.588472e-02 -3.582422e-02 5.153612e-02 3.298612e-01 3.924953e-01 3.721548e-01 -1.252545e-01 -1.425917e-01 2.335544e-01 -8.082399e-02
<VARIANCE> 39
 7.691597e+00 2.750336e+01 3.204147e+01 2.042536e+01 3.409979e+01 2.705702e+01 3.073813e+01 5.265631e+01 3.336354e+01 2.429200e+01 2.780730e+01 3.702444e+01 1.531656e+01 5.535001e-01 2.121214e+00 4.539210e+00 2.486865e+00 2.150397e+00 2.433248e+00 4.401849e+00 6.502365e+00 4.098733e+00 3.154888e+00 3.122454e+00 3.940946e+00 1.881588e+00 1.690137e-01 4.690271e-01 5.314326e-01 4.042483e-01 4.269613e-01 4.210464e-01 5.340053e-01 1.138836e+00 8.109593e-01 6.006695e-01 4.508028e-01 8.645172e-01 2.166280e-01
<GCONST> 1.179132e+02
<TRANSP> 5
 0.000000e+00 1.000000e+00 0.000000e+00 0.000000e+00 0.000000e+00
 0.000000e+00 6.101599e-01 3.898402e-01 0.000000e+00 0.000000e+00
 0.000000e+00 0.000000e+00 7.284438e-01 2.715562e-01 0.000000e+00
 0.000000e+00 0.000000e+00 0.000000e+00 8.616787e-01 1.383213e-01
 0.000000e+00 0.000000e+00 0.000000e+00 0.000000e+00 0.000000e+00
<ENDHMM>
~h "y"
<BEGINHMM>
<NUMSTATES> 5
<STATE> 2
<MEAN> 39
 -2.915985e+00 -1.202419e+00 8.182721e+00 -1.456594e+00 -1.570489e+00 2.804324e+00 -7.315853e+00 1.430090e-01 -6.117290e+00 -2.110437e+00 -3.478179e+00 -6.935784e+00 7.288832e+01 -1.351496e+00 -1.229805e+00 1.852910e+00 -4.919296e-01 -2.278832e-01 -5.337528e-01 -5.409909e-01 -7.183359e-01 3.807545e-01 -7.781053e-01 -7.377780e-01 -8.662755e-02 1.059585e+00 3.359641e-01 7.295456e-02 1.186512e-01 1.320534e-01 1.255417e-01 -1.969655e-01 -6.235191e-01 2.678310e-02 -3.707049e-01 -3.742548e-02 -2.204650e-02 -1.771955e-01 1.285941e-02
<VARIANCE> 39
 4.902243e+01 4.706341e+01 8.074901e+01 3.271018e+01 4.078501e+01 1.957862e+01 6.247813e+01 3.800685e+01 2.465743e+01 1.844782e+01 3.441570e+01 1.439633e+01 2.559668e+01 6.664014e+00 3.103135e+00 1.149833e+01 2.021359e+00 2.464079e+00 2.448566e+00 1.043995e+01 4.196815e+00 4.020135e+00 1.751420e+00 2.720862e+00 1.862425e+00 3.293069e+00 1.586305e+00 7.942426e-01 2.610373e+00 5.987812e-01 5.628644e-01 3.852406e-01 2.017555e+00 8.689969e-01 6.791343e-01 3.790717e-01 5.251266e-01 3.803237e-01 8.219039e-01
<GCONST> 1.303887e+02
<STATE> 3
<MEAN> 39
 -4.539405e+00 -6.234422e+00 1.422270e+01 -1.574106e+00 -1.609011e+00 -2.365909e+00 -1.336123e+01 -2.144726e-01 -6.290384e+00 -5.769833e+00 -4.625947e+00 -7.853059e+00 7.594436e+01 2.400573e+00 1.122708e+00 8.313955e-02 9.645343e-01 -5.372874e-02 -5.156277e-01 -2.253645e+00 1.182443e-01 -1.973896e+00 -2.032341e-02 3.915024e-01 -2.610643e-01 -5.564967e-01 -1.924234e-02 1.455962e-01 -3.311727e-01 -1.752137e-01 -8.107794e-02 1.054192e-01 1.492654e-01 2.388430e-01 -1.454135e-01 4.869858e-01 4.393391e-01 8.994184e-02 -7.713403e-02
<VARIANCE> 39
 5.528976e+01 5.216238e+01 2.473059e+01 3.733078e+01 1.299516e+01 1.766054e+01 2.278426e+01 1.933472e+01 4.018026e+01 2.206505e+01 1.744870e+01 1.139837e+01 1.199796e+01 1.699337e+00 1.645951e+00 1.719877e+00 1.067413e+00 1.177976e+00 9.572542e-01 2.318965e+00 1.186746e+00 4.334570e+00 2.185080e+00 1.819844e+00 1.944010e+00 3.140882e-01 7.122397e-01 5.010183e-01 3.141956e-01 3.785998e-01 1.489311e-01 1.571057e-01 3.576034e-01 4.242315e-01 7.083822e-01 3.694392e-01 4.474273e-01 3.454343e-01 1.936954e-01
<GCONST> 1.040333e+02
<STATE> 4
<MEAN> 39
 2.309437e+00 -1.090189e+00 1.431930e+01 -2.944582e+00 -2.526949e-01 -1.100100e+00 -2.110194e+01 1.242885e+00 -1.452894e+01 -3.541306e+00 -1.693545e+00 -8.171152e+00 7.462710e+01 2.825277e-01 -2.508595e-01 -4.844145e-01 -7.553006e-01 2.125571e-01 -5.015261e-01 -1.630782e+00 -1.077176e-01 -4.639336e-01 1.947971e+00 9.727365e-01 3.850033e-02 3.045137e-01 -3.432410e-01 -2.125736e-01 -1.698187e-01 -3.612391e-01 1.865319e-01 -7.300970e-02 1.554292e-01 -4.863945e-01 5.407058e-01 2.417253e-01 5.872237e-02 2.735775e-01 1.326258e-01
<VARIANCE> 39
 2.613841e+00 2.397631e+01 4.101681e+01 3.261656e+01 1.389812e+01 1.933721e+01 3.260370e+01 1.300628e+01 1.128446e+01 2.696642e+01 1.301561e+01 2.272285e+01 9.112488e+00 1.175355e-01 9.316688e-01 6.235711e-01 4.941356e-01 7.809911e-01 8.704849e-01 1.252984e+00 2.034464e+00 1.526580e+00 1.193592e+00 7.721491e-01 1.236521e+00 3.363438e-01 8.902045e-02 1.902090e-01 1.667162e-01 1.024543e-01 7.551129e-02 1.379135e-01 2.185450e-01 2.396789e-01 2.315159e-01 2.809715e-01 1.271538e-01 1.791308e-01 4.711614e-02
<GCONST> 7.966776e+01
<TRANSP> 5
 0.000000e+00 1.000000e+00 0.000000e+00 0.000000e+00 0.000000e+00
 0.000000e+00 7.947330e-01 2.052670e-01 0.000000e+00 0.000000e+00
 0.000000e+00 0.000000e+00 6.750960e-01 3.249040e-01 0.000000e+00
 0.000000e+00 0.000000e+00 0.000000e+00 6.921754e-01 3.078246e-01
 0.000000e+00 0.000000e+00 0.000000e+00 0.000000e+00 0.000000e+00
<ENDHMM>
~h "z"
<BEGINHMM>
<NUMSTATES> 5
<STATE> 2
<MEAN> 39
 1.243263e+00 2.009342e+00 -3.600729e+00 -7.780252e+00 -2.124930e+00 2.943915e+00 -9.405266e+00 5.574683e-01 -8.480373e+00 -8.431195e-01 1.753790e+00 -3.834116e+00 6.933920e+01 6.608545e-03 -7.871487e-04 5.575932e-03 9.451325e-03 1.243685e-02 3.598967e-04 4.977515e-03 7.675061e-03 8.751670e-03 -1.601357e-04 -6.787761e-03 1.796699e-03 7.823239e-03 1.084905e-04 6.917859e-04 -1.452734e-03 -1.623669e-04 -1.531235e-03 -6.168764e-04 -1.016060e-04 5.717326e-04 -8.436721e-04 1.307740e-03 2.658077e-04 -1.178421e-04 -1.493792e-03
<VARIANCE> 39
 3.560448e+01 3.133138e+01 1.175854e+02 5.757076e+01 3.574751e+01 4.825400e+01 6.299704e+01 4.654386e+01 5.944289e+01 3.514179e+01 3.786765e+01 3.343571e+01 4.679148e+01 1.818672e+00 1.507933e+00 2.670334e+00 2.176207e+00 1.716306e+00 2.419825e+00 3.138164e+00 2.909526e+00 2.711722e+00 1.967625e+00 2.125080e+00 1.650968e+00 1.255564e+00 2.970746e-01 2.534214e-01 4.172046e-01 3.324886e-01 2.983715e-01 4.159752e-01 5.145366e-01 5.176500e-01 4.586368e-01 3.470287e-01 3.812441e-01 2.994810e-01 2.048787e-01
<GCONST> 1.175816e+02
<STATE> 3
<MEAN> 39
 1.243263e+00 2.009342e+00 -3.600729e+00 -7.780252e+00 -2.124930e+00 2.943915e+00 -9.405266e+00 5.574683e-01 -8.480373e+00 -8.431195e-01 1.753790e+00 -3.834116e+00 6.933920e+01 6.608545e-03 -7.871487e-04 5.575932e-03 9.451325e-03 1.243685e-02 3.598967e-04 4.977515e-03 7.675061e-03 8.751670e-03 -1.601357e-04 -6.787761e-03 1.796699e-03 7.823239e-03 1.084905e-04 6.917859e-04 -1.452734e-03 -1.623669e-04 -1.531235e-03 -6.168764e-04 -1.016060e-04 5.717326e-04 -8.436721e-04 1.307740e-03 2.658077e-04 -1.178421e-04 -1.493792e-03
<VARIANCE> 39
 3.560448e+01 3.133138e+01 1.175854e+02 5.757076e+01 3.574751e+01 4.825400e+01 6.299704e+01 4.654386e+01 5.944289e+01 3.514179e+01 3.786765e+01 3.343571e+01 4.679148e+01 1.818672e+00 1.507933e+00 2.670334e+00 2.176207e+00 1.716306e+00 2.419825e+00 3.138164e+00 2.909526e+00 2.711722e+00 1.967625e+00 2.125080e+00 1.650968e+00 1.255564e+00 2.970746e-01 2.534214e-01 4.172046e-01 3.324886e-01 2.983715e-01 4.159752e-01 5.145366e-01 5.176500e-01 4.586368e-01 3.470287e-01 3.812441e-01 2.994810e-01 2.048787e-01
<GCONST> 1.175816e+02
<STATE> 4
<MEAN> 39
 1.243263e+00 2.009342e+00 -3.600729e+00 -7.780252e+00 -2.124930e+00 2.943915e+00 -9.405266e+00 5.574683e-01 -8.480373e+00 -8.431195e-01 1.753790e+00 -3.834116e+00 6.933920e+01 6.608545e-03 -7.871487e-04 5.575932e-03 9.451325e-03 1.243685e-02 3.598967e-04 4.977515e-03 7.675061e-03 8.751670e-03 -1.601357e-04 -6.787761e-03 1.796699e-03 7.823239e-03 1.084905e-04 6.917859e-04 -1.452734e-03 -1.623669e-04 -1.531235e-03 -6.168764e-04 -1.016060e-04 5.717326e-04 -8.436721e-04 1.307740e-03 2.658077e-04 -1.178421e-04 -1.493792e-03
<VARIANCE> 39
 3.560448e+01 3.133138e+01 1.175854e+02 5.757076e+01 3.574751e+01 4.825400e+01 6.299704e+01 4.654386e+01 5.944289e+01 3.514179e+01 3.786765e+01 3.343571e+01 4.679148e+01 1.818672e+00 1.507933e+00 2.670334e+00 2.176207e+00 1.716306e+00 2.419825e+00 3.138164e+00 2.909526e+00 2.711722e+00 1.967625e+00 2.125080e+00 1.650968e+00 1.255564e+00 2.970746e-01 2.534214e-01 4.172046e-01 3.324886e-01 2.983715e-01 4.159752e-01 5.145366e-01 5.176500e-01 4.586368e-01 3.470287e-01 3.812441e-01 2.994810e-01 2.048787e-01
<GCONST> 1.175816e+02
<TRANSP> 5
 0.000000e+00 1.000000e+00 0.000000e+00 0.000000e+00 0.000000e+00
 0.000000e+00 6.000000e-01 4.000000e-01 0.000000e+00 0.000000e+00
 0.000000e+00 0.000000e+00 6.000000e-01 4.000000e-01 0.000000e+00
 0.000000e+00 0.000000e+00 0.000000e+00 7.000000e-01 3.000000e-01
 0.000000e+00 0.000000e+00 0.000000e+00 0.000000e+00 0.000000e+00
<ENDHMM>
~h "aa"
<BEGINHMM>
<NUMSTATES> 5
<STATE> 2
<MEAN> 39
 2.255512e+00 1.886029e+00 8.360962e+00 -1.827565e+01 -6.271935e+00 -4.421309e+00 -9.851260e+00 1.157356e+01 -1.053550e+01 8.759526e-01 5.243015e+00 -7.599822e+00 7.555947e+01 1.812999e-01 2.977918e-01 1.952673e-01 -1.642914e-01 -4.213550e-01 1.813572e-01 1.323489e-01 6.883420e-01 4.372690e-02 2.538253e-01 5.994858e-01 1.047434e-01 -2.421716e-01 -7.737446e-02 -1.017274e-01 -1.040818e-01 3.505694e-01 2.304286e-01 3.937692e-01 1.657065e-01 -3.098770e-01 6.235877e-02 -1.347052e-01 -1.183548e-01 1.359476e-01 -1.017136e-01
<VARIANCE> 39
 2.890271e+00 1.522741e+01 2.040199e+01 1.269650e+01 2.529287e+01 1.161859e+01 6.458144e+01 1.018992e+02 1.314109e+01 3.734036e+01 1.634839e+01 2.181753e+01 4.493541e+00 1.156149e-01 6.157135e-01 1.205292e+00 1.944756e+00 1.257539e+00 1.284835e+00 2.425876e+00 4.511014e+00 1.043282e+00 2.279552e+00 8.033795e-01 1.290003e+00 1.579902e-01 3.744651e-02 2.127688e-01 6.909300e-02 1.715548e-01 1.507641e-01 1.456470e-01 3.668464e-01 2.264699e-01 1.724532e-01 5.500888e-01 1.830752e-01 2.598819e-01 1.084048e-02
<GCONST> 8.370844e+01
<STATE> 3
<MEAN> 39
 3.364072e+00 3.798616e+00 3.261884e+00 -2.138877e+01 9.531013e-01 4.537839e+00 -1.424547e+01 4.154193e+00 -1.261908e+01 -1.725252e+00 1.087316e+01 -2.973612e+00 7.399014e+01 3.814565e-04 2.887385e-01 2.720548e-02 1.311856e-01 3.473030e-01 8.851486e-01 1.085179e-01 1.716173e-02 -3.767966e-01 -5.715130e-01 -8.272776e-02 4.099547e-01 -3.367620e-01 -4.384528e-02 1.443202e-02 2.053390e-02 1.666760e-01 7.264647e-03 4.275318e-02 -1.748419e-02 -4.733492e-02 4.456808e-02 1.263641e-02 -1.079980e-01 -5.040677e-02 -4.972343e-02
<VARIANCE> 39
 4.471116e+00 2.434334e+01 3.016636e+01 2.849926e+01 3.397655e+01 2.398148e+01 2.163559e+01 2.359186e+01 4.230087e+01 2.340748e+01 1.615137e+01 3.724199e+01 8.163275e+00 7.194369e-02 4.749578e-01 5.762064e-01 1.735662e+00 8.263459e-01 1.280518e+00 1.083127e+00 1.178256e+00 1.800735e+00 1.000648e+00 1.009803e+00 1.043693e+00 1.653811e-01 3.865968e-02 7.799015e-02 8.928955e-02 9.988234e-02 1.675456e-01 1.643029e-01 2.102969e-01 1.546570e-01 2.635033e-01 1.889884e-01 1.609938e-01 1.659169e-01 1.670965e-02
<GCONST> 7.896856e+01
<STATE> 4
<MEAN> 39
 -3.368180e+00 9.450299e-01 3.475511e+00 -1.210942e+01 -3.372838e-01 7.264123e+00 -7.863143e+00 3.617768e+00 -8.796213e+00 -1.401183e+00 4.515329e+00 -3.979510e+00 7.159274e+01 -1.087522e+00 1.534774e-02 -1.431395e-01 1.098142e+00 5.570878e-01 9.886799e-01 5.167342e-01 -2.588711e-01 9.996988e-01 -1.069168e-01 -4.638672e-01 2.085543e-01 -4.193025e-01 -2.675077e-01 -9.459684e-02 -9.317467e-02 -1.981414e-01 -4.094725e-02 -1.467888e-01 1.445651e-01 1.576064e-02 3.054904e-01 3.194651e-02 -2.924801e-02 1.970236e-01 1.647537e-01
<VARIANCE> 39
 8.085051e+01 2.051386e+01 5.227123e+01 3.875246e+01 5.039724e+01 1.705395e+01 3.639217e+01 1.720312e+01 4.575256e+01 1.049849e+01 1.744858e+01 1.324261e+01 1.991763e+01 5.491876e+00 1.295543e+00 3.732543e+00 4.473926e+00 3.116266e+00 1.459471e+00 2.527341e+00 1.633654e+00 2.302803e+00 2.118168e+00 1.330254e+00 1.507543e+00 2.273101e+00 1.159419e+00 1.377938e-01 5.471159e-01 5.336102e-01 5.034568e-01 2.362153e-01 5.192748e-01 3.519714e-01 5.896701e-01 3.199081e-01 2.222907e-01 2.700906e-01 3.688837e-01
<GCONST> 1.129490e+02
<TRANSP> 5
 0.000000e+00 1.000000e+00 0.000000e+00 0.000000e+00 0.000000e+00
 0.000000e+00 7.731549e-01 2.268452e-01 0.000000e+00 0.000000e+00
 0.000000e+00 0.000000e+00 8.758639e-01 1.241360e-01 0.000000e+00
 0.000000e+00 0.000000e+00 0.000000e+00 6.500757e-01 3.499243e-01
 0.000000e+00 0.000000e+00 0.000000e+00 0.000000e+00 0.000000e+00
<ENDHMM>
~h "ae"
<BEGINHMM>
<NUMSTATES> 5
<STATE> 2
<MEAN> 39
 1.997821e+00 4.273619e+00 -3.362004e+00 -8.289864e+00 -9.173688e-01 1.137621e+01 -8.561692e+00 -1.025860e+00 -6.255220e+00 -6.134770e-01 -3.981942e-02 -3.268595e+00 6.781684e+01 1.011821e-01 -6.575915e-02 1.899822e-01 -3.830902e-01 -1.949851e-01 -5.139911e-01 5.252043e-02 -5.737866e-03 -3.739197e-01 6.101575e-01 1.399151e-01 -9.012537e-02 2.269383e-01 -1.313938e-01 -1.699701e-01 2.026511e-01 -1.130005e-02 6.219816e-02 -2.050972e-01 2.071829e-01 1.747674e-01 -1.522542e-01 5.639255e-02 8.491481e-02 -5.156599e-02 1.120068e-01
<VARIANCE> 39
 1.648053e+01 2.911927e+01 7.349675e+01 3.880639e+01 1.183434e+01 6.144679e+01 4.143914e+01 2.345355e+01 3.799613e+01 1.380589e+01 2.248988e+01 2.244731e+01 3.522181e+01 1.865333e+00 1.475801e+00 5.538499e+00 4.223011e+00 1.634000e+00 2.762673e+00 2.006030e+00 1.826390e+00 3.819336e+00 1.744901e+00 2.696750e+00 1.422428e+00 1.086075e+00 4.480223e-01 3.137800e-01 9.049475e-01 8.243137e-01 2.327348e-01 4.954177e-01 8.697632e-01 6.703025e-01 8.075539e-01 3.132743e-01 5.971541e-01 3.904861e-01 2.280457e-01
<GCONST> 1.163545e+02
<STATE> 3
<MEAN> 39
 1.313672e+00 -3.357572e+00 3.450266e+00 -1.486028e+01 -2.325070e+00 9.816607e-02 -1.212236e+01 -9.645151e-01 -1.473022e+01 4.125021e+00 5.096879e+00 -7.252376e+00 7.654990e+01 6.406658e-02 -4.218956e-01 2.290851e-01 -3.049291e-01 -3.642268e-01 -9.228383e-01 1.747411e-01 7.135476e-01 -1.669084e-01 6.959558e-01 1.133156e+00 1.029941e-02 2.436486e-01 -2.835552e-02 2.329210e-01 -5.112524e-01 5.742369e-01 1.651410e-01 5.107352e-01 3.409859e-01 1.136063e-01 7.367923e-01 -4.244666e-01 -4.544827e-01 3.942110e-02 -3.875773e-01
<VARIANCE> 39
 2.327948e+00 7.083836e+01 5.609613e+01 2.008236e+01 2.336661e+01 3.406204e+01 4.868346e+01 4.804725e+01 2.016841e+01 3.478408e+01 2.959927e+01 3.045573e+01 2.109367e+01 7.438047e-01 2.341106e+00 2.862320e+00 5.480421e+00 1.313778e+00 2.828613e+00 2.518385e+00 2.698559e+00 3.435041e+00 1.585809e+00 3.710272e+00 2.305041e+00 2.929790e+00 1.462668e-01 3.287652e-01 4.078621e-01 4.590604e-01 3.280283e-01 3.733741e-01 5.751050e-01 8.145793e-01 3.598714e-01 2.658404e-01 6.367213e-01 4.854067e-01 2.234787e-01
<GCONST> 1.135178e+02
<STATE> 4
<MEAN> 39
 1.045939e+00 -1.194211e+00 2.733984e+00 -1.490190e+01 9.187425e-01 6.204329e-01 -1.122133e+01 3.276206e-01 -9.299992e+00 4.606060e+00 6.964744e+00 -8.406440e+00 7.675764e+01 6.715912e-02 1.054490e-01 -1.287858e-01 4.439258e-01 1.511646e-01 2.319455e-01 9.359933e-03 3.179841e-02 2.087903e-01 8.874182e-02 -3.987534e-01 -7.859736e-02 -3.322032e-01 -1.666072e-02 3.470185e-02 3.475805e-02 1.528016e-01 1.641768e-02 1.366060e-01 6.690841e-02 3.690706e-04 -1.009559e-01 -1.055489e-01 -8.867783e-02 -1.205479e-02 -1.174099e-01
<VARIANCE> 39
 1.693181e+00 1.366839e+01 1.560935e+01 1.736280e+01 2.366614e+01 1.320852e+01 2.020464e+01 4.913210e+01 1.614819e+01 3.221210e+01 1.040696e+01 1.473998e+01 3.964448e+00 1.025424e-01 6.395120e-01 1.724412e+00 1.671617e+00 7.559078e-01 1.527464e+00 2.022215e+00 3.231505e+00 1.791714e+00 1.944136e+00 1.084534e+00 1.069372e+00 7.758020e-01 2.605743e-02 1.058599e-01 1.792979e-01 1.334316e-01 1.448717e-01 2.161315e-01 2.514997e-01 3.185434e-01 3.140255e-01 2.790417e-01 1.614613e-01 1.112936e-01 6.716088e-02
<GCONST> 8.245997e+01
<TRANSP> 5
 0.000000e+00 1.000000e+00 0.000000e+00 0.000000e+00 0.000000e+00
 0.000000e+00 7.223628e-01 2.776372e-01 0.000000e+00 0.000000e+00
 0.000000e+00 0.000000e+00 6.628506e-01 3.371494e-01 0.000000e+00
 0.000000e+00 0.000000e+00 0.000000e+00 8.003334e-01 1.996666e-01
 0.000000e+00 0.000000e+00 0.000000e+00 0.000000e+00 0.000000e+00
<ENDHMM>
~h "ah"
<BEGINHMM>
<NUMSTATES> 5
<STATE> 2
<MEAN> 39
 3.576235e+00 4.103171e+00 -8.697155e+00 -2.704233e+00 -3.230967e+00 5.309939e+00 -5.633378e+00 1.205476e+00 -7.326606e+00 -5.300148e-01 -5.477533e-01 -3.910765e+00 6.549471e+01 1.216629e-01 3.422549e-01 -1.103506e+00 4.284483e-01 -2.564653e-01 4.028251e-01 2.563034e-01 5.577862e-01 8.792841e-01 5.190348e-01 -1.988000e-01 2.419819e-01 -7.463362e-01 -2.390924e-01 -3.926992e-01 6.812365e-01 -5.429897e-01 -8.879256e-03 -2.929470e-01 -3.856154e-01 -1.826115e-01 -3.497624e-01 1.192996e-02 5.894921e-01 -6.346685e-02 4.994404e-01
<VARIANCE> 39
 6.994354e+00 1.189229e+01 4.942424e+01 1.934858e+01 1.430831e+01 4.669444e+01 1.955188e+01 1.866814e+01 3.588937e+01 2.276227e+01 2.133639e+01 2.564517e+01 1.923656e+01 4.879815e-01 5.028969e-01 2.991410e+00 1.541071e+00 1.241063e+00 1.589101e+00 1.999425e+00 2.588257e+00 2.317010e+00 1.539322e+00 2.373712e+00 1.743690e+00 8.945871e-01 1.896062e-01 1.907950e-01 4.281802e-01 2.112957e-01 2.478891e-01 6.123602e-01 2.055884e-01 8.843127e-01 5.881282e-01 3.700523e-01 3.427233e-01 5.060959e-01 1.635891e-01
<GCONST> 1.019605e+02
<STATE> 3
<MEAN> 39
 3.510734e+00 4.795214e+00 -1.211551e+01 -3.997139e+00 -3.504088e+00 5.640337e+00 -6.318137e+00 1.909727e+00 -5.842343e+00 1.014235e+00 1.144511e-01 -3.073903e+00 6.349281e+01 -9.279729e-01 -1.375323e+00 2.334960e+00 -1.388862e+00 -2.760576e-01 -2.999249e-01 -8.784744e-01 4.723951e-01 -1.086422e+00 1.293330e-01 1.875868e+00 -6.871908e-01 1.219055e+00 -3.425398e-01 -6.615073e-01 1.198759e+00 -5.375785e-01 1.509638e-01 -5.706482e-01 -6.044181e-01 -3.192561e-01 -5.525904e-01 -1.522973e-01 5.005135e-01 -8.401842e-02 9.393465e-01
<VARIANCE> 39
 4.889760e+00 9.750792e+00 2.567790e+01 2.271087e+01 1.709872e+01 3.323013e+01 2.760429e+01 1.879562e+01 2.403047e+01 1.967395e+01 2.695813e+01 2.059412e+01 1.361046e+01 7.807769e-01 2.166698e+00 4.644413e+00 1.719514e+00 1.520532e+00 2.157267e+00 2.470362e+00 2.973566e+00 4.509792e+00 2.268956e+00 2.945393e+00 3.814163e+00 1.005671e+00 2.398432e-01 2.315958e-01 3.359733e-01 3.790051e-01 2.515635e-01 4.628106e-01 5.178725e-01 7.204162e-01 4.779271e-01 4.239530e-01 5.511054e-01 3.741166e-01 1.558126e-01
<GCONST> 1.070062e+02
<STATE> 4
<MEAN> 39
 1.497436e+00 -9.475771e-01 -2.007794e+00 -8.727844e+00 -3.914125e+00 1.828410e+00 -1.195161e+01 3.200670e+00 -1.266886e+01 1.198650e+00 6.569791e+00 -6.320888e+00 6.982610e+01 -4.175597e-01 -1.033060e+00 3.154196e+00 -1.128406e+00 4.539120e-01 -1.452248e+00 -2.151892e+00 -1.287915e+00 -1.438860e+00 -7.124445e-01 1.353247e+00 -2.536905e-01 2.574617e+00 5.682429e-02 3.762693e-01 -2.136457e-01 2.166379e-01 3.431422e-01 5.138779e-02 1.049816e-01 -5.753902e-01 2.487675e-01 -2.853963e-01 -5.322612e-01 2.592904e-01 3.789762e-02
<VARIANCE> 39
 1.088302e+01 3.403434e+01 4.024052e+01 3.364370e+01 1.789538e+01 4.699660e+01 5.243333e+01 3.653658e+01 4.932205e+01 3.327339e+01 4.202829e+01 2.857849e+01 3.147710e+01 2.264580e+00 3.565533e+00 6.485935e+00 4.283827e+00 1.713000e+00 4.554835e+00 5.687131e+00 4.141366e+00 4.366241e+00 2.959955e+00 3.973315e+00 2.803720e+00 2.756523e+00 2.483755e-01 6.637563e-01 8.908947e-01 5.745000e-01 3.238457e-01 7.600640e-01 1.115513e+00 8.848737e-01 9.526651e-01 6.678926e-01 6.641320e-01 6.390785e-01 6.510748e-01
<GCONST> 1.280233e+02
<TRANSP> 5
 0.000000e+00 1.000000e+00 0.000000e+00 0.000000e+00 0.000000e+00
 0.000000e+00 5.279210e-01 4.720790e-01 0.000000e+00 0.000000e+00
 0.000000e+00 0.000000e+00 3.566698e-01 6.433302e-01 0.000000e+00
 0.000000e+00 0.000000e+00 0.000000e+00 5.020896e-01 4.979105e-01
 0.000000e+00 0.000000e+00 0.000000e+00 0.000000e+00 0.000000e+00
<ENDHMM>
~h "ao"
<BEGINHMM>
<NUMSTATES> 5
<STATE> 2
<MEAN> 39
 -1.798288e+00 2.420004e+00 4.908100e+00 -9.744280e+00 -4.130399e+00 -4.233468e-02 -1.310681e+01 -1.979810e+00 -9.826457e+00 -7.173859e+00 -2.068931e+00 -4.669118e+00 7.435085e+01 2.344384e+00 1.804381e-01 -1.453568e-01 -1.486061e+00 -1.974543e+00 -2.451472e+00 -1.507731e+00 8.652579e-01 -1.017255e+00 -8.567302e-01 1.499430e+00 -1.369602e+00 2.522639e-01 4.835975e-02 -2.823602e-02 -2.355268e-01 -5.659787e-01 -4.302507e-01 -4.416606e-01 3.567032e-01 3.923934e-01 -8.044121e-03 3.947007e-01 6.586033e-01 -5.104049e-01 1.983473e-01
<VARIANCE> 39
 6.820797e+01 2.321384e+01 2.956633e+01 1.647357e+01 1.952903e+01 7.807390e+01 4.921873e+01 4.375301e+01 1.986318e+01 1.139548e+01 2.921472e+01 2.898335e+01 1.179327e+01 7.151380e+00 1.347876e+00 1.331570e+00 1.688968e+00 3.534594e+00 3.523828e+00 3.024812e+00 8.788850e+00 4.106795e+00 1.005003e+00 2.416432e+00 3.170218e+00 6.054834e-01 4.130988e-01 1.532947e-01 1.289946e-01 5.162082e-01 5.134682e-01 7.578688e-01 4.961396e-01 6.480138e-01 2.914482e-01 4.598691e-01 4.606798e-01 4.679209e-01 1.172054e-01
<GCONST> 1.134638e+02
<STATE> 3
<MEAN> 39
 3.321378e+00 1.633026e+00 4.392864e+00 -1.619443e+01 -1.118403e+01 -6.663879e+00 -1.405283e+01 7.008911e-01 -1.262432e+01 -6.797904e+00 4.085352e+00 -7.705407e+00 7.637238e+01 1.489847e+00 -3.271354e-01 -9.365255e-01 -1.863896e+00 -1.916081e+00 -1.871613e+00 2.396580e-01 1.982404e+00 -6.369671e-01 7.661559e-02 2.145469e+00 -1.653597e+00 4.445149e-01 -7.552497e-01 -1.432974e-01 -5.047376e-02 3.006552e-01 6.341324e-01 7.744957e-01 7.046921e-01 4.820518e-02 2.860980e-01 3.248077e-01 -4.080959e-01 2.165438e-01 -6.660182e-02
<VARIANCE> 39
 7.602269e+00 1.177325e+01 1.712644e+01 1.282166e+01 1.634716e+01 2.290376e+01 1.879995e+01 1.261507e+02 2.063387e+01 3.845443e+01 1.637364e+01 6.180732e+01 5.065279e+00 4.009803e+00 1.210008e+00 5.972275e-01 2.014323e+00 2.435816e+00 3.573102e+00 3.497844e+00 7.502745e+00 2.633162e+00 3.705176e+00 2.886059e+00 2.541271e+00 6.327413e-01 3.374606e-01 1.561694e-01 1.525010e-01 2.272797e-01 3.112598e-01 2.477996e-01 2.475468e-01 1.296367e+00 5.835378e-01 3.158158e-01 5.428680e-01 5.886315e-01 5.282849e-02
<GCONST> 1.057096e+02
<STATE> 4
<MEAN> 39
 4.762345e+00 8.235759e-01 1.469549e+00 -1.720823e+01 -1.120466e+01 -7.068618e+00 -1.204037e+01 5.511372e+00 -1.617582e+01 -3.683820e+00 6.077641e+00 -1.128963e+01 7.587008e+01 4.423524e-02 -1.369345e-01 -1.134413e-01 3.585148e-01 2.362911e-01 2.859976e-01 -1.512540e-01 -5.576391e-01 -5.000840e-01 4.405416e-01 8.916805e-04 -2.551642e-03 -1.409733e-01 -2.771489e-02 2.420567e-02 8.455284e-02 2.228155e-01 5.005152e-02 1.091014e-01 -9.868826e-02 -2.050453e-01 1.166392e-01 -3.703287e-02 -1.572289e-01 1.207675e-01 -6.089922e-02
<VARIANCE> 39
 4.397936e+00 1.306559e+01 1.694798e+01 2.542711e+01 5.250160e+01 4.364494e+01 2.330824e+01 9.897678e+01 3.618472e+01 4.644634e+01 1.622202e+01 3.570154e+01 4.011261e+00 2.393883e-01 9.970654e-01 5.755450e-01 1.346738e+00 1.871867e+00 1.491002e+00 1.738881e+00 2.709673e+00 2.145726e+00 2.142931e+00 1.455376e+00 1.634499e+00 2.208248e-01 4.610698e-02 1.083954e-01 8.629259e-02 1.575920e-01 3.220612e-01 2.200489e-01 2.490293e-01 3.118727e-01 3.305853e-01 3.180608e-01 3.160726e-01 2.640730e-01 2.941097e-02
<GCONST> 9.116258e+01
<TRANSP> 5
 0.000000e+00 1.000000e+00 0.000000e+00 0.000000e+00 0.000000e+00
 0.000000e+00 2.339690e-01 7.660309e-01 0.000000e+00 0.000000e+00
 0.000000e+00 0.000000e+00 5.664245e-01 4.335754e-01 0.000000e+00
 0.000000e+00 0.000000e+00 0.000000e+00 9.221206e-01 7.787948e-02
 0.000000e+00 0.000000e+00 0.000000e+00 0.000000e+00 0.000000e+00
<ENDHMM>
~h "aw"
<BEGINHMM>
<NUMSTATES> 5
<STATE> 2
<MEAN> 39
 -2.607402e+00 -9.280798e-01 -4.719730e+00 -1.096727e+01 -5.515652e+00 6.113904e+00 -4.570191e+00 -2.347512e+00 -5.055606e+00 -2.875463e+00 1.134096e+00 -1.400377e-01 7.023907e+01 -1.099153e+00 -8.006156e-01 1.473179e+00 -1.573873e+00 -5.639272e-01 -4.015984e-03 7.586926e-01 -2.341891e-01 9.237160e-01 -1.847785e-01 1.486053e-01 4.226160e-01 1.088999e+00 -1.054272e-02 -3.281919e-02 3.463001e-01 1.273463e-01 9.834082e-02 -9.620263e-02 -6.168123e-02 1.096506e-01 2.903774e-02 8.229242e-02 -5.551250e-02 -1.168684e-01 -1.400911e-02
<VARIANCE> 39
 2.279936e+01 1.817137e+01 4.802429e+01 5.790039e+01 4.634438e+01 1.778283e+01 4.981011e+01 2.889178e+01 1.559539e+01 9.770578e+00 1.854046e+01 2.888287e+01 3.484542e+01 1.293199e+00 1.240503e+00 2.946502e+00 4.142282e+00 2.303943e+00 2.077310e+00 3.159319e+00 4.727065e+00 1.899414e+00 1.114701e+00 1.420641e+00 2.750573e+00 3.259010e+00 4.191968e-01 2.561264e-01 4.788383e-01 1.047168e+00 3.553672e-01 3.893183e-01 8.042554e-01 1.169382e+00 3.981827e-01 2.012301e-01 3.256472e-01 5.536748e-01 9.944987e-01
<GCONST> 1.158152e+02
<STATE> 3
<MEAN> 39
 -1.269277e+00 2.917656e-01 6.853849e+00 -1.394990e+01 -1.057432e+01 2.074878e+00 -1.090351e+01 1.296799e+00 -5.546865e+00 -4.482686e+00 2.079972e-01 -4.156022e+00 7.196199e+01 1.428600e+00 1.259531e+00 5.782069e-01 -3.381979e-01 -1.253454e+00 -1.216538e+00 -2.054591e+00 8.582143e-01 -1.213022e+00 -3.590917e-01 3.782619e-01 -1.364493e+00 -9.021336e-02 1.902603e-02 -6.559568e-02 -2.329374e-01 -2.140641e-01 -1.457621e-01 -4.711888e-02 2.670788e-01 9.964620e-02 -1.889037e-01 5.398234e-02 2.170163e-01 -4.575124e-02 1.874506e-01
<VARIANCE> 39
 2.695018e+01 3.402058e+01 1.971579e+01 1.833621e+01 2.776979e+01 2.869338e+01 9.461669e+01 6.994426e+00 2.666652e+01 2.738111e+01 1.746922e+01 3.156064e+01 4.082532e+00 1.596030e+00 2.498893e+00 9.742357e-01 1.563724e+00 1.213652e+00 2.107651e+00 7.970579e+00 1.186196e+00 2.591409e+00 2.180955e+00 2.099591e+00 2.259192e+00 7.387089e-01 5.533246e-01 7.803922e-01 1.879825e-01 2.318332e-01 3.018441e-01 5.286221e-01 2.036981e+00 3.632071e-01 5.910418e-01 5.432914e-01 3.162494e-01 5.332280e-01 7.987933e-02
<GCONST> 1.082995e+02
<STATE> 4
<MEAN> 39
 4.290195e+00 -1.022866e-02 4.360691e+00 -1.878154e+01 -1.144829e+01 -1.633995e+00 -1.419058e+01 8.642667e+00 -1.349713e+01 -5.416831e+00 7.296497e+00 -9.182263e+00 7.597455e+01 9.270986e-02 -2.045274e-01 -6.552419e-02 3.141561e-01 2.660306e-01 1.448872e-01 1.845512e-01 -2.593439e-01 -5.121140e-01 -2.304436e-01 8.673859e-02 3.571552e-01 4.946246e-02 -2.628245e-02 4.460047e-02 2.939096e-02 1.755692e-01 1.198867e-01 1.082357e-01 -3.353428e-02 -2.526895e-01 4.744624e-02 -5.757367e-02 -1.112075e-01 6.406432e-02 -7.763930e-02
<VARIANCE> 39
 2.723039e+00 1.422475e+01 1.773641e+01 2.457732e+01 4.432366e+01 2.033701e+01 4.325529e+01 3.076923e+01 2.249454e+01 3.031757e+01 1.239930e+01 4.082133e+01 4.126715e+00 1.740357e-01 9.448785e-01 6.323413e-01 1.204054e+00 1.048166e+00 1.183371e+00 2.349360e+00 2.850266e+00 1.591502e+00 1.552430e+00 9.775033e-01 1.769862e+00 2.437467e-01 3.476907e-02 9.334382e-02 6.990433e-02 1.084034e-01 1.933316e-01 2.087968e-01 4.324135e-01 2.175120e-01 3.297248e-01 3.382513e-01 1.670761e-01 2.836563e-01 1.711906e-02
<GCONST> 8.416148e+01
<TRANSP> 5
 0.000000e+00 1.000000e+00 0.000000e+00 0.000000e+00 0.000000e+00
 0.000000e+00 8.327939e-01 1.672061e-01 0.000000e+00 0.000000e+00
 0.000000e+00 0.000000e+00 8.357046e-01 1.642954e-01 0.000000e+00
 0.000000e+00 0.000000e+00 0.000000e+00 9.381915e-01 6.180849e-02
 0.000000e+00 0.000000e+00 0.000000e+00 0.000000e+00 0.000000e+00
<ENDHMM>
~h "ax"
<BEGINHMM>
<NUMSTATES> 5
<STATE> 2
<MEAN> 39
 3.926265e+00 3.585117e+00 -6.534162e+00 -2.255224e+00 -1.932636e+00 4.265535e+00 -8.918943e+00 -2.131934e+00 -1.107692e+01 -6.682836e-01 4.379661e-01 -3.683569e+00 6.682574e+01 1.494986e-01 4.515030e-01 -2.779672e-01 3.347585e-01 1.169816e-01 5.463089e-01 4.723581e-01 9.208649e-01 2.701197e-01 -4.818380e-01 -5.483377e-01 -2.631939e-01 -4.612458e-01 -2.497099e-01 -2.596352e-01 4.095131e-01 -3.230983e-01 6.390904e-02 -2.210527e-01 -2.637957e-01 -8.202899e-02 2.694370e-02 -6.314054e-02 1.466185e-01 2.037659e-02 3.587729e-01
<VARIANCE> 39
 6.315564e+00 1.834159e+01 6.900919e+01 4.311411e+01 2.758066e+01 4.177258e+01 4.856190e+01 4.591185e+01 6.156099e+01 2.814732e+01 3.427378e+01 1.980133e+01 2.114303e+01 6.162328e-01 7.341530e-01 4.249140e+00 1.975253e+00 1.997044e+00 3.561892e+00 3.823160e+00 3.422974e+00 3.469671e+00 2.548745e+00 2.187275e+00 1.505648e+00 1.160057e+00 2.177492e-01 2.395328e-01 5.705764e-01 3.544141e-01 3.318596e-01 6.942500e-01 6.058518e-01 8.476510e-01 5.657032e-01 4.427105e-01 5.423146e-01 2.885494e-01 2.084017e-01
<GCONST> 1.141092e+02
<STATE> 3
<MEAN> 39
 4.968712e+00 5.550579e+00 -6.517231e+00 -2.270614e+00 -8.711851e-01 7.002306e+00 -8.781059e+00 -2.205238e-01 -9.800446e+00 -2.367704e+00 -2.762141e+00 -4.530293e+00 6.587015e+01 -6.206817e-01 -4.254077e-01 1.937099e+00 -6.667341e-01 6.589402e-01 -2.470106e-01 -8.394347e-01 4.806461e-03 -3.932438e-01 -7.696447e-01 5.219834e-02 -1.766392e-01 1.030069e+00 -3.863546e-01 -5.020862e-01 5.466393e-01 -4.538567e-01 7.964064e-02 -7.059544e-01 -5.069957e-01 -5.962788e-01 -3.065278e-01 1.104002e-01 5.339897e-01 2.051018e-01 6.153689e-01
<VARIANCE> 39
 4.114861e+00 2.363654e+01 5.313162e+01 4.136361e+01 2.772129e+01 4.498095e+01 3.134535e+01 3.853922e+01 5.695303e+01 3.169350e+01 3.368137e+01 2.532443e+01 1.775765e+01 9.564786e-01 1.535705e+00 6.151899e+00 2.458874e+00 1.995127e+00 4.335447e+00 4.646048e+00 4.339237e+00 3.337765e+00 2.318368e+00 2.897111e+00 2.247954e+00 1.074524e+00 1.597641e-01 3.100303e-01 5.640637e-01 2.958941e-01 4.855393e-01 6.963009e-01 7.748048e-01 9.082410e-01 8.228785e-01 5.444761e-01 4.703303e-01 4.783144e-01 2.257484e-01
<GCONST> 1.175385e+02
<STATE> 4
<MEAN> 39
 1.640633e+00 1.350728e+00 1.601337e+00 -7.870845e+00 6.367303e-01 2.494803e+00 -1.567137e+01 -5.015486e+00 -1.425163e+01 -3.642026e+00 7.064177e-01 -3.566764e+00 7.255508e+01 -5.104550e-01 -1.047737e+00 1.542768e+00 -6.201555e-01 2.031349e-01 -1.945038e+00 -1.268335e+00 -1.729095e+00 -1.039139e+00 2.886619e-01 1.154853e+00 4.877340e-02 1.691500e+00 1.537905e-01 1.699125e-01 -3.863469e-01 1.558713e-01 -8.400342e-03 1.465617e-01 3.247213e-01 6.153897e-02 1.318726e-01 1.710784e-01 8.432793e-02 -1.170276e-01 -2.185843e-01
<VARIANCE> 39
 1.052848e+01 1.879357e+01 6.536700e+01 5.612575e+01 3.384084e+01 7.054317e+01 8.869713e+01 5.864012e+01 4.775741e+01 4.395908e+01 4.652890e+01 3.197667e+01 2.581563e+01 1.715801e+00 2.438956e+00 5.223266e+00 3.274891e+00 3.029020e+00 5.739974e+00 8.524929e+00 6.925599e+00 4.484874e+00 3.009088e+00 3.096536e+00 1.987548e+00 2.579305e+00 2.876193e-01 3.783124e-01 7.908204e-01 5.897547e-01 4.638954e-01 1.262209e+00 1.458854e+00 1.466551e+00 7.475288e-01 6.210814e-01 6.883912e-01 3.653805e-01 4.271892e-01
<GCONST> 1.305307e+02
<TRANSP> 5
 0.000000e+00 1.000000e+00 0.000000e+00 0.000000e+00 0.000000e+00
 0.000000e+00 4.057590e-01 5.942410e-01 0.000000e+00 0.000000e+00
 0.000000e+00 0.000000e+00 3.776601e-01 6.223398e-01 0.000000e+00
 0.000000e+00 0.000000e+00 0.000000e+00 6.101800e-01 3.898199e-01
 0.000000e+00 0.000000e+00 0.000000e+00 0.000000e+00 0.000000e+00
<ENDHMM>
~h "ay"
<BEGINHMM>
<NUMSTATES> 5
<STATE> 2
<MEAN> 39
 2.752107e+00 -2.359062e+00 1.802812e+00 -1.772073e+01 -1.559582e+00 -2.740077e+00 -1.657828e+01 -1.405915e+00 -1.096887e+01 4.621384e+00 8.134910e+00 -9.809223e+00 7.793966e+01 4.154310e-02 -3.640826e-01 -4.625157e-02 5.536709e-01 3.030642e-01 -4.430782e-01 -9.662945e-02 -3.065378e-01 6.004910e-03 7.986745e-01 -4.038661e-01 -1.697032e-03 -2.669472e-03 -5.086643e-02 8.313462e-02 5.493032e-02 1.179065e-01 9.463310e-02 -3.034568e-02 -1.369107e-01 -1.221395e-01 -8.319201e-02 -9.935628e-02 -8.624437e-02 1.607819e-01 -5.850276e-02
<VARIANCE> 39
 9.899744e+00 3.598529e+01 1.007094e+01 1.963386e+01 1.431456e+01 2.308291e+01 2.127903e+01 3.213863e+01 2.381892e+01 3.111969e+01 2.171930e+01 2.776594e+01 5.531512e+00 1.517305e-01 5.649981e-01 6.089363e-01 7.451399e-01 7.160144e-01 6.850995e-01 1.377380e+00 1.342684e+00 1.031890e+00 1.066468e+00 9.212241e-01 1.067341e+00 4.841974e-02 4.301341e-02 8.719602e-02 7.662413e-02 1.012686e-01 1.309497e-01 1.389861e-01 2.158293e-01 1.755587e-01 2.531369e-01 2.039534e-01 2.376378e-01 1.620987e-01 1.879240e-02
<GCONST> 7.567693e+01
<STATE> 3
<MEAN> 39
 1.855376e+00 -4.097424e+00 2.539846e+00 -1.400806e+01 1.485299e+00 -5.432319e+00 -1.958795e+01 -5.124120e+00 -1.224162e+01 7.529459e+00 4.777537e+00 -6.553887e+00 7.764854e+01 -4.829728e-02 -4.616519e-02 7.202744e-01 1.121248e+00 -8.590414e-02 -3.834713e-02 -6.893016e-01 -4.725502e-01 -7.854233e-01 -5.381020e-01 -2.101136e-02 4.934446e-01 -2.141818e-01 3.816952e-02 2.512739e-01 -1.056735e-02 4.561756e-02 -1.007318e-01 2.869162e-01 4.653842e-02 2.700068e-01 -8.348386e-02 -3.669417e-01 1.153364e-01 -1.679280e-01 -2.011945e-01
<VARIANCE> 39
 2.962255e+01 2.171194e+01 3.556167e+01 2.777590e+01 1.552419e+01 3.099799e+01 5.021817e+01 2.707401e+01 4.953461e+01 3.664118e+01 2.120741e+01 1.624803e+01 6.374021e+00 1.516024e-01 3.636392e-01 1.013957e+00 5.164337e-01 9.554002e-01 8.756804e-01 1.669295e+00 9.565142e-01 1.448539e+00 2.425024e+00 1.988131e+00 1.208907e+00 5.018840e-02 2.649228e-02 8.290987e-02 1.344897e-01 1.340265e-01 1.348577e-01 1.916319e-01 2.593550e-01 1.564648e-01 1.825678e-01 2.326462e-01 2.865665e-01 1.604307e-01 4.504056e-02
<GCONST> 8.317876e+01
<STATE> 4
<MEAN> 39
 -2.500844e+00 -5.196926e+00 4.684234e+00 -1.290896e+01 6.567627e-01 -6.475161e-01 -1.670923e+01 -5.328377e+00 -9.178526e+00 2.713509e+00 4.537666e+00 -4.475543e+00 7.598137e+01 3.654240e-01 3.025925e-01 2.115209e-01 5.088368e-01 1.134013e-01 4.512284e-01 -4.144513e-01 7.522873e-02 -7.837340e-01 -6.455780e-01 -4.440340e-01 -8.962783e-02 -6.114702e-01 9.225150e-02 3.441378e-01 -2.966315e-01 -3.620938e-02 -1.062805e-02 3.965204e-01 4.269330e-01 3.499090e-01 1.386382e-01 -2.101495e-01 -4.074264e-01 -5.688298e-02 -2.804086e-01
<VARIANCE> 39
 7.278695e+01 2.166318e+01 3.947691e+01 3.610337e+01 1.015377e+01 5.069041e+01 9.256937e+01 2.362281e+01 1.332455e+02 4.151231e+01 2.252968e+01 2.062366e+01 7.513824e+00 3.502959e-01 5.444471e-01 5.005813e-01 1.079853e+00 7.237219e-01 1.663430e+00 1.532327e+00 1.233431e+00 1.386820e+00 2.475339e+00 2.161178e+00 1.035940e+00 1.693554e-01 5.774000e-02 9.356793e-02 1.365468e-01 1.895143e-01 1.539874e-01 1.454666e-01 4.326992e-01 1.333088e-01 3.815379e-01 4.290508e-01 3.524560e-01 1.911743e-01 6.229239e-02
<GCONST> 9.301621e+01
<TRANSP> 5
 0.000000e+00 1.000000e+00 0.000000e+00 0.000000e+00 0.000000e+00
 0.000000e+00 8.812091e-01 1.187909e-01 0.000000e+00 0.000000e+00
 0.000000e+00 0.000000e+00 4.305027e-01 5.694973e-01 0.000000e+00
 0.000000e+00 0.000000e+00 0.000000e+00 4.900717e-01 5.099283e-01
 0.000000e+00 0.000000e+00 0.000000e+00 0.000000e+00 0.000000e+00
<ENDHMM>
~h "ch"
<BEGINHMM>
<NUMSTATES> 5
<STATE> 2
<MEAN> 39
 -8.617264e+00 -2.890221e+00 2.194466e+00 -8.589537e+00 6.817359e-01 4.661922e-01 -8.171125e+00 3.796653e+00 6.967350e-01 -2.950912e+00 -7.009466e-01 -2.992149e+00 7.302689e+01 -2.258406e+00 -1.324941e+00 1.903871e+00 -5.499595e-01 -4.170030e-02 -1.374884e+00 -3.793739e-01 -1.034201e-01 8.034219e-01 -9.257289e-01 -1.155720e-01 3.658419e-01 1.684160e+00 3.298616e-01 -4.624906e-02 3.954909e-01 2.587997e-01 1.363837e-01 1.578319e-01 -5.559724e-01 -2.394471e-01 -5.668192e-01 -1.373659e-01 -2.083255e-01 -2.384805e-01 3.688298e-02
<VARIANCE> 39
 6.397662e+01 4.299891e+01 5.479655e+01 7.288779e+01 3.396126e+01 3.689975e+01 3.782601e+01 1.076934e+01 5.548480e+01 1.574342e+01 1.777029e+01 3.263428e+01 2.882906e+01 8.796926e+00 3.203385e+00 4.211188e+00 5.790844e+00 1.324138e+00 4.549655e+00 3.083671e+00 1.265851e+00 5.191265e+00 1.534650e+00 2.713066e+00 3.092211e+00 3.463500e+00 1.940276e+00 7.509705e-01 1.211459e+00 1.201323e+00 4.298377e-01 1.351286e+00 5.376669e-01 2.211015e-01 1.102849e+00 2.950965e-01 4.357576e-01 5.370189e-01 1.062028e+00
<GCONST> 1.282282e+02
<STATE> 3
<MEAN> 39
 -5.788676e+00 -5.018684e+00 1.211485e+01 -6.724278e+00 -1.444944e+00 -1.176979e+00 -1.436172e+01 3.946671e-01 -7.895506e+00 -5.750290e+00 -5.340522e+00 -7.268024e+00 7.479489e+01 -2.611463e-01 -4.895555e-01 6.319518e-02 6.182989e-01 -1.470341e-01 -1.797031e-01 3.256556e-01 8.360779e-02 -6.802182e-02 9.108448e-02 1.832206e-01 -9.548854e-02 1.701471e-01 -1.391019e-02 -3.289411e-02 -1.648796e-01 4.170793e-03 1.048488e-01 1.985142e-02 5.376326e-02 7.086386e-03 1.938712e-01 1.286854e-01 6.710134e-02 5.995935e-02 -2.899835e-02
<VARIANCE> 39
 5.355930e+01 2.120451e+01 3.785236e+01 2.700470e+01 3.395303e+01 3.228036e+01 9.013133e+01 3.280357e+01 2.526942e+01 2.037179e+01 2.156510e+01 1.774465e+01 1.205513e+01 4.510679e+00 1.582503e+00 2.166201e+00 2.113998e+00 1.977596e+00 4.561601e+00 6.179187e+00 2.866710e+00 3.874730e+00 1.642747e+00 2.072278e+00 1.374979e+00 1.402622e+00 7.983557e-01 2.151006e-01 4.349670e-01 3.745142e-01 3.114392e-01 9.878952e-01 7.832193e-01 5.465876e-01 3.262020e-01 3.035135e-01 4.532493e-01 1.379108e-01 3.226633e-01
<GCONST> 1.152910e+02
<STATE> 4
<MEAN> 39
 -3.342287e+00 -7.997263e+00 2.581063e+00 -2.580464e-02 3.051592e+00 -5.909293e+00 -1.443460e+01 -7.009914e+00 -1.031369e+01 5.783316e-01 -9.039173e-01 -3.734702e+00 7.619093e+01 1.933207e+00 1.115108e+00 -9.034895e-01 -1.177896e-01 7.608377e-01 3.390778e-01 -9.975628e-01 -1.348113e+00 -1.690214e+00 6.943331e-01 -3.780633e-02 -6.061332e-02 -6.232356e-01 7.020403e-02 1.978684e-01 1.008023e-02 -1.427316e-02 -2.024151e-01 1.472438e-01 2.336852e-01 1.444888e-01 -1.502908e-01 -5.763872e-02 -2.778901e-02 -8.029543e-02 -1.334855e-01
<VARIANCE> 39
 7.653367e+01 5.656543e+01 2.563064e+01 2.852419e+01 4.746688e+01 1.241041e+01 4.567128e+01 7.162656e+01 1.094589e+02 2.890873e+01 1.543845e+01 1.159551e+01 9.977015e+00 2.754418e+00 2.371437e+00 1.241685e+00 8.327760e-01 1.124229e+00 2.186336e+00 2.947879e+00 3.957696e+00 4.419608e+00 2.103124e+00 2.260221e+00 9.888462e-01 3.931822e-01 7.159308e-01 5.436089e-01 2.497932e-01 2.570257e-01 2.311140e-01 2.933758e-01 4.739086e-01 7.249586e-01 9.139081e-01 4.139781e-01 4.700339e-01 2.061919e-01 1.653582e-01
<GCONST> 1.114759e+02
<TRANSP> 5
 0.000000e+00 1.000000e+00 0.000000e+00 0.000000e+00 0.000000e+00
 0.000000e+00 7.894170e-01 2.105830e-01 0.000000e+00 0.000000e+00
 0.000000e+00 0.000000e+00 9.067872e-01 9.321276e-02 0.000000e+00
 0.000000e+00 0.000000e+00 0.000000e+00 8.722447e-01 1.277553e-01
 0.000000e+00 0.000000e+00 0.000000e+00 0.000000e+00 0.000000e+00
<ENDHMM>
~h "dh"
<BEGINHMM>
<NUMSTATES> 5
<STATE> 2
<MEAN> 39
 -9.040714e-01 3.581450e+00 -8.575801e+00 -8.352503e+00 -3.018740e+00 5.524064e+00 -3.734903e+00 2.118245e+00 -3.720160e+00 2.653742e-01 7.413394e-01 -6.184729e-01 6.410542e+01 -3.386051e-02 -1.048684e-01 1.354662e-01 3.346862e-03 -7.447103e-02 -6.058775e-02 -9.006853e-02 3.098597e-02 -1.513500e-01 -1.705392e-01 -1.689565e-01 1.385521e-02 -1.399086e-03 1.894964e-01 1.589672e-01 -1.431780e-01 2.193467e-01 6.597169e-02 7.569917e-02 -1.109294e-01 -1.192570e-01 -1.201072e-01 -3.210947e-02 -1.884477e-01 -5.886127e-02 -7.535516e-02
<VARIANCE> 39
 2.100575e+01 1.735537e+01 5.685915e+01 3.570008e+01 1.957837e+01 2.093924e+01 2.584889e+01 2.883021e+01 1.987387e+01 3.281690e+01 2.937451e+01 1.549097e+01 1.481062e+01 2.098318e+00 1.730652e+00 5.600282e+00 2.506406e+00 2.027080e+00 2.043405e+00 2.701391e+00 3.164822e+00 1.498131e+00 3.152046e+00 2.422163e+00 1.069500e+00 1.528978e+00 3.433930e-01 3.153073e-01 8.713961e-01 3.236303e-01 4.023255e-01 4.440944e-01 5.786873e-01 7.169577e-01 3.890126e-01 6.398081e-01 4.432713e-01 3.144999e-01 2.279348e-01
<GCONST> 1.126139e+02
<STATE> 3
<MEAN> 39
 2.853294e+00 5.138907e+00 -1.270032e+01 -3.793188e+00 -3.006735e+00 7.248438e+00 -5.368161e+00 1.152835e+00 -5.782565e+00 -1.369429e-01 -1.146264e+00 -7.938294e-01 6.265070e+01 4.302277e-01 6.001310e-01 -1.773052e-01 5.640523e-01 5.555626e-01 2.305640e-01 -4.658622e-01 -3.915060e-01 -4.919045e-01 -8.250390e-01 -8.168000e-01 -3.913382e-01 -1.968660e-01 -1.169300e-01 -5.494858e-02 4.899859e-01 -1.769127e-01 1.942213e-01 -6.099302e-02 -5.360645e-02 -1.372749e-02 -1.091296e-01 -1.286003e-01 -3.174205e-02 -1.843372e-01 2.501740e-01
<VARIANCE> 39
 3.687274e+00 6.098836e+00 4.105844e+01 1.827438e+01 1.380931e+01 2.108300e+01 2.210541e+01 1.522870e+01 1.290848e+01 1.887150e+01 1.677687e+01 1.153138e+01 1.193107e+01 2.328974e-01 5.203232e-01 3.385294e+00 7.612171e-01 8.493136e-01 1.259224e+00 1.600128e+00 2.073407e+00 1.669036e+00 2.631816e+00 1.719760e+00 1.499785e+00 7.314166e-01 1.195260e-01 1.192179e-01 2.584305e-01 1.250685e-01 2.143380e-01 4.042276e-01 1.616184e-01 2.037618e-01 2.281907e-01 2.156839e-01 2.312241e-01 2.981102e-01 4.667242e-02
<GCONST> 8.606738e+01
<STATE> 4
<MEAN> 39
 1.482558e+00 2.695405e-01 -1.421879e+01 -4.083761e-01 -4.950943e+00 5.014891e+00 -2.969530e+00 1.637097e+00 -5.576716e+00 2.801868e+00 4.443941e-01 -1.280172e+00 6.276810e+01 4.829600e-02 9.420305e-02 5.141502e-02 6.542007e-02 6.813406e-02 4.846017e-02 1.381349e-02 -2.740537e-02 -4.992441e-02 -1.542808e-01 -6.951510e-02 -1.072766e-01 2.285169e-02 -1.614762e-02 6.403018e-03 1.109990e-01 -7.167551e-02 3.130811e-02 3.477001e-03 -4.049292e-02 -1.231500e-04 -4.322665e-02 -2.968764e-02 2.207500e-02 -1.849317e-02 5.084896e-02
<VARIANCE> 39
 2.662187e+00 3.274818e+01 1.957504e+01 2.494914e+01 1.176717e+01 1.247733e+01 1.538982e+01 1.432581e+01 1.312375e+01 1.111491e+01 1.656304e+01 8.732326e+00 6.047201e+00 2.001417e-01 7.235456e-01 1.154113e+00 7.396412e-01 1.011103e+00 9.784058e-01 1.010291e+00 1.462980e+00 1.242949e+00 1.200740e+00 1.065669e+00 9.259998e-01 2.336287e-01 4.020001e-02 7.384925e-02 1.635231e-01 1.178250e-01 1.836632e-01 1.642314e-01 1.991975e-01 3.502250e-01 2.171552e-01 1.841016e-01 1.819000e-01 1.530595e-01 4.772909e-02
<GCONST> 7.592469e+01
<TRANSP> 5
 0.000000e+00 1.000000e+00 0.000000e+00 0.000000e+00 0.000000e+00
 0.000000e+00 5.833421e-01 4.166579e-01 0.000000e+00 0.000000e+00
 0.000000e+00 0.000000e+00 2.859345e-01 7.140654e-01 0.000000e+00
 0.000000e+00 0.000000e+00 0.000000e+00 8.406491e-01 1.593509e-01
 0.000000e+00 0.000000e+00 0.000000e+00 0.000000e+00 0.000000e+00
<ENDHMM>
~h "ea"
<BEGINHMM>
<NUMSTATES> 5
<STATE> 2
<MEAN> 39
 1.243263e+00 2.009342e+00 -3.600729e+00 -7.780252e+00 -2.124930e+00 2.943915e+00 -9.405266e+00 5.574683e-01 -8.480373e+00 -8.431195e-01 1.753790e+00 -3.834116e+00 6.933920e+01 6.608545e-03 -7.871487e-04 5.575932e-03 9.451325e-03 1.243685e-02 3.598967e-04 4.977515e-03 7.675061e-03 8.751670e-03 -1.601357e-04 -6.787761e-03 1.796699e-03 7.823239e-03 1.084905e-04 6.917859e-04 -1.452734e-03 -1.623669e-04 -1.531235e-03 -6.168764e-04 -1.016060e-04 5.717326e-04 -8.436721e-04 1.307740e-03 2.658077e-04 -1.178421e-04 -1.493792e-03
<VARIANCE> 39
 3.560448e+01 3.133138e+01 1.175854e+02 5.757076e+01 3.574751e+01 4.825400e+01 6.299704e+01 4.654386e+01 5.944289e+01 3.514179e+01 3.786765e+01 3.343571e+01 4.679148e+01 1.818672e+00 1.507933e+00 2.670334e+00 2.176207e+00 1.716306e+00 2.419825e+00 3.138164e+00 2.909526e+00 2.711722e+00 1.967625e+00 2.125080e+00 1.650968e+00 1.255564e+00 2.970746e-01 2.534214e-01 4.172046e-01 3.324886e-01 2.983715e-01 4.159752e-01 5.145366e-01 5.176500e-01 4.586368e-01 3.470287e-01 3.812441e-01 2.994810e-01 2.048787e-01
<GCONST> 1.175816e+02
<STATE> 3
<MEAN> 39
 1.243263e+00 2.009342e+00 -3.600729e+00 -7.780252e+00 -2.124930e+00 2.943915e+00 -9.405266e+00 5.574683e-01 -8.480373e+00 -8.431195e-01 1.753790e+00 -3.834116e+00 6.933920e+01 6.608545e-03 -7.871487e-04 5.575932e-03 9.451325e-03 1.243685e-02 3.598967e-04 4.977515e-03 7.675061e-03 8.751670e-03 -1.601357e-04 -6.787761e-03 1.796699e-03 7.823239e-03 1.084905e-04 6.917859e-04 -1.452734e-03 -1.623669e-04 -1.531235e-03 -6.168764e-04 -1.016060e-04 5.717326e-04 -8.436721e-04 1.307740e-03 2.658077e-04 -1.178421e-04 -1.493792e-03
<VARIANCE> 39
 3.560448e+01 3.133138e+01 1.175854e+02 5.757076e+01 3.574751e+01 4.825400e+01 6.299704e+01 4.654386e+01 5.944289e+01 3.514179e+01 3.786765e+01 3.343571e+01 4.679148e+01 1.818672e+00 1.507933e+00 2.670334e+00 2.176207e+00 1.716306e+00 2.419825e+00 3.138164e+00 2.909526e+00 2.711722e+00 1.967625e+00 2.125080e+00 1.650968e+00 1.255564e+00 2.970746e-01 2.534214e-01 4.172046e-01 3.324886e-01 2.983715e-01 4.159752e-01 5.145366e-01 5.176500e-01 4.586368e-01 3.470287e-01 3.812441e-01 2.994810e-01 2.048787e-01
<GCONST> 1.175816e+02
<STATE> 4
<MEAN> 39
 1.243263e+00 2.009342e+00 -3.600729e+00 -7.780252e+00 -2.124930e+00 2.943915e+00 -9.405266e+00 5.574683e-01 -8.480373e+00 -8.431195e-01 1.753790e+00 -3.834116e+00 6.933920e+01 6.608545e-03 -7.871487e-04 5.575932e-03 9.451325e-03 1.243685e-02 3.598967e-04 4.977515e-03 7.675061e-03 8.751670e-03 -1.601357e-04 -6.787761e-03 1.796699e-03 7.823239e-03 1.084905e-04 6.917859e-04 -1.452734e-03 -1.623669e-04 -1.531235e-03 -6.168764e-04 -1.016060e-04 5.717326e-04 -8.436721e-04 1.307740e-03 2.658077e-04 -1.178421e-04 -1.493792e-03
<VARIANCE> 39
 3.560448e+01 3.133138e+01 1.175854e+02 5.757076e+01 3.574751e+01 4.825400e+01 6.299704e+01 4.654386e+01 5.944289e+01 3.514179e+01 3.786765e+01 3.343571e+01 4.679148e+01 1.818672e+00 1.507933e+00 2.670334e+00 2.176207e+00 1.716306e+00 2.419825e+00 3.138164e+00 2.909526e+00 2.711722e+00 1.967625e+00 2.125080e+00 1.650968e+00 1.255564e+00 2.970746e-01 2.534214e-01 4.172046e-01 3.324886e-01 2.983715e-01 4.159752e-01 5.145366e-01 5.176500e-01 4.586368e-01 3.470287e-01 3.812441e-01 2.994810e-01 2.048787e-01
<GCONST> 1.175816e+02
<TRANSP> 5
 0.000000e+00 1.000000e+00 0.000000e+00 0.000000e+00 0.000000e+00
 0.000000e+00 6.000000e-01 4.000000e-01 0.000000e+00 0.000000e+00
 0.000000e+00 0.000000e+00 6.000000e-01 4.000000e-01 0.000000e+00
 0.000000e+00 0.000000e+00 0.000000e+00 7.000000e-01 3.000000e-01
 0.000000e+00 0.000000e+00 0.000000e+00 0.000000e+00 0.000000e+00
<ENDHMM>
~h "eh"
<BEGINHMM>
<NUMSTATES> 5
<STATE> 2
<MEAN> 39
 1.478266e+00 -3.188466e+00 7.130168e+00 -1.198639e+01 1.927785e-01 -2.763060e+00 -1.844051e+01 1.398662e+00 -1.574002e+01 3.076608e+00 6.110518e+00 -7.450682e+00 7.562905e+01 -2.408135e-01 -4.326088e-01 7.557983e-02 -2.817412e-01 1.075662e+00 -1.470699e+00 -1.573787e+00 -1.807443e-01 -1.056355e-01 1.167715e+00 1.366229e+00 3.954393e-01 6.013322e-01 9.461726e-02 3.560094e-01 -6.145314e-02 3.900692e-01 3.977745e-04 2.563316e-01 1.273408e-02 -3.379045e-01 3.100398e-01 -3.896328e-01 -3.071213e-01 1.360224e-01 -1.864474e-01
<VARIANCE> 39
 9.631294e+00 2.384217e+01 4.266509e+01 3.463375e+01 4.813309e+01 2.563548e+01 6.840208e+01 3.242412e+01 3.007729e+01 5.120930e+01 3.921714e+01 2.458861e+01 8.483333e+00 3.297173e-01 9.006147e-01 1.122178e+00 3.659847e+00 1.937860e+00 2.538354e+00 1.904834e+00 3.869313e+00 1.204448e+00 1.878658e+00 3.704569e+00 1.342401e+00 8.154700e-01 4.939028e-02 1.362093e-01 1.433536e-01 3.278167e-01 1.325169e-01 5.704389e-01 7.561347e-01 4.096635e-01 2.567893e-01 6.329482e-01 1.611061e-01 1.866637e-01 2.219000e-01
<GCONST> 1.029489e+02
<STATE> 3
<MEAN> 39
 1.723134e+00 -3.863035e+00 6.102048e+00 -1.202899e+01 1.662890e+00 -5.273115e+00 -2.083370e+01 1.492584e+00 -1.413573e+01 2.805922e+00 9.708609e+00 -8.105933e+00 7.723180e+01 2.952423e-02 -1.724308e-02 1.526906e-01 4.771827e-01 3.425233e-01 -2.097248e-01 -6.165103e-01 -6.738213e-01 2.626898e-01 3.006338e-01 3.850318e-01 3.611748e-01 7.897064e-02 6.248786e-02 4.412954e-01 -5.603590e-02 3.168130e-01 -3.427152e-01 6.699239e-01 6.635098e-01 1.571207e-02 1.689779e-01 -3.902249e-01 -6.157783e-01 -1.903593e-03 -4.129360e-01
<VARIANCE> 39
 4.220834e+00 1.636825e+01 3.779248e+01 2.360352e+01 3.445302e+01 2.136274e+01 6.814302e+01 2.916238e+01 2.695282e+01 2.300676e+01 3.278925e+01 2.023619e+01 2.738598e+00 3.974278e-01 1.106608e+00 1.254139e+00 4.006216e+00 1.639140e+00 2.750998e+00 2.234450e+00 1.489588e+00 1.301158e+00 2.422747e+00 3.348551e+00 1.014942e+00 1.365623e+00 5.444615e-02 9.036480e-02 2.379946e-01 1.767924e-01 1.720689e-01 3.258107e-01 4.490964e-01 3.842720e-01 3.400385e-01 3.053549e-01 3.314253e-01 1.844575e-01 7.907812e-02
<GCONST> 9.630338e+01
<STATE> 4
<MEAN> 39
 7.758319e-01 -1.772201e+00 1.122555e+01 -8.425438e+00 2.606580e+00 -6.220374e+00 -2.515342e+01 -4.649793e-01 -1.359297e+01 8.982465e-01 2.754640e+00 -6.975429e+00 7.621726e+01 -7.930870e-02 7.916554e-01 -5.479488e-02 2.573884e-01 -2.983793e-02 9.809302e-01 1.011859e+00 2.472074e-01 4.848926e-01 -6.320853e-01 -6.352566e-01 1.071174e-01 -5.608919e-01 -1.878893e-01 1.773743e-02 -1.803545e-01 1.019927e-01 5.780753e-03 3.209551e-01 5.396456e-01 2.198153e-01 3.201825e-01 -8.936474e-02 -1.945453e-01 -1.763005e-02 -1.221892e-01
<VARIANCE> 39
 3.709775e+00 2.204554e+01 1.448280e+01 1.574695e+01 1.744332e+01 3.270024e+01 2.437299e+01 3.783039e+01 1.225325e+01 3.045098e+01 4.184702e+01 2.154180e+01 4.732196e+00 3.057915e-01 7.782811e-01 1.450503e+00 1.610185e+00 8.674401e-01 2.497459e+00 2.163794e+00 1.415493e+00 1.517659e+00 1.163349e+00 1.793072e+00 1.040873e+00 5.928465e-01 2.053282e-01 1.362107e-01 2.307703e-01 2.183770e-01 2.051005e-01 2.020471e-01 4.154371e-01 2.414703e-01 2.680649e-01 1.924846e-01 2.694762e-01 2.515842e-01 9.028290e-02
<GCONST> 9.083111e+01
<TRANSP> 5
 0.000000e+00 1.000000e+00 0.000000e+00 0.000000e+00 0.000000e+00
 0.000000e+00 1.405277e-01 8.594723e-01 0.000000e+00 0.000000e+00
 0.000000e+00 0.000000e+00 5.329620e-01 4.670380e-01 0.000000e+00
 0.000000e+00 0.000000e+00 0.000000e+00 7.931494e-01 2.068506e-01
 0.000000e+00 0.000000e+00 0.000000e+00 0.000000e+00 0.000000e+00
<ENDHMM>
~h "er"
