~o
<STREAMINFO> 1 39
<VECSIZE> 39<NULLD><MFCC_D_A_0><DIAGC>
~s "silst"
<MEAN> 39
 7.347860e-01 3.527383e+00 -1.144527e+01 -4.236930e+00 -2.602448e+00 6.715351e+00 -3.260811e+00 3.210108e+00 -2.116090e+00 5.185636e-01 -1.289749e+00 -3.712641e-01 6.335146e+01 7.253896e-02 2.096106e-02 1.508736e-01 1.813422e-01 1.619675e-01 1.091315e-01 1.827283e-01 1.978724e-01 1.007242e-01 1.028654e-01 2.749761e-03 1.003534e-02 5.817727e-02 8.937162e-02 4.909063e-02 -1.878968e-01 6.748547e-02 -6.142492e-02 -5.024487e-03 2.743623e-02 3.684328e-02 -1.200345e-02 8.299257e-02 -1.050192e-02 4.449080e-02 -8.361980e-02
<VARIANCE> 39
 1.150471e+01 1.511796e+01 2.939223e+01 2.402882e+01 2.439208e+01 1.726562e+01 1.943071e+01 1.991483e+01 2.059179e+01 1.981538e+01 1.613044e+01 1.583375e+01 5.985637e+00 1.263354e+00 9.669164e-01 3.522424e+00 2.058153e+00 1.968096e+00 1.516366e+00 1.523232e+00 1.833369e+00 1.889312e+00 1.841650e+00 1.524855e+00 1.461193e+00 7.279880e-01 2.336601e-01 1.778484e-01 6.005818e-01 3.982717e-01 3.726494e-01 3.069991e-01 3.268330e-01 3.909161e-01 3.488994e-01 3.386976e-01 3.132170e-01 3.071607e-01 1.259290e-01
<GCONST> 9.938702e+01
~h "b"
<BEGINHMM>
<NUMSTATES> 5
<STATE> 2
<MEAN> 39
 7.232959e+00 8.575685e+00 -6.558522e+00 5.464118e-01 -1.482631e+00 7.723890e+00 -5.175178e+00 1.385789e+00 -1.039602e+01 -1.442695e+00 -5.830348e-02 -5.916429e+00 6.541984e+01 -2.707706e-01 2.220517e-01 -3.763757e-01 3.763851e-01 2.298466e-01 4.230621e-01 6.778913e-01 4.466303e-01 1.269639e+00 3.269073e-02 -6.331559e-01 4.099611e-01 -4.325300e-01 -1.937323e-01 -3.646113e-01 5.388523e-01 -8.270556e-01 -2.842764e-01 -7.560143e-01 -7.643239e-01 -1.359624e-01 -3.283205e-01 -3.591237e-01 3.499480e-01 -1.454189e-01 5.665860e-01
<VARIANCE> 39
 2.103630e+00 1.209751e+01 1.766671e+01 1.791452e+01 1.367792e+01 1.698217e+01 2.259624e+01 2.084020e+01 3.602870e+01 1.695123e+01 1.688507e+01 2.986501e+01 7.302902e+00 8.909314e-01 1.415810e+00 2.546233e+00 3.434232e+00 1.354680e+00 3.031487e+00 3.759341e+00 1.998992e+00 2.520108e+00 1.934097e+00 1.377229e+00 1.377966e+00 1.737283e+00 8.937623e-02 1.204929e-01 3.383734e-01 3.076885e-01 2.977263e-01 5.087726e-01 5.363507e-01 3.984623e-01 4.898114e-01 4.602422e-01 2.392475e-01 3.417054e-01 1.685676e-01
<GCONST> 9.950890e+01
<STATE> 3
<MEAN> 39
 3.275180e+00 5.785774e+00 -4.522922e-01 -7.623812e+00 -3.183125e+00 1.574609e+00 -1.229672e+01 1.048233e+00 -1.010211e+01 -8.407008e+00 1.695335e+00 -4.667011e+00 7.043380e+01 8.978963e-02 -1.024440e+00 2.210937e+00 -3.871097e+00 -1.851627e+00 -3.709612e+00 -3.681588e+00 -1.621135e-01 -1.744164e+00 -2.388103e+00 1.754760e+00 -4.100458e-01 2.433065e+00 4.274574e-01 1.602706e-01 -3.113556e-01 -3.280636e-02 -1.006264e-01 -8.190170e-02 1.618718e-01 7.389470e-02 -4.944950e-02 3.872601e-01 1.791102e-01 -1.555392e-02 -7.177573e-02
<VARIANCE> 39
 2.049452e+01 1.658797e+01 2.126757e+01 4.327845e+01 3.530391e+01 5.757219e+01 5.149976e+01 1.664672e+01 4.092680e+01 3.047714e+01 2.779956e+01 2.589029e+01 1.311413e+01 1.785349e+00 2.637680e+00 2.719024e+00 2.002754e+00 4.009573e+00 3.802918e+00 3.583262e+00 2.251325e+00 3.262495e+00 2.586818e+00 2.300971e+00 1.511558e+00 9.492993e-01 3.548015e-01 4.313468e-01 4.563414e-01 9.236178e-01 6.320440e-01 9.981758e-01 1.167286e+00 2.400291e-01 6.823621e-01 5.739534e-01 4.170559e-01 2.659958e-01 3.590926e-01
<GCONST> 1.177326e+02
<STATE> 4
<MEAN> 39
 5.887195e+00 3.422111e+00 2.581531e+00 -1.552530e+01 -8.119326e+00 -6.132605e+00 -1.622003e+01 1.070599e+00 -1.241792e+01 -8.572182e+00 7.385118e+00 -5.101526e+00 7.523908e+01 -8.573377e-02 -4.101194e-01 3.667344e-01 -1.466763e-02 -1.144636e-01 4.633158e-02 3.731343e-01 -6.330882e-01 -2.134794e-01 3.261056e-01 -1.444525e-01 3.438482e-01 2.647323e-01 -2.829233e-02 1.136689e-01 -1.568456e-01 4.298364e-01 2.056809e-01 4.313832e-01 2.601112e-01 -1.090394e-01 3.767227e-02 1.869552e-01 -2.318394e-01 3.142477e-02 -2.620177e-01
<VARIANCE> 39
 2.613164e+00 2.173890e+01 1.715375e+01 1.942512e+01 3.933431e+01 3.235265e+01 3.088936e+01 3.618708e+01 6.298748e+01 2.954756e+01 3.121964e+01 2.986585e+01 4.704922e+00 3.057232e-01 1.004092e+00 9.880005e-01 2.258789e+00 1.585982e+00 2.135197e+00 2.086673e+00 2.201750e+00 1.731507e+00 1.236705e+00 1.925561e+00 1.628200e+00 6.576097e-01 3.254215e-02 1.553051e-01 1.671708e-01 2.526245e-01 2.530124e-01 4.678277e-01 4.743561e-01 3.497807e-01 2.954119e-01 2.446809e-01 2.761188e-01 2.679121e-01 7.872389e-02
<GCONST> 9.530481e+01
<TRANSP> 5
 0.000000e+00 1.000000e+00 0.000000e+00 0.000000e+00 0.000000e+00
 0.000000e+00 8.288748e-01 1.711253e-01 0.000000e+00 0.000000e+00
 0.000000e+00 0.000000e+00 6.501104e-01 3.498896e-01 0.000000e+00
 0.000000e+00 0.000000e+00 0.000000e+00 8.488001e-01 1.511999e-01
 0.000000e+00 0.000000e+00 0.000000e+00 0.000000e+00 0.000000e+00
<ENDHMM>
~h "d"
<BEGINHMM>
<NUMSTATES> 5
<STATE> 2
<MEAN> 39
 -2.273869e+00 3.694519e-01 2.848266e+00 -6.612965e+00 -3.777925e-01 3.035378e+00 -9.910495e+00 -2.055948e+00 -7.338829e+00 -2.789387e+00 7.529206e-01 -3.015186e+00 7.155289e+01 -1.329870e-01 -3.010913e-01 4.884153e-01 -1.832189e-01 -9.381130e-02 -1.410151e-01 -3.773134e-01 -5.776948e-01 -2.272633e-01 -3.204837e-01 1.215988e-01 2.003187e-01 2.326451e-01 3.507911e-01 1.259418e-01 -1.860750e-01 9.217826e-02 -5.265505e-02 -3.153408e-02 -1.963016e-01 -3.088523e-02 -2.361248e-01 1.460444e-01 1.028449e-01 -1.944368e-02 -8.295589e-02
<VARIANCE> 39
 4.866766e+01 3.530847e+01 7.796755e+01 4.076040e+01 2.771078e+01 4.243192e+01 5.871228e+01 4.857890e+01 5.750644e+01 4.099897e+01 2.315984e+01 2.457073e+01 2.548460e+01 5.493989e+00 3.205539e+00 6.727906e+00 4.573905e+00 2.710143e+00 4.749633e+00 6.983521e+00 5.954014e+00 5.238736e+00 3.002190e+00 2.715875e+00 1.782460e+00 3.649559e+00 1.273644e+00 7.935423e-01 1.448135e+00 7.673084e-01 5.112709e-01 6.977797e-01 8.824092e-01 1.112366e+00 8.749632e-01 6.586027e-01 6.270756e-01 3.642716e-01 7.721903e-01
<GCONST> 1.345488e+02
<STATE> 3
<MEAN> 39
 1.481821e+00 -1.060094e+00 7.522497e+00 -8.439597e+00 -3.017078e-01 -1.697041e+00 -1.787474e+01 -8.519804e+00 -1.602078e+01 -2.957303e+00 5.111691e+00 -4.230484e+00 7.545631e+01 1.107084e+00 4.429922e-01 -9.906504e-01 3.869081e-01 7.678922e-02 3.058952e-01 -2.946802e-01 6.054310e-01 -4.391932e-01 4.691649e-01 6.623531e-01 -1.002174e-01 -5.660686e-01 -2.380246e-01 6.518511e-02 -4.317968e-01 1.107108e-01 6.148242e-03 4.093421e-01 7.188576e-01 6.635911e-01 6.518308e-01 1.940917e-01 -2.684489e-01 -1.637634e-02 -2.776053e-01
<VARIANCE> 39
 7.453444e+00 1.862055e+01 5.616929e+01 2.478862e+01 2.303204e+01 3.052832e+01 4.837701e+01 3.777545e+01 3.279280e+01 3.729923e+01 3.525119e+01 2.578604e+01 7.656847e+00 2.129495e+00 1.991899e+00 2.519325e+00 2.925756e+00 1.525856e+00 4.021926e+00 5.140429e+00 4.457396e+00 3.631791e+00 2.865857e+00 3.994753e+00 1.441633e+00 1.447712e+00 2.141912e-01 2.977818e-01 3.469258e-01 2.804727e-01 2.523741e-01 4.011937e-01 5.352340e-01 6.961815e-01 3.992822e-01 3.600669e-01 5.836390e-01 2.430174e-01 1.353294e-01
<GCONST> 1.124719e+02
<STATE> 4
<MEAN> 39
 2.897887e+00 8.701859e-01 -1.429814e+00 -5.021165e+00 -1.070714e+00 4.064305e+00 -1.228834e+01 -1.937003e+00 -1.186202e+01 -2.127286e+00 1.583044e+00 -3.697968e+00 6.969406e+01 2.104843e-01 7.413648e-01 -1.475117e+00 4.679729e-01 -1.218198e-01 9.954311e-01 1.291335e+00 1.112854e+00 8.884446e-01 4.237095e-01 -5.296267e-01 1.919116e-01 -9.987807e-01 -4.379581e-01 -1.813228e-01 3.728640e-01 -4.002602e-01 6.952761e-02 -4.283799e-01 -1.740274e-02 -3.442241e-01 4.565002e-02 -1.050393e-01 5.773890e-02 8.383675e-02 3.749547e-01
<VARIANCE> 39
 9.540920e+00 1.758065e+01 7.316889e+01 2.261710e+01 2.065325e+01 5.005068e+01 5.670808e+01 4.534538e+01 5.659056e+01 3.766943e+01 3.815030e+01 2.843649e+01 2.359375e+01 1.189200e+00 1.393844e+00 3.707940e+00 2.884707e+00 2.162153e+00 3.297990e+00 4.361793e+00 4.158219e+00 3.733659e+00 3.116973e+00 2.219893e+00 2.005156e+00 1.605058e+00 4.430357e-01 3.979309e-01 7.807760e-01 3.678628e-01 2.793103e-01 4.647582e-01 4.592226e-01 6.885041e-01 4.873564e-01 5.167992e-01 5.048617e-01 2.841315e-01 3.475036e-01
<GCONST> 1.184235e+02
<TRANSP> 5
 0.000000e+00 1.000000e+00 0.000000e+00 0.000000e+00 0.000000e+00
 0.000000e+00 6.803869e-01 3.196131e-01 0.000000e+00 0.000000e+00
 0.000000e+00 0.000000e+00 6.079627e-01 3.920374e-01 0.000000e+00
 0.000000e+00 0.000000e+00 0.000000e+00 4.288637e-01 5.711363e-01
 0.000000e+00 0.000000e+00 0.000000e+00 0.000000e+00 0.000000e+00
<ENDHMM>
~h "f"
<BEGINHMM>
<NUMSTATES> 5
<STATE> 2
<MEAN> 39
 -9.840054e+00 -3.739425e+00 6.071736e+00 -9.398716e+00 -3.090227e+00 4.647195e+00 -5.681808e+00 -4.128644e+00 -4.889572e+00 1.952064e+00 1.727507e+00 -3.449389e+00 7.461517e+01 -2.676254e-01 -4.052837e-01 4.922908e-01 -2.865452e-01 4.275824e-02 -3.509406e-01 -4.706585e-01 -7.572991e-01 -5.331966e-01 -2.305235e-01 -5.131958e-02 -1.412670e-01 3.034504e-01 3.455569e-01 2.848465e-01 -1.949252e-01 -1.017871e-02 2.337505e-01 -1.553260e-02 -8.207357e-02 1.864618e-01 -5.388186e-02 -2.164390e-01 5.933448e-02 3.597917e-02 -1.617148e-01
<VARIANCE> 39
 7.717227e+01 1.553488e+01 2.721804e+01 3.069475e+01 1.441968e+01 1.846881e+01 4.104481e+01 4.705510e+01 1.000336e+02 7.432851e+00 1.550168e+01 1.391882e+01 1.739574e+01 1.154873e+01 1.856025e+00 4.842356e+00 2.156683e+00 2.172759e+00 2.616179e+00 5.641593e+00 2.950616e+00 9.000893e+00 7.712957e-01 2.762179e+00 3.305319e-01 3.944297e+00 2.450892e+00 3.911213e-01 1.376501e+00 4.401136e-01 5.282083e-01 3.972374e-01 1.250204e+00 7.256561e-01 1.676736e+00 1.703941e-01 6.627439e-01 1.108395e-01 9.553615e-01
<GCONST> 1.205548e+02
<STATE> 3
<MEAN> 39
 -6.815621e+00 -5.366116e-01 2.746392e+00 -8.865931e+00 2.677902e+00 2.852631e+00 -8.962589e+00 -9.924287e+00 -1.149490e+01 -1.595527e+00 -4.676109e-01 -5.844640e+00 7.529788e+01 -2.065209e+00 6.383671e-01 -4.505960e-01 -1.850250e-01 1.766424e-01 2.062391e-01 1.522988e+00 6.026367e-01 1.905996e+00 -1.238312e+00 5.760639e-01 4.877290e-01 2.798384e-01 -1.920228e-01 -1.462905e-01 -7.124500e-02 -6.059559e-02 -2.698308e-01 -1.063075e-01 -2.060341e-01 2.592519e-01 -5.977416e-02 3.568595e-01 3.114647e-01 -2.368324e-02 4.534969e-02
<VARIANCE> 39
 4.270549e+01 1.204192e+01 2.471359e+01 4.374974e+01 9.653577e+00 1.307056e+01 3.941855e+01 1.393169e+01 4.809212e+01 2.047415e+01 5.637349e+00 7.957104e+00 8.796247e+00 7.369922e+00 1.015536e+00 1.714788e+00 1.732222e+00 2.290628e+00 2.160756e+00 7.026689e+00 2.356590e+00 7.372401e+00 1.775286e+00 1.161455e+00 1.341609e+00 2.524840e-01 7.081369e-01 1.087986e-01 2.079508e-01 2.295087e-01 4.436437e-01 4.873559e-01 9.349355e-01 3.913963e-01 1.027021e+00 3.418111e-01 2.226759e-01 1.604831e-01 4.506748e-02
<GCONST> 1.024481e+02
<STATE> 4
<MEAN> 39
 -9.487096e+00 -1.659884e+00 5.641809e+00 -6.138693e+00 -1.337077e+00 9.421232e-01 -1.079327e+01 -3.550256e+00 -7.480462e+00 -5.095745e+00 2.235352e+00 -8.803403e+00 7.613992e+01 2.762955e-01 9.161349e-02 9.139382e-02 9.119570e-02 -1.848653e-01 1.609261e-03 -1.002281e-01 9.344581e-02 -1.774831e-01 9.068575e-02 2.949260e-02 -1.020257e-01 -4.717340e-02 1.749869e-01 2.037605e-02 8.152054e-02 -5.762516e-02 -1.639394e-02 -6.653185e-03 -4.553681e-02 -6.288281e-03 -9.341340e-02 6.612609e-03 -4.559579e-02 -3.661254e-02 -3.995347e-02
<VARIANCE> 39
 4.608349e+01 1.533605e+01 5.222549e+01 2.571794e+01 8.415602e+00 1.541882e+01 6.802315e+01 1.519352e+01 4.379444e+01 1.352365e+01 1.023745e+01 3.039525e+01 4.164243e+00 3.171958e+00 6.752455e-01 2.488381e+00 8.396854e-01 7.044377e-01 1.111703e+00 5.588019e+00 1.568421e+00 2.914409e+00 9.206809e-01 1.271435e+00 1.569037e+00 3.035968e-01 6.011475e-01 1.031785e-01 3.201374e-01 1.032257e-01 1.487972e-01 2.017253e-01 1.002616e+00 3.705184e-01 5.657629e-01 1.823968e-01 2.243097e-01 3.404262e-01 4.535621e-02
<GCONST> 9.608527e+01
<TRANSP> 5
 0.000000e+00 1.000000e+00 0.000000e+00 0.000000e+00 0.000000e+00
 0.000000e+00 8.242258e-01 1.757742e-01 0.000000e+00 0.000000e+00
 0.000000e+00 0.000000e+00 6.701806e-01 3.298195e-01 0.000000e+00
 0.000000e+00 0.000000e+00 0.000000e+00 9.215861e-01 7.841393e-02
 0.000000e+00 0.000000e+00 0.000000e+00 0.000000e+00 0.000000e+00
<ENDHMM>
~h "g"
<BEGINHMM>
<NUMSTATES> 5
<STATE> 2
<MEAN> 39
 -1.548785e+00 9.783253e-01 2.520391e-01 -7.146827e+00 -2.072422e+00 3.413378e+00 -8.463136e+00 -5.330307e+00 -8.864649e+00 -7.872640e+00 -4.623774e+00 -5.186627e+00 7.285940e+01 -5.547614e-01 -6.700288e-01 1.002702e+00 -9.814764e-01 2.261638e-01 -2.495061e+00 -1.231971e+00 -2.800504e+00 -1.220425e+00 -7.055442e-01 1.240977e+00 1.129807e+00 1.790881e+00 8.528711e-01 4.381418e-01 -3.760042e-01 4.460566e-02 -1.891302e-01 -1.758728e-01 -5.590587e-01 -5.783120e-02 -5.358129e-01 2.967292e-01 5.526310e-01 1.564510e-02 -3.058787e-01
<VARIANCE> 39
 2.616114e+01 4.083158e+01 1.343178e+02 3.068255e+01 5.300287e+01 4.114974e+01 3.445385e+01 4.332233e+01 3.256711e+01 4.576657e+01 3.051833e+01 2.921037e+01 2.308391e+01 3.517914e+00 3.065308e+00 1.587044e+01 3.215487e+00 4.336872e+00 1.932111e+00 7.272015e+00 5.829913e+00 4.805915e+00 2.656793e+00 3.588082e+00 1.729441e+00 2.416322e+00 8.040895e-01 8.056482e-01 2.714190e+00 5.538727e-01 6.252186e-01 5.117426e-01 8.153426e-01 1.445246e+00 7.056929e-01 4.933037e-01 4.346855e-01 3.390376e-01 5.535406e-01
<GCONST> 1.320841e+02
<STATE> 3
<MEAN> 39
 3.160378e+00 5.520242e-01 3.935701e+00 -1.194814e+01 -4.651793e+00 -3.663976e+00 -1.752810e+01 -1.186091e+01 -1.607423e+01 -3.997478e+00 5.006312e+00 -1.996230e+00 7.638898e+01 1.744602e+00 9.390962e-01 -1.002339e+00 -1.995835e+00 -6.986077e-01 -1.302472e+00 -1.150412e+00 1.304587e+00 -9.252396e-01 1.320412e+00 2.066571e+00 -3.264352e-01 -8.445622e-02 -2.288159e-01 4.603627e-02 -3.805578e-01 -2.592443e-01 8.613597e-02 5.667161e-01 7.590390e-01 1.229959e+00 6.887065e-01 1.493839e-01 -2.825935e-01 -4.431917e-01 -2.634558e-01
<VARIANCE> 39
 3.379372e+00 1.531333e+01 6.613308e+01 3.194126e+01 3.502586e+01 3.861526e+01 3.078491e+01 3.344943e+01 3.263129e+01 3.829680e+01 4.520163e+01 2.095310e+01 7.458409e+00 8.785115e-01 7.568349e-01 4.475025e+00 1.063438e+00 1.569963e+00 2.138832e+00 4.677336e+00 4.939067e+00 2.264475e+00 1.766513e+00 1.988926e+00 1.637095e+00 1.395025e-01 1.792201e-01 1.712212e-01 7.729093e-01 1.688977e-01 2.874846e-01 2.231290e-01 5.599484e-01 1.160937e+00 3.109853e-01 6.281909e-01 7.173263e-01 2.514154e-01 1.150216e-01
<GCONST> 1.053140e+02
<STATE> 4
<MEAN> 39
 6.199861e+00 7.603198e-01 -2.206113e+00 -2.272838e+01 -4.276744e+00 -1.642648e+00 -1.536293e+01 2.152431e+00 -1.618889e+01 -1.156110e+00 8.776867e+00 -9.244872e+00 7.637163e+01 1.467461e-01 1.855593e-01 -4.934715e-01 2.485498e-01 1.945750e-01 4.494409e-01 4.693210e-01 3.558739e-01 -1.672981e-01 1.758353e-01 -2.093729e-01 -3.430593e-01 -4.159756e-01 -7.812669e-02 -4.003476e-02 -4.098017e-02 2.868167e-01 4.887938e-03 6.573121e-02 6.634495e-02 -1.118601e-01 1.180732e-01 -4.129393e-02 -3.694431e-02 1.182193e-01 -5.650328e-02
<VARIANCE> 39
 1.945813e+00 2.113525e+01 3.135479e+01 3.985931e+01 3.369659e+01 2.244139e+01 2.594190e+01 5.258280e+01 3.025244e+01 2.059313e+01 1.908362e+01 2.838604e+01 6.470968e+00 1.379151e-01 6.486391e-01 8.581760e-01 3.856557e+00 1.884636e+00 7.641538e-01 1.796133e+00 5.002530e+00 2.873821e+00 1.290755e+00 1.539742e+00 1.431239e+00 7.622801e-01 4.900997e-02 1.325248e-01 1.865414e-01 2.249156e-01 3.158657e-01 1.670763e-01 3.362079e-01 7.171564e-01 5.520225e-01 2.307635e-01 2.683216e-01 2.106944e-01 1.212936e-01
<GCONST> 9.452537e+01
<TRANSP> 5
 0.000000e+00 1.000000e+00 0.000000e+00 0.000000e+00 0.000000e+00
 0.000000e+00 7.354876e-01 2.645123e-01 0.000000e+00 0.000000e+00
 0.000000e+00 0.000000e+00 6.535614e-01 3.464386e-01 0.000000e+00
 0.000000e+00 0.000000e+00 0.000000e+00 8.943402e-01 1.056597e-01
 0.000000e+00 0.000000e+00 0.000000e+00 0.000000e+00 0.000000e+00
<ENDHMM>
~h "k"
<BEGINHMM>
<NUMSTATES> 5
<STATE> 2
<MEAN> 39
 -2.990237e+00 -4.622846e+00 -5.032512e+00 -4.708387e+00 -6.515511e-01 -2.634179e-02 -7.541414e+00 -6.056831e+00 -9.239697e+00 1.087833e+00 3.870948e+00 -2.890986e+00 7.185925e+01 -2.353082e-01 -4.744218e-01 3.673880e-01 5.764235e-02 2.151611e-01 1.786320e-01 2.817786e-01 -3.794115e-04 1.027675e-02 1.151109e-01 5.925547e-02 -2.382895e-01 2.578846e-01 3.397428e-01 3.655483e-01 1.008483e-01 -5.255433e-02 -1.949275e-02 1.502986e-01 -2.131968e-01 1.828503e-01 -2.780187e-01 -1.186536e-01 -9.319563e-02 -2.243242e-01 -1.067451e-01
<VARIANCE> 39
 2.603695e+01 4.451034e+01 4.512316e+01 3.266146e+01 2.661291e+01 3.675443e+01 3.891228e+01 4.394697e+01 3.471624e+01 4.566796e+01 3.523814e+01 3.222611e+01 2.037711e+01 3.687694e+00 3.895005e+00 4.879680e+00 1.952231e+00 2.648243e+00 4.706578e+00 3.166918e+00 5.294343e+00 3.320735e+00 2.893613e+00 3.881413e+00 3.275917e+00 3.378585e+00 5.992317e-01 8.533717e-01 8.965830e-01 2.719162e-01 5.042645e-01 1.101206e+00 5.393795e-01 1.057175e+00 5.978140e-01 6.817982e-01 8.403223e-01 6.091491e-01 6.256656e-01
<GCONST> 1.287917e+02
<STATE> 3
<MEAN> 39
 3.509443e-01 -1.874295e+00 -7.531687e-01 -6.663147e+00 -1.598232e+00 4.187081e+00 -8.746294e+00 -2.793411e+00 -1.002964e+01 7.057394e-01 1.445907e+00 -7.051262e+00 7.070731e+01 1.498093e+00 2.209562e+00 1.426672e-01 -1.703418e-01 -3.770672e-02 3.429894e-01 -1.148191e+00 7.277990e-01 -1.457655e+00 -1.081008e+00 3.146874e-01 -1.232894e+00 -1.829627e-01 -1.646933e-01 6.966690e-02 9.114756e-02 -3.541898e-01 -1.586600e-01 -2.711376e-01 -2.931197e-01 -8.606528e-02 9.009574e-02 -2.277312e-01 3.002293e-01 2.882734e-01 2.080986e-01
<VARIANCE> 39
 1.081378e+01 2.313814e+01 3.472980e+01 3.383332e+01 3.142550e+01 3.850935e+01 5.858318e+01 4.315369e+01 5.725558e+01 2.666288e+01 3.103497e+01 3.046948e+01 1.740821e+01 1.672375e+00 3.048695e+00 5.425874e+00 2.606245e+00 2.260474e+00 2.712304e+00 6.485468e+00 4.460034e+00 3.483374e+00 2.746293e+00 2.295917e+00 4.360809e+00 1.757505e+00 2.147251e-01 3.939968e-01 5.963625e-01 4.940290e-01 4.362777e-01 7.449103e-01 8.795524e-01 1.017615e+00 6.063278e-01 4.231455e-01 6.140108e-01 4.368516e-01 5.069461e-01
<GCONST> 1.225416e+02
<STATE> 4
<MEAN> 39
 2.811158e+00 2.831907e+00 -3.173168e+00 -5.726121e+00 -1.292161e+00 4.549603e+00 -1.064949e+01 -2.687692e+00 -1.256546e+01 -1.496869e+00 3.486437e+00 -6.612019e+00 6.926021e+01 6.769838e-02 6.003378e-01 -1.093794e+00 -2.864636e-02 -4.632629e-01 6.618160e-02 7.855273e-01 5.255401e-01 2.901933e-01 -3.114004e-01 4.543442e-02 3.602524e-01 -4.470767e-01 -3.866626e-01 -3.366586e-01 1.183475e-01 -2.953091e-01 -4.621906e-02 -2.978089e-01 1.274191e-01 -4.932344e-02 1.063158e-01 1.405917e-03 1.176314e-01 2.044961e-01 2.624834e-01
<VARIANCE> 39
 5.565779e+00 1.049099e+01 5.454064e+01 3.557498e+01 2.572002e+01 2.632702e+01 4.361861e+01 4.486552e+01 5.799746e+01 1.941821e+01 2.863123e+01 2.787358e+01 2.584872e+01 1.767281e+00 2.062212e+00 3.437487e+00 4.324212e+00 2.167252e+00 3.857314e+00 5.898271e+00 4.992203e+00 3.990406e+00 2.582455e+00 3.705718e+00 2.628747e+00 2.779693e+00 2.747487e-01 2.182265e-01 7.754401e-01 5.069804e-01 5.424000e-01 4.460456e-01 8.508323e-01 9.897704e-01 8.010916e-01 4.340301e-01 5.171677e-01 4.625472e-01 6.621209e-01
<GCONST> 1.212648e+02
<TRANSP> 5
 0.000000e+00 1.000000e+00 0.000000e+00 0.000000e+00 0.000000e+00
 0.000000e+00 6.872158e-01 3.127842e-01 0.000000e+00 0.000000e+00
 0.000000e+00 0.000000e+00 3.001005e-01 6.998996e-01 0.000000e+00
 0.000000e+00 0.000000e+00 0.000000e+00 6.540577e-01 3.459423e-01
 0.000000e+00 0.000000e+00 0.000000e+00 0.000000e+00 0.000000e+00
<ENDHMM>
~h "l"
<BEGINHMM>
<NUMSTATES> 5
<STATE> 2
<MEAN> 39
 4.143539e+00 4.412352e+00 9.314369e+00 -1.229779e+01 -1.145934e+01 1.447016e+00 -1.635056e+01 1.853110e+00 -1.279778e+01 -5.312453e+00 4.979234e+00 -7.730557e+00 7.258190e+01 -9.726130e-02 -1.302917e-01 3.927671e-02 -4.050302e-01 -5.144193e-01 -1.135348e-01 1.843177e-01 3.853256e-01 4.577703e-02 1.241528e-01 4.411831e-01 -2.472064e-01 1.858645e-01 -1.463694e-01 -2.729635e-01 -2.030042e-01 9.119606e-02 2.006016e-01 -4.025839e-02 3.282431e-01 1.098096e-01 1.246970e-01 -3.545828e-02 -1.288981e-01 6.718676e-02 6.834115e-02
<VARIANCE> 39
 4.689854e+00 1.655111e+01 1.841231e+01 2.301141e+01 3.934164e+01 4.860023e+01 3.669091e+01 4.086463e+01 2.312834e+01 5.114440e+01 2.458448e+01 2.589216e+01 5.483452e+00 4.980262e-01 1.147460e+00 1.027562e+00 1.647019e+00 3.691453e+00 1.956378e+00 3.129643e+00 5.017233e+00 1.846233e+00 2.424925e+00 2.317157e+00 2.253505e+00 6.975303e-01 9.893748e-02 2.063938e-01 1.518704e-01 2.031444e-01 5.407352e-01 3.202512e-01 5.929672e-01 6.948407e-01 3.448184e-01 4.802262e-01 4.035188e-01 4.210592e-01 7.224300e-02
<GCONST> 1.034609e+02
<STATE> 3
<MEAN> 39
 2.108834e+00 1.024385e+00 7.416390e+00 -1.126504e+01 -9.333219e+00 8.620754e-01 -1.211072e+01 3.786453e+00 -1.120603e+01 -4.302936e+00 4.831239e+00 -8.270592e+00 7.351640e+01 -8.584791e-02 -9.809503e-01 -6.497188e-01 5.061549e-01 7.141058e-01 8.025202e-02 8.661610e-01 1.110924e+00 2.426011e-01 -1.410237e-01 -1.350574e-01 4.416427e-02 2.977604e-02 8.123030e-02 1.283999e-01 -5.928270e-02 1.450852e-01 4.073094e-01 1.583283e-01 -3.524247e-01 -1.284310e-01 -6.011217e-02 6.404275e-02 -9.862725e-02 1.978750e-02 -1.347018e-01
<VARIANCE> 39
 6.708902e+00 1.194513e+01 2.854944e+01 3.720907e+01 9.408822e+01 4.731133e+01 4.111815e+01 5.641802e+01 2.164450e+01 2.205869e+01 2.866321e+01 2.119025e+01 1.097565e+01 2.316548e-01 1.634874e+00 1.120730e+00 1.642931e+00 3.133397e+00 2.708853e+00 2.932228e+00 4.056962e+00 1.785469e+00 2.105989e+00 1.706466e+00 1.592906e+00 9.600281e-01 3.085717e-02 1.424166e-01 2.199000e-01 2.201477e-01 6.987391e-01 2.914999e-01 5.969988e-01 9.096214e-01 3.380788e-01 3.564348e-01 3.575257e-01 4.136892e-01 5.971605e-02
<GCONST> 1.031881e+02
<STATE> 4
<MEAN> 39
 3.226022e+00 -1.693283e+00 3.814603e+00 -1.584211e+01 -1.081023e+01 -4.899004e-01 -1.042425e+01 6.841347e+00 -9.231668e+00 -6.033674e+00 5.566423e+00 -7.418145e+00 7.635497e+01 -8.983348e-03 -9.406232e-02 -5.267288e-01 5.138779e-01 1.018554e+00 1.444336e-01 3.937928e-02 -4.163001e-01 -1.300804e-02 2.389839e-01 -3.458695e-01 1.148354e-01 -1.933630e-01 -1.546973e-03 2.200326e-01 4.878145e-03 7.759064e-02 1.707194e-02 2.183615e-02 5.514648e-04 -1.756163e-01 -8.843104e-02 4.533660e-02 -2.466608e-02 2.189992e-02 -1.157855e-01
<VARIANCE> 39
 5.333278e+00 1.842310e+01 2.650307e+01 3.840742e+01 3.240816e+01 4.096644e+01 4.956875e+01 3.061871e+01 1.892261e+01 2.634299e+01 1.762371e+01 1.787085e+01 1.282701e+01 1.274661e-01 7.449426e-01 9.701322e-01 1.073370e+00 9.708655e-01 9.815881e-01 1.804141e+00 2.157783e+00 1.606457e+00 1.193099e+00 1.434317e+00 9.643202e-01 4.123257e-01 2.832999e-02 8.721333e-02 1.166981e-01 1.860437e-01 1.580777e-01 2.285980e-01 3.001638e-01 3.597516e-01 2.613400e-01 1.553283e-01 1.905405e-01 1.794657e-01 5.509311e-02
<GCONST> 8.645016e+01
<TRANSP> 5
 0.000000e+00 1.000000e+00 0.000000e+00 0.000000e+00 0.000000e+00
 0.000000e+00 7.998196e-01 2.001804e-01 0.000000e+00 0.000000e+00
 0.000000e+00 0.000000e+00 4.829397e-01 5.170603e-01 0.000000e+00
 0.000000e+00 0.000000e+00 0.000000e+00 7.247627e-01 2.752373e-01
 0.000000e+00 0.000000e+00 0.000000e+00 0.000000e+00 0.000000e+00
<ENDHMM>
~h "m"
<BEGINHMM>
<NUMSTATES> 5
<STATE> 2
<MEAN> 39
 5.687204e+00 9.234361e+00 -8.307922e-01 -2.795501e+00 -1.681339e+00 1.612384e+01 -8.442184e+00 8.065997e-03 -1.597620e+00 -5.016716e+00 -5.216185e+00 -9.985442e-01 6.558459e+01 1.697802e-01 7.575532e-02 -5.417986e-01 9.823508e-01 2.677713e-01 7.363548e-01 6.460422e-01 -1.713042e-01 2.621682e-01 -7.082339e-02 -6.036775e-01 -3.565402e-01 -3.710168e-01 -7.010761e-02 -1.061903e-01 -1.082025e-01 -2.286415e-01 2.455188e-02 -3.855838e-01 2.632097e-02 1.993418e-01 -1.653295e-01 1.805874e-01 3.235868e-01 1.265985e-02 9.632735e-02
<VARIANCE> 39
 3.110708e+00 7.883807e+00 1.930547e+01 2.504692e+01 1.150392e+01 2.816619e+01 2.043151e+01 1.844562e+01 4.327440e+01 1.577940e+01 1.250073e+01 2.784773e+01 5.790187e+00 1.396911e-01 3.895658e-01 4.876303e-01 1.226232e+00 7.752187e-01 2.992092e+00 8.837087e-01 1.400609e+00 1.644277e+00 2.028395e+00 2.032430e+00 1.107495e+00 1.120846e-01 1.543261e-02 6.849067e-02 6.946819e-02 1.535741e-01 1.626014e-01 3.058592e-01 1.515508e-01 1.749504e-01 2.700804e-01 2.334239e-01 3.451481e-01 1.900427e-01 2.876335e-02
<GCONST> 7.730157e+01
<STATE> 3
<MEAN> 39
 5.353196e+00 5.731002e+00 2.908533e+00 -2.557082e+00 -4.996095e+00 1.247093e+01 -8.360058e+00 9.475000e-01 -8.447098e+00 -4.603683e+00 -1.483570e+00 -6.119396e+00 6.769414e+01 4.826507e-02 -1.433410e-01 -1.738090e-01 4.243956e-01 1.844112e-01 3.043202e-01 -1.961002e-01 -9.027680e-02 5.073164e-02 -1.246942e-01 -2.658786e-02 1.733644e-01 -1.932255e-01 -1.472992e-01 -3.804311e-02 1.440088e-01 -7.482603e-01 -1.114522e-01 -7.860105e-01 -2.653978e-01 4.295559e-01 -2.155515e-01 2.038440e-01 5.544077e-01 7.859527e-02 2.506537e-01
<VARIANCE> 39
 3.816734e+00 1.240957e+01 4.488558e+01 3.492641e+01 1.957909e+01 1.334375e+01 3.856430e+01 5.683399e+01 1.707428e+01 1.003924e+01 3.663454e+01 2.082435e+01 5.821637e+00 3.306872e-01 1.984038e-01 4.846648e-01 1.526864e+00 5.556161e-01 1.028210e+00 9.003314e-01 1.478499e+00 6.805305e-01 1.184693e+00 1.256007e+00 6.937982e-01 1.149948e-01 5.582307e-02 1.236589e-01 1.830064e-01 2.377561e-01 1.633330e-01 2.298403e-01 4.223784e-01 3.058836e-01 1.515204e-01 2.324113e-01 2.905620e-01 2.337354e-01 2.799238e-02
<GCONST> 8.082746e+01
<STATE> 4
<MEAN> 39
 4.946592e+00 6.104443e+00 2.107738e+00 -3.703592e+00 -3.664592e+00 1.180514e+01 -8.398334e+00 5.362760e-01 -9.293569e+00 -4.392597e+00 -1.926917e+00 -5.514396e+00 6.781387e+01 -1.616964e-01 -3.693524e-01 -8.964902e-03 -1.601786e+00 -5.499020e-01 -2.170489e+00 -8.374162e-01 1.539080e+00 -2.206687e-01 4.831176e-01 1.821255e+00 -8.121870e-02 5.877813e-01 -8.662730e-02 -1.553904e-02 1.097589e-02 -7.370680e-01 -1.048824e-01 -7.481257e-01 -2.551832e-01 4.609240e-01 -1.673235e-02 3.718141e-02 5.684705e-01 -1.860072e-01 2.819404e-01
<VARIANCE> 39
 2.589328e+00 1.010642e+01 5.583837e+01 2.645078e+01 2.036531e+01 1.301535e+01 2.918037e+01 5.793995e+01 2.580323e+01 1.093465e+01 3.840621e+01 1.138059e+01 9.226014e+00 1.003116e+00 1.030800e+00 1.419506e+00 2.475877e+00 1.661300e+00 3.023181e+00 4.839715e+00 1.881195e+00 6.911660e-01 1.713683e+00 1.498240e+00 9.008487e-01 5.474347e-01 1.390514e-02 8.637964e-02 9.577123e-02 2.044489e-01 2.332333e-01 4.244925e-01 2.310210e-01 5.373848e-01 2.833463e-01 4.058919e-01 2.999780e-01 1.499570e-01 5.582967e-02
<GCONST> 9.097038e+01
<TRANSP> 5
 0.000000e+00 1.000000e+00 0.000000e+00 0.000000e+00 0.000000e+00
 0.000000e+00 7.530383e-01 2.469617e-01 0.000000e+00 0.000000e+00
 0.000000e+00 0.000000e+00 4.999319e-01 5.000681e-01 0.000000e+00
 0.000000e+00 0.000000e+00 0.000000e+00 2.827117e-01 7.172883e-01
 0.000000e+00 0.000000e+00 0.000000e+00 0.000000e+00 0.000000e+00
<ENDHMM>
~h "n"
<BEGINHMM>
<NUMSTATES> 5
<STATE> 2
<MEAN> 39
 2.062123e+00 8.194700e-01 6.534219e+00 -6.378360e+00 1.260868e+00 2.161115e+00 -1.301783e+01 1.767475e+00 -1.028453e+01 1.825299e-01 6.092552e+00 -5.832183e+00 7.338773e+01 6.562099e-01 1.206395e+00 -3.516222e-01 1.064172e+00 -6.914405e-01 1.975319e+00 2.507476e-01 -8.665657e-02 6.980943e-01 -6.569850e-01 -2.050202e+00 3.353419e-01 -1.215673e+00 -8.646152e-02 6.268025e-03 -5.568853e-02 -4.032529e-02 2.736881e-02 1.615490e-01 2.923947e-01 7.172143e-02 2.164471e-02 -1.323277e-01 -2.525944e-01 7.831321e-02 -2.075266e-02
<VARIANCE> 39
 4.852830e+00 1.385409e+01 2.665694e+01 3.395846e+01 1.656748e+01 4.735268e+01 1.431150e+01 1.897622e+01 1.801070e+01 2.416186e+01 4.792782e+01 1.223310e+01 1.163219e+01 6.105835e-01 1.192475e+00 1.730004e+00 1.346286e+00 1.435886e+00 2.519473e+00 1.766545e+00 1.580817e+00 2.285330e+00 1.730510e+00 3.673650e+00 1.698724e+00 7.113961e-01 3.346952e-01 3.223000e-01 3.467905e-01 2.263986e-01 3.115749e-01 8.216381e-01 3.551970e-01 2.526696e-01 4.584296e-01 2.315923e-01 5.909814e-01 2.290489e-01 2.327542e-01
<GCONST> 1.013277e+02
<STATE> 3
<MEAN> 39
 4.899549e+00 4.677222e+00 1.608728e+00 -1.568398e+00 3.002518e-01 1.013885e+01 -1.009960e+01 2.561804e+00 -8.150012e+00 -3.095550e+00 -8.197243e-01 -4.887565e+00 6.821519e+01 -2.556759e-01 3.728759e-01 -5.962558e-01 3.467956e-01 3.278045e-02 4.205551e-01 1.347872e+00 -5.307480e-02 5.299813e-01 -1.958200e-01 -8.631683e-01 2.453507e-01 -4.612034e-01 -6.879935e-01 -4.703438e-01 4.427640e-01 -5.163046e-01 1.807908e-01 -5.935687e-01 1.868068e-01 -5.026210e-02 1.028322e-01 2.920966e-01 3.894829e-01 4.880388e-02 4.757862e-01
<VARIANCE> 39
 3.951782e+00 8.509585e+00 3.438248e+01 3.210909e+01 1.345922e+01 1.726490e+01 2.348213e+01 2.746008e+01 2.287637e+01 1.739929e+01 1.926500e+01 1.498565e+01 7.177480e+00 1.235645e+00 1.142911e+00 3.322053e+00 1.359784e+00 1.912471e+00 3.367224e+00 2.527942e+00 2.844297e+00 2.975338e+00 2.027752e+00 3.152806e+00 1.624023e+00 7.395576e-01 4.535814e-01 2.947564e-01 8.199489e-01 4.139218e-01 4.003953e-01 6.920581e-01 4.844480e-01 5.836990e-01 6.580638e-01 3.532590e-01 6.164716e-01 3.362347e-01 2.389910e-01
<GCONST> 1.064532e+02
<STATE> 4
<MEAN> 39
 -4.751579e+00 1.781463e+00 6.060742e+00 -1.026973e+01 2.634593e+00 8.185305e+00 -5.263760e+00 1.452429e+00 -5.091871e+00 -2.944253e+00 -2.571317e+00 -3.248010e+00 7.115711e+01 -3.370886e+00 -1.517399e+00 2.450820e+00 -2.071456e+00 -7.287366e-03 -7.966168e-01 5.771981e-01 -5.392561e-01 1.123718e+00 -1.862212e-01 5.846012e-01 3.450953e-01 1.862151e+00 7.900534e-02 -2.012004e-01 7.247570e-02 6.611692e-02 -3.598796e-01 -2.924323e-01 -6.152369e-01 -3.015341e-01 -1.848327e-01 -7.290903e-02 3.815435e-01 -9.278277e-02 2.615281e-01
<VARIANCE> 39
 7.714099e+01 2.438178e+01 7.207247e+01 9.686968e+01 2.936312e+01 2.332316e+01 2.616876e+01 1.779580e+01 2.606021e+01 2.021715e+01 2.224158e+01 2.056237e+01 2.320638e+01 5.218417e+00 2.565505e+00 5.167618e+00 5.210476e+00 3.400306e+00 2.897482e+00 4.106946e+00 2.816420e+00 3.409197e+00 2.319979e+00 3.852239e+00 1.482583e+00 1.998936e+00 1.805077e+00 4.508872e-01 1.542160e+00 1.367742e+00 5.468916e-01 5.527412e-01 6.991946e-01 5.515612e-01 5.977806e-01 4.766935e-01 6.150564e-01 3.067436e-01 5.791823e-01
<GCONST> 1.263255e+02
<TRANSP> 5
 0.000000e+00 1.000000e+00 0.000000e+00 0.000000e+00 0.000000e+00
 0.000000e+00 5.111720e-01 4.888280e-01 0.000000e+00 0.000000e+00
 0.000000e+00 0.000000e+00 6.741917e-01 3.258083e-01 0.000000e+00
 0.000000e+00 0.000000e+00 0.000000e+00 5.870616e-01 4.129384e-01
 0.000000e+00 0.000000e+00 0.000000e+00 0.000000e+00 0.000000e+00
<ENDHMM>
~h "p"
<BEGINHMM>
<NUMSTATES> 5
<STATE> 2
<MEAN> 39
 2.323503e+00 -6.314585e-01 -1.010517e+01 -4.025303e+00 -4.571191e+00 3.362495e+00 -6.042680e+00 1.886447e+00 -8.957337e+00 1.808659e+00 2.663407e+00 -6.572506e+00 6.721021e+01 -3.856094e-01 -7.628184e-02 4.988890e-02 4.356083e-01 2.534261e-01 1.219507e-02 -2.817920e-02 -4.040391e-01 5.035668e-01 2.007069e-01 2.840268e-01 3.818520e-01 -1.417112e-01 3.422713e-02 -2.117038e-01 4.204324e-01 -2.911689e-01 1.175852e-01 -4.340355e-01 -5.521339e-01 -3.927661e-01 -3.881873e-01 1.721467e-01 7.179671e-02 -1.961095e-01 3.925155e-01
<VARIANCE> 39
 1.362158e+01 1.474735e+01 3.810319e+01 1.534250e+01 9.604586e+00 1.766745e+01 1.512435e+01 2.743467e+01 2.242757e+01 1.634035e+01 3.684389e+01 4.207869e+01 1.860826e+01 1.074339e+00 2.596390e+00 8.342697e+00 2.181938e+00 1.917913e+00 3.705622e+00 4.865011e+00 2.630120e+00 4.156969e+00 2.402230e+00 3.522518e+00 3.808661e+00 3.991081e+00 2.167451e-01 2.817731e-01 6.422798e-01 3.192284e-01 3.722929e-01 4.721337e-01 4.506751e-01 4.202885e-01 5.172970e-01 5.133831e-01 8.736186e-01 9.573963e-01 3.494034e-01
<GCONST> 1.150673e+02
<STATE> 3
<MEAN> 39
 -1.497638e+00 -6.561425e+00 -3.887780e-01 -4.318186e+00 1.473076e+00 -8.315797e-01 -9.410449e+00 -2.161118e+00 -6.893702e+00 5.055565e+00 2.183578e+00 -6.126849e+00 7.301462e+01 1.876184e-01 -3.100363e-01 1.792899e+00 -7.184407e-03 1.612555e+00 -1.791448e+00 -2.094404e+00 -8.129634e-01 -1.326933e+00 -5.134732e-02 -3.323937e-01 -1.853853e+00 1.338780e+00 2.237738e-01 6.176872e-01 -1.379847e-01 -4.306376e-02 -1.282731e-01 -2.276332e-02 -2.887030e-01 4.499792e-01 -1.747784e-01 -5.633290e-01 -2.172620e-01 -2.852513e-01 -2.011147e-01
<VARIANCE> 39
 1.603271e+01 2.703678e+01 2.899771e+01 1.938536e+01 4.249651e+01 1.462095e+01 3.675710e+01 2.053531e+01 3.584843e+01 1.887627e+01 2.722554e+01 1.584344e+01 1.566311e+01 3.559344e-01 4.095603e+00 3.819278e+00 9.608420e-01 1.643563e+00 3.384627e+00 5.092102e+00 4.457620e+00 4.329054e+00 5.377478e+00 1.313700e+00 5.514139e+00 2.423646e+00 8.606354e-02 5.057186e-01 4.959329e-01 2.459791e-01 4.519269e-01 2.564575e-01 5.720966e-01 1.280007e-01 5.018920e-01 7.313713e-01 5.686075e-01 2.167928e-01 1.152084e-01
<GCONST> 1.097389e+02
<STATE> 4
<MEAN> 39
 9.566916e-01 -6.242294e+00 3.685531e+00 -6.052047e+00 1.686925e+00 -7.833373e+00 -2.051126e+01 -3.980484e+00 -1.446921e+01 1.631418e+00 3.495102e+00 -1.459116e+01 7.686758e+01 2.751725e-01 2.410168e-01 5.669550e-01 -6.731842e-01 6.319290e-02 -7.644575e-01 -9.932263e-01 9.471941e-01 -6.574723e-01 -3.581829e-01 -3.076091e-01 -5.048169e-01 3.054041e-01 -6.432403e-02 2.593876e-01 -5.536485e-01 -1.458858e-02 -2.652048e-01 6.304958e-01 1.009065e+00 5.060366e-01 7.330847e-01 2.245883e-01 -2.264152e-01 5.695959e-01 -5.226290e-01
<VARIANCE> 39
 1.075999e+01 2.853356e+01 5.450021e+01 2.551157e+01 3.557091e+01 2.420688e+01 4.178568e+01 1.165538e+02 3.473450e+01 1.384771e+01 2.057524e+01 4.943214e+01 1.259188e+01 5.120992e-01 2.793196e+00 3.747365e+00 2.414676e+00 2.052661e+00 3.525825e+00 7.649203e+00 4.317069e+00 3.735909e+00 1.852401e+00 2.991585e+00 5.185947e+00 2.031290e+00 8.505260e-02 4.448444e-01 7.093025e-01 2.682282e-01 2.981487e-01 4.368178e-01 7.366849e-01 6.102220e-01 7.387753e-01 4.361421e-01 4.254655e-01 8.938744e-01 1.925689e-01
<GCONST> 1.174276e+02
<TRANSP> 5
 0.000000e+00 1.000000e+00 0.000000e+00 0.000000e+00 0.000000e+00
 0.000000e+00 7.681234e-01 2.318766e-01 0.000000e+00 0.000000e+00
 0.000000e+00 0.000000e+00 4.789324e-01 5.210676e-01 0.000000e+00
 0.000000e+00 0.000000e+00 0.000000e+00 7.007450e-01 2.992549e-01
 0.000000e+00 0.000000e+00 0.000000e+00 0.000000e+00 0.000000e+00
<ENDHMM>
~h "r"
<BEGINHMM>
<NUMSTATES> 5
<STATE> 2
<MEAN> 39
 5.220235e+00 4.929553e+00 -4.298560e+00 -1.139628e+01 1.987887e+00 -6.648833e+00 -1.382222e+01 -4.643792e+00 -2.044489e+01 -4.017560e+00 2.934944e+00 -5.395742e+00 7.266223e+01 6.445531e-01 1.274487e+00 -2.398185e-01 -1.898532e+00 7.056190e-01 1.646338e-01 -1.266600e+00 1.160355e+00 -9.351708e-01 -8.984072e-01 9.862693e-01 -9.504461e-02 -1.143516e-01 -1.762868e-01 -1.726921e-01 4.190253e-02 -5.258025e-02 5.309726e-02 2.467183e-01 -4.486340e-02 1.436756e-01 1.692401e-01 3.094111e-02 8.715484e-02 1.097552e-01 2.410890e-02
<VARIANCE> 39
 5.975221e+00 2.210649e+01 1.688513e+01 2.627430e+01 2.588943e+01 3.880866e+01 3.474780e+01 6.516940e+01 2.903234e+01 5.383917e+01 4.676461e+01 3.938681e+01 6.673856e+00 5.966635e-01 1.217165e+00 1.144394e+00 1.692430e+00 1.558876e+00 2.104119e+00 3.561086e+00 4.886601e+00 3.261956e+00 2.961041e+00 2.547098e+00 2.285024e+00 6.205257e-01 1.895652e-01 2.686600e-01 1.902581e-01 3.088636e-01 2.657171e-01 2.706495e-01 5.546390e-01 7.790679e-01 7.361692e-01 4.650946e-01 4.685232e-01 4.487605e-01 1.312700e-01
<GCONST> 1.080574e+02
<STATE> 3
<MEAN> 39
 6.926501e+00 8.593279e+00 -3.992789e+00 -2.205344e+01 5.312509e+00 -3.248187e-01 -2.110127e+01 2.200813e+00 -2.208813e+01 -8.755417e+00 1.152039e+01 -4.077709e+00 7.326250e+01 -7.934619e-02 -3.397775e-01 1.654655e-01 -5.864978e-01 4.774585e-02 -7.808063e-03 -2.039399e-01 1.893216e-02 2.829979e-01 5.325888e-01 8.282708e-01 -1.355204e-01 3.758033e-01 -1.004847e-01 -2.350281e-01 8.801334e-02 3.655015e-01 -1.973731e-01 -1.447890e-01 3.402991e-01 -2.589853e-01 1.838601e-01 3.242837e-01 -1.593081e-01 -1.596956e-01 4.882564e-02
<VARIANCE> 39
 2.276430e+00 1.569041e+01 1.203625e+01 2.704311e+01 2.146486e+01 2.369055e+01 2.749133e+01 2.876028e+01 4.700970e+01 3.159978e+01 3.677884e+01 3.037884e+01 3.392395e+00 1.670624e-01 1.145344e+00 5.262001e-01 1.409330e+00 1.423731e+00 1.263089e+00 2.153832e+00 2.625047e+00 2.370000e+00 2.870411e+00 2.601404e+00 2.255434e+00 3.544326e-01 3.416282e-02 1.077027e-01 1.011754e-01 1.930327e-01 2.152005e-01 2.033031e-01 3.165649e-01 3.496163e-01 4.488542e-01 3.028125e-01 4.372092e-01 4.434085e-01 3.463896e-02
<GCONST> 9.063206e+01
<STATE> 4
<MEAN> 39
 3.936554e+00 9.715671e-01 -1.829528e+00 -1.615443e+01 4.215616e+00 -6.097045e+00 -1.843102e+01 -6.128150e+00 -1.832350e+01 2.390238e+00 1.167321e+01 -6.700492e+00 7.675085e+01 -4.968180e-01 -9.058599e-01 9.644669e-01 1.235609e+00 -6.397176e-01 -3.090394e-01 7.817271e-01 -5.827615e-01 8.683154e-01 1.184347e+00 -3.634367e-01 -1.071658e+00 3.669499e-01 8.095335e-02 2.515341e-01 -2.922530e-02 6.592446e-02 -2.753461e-02 3.234144e-01 -1.681475e-02 3.423141e-01 9.802018e-03 -4.599823e-01 -2.942236e-01 3.593516e-02 -2.379078e-01
<VARIANCE> 39
 3.982506e+00 2.140288e+01 2.760412e+01 5.005204e+01 2.920227e+01 3.756980e+01 1.706668e+01 7.693407e+01 4.738647e+01 4.335691e+01 2.159124e+01 4.257016e+01 2.870693e+00 1.604874e-01 1.085107e+00 5.721301e-01 1.238727e+00 1.174024e+00 1.761582e+00 1.802025e+00 3.217388e+00 2.282830e+00 3.507192e+00 1.726801e+00 1.950795e+00 3.347641e-01 3.396036e-02 1.029462e-01 1.247907e-01 1.869687e-01 2.065150e-01 3.509922e-01 3.368289e-01 4.554183e-01 3.495764e-01 4.249539e-01 3.995622e-01 3.483006e-01 4.134152e-02
<GCONST> 9.465446e+01
<TRANSP> 5
 0.000000e+00 1.000000e+00 0.000000e+00 0.000000e+00 0.000000e+00
 0.000000e+00 7.323400e-01 2.676600e-01 0.000000e+00 0.000000e+00
 0.000000e+00 0.000000e+00 8.563753e-01 1.436246e-01 0.000000e+00
 0.000000e+00 0.000000e+00 0.000000e+00 6.817192e-01 3.182808e-01
 0.000000e+00 0.000000e+00 0.000000e+00 0.000000e+00 0.000000e+00
<ENDHMM>
~h "s"
<BEGINHMM>
<NUMSTATES> 5
<STATE> 2
<MEAN> 39
 -9.260131e+00 -1.100748e-01 9.687979e+00 -1.435142e+01 1.383287e+00 6.158176e+00 -9.849220e+00 -5.239703e+00 -4.843214e+00 -3.002931e+00 1.546330e+00 -1.652811e+00 7.681123e+01 -4.677552e+00 -3.175769e-01 1.418254e+00 -1.299683e+00 9.658880e-01 4.089491e-01 1.429325e+00 1.822234e-01 2.360684e+00 -2.508827e-01 -1.736469e-01 9.639524e-01 1.769078e+00 -4.389721e-02 1.470919e-01 -3.255852e-01 1.003578e-02 -2.409295e-01 -1.701599e-01 -2.275994e-01 5.858173e-01 -1.876376e-01 1.994322e-01 1.305403e-01 -1.572887e-01 -1.015887e-01
<VARIANCE> 39
 7.695309e+01 2.551196e+01 5.765248e+01 3.709104e+01 2.775354e+01 1.962814e+01 5.909723e+01 5.650299e+01 3.530639e+01 2.258203e+01 2.791582e+01 3.027174e+01 1.437281e+01 2.609926e+00 1.722345e+00 3.276886e+00 2.638740e+00 2.522549e+00 1.690983e+00 4.592972e+00 5.008268e+00 3.222129e+00 2.217696e+00 3.000324e+00 2.215408e+00 1.567589e+00 1.190795e+00 3.268299e-01 5.875262e-01 6.181458e-01 4.750246e-01 3.099785e-01 7.005203e-01 9.853334e-01 7.656912e-01 3.791817e-01 6.023765e-01 5.279584e-01 4.350740e-01
<GCONST> 1.225263e+02
<STATE> 3
<MEAN> 39
 -2.244497e+01 -4.289398e-01 1.065217e+01 -1.818815e+01 2.161282e+00 6.622217e+00 -6.759085e+00 1.023027e+00 -3.357431e-01 -2.611910e+00 2.117020e+00 -2.957146e-01 7.999237e+01 -3.258026e-02 -2.742553e-01 -4.626988e-01 1.187229e-02 -1.813499e-01 -2.406290e-01 3.497836e-01 1.877791e-01 -1.569362e-02 1.267370e-01 -4.313448e-02 7.344006e-02 -2.365430e-01 8.264131e-01 -8.477224e-02 -1.506528e-01 2.584181e-01 -1.033872e-01 -1.513482e-01 -4.923482e-02 -2.764627e-01 -2.728320e-01 -5.186304e-02 -9.795798e-02 -1.319630e-02 -2.808698e-01
<VARIANCE> 39
 6.121887e+00 1.780170e+01 1.321974e+01 1.324356e+01 1.515578e+01 1.494777e+01 2.192711e+01 2.550829e+01 1.890920e+01 1.631290e+01 1.354735e+01 1.699251e+01 2.885128e+00 2.278212e+00 1.090791e+00 9.637485e-01 1.370579e+00 1.133815e+00 1.104442e+00 1.591054e+00 2.162032e+00 9.503403e-01 1.146393e+00 1.088491e+00 1.169633e+00 4.274295e-01 3.042156e-01 2.231989e-01 1.903109e-01 2.329718e-01 2.091689e-01 2.476990e-01 3.218949e-01 3.397453e-01 3.514782e-01 2.789855e-01 2.373568e-01 2.593508e-01 8.098658e-02
<GCONST> 8.903725e+01
<STATE> 4
<MEAN> 39
 -1.061888e+01 -9.199253e-01 7.782130e+00 -1.483108e+01 -2.106582e-01 2.148978e+00 -7.442961e+00 -4.020465e+00 -5.299517e+00 -4.133162e+00 -9.041770e-01 -6.210270e-01 7.582629e+01 3.704365e+00 6.493294e-01 -1.845083e-02 4.709984e-01 -1.045132e+00 -1.106372e+00 -1.274766e+00 -9.261730e-01 -2.245749e+00 -4.411301e-01 -3.032798e-01 -6.209466e-01 -8.763086e-01 -1.353480e-01 2.291587e-02 1.684667e-01 -1.345059e-01 -1.569261e-01 9.178508e-02 -3.083972e-01 2.869312e-01 -1.421902e-01 2.145030e-01 3.609966e-01 -2.641456e-01 2.075405e-01
<VARIANCE> 39
 5.349105e+01 3.087536e+01 1.583287e+01 2.506767e+01 2.253733e+01 2.973875e+01 6.400642e+01 3.807335e+01 4.953758e+01 2.413096e+01 2.504120e+01 2.131716e+01 8.695213e+00 2.066905e+00 4.065985e+00 2.427994e+00 2.578007e+00 1.959210e+00 1.700810e+00 4.024151e+00 3.545162e+00 3.302643e+00 3.067348e+00 3.203457e+00 1.785129e+00 8.684290e-01 7.489430e-01 8.648093e-01 2.853986e-01 4.909295e-01 3.567765e-01 4.725225e-01 9.704077e-01 6.094781e-01 9.547150e-01 4.596216e-01 4.436610e-01 3.065315e-01 8.698437e-02
<GCONST> 1.166820e+02
<TRANSP> 5
 0.000000e+00 1.000000e+00 0.000000e+00 0.000000e+00 0.000000e+00
 0.000000e+00 7.043870e-01 2.956131e-01 0.000000e+00 0.000000e+00
 0.000000e+00 0.000000e+00 8.610458e-01 1.389543e-01 0.000000e+00
 0.000000e+00 0.000000e+00 0.000000e+00 6.857504e-01 3.142496e-01
 0.000000e+00 0.000000e+00 0.000000e+00 0.000000e+00 0.000000e+00
<ENDHMM>
~h "t"
<BEGINHMM>
<NUMSTATES> 5
<STATE> 2
<MEAN> 39
 -6.695072e+00 -2.183430e+00 3.739335e+00 -1.107533e+01 1.004764e-01 3.664698e+00 -8.376981e+00 -6.188574e-01 -5.230245e+00 -4.238339e-01 2.449277e+00 -3.242146e+00 7.300237e+01 -1.263060e+00 -1.502526e+00 5.714893e-01 5.396767e-01 -1.631949e-01 -6.251318e-01 3.560784e-01 -7.158148e-01 5.976492e-01 9.225061e-03 5.303625e-02 -2.463562e-02 8.979535e-01 2.357094e-01 3.850229e-02 1.804532e-02 1.905732e-01 1.349044e-02 -9.245817e-02 -2.109972e-01 -2.719623e-01 -2.695244e-01 -8.961879e-03 -1.765826e-01 -8.612540e-02 3.633502e-02
<VARIANCE> 39
 6.755038e+01 3.667856e+01 5.494772e+01 5.137306e+01 2.886512e+01 3.450939e+01 4.754054e+01 3.380815e+01 4.221104e+01 2.610046e+01 1.776810e+01 1.457509e+01 3.132973e+01 6.262003e+00 3.732536e+00 7.660296e+00 6.971743e+00 3.192309e+00 4.190200e+00 4.344756e+00 4.816623e+00 3.803592e+00 1.906160e+00 2.431705e+00 1.523952e+00 4.581039e+00 1.704220e+00 7.492185e-01 1.556029e+00 1.080900e+00 6.008224e-01 7.827758e-01 8.480415e-01 8.425666e-01 8.195637e-01 4.130792e-01 5.512782e-01 3.407893e-01 1.085883e+00
<GCONST> 1.323079e+02
<STATE> 3
<MEAN> 39
 -7.160476e+00 -7.973982e+00 7.173249e+00 -6.665734e+00 -7.274832e-01 -2.407588e+00 -1.089189e+01 -6.158439e+00 -7.263105e+00 -1.244460e+00 1.512268e+00 -3.820253e+00 7.665896e+01 2.434490e+00 8.973342e-01 -2.614000e-01 6.769556e-01 4.220867e-01 -4.286401e-01 -1.894534e+00 -1.214902e+00 -1.975317e+00 2.378290e-02 -4.453305e-01 -5.041052e-01 -4.504887e-01 4.508443e-01 6.756618e-01 -3.320029e-01 -3.382885e-01 1.646454e-02 5.594796e-01 3.964716e-02 3.962427e-01 -1.580082e-01 1.707263e-01 7.915591e-02 -3.163751e-02 -3.771121e-01
<VARIANCE> 39
 4.368675e+01 2.900001e+01 1.946479e+01 3.879773e+01 2.017958e+01 3.669688e+01 7.553512e+01 3.412251e+01 4.796591e+01 2.234358e+01 2.377825e+01 2.167679e+01 7.996039e+00 4.263194e+00 3.457604e+00 2.780687e+00 2.103166e+00 2.821762e+00 2.485504e+00 5.172057e+00 4.599635e+00 4.193681e+00 2.128955e+00 2.308009e+00 2.390695e+00 1.459753e+00 1.075577e+00 7.043462e-01 5.007708e-01 4.774484e-01 5.610728e-01 4.094958e-01 1.191544e+00 7.698929e-01 1.184555e+00 4.102034e-01 5.670484e-01 4.072462e-01 3.069560e-01
<GCONST> 1.224267e+02
<STATE> 4
<MEAN> 39
 6.813434e-01 -9.954281e-01 2.692472e+00 -6.530405e+00 -2.282394e-01 2.613917e+00 -1.311055e+01 -5.159669e+00 -1.028943e+01 -1.747361e-03 2.599208e-01 -3.888202e+00 7.141417e+01 9.421928e-01 9.541575e-01 -1.241642e+00 4.563015e-01 6.298987e-02 1.086755e+00 6.552354e-01 7.838022e-01 2.636933e-03 2.685268e-01 -3.451464e-01 5.342738e-02 -8.775628e-01 -3.683672e-01 -1.509636e-01 -4.366790e-02 4.741924e-03 -7.437593e-02 4.320128e-02 4.081843e-01 3.317521e-01 4.125911e-01 -9.385949e-02 1.614836e-02 7.301539e-02 5.862743e-02
<VARIANCE> 39
 1.589067e+01 2.628725e+01 4.698697e+01 4.005046e+01 3.138832e+01 7.443791e+01 6.490157e+01 4.352884e+01 4.723582e+01 2.755607e+01 2.512794e+01 1.926314e+01 2.069080e+01 1.368169e+00 1.210889e+00 1.769086e+00 1.835247e+00 2.360226e+00 2.370809e+00 3.908548e+00 2.641158e+00 3.545479e+00 2.910441e+00 2.163253e+00 1.493008e+00 8.355955e-01 2.535005e-01 1.898008e-01 2.911504e-01 2.818218e-01 2.938376e-01 4.296903e-01 8.427210e-01 6.594044e-01 4.851378e-01 3.859968e-01 4.097705e-01 2.446211e-01 1.763314e-01
<GCONST> 1.125012e+02
<TRANSP> 5
 0.000000e+00 1.000000e+00 0.000000e+00 0.000000e+00 0.000000e+00
 0.000000e+00 6.930996e-01 3.069004e-01 0.000000e+00 0.000000e+00
 0.000000e+00 0.000000e+00 5.862648e-01 4.137352e-01 0.000000e+00
 0.000000e+00 0.000000e+00 0.000000e+00 6.488785e-01 3.511215e-01
 0.000000e+00 0.000000e+00 0.000000e+00 0.000000e+00 0.000000e+00
<ENDHMM>
~h "v"
<BEGINHMM>
<NUMSTATES> 5
<STATE> 2
<MEAN> 39
 1.665183e+00 -1.152027e+00 4.148307e+00 -9.548111e+00 -1.156463e+00 -9.809230e-01 -1.464616e+01 -6.210088e+00 -1.503022e+01 1.526430e+00 7.444140e+00 -3.420441e+00 7.471941e+01 -1.464349e+00 -3.122160e-01 1.496981e+00 -2.904479e-01 8.683599e-02 3.585489e-01 -8.917209e-02 -1.586136e+00 8.663102e-02 -7.775844e-01 -3.934851e-01 1.968225e-01 7.435043e-01 -2.782852e-01 1.143416e-01 -1.185380e-01 1.178932e-01 1.276289e-01 2.172220e-01 6.378235e-01 1.203042e-02 6.888367e-01 -4.549385e-01 -5.143141e-01 -1.136651e-01 3.300705e-02
<VARIANCE> 39
 2.113144e+01 3.510416e+01 1.326308e+01 1.831155e+01 3.052658e+01 3.494825e+01 6.383411e+01 2.359614e+01 1.026135e+02 1.292214e+01 3.261416e+01 2.492601e+01 5.540976e+00 3.197156e+00 5.020369e+00 8.352664e+00 5.451025e+00 7.476880e-01 2.087446e+00 9.374646e+00 7.758263e+00 8.872120e+00 4.815478e+00 5.972835e+00 1.388233e+00 5.545592e+00 7.545778e-01 2.685923e-01 2.340988e-01 4.513747e-02 3.370849e-01 3.494368e-01 1.988643e+00 4.216743e-01 2.876651e+00 2.678245e-01 4.481271e-01 2.315688e-01 6.810609e-02
<GCONST> 1.189063e+02
<STATE> 3
<MEAN> 39
 -3.296556e+00 3.321968e-01 2.803178e+00 -8.217959e+00 -6.565213e-01 1.100652e+00 -8.441722e+00 -7.109079e+00 -8.699162e+00 -1.676070e+00 2.502341e+00 -3.022673e+00 7.518480e+01 -1.963431e+00 -3.568635e-01 9.520750e-01 -2.464383e-01 -3.471172e-01 7.653915e-01 9.733711e-01 -9.577104e-01 1.322220e+00 -6.814163e-01 -8.422730e-01 -5.549869e-02 6.069882e-01 7.584775e-01 1.282533e-01 -5.045108e-01 1.167312e-02 2.567839e-02 5.864350e-02 -2.876836e-01 5.527264e-01 -4.109782e-01 4.715011e-02 1.069001e-01 -1.485959e-01 -4.698526e-01
<VARIANCE> 39
 3.474810e+01 3.926038e+01 2.483261e+01 2.884318e+01 2.686708e+01 5.581458e+01 1.125233e+02 3.001544e+01 1.074825e+02 1.872258e+01 3.712700e+01 2.775036e+01 1.050370e+01 3.350451e+00 2.763540e+00 6.087805e+00 2.677100e+00 1.063395e+00 1.668573e+00 1.764927e+01 8.200127e+00 1.591081e+01 4.636570e+00 4.682675e+00 8.958868e-01 2.974336e+00 1.100371e+00 6.065598e-01 5.718766e-01 5.462477e-01 3.424463e-01 6.665514e-01 2.206334e+00 3.832390e-01 2.418002e+00 6.783222e-01 7.353395e-01 1.674973e-01 2.481479e-01
<GCONST> 1.289876e+02
<STATE> 4
<MEAN> 39
 -6.034100e+00 -4.507644e+00 6.172463e+00 -1.255408e+01 -3.305946e+00 1.212578e+00 -1.466646e+01 -1.124812e+01 -1.076109e+01 1.007782e-01 2.101600e+00 -3.778868e+00 7.554807e+01 -2.905239e-01 4.886433e-01 5.086466e-02 -1.483760e-01 8.897570e-01 1.423800e+00 2.447113e-01 7.202491e-01 9.562624e-01 -6.737528e-01 -7.683790e-01 -2.029751e-02 -5.977314e-01 4.824689e-01 2.935256e-01 -6.676623e-01 2.447753e-01 5.083125e-03 -5.870034e-02 3.274592e-01 5.664514e-01 7.413331e-02 -7.888295e-02 -1.765862e-01 9.716946e-03 -5.081083e-01
<VARIANCE> 39
 6.105053e+01 2.990999e+01 3.213023e+01 3.229040e+01 2.169168e+01 6.045021e+01 5.825813e+01 4.704799e+01 9.317444e+01 2.277254e+01 3.385307e+01 1.534647e+01 2.134531e+01 5.740599e+00 2.014306e+00 6.132089e+00 2.964739e+00 2.239098e+00 3.466708e+00 6.702434e+00 5.856581e+00 1.080000e+01 2.649860e+00 3.128138e+00 8.573857e-01 3.822864e+00 1.457317e+00 6.428747e-01 1.375605e+00 5.963606e-01 3.421607e-01 8.878106e-01 9.629734e-01 1.256249e+00 2.165278e+00 6.228585e-01 7.699136e-01 8.477973e-02 9.665579e-01
<GCONST> 1.312210e+02
<TRANSP> 5
 0.000000e+00 1.000000e+00 0.000000e+00 0.000000e+00 0.000000e+00
 0.000000e+00 1.847199e-01 8.152801e-01 0.000000e+00 0.000000e+00
 0.000000e+00 0.000000e+00 3.081618e-01 6.918382e-01 0.000000e+00
 0.000000e+00 0.000000e+00 0.000000e+00 6.182059e-01 3.817941e-01
 0.000000e+00 0.000000e+00 0.000000e+00 0.000000e+00 0.000000e+00
<ENDHMM>
~h "w"
<BEGINHMM>
<NUMSTATES> 5
<STATE> 2
<MEAN> 39
 -2.148441e+00 5.284110e-01 -9.863252e+00 -6.712799e+00 -4.950593e+00 -4.548979e+00 -1.007196e+00 -4.453648e-02 -1.454862e+01 -3.645625e+00 6.783067e+00 -4.073709e+00 7.155405e+01 -1.416904e+00 -1.680789e+00 1.355735e+00 -1.079665e+00 3.703318e-01 -9.530020e-01 5.685372e-01 -3.434678e-01 -5.993134e-01 -6.973597e-01 6.208324e-01 9.143293e-01 1.615151e+00 3.964327e-01 -8.825757e-02 4.321280e-01 2.875707e-01 2.668363e-01 1.060938e+00 -5.984668e-01 -5.028050e-02 4.439281e-01 2.463885e-01 -8.224778e-01 6.433717e-02 -5.094727e-01
<VARIANCE> 39
 1.093447e+01 2.401010e+01 2.721556e+01 2.660110e+01 2.199229e+01 3.785340e+01 4.679042e+01 3.156026e+01 3.698546e+01 2.270019e+01 1.651634e+01 2.678711e+01 1.435291e+01 8.738489e-01 8.842445e-01 1.818633e+00 2.556876e+00 1.147944e+00 6.435911e+00 4.363272e+00 2.453014e+00 3.439894e+00 1.444800e+00 3.645233e+00 3.212389e+00 1.625776e+00 2.067067e-01 4.107386e-01 4.253883e-01 4.359146e-01 2.622904e-01 7.820557e-01 8.340674e-01 5.575916e-01 5.152828e-01 4.594879e-01 5.024063e-01 6.321514e-01 2.632200e-01
<GCONST> 1.131193e+02
<STATE> 3
<MEAN> 39
 -1.152733e+00 -2.718063e+00 -3.573641e+00 -6.604024e+00 -2.176583e+00 1.089567e+00 -4.586185e+00 -2.098589e+00 -1.453762e+01 -4.243495e+00 7.134398e-01 -3.493445e+00 7.150227e+01 1.636810e+00 1.039923e+00 1.204873e+00 8.405017e-02 2.245233e-01 3.894172e-02 -1.931582e+00 -1.411635e+00 -2.238301e+00 -1.907022e-02 -7.529335e-01 -1.413221e+00 3.633161e-02 3.054035e-01 4.534425e-01 -1.355082e-01 -1.060180e-01 -6.858942e-02 -3.771475e-01 -2.573035e-01 -3.206851e-01 -6.446827e-01 2.782277e-01 5.615907e-01 -3.806286e-01 8.310962e-02
<VARIANCE> 39
 2.056491e+01 2.706266e+01 1.306345e+01 1.938266e+01 1.139871e+01 2.176522e+01 4.116963e+01 3.132500e+01 5.697901e+01 1.286107e+01 2.660566e+01 3.369180e+01 4.480898e+00 1.744588e+00 3.928522e+00 1.204661e+00 2.046227e+00 9.725741e-01 3.800463e+00 3.099690e+00 2.519019e+00 6.986865e+00 1.700483e+00 3.699326e+00 3.674075e+00 6.574385e-01 5.706914e-01 1.059775e+00 3.213310e-01 2.775947e-01 1.654385e-01 7.035901e-01 5.613542e-01 4.060085e-01 1.108685e+00 3.691750e-01 7.283403e-01 7.951266e-01 2.048439e-01
<GCONST> 1.123843e+02
<STATE> 4
<MEAN> 39
 4.257142e+00 1.594657e+00 1.350710e+00 -4.624866e+00 -2.952800e+00 -7.297583e-01 -1.361884e+01 -6.764678e+00 -2.096325e+01 -1.157956e+00 6.275405e+00 -1.005231e+01 7.243786e+01 -7.096954e-02 -2.702348e-02 8.937341e-02 2.202992e-01 -2.280067e-01 2.734815e-01 -1.619491e-01 6.210510e-01 7.656395e-01 2.670052e-01 3.153155e-01 -2.989446e-01 -2.333168e-01 -1.638959e-01 -1.280613e-01 -1.334051e-01 1.555994e-02 -3.619176e-02 5.257120e-02 3.300309e-01 3.933641e-01 3.727873e-01 -1.266091e-01 -1.430160e-01 2.327829e-01 -8.109722e-02
<VARIANCE> 39
 7.696863e+00 2.751263e+01 3.203982e+01 2.042937e+01 3.409963e+01 2.702869e+01 3.073674e+01 5.264114e+01 3.339375e+01 2.427274e+01 2.782044e+01 3.711575e+01 1.530830e+01 5.538720e-01 2.118058e+00 4.530323e+00 2.493493e+00 2.151260e+00 2.431629e+00 4.393536e+00 6.517397e+00 4.103056e+00 3.154095e+00 3.122626e+00 3.942188e+00 1.873966e+00 1.693243e-01 4.700069e-01 5.312521e-01 4.056202e-01 4.267136e-01 4.209474e-01 5.341987e-01 1.138702e+00 8.116102e-01 6.009460e-01 4.515256e-01 8.665761e-01 2.169726e-01
<GCONST> 1.179259e+02
<TRANSP> 5
 0.000000e+00 1.000000e+00 0.000000e+00 0.000000e+00 0.000000e+00
 0.000000e+00 6.222982e-01 3.777018e-01 0.000000e+00 0.000000e+00
 0.000000e+00 0.000000e+00 7.296181e-01 2.703818e-01 0.000000e+00
 0.000000e+00 0.000000e+00 0.000000e+00 8.616422e-01 1.383578e-01
 0.000000e+00 0.000000e+00 0.000000e+00 0.000000e+00 0.000000e+00
<ENDHMM>
~h "y"
<BEGINHMM>
<NUMSTATES> 5
<STATE> 2
<MEAN> 39
 -2.909219e+00 -1.204352e+00 8.202532e+00 -1.432336e+00 -1.581897e+00 2.775681e+00 -7.311291e+00 9.961133e-02 -6.169888e+00 -2.092153e+00 -3.493662e+00 -6.965262e+00 7.289751e+01 -1.345062e+00 -1.216994e+00 1.840384e+00 -4.849624e-01 -2.359087e-01 -5.330614e-01 -5.311378e-01 -7.151623e-01 3.921323e-01 -7.831430e-01 -7.273933e-01 -8.387846e-02 1.052346e+00 3.311782e-01 6.802259e-02 1.204030e-01 1.327588e-01 1.281289e-01 -1.980039e-01 -6.242113e-01 3.236658e-02 -3.640513e-01 -3.735489e-02 -2.073462e-02 -1.789352e-01 1.534550e-02
<VARIANCE> 39
 4.912744e+01 4.705402e+01 8.034969e+01 3.282782e+01 4.068124e+01 1.928172e+01 6.250785e+01 3.725577e+01 2.454177e+01 1.851397e+01 3.415933e+01 1.432757e+01 2.545938e+01 6.658248e+00 3.132827e+00 1.153976e+01 2.006564e+00 2.471381e+00 2.456060e+00 1.052957e+01 4.199634e+00 4.080076e+00 1.750546e+00 2.743878e+00 1.879098e+00 3.305697e+00 1.601021e+00 8.003660e-01 2.617373e+00 5.971517e-01 5.658232e-01 3.868368e-01 2.017666e+00 8.499061e-01 6.776311e-01 3.793257e-01 5.237806e-01 3.798314e-01 8.285222e-01
<GCONST> 1.303955e+02
<STATE> 3
<MEAN> 39
 -4.539417e+00 -6.234443e+00 1.422272e+01 -1.574109e+00 -1.609006e+00 -2.365905e+00 -1.336122e+01 -2.144778e-01 -6.290402e+00 -5.769861e+00 -4.625960e+00 -7.853067e+00 7.594437e+01 2.400581e+00 1.122715e+00 8.315110e-02 9.645344e-01 -5.372547e-02 -5.156270e-01 -2.253647e+00 1.182412e-01 -1.973910e+00 -2.032566e-02 3.915041e-01 -2.610763e-01 -5.564951e-01 -1.924408e-02 1.455953e-01 -3.311754e-01 -1.752153e-01 -8.107984e-02 1.054181e-01 1.492650e-01 2.388466e-01 -1.454109e-01 4.869903e-01 4.393439e-01 8.994145e-02 -7.713385e-02
<VARIANCE> 39
 5.528950e+01 5.216212e+01 2.473023e+01 3.733059e+01 1.299515e+01 1.766043e+01 2.278430e+01 1.933458e+01 4.018022e+01 2.206517e+01 1.744857e+01 1.139841e+01 1.199778e+01 1.699338e+00 1.645951e+00 1.719864e+00 1.067411e+00 1.177969e+00 9.572513e-01 2.318948e+00 1.186753e+00 4.334540e+00 2.185100e+00 1.819864e+00 1.944026e+00 3.140879e-01 7.122465e-01 5.010219e-01 3.141936e-01 3.786003e-01 1.489304e-01 1.571050e-01 3.576026e-01 4.242263e-01 7.083848e-01 3.694423e-01 4.474289e-01 3.454340e-01 1.936960e-01
<GCONST> 1.040333e+02
<STATE> 4
<MEAN> 39
 2.309419e+00 -1.090220e+00 1.431933e+01 -2.944591e+00 -2.526967e-01 -1.100113e+00 -2.110192e+01 1.242880e+00 -1.452896e+01 -3.541299e+00 -1.693527e+00 -8.171188e+00 7.462712e+01 2.825287e-01 -2.508622e-01 -4.844085e-01 -7.553020e-01 2.125563e-01 -5.015295e-01 -1.630785e+00 -1.077095e-01 -4.639370e-01 1.947973e+00 9.727417e-01 3.849760e-02 3.045169e-01 -3.432418e-01 -2.125744e-01 -1.698207e-01 -3.612389e-01 1.865322e-01 -7.300973e-02 1.554290e-01 -4.863920e-01 5.407067e-01 2.417226e-01 5.872129e-02 2.735798e-01 1.326253e-01
<VARIANCE> 39
 2.613835e+00 2.397627e+01 4.101623e+01 3.261656e+01 1.389804e+01 1.933708e+01 3.260340e+01 1.300635e+01 1.128446e+01 2.696624e+01 1.301559e+01 2.272297e+01 9.112347e+00 1.175355e-01 9.316731e-01 6.235626e-01 4.941320e-01 7.809951e-01 8.704824e-01 1.252970e+00 2.034451e+00 1.526567e+00 1.193588e+00 7.721458e-01 1.236513e+00 3.363425e-01 8.902089e-02 1.902100e-01 1.667129e-01 1.024538e-01 7.551131e-02 1.379120e-01 2.185439e-01 2.396805e-01 2.315145e-01 2.809708e-01 1.271532e-01 1.791309e-01 4.711605e-02
<GCONST> 7.966760e+01
<TRANSP> 5
 0.000000e+00 1.000000e+00 0.000000e+00 0.000000e+00 0.000000e+00
 0.000000e+00 7.947381e-01 2.052619e-01 0.000000e+00 0.000000e+00
 0.000000e+00 0.000000e+00 6.750971e-01 3.249029e-01 0.000000e+00
 0.000000e+00 0.000000e+00 0.000000e+00 6.921758e-01 3.078242e-01
 0.000000e+00 0.000000e+00 0.000000e+00 0.000000e+00 0.000000e+00
<ENDHMM>
~h "z"
<BEGINHMM>
<NUMSTATES> 5
<STATE> 2
<MEAN> 39
 1.243263e+00 2.009342e+00 -3.600729e+00 -7.780252e+00 -2.124930e+00 2.943915e+00 -9.405266e+00 5.574683e-01 -8.480373e+00 -8.431195e-01 1.753790e+00 -3.834116e+00 6.933920e+01 6.608545e-03 -7.871487e-04 5.575932e-03 9.451325e-03 1.243685e-02 3.598967e-04 4.977515e-03 7.675061e-03 8.751670e-03 -1.601357e-04 -6.787761e-03 1.796699e-03 7.823239e-03 1.084905e-04 6.917859e-04 -1.452734e-03 -1.623669e-04 -1.531235e-03 -6.168764e-04 -1.016060e-04 5.717326e-04 -8.436721e-04 1.307740e-03 2.658077e-04 -1.178421e-04 -1.493792e-03
<VARIANCE> 39
 3.560448e+01 3.133138e+01 1.175854e+02 5.757076e+01 3.574751e+01 4.825400e+01 6.299704e+01 4.654386e+01 5.944289e+01 3.514179e+01 3.786765e+01 3.343571e+01 4.679148e+01 1.818672e+00 1.507933e+00 2.670334e+00 2.176207e+00 1.716306e+00 2.419825e+00 3.138164e+00 2.909526e+00 2.711722e+00 1.967625e+00 2.125080e+00 1.650968e+00 1.255564e+00 2.970746e-01 2.534214e-01 4.172046e-01 3.324886e-01 2.983715e-01 4.159752e-01 5.145366e-01 5.176500e-01 4.586368e-01 3.470287e-01 3.812441e-01 2.994810e-01 2.048787e-01
<GCONST> 1.175816e+02
<STATE> 3
<MEAN> 39
 1.243263e+00 2.009342e+00 -3.600729e+00 -7.780252e+00 -2.124930e+00 2.943915e+00 -9.405266e+00 5.574683e-01 -8.480373e+00 -8.431195e-01 1.753790e+00 -3.834116e+00 6.933920e+01 6.608545e-03 -7.871487e-04 5.575932e-03 9.451325e-03 1.243685e-02 3.598967e-04 4.977515e-03 7.675061e-03 8.751670e-03 -1.601357e-04 -6.787761e-03 1.796699e-03 7.823239e-03 1.084905e-04 6.917859e-04 -1.452734e-03 -1.623669e-04 -1.531235e-03 -6.168764e-04 -1.016060e-04 5.717326e-04 -8.436721e-04 1.307740e-03 2.658077e-04 -1.178421e-04 -1.493792e-03
<VARIANCE> 39
 3.560448e+01 3.133138e+01 1.175854e+02 5.757076e+01 3.574751e+01 4.825400e+01 6.299704e+01 4.654386e+01 5.944289e+01 3.514179e+01 3.786765e+01 3.343571e+01 4.679148e+01 1.818672e+00 1.507933e+00 2.670334e+00 2.176207e+00 1.716306e+00 2.419825e+00 3.138164e+00 2.909526e+00 2.711722e+00 1.967625e+00 2.125080e+00 1.650968e+00 1.255564e+00 2.970746e-01 2.534214e-01 4.172046e-01 3.324886e-01 2.983715e-01 4.159752e-01 5.145366e-01 5.176500e-01 4.586368e-01 3.470287e-01 3.812441e-01 2.994810e-01 2.048787e-01
<GCONST> 1.175816e+02
<STATE> 4
<MEAN> 39
 1.243263e+00 2.009342e+00 -3.600729e+00 -7.780252e+00 -2.124930e+00 2.943915e+00 -9.405266e+00 5.574683e-01 -8.480373e+00 -8.431195e-01 1.753790e+00 -3.834116e+00 6.933920e+01 6.608545e-03 -7.871487e-04 5.575932e-03 9.451325e-03 1.243685e-02 3.598967e-04 4.977515e-03 7.675061e-03 8.751670e-03 -1.601357e-04 -6.787761e-03 1.796699e-03 7.823239e-03 1.084905e-04 6.917859e-04 -1.452734e-03 -1.623669e-04 -1.531235e-03 -6.168764e-04 -1.016060e-04 5.717326e-04 -8.436721e-04 1.307740e-03 2.658077e-04 -1.178421e-04 -1.493792e-03
<VARIANCE> 39
 3.560448e+01 3.133138e+01 1.175854e+02 5.757076e+01 3.574751e+01 4.825400e+01 6.299704e+01 4.654386e+01 5.944289e+01 3.514179e+01 3.786765e+01 3.343571e+01 4.679148e+01 1.818672e+00 1.507933e+00 2.670334e+00 2.176207e+00 1.716306e+00 2.419825e+00 3.138164e+00 2.909526e+00 2.711722e+00 1.967625e+00 2.125080e+00 1.650968e+00 1.255564e+00 2.970746e-01 2.534214e-01 4.172046e-01 3.324886e-01 2.983715e-01 4.159752e-01 5.145366e-01 5.176500e-01 4.586368e-01 3.470287e-01 3.812441e-01 2.994810e-01 2.048787e-01
<GCONST> 1.175816e+02
<TRANSP> 5
 0.000000e+00 1.000000e+00 0.000000e+00 0.000000e+00 0.000000e+00
 0.000000e+00 6.000000e-01 4.000000e-01 0.000000e+00 0.000000e+00
 0.000000e+00 0.000000e+00 6.000000e-01 4.000000e-01 0.000000e+00
 0.000000e+00 0.000000e+00 0.000000e+00 7.000000e-01 3.000000e-01
 0.000000e+00 0.000000e+00 0.000000e+00 0.000000e+00 0.000000e+00
<ENDHMM>
~h "aa"
<BEGINHMM>
<NUMSTATES> 5
<STATE> 2
<MEAN> 39
 2.257619e+00 1.891307e+00 8.355393e+00 -1.829012e+01 -6.302112e+00 -4.408043e+00 -9.823561e+00 1.158602e+01 -1.054064e+01 8.449324e-01 5.243389e+00 -7.603767e+00 7.555891e+01 1.806957e-01 2.996552e-01 2.034589e-01 -1.552569e-01 -4.246649e-01 1.820288e-01 1.235062e-01 6.835033e-01 4.109356e-02 2.522199e-01 5.969706e-01 1.024136e-01 -2.442444e-01 -7.878711e-02 -1.030028e-01 -1.056934e-01 3.530151e-01 2.317838e-01 3.926231e-01 1.680298e-01 -3.080262e-01 6.647959e-02 -1.331687e-01 -1.194306e-01 1.369954e-01 -1.021028e-01
<VARIANCE> 39
 2.892110e+00 1.503518e+01 2.029639e+01 1.260955e+01 2.529988e+01 1.170303e+01 6.419813e+01 1.017446e+02 1.314212e+01 3.722586e+01 1.635563e+01 2.202880e+01 4.477178e+00 1.150147e-01 6.176587e-01 1.201871e+00 1.964398e+00 1.253883e+00 1.279014e+00 2.429895e+00 4.489711e+00 1.050151e+00 2.271991e+00 8.035293e-01 1.290089e+00 1.606049e-01 3.814666e-02 2.118048e-01 6.865813e-02 1.704899e-01 1.499536e-01 1.455346e-01 3.702769e-01 2.279294e-01 1.729917e-01 5.474776e-01 1.839285e-01 2.622088e-01 1.085676e-02
<GCONST> 8.372674e+01
<STATE> 3
<MEAN> 39
 3.364613e+00 3.806979e+00 3.265145e+00 -2.137246e+01 9.578614e-01 4.541107e+00 -1.425588e+01 4.151434e+00 -1.262459e+01 -1.718554e+00 1.088595e+01 -2.987802e+00 7.398343e+01 8.855096e-05 2.870724e-01 2.506822e-02 1.322468e-01 3.482691e-01 8.885288e-01 1.143141e-01 2.233912e-02 -3.707788e-01 -5.695527e-01 -8.178248e-02 4.098047e-01 -3.379417e-01 -4.548023e-02 1.257438e-02 1.924867e-02 1.654537e-01 8.208375e-03 4.216963e-02 -1.524155e-02 -4.831442e-02 4.549448e-02 1.248877e-02 -1.090460e-01 -4.916242e-02 -4.837887e-02
<VARIANCE> 39
 4.468792e+00 2.424862e+01 3.013155e+01 2.862471e+01 3.423761e+01 2.402621e+01 2.155191e+01 2.360944e+01 4.218394e+01 2.344818e+01 1.606421e+01 3.740996e+01 8.173924e+00 7.203750e-02 4.732777e-01 5.781067e-01 1.752267e+00 8.271169e-01 1.285572e+00 1.076412e+00 1.177697e+00 1.809383e+00 1.007863e+00 1.008548e+00 1.042281e+00 1.686191e-01 4.144858e-02 7.884680e-02 8.931027e-02 9.832629e-02 1.706652e-01 1.648021e-01 2.144426e-01 1.542062e-01 2.655234e-01 1.889347e-01 1.620139e-01 1.652780e-01 1.642029e-02
<GCONST> 7.910619e+01
<STATE> 4
<MEAN> 39
 -3.183964e+00 1.123197e+00 2.377644e+00 -1.147347e+01 3.392487e-01 7.709892e+00 -7.410660e+00 4.205539e+00 -8.133628e+00 -1.335880e+00 4.097163e+00 -3.600198e+00 7.096666e+01 -9.789646e-01 -2.022302e-02 -1.763884e-01 1.135062e+00 2.657075e-01 8.003283e-01 6.265722e-01 -3.654492e-01 1.009377e+00 -9.136736e-02 -5.356919e-01 1.735732e-01 -3.830720e-01 -2.547999e-01 -7.793238e-02 -4.384260e-02 -2.256409e-01 -2.458174e-02 -1.866610e-01 7.237291e-02 -5.693352e-02 1.973204e-01 1.560426e-02 -2.415536e-02 1.577778e-01 1.714078e-01
<VARIANCE> 39
 7.833314e+01 2.026972e+01 6.812106e+01 4.506363e+01 4.943782e+01 1.957269e+01 3.285661e+01 1.249126e+01 3.565315e+01 1.075328e+01 1.504186e+01 1.211417e+01 2.450500e+01 5.364985e+00 1.227601e+00 3.482664e+00 4.360617e+00 3.915075e+00 1.900203e+00 2.606411e+00 1.618850e+00 2.059073e+00 2.042252e+00 1.344134e+00 1.348664e+00 2.053022e+00 1.104955e+00 1.337756e-01 5.354006e-01 5.283787e-01 4.946653e-01 2.601678e-01 5.265589e-01 3.046508e-01 5.035930e-01 3.127654e-01 2.210627e-01 2.165236e-01 3.524480e-01
<GCONST> 1.121389e+02
<TRANSP> 5
 0.000000e+00 1.000000e+00 0.000000e+00 0.000000e+00 0.000000e+00
 0.000000e+00 7.728283e-01 2.271717e-01 0.000000e+00 0.000000e+00
 0.000000e+00 0.000000e+00 8.760316e-01 1.239684e-01 0.000000e+00
 0.000000e+00 0.000000e+00 0.000000e+00 6.614287e-01 3.385713e-01
 0.000000e+00 0.000000e+00 0.000000e+00 0.000000e+00 0.000000e+00
<ENDHMM>
~h "ae"
<BEGINHMM>
<NUMSTATES> 5
<STATE> 2
<MEAN> 39
 1.809067e+00 4.086427e+00 -3.222742e+00 -8.397229e+00 -1.043244e+00 1.113658e+01 -8.919647e+00 -1.266970e+00 -5.727687e+00 -5.112186e-01 -1.126224e-01 -3.446954e+00 6.796642e+01 1.428404e-01 -5.307448e-02 2.981313e-01 -3.720765e-01 -1.792588e-01 -6.145436e-01 -1.540240e-03 -1.218129e-02 -5.734383e-01 6.100360e-01 2.070037e-01 -1.119383e-01 2.831553e-01 -9.901280e-02 -1.531258e-01 1.436417e-01 4.292525e-02 3.057941e-02 -2.036813e-01 2.807212e-01 2.509865e-01 -1.771093e-01 1.028160e-01 8.218098e-02 -3.459360e-02 7.517286e-02
<VARIANCE> 39
 1.696500e+01 3.048874e+01 7.600808e+01 4.099102e+01 1.222386e+01 6.354521e+01 4.148653e+01 2.396568e+01 3.380051e+01 1.439289e+01 2.246623e+01 2.238705e+01 3.714773e+01 1.828938e+00 1.467215e+00 5.349081e+00 4.177760e+00 1.664047e+00 2.706989e+00 1.786542e+00 1.835249e+00 3.287288e+00 1.760090e+00 2.775033e+00 1.470304e+00 1.013299e+00 4.488493e-01 3.234231e-01 8.757218e-01 8.087503e-01 2.149533e-01 5.100333e-01 8.322119e-01 6.121475e-01 8.248819e-01 2.908182e-01 6.073806e-01 4.047025e-01 2.165258e-01
<GCONST> 1.159901e+02
<STATE> 3
<MEAN> 39
 1.315976e+00 -3.354312e+00 3.455254e+00 -1.485902e+01 -2.322646e+00 1.048340e-01 -1.213388e+01 -9.756585e-01 -1.472908e+01 4.121034e+00 5.097297e+00 -7.247197e+00 7.654850e+01 6.438202e-02 -4.212657e-01 2.286818e-01 -3.041763e-01 -3.631506e-01 -9.220815e-01 1.749771e-01 7.128597e-01 -1.684385e-01 6.947588e-01 1.131625e+00 9.594395e-03 2.434748e-01 -2.858503e-02 2.330162e-01 -5.107228e-01 5.746889e-01 1.642269e-01 5.100222e-01 3.423344e-01 1.144160e-01 7.361487e-01 -4.249390e-01 -4.546682e-01 3.973468e-02 -3.875964e-01
<VARIANCE> 39
 2.331346e+00 7.078056e+01 5.609727e+01 2.006604e+01 2.335252e+01 3.407364e+01 4.881588e+01 4.815635e+01 2.015377e+01 3.476744e+01 2.957201e+01 3.045277e+01 2.108378e+01 7.433673e-01 2.340373e+00 2.860185e+00 5.476413e+00 1.313219e+00 2.827003e+00 2.515726e+00 2.694669e+00 3.434017e+00 1.585429e+00 3.709777e+00 2.304108e+00 2.927141e+00 1.461864e-01 3.284532e-01 4.077268e-01 4.590374e-01 3.286349e-01 3.734634e-01 5.768724e-01 8.145767e-01 3.597991e-01 2.657838e-01 6.360993e-01 4.850473e-01 2.233195e-01
<GCONST> 1.135122e+02
<STATE> 4
<MEAN> 39
 1.045009e+00 -1.195168e+00 2.737479e+00 -1.490056e+01 9.221823e-01 6.212677e-01 -1.122371e+01 3.232287e-01 -9.299195e+00 4.609874e+00 6.963173e+00 -8.405440e+00 7.675771e+01 6.716540e-02 1.054802e-01 -1.272836e-01 4.428869e-01 1.512299e-01 2.318534e-01 8.801315e-03 3.093605e-02 2.069622e-01 8.774735e-02 -3.980036e-01 -7.799238e-02 -3.321542e-01 -1.648688e-02 3.505100e-02 3.435609e-02 1.527897e-01 1.641575e-02 1.368483e-01 6.693579e-02 1.122777e-03 -1.009674e-01 -1.058956e-01 -8.874989e-02 -1.192559e-02 -1.176049e-01
<VARIANCE> 39
 1.692763e+00 1.365965e+01 1.562469e+01 1.735336e+01 2.367006e+01 1.320597e+01 2.021903e+01 4.914183e+01 1.613373e+01 3.219093e+01 1.040671e+01 1.473112e+01 3.960928e+00 1.024972e-01 6.391988e-01 1.725835e+00 1.669984e+00 7.550495e-01 1.526419e+00 2.018769e+00 3.227982e+00 1.793632e+00 1.944773e+00 1.084696e+00 1.069171e+00 7.748743e-01 2.601702e-02 1.058109e-01 1.794731e-01 1.334595e-01 1.449417e-01 2.160178e-01 2.515853e-01 3.190857e-01 3.136315e-01 2.789559e-01 1.613458e-01 1.112469e-01 6.717947e-02
<GCONST> 8.245054e+01
<TRANSP> 5
 0.000000e+00 1.000000e+00 0.000000e+00 0.000000e+00 0.000000e+00
 0.000000e+00 7.035733e-01 2.964267e-01 0.000000e+00 0.000000e+00
 0.000000e+00 0.000000e+00 6.631838e-01 3.368163e-01 0.000000e+00
 0.000000e+00 0.000000e+00 0.000000e+00 8.004504e-01 1.995496e-01
 0.000000e+00 0.000000e+00 0.000000e+00 0.000000e+00 0.000000e+00
<ENDHMM>
~h "ah"
<BEGINHMM>
<NUMSTATES> 5
<STATE> 2
<MEAN> 39
 3.541811e+00 4.082127e+00 -8.734735e+00 -2.687286e+00 -3.257089e+00 5.317948e+00 -5.660325e+00 1.197067e+00 -7.241777e+00 -5.069517e-01 -5.602838e-01 -3.885744e+00 6.546629e+01 1.134306e-01 3.373878e-01 -1.098893e+00 4.230620e-01 -2.613436e-01 4.120666e-01 2.685488e-01 5.492566e-01 8.823704e-01 5.129898e-01 -1.850288e-01 2.457894e-01 -7.403449e-01 -2.395555e-01 -3.969264e-01 6.872890e-01 -5.459943e-01 -5.050827e-03 -2.979344e-01 -3.879713e-01 -1.930532e-01 -3.675916e-01 1.143982e-02 5.898907e-01 -6.995168e-02 5.061815e-01
<VARIANCE> 39
 7.027974e+00 1.201717e+01 4.943166e+01 1.933008e+01 1.428613e+01 4.648751e+01 1.962689e+01 1.869797e+01 3.586199e+01 2.247382e+01 2.166475e+01 2.554561e+01 1.906993e+01 4.945630e-01 5.144212e-01 2.991306e+00 1.542108e+00 1.221457e+00 1.586294e+00 2.014864e+00 2.576196e+00 2.299949e+00 1.542028e+00 2.354142e+00 1.740459e+00 8.884522e-01 1.896304e-01 1.933346e-01 4.253035e-01 2.098681e-01 2.462237e-01 6.116236e-01 2.069368e-01 8.852091e-01 5.972154e-01 3.708490e-01 3.441759e-01 5.124470e-01 1.649932e-01
<GCONST> 1.020051e+02
<STATE> 3
<MEAN> 39
 3.517748e+00 4.807081e+00 -1.209981e+01 -3.961251e+00 -3.463305e+00 5.631075e+00 -6.307953e+00 1.878482e+00 -5.859932e+00 9.717938e-01 6.121103e-02 -3.059898e+00 6.351867e+01 -9.330771e-01 -1.373945e+00 2.337148e+00 -1.396559e+00 -2.735877e-01 -3.132741e-01 -8.797721e-01 4.510510e-01 -1.115254e+00 1.347968e-01 1.890992e+00 -7.013631e-01 1.231159e+00 -3.430825e-01 -6.684204e-01 1.197209e+00 -5.394560e-01 1.482885e-01 -5.778343e-01 -6.043589e-01 -3.191368e-01 -5.527588e-01 -1.427687e-01 5.058759e-01 -8.304586e-02 9.399219e-01
<VARIANCE> 39
 4.998103e+00 9.754736e+00 2.587948e+01 2.233803e+01 1.709382e+01 3.334249e+01 2.758866e+01 1.904755e+01 2.418858e+01 2.015186e+01 2.715936e+01 2.081252e+01 1.372042e+01 7.844260e-01 2.001928e+00 4.631184e+00 1.701240e+00 1.532510e+00 2.115976e+00 2.367471e+00 3.034554e+00 4.513415e+00 2.281765e+00 2.904904e+00 3.790995e+00 9.473602e-01 2.436305e-01 2.391269e-01 3.405620e-01 3.778166e-01 2.524574e-01 4.666162e-01 5.271571e-01 7.191972e-01 4.817094e-01 4.366080e-01 5.592287e-01 3.773071e-01 1.569720e-01
<GCONST> 1.070510e+02
<STATE> 4
<MEAN> 39
 1.460215e+00 -9.228720e-01 -2.180601e+00 -8.867853e+00 -3.881957e+00 1.897662e+00 -1.202307e+01 3.350374e+00 -1.241736e+01 1.397580e+00 6.712508e+00 -6.399885e+00 6.963400e+01 -4.248361e-01 -1.154861e+00 3.304183e+00 -1.257723e+00 4.428145e-01 -1.610755e+00 -2.372546e+00 -1.321416e+00 -1.539614e+00 -7.001231e-01 1.488196e+00 -2.549071e-01 2.723331e+00 5.374295e-02 3.876849e-01 -2.175075e-01 2.201294e-01 3.513225e-01 3.849391e-02 9.834283e-02 -6.271235e-01 2.259458e-01 -3.205394e-01 -5.608671e-01 2.765354e-01 5.673293e-02
<VARIANCE> 39
 1.089721e+01 3.440070e+01 4.096537e+01 3.369766e+01 1.812219e+01 4.720959e+01 5.324633e+01 3.719962e+01 4.555524e+01 3.116949e+01 4.253101e+01 2.864592e+01 3.133819e+01 2.275742e+00 3.412394e+00 5.941359e+00 3.766784e+00 1.745355e+00 3.915463e+00 4.744389e+00 4.176889e+00 4.326376e+00 3.010103e+00 3.673512e+00 2.845165e+00 2.097891e+00 2.500620e-01 6.693686e-01 9.114636e-01 5.776548e-01 3.258721e-01 7.595340e-01 1.101577e+00 7.747576e-01 9.192941e-01 6.118176e-01 6.625922e-01 6.304741e-01 6.443704e-01
<GCONST> 1.268345e+02
<TRANSP> 5
 0.000000e+00 1.000000e+00 0.000000e+00 0.000000e+00 0.000000e+00
 0.000000e+00 5.318199e-01 4.681801e-01 0.000000e+00 0.000000e+00
 0.000000e+00 0.000000e+00 3.482361e-01 6.517639e-01 0.000000e+00
 0.000000e+00 0.000000e+00 0.000000e+00 4.911643e-01 5.088357e-01
 0.000000e+00 0.000000e+00 0.000000e+00 0.000000e+00 0.000000e+00
<ENDHMM>
~h "ao"
<BEGINHMM>
<NUMSTATES> 5
<STATE> 2
<MEAN> 39
 -1.797149e+00 2.417243e+00 4.896168e+00 -9.743836e+00 -4.119901e+00 -5.200680e-02 -1.310732e+01 -1.986889e+00 -9.806602e+00 -7.181275e+00 -2.070044e+00 -4.664490e+00 7.435034e+01 2.343464e+00 1.774590e-01 -1.467991e-01 -1.479380e+00 -1.972797e+00 -2.452224e+00 -1.503754e+00 8.631133e-01 -1.017269e+00 -8.560805e-01 1.501043e+00 -1.370618e+00 2.521405e-01 4.839918e-02 -2.717175e-02 -2.342092e-01 -5.674520e-01 -4.330173e-01 -4.426962e-01 3.554504e-01 3.919408e-01 -1.098438e-02 3.950492e-01 6.591218e-01 -5.102709e-01 1.989408e-01
<VARIANCE> 39
 6.822195e+01 2.318160e+01 2.962245e+01 1.646447e+01 1.942562e+01 7.827758e+01 4.922128e+01 4.375077e+01 2.003854e+01 1.136633e+01 2.921831e+01 2.890314e+01 1.179298e+01 7.154515e+00 1.354333e+00 1.334956e+00 1.703881e+00 3.544923e+00 3.522009e+00 3.042292e+00 8.790347e+00 4.106840e+00 1.005955e+00 2.415322e+00 3.171749e+00 6.054352e-01 4.130516e-01 1.511949e-01 1.283276e-01 5.089275e-01 5.048273e-01 7.557871e-01 4.948734e-01 6.487236e-01 2.904498e-01 4.599792e-01 4.603399e-01 4.679751e-01 1.170538e-01
<GCONST> 1.134310e+02
<STATE> 3
<MEAN> 39
 3.322724e+00 1.628279e+00 4.390896e+00 -1.619071e+01 -1.118836e+01 -6.663344e+00 -1.404764e+01 7.049357e-01 -1.263381e+01 -6.795783e+00 4.091555e+00 -7.715928e+00 7.637318e+01 1.489525e+00 -3.275176e-01 -9.367213e-01 -1.862771e+00 -1.917560e+00 -1.871230e+00 2.404262e-01 1.981559e+00 -6.390706e-01 7.787590e-02 2.146764e+00 -1.653999e+00 4.445784e-01 -7.548848e-01 -1.421630e-01 -4.980816e-02 2.987742e-01 6.330855e-01 7.742926e-01 7.039568e-01 4.823521e-02 2.853996e-01 3.247134e-01 -4.086364e-01 2.173229e-01 -6.683689e-02
<VARIANCE> 39
 7.605481e+00 1.172903e+01 1.714402e+01 1.280321e+01 1.632530e+01 2.289783e+01 1.878660e+01 1.261295e+02 2.048455e+01 3.845687e+01 1.627715e+01 6.198512e+01 5.062604e+00 4.010547e+00 1.210905e+00 5.975220e-01 2.021210e+00 2.427380e+00 3.573413e+00 3.500095e+00 7.506188e+00 2.628181e+00 3.705936e+00 2.885312e+00 2.541856e+00 6.327115e-01 3.377174e-01 1.554914e-01 1.525135e-01 2.245614e-01 3.120520e-01 2.479900e-01 2.479866e-01 1.296345e+00 5.848121e-01 3.157714e-01 5.421754e-01 5.881678e-01 5.274346e-02
<GCONST> 1.056813e+02
<STATE> 4
<MEAN> 39
 4.762660e+00 8.231861e-01 1.469512e+00 -1.720651e+01 -1.120465e+01 -7.066450e+00 -1.204025e+01 5.511870e+00 -1.617823e+01 -3.683476e+00 6.078977e+00 -1.128541e+01 7.586915e+01 4.420088e-02 -1.363905e-01 -1.132450e-01 3.584185e-01 2.360973e-01 2.866150e-01 -1.515969e-01 -5.575233e-01 -4.997454e-01 4.403540e-01 -1.859553e-04 -2.140604e-03 -1.412883e-01 -2.768857e-02 2.412331e-02 8.454226e-02 2.225730e-01 5.000162e-02 1.090496e-01 -9.885373e-02 -2.050330e-01 1.169105e-01 -3.722957e-02 -1.572655e-01 1.205536e-01 -6.085240e-02
<VARIANCE> 39
 4.399860e+00 1.306622e+01 1.694946e+01 2.544160e+01 5.251045e+01 4.366137e+01 2.332791e+01 9.898070e+01 3.616330e+01 4.645544e+01 1.620954e+01 3.570356e+01 4.018608e+00 2.394323e-01 9.967950e-01 5.749315e-01 1.346929e+00 1.872200e+00 1.490937e+00 1.738110e+00 2.708982e+00 2.146827e+00 2.143365e+00 1.454895e+00 1.631644e+00 2.209908e-01 4.610051e-02 1.084134e-01 8.629872e-02 1.576956e-01 3.218905e-01 2.200727e-01 2.491072e-01 3.119380e-01 3.303875e-01 3.180112e-01 3.161476e-01 2.643035e-01 2.941767e-02
<GCONST> 9.116514e+01
<TRANSP> 5
 0.000000e+00 1.000000e+00 0.000000e+00 0.000000e+00 0.000000e+00
 0.000000e+00 2.339667e-01 7.660334e-01 0.000000e+00 0.000000e+00
 0.000000e+00 0.000000e+00 5.664255e-01 4.335745e-01 0.000000e+00
 0.000000e+00 0.000000e+00 0.000000e+00 9.221119e-01 7.788809e-02
 0.000000e+00 0.000000e+00 0.000000e+00 0.000000e+00 0.000000e+00
<ENDHMM>
~h "aw"
<BEGINHMM>
<NUMSTATES> 5
<STATE> 2
<MEAN> 39
 -2.501217e+00 -8.481516e-01 -4.915825e+00 -1.091770e+01 -5.465242e+00 6.107117e+00 -4.676220e+00 -2.423163e+00 -5.138819e+00 -2.952892e+00 1.161747e+00 -1.508161e-01 7.016825e+01 -1.121623e+00 -8.016445e-01 1.468717e+00 -1.618794e+00 -5.735223e-01 -2.525005e-03 7.961303e-01 -2.750441e-01 9.335163e-01 -2.016387e-01 1.585674e-01 4.408084e-01 1.129772e+00 -2.643779e-02 -4.088062e-02 3.638967e-01 1.268879e-01 1.073764e-01 -9.829421e-02 -5.299680e-02 1.201600e-01 4.457390e-02 9.039871e-02 -5.789311e-02 -1.079810e-01 -9.121494e-03
<VARIANCE> 39
 2.251431e+01 1.795184e+01 4.717159e+01 5.817047e+01 4.677858e+01 1.790856e+01 5.002882e+01 2.909559e+01 1.533445e+01 9.527899e+00 1.882182e+01 2.938041e+01 3.527940e+01 1.293934e+00 1.260009e+00 3.008897e+00 4.123900e+00 2.327623e+00 2.104874e+00 3.153647e+00 4.678391e+00 1.917734e+00 1.060719e+00 1.426896e+00 2.747473e+00 3.242646e+00 4.100729e-01 2.554529e-01 4.732685e-01 1.063427e+00 3.517663e-01 3.915206e-01 8.123152e-01 1.179577e+00 3.860746e-01 2.003835e-01 3.287189e-01 5.612168e-01 1.012928e+00
<GCONST> 1.158090e+02
<STATE> 3
<MEAN> 39
 -1.403382e+00 1.864195e-01 6.798115e+00 -1.395981e+01 -1.051302e+01 2.151353e+00 -1.068864e+01 1.286086e+00 -5.439306e+00 -4.376482e+00 2.018387e-01 -4.070766e+00 7.199899e+01 1.404849e+00 1.226051e+00 5.984437e-01 -3.210802e-01 -1.229448e+00 -1.196909e+00 -2.038431e+00 8.812525e-01 -1.178458e+00 -3.343571e-01 3.674119e-01 -1.350423e+00 -1.066384e-01 3.427795e-02 -5.635913e-02 -2.374054e-01 -2.056014e-01 -1.480187e-01 -4.436989e-02 2.490516e-01 8.939892e-02 -2.014782e-01 4.691490e-02 2.165663e-01 -5.540146e-02 1.783622e-01
<VARIANCE> 39
 2.746817e+01 3.420990e+01 1.968105e+01 1.805999e+01 2.793060e+01 2.874157e+01 9.489384e+01 6.936494e+00 2.674223e+01 2.756906e+01 1.719440e+01 3.147264e+01 4.120779e+00 1.605883e+00 2.531539e+00 9.861951e-01 1.558389e+00 1.236715e+00 2.110729e+00 7.846021e+00 1.220165e+00 2.621990e+00 2.196878e+00 2.077162e+00 2.273684e+00 7.411301e-01 5.591218e-01 7.728390e-01 1.876498e-01 2.341271e-01 3.043101e-01 5.232449e-01 2.010631e+00 3.714676e-01 5.941168e-01 5.387911e-01 3.139552e-01 5.255395e-01 8.339252e-02
<GCONST> 1.084224e+02
<STATE> 4
<MEAN> 39
 4.290480e+00 -7.796428e-03 4.365048e+00 -1.878374e+01 -1.144983e+01 -1.632112e+00 -1.419832e+01 8.641895e+00 -1.349795e+01 -5.420341e+00 7.294575e+00 -9.181917e+00 7.597233e+01 9.257822e-02 -2.050563e-01 -6.600670e-02 3.137470e-01 2.644863e-01 1.445470e-01 1.859810e-01 -2.582650e-01 -5.125463e-01 -2.291141e-01 8.760206e-02 3.578093e-01 4.974297e-02 -2.671984e-02 4.409129e-02 2.914348e-02 1.756619e-01 1.199373e-01 1.083153e-01 -3.175958e-02 -2.523752e-01 4.761619e-02 -5.743044e-02 -1.113023e-01 6.475941e-02 -7.750494e-02
<VARIANCE> 39
 2.721623e+00 1.422473e+01 1.775560e+01 2.458244e+01 4.428806e+01 2.034084e+01 4.333308e+01 3.074494e+01 2.247823e+01 3.032475e+01 1.240177e+01 4.079185e+01 4.130465e+00 1.739173e-01 9.444767e-01 6.321827e-01 1.204763e+00 1.051895e+00 1.183586e+00 2.350672e+00 2.850941e+00 1.591392e+00 1.553871e+00 9.784672e-01 1.769988e+00 2.438938e-01 3.497914e-02 9.373561e-02 6.994329e-02 1.083986e-01 1.931196e-01 2.086991e-01 4.363486e-01 2.175614e-01 3.293977e-01 3.381861e-01 1.670098e-01 2.844691e-01 1.715941e-02
<GCONST> 8.419090e+01
<TRANSP> 5
 0.000000e+00 1.000000e+00 0.000000e+00 0.000000e+00 0.000000e+00
 0.000000e+00 8.292935e-01 1.707065e-01 0.000000e+00 0.000000e+00
 0.000000e+00 0.000000e+00 8.383800e-01 1.616200e-01 0.000000e+00
 0.000000e+00 0.000000e+00 0.000000e+00 9.382365e-01 6.176354e-02
 0.000000e+00 0.000000e+00 0.000000e+00 0.000000e+00 0.000000e+00
<ENDHMM>
~h "ax"
<BEGINHMM>
<NUMSTATES> 5
<STATE> 2
<MEAN> 39
 3.988588e+00 3.570724e+00 -6.188905e+00 -2.291558e+00 -1.846680e+00 4.547585e+00 -9.202216e+00 -2.068330e+00 -1.093471e+01 -7.874569e-01 5.577555e-01 -3.654180e+00 6.694472e+01 1.614382e-01 4.577476e-01 -2.843285e-01 3.410889e-01 8.490049e-02 5.784679e-01 4.663876e-01 9.328467e-01 2.880137e-01 -5.078690e-01 -5.383790e-01 -2.337332e-01 -4.727685e-01 -2.509797e-01 -2.597731e-01 3.904035e-01 -3.143651e-01 7.921599e-02 -2.435613e-01 -2.523074e-01 -7.341125e-02 2.922140e-02 -3.983168e-02 1.444917e-01 -2.467986e-03 3.546046e-01
<VARIANCE> 39
 6.445982e+00 1.786307e+01 7.092919e+01 4.231598e+01 2.716200e+01 4.471578e+01 5.064040e+01 4.515194e+01 6.131716e+01 2.834321e+01 3.387984e+01 1.929659e+01 2.103118e+01 6.105314e-01 7.121974e-01 4.089454e+00 1.928955e+00 1.993377e+00 3.541785e+00 3.728904e+00 3.329084e+00 3.403756e+00 2.500737e+00 2.115373e+00 1.516646e+00 1.132756e+00 2.123495e-01 2.331010e-01 5.639436e-01 3.476137e-01 3.340491e-01 6.962989e-01 5.939798e-01 8.224267e-01 5.509824e-01 4.576424e-01 5.357689e-01 3.004623e-01 2.028923e-01
<GCONST> 1.137847e+02
<STATE> 3
<MEAN> 39
 4.967772e+00 5.514666e+00 -6.510570e+00 -2.239215e+00 -9.317265e-01 6.909785e+00 -8.760880e+00 -2.139611e-01 -9.708104e+00 -2.280070e+00 -2.772829e+00 -4.523530e+00 6.589315e+01 -6.067076e-01 -4.164487e-01 1.915276e+00 -6.537009e-01 6.516631e-01 -2.354994e-01 -8.157661e-01 1.649563e-02 -3.798989e-01 -7.513815e-01 4.500528e-02 -1.840868e-01 1.007799e+00 -3.852395e-01 -4.974848e-01 5.534226e-01 -4.525287e-01 8.663908e-02 -6.975757e-01 -5.092342e-01 -5.939065e-01 -3.114068e-01 1.017431e-01 5.360854e-01 2.000006e-01 6.150497e-01
<VARIANCE> 39
 4.133799e+00 2.367953e+01 5.398564e+01 4.192758e+01 2.775150e+01 4.377211e+01 3.166272e+01 3.865546e+01 5.699302e+01 3.105122e+01 3.380111e+01 2.514110e+01 1.800199e+01 9.418280e-01 1.507262e+00 6.041434e+00 2.421128e+00 1.971497e+00 4.313570e+00 4.521420e+00 4.352632e+00 3.282901e+00 2.237440e+00 2.849004e+00 2.223418e+00 1.038403e+00 1.591477e-01 3.094901e-01 5.714024e-01 3.044572e-01 4.867066e-01 6.960130e-01 7.695543e-01 9.159107e-01 8.168996e-01 5.405385e-01 4.721575e-01 4.783953e-01 2.270998e-01
<GCONST> 1.173635e+02
<STATE> 4
<MEAN> 39
 1.837324e+00 1.423255e+00 1.599052e+00 -7.919744e+00 7.457826e-01 2.658830e+00 -1.580972e+01 -4.929388e+00 -1.431865e+01 -3.665283e+00 7.203952e-01 -3.684487e+00 7.242539e+01 -5.045187e-01 -1.053544e+00 1.551308e+00 -6.125629e-01 2.416276e-01 -1.951464e+00 -1.285971e+00 -1.757318e+00 -1.076216e+00 2.726110e-01 1.153526e+00 5.963523e-02 1.712874e+00 1.309946e-01 1.604250e-01 -3.743555e-01 1.451897e-01 -2.188638e-02 1.236124e-01 3.210659e-01 2.647199e-02 1.137938e-01 1.652054e-01 7.712971e-02 -1.070214e-01 -1.896415e-01
<VARIANCE> 39
 9.047408e+00 1.927538e+01 6.556617e+01 5.683973e+01 3.397938e+01 7.185220e+01 8.666618e+01 5.942815e+01 4.806108e+01 4.471941e+01 4.644727e+01 3.200421e+01 2.634122e+01 1.696053e+00 2.464139e+00 5.368259e+00 3.320229e+00 3.085824e+00 5.748349e+00 8.628948e+00 6.775571e+00 4.414320e+00 3.132437e+00 3.157056e+00 1.994450e+00 2.527229e+00 2.722010e-01 3.876040e-01 8.001953e-01 5.965768e-01 4.658399e-01 1.278584e+00 1.475438e+00 1.439951e+00 7.389984e-01 6.195282e-01 6.879682e-01 3.694910e-01 4.029076e-01
<GCONST> 1.304929e+02
<TRANSP> 5
 0.000000e+00 1.000000e+00 0.000000e+00 0.000000e+00 0.000000e+00
 0.000000e+00 4.214070e-01 5.785930e-01 0.000000e+00 0.000000e+00
 0.000000e+00 0.000000e+00 3.698764e-01 6.301236e-01 0.000000e+00
 0.000000e+00 0.000000e+00 0.000000e+00 6.109161e-01 3.890838e-01
 0.000000e+00 0.000000e+00 0.000000e+00 0.000000e+00 0.000000e+00
<ENDHMM>
~h "ay"
<BEGINHMM>
<NUMSTATES> 5
<STATE> 2
<MEAN> 39
 2.752052e+00 -2.359119e+00 1.802630e+00 -1.772077e+01 -1.559635e+00 -2.740402e+00 -1.657819e+01 -1.406280e+00 -1.096899e+01 4.621602e+00 8.134823e+00 -9.809216e+00 7.793967e+01 4.156309e-02 -3.640620e-01 -4.630123e-02 5.536358e-01 3.030588e-01 -4.430525e-01 -9.656701e-02 -3.065422e-01 5.973971e-03 7.987462e-01 -4.038228e-01 -1.672257e-03 -2.682692e-03 -5.087206e-02 8.313445e-02 5.491883e-02 1.178982e-01 9.464951e-02 -3.031569e-02 -1.369173e-01 -1.221378e-01 -8.318336e-02 -9.936977e-02 -8.625698e-02 1.607937e-01 -5.850798e-02
<VARIANCE> 39
 9.899248e+00 3.598470e+01 1.007211e+01 1.963329e+01 1.431403e+01 2.308510e+01 2.127859e+01 3.213971e+01 2.381853e+01 3.112203e+01 2.171937e+01 2.776446e+01 5.531423e+00 1.517395e-01 5.649884e-01 6.089783e-01 7.451623e-01 7.160210e-01 6.851244e-01 1.377489e+00 1.342654e+00 1.031908e+00 1.066525e+00 9.212347e-01 1.067334e+00 4.842280e-02 4.301750e-02 8.719219e-02 7.662451e-02 1.012659e-01 1.309503e-01 1.390036e-01 2.158714e-01 1.755509e-01 2.531462e-01 2.039525e-01 2.376456e-01 1.620966e-01 1.879342e-02
<GCONST> 7.567776e+01
<STATE> 3
<MEAN> 39
 1.855045e+00 -4.097876e+00 2.534645e+00 -1.400939e+01 1.484742e+00 -5.436896e+00 -1.958524e+01 -5.127566e+00 -1.224457e+01 7.533067e+00 4.775921e+00 -6.554185e+00 7.764845e+01 -4.817344e-02 -4.595968e-02 7.195292e-01 1.120559e+00 -8.501195e-02 -3.754795e-02 -6.902775e-01 -4.731536e-01 -7.859139e-01 -5.382729e-01 -2.033641e-02 4.940932e-01 -2.142617e-01 3.820972e-02 2.510910e-01 -1.044028e-02 4.564000e-02 -1.006408e-01 2.870972e-01 4.598986e-02 2.699353e-01 -8.358333e-02 -3.672242e-01 1.154583e-01 -1.680398e-01 -2.010681e-01
<VARIANCE> 39
 2.961178e+01 2.169877e+01 3.561058e+01 2.778020e+01 1.551819e+01 3.102410e+01 5.020355e+01 2.709245e+01 4.955132e+01 3.664447e+01 2.119413e+01 1.623529e+01 6.372668e+00 1.516367e-01 3.637493e-01 1.015138e+00 5.174797e-01 9.568034e-01 8.765615e-01 1.670854e+00 9.572244e-01 1.448678e+00 2.424595e+00 1.987767e+00 1.209206e+00 5.020804e-02 2.649346e-02 8.292228e-02 1.344753e-01 1.340113e-01 1.348475e-01 1.917437e-01 2.597748e-01 1.564696e-01 1.824265e-01 2.326855e-01 2.863865e-01 1.603795e-01 4.505423e-02
<GCONST> 8.318806e+01
<STATE> 4
<MEAN> 39
 -2.498093e+00 -5.197650e+00 4.677801e+00 -1.291514e+01 6.585044e-01 -6.511314e-01 -1.671103e+01 -5.332929e+00 -9.187678e+00 2.722023e+00 4.542213e+00 -4.476660e+00 7.598455e+01 3.651195e-01 3.021217e-01 2.115802e-01 5.096136e-01 1.137756e-01 4.505700e-01 -4.157304e-01 7.370325e-02 -7.847493e-01 -6.452010e-01 -4.425554e-01 -8.859454e-02 -6.110709e-01 9.207574e-02 3.437991e-01 -2.962625e-01 -3.603008e-02 -1.055367e-02 3.961865e-01 4.269117e-01 3.497778e-01 1.388437e-01 -2.107137e-01 -4.076264e-01 -5.713929e-02 -2.802958e-01
<VARIANCE> 39
 7.279831e+01 2.165949e+01 3.952825e+01 3.608308e+01 1.016914e+01 5.066716e+01 9.254010e+01 2.362552e+01 1.333476e+02 4.154584e+01 2.251395e+01 2.061817e+01 7.500405e+00 3.500040e-01 5.442703e-01 5.011351e-01 1.079212e+00 7.253677e-01 1.662741e+00 1.535941e+00 1.232653e+00 1.386130e+00 2.474200e+00 2.160395e+00 1.034083e+00 1.694716e-01 5.769373e-02 9.369089e-02 1.365530e-01 1.896073e-01 1.539117e-01 1.453569e-01 4.322661e-01 1.331594e-01 3.815992e-01 4.288995e-01 3.526186e-01 1.915933e-01 6.233747e-02
<GCONST> 9.301800e+01
<TRANSP> 5
 0.000000e+00 1.000000e+00 0.000000e+00 0.000000e+00 0.000000e+00
 0.000000e+00 8.812142e-01 1.187858e-01 0.000000e+00 0.000000e+00
 0.000000e+00 0.000000e+00 4.306751e-01 5.693249e-01 0.000000e+00
 0.000000e+00 0.000000e+00 0.000000e+00 4.897781e-01 5.102219e-01
 0.000000e+00 0.000000e+00 0.000000e+00 0.000000e+00 0.000000e+00
<ENDHMM>
~h "ch"
<BEGINHMM>
<NUMSTATES> 5
<STATE> 2
<MEAN> 39
 -8.617888e+00 -2.869430e+00 2.203747e+00 -8.578944e+00 6.893833e-01 5.050729e-01 -8.169709e+00 3.819000e+00 6.913428e-01 -2.963429e+00 -6.918225e-01 -2.980955e+00 7.302016e+01 -2.259122e+00 -1.325654e+00 1.903661e+00 -5.429703e-01 -4.278110e-02 -1.373323e+00 -3.719612e-01 -1.099430e-01 8.000613e-01 -9.237872e-01 -1.134035e-01 3.655543e-01 1.682670e+00 3.293160e-01 -4.830327e-02 3.937683e-01 2.575559e-01 1.341229e-01 1.572388e-01 -5.547266e-01 -2.420563e-01 -5.658602e-01 -1.349319e-01 -2.082232e-01 -2.368743e-01 3.700997e-02
<VARIANCE> 39
 6.395831e+01 4.351199e+01 5.475080e+01 7.274336e+01 3.403379e+01 3.698983e+01 3.779495e+01 1.071065e+01 5.564777e+01 1.586717e+01 1.793044e+01 3.274548e+01 2.886680e+01 8.793230e+00 3.200827e+00 4.211520e+00 5.807047e+00 1.320418e+00 4.556535e+00 3.086615e+00 1.234390e+00 5.193869e+00 1.532927e+00 2.711781e+00 3.093556e+00 3.468981e+00 1.940992e+00 7.509149e-01 1.213294e+00 1.200436e+00 4.290815e-01 1.350555e+00 5.407013e-01 2.197720e-01 1.103914e+00 2.991617e-01 4.356588e-01 5.363743e-01 1.062055e+00
<GCONST> 1.282483e+02
<STATE> 3
<MEAN> 39
 -5.787696e+00 -5.017920e+00 1.211623e+01 -6.720234e+00 -1.441214e+00 -1.185353e+00 -1.436202e+01 4.038288e-01 -7.891300e+00 -5.754699e+00 -5.357029e+00 -7.286966e+00 7.479465e+01 -2.615915e-01 -4.901827e-01 6.171135e-02 6.186906e-01 -1.465102e-01 -1.788064e-01 3.265142e-01 8.348066e-02 -6.692106e-02 9.522672e-02 1.849497e-01 -9.522451e-02 1.699114e-01 -1.408180e-02 -3.320791e-02 -1.654497e-01 3.891184e-03 1.041392e-01 2.032100e-02 5.389456e-02 6.336510e-03 1.947864e-01 1.291662e-01 6.709335e-02 6.128690e-02 -2.907355e-02
<VARIANCE> 39
 5.358313e+01 2.123651e+01 3.783039e+01 2.690463e+01 3.402870e+01 3.218843e+01 9.012428e+01 3.291319e+01 2.522638e+01 2.041209e+01 2.121488e+01 1.750666e+01 1.205825e+01 4.510582e+00 1.580655e+00 2.165198e+00 2.114353e+00 1.979228e+00 4.564693e+00 6.179296e+00 2.866023e+00 3.875527e+00 1.638930e+00 2.071408e+00 1.373422e+00 1.403391e+00 7.983755e-01 2.155962e-01 4.351532e-01 3.743803e-01 3.116620e-01 9.878371e-01 7.834234e-01 5.471370e-01 3.266218e-01 3.042899e-01 4.533036e-01 1.377593e-01 3.226087e-01
<GCONST> 1.152656e+02
<STATE> 4
<MEAN> 39
 -3.370059e+00 -8.009145e+00 2.583366e+00 -3.653188e-02 2.998025e+00 -5.891232e+00 -1.439615e+01 -6.997258e+00 -1.028901e+01 5.419421e-01 -8.743109e-01 -3.746574e+00 7.618605e+01 1.941003e+00 1.115633e+00 -9.013423e-01 -1.235568e-01 7.590534e-01 3.339297e-01 -1.010456e+00 -1.354478e+00 -1.703612e+00 7.028587e-01 -3.065574e-02 -7.074834e-02 -6.197166e-01 6.994617e-02 1.973069e-01 9.344334e-03 -1.644575e-02 -2.004531e-01 1.449934e-01 2.324484e-01 1.450226e-01 -1.513422e-01 -5.519180e-02 -2.624979e-02 -7.981345e-02 -1.314633e-01
<VARIANCE> 39
 7.633976e+01 5.664013e+01 2.558197e+01 2.859015e+01 4.698782e+01 1.267839e+01 4.547099e+01 7.119072e+01 1.092596e+02 2.858459e+01 1.564549e+01 1.158564e+01 1.006401e+01 2.746763e+00 2.383280e+00 1.249828e+00 8.316595e-01 1.111938e+00 2.185606e+00 2.948387e+00 3.936471e+00 4.456095e+00 2.100101e+00 2.272192e+00 1.010539e+00 4.007151e-01 7.180240e-01 5.509591e-01 2.494276e-01 2.568594e-01 2.303386e-01 2.992235e-01 4.739696e-01 7.244228e-01 9.203087e-01 4.122797e-01 4.754701e-01 2.071045e-01 1.670380e-01
<GCONST> 1.115864e+02
<TRANSP> 5
 0.000000e+00 1.000000e+00 0.000000e+00 0.000000e+00 0.000000e+00
 0.000000e+00 7.893844e-01 2.106156e-01 0.000000e+00 0.000000e+00
 0.000000e+00 0.000000e+00 9.067912e-01 9.320889e-02 0.000000e+00
 0.000000e+00 0.000000e+00 0.000000e+00 8.721600e-01 1.278400e-01
 0.000000e+00 0.000000e+00 0.000000e+00 0.000000e+00 0.000000e+00
<ENDHMM>
~h "dh"
<BEGINHMM>
<NUMSTATES> 5
<STATE> 2
<MEAN> 39
 -9.128247e-01 3.575757e+00 -8.577830e+00 -8.352143e+00 -3.009109e+00 5.528661e+00 -3.731250e+00 2.128086e+00 -3.722028e+00 2.587200e-01 7.650486e-01 -6.122217e-01 6.410752e+01 -3.241171e-02 -1.033030e-01 1.379632e-01 3.948030e-03 -6.839284e-02 -6.651242e-02 -9.835184e-02 1.626025e-02 -1.635855e-01 -1.782920e-01 -1.723893e-01 1.041725e-02 1.467724e-03 1.904439e-01 1.597922e-01 -1.426953e-01 2.210255e-01 6.613411e-02 7.678241e-02 -1.112568e-01 -1.222611e-01 -1.219086e-01 -3.246076e-02 -1.921401e-01 -5.955787e-02 -7.624193e-02
<VARIANCE> 39
 2.100327e+01 1.736481e+01 5.677518e+01 3.585828e+01 1.962490e+01 2.110254e+01 2.586324e+01 2.891848e+01 1.999351e+01 3.295925e+01 2.931262e+01 1.544319e+01 1.480368e+01 2.101108e+00 1.732535e+00 5.582871e+00 2.505251e+00 2.025991e+00 2.036240e+00 2.690282e+00 3.147881e+00 1.470835e+00 3.154329e+00 2.420342e+00 1.058383e+00 1.523001e+00 3.434502e-01 3.156998e-01 8.739283e-01 3.232577e-01 4.028836e-01 4.453950e-01 5.807331e-01 7.188190e-01 3.886445e-01 6.384768e-01 4.397484e-01 3.150482e-01 2.277435e-01
<GCONST> 1.125917e+02
<STATE> 3
<MEAN> 39
 2.860136e+00 5.143661e+00 -1.272354e+01 -3.823939e+00 -3.027042e+00 7.231812e+00 -5.344690e+00 1.163950e+00 -5.776742e+00 -1.282737e-01 -1.156228e+00 -7.974450e-01 6.264949e+01 4.316930e-01 6.037412e-01 -1.741579e-01 5.654647e-01 5.544260e-01 2.261716e-01 -4.762047e-01 -4.038284e-01 -5.053144e-01 -8.396177e-01 -8.291438e-01 -3.918607e-01 -1.959712e-01 -1.181984e-01 -5.543663e-02 4.879293e-01 -1.743812e-01 1.952366e-01 -5.841517e-02 -5.094908e-02 -9.019519e-03 -1.050490e-01 -1.259978e-01 -3.229533e-02 -1.839561e-01 2.479116e-01
<VARIANCE> 39
 3.663137e+00 6.064287e+00 4.086976e+01 1.810638e+01 1.373136e+01 2.086874e+01 2.221012e+01 1.521535e+01 1.295858e+01 1.886314e+01 1.675802e+01 1.168602e+01 1.192051e+01 2.317529e-01 5.170524e-01 3.357902e+00 7.612507e-01 8.525330e-01 1.257545e+00 1.583543e+00 2.057138e+00 1.668235e+00 2.590446e+00 1.693911e+00 1.514826e+00 7.287455e-01 1.190628e-01 1.187691e-01 2.592109e-01 1.232824e-01 2.133015e-01 4.026495e-01 1.610231e-01 2.006606e-01 2.208300e-01 2.163968e-01 2.330886e-01 2.967003e-01 4.646461e-02
<GCONST> 8.590621e+01
<STATE> 4
<MEAN> 39
 1.486708e+00 2.740951e-01 -1.423006e+01 -4.094180e-01 -4.944760e+00 5.016441e+00 -2.982940e+00 1.625197e+00 -5.586860e+00 2.795656e+00 4.320709e-01 -1.279254e+00 6.276264e+01 4.695268e-02 9.188357e-02 5.147832e-02 6.377006e-02 6.827118e-02 4.969989e-02 1.341191e-02 -2.741477e-02 -4.915382e-02 -1.511997e-01 -6.979474e-02 -1.061378e-01 2.290301e-02 -1.637709e-02 6.040670e-03 1.105270e-01 -7.131542e-02 3.089929e-02 4.028817e-03 -3.822831e-02 3.260024e-03 -4.040867e-02 -2.698409e-02 2.544160e-02 -1.859340e-02 5.066217e-02
<VARIANCE> 39
 2.652947e+00 3.276055e+01 1.954215e+01 2.491595e+01 1.181234e+01 1.244193e+01 1.530625e+01 1.427192e+01 1.306183e+01 1.107649e+01 1.658406e+01 8.715968e+00 6.051325e+00 1.997003e-01 7.229841e-01 1.146734e+00 7.390433e-01 1.010909e+00 9.806300e-01 1.006891e+00 1.465833e+00 1.241003e+00 1.207428e+00 1.073557e+00 9.217554e-01 2.331464e-01 4.053509e-02 7.399666e-02 1.605873e-01 1.171722e-01 1.835758e-01 1.636529e-01 1.977520e-01 3.462940e-01 2.154827e-01 1.842556e-01 1.810391e-01 1.521930e-01 4.770331e-02
<GCONST> 7.584355e+01
<TRANSP> 5
 0.000000e+00 1.000000e+00 0.000000e+00 0.000000e+00 0.000000e+00
 0.000000e+00 5.826188e-01 4.173813e-01 0.000000e+00 0.000000e+00
 0.000000e+00 0.000000e+00 2.852262e-01 7.147738e-01 0.000000e+00
 0.000000e+00 0.000000e+00 0.000000e+00 8.406374e-01 1.593626e-01
 0.000000e+00 0.000000e+00 0.000000e+00 0.000000e+00 0.000000e+00
<ENDHMM>
~h "ea"
<BEGINHMM>
<NUMSTATES> 5
<STATE> 2
<MEAN> 39
 1.243263e+00 2.009342e+00 -3.600729e+00 -7.780252e+00 -2.124930e+00 2.943915e+00 -9.405266e+00 5.574683e-01 -8.480373e+00 -8.431195e-01 1.753790e+00 -3.834116e+00 6.933920e+01 6.608545e-03 -7.871487e-04 5.575932e-03 9.451325e-03 1.243685e-02 3.598967e-04 4.977515e-03 7.675061e-03 8.751670e-03 -1.601357e-04 -6.787761e-03 1.796699e-03 7.823239e-03 1.084905e-04 6.917859e-04 -1.452734e-03 -1.623669e-04 -1.531235e-03 -6.168764e-04 -1.016060e-04 5.717326e-04 -8.436721e-04 1.307740e-03 2.658077e-04 -1.178421e-04 -1.493792e-03
<VARIANCE> 39
 3.560448e+01 3.133138e+01 1.175854e+02 5.757076e+01 3.574751e+01 4.825400e+01 6.299704e+01 4.654386e+01 5.944289e+01 3.514179e+01 3.786765e+01 3.343571e+01 4.679148e+01 1.818672e+00 1.507933e+00 2.670334e+00 2.176207e+00 1.716306e+00 2.419825e+00 3.138164e+00 2.909526e+00 2.711722e+00 1.967625e+00 2.125080e+00 1.650968e+00 1.255564e+00 2.970746e-01 2.534214e-01 4.172046e-01 3.324886e-01 2.983715e-01 4.159752e-01 5.145366e-01 5.176500e-01 4.586368e-01 3.470287e-01 3.812441e-01 2.994810e-01 2.048787e-01
<GCONST> 1.175816e+02
<STATE> 3
<MEAN> 39
 1.243263e+00 2.009342e+00 -3.600729e+00 -7.780252e+00 -2.124930e+00 2.943915e+00 -9.405266e+00 5.574683e-01 -8.480373e+00 -8.431195e-01 1.753790e+00 -3.834116e+00 6.933920e+01 6.608545e-03 -7.871487e-04 5.575932e-03 9.451325e-03 1.243685e-02 3.598967e-04 4.977515e-03 7.675061e-03 8.751670e-03 -1.601357e-04 -6.787761e-03 1.796699e-03 7.823239e-03 1.084905e-04 6.917859e-04 -1.452734e-03 -1.623669e-04 -1.531235e-03 -6.168764e-04 -1.016060e-04 5.717326e-04 -8.436721e-04 1.307740e-03 2.658077e-04 -1.178421e-04 -1.493792e-03
<VARIANCE> 39
 3.560448e+01 3.133138e+01 1.175854e+02 5.757076e+01 3.574751e+01 4.825400e+01 6.299704e+01 4.654386e+01 5.944289e+01 3.514179e+01 3.786765e+01 3.343571e+01 4.679148e+01 1.818672e+00 1.507933e+00 2.670334e+00 2.176207e+00 1.716306e+00 2.419825e+00 3.138164e+00 2.909526e+00 2.711722e+00 1.967625e+00 2.125080e+00 1.650968e+00 1.255564e+00 2.970746e-01 2.534214e-01 4.172046e-01 3.324886e-01 2.983715e-01 4.159752e-01 5.145366e-01 5.176500e-01 4.586368e-01 3.470287e-01 3.812441e-01 2.994810e-01 2.048787e-01
<GCONST> 1.175816e+02
<STATE> 4
<MEAN> 39
 1.243263e+00 2.009342e+00 -3.600729e+00 -7.780252e+00 -2.124930e+00 2.943915e+00 -9.405266e+00 5.574683e-01 -8.480373e+00 -8.431195e-01 1.753790e+00 -3.834116e+00 6.933920e+01 6.608545e-03 -7.871487e-04 5.575932e-03 9.451325e-03 1.243685e-02 3.598967e-04 4.977515e-03 7.675061e-03 8.751670e-03 -1.601357e-04 -6.787761e-03 1.796699e-03 7.823239e-03 1.084905e-04 6.917859e-04 -1.452734e-03 -1.623669e-04 -1.531235e-03 -6.168764e-04 -1.016060e-04 5.717326e-04 -8.436721e-04 1.307740e-03 2.658077e-04 -1.178421e-04 -1.493792e-03
<VARIANCE> 39
 3.560448e+01 3.133138e+01 1.175854e+02 5.757076e+01 3.574751e+01 4.825400e+01 6.299704e+01 4.654386e+01 5.944289e+01 3.514179e+01 3.786765e+01 3.343571e+01 4.679148e+01 1.818672e+00 1.507933e+00 2.670334e+00 2.176207e+00 1.716306e+00 2.419825e+00 3.138164e+00 2.909526e+00 2.711722e+00 1.967625e+00 2.125080e+00 1.650968e+00 1.255564e+00 2.970746e-01 2.534214e-01 4.172046e-01 3.324886e-01 2.983715e-01 4.159752e-01 5.145366e-01 5.176500e-01 4.586368e-01 3.470287e-01 3.812441e-01 2.994810e-01 2.048787e-01
<GCONST> 1.175816e+02
<TRANSP> 5
 0.000000e+00 1.000000e+00 0.000000e+00 0.000000e+00 0.000000e+00
 0.000000e+00 6.000000e-01 4.000000e-01 0.000000e+00 0.000000e+00
 0.000000e+00 0.000000e+00 6.000000e-01 4.000000e-01 0.000000e+00
 0.000000e+00 0.000000e+00 0.000000e+00 7.000000e-01 3.000000e-01
 0.000000e+00 0.000000e+00 0.000000e+00 0.000000e+00 0.000000e+00
<ENDHMM>
~h "eh"
<BEGINHMM>
<NUMSTATES> 5
<STATE> 2
<MEAN> 39
 1.481542e+00 -3.206309e+00 7.162203e+00 -1.200395e+01 2.078304e-01 -2.745068e+00 -1.851095e+01 1.394024e+00 -1.571699e+01 3.097654e+00 6.099207e+00 -7.432087e+00 7.563052e+01 -2.415438e-01 -4.302124e-01 7.085931e-02 -2.829947e-01 1.076738e+00 -1.475463e+00 -1.572509e+00 -1.702588e-01 -1.044952e-01 1.169580e+00 1.368605e+00 4.006099e-01 5.999623e-01 9.424751e-02 3.576713e-01 -6.178182e-02 3.895739e-01 1.218096e-03 2.552994e-01 1.501149e-02 -3.373385e-01 3.108546e-01 -3.909344e-01 -3.074975e-01 1.362571e-01 -1.856327e-01
<VARIANCE> 39
 9.631842e+00 2.392911e+01 4.230369e+01 3.450544e+01 4.792981e+01 2.582020e+01 6.741913e+01 3.227692e+01 2.977563e+01 5.136094e+01 3.940641e+01 2.446371e+01 8.490328e+00 3.212961e-01 8.859046e-01 1.112908e+00 3.679854e+00 1.936786e+00 2.534927e+00 1.920676e+00 3.900661e+00 1.177534e+00 1.893949e+00 3.707954e+00 1.325494e+00 8.185974e-01 4.740373e-02 1.323220e-01 1.431690e-01 3.279767e-01 1.294284e-01 5.690343e-01 7.549129e-01 4.067919e-01 2.519755e-01 6.326758e-01 1.591551e-01 1.839205e-01 2.225170e-01
<GCONST> 1.027154e+02
<STATE> 3
<MEAN> 39
 1.723871e+00 -3.856854e+00 6.094409e+00 -1.203228e+01 1.674660e+00 -5.265391e+00 -2.083658e+01 1.497366e+00 -1.413365e+01 2.799951e+00 9.708904e+00 -8.101067e+00 7.722911e+01 2.850325e-02 -1.833865e-02 1.517829e-01 4.726235e-01 3.429517e-01 -2.118809e-01 -6.150720e-01 -6.733098e-01 2.635667e-01 3.045307e-01 3.875446e-01 3.615161e-01 8.053593e-02 6.229541e-02 4.406017e-01 -5.523500e-02 3.168746e-01 -3.432223e-01 6.700519e-01 6.633506e-01 1.488640e-02 1.699339e-01 -3.892034e-01 -6.162055e-01 -2.548939e-03 -4.126695e-01
<VARIANCE> 39
 4.217710e+00 1.638753e+01 3.778461e+01 2.353484e+01 3.434608e+01 2.136205e+01 6.813233e+01 2.913494e+01 2.694744e+01 2.312759e+01 3.278332e+01 2.013564e+01 2.741283e+00 3.970899e-01 1.108694e+00 1.251349e+00 4.012713e+00 1.640604e+00 2.757775e+00 2.226775e+00 1.488566e+00 1.297707e+00 2.419745e+00 3.355587e+00 1.014222e+00 1.368125e+00 5.442488e-02 9.035789e-02 2.377461e-01 1.763135e-01 1.721786e-01 3.253218e-01 4.492287e-01 3.851881e-01 3.390062e-01 3.070638e-01 3.310358e-01 1.841959e-01 7.888731e-02
<GCONST> 9.629141e+01
<STATE> 4
<MEAN> 39
 7.758064e-01 -1.774285e+00 1.122994e+01 -8.421938e+00 2.602815e+00 -6.229256e+00 -2.516663e+01 -4.694800e-01 -1.359007e+01 9.095612e-01 2.756556e+00 -6.970643e+00 7.622044e+01 -7.972594e-02 7.926268e-01 -5.314336e-02 2.566591e-01 -2.969178e-02 9.810916e-01 1.012292e+00 2.448420e-01 4.853373e-01 -6.345153e-01 -6.362521e-01 1.078654e-01 -5.605904e-01 -1.882557e-01 1.836704e-02 -1.794782e-01 1.014795e-01 6.058156e-03 3.211527e-01 5.403647e-01 2.199513e-01 3.202401e-01 -8.984300e-02 -1.955138e-01 -1.710676e-02 -1.220905e-01
<VARIANCE> 39
 3.711229e+00 2.204720e+01 1.448696e+01 1.571133e+01 1.745423e+01 3.266719e+01 2.429913e+01 3.782962e+01 1.223393e+01 3.027016e+01 4.188508e+01 2.138873e+01 4.728242e+00 3.058309e-01 7.770932e-01 1.449819e+00 1.607511e+00 8.661490e-01 2.494350e+00 2.159210e+00 1.409984e+00 1.516902e+00 1.157368e+00 1.790037e+00 1.038567e+00 5.918295e-01 2.055973e-01 1.360183e-01 2.293014e-01 2.179104e-01 2.047633e-01 2.011498e-01 4.145108e-01 2.414626e-01 2.678086e-01 1.922228e-01 2.685975e-01 2.514726e-01 9.023400e-02
<GCONST> 9.076442e+01
<TRANSP> 5
 0.000000e+00 1.000000e+00 0.000000e+00 0.000000e+00 0.000000e+00
 0.000000e+00 1.386948e-01 8.613052e-01 0.000000e+00 0.000000e+00
 0.000000e+00 0.000000e+00 5.328969e-01 4.671031e-01 0.000000e+00
 0.000000e+00 0.000000e+00 0.000000e+00 7.927166e-01 2.072833e-01
 0.000000e+00 0.000000e+00 0.000000e+00 0.000000e+00 0.000000e+00
<ENDHMM>
~h "er"
