~o
<STREAMINFO> 1 39
<VECSIZE> 39<NULLD><MFCC_D_A_0><DIAGC>
~h "b"
<BEGINHMM>
<NUMSTATES> 5
<STATE> 2
<MEAN> 39
 -5.406246e-01 6.204471e-01 2.061065e+00 -4.615521e+00 -7.502589e-01 3.919644e-01 -1.001699e+01 -3.387959e+00 -9.581055e+00 -6.913785e-01 2.296426e+00 -5.170278e+00 7.146381e+01 -5.032081e-03 -2.473845e-02 3.542324e-02 2.487854e-02 7.174545e-03 3.516951e-02 -2.087386e-02 -4.640865e-02 -1.070566e-03 2.499558e-02 1.298787e-02 -5.714796e-03 1.162306e-02 -3.921415e-03 1.120869e-03 9.633808e-04 -9.726138e-04 -3.168080e-04 1.155618e-03 1.554919e-03 1.542596e-05 3.576479e-03 -2.857846e-03 -2.364566e-03 1.473733e-03 -3.329214e-04
<VARIANCE> 39
 4.650919e+01 3.231041e+01 8.460345e+01 6.735022e+01 4.024990e+01 6.501482e+01 5.505273e+01 5.881250e+01 6.682979e+01 3.906181e+01 3.428688e+01 3.265395e+01 3.932848e+01 2.691310e+00 2.117647e+00 2.982523e+00 3.207252e+00 1.924577e+00 3.811076e+00 4.550449e+00 4.178172e+00 4.576828e+00 2.252260e+00 2.818189e+00 1.761192e+00 1.879842e+00 4.108939e-01 3.512744e-01 4.489991e-01 4.924291e-01 3.239076e-01 6.449966e-01 8.430601e-01 7.682449e-01 8.033470e-01 4.000165e-01 5.277920e-01 3.197144e-01 3.003916e-01
<GCONST> 1.260928e+02
<STATE> 3
<MEAN> 39
 -5.729394e-01 5.524032e-01 2.191984e+00 -4.547895e+00 -7.158023e-01 5.097836e-01 -1.008206e+01 -3.530542e+00 -9.580377e+00 -6.392176e-01 2.320516e+00 -5.187819e+00 7.150199e+01 -1.604303e-02 -1.780453e-02 3.444430e-02 2.009835e-02 7.992014e-03 3.751495e-02 -1.498228e-02 -4.363488e-02 1.080318e-02 1.564050e-02 4.554753e-03 -1.330452e-03 9.307279e-03 -3.603912e-03 2.426862e-03 -6.444373e-04 -2.978902e-03 7.513477e-04 -3.671520e-04 1.776659e-03 1.190610e-03 3.680193e-03 -3.173751e-03 -2.087270e-03 1.408050e-03 -3.117612e-04
<VARIANCE> 39
 4.643008e+01 3.200984e+01 8.405665e+01 6.799216e+01 4.010198e+01 6.485443e+01 5.544770e+01 5.942562e+01 6.787061e+01 3.927446e+01 3.472594e+01 3.224077e+01 3.888001e+01 2.711225e+00 2.115504e+00 2.989423e+00 3.217942e+00 1.929440e+00 3.853273e+00 4.620252e+00 4.205186e+00 4.609222e+00 2.292824e+00 2.864878e+00 1.759691e+00 1.881666e+00 4.125994e-01 3.522007e-01 4.487678e-01 4.939910e-01 3.240631e-01 6.548162e-01 8.560072e-01 7.723361e-01 8.078603e-01 4.076692e-01 5.370187e-01 3.176000e-01 2.996117e-01
<GCONST> 1.262723e+02
<STATE> 4
<MEAN> 39
 -5.938065e-01 5.257531e-01 2.284805e+00 -4.460790e+00 -6.955896e-01 6.161572e-01 -1.016109e+01 -3.641737e+00 -9.486426e+00 -5.788641e-01 2.314150e+00 -5.228138e+00 7.150380e+01 -2.827743e-02 -6.424583e-03 3.318236e-02 7.846309e-03 1.108410e-02 3.306765e-02 -8.521814e-03 -4.058374e-02 2.162644e-02 2.280672e-03 -5.384459e-03 1.827833e-03 9.238155e-03 -2.679530e-03 2.621664e-03 -1.594615e-03 -3.950965e-03 7.020786e-04 -2.600877e-03 1.649028e-03 1.326671e-03 2.803615e-03 -2.665109e-03 -1.087243e-03 1.043104e-03 2.777094e-04
<VARIANCE> 39
 4.649829e+01 3.143238e+01 8.387575e+01 6.863599e+01 3.980776e+01 6.504565e+01 5.618724e+01 6.057924e+01 6.860732e+01 3.953292e+01 3.560028e+01 3.187996e+01 3.901957e+01 2.698803e+00 2.121092e+00 3.043130e+00 3.211182e+00 1.941361e+00 3.954432e+00 4.689979e+00 4.226407e+00 4.596750e+00 2.347617e+00 2.962406e+00 1.779387e+00 1.904504e+00 4.086732e-01 3.554100e-01 4.567304e-01 4.916134e-01 3.249402e-01 6.760052e-01 8.654425e-01 7.763962e-01 8.044296e-01 4.198676e-01 5.565338e-01 3.182541e-01 3.013507e-01
<GCONST> 1.266006e+02
<TRANSP> 5
 0.000000e+00 1.000000e+00 0.000000e+00 0.000000e+00 0.000000e+00
 0.000000e+00 6.756154e-01 3.243846e-01 0.000000e+00 0.000000e+00
 0.000000e+00 0.000000e+00 6.756154e-01 3.243846e-01 0.000000e+00
 0.000000e+00 0.000000e+00 0.000000e+00 7.899529e-01 2.100471e-01
 0.000000e+00 0.000000e+00 0.000000e+00 0.000000e+00 0.000000e+00
<ENDHMM>
~h "d"
<BEGINHMM>
<NUMSTATES> 5
<STATE> 2
<MEAN> 39
 -1.139121e+00 -3.464603e-01 7.364212e-01 -4.153290e+00 -6.678617e-01 6.230234e-01 -1.026954e+01 -2.574086e+00 -9.111289e+00 -7.055151e-01 2.291137e+00 -4.067720e+00 7.094530e+01 3.079020e-03 -4.744793e-03 4.487228e-02 2.629783e-02 9.443659e-04 7.094429e-05 -1.712405e-02 7.716224e-03 -7.102457e-03 -1.526723e-02 1.534195e-03 -1.738288e-02 1.540306e-02 -1.299580e-03 2.697130e-03 -2.036838e-03 3.357273e-04 6.928686e-04 3.625070e-03 3.963964e-03 -5.434929e-05 7.134674e-04 1.323696e-03 1.384583e-04 3.645254e-04 -1.418375e-03
<VARIANCE> 39
 4.911091e+01 3.320798e+01 1.119884e+02 5.624660e+01 3.666893e+01 6.027289e+01 7.006445e+01 6.567275e+01 6.941893e+01 3.742944e+01 3.610033e+01 3.676242e+01 4.894676e+01 2.491410e+00 2.019197e+00 2.676913e+00 2.494099e+00 1.886719e+00 3.441447e+00 4.053966e+00 3.728916e+00 3.482913e+00 2.259212e+00 2.441845e+00 1.719378e+00 1.662854e+00 3.908325e-01 3.460881e-01 4.144368e-01 3.779608e-01 3.236651e-01 5.880453e-01 7.376827e-01 6.728656e-01 6.103595e-01 3.997477e-01 4.458865e-01 3.060167e-01 2.772132e-01
<GCONST> 1.241089e+02
<STATE> 3
<MEAN> 39
 -1.134405e+00 -3.421079e-01 8.576553e-01 -4.073888e+00 -6.594136e-01 6.321154e-01 -1.030306e+01 -2.553132e+00 -9.129880e+00 -7.487797e-01 2.294425e+00 -4.114446e+00 7.098372e+01 -1.833442e-03 3.261995e-03 4.057785e-02 2.433990e-02 4.572183e-03 6.103958e-03 -8.304521e-03 7.985152e-03 -5.411408e-03 -1.358109e-02 2.373349e-03 -1.398711e-02 1.302809e-02 -1.646934e-03 2.293865e-03 -2.241578e-03 -1.252898e-03 1.017301e-03 1.341206e-03 2.658847e-03 4.453602e-04 5.822555e-04 -7.866322e-06 -3.890950e-04 1.252950e-03 -8.566717e-04
<VARIANCE> 39
 4.983212e+01 3.376764e+01 1.109316e+02 5.640137e+01 3.663525e+01 6.110317e+01 7.004768e+01 6.602819e+01 6.949130e+01 3.785003e+01 3.618404e+01 3.715561e+01 4.866265e+01 2.509584e+00 2.026713e+00 2.674634e+00 2.474372e+00 1.863857e+00 3.458405e+00 4.046350e+00 3.730962e+00 3.489924e+00 2.287863e+00 2.422742e+00 1.711378e+00 1.663551e+00 3.923392e-01 3.475086e-01 4.162726e-01 3.738090e-01 3.196018e-01 5.895181e-01 7.361493e-01 6.715056e-01 6.111401e-01 4.049284e-01 4.417111e-01 3.049634e-01 2.782306e-01
<GCONST> 1.241589e+02
<STATE> 4
<MEAN> 39
 -1.121810e+00 -2.772067e-01 9.160299e-01 -3.994414e+00 -6.692933e-01 6.646314e-01 -1.026956e+01 -2.450630e+00 -9.110112e+00 -8.178422e-01 2.311172e+00 -4.141282e+00 7.098201e+01 -6.798324e-03 1.189714e-02 3.650047e-02 1.367781e-02 9.914720e-03 6.311359e-03 -4.900499e-03 9.493565e-03 -2.786713e-03 -1.685492e-02 5.723974e-05 -9.849577e-03 1.211395e-02 -1.419934e-03 1.312712e-03 -1.132719e-03 -3.014096e-03 1.063139e-03 -6.330912e-05 1.213335e-03 7.924493e-04 5.588584e-04 -1.006807e-03 -6.995637e-04 8.947603e-04 -6.676181e-05
<VARIANCE> 39
 5.093541e+01 3.473420e+01 1.098993e+02 5.661520e+01 3.633508e+01 6.198607e+01 6.956824e+01 6.704150e+01 6.982958e+01 3.812512e+01 3.637627e+01 3.800182e+01 4.842425e+01 2.536211e+00 2.034606e+00 2.657844e+00 2.438564e+00 1.830386e+00 3.429434e+00 4.007075e+00 3.723542e+00 3.494525e+00 2.297642e+00 2.389237e+00 1.695871e+00 1.655126e+00 3.933691e-01 3.477131e-01 4.180498e-01 3.670318e-01 3.134640e-01 5.820701e-01 7.306625e-01 6.675045e-01 6.119804e-01 4.058164e-01 4.351398e-01 3.017986e-01 2.778857e-01
<GCONST> 1.241062e+02
<TRANSP> 5
 0.000000e+00 1.000000e+00 0.000000e+00 0.000000e+00 0.000000e+00
 0.000000e+00 6.662393e-01 3.337607e-01 0.000000e+00 0.000000e+00
 0.000000e+00 0.000000e+00 6.662388e-01 3.337612e-01 0.000000e+00
 0.000000e+00 0.000000e+00 0.000000e+00 7.793376e-01 2.206624e-01
 0.000000e+00 0.000000e+00 0.000000e+00 0.000000e+00 0.000000e+00
<ENDHMM>
~h "f"
<BEGINHMM>
<NUMSTATES> 5
<STATE> 2
<MEAN> 39
 -2.885649e+00 -6.649096e-03 1.297452e-01 -4.511556e+00 -1.649684e+00 8.660142e-01 -8.080802e+00 -2.891147e+00 -7.485822e+00 -1.676369e+00 2.243786e+00 -3.623070e+00 7.092267e+01 -3.434158e-02 9.359264e-03 3.420278e-02 -1.748988e-02 -1.126866e-02 2.896997e-02 1.309225e-02 2.856584e-02 4.799984e-02 -3.373121e-02 -3.475304e-02 1.464577e-02 4.794154e-04 5.623191e-03 8.255052e-04 -1.570129e-03 1.355655e-03 1.116635e-03 -1.364396e-03 -9.114458e-04 4.182886e-03 -1.873165e-03 2.197282e-03 1.181479e-03 -1.871198e-04 -1.569297e-03
<VARIANCE> 39
 8.006810e+01 3.499415e+01 1.059847e+02 5.939193e+01 4.560937e+01 5.298689e+01 5.852656e+01 6.401218e+01 7.426443e+01 3.329048e+01 3.540609e+01 3.238702e+01 4.451473e+01 3.737131e+00 1.925682e+00 2.426914e+00 2.429217e+00 2.058088e+00 3.253235e+00 3.458349e+00 3.080576e+00 4.186916e+00 2.179752e+00 2.340004e+00 1.613820e+00 1.373756e+00 4.899314e-01 3.225195e-01 3.687829e-01 3.510892e-01 3.443981e-01 5.694220e-01 5.856413e-01 5.416367e-01 6.852377e-01 4.124960e-01 4.247867e-01 2.983036e-01 2.204501e-01
<GCONST> 1.233994e+02
<STATE> 3
<MEAN> 39
 -2.969501e+00 2.169741e-02 2.316824e-01 -4.549881e+00 -1.675822e+00 9.372785e-01 -8.054326e+00 -2.794570e+00 -7.355804e+00 -1.771876e+00 2.140095e+00 -3.581839e+00 7.092282e+01 -1.507836e-02 1.209227e-02 2.654514e-02 -1.054919e-02 -8.384462e-03 2.354592e-02 1.023182e-02 3.651033e-02 4.049537e-02 -2.823140e-02 -3.166879e-02 1.308153e-02 -4.483079e-03 6.034506e-03 1.115993e-03 -3.144784e-03 2.783127e-03 6.524234e-04 -2.470813e-03 -1.212636e-03 1.926069e-03 -1.648054e-03 2.604871e-03 1.610067e-03 -3.556962e-04 -1.525428e-03
<VARIANCE> 39
 8.045914e+01 3.513092e+01 1.056145e+02 5.975700e+01 4.581462e+01 5.304738e+01 5.884937e+01 6.448629e+01 7.312412e+01 3.312247e+01 3.521120e+01 3.234301e+01 4.452757e+01 3.741354e+00 1.907287e+00 2.419520e+00 2.422094e+00 2.068395e+00 3.186409e+00 3.431844e+00 3.070186e+00 4.164399e+00 2.143900e+00 2.305768e+00 1.622659e+00 1.371787e+00 4.914684e-01 3.202625e-01 3.653374e-01 3.506304e-01 3.452298e-01 5.539816e-01 5.822154e-01 5.399885e-01 6.825662e-01 4.050140e-01 4.176475e-01 2.986934e-01 2.186767e-01
<GCONST> 1.232337e+02
<STATE> 4
<MEAN> 39
 -3.005291e+00 5.973892e-02 4.353255e-01 -4.539062e+00 -1.718208e+00 9.336006e-01 -8.090375e+00 -2.697257e+00 -7.252373e+00 -1.900939e+00 2.079493e+00 -3.593468e+00 7.097150e+01 6.078004e-03 1.346108e-02 1.195148e-02 2.327537e-03 -8.719606e-03 1.203846e-02 3.036275e-03 3.745889e-02 3.146327e-02 -1.938574e-02 -2.193842e-02 9.055270e-03 -8.808564e-03 4.283470e-03 8.396707e-04 -3.978679e-03 2.535061e-03 3.777154e-04 -3.499083e-03 -1.731505e-03 6.520753e-04 -1.237705e-03 3.187996e-03 2.991027e-03 -9.843960e-04 -8.983423e-04
<VARIANCE> 39
 8.037868e+01 3.550046e+01 1.050905e+02 6.022443e+01 4.576310e+01 5.358648e+01 5.941515e+01 6.511563e+01 7.177325e+01 3.293748e+01 3.539079e+01 3.276115e+01 4.447994e+01 3.744512e+00 1.889842e+00 2.391175e+00 2.421819e+00 2.066832e+00 3.140648e+00 3.450780e+00 3.051810e+00 4.176684e+00 2.104039e+00 2.273386e+00 1.655740e+00 1.367536e+00 4.953097e-01 3.183768e-01 3.590744e-01 3.526237e-01 3.442632e-01 5.418571e-01 5.854660e-01 5.364112e-01 6.855176e-01 3.954614e-01 4.095231e-01 3.033555e-01 2.177834e-01
<GCONST> 1.231544e+02
<TRANSP> 5
 0.000000e+00 1.000000e+00 0.000000e+00 0.000000e+00 0.000000e+00
 0.000000e+00 6.771687e-01 3.228314e-01 0.000000e+00 0.000000e+00
 0.000000e+00 0.000000e+00 6.771682e-01 3.228318e-01 0.000000e+00
 0.000000e+00 0.000000e+00 0.000000e+00 7.905571e-01 2.094429e-01
 0.000000e+00 0.000000e+00 0.000000e+00 0.000000e+00 0.000000e+00
<ENDHMM>
~h "g"
<BEGINHMM>
<NUMSTATES> 5
<STATE> 2
<MEAN> 39
 -3.319236e+00 1.471849e-01 -5.339510e-01 -4.787241e+00 7.393066e-01 2.770115e+00 -7.573005e+00 -2.188278e+00 -7.094029e+00 -5.201035e-01 1.531541e+00 -2.675089e+00 6.989357e+01 7.766688e-03 -2.178934e-02 -7.213479e-02 -3.108723e-04 1.369405e-02 3.907694e-02 -1.955674e-03 6.354315e-02 4.171425e-02 1.462397e-02 -1.744565e-03 1.054555e-02 -3.495824e-02 1.181420e-02 1.751692e-03 -1.100526e-02 7.334892e-03 -5.981438e-03 1.731790e-03 1.103947e-03 -1.153288e-03 -5.150599e-03 5.579096e-03 -2.501846e-03 -1.619544e-03 -4.905664e-03
<VARIANCE> 39
 7.127197e+01 2.797628e+01 1.089423e+02 7.459254e+01 3.114736e+01 4.876363e+01 6.408071e+01 6.521560e+01 9.086417e+01 3.309772e+01 3.783777e+01 3.215392e+01 4.431818e+01 2.592090e+00 1.709814e+00 2.777137e+00 2.238005e+00 1.618545e+00 2.942924e+00 3.194075e+00 2.722544e+00 3.489062e+00 2.197348e+00 2.294797e+00 1.608518e+00 1.430687e+00 3.657395e-01 3.006048e-01 4.196889e-01 3.643718e-01 2.976207e-01 5.431225e-01 5.400080e-01 4.904587e-01 5.565550e-01 4.035108e-01 4.258501e-01 2.991561e-01 2.288014e-01
<GCONST> 1.213208e+02
<STATE> 3
<MEAN> 39
 -3.280941e+00 9.084374e-02 -8.196053e-01 -4.769879e+00 7.718278e-01 2.908777e+00 -7.568301e+00 -1.988393e+00 -6.966626e+00 -4.452184e-01 1.525886e+00 -2.635767e+00 6.975020e+01 4.429833e-02 -1.679588e-02 -1.047881e-01 2.173109e-02 -5.582377e-03 4.122067e-02 1.112738e-03 5.846140e-02 2.507620e-02 3.122996e-02 -8.069703e-03 5.183174e-03 -4.999741e-02 9.554689e-03 2.031479e-03 -9.055849e-03 5.825514e-03 -5.465684e-03 -3.006886e-05 1.827587e-03 -3.406477e-03 -5.322303e-03 4.039266e-03 -2.158224e-03 -2.266117e-03 -3.352673e-03
<VARIANCE> 39
 6.910001e+01 2.788005e+01 1.102643e+02 7.358531e+01 3.054661e+01 4.842474e+01 6.364466e+01 6.493475e+01 8.825087e+01 3.288268e+01 3.895615e+01 3.178401e+01 4.551108e+01 2.554795e+00 1.734736e+00 2.742430e+00 2.201443e+00 1.575568e+00 2.920656e+00 3.215741e+00 2.694633e+00 3.438444e+00 2.127203e+00 2.291138e+00 1.591474e+00 1.428431e+00 3.604877e-01 3.044534e-01 4.149080e-01 3.547532e-01 2.901013e-01 5.446326e-01 5.414678e-01 4.887723e-01 5.532106e-01 3.922186e-01 4.221730e-01 2.955509e-01 2.283984e-01
<GCONST> 1.210072e+02
<STATE> 4
<MEAN> 39
 -3.242285e+00 8.054040e-02 -1.228937e+00 -4.848976e+00 6.791920e-01 3.156494e+00 -7.502070e+00 -1.740077e+00 -6.771032e+00 -4.155273e-01 1.382181e+00 -2.524755e+00 6.955555e+01 7.650985e-02 -9.374982e-03 -1.394112e-01 4.478934e-02 -2.317240e-02 3.637128e-02 7.032345e-03 4.776677e-02 8.645491e-03 4.381482e-02 -1.190969e-02 -1.274377e-03 -6.665868e-02 6.933342e-03 2.172315e-03 -5.307701e-03 4.291446e-03 -4.000907e-03 -2.252092e-03 2.221092e-03 -4.743902e-03 -5.083845e-03 1.457852e-03 -1.702850e-03 -2.839595e-03 -1.249166e-03
<VARIANCE> 39
 6.773984e+01 2.731621e+01 1.121564e+02 7.314562e+01 3.058231e+01 4.817353e+01 6.297198e+01 6.446462e+01 8.520905e+01 3.260976e+01 4.029593e+01 3.138708e+01 4.724823e+01 2.520777e+00 1.741450e+00 2.705725e+00 2.189803e+00 1.548779e+00 2.857189e+00 3.243532e+00 2.640586e+00 3.386831e+00 1.998998e+00 2.292537e+00 1.561351e+00 1.399874e+00 3.510874e-01 3.045783e-01 4.118201e-01 3.467153e-01 2.858298e-01 5.372230e-01 5.439299e-01 4.841838e-01 5.480582e-01 3.704176e-01 4.177039e-01 2.898111e-01 2.231727e-01
<GCONST> 1.205664e+02
<TRANSP> 5
 0.000000e+00 1.000000e+00 0.000000e+00 0.000000e+00 0.000000e+00
 0.000000e+00 6.753997e-01 3.246004e-01 0.000000e+00 0.000000e+00
 0.000000e+00 0.000000e+00 6.754000e-01 3.246001e-01 0.000000e+00
 0.000000e+00 0.000000e+00 0.000000e+00 7.912361e-01 2.087639e-01
 0.000000e+00 0.000000e+00 0.000000e+00 0.000000e+00 0.000000e+00
<ENDHMM>
~h "k"
<BEGINHMM>
<NUMSTATES> 5
<STATE> 2
<MEAN> 39
 -2.273920e+00 -2.381174e-02 1.367511e+00 -4.880415e+00 -1.294571e+00 5.448138e-01 -8.519365e+00 -3.279320e+00 -8.378391e+00 -1.391969e+00 2.341835e+00 -4.273118e+00 7.136897e+01 1.595098e-03 3.439741e-03 1.472445e-02 -1.310984e-02 8.460578e-03 5.941049e-03 2.752424e-02 3.464843e-02 1.641117e-02 6.707387e-03 -5.448782e-03 1.248447e-03 2.989889e-03 1.751846e-03 7.728442e-04 2.277226e-03 -1.200099e-03 5.030888e-04 4.618682e-04 -4.090598e-03 -9.780759e-04 -2.038400e-03 1.328387e-04 1.249007e-03 1.062741e-03 6.212582e-04
<VARIANCE> 39
 7.207977e+01 3.953956e+01 8.861479e+01 6.021106e+01 4.582219e+01 5.622104e+01 5.670996e+01 6.415057e+01 7.890974e+01 3.278824e+01 3.675094e+01 3.333972e+01 3.969829e+01 3.476191e+00 2.282180e+00 2.826139e+00 2.761454e+00 2.041417e+00 3.496463e+00 3.996201e+00 3.998037e+00 4.131562e+00 2.101860e+00 2.658342e+00 1.963230e+00 1.753562e+00 4.924109e-01 3.921801e-01 4.554198e-01 4.177999e-01 3.325489e-01 6.151935e-01 6.918412e-01 7.474892e-01 6.749409e-01 3.832445e-01 5.085622e-01 3.600018e-01 3.171281e-01
<GCONST> 1.264075e+02
<STATE> 3
<MEAN> 39
 -2.272425e+00 -1.293396e-02 1.451415e+00 -4.927631e+00 -1.265244e+00 5.695521e-01 -8.453926e+00 -3.176503e+00 -8.329254e+00 -1.373008e+00 2.330456e+00 -4.263923e+00 7.138951e+01 6.157591e-03 5.504423e-03 2.092364e-02 -1.556573e-02 1.075615e-02 7.474022e-03 1.442292e-02 3.149585e-02 9.108403e-03 6.844330e-03 -1.310970e-03 5.007057e-03 4.329246e-03 2.013125e-03 9.339324e-04 1.312586e-03 -1.527174e-04 6.131323e-04 8.473234e-04 -4.181920e-03 -5.031200e-04 -2.561795e-03 5.298225e-05 9.900657e-04 1.334934e-03 -1.444148e-04
<VARIANCE> 39
 7.198242e+01 3.959114e+01 8.818414e+01 5.993758e+01 4.509644e+01 5.577765e+01 5.592589e+01 6.476566e+01 7.859602e+01 3.296095e+01 3.609049e+01 3.311717e+01 3.941346e+01 3.461253e+00 2.272805e+00 2.861331e+00 2.732065e+00 2.029456e+00 3.503392e+00 3.937806e+00 4.033672e+00 4.140553e+00 2.101161e+00 2.607992e+00 1.956061e+00 1.757097e+00 4.914288e-01 3.901601e-01 4.599096e-01 4.128724e-01 3.301626e-01 6.148934e-01 6.856825e-01 7.526518e-01 6.763087e-01 3.834598e-01 4.982568e-01 3.595511e-01 3.168852e-01
<GCONST> 1.262647e+02
<STATE> 4
<MEAN> 39
 -2.223725e+00 5.816394e-02 1.629130e+00 -5.013943e+00 -1.331405e+00 6.071679e-01 -8.457446e+00 -3.046604e+00 -8.284196e+00 -1.386905e+00 2.349771e+00 -4.241047e+00 7.141317e+01 7.466992e-03 7.014974e-03 3.003198e-02 -1.478988e-02 1.606156e-02 1.027120e-02 -2.432912e-03 2.766160e-02 -9.509561e-04 5.624624e-03 3.172415e-03 9.332340e-03 5.649412e-03 1.310722e-03 8.897437e-04 3.789047e-05 6.355162e-04 8.961251e-04 6.366647e-04 -3.488592e-03 -1.394580e-04 -2.553106e-03 -1.794899e-04 6.413782e-04 1.194696e-03 -6.998732e-04
<VARIANCE> 39
 7.122582e+01 3.916552e+01 8.765360e+01 5.907779e+01 4.434793e+01 5.524436e+01 5.508281e+01 6.562567e+01 7.687151e+01 3.332378e+01 3.526153e+01 3.301780e+01 3.932155e+01 3.433012e+00 2.261657e+00 2.896455e+00 2.682040e+00 2.010971e+00 3.516640e+00 3.874032e+00 4.050355e+00 4.141805e+00 2.113122e+00 2.539145e+00 1.933574e+00 1.757887e+00 4.874212e-01 3.882641e-01 4.634396e-01 4.066266e-01 3.267118e-01 6.156431e-01 6.797773e-01 7.543474e-01 6.762809e-01 3.882594e-01 4.842616e-01 3.560059e-01 3.158453e-01
<GCONST> 1.260202e+02
<TRANSP> 5
 0.000000e+00 1.000000e+00 0.000000e+00 0.000000e+00 0.000000e+00
 0.000000e+00 6.842874e-01 3.157127e-01 0.000000e+00 0.000000e+00
 0.000000e+00 0.000000e+00 6.842872e-01 3.157128e-01 0.000000e+00
 0.000000e+00 0.000000e+00 0.000000e+00 8.003482e-01 1.996519e-01
 0.000000e+00 0.000000e+00 0.000000e+00 0.000000e+00 0.000000e+00
<ENDHMM>
~h "l"
<BEGINHMM>
<NUMSTATES> 5
<STATE> 2
<MEAN> 39
 -8.767005e-01 7.630606e-01 1.396511e+00 -5.301556e+00 -2.130675e+00 7.551479e-01 -9.067646e+00 -1.896944e+00 -8.443665e+00 -1.793189e+00 2.146818e+00 -4.306952e+00 7.100198e+01 -2.308335e-02 -1.472615e-02 -1.569190e-02 2.989818e-02 -7.106403e-04 3.881177e-02 3.755573e-02 1.791265e-02 2.390817e-02 1.508707e-02 -1.369786e-02 1.786570e-02 -2.171250e-02 -8.546348e-04 -2.684518e-04 -1.139795e-03 -6.493482e-04 -4.562877e-03 -5.322688e-04 2.554691e-03 1.079913e-03 1.151625e-03 -3.881170e-04 -7.409548e-04 1.544615e-03 -4.628530e-04
<VARIANCE> 39
 5.767991e+01 3.244116e+01 9.363791e+01 6.192990e+01 5.341221e+01 6.449046e+01 5.986240e+01 6.476539e+01 6.554893e+01 3.657513e+01 3.435107e+01 3.558608e+01 4.180222e+01 2.641369e+00 1.880140e+00 2.506154e+00 2.396574e+00 2.255988e+00 3.348506e+00 3.787066e+00 3.491169e+00 3.316617e+00 2.090949e+00 2.183306e+00 1.746683e+00 1.429677e+00 3.707035e-01 3.189959e-01 3.936557e-01 3.515694e-01 3.669108e-01 5.556343e-01 6.592615e-01 6.382799e-01 5.482855e-01 3.813743e-01 3.960992e-01 3.147501e-01 2.329456e-01
<GCONST> 1.228676e+02
<STATE> 3
<MEAN> 39
 -9.387906e-01 7.148267e-01 1.333117e+00 -5.208239e+00 -2.148210e+00 8.783625e-01 -8.943227e+00 -1.818841e+00 -8.354198e+00 -1.741739e+00 2.096557e+00 -4.239001e+00 7.092661e+01 -2.535599e-02 -1.519862e-02 -1.917321e-02 2.842940e-02 -1.360056e-02 3.679981e-02 4.433268e-02 2.091478e-02 2.782980e-02 1.402430e-02 -1.634937e-02 2.275661e-02 -2.306226e-02 -1.024166e-03 3.530231e-05 -1.177077e-03 -9.628443e-04 -3.825439e-03 -3.368834e-04 2.630437e-03 1.215379e-03 1.717431e-03 -3.845791e-04 -6.591373e-04 2.061066e-03 -2.382232e-04
<VARIANCE> 39
 5.834341e+01 3.212171e+01 9.567316e+01 6.181741e+01 5.299945e+01 6.354588e+01 5.910496e+01 6.443752e+01 6.528406e+01 3.592666e+01 3.472097e+01 3.518270e+01 4.221801e+01 2.681972e+00 1.864186e+00 2.514371e+00 2.385624e+00 2.255609e+00 3.311644e+00 3.746768e+00 3.480710e+00 3.288425e+00 2.055823e+00 2.183852e+00 1.741661e+00 1.419179e+00 3.754048e-01 3.168760e-01 3.951238e-01 3.506161e-01 3.683491e-01 5.507323e-01 6.513462e-01 6.340204e-01 5.441288e-01 3.764493e-01 3.968851e-01 3.145198e-01 2.310351e-01
<GCONST> 1.227364e+02
<STATE> 4
<MEAN> 39
 -9.775636e-01 7.194254e-01 1.185228e+00 -5.148799e+00 -2.278635e+00 1.098859e+00 -8.692301e+00 -1.665974e+00 -8.193378e+00 -1.687715e+00 2.008113e+00 -4.044995e+00 7.079282e+01 -2.539532e-02 -1.400647e-02 -2.531553e-02 2.687278e-02 -2.377674e-02 3.541953e-02 4.927863e-02 2.823574e-02 3.692543e-02 1.368194e-02 -2.037376e-02 3.109570e-02 -2.582037e-02 -9.352476e-04 6.398680e-04 -1.100879e-03 -9.194707e-04 -2.151505e-03 -1.706662e-04 1.574211e-03 9.026540e-04 2.131505e-03 -4.731484e-04 -6.988461e-04 2.220888e-03 -3.905723e-04
<VARIANCE> 39
 5.915852e+01 3.146047e+01 9.819795e+01 6.201778e+01 5.237550e+01 6.185773e+01 5.741031e+01 6.426734e+01 6.479951e+01 3.492452e+01 3.525254e+01 3.478918e+01 4.286651e+01 2.703043e+00 1.837313e+00 2.530612e+00 2.365744e+00 2.233207e+00 3.218738e+00 3.644803e+00 3.467527e+00 3.244473e+00 2.012454e+00 2.192252e+00 1.730055e+00 1.401188e+00 3.766628e-01 3.118936e-01 3.984465e-01 3.491406e-01 3.657585e-01 5.373461e-01 6.339882e-01 6.268054e-01 5.365118e-01 3.714061e-01 3.988653e-01 3.137365e-01 2.275626e-01
<GCONST> 1.224242e+02
<TRANSP> 5
 0.000000e+00 1.000000e+00 0.000000e+00 0.000000e+00 0.000000e+00
 0.000000e+00 6.789821e-01 3.210180e-01 0.000000e+00 0.000000e+00
 0.000000e+00 0.000000e+00 6.789809e-01 3.210191e-01 0.000000e+00
 0.000000e+00 0.000000e+00 0.000000e+00 7.939657e-01 2.060343e-01
 0.000000e+00 0.000000e+00 0.000000e+00 0.000000e+00 0.000000e+00
<ENDHMM>
~h "m"
<BEGINHMM>
<NUMSTATES> 5
<STATE> 2
<MEAN> 39
 -1.078199e+00 1.227638e+00 -1.911346e+00 -3.372520e+00 -4.812487e-01 2.213197e+00 -8.753602e+00 -8.448951e-01 -7.687562e+00 -8.215239e-01 2.057095e+00 -3.358075e+00 6.852665e+01 8.369802e-03 -2.957085e-02 2.343088e-03 2.813854e-02 1.634851e-03 -3.253311e-02 -4.027830e-02 -1.608352e-02 -2.275844e-02 1.521180e-02 1.126344e-02 -9.112340e-03 3.385978e-03 -3.192937e-03 -2.127462e-03 4.893334e-03 -1.163011e-04 -1.360700e-03 -4.686509e-04 4.283023e-04 1.530399e-03 2.629728e-03 -3.380230e-03 -3.689424e-03 -3.420640e-03 2.666103e-03
<VARIANCE> 39
 4.893709e+01 3.240578e+01 1.227276e+02 4.950393e+01 2.843566e+01 5.974133e+01 5.553016e+01 5.365023e+01 6.047495e+01 3.404793e+01 3.549082e+01 3.121874e+01 5.369376e+01 2.402620e+00 1.882352e+00 2.344074e+00 2.301110e+00 1.611485e+00 3.636696e+00 3.232091e+00 3.011081e+00 3.426188e+00 2.213959e+00 2.280109e+00 1.745965e+00 1.564141e+00 3.408448e-01 3.241910e-01 3.908859e-01 3.614516e-01 2.857356e-01 6.341906e-01 5.708315e-01 5.587276e-01 5.706361e-01 4.081639e-01 4.159110e-01 3.173931e-01 2.666303e-01
<GCONST> 1.210975e+02
<STATE> 3
<MEAN> 39
 -1.061211e+00 1.132627e+00 -1.914044e+00 -3.283325e+00 -4.834812e-01 2.121032e+00 -8.860197e+00 -8.885946e-01 -7.737623e+00 -7.782777e-01 2.068024e+00 -3.399318e+00 6.853395e+01 -9.323684e-04 -3.465080e-02 1.705877e-02 2.949349e-02 -4.032840e-04 -3.319986e-02 -3.521241e-02 -9.602189e-03 -1.060802e-02 8.617743e-03 2.619037e-03 -1.905147e-02 1.182302e-02 -2.867405e-03 -1.576946e-03 4.400813e-03 2.242182e-05 3.541483e-04 -2.717083e-04 1.618925e-03 2.139372e-03 3.943502e-03 -1.674976e-03 -1.411319e-03 -3.311566e-03 2.989784e-03
<VARIANCE> 39
 4.786634e+01 3.262391e+01 1.237768e+02 4.868585e+01 2.860188e+01 6.073668e+01 5.555813e+01 5.280179e+01 6.003360e+01 3.440840e+01 3.560923e+01 3.211341e+01 5.423922e+01 2.381955e+00 1.883852e+00 2.383095e+00 2.295764e+00 1.599323e+00 3.683657e+00 3.203881e+00 2.950751e+00 3.425537e+00 2.233909e+00 2.282889e+00 1.753546e+00 1.571140e+00 3.405239e-01 3.245771e-01 3.998584e-01 3.608026e-01 2.840108e-01 6.390957e-01 5.651347e-01 5.465376e-01 5.707545e-01 4.090593e-01 4.127279e-01 3.186802e-01 2.676442e-01
<GCONST> 1.211203e+02
<STATE> 4
<MEAN> 39
 -1.057408e+00 1.042754e+00 -1.919939e+00 -3.099761e+00 -4.769946e-01 2.110627e+00 -8.897604e+00 -8.324993e-01 -7.731579e+00 -7.410772e-01 2.071267e+00 -3.405344e+00 6.847918e+01 -7.611666e-03 -3.149629e-02 2.112497e-02 3.165626e-02 2.298887e-03 -2.666978e-02 -1.653430e-02 1.214152e-03 7.615199e-03 7.503456e-03 -3.578269e-03 -2.578740e-02 1.451998e-02 -1.747233e-03 4.113841e-04 2.506909e-03 -5.551202e-04 2.035671e-03 1.348450e-03 3.716229e-03 2.359923e-03 3.924089e-03 -5.577485e-04 5.588388e-04 -1.894606e-03 2.099272e-03
<VARIANCE> 39
 4.686205e+01 3.310371e+01 1.255820e+02 4.771717e+01 2.883394e+01 6.118261e+01 5.537192e+01 5.176808e+01 5.929344e+01 3.457143e+01 3.594427e+01 3.287030e+01 5.481029e+01 2.333436e+00 1.859327e+00 2.390649e+00 2.272277e+00 1.575651e+00 3.687196e+00 3.142668e+00 2.858315e+00 3.391890e+00 2.216799e+00 2.276919e+00 1.744597e+00 1.544893e+00 3.348531e-01 3.200219e-01 4.000264e-01 3.574648e-01 2.788208e-01 6.365153e-01 5.532016e-01 5.269153e-01 5.642385e-01 4.034276e-01 4.071722e-01 3.171938e-01 2.619990e-01
<GCONST> 1.208027e+02
<TRANSP> 5
 0.000000e+00 1.000000e+00 0.000000e+00 0.000000e+00 0.000000e+00
 0.000000e+00 6.766886e-01 3.233114e-01 0.000000e+00 0.000000e+00
 0.000000e+00 0.000000e+00 6.766891e-01 3.233109e-01 0.000000e+00
 0.000000e+00 0.000000e+00 0.000000e+00 7.902959e-01 2.097041e-01
 0.000000e+00 0.000000e+00 0.000000e+00 0.000000e+00 0.000000e+00
<ENDHMM>
~h "n"
<BEGINHMM>
<NUMSTATES> 5
<STATE> 2
<MEAN> 39
 -9.047546e-01 7.610555e-01 8.245922e-01 -4.633533e+00 -1.096221e-01 1.142853e+00 -9.535550e+00 -1.318828e+00 -8.345650e+00 -7.893070e-01 2.760702e+00 -3.937879e+00 7.077733e+01 1.362577e-02 1.891956e-02 1.412623e-02 -1.576767e-02 9.816976e-04 -4.130536e-03 -9.110212e-03 5.127292e-04 -7.721656e-03 -1.743513e-02 -6.058725e-03 1.070112e-02 4.567184e-03 -4.507770e-04 4.414539e-04 -1.296976e-03 3.478120e-04 5.645533e-04 7.946293e-04 1.108875e-03 -1.931903e-04 -9.428758e-04 -1.245752e-04 -2.420607e-05 1.115712e-03 -8.415802e-04
<VARIANCE> 39
 5.498017e+01 3.222139e+01 1.062020e+02 5.870233e+01 3.928680e+01 6.566694e+01 6.206489e+01 6.128571e+01 6.525046e+01 3.944978e+01 3.910018e+01 3.331507e+01 4.703726e+01 2.612737e+00 1.926714e+00 2.431904e+00 2.408423e+00 1.839305e+00 3.563697e+00 3.735164e+00 3.480720e+00 3.695413e+00 2.391190e+00 2.537199e+00 1.611660e+00 1.557180e+00 3.788323e-01 3.134049e-01 3.734594e-01 3.669519e-01 3.178307e-01 6.180705e-01 6.691706e-01 6.228862e-01 6.427731e-01 4.250705e-01 4.582911e-01 2.981813e-01 2.481249e-01
<GCONST> 1.234269e+02
<STATE> 3
<MEAN> 39
 -8.743706e-01 8.161283e-01 8.697706e-01 -4.677990e+00 -1.022176e-01 1.133751e+00 -9.557196e+00 -1.320187e+00 -8.368277e+00 -8.383203e-01 2.741664e+00 -3.903795e+00 7.079072e+01 1.281377e-02 2.056142e-02 8.761720e-03 -1.575301e-02 2.750995e-03 -2.035817e-03 -6.153801e-03 -7.638049e-04 -1.273228e-02 -1.675393e-02 -5.312119e-03 1.363800e-02 1.703476e-03 -6.040905e-04 1.107010e-04 -1.968607e-03 4.421948e-04 7.029025e-04 2.335989e-04 7.481741e-04 -6.391849e-04 -1.812265e-03 1.353987e-04 -1.230104e-04 4.629421e-04 -9.404579e-04
<VARIANCE> 39
 5.474368e+01 3.189807e+01 1.056098e+02 5.918279e+01 3.959548e+01 6.607265e+01 6.181213e+01 6.132093e+01 6.525378e+01 3.944891e+01 3.924334e+01 3.342618e+01 4.680856e+01 2.617658e+00 1.925132e+00 2.441068e+00 2.410835e+00 1.849014e+00 3.552860e+00 3.752668e+00 3.468709e+00 3.681654e+00 2.387731e+00 2.534364e+00 1.619958e+00 1.558771e+00 3.811782e-01 3.142893e-01 3.753060e-01 3.666697e-01 3.199002e-01 6.156976e-01 6.719280e-01 6.195390e-01 6.411884e-01 4.245709e-01 4.580506e-01 3.003020e-01 2.490150e-01
<GCONST> 1.234578e+02
<STATE> 4
<MEAN> 39
 -8.063689e-01 9.278031e-01 8.862326e-01 -4.732406e+00 -1.302298e-01 1.130642e+00 -9.573428e+00 -1.266621e+00 -8.405133e+00 -9.416032e-01 2.720585e+00 -3.847966e+00 7.077256e+01 1.082502e-02 2.208053e-02 1.323792e-03 -1.520616e-02 4.004028e-03 -1.555410e-03 -3.389926e-03 -4.192727e-03 -2.097597e-02 -1.409635e-02 -5.678681e-03 1.308740e-02 -2.222763e-03 -5.003307e-04 -1.080630e-04 -2.117388e-03 7.130544e-04 5.573378e-04 -2.924851e-04 2.260888e-04 -1.150190e-03 -2.374518e-03 3.673686e-04 -5.604821e-04 -6.219739e-04 -9.506030e-04
<VARIANCE> 39
 5.414627e+01 3.193354e+01 1.043155e+02 5.972174e+01 4.006602e+01 6.677342e+01 6.099342e+01 6.110975e+01 6.559208e+01 3.938183e+01 3.925845e+01 3.395366e+01 4.667654e+01 2.610330e+00 1.921871e+00 2.445298e+00 2.410184e+00 1.846597e+00 3.526565e+00 3.743254e+00 3.438000e+00 3.665940e+00 2.375863e+00 2.522841e+00 1.624348e+00 1.557597e+00 3.821552e-01 3.140639e-01 3.790721e-01 3.659735e-01 3.187661e-01 6.075485e-01 6.703563e-01 6.121903e-01 6.398507e-01 4.227545e-01 4.551613e-01 3.017404e-01 2.496622e-01
<GCONST> 1.234053e+02
<TRANSP> 5
 0.000000e+00 1.000000e+00 0.000000e+00 0.000000e+00 0.000000e+00
 0.000000e+00 6.704694e-01 3.295306e-01 0.000000e+00 0.000000e+00
 0.000000e+00 0.000000e+00 6.704705e-01 3.295294e-01 0.000000e+00
 0.000000e+00 0.000000e+00 0.000000e+00 7.838256e-01 2.161744e-01
 0.000000e+00 0.000000e+00 0.000000e+00 0.000000e+00 0.000000e+00
<ENDHMM>
~h "p"
<BEGINHMM>
<NUMSTATES> 5
<STATE> 2
<MEAN> 39
 -1.031914e+00 4.014065e-02 5.245336e-01 -4.143526e+00 -1.246024e+00 1.516475e-01 -9.979224e+00 -2.397594e+00 -8.330547e+00 -5.386286e-01 1.739509e+00 -4.037430e+00 7.053477e+01 -4.249379e-02 1.725720e-02 2.963218e-02 -2.916667e-02 3.421099e-02 4.729207e-02 4.776452e-03 -8.720054e-04 4.970771e-02 -3.288930e-02 -1.793899e-02 2.772582e-03 1.249171e-02 -4.699944e-03 -1.530393e-03 1.727107e-03 -2.060268e-03 1.877780e-04 7.886572e-04 1.379180e-03 -1.311912e-03 6.456436e-04 2.118072e-04 4.318719e-04 -1.011007e-03 9.624320e-04
<VARIANCE> 39
 4.849654e+01 3.149290e+01 1.017143e+02 5.569700e+01 3.786674e+01 6.167746e+01 6.046224e+01 5.669184e+01 6.528386e+01 3.469099e+01 3.059610e+01 3.818207e+01 4.862449e+01 2.296288e+00 1.937398e+00 3.116391e+00 2.425333e+00 1.822624e+00 3.620473e+00 4.089883e+00 3.333304e+00 3.580256e+00 2.233095e+00 2.375141e+00 1.881828e+00 1.836627e+00 3.558254e-01 3.237515e-01 4.658566e-01 3.563025e-01 3.121889e-01 6.239288e-01 7.345516e-01 6.036787e-01 5.985990e-01 4.116987e-01 4.327365e-01 3.326258e-01 2.852391e-01
<GCONST> 1.234180e+02
<STATE> 3
<MEAN> 39
 -1.165127e+00 9.051519e-02 6.064691e-01 -4.238069e+00 -1.139671e+00 2.991239e-01 -9.965624e+00 -2.404947e+00 -8.190389e+00 -6.355849e-01 1.687947e+00 -4.035743e+00 7.057304e+01 -5.447861e-02 1.204556e-02 2.962725e-02 -3.218251e-02 3.270254e-02 4.934774e-02 9.058069e-03 -4.784768e-03 5.041362e-02 -3.002985e-02 -1.655228e-02 -4.335150e-04 1.312905e-02 -2.935246e-03 -2.318193e-03 -9.899132e-04 -9.502866e-04 -1.664391e-03 -5.062207e-04 1.752678e-03 -1.606787e-03 -1.018389e-03 1.822469e-03 1.376332e-03 -5.559458e-04 2.948802e-04
<VARIANCE> 39
 5.126468e+01 3.223108e+01 1.021263e+02 5.564308e+01 3.750785e+01 6.208862e+01 6.048946e+01 5.713131e+01 6.373935e+01 3.496268e+01 3.050600e+01 3.787251e+01 4.861177e+01 2.350129e+00 1.951259e+00 3.096479e+00 2.399536e+00 1.816537e+00 3.603206e+00 4.084674e+00 3.323261e+00 3.559038e+00 2.245513e+00 2.397592e+00 1.878834e+00 1.851322e+00 3.601239e-01 3.240907e-01 4.586989e-01 3.536680e-01 3.099858e-01 6.169705e-01 7.284304e-01 6.022881e-01 5.947785e-01 4.140767e-01 4.375229e-01 3.327564e-01 2.848905e-01
<GCONST> 1.234645e+02
<STATE> 4
<MEAN> 39
 -1.302636e+00 1.634369e-01 5.262663e-01 -4.313713e+00 -1.114789e+00 4.425150e-01 -9.865466e+00 -2.432478e+00 -7.969647e+00 -6.715007e-01 1.618768e+00 -4.011736e+00 7.053576e+01 -5.914381e-02 5.250163e-03 1.599413e-02 -3.063470e-02 2.621598e-02 4.574800e-02 1.604080e-02 -1.012452e-02 4.321678e-02 -2.128837e-02 -9.753224e-03 -9.781796e-05 8.553680e-03 -6.277252e-04 -2.164782e-03 -3.223031e-03 -1.871915e-04 -2.663317e-03 -1.763424e-03 1.977914e-03 -2.045104e-03 -2.906191e-03 2.315768e-03 2.281152e-03 5.998922e-04 -7.589649e-04
<VARIANCE> 39
 5.420585e+01 3.282833e+01 1.032561e+02 5.580893e+01 3.694416e+01 6.249469e+01 6.015724e+01 5.757942e+01 6.182138e+01 3.525602e+01 3.055476e+01 3.757799e+01 4.919271e+01 2.413800e+00 1.971180e+00 3.023473e+00 2.363886e+00 1.790550e+00 3.571097e+00 4.037657e+00 3.303553e+00 3.514534e+00 2.261562e+00 2.450467e+00 1.856529e+00 1.848890e+00 3.646531e-01 3.257360e-01 4.442359e-01 3.502828e-01 3.046796e-01 6.067752e-01 7.142249e-01 6.010435e-01 5.895771e-01 4.191617e-01 4.500834e-01 3.302294e-01 2.817998e-01
<GCONST> 1.234234e+02
<TRANSP> 5
 0.000000e+00 1.000000e+00 0.000000e+00 0.000000e+00 0.000000e+00
 0.000000e+00 6.686676e-01 3.313323e-01 0.000000e+00 0.000000e+00
 0.000000e+00 0.000000e+00 6.686669e-01 3.313331e-01 0.000000e+00
 0.000000e+00 0.000000e+00 0.000000e+00 7.821617e-01 2.178384e-01
 0.000000e+00 0.000000e+00 0.000000e+00 0.000000e+00 0.000000e+00
<ENDHMM>
~h "r"
<BEGINHMM>
<NUMSTATES> 5
<STATE> 2
<MEAN> 39
 -1.643589e+00 6.659788e-01 1.310488e+00 -5.066269e+00 2.503656e-01 8.290306e-02 -1.054882e+01 -3.457459e+00 -1.028154e+01 -1.697172e+00 2.713322e+00 -3.697277e+00 7.173970e+01 -1.904975e-02 7.833333e-03 3.079012e-02 -3.572332e-02 8.685475e-03 -1.366099e-02 -1.846037e-02 -2.382065e-02 -3.788931e-02 -1.108861e-02 -1.800674e-03 1.061176e-02 2.280416e-02 5.266305e-03 1.765550e-04 -6.599587e-03 1.589613e-03 -2.942291e-04 1.133404e-03 8.537764e-04 1.852382e-04 -3.610789e-03 2.619659e-03 5.838222e-04 -1.102473e-04 -3.721772e-03
<VARIANCE> 39
 7.099780e+01 3.769238e+01 9.872027e+01 6.371164e+01 4.352531e+01 5.831581e+01 6.573827e+01 7.120992e+01 8.931592e+01 3.431115e+01 3.648426e+01 3.449222e+01 4.076384e+01 3.149693e+00 2.073177e+00 2.803530e+00 2.293271e+00 1.828712e+00 3.212103e+00 3.823560e+00 3.683959e+00 3.987289e+00 2.280927e+00 2.305928e+00 1.736885e+00 1.586031e+00 4.567072e-01 3.485421e-01 4.413905e-01 3.296922e-01 3.178564e-01 5.651647e-01 6.326566e-01 6.608519e-01 6.516174e-01 4.041440e-01 4.101402e-01 3.163941e-01 2.645905e-01
<GCONST> 1.246292e+02
<STATE> 3
<MEAN> 39
 -1.688630e+00 6.934603e-01 1.401811e+00 -5.175517e+00 2.941965e-01 3.975681e-02 -1.060393e+01 -3.538691e+00 -1.043969e+01 -1.728295e+00 2.708258e+00 -3.674183e+00 7.180486e+01 -3.129611e-03 7.409647e-03 1.279485e-02 -3.198646e-02 7.852818e-03 -1.199020e-02 -1.705780e-02 -2.369822e-02 -5.049390e-02 -3.867970e-03 8.907351e-04 8.629578e-03 1.327511e-02 4.936750e-03 -2.628087e-04 -5.565050e-03 1.177630e-03 -3.136132e-04 1.045155e-03 1.097043e-03 1.617373e-04 -3.409922e-03 2.336751e-03 1.054215e-03 -7.685702e-04 -3.000763e-03
<VARIANCE> 39
 7.273627e+01 3.811240e+01 9.835780e+01 6.480889e+01 4.408599e+01 5.803407e+01 6.502509e+01 7.119086e+01 9.161014e+01 3.408609e+01 3.654774e+01 3.451085e+01 4.020417e+01 3.159755e+00 2.073453e+00 2.794169e+00 2.338130e+00 1.818309e+00 3.176377e+00 3.821594e+00 3.692121e+00 4.009722e+00 2.258849e+00 2.319357e+00 1.714694e+00 1.578498e+00 4.581326e-01 3.504047e-01 4.387150e-01 3.348247e-01 3.155424e-01 5.601193e-01 6.307693e-01 6.657539e-01 6.508756e-01 3.994385e-01 4.126601e-01 3.107110e-01 2.643183e-01
<GCONST> 1.246501e+02
<STATE> 4
<MEAN> 39
 -1.668006e+00 7.584343e-01 1.435888e+00 -5.314392e+00 3.918912e-01 -7.429935e-03 -1.058670e+01 -3.653071e+00 -1.082497e+01 -1.770820e+00 2.730291e+00 -3.598464e+00 7.186945e+01 1.329381e-02 6.008871e-03 1.999873e-03 -2.997477e-02 1.067281e-02 -1.415654e-02 -1.724723e-02 -2.674638e-02 -7.297026e-02 5.944130e-04 6.400955e-03 2.119549e-03 8.653290e-03 3.869110e-03 -4.609110e-04 -3.856177e-03 7.506353e-04 -3.778288e-04 9.050725e-04 1.316692e-03 6.276052e-05 -2.367448e-03 1.544889e-03 1.474391e-03 -9.781898e-04 -1.868163e-03
<VARIANCE> 39
 7.464987e+01 3.845977e+01 9.973830e+01 6.556271e+01 4.519272e+01 5.777348e+01 6.387745e+01 7.195741e+01 9.689938e+01 3.375575e+01 3.675214e+01 3.452712e+01 3.944144e+01 3.169836e+00 2.067309e+00 2.787542e+00 2.400958e+00 1.809299e+00 3.139126e+00 3.835835e+00 3.715641e+00 4.092865e+00 2.228342e+00 2.370777e+00 1.704431e+00 1.561645e+00 4.605271e-01 3.521137e-01 4.345428e-01 3.440520e-01 3.127019e-01 5.535610e-01 6.333055e-01 6.718816e-01 6.591676e-01 3.933361e-01 4.199345e-01 3.063160e-01 2.628144e-01
<GCONST> 1.248018e+02
<TRANSP> 5
 0.000000e+00 1.000000e+00 0.000000e+00 0.000000e+00 0.000000e+00
 0.000000e+00 6.732864e-01 3.267136e-01 0.000000e+00 0.000000e+00
 0.000000e+00 0.000000e+00 6.732872e-01 3.267128e-01 0.000000e+00
 0.000000e+00 0.000000e+00 0.000000e+00 7.875564e-01 2.124436e-01
 0.000000e+00 0.000000e+00 0.000000e+00 0.000000e+00 0.000000e+00
<ENDHMM>
~h "s"
<BEGINHMM>
<NUMSTATES> 5
<STATE> 2
<MEAN> 39
 -3.000836e+00 3.179368e-01 1.045587e+00 -5.222004e+00 -9.950876e-03 1.352476e+00 -8.941416e+00 -3.497520e+00 -8.384658e+00 -1.138195e+00 1.862895e+00 -3.558295e+00 7.090955e+01 2.216846e-02 4.561951e-03 -5.494549e-03 5.111868e-03 -3.629760e-03 -2.019517e-02 -1.339514e-02 8.712127e-03 -6.436021e-03 6.034527e-04 1.526684e-02 -1.000597e-02 3.680125e-03 3.115445e-04 -6.630672e-04 -1.159531e-03 -2.330186e-03 -2.323649e-03 -1.879316e-03 -3.453271e-04 -3.347933e-04 3.046079e-04 7.936342e-04 -5.894596e-04 7.537338e-05 -2.859165e-04
<VARIANCE> 39
 7.706698e+01 2.979920e+01 1.244764e+02 5.600532e+01 3.648383e+01 5.791197e+01 6.065321e+01 6.497797e+01 7.932449e+01 3.139980e+01 3.717566e+01 3.292303e+01 5.006876e+01 3.597678e+00 1.843086e+00 2.657553e+00 2.498799e+00 1.716618e+00 3.214778e+00 3.993127e+00 3.638862e+00 4.128750e+00 2.023516e+00 2.265960e+00 1.637880e+00 1.391483e+00 4.937588e-01 3.244053e-01 3.902999e-01 3.741111e-01 2.981644e-01 5.581501e-01 6.931311e-01 6.604363e-01 6.665934e-01 3.652417e-01 4.165002e-01 3.033857e-01 2.317319e-01
<GCONST> 1.237047e+02
<STATE> 3
<MEAN> 39
 -2.921052e+00 3.333886e-01 1.032124e+00 -5.218360e+00 -3.416853e-02 1.277436e+00 -8.995262e+00 -3.473943e+00 -8.407342e+00 -1.133152e+00 1.913096e+00 -3.590125e+00 7.092427e+01 2.376006e-02 2.492357e-03 -7.637993e-03 -9.037880e-04 -1.015972e-02 -2.469735e-02 -1.512735e-02 6.063784e-03 -6.458160e-03 3.343684e-03 1.258436e-02 -1.080212e-02 3.012859e-03 4.716105e-04 -6.128047e-04 3.095106e-05 -1.871541e-03 -1.531041e-03 -6.511486e-04 -6.911758e-04 -1.257755e-03 -1.424145e-04 8.490659e-04 -1.301056e-03 -2.227018e-04 1.427885e-04
<VARIANCE> 39
 7.661387e+01 2.999849e+01 1.241485e+02 5.585225e+01 3.679943e+01 5.805960e+01 6.106864e+01 6.513532e+01 7.830828e+01 3.127994e+01 3.726172e+01 3.289246e+01 5.025521e+01 3.595167e+00 1.856458e+00 2.676925e+00 2.492910e+00 1.722949e+00 3.247678e+00 4.011168e+00 3.645269e+00 4.114784e+00 2.027184e+00 2.268526e+00 1.650554e+00 1.406251e+00 4.944426e-01 3.276225e-01 3.916750e-01 3.750178e-01 2.985269e-01 5.663068e-01 6.981640e-01 6.630669e-01 6.642870e-01 3.660248e-01 4.174317e-01 3.053330e-01 2.351880e-01
<GCONST> 1.238245e+02
<STATE> 4
<MEAN> 39
 -2.848857e+00 3.663088e-01 1.022814e+00 -5.293516e+00 -1.560729e-01 1.162378e+00 -9.079229e+00 -3.445448e+00 -8.445645e+00 -1.142196e+00 1.953259e+00 -3.619430e+00 7.093388e+01 2.819009e-02 1.961851e-03 -4.926963e-03 -4.581255e-03 -1.545630e-02 -2.415570e-02 -1.859529e-02 1.033540e-03 -7.355683e-03 6.969005e-03 7.871262e-03 -1.221175e-02 3.617953e-03 3.553774e-04 -1.875377e-04 1.136211e-03 -6.386947e-04 -4.239533e-04 7.978607e-04 -4.812528e-04 -6.989614e-04 3.414153e-04 9.538896e-04 -1.343988e-03 6.095196e-05 3.610221e-04
<VARIANCE> 39
 7.630680e+01 2.990527e+01 1.242430e+02 5.551332e+01 3.770822e+01 5.791993e+01 6.189850e+01 6.512411e+01 7.697328e+01 3.135999e+01 3.711501e+01 3.311116e+01 5.064323e+01 3.589545e+00 1.851442e+00 2.695754e+00 2.469416e+00 1.727515e+00 3.290789e+00 4.034272e+00 3.633368e+00 4.087596e+00 2.036364e+00 2.263255e+00 1.674859e+00 1.422002e+00 4.921070e-01 3.271960e-01 3.933092e-01 3.727996e-01 2.975020e-01 5.768184e-01 7.026679e-01 6.614999e-01 6.584035e-01 3.683663e-01 4.165412e-01 3.095788e-01 2.383167e-01
<GCONST> 1.239095e+02
<TRANSP> 5
 0.000000e+00 1.000000e+00 0.000000e+00 0.000000e+00 0.000000e+00
 0.000000e+00 6.750595e-01 3.249405e-01 0.000000e+00 0.000000e+00
 0.000000e+00 0.000000e+00 6.750597e-01 3.249403e-01 0.000000e+00
 0.000000e+00 0.000000e+00 0.000000e+00 7.895962e-01 2.104038e-01
 0.000000e+00 0.000000e+00 0.000000e+00 0.000000e+00 0.000000e+00
<ENDHMM>
~h "t"
<BEGINHMM>
<NUMSTATES> 5
<STATE> 2
<MEAN> 39
 -1.925366e+00 -1.186348e-01 2.030166e+00 -5.505392e+00 -1.203585e+00 1.158514e-01 -1.001383e+01 -3.556727e+00 -9.025687e+00 -1.536535e+00 2.387028e+00 -4.210548e+00 7.190007e+01 8.048644e-03 8.692528e-03 5.082156e-02 -1.601691e-02 -9.041862e-03 -3.473669e-02 -1.973398e-02 -3.256383e-02 -3.151521e-02 -1.645605e-02 1.689933e-02 -1.418034e-02 3.572417e-02 8.522599e-04 1.759243e-04 -9.290183e-04 1.842430e-03 5.618526e-04 -2.175692e-04 -6.788823e-04 -1.445983e-03 -2.079811e-03 8.626946e-04 -3.183446e-04 4.851123e-04 -1.341602e-03
<VARIANCE> 39
 6.586565e+01 3.162784e+01 9.387448e+01 5.924869e+01 4.145381e+01 6.005499e+01 6.084677e+01 7.050085e+01 6.820703e+01 3.580895e+01 3.730539e+01 3.256913e+01 4.341230e+01 3.132498e+00 2.181716e+00 3.048672e+00 2.882468e+00 1.971835e+00 3.660273e+00 4.328505e+00 4.085550e+00 4.070928e+00 2.304955e+00 2.701590e+00 1.774127e+00 1.881520e+00 4.475855e-01 3.698883e-01 4.745488e-01 4.459890e-01 3.360260e-01 6.406399e-01 7.728341e-01 7.426780e-01 6.986545e-01 4.249286e-01 4.988532e-01 3.216246e-01 3.069482e-01
<GCONST> 1.265154e+02
<STATE> 3
<MEAN> 39
 -1.897415e+00 -9.666435e-02 2.197651e+00 -5.546455e+00 -1.233150e+00 4.867742e-03 -1.008258e+01 -3.669666e+00 -9.134907e+00 -1.590411e+00 2.436945e+00 -4.257505e+00 7.201190e+01 1.054669e-02 8.838719e-03 4.642234e-02 -1.029553e-02 -7.021599e-03 -3.406607e-02 -2.080370e-02 -3.452607e-02 -3.593211e-02 -1.456020e-02 1.466844e-02 -1.304678e-02 3.068333e-02 5.873287e-04 9.731639e-05 -1.567774e-03 2.253278e-03 1.043372e-03 5.554786e-04 -1.784680e-04 -2.178109e-04 -1.235180e-03 2.894099e-04 -1.243808e-03 1.748044e-04 -1.884225e-03
<VARIANCE> 39
 6.583497e+01 3.176913e+01 9.232265e+01 5.867081e+01 4.208941e+01 6.010904e+01 6.119505e+01 7.092918e+01 6.841917e+01 3.589890e+01 3.719604e+01 3.268373e+01 4.259526e+01 3.152663e+00 2.189275e+00 2.985906e+00 2.873930e+00 1.978150e+00 3.694087e+00 4.366431e+00 4.110910e+00 4.101947e+00 2.302237e+00 2.711983e+00 1.775525e+00 1.876610e+00 4.500738e-01 3.703240e-01 4.659869e-01 4.440052e-01 3.354479e-01 6.472772e-01 7.807772e-01 7.482164e-01 7.047653e-01 4.245546e-01 5.009446e-01 3.211107e-01 3.079531e-01
<GCONST> 1.265538e+02
<STATE> 4
<MEAN> 39
 -1.847790e+00 -4.743002e-02 2.361795e+00 -5.596111e+00 -1.328657e+00 -1.204653e-01 -1.015941e+01 -3.850296e+00 -9.269428e+00 -1.668870e+00 2.484277e+00 -4.299403e+00 7.211508e+01 1.084739e-02 6.851780e-03 4.142810e-02 -3.543567e-03 -2.511940e-03 -2.935309e-02 -1.879130e-02 -3.071872e-02 -3.585317e-02 -1.611368e-02 8.584362e-03 -1.290266e-02 2.505764e-02 -1.787301e-04 -1.468173e-04 -2.404659e-03 2.043910e-03 1.555527e-03 2.077494e-03 1.285244e-03 1.606486e-03 4.573920e-04 -2.800358e-05 -1.966425e-03 3.497225e-04 -2.285736e-03
<VARIANCE> 39
 6.577400e+01 3.201147e+01 9.064897e+01 5.767476e+01 4.321306e+01 6.035506e+01 6.132685e+01 7.098382e+01 6.837416e+01 3.603581e+01 3.685763e+01 3.285624e+01 4.184104e+01 3.188003e+00 2.188852e+00 2.913171e+00 2.844299e+00 1.986185e+00 3.746998e+00 4.401764e+00 4.124475e+00 4.137351e+00 2.308914e+00 2.722047e+00 1.784344e+00 1.864660e+00 4.533895e-01 3.685420e-01 4.575532e-01 4.382748e-01 3.341296e-01 6.564741e-01 7.891647e-01 7.504801e-01 7.113565e-01 4.263955e-01 5.026425e-01 3.222711e-01 3.079501e-01
<GCONST> 1.265749e+02
<TRANSP> 5
 0.000000e+00 1.000000e+00 0.000000e+00 0.000000e+00 0.000000e+00
 0.000000e+00 6.707857e-01 3.292144e-01 0.000000e+00 0.000000e+00
 0.000000e+00 0.000000e+00 6.707857e-01 3.292143e-01 0.000000e+00
 0.000000e+00 0.000000e+00 0.000000e+00 7.845765e-01 2.154234e-01
 0.000000e+00 0.000000e+00 0.000000e+00 0.000000e+00 0.000000e+00
<ENDHMM>
~h "v"
<BEGINHMM>
<NUMSTATES> 5
<STATE> 2
<MEAN> 39
 -5.600491e-01 1.048393e+00 1.588893e+00 -4.527690e+00 -1.758691e-01 -4.429489e-01 -1.055477e+01 -3.532592e+00 -1.083657e+01 -7.146117e-01 3.690194e+00 -3.549409e+00 7.167476e+01 -2.155430e-02 -1.610047e-02 -7.919767e-03 -4.200918e-03 2.743641e-02 1.857629e-02 -2.039917e-03 2.409909e-02 9.578462e-03 -3.562599e-03 3.896019e-03 3.030483e-03 -9.168721e-03 -3.142600e-03 1.760266e-03 8.375631e-04 2.770131e-03 1.518573e-03 3.616072e-03 2.220214e-03 7.868591e-04 5.885058e-03 -2.105863e-03 -3.240635e-03 -1.013659e-03 -1.730873e-03
<VARIANCE> 39
 5.457076e+01 3.512767e+01 8.586341e+01 5.622407e+01 5.609760e+01 6.320269e+01 5.851969e+01 6.733841e+01 8.703474e+01 3.556914e+01 3.349055e+01 3.364518e+01 3.666970e+01 2.852090e+00 1.981931e+00 2.251513e+00 2.364280e+00 2.143636e+00 3.136399e+00 4.296978e+00 3.626119e+00 4.181313e+00 2.113743e+00 2.289862e+00 1.670854e+00 1.320478e+00 4.314988e-01 3.374342e-01 3.430591e-01 3.545725e-01 3.572852e-01 5.149658e-01 7.630213e-01 6.400579e-01 7.035148e-01 3.629658e-01 4.050033e-01 2.884614e-01 2.241489e-01
<GCONST> 1.232413e+02
<STATE> 3
<MEAN> 39
 -6.487814e-01 1.002860e+00 1.577751e+00 -4.539997e+00 -8.737940e-02 -3.672839e-01 -1.055589e+01 -3.448762e+00 -1.077308e+01 -7.359540e-01 3.693584e+00 -3.544768e+00 7.164520e+01 -3.372728e-02 -1.094614e-02 -4.744469e-03 4.469605e-03 3.139753e-02 2.946347e-02 6.378822e-03 2.536392e-02 2.999353e-02 -9.503117e-03 -7.676455e-03 3.073193e-04 -1.440478e-02 -3.441889e-03 1.635225e-03 1.108345e-03 2.848681e-03 4.995380e-04 2.669395e-03 3.036943e-03 5.836393e-04 6.315608e-03 -1.671531e-03 -3.436193e-03 -1.221254e-03 -1.355945e-03
<VARIANCE> 39
 5.522002e+01 3.489528e+01 8.512584e+01 5.599550e+01 5.541553e+01 6.212661e+01 5.911242e+01 6.720219e+01 8.733322e+01 3.529724e+01 3.356798e+01 3.344986e+01 3.666614e+01 2.874596e+00 1.984901e+00 2.245972e+00 2.384049e+00 2.136684e+00 3.090219e+00 4.303565e+00 3.609462e+00 4.178256e+00 2.087507e+00 2.295438e+00 1.678601e+00 1.329061e+00 4.328626e-01 3.356718e-01 3.409158e-01 3.597094e-01 3.575610e-01 5.073057e-01 7.591855e-01 6.379167e-01 7.008197e-01 3.581352e-01 4.052911e-01 2.916948e-01 2.245333e-01
<GCONST> 1.231786e+02
<STATE> 4
<MEAN> 39
 -7.933794e-01 9.937597e-01 1.657315e+00 -4.636853e+00 2.810710e-02 -3.476909e-01 -1.059935e+01 -3.418345e+00 -1.074904e+01 -8.434332e-01 3.722235e+00 -3.580212e+00 7.172684e+01 -5.300776e-02 -6.436212e-03 2.377527e-03 1.146218e-02 3.100427e-02 4.410171e-02 2.197525e-02 2.740921e-02 5.857267e-02 -1.529163e-02 -2.189825e-02 -5.344485e-04 -1.764094e-02 -3.408527e-03 1.163685e-03 1.145715e-03 2.488230e-03 -2.179036e-04 2.261056e-03 4.273097e-03 5.225789e-04 5.832552e-03 -9.151343e-04 -3.085979e-03 -6.125073e-04 -6.985993e-04
<VARIANCE> 39
 5.735725e+01 3.438843e+01 8.257523e+01 5.594156e+01 5.520955e+01 6.067624e+01 5.993544e+01 6.792528e+01 8.901775e+01 3.531869e+01 3.380207e+01 3.328378e+01 3.609826e+01 2.945874e+00 2.008068e+00 2.246648e+00 2.447737e+00 2.124335e+00 3.033042e+00 4.328279e+00 3.600311e+00 4.198699e+00 2.064577e+00 2.317903e+00 1.701212e+00 1.339752e+00 4.407679e-01 3.365581e-01 3.405461e-01 3.708472e-01 3.569352e-01 4.962620e-01 7.558763e-01 6.366342e-01 6.984648e-01 3.535503e-01 4.061646e-01 2.980049e-01 2.245279e-01
<GCONST> 1.232676e+02
<TRANSP> 5
 0.000000e+00 1.000000e+00 0.000000e+00 0.000000e+00 0.000000e+00
 0.000000e+00 6.816291e-01 3.183709e-01 0.000000e+00 0.000000e+00
 0.000000e+00 0.000000e+00 6.816292e-01 3.183708e-01 0.000000e+00
 0.000000e+00 0.000000e+00 0.000000e+00 7.967901e-01 2.032099e-01
 0.000000e+00 0.000000e+00 0.000000e+00 0.000000e+00 0.000000e+00
<ENDHMM>
~h "w"
<BEGINHMM>
<NUMSTATES> 5
<STATE> 2
<MEAN> 39
 -1.101797e+00 9.899624e-01 2.098435e+00 -5.113404e+00 -1.826362e+00 7.444122e-01 -9.535795e+00 -2.401300e+00 -9.446897e+00 -2.342600e+00 2.942026e+00 -3.694876e+00 7.117578e+01 1.087336e-02 2.216330e-02 -2.803705e-02 1.155053e-02 -1.091282e-02 3.070725e-02 3.805647e-02 2.598811e-02 2.189356e-02 4.674938e-03 -1.013355e-04 7.267045e-03 -2.344873e-02 1.968532e-03 1.395684e-03 -2.148933e-03 1.044845e-03 2.213717e-03 8.483714e-04 -6.611700e-04 -1.367592e-03 -4.144203e-04 2.155237e-03 -9.243835e-04 -6.015070e-06 -5.510960e-04
<VARIANCE> 39
 6.594460e+01 3.596436e+01 1.000680e+02 5.705389e+01 4.738852e+01 5.729115e+01 6.160387e+01 7.083239e+01 7.413403e+01 3.477952e+01 4.005963e+01 3.141206e+01 4.462072e+01 2.902488e+00 1.859588e+00 2.617453e+00 2.367024e+00 2.036705e+00 3.223920e+00 3.878102e+00 4.034202e+00 3.811293e+00 2.278260e+00 2.557784e+00 1.810814e+00 1.480761e+00 4.025520e-01 3.046739e-01 4.122664e-01 3.661476e-01 3.206293e-01 5.602493e-01 6.904979e-01 7.445559e-01 6.513846e-01 4.230724e-01 4.628166e-01 3.387950e-01 2.560802e-01
<GCONST> 1.245300e+02
<STATE> 3
<MEAN> 39
 -1.055639e+00 1.071612e+00 1.980457e+00 -5.071957e+00 -1.857467e+00 8.392918e-01 -9.415232e+00 -2.319857e+00 -9.377905e+00 -2.312242e+00 2.926185e+00 -3.672539e+00 7.108466e+01 1.533874e-02 2.387757e-02 -3.329879e-02 1.299487e-02 -3.753640e-03 3.298472e-02 3.514058e-02 2.487598e-02 2.219035e-02 1.065702e-02 -2.574153e-03 7.621911e-03 -2.469669e-02 1.895390e-03 7.556747e-04 -1.892276e-03 -2.667040e-04 1.636955e-03 2.049384e-04 -9.590092e-04 -1.457587e-04 -3.402909e-04 2.227241e-03 -9.892937e-04 2.688197e-04 -6.838782e-04
<VARIANCE> 39
 6.589362e+01 3.562183e+01 1.002529e+02 5.681914e+01 4.683500e+01 5.761975e+01 6.107989e+01 7.003370e+01 7.484505e+01 3.462638e+01 3.987584e+01 3.162774e+01 4.503466e+01 2.891510e+00 1.852540e+00 2.550792e+00 2.361308e+00 2.029317e+00 3.247343e+00 3.876434e+00 4.076348e+00 3.884425e+00 2.269079e+00 2.578716e+00 1.826618e+00 1.478153e+00 4.018987e-01 3.048902e-01 4.023292e-01 3.641842e-01 3.188932e-01 5.634573e-01 6.932662e-01 7.559208e-01 6.642478e-01 4.226244e-01 4.696995e-01 3.428884e-01 2.565922e-01
<GCONST> 1.245519e+02
<STATE> 4
<MEAN> 39
 -8.493850e-01 1.275776e+00 1.631081e+00 -5.056216e+00 -1.937178e+00 1.025802e+00 -9.320183e+00 -2.078604e+00 -9.279739e+00 -2.220158e+00 2.895852e+00 -3.567750e+00 7.082424e+01 1.677806e-02 2.194949e-02 -3.819263e-02 1.319897e-02 1.790709e-03 3.476444e-02 3.328942e-02 3.068710e-02 2.862290e-02 1.743379e-02 -4.935410e-03 6.077382e-03 -2.674675e-02 8.885826e-04 -4.393281e-04 -5.623000e-04 -9.814241e-04 3.761727e-04 -7.221090e-05 -8.346815e-04 7.993518e-04 4.581980e-04 1.475386e-03 -4.735049e-04 -6.031285e-05 -2.330158e-04
<VARIANCE> 39
 6.359368e+01 3.471938e+01 1.003879e+02 5.602959e+01 4.588174e+01 5.807674e+01 6.087371e+01 6.883873e+01 7.507343e+01 3.450411e+01 3.966068e+01 3.214989e+01 4.584291e+01 2.794499e+00 1.827104e+00 2.423533e+00 2.340720e+00 2.021345e+00 3.279137e+00 3.803916e+00 4.048525e+00 3.900020e+00 2.267557e+00 2.584971e+00 1.843346e+00 1.457840e+00 3.908069e-01 3.019350e-01 3.854001e-01 3.611550e-01 3.188478e-01 5.650304e-01 6.834593e-01 7.534307e-01 6.697683e-01 4.235084e-01 4.754426e-01 3.483000e-01 2.551816e-01
<GCONST> 1.242750e+02
<TRANSP> 5
 0.000000e+00 1.000000e+00 0.000000e+00 0.000000e+00 0.000000e+00
 0.000000e+00 6.801999e-01 3.198001e-01 0.000000e+00 0.000000e+00
 0.000000e+00 0.000000e+00 6.801999e-01 3.198001e-01 0.000000e+00
 0.000000e+00 0.000000e+00 0.000000e+00 7.967163e-01 2.032838e-01
 0.000000e+00 0.000000e+00 0.000000e+00 0.000000e+00 0.000000e+00
<ENDHMM>
~h "y"
<BEGINHMM>
<NUMSTATES> 5
<STATE> 2
<MEAN> 39
 -9.660552e-01 1.288070e+00 4.699388e-01 -2.698014e+00 -4.360729e-01 -1.208645e-01 -9.211470e+00 -4.431749e+00 -9.479033e+00 -1.567020e+00 2.556005e+00 -4.950816e+00 7.044371e+01 5.536094e-03 2.512660e-02 -4.045269e-03 5.330521e-02 4.065308e-02 4.609562e-02 -1.411068e-02 1.900493e-02 6.071758e-03 -5.200997e-03 -1.252574e-02 2.501646e-02 -3.625545e-02 -5.019036e-04 4.542648e-04 1.958280e-03 -3.710513e-03 -1.292024e-03 -6.577732e-06 1.812433e-03 -7.600433e-04 1.732720e-04 1.769305e-03 1.163146e-03 -2.472151e-03 8.922030e-04
<VARIANCE> 39
 4.732651e+01 2.442513e+01 1.055579e+02 5.042322e+01 4.481308e+01 6.161192e+01 6.202135e+01 7.994452e+01 8.389761e+01 4.050479e+01 3.626169e+01 3.310872e+01 4.308722e+01 2.698783e+00 2.132268e+00 2.350363e+00 2.453250e+00 1.920336e+00 3.568705e+00 4.245868e+00 4.126338e+00 4.361133e+00 2.037428e+00 2.362550e+00 1.677218e+00 1.326041e+00 4.186278e-01 4.094351e-01 3.705260e-01 3.831319e-01 3.403655e-01 5.947165e-01 7.065129e-01 7.529880e-01 7.173101e-01 3.684452e-01 4.302281e-01 3.014090e-01 2.414971e-01
<GCONST> 1.241213e+02
<STATE> 3
<MEAN> 39
 -9.562663e-01 1.349478e+00 4.562877e-01 -2.551448e+00 -2.926904e-01 3.275131e-02 -9.232112e+00 -4.389782e+00 -9.474007e+00 -1.552036e+00 2.532238e+00 -4.900389e+00 7.034206e+01 3.366027e-03 1.921014e-02 -7.423982e-04 4.494772e-02 3.857673e-02 4.199317e-02 -7.980173e-03 1.481793e-02 5.446849e-03 4.294553e-03 -7.404619e-03 1.709412e-02 -3.076039e-02 -6.305784e-04 -2.154157e-03 1.212644e-03 -4.405531e-03 -1.780986e-03 -1.727459e-03 1.766543e-03 -1.396469e-05 -2.591067e-04 2.602171e-03 2.006917e-03 -2.460845e-03 2.258458e-03
<VARIANCE> 39
 4.691456e+01 2.492283e+01 1.096530e+02 4.947674e+01 4.214646e+01 6.107164e+01 6.151530e+01 7.723493e+01 8.411246e+01 4.046077e+01 3.584705e+01 3.305430e+01 4.411221e+01 2.699970e+00 2.162176e+00 2.384144e+00 2.491242e+00 1.903097e+00 3.556995e+00 4.291485e+00 4.066120e+00 4.414042e+00 2.057406e+00 2.385508e+00 1.702559e+00 1.343861e+00 4.196530e-01 4.118787e-01 3.755188e-01 3.883351e-01 3.398611e-01 5.908343e-01 7.106574e-01 7.412667e-01 7.270067e-01 3.719937e-01 4.341480e-01 3.084118e-01 2.423591e-01
<GCONST> 1.242143e+02
<STATE> 4
<MEAN> 39
 -9.804074e-01 1.396297e+00 2.754138e-01 -2.479745e+00 -2.666460e-01 1.725215e-01 -9.223749e+00 -4.211505e+00 -9.387260e+00 -1.520545e+00 2.561328e+00 -4.882082e+00 7.012791e+01 1.048035e-03 4.436273e-03 3.063917e-03 3.014951e-02 3.326788e-02 2.825692e-02 1.324337e-03 1.212992e-02 -5.989666e-03 1.638803e-02 -9.579241e-04 1.206436e-02 -1.880074e-02 -2.390991e-04 -2.548157e-03 1.719960e-03 -5.642666e-03 -3.307591e-03 -3.392961e-03 1.238181e-03 1.584362e-03 -8.096584e-04 1.408016e-03 1.075481e-03 -7.798243e-04 3.041291e-03
<VARIANCE> 39
 4.635223e+01 2.554161e+01 1.166668e+02 4.905627e+01 3.954971e+01 5.977179e+01 6.058171e+01 7.366882e+01 8.460086e+01 4.078447e+01 3.523552e+01 3.279088e+01 4.658525e+01 2.705464e+00 2.186929e+00 2.406860e+00 2.506952e+00 1.866437e+00 3.465180e+00 4.258919e+00 3.895102e+00 4.427213e+00 2.098009e+00 2.376805e+00 1.718723e+00 1.335860e+00 4.221794e-01 4.106267e-01 3.787370e-01 3.827367e-01 3.359063e-01 5.729018e-01 6.983506e-01 7.053075e-01 7.259013e-01 3.802242e-01 4.317236e-01 3.134438e-01 2.378357e-01
<GCONST> 1.240304e+02
<TRANSP> 5
 0.000000e+00 1.000000e+00 0.000000e+00 0.000000e+00 0.000000e+00
 0.000000e+00 6.763622e-01 3.236378e-01 0.000000e+00 0.000000e+00
 0.000000e+00 0.000000e+00 6.763624e-01 3.236376e-01 0.000000e+00
 0.000000e+00 0.000000e+00 0.000000e+00 7.910250e-01 2.089750e-01
 0.000000e+00 0.000000e+00 0.000000e+00 0.000000e+00 0.000000e+00
<ENDHMM>
~h "z"
<BEGINHMM>
<NUMSTATES> 5
<STATE> 2
<MEAN> 39
 -1.729126e+00 6.630147e-01 6.830126e-01 -4.283921e+00 -4.855638e-01 1.675819e+00 -8.854814e+00 -3.220124e+00 -8.304630e+00 -1.131257e+00 2.131689e+00 -3.988376e+00 7.050126e+01 3.489877e-02 1.562487e-02 -5.845556e-02 4.521294e-02 -1.082313e-02 -1.013185e-03 4.711971e-02 1.724742e-02 -1.571782e-02 5.171498e-03 -2.735736e-02 1.025886e-02 -3.011559e-02 -6.207748e-03 -1.059277e-03 4.654816e-03 -4.396171e-03 -4.246751e-04 -1.435074e-03 -7.937556e-04 1.605517e-03 9.430131e-04 -4.068477e-03 1.922733e-03 2.108135e-03 2.169527e-03
<VARIANCE> 39
 5.870858e+01 2.795847e+01 1.285500e+02 4.676569e+01 4.385871e+01 5.305090e+01 5.798472e+01 7.059666e+01 7.226754e+01 3.588144e+01 3.631737e+01 3.343636e+01 4.973389e+01 3.077880e+00 1.729840e+00 2.285941e+00 2.266222e+00 1.792777e+00 3.208289e+00 3.732316e+00 3.124135e+00 3.909450e+00 2.269665e+00 2.213556e+00 1.698678e+00 1.207332e+00 4.384616e-01 3.075622e-01 3.382176e-01 3.301829e-01 2.988779e-01 5.698366e-01 6.554295e-01 5.625576e-01 6.354450e-01 4.129124e-01 3.926350e-01 3.220189e-01 2.036759e-01
<GCONST> 1.219786e+02
<STATE> 3
<MEAN> 39
 -1.643222e+00 7.118180e-01 5.233647e-01 -4.162509e+00 -5.245870e-01 1.664425e+00 -8.708925e+00 -3.158285e+00 -8.345624e+00 -1.134350e+00 2.057630e+00 -3.949151e+00 7.042030e+01 1.781105e-02 1.209673e-02 -4.401015e-02 3.113515e-02 -1.233126e-02 -4.439331e-03 4.188553e-02 2.238479e-02 -1.349185e-02 -7.214960e-03 -2.026199e-02 1.730609e-02 -2.372827e-02 -5.271816e-03 -1.288100e-03 3.169809e-03 -5.771599e-03 -1.627755e-03 -1.261116e-03 -3.468060e-03 1.651348e-04 -8.430906e-04 -4.424179e-03 2.212082e-03 1.665653e-03 1.433096e-03
<VARIANCE> 39
 5.792885e+01 2.873461e+01 1.289648e+02 4.700470e+01 4.395000e+01 5.298874e+01 5.753497e+01 7.004632e+01 7.283537e+01 3.558761e+01 3.583132e+01 3.321463e+01 4.971635e+01 3.048306e+00 1.759119e+00 2.290826e+00 2.300474e+00 1.813554e+00 3.170308e+00 3.714174e+00 3.073764e+00 3.933990e+00 2.245590e+00 2.199158e+00 1.694560e+00 1.197770e+00 4.352735e-01 3.124317e-01 3.378910e-01 3.351217e-01 3.038667e-01 5.663645e-01 6.493419e-01 5.519136e-01 6.364952e-01 4.063592e-01 3.897381e-01 3.206063e-01 2.015349e-01
<GCONST> 1.219143e+02
<STATE> 4
<MEAN> 39
 -1.613748e+00 7.876652e-01 3.163304e-01 -4.099573e+00 -6.295478e-01 1.588687e+00 -8.557295e+00 -3.117132e+00 -8.398791e+00 -1.215252e+00 1.971927e+00 -3.869378e+00 7.032563e+01 4.068340e-03 8.857848e-03 -3.063702e-02 1.091986e-02 -1.848390e-02 -7.843873e-03 2.805127e-02 2.587636e-02 -1.459636e-02 -2.048114e-02 -1.021247e-02 2.153544e-02 -1.780501e-02 -3.311057e-03 -1.431989e-03 1.561242e-03 -5.352193e-03 -2.287546e-03 -4.772895e-04 -3.637763e-03 -7.111456e-04 -1.238267e-03 -2.616496e-03 1.666778e-03 -4.984647e-04 8.823349e-04
<VARIANCE> 39
 5.797882e+01 2.943509e+01 1.304190e+02 4.752608e+01 4.384032e+01 5.301648e+01 5.680162e+01 7.025278e+01 7.393600e+01 3.486276e+01 3.549359e+01 3.342384e+01 4.969931e+01 3.057030e+00 1.794719e+00 2.288042e+00 2.322509e+00 1.817755e+00 3.126483e+00 3.672242e+00 3.014533e+00 3.969683e+00 2.202699e+00 2.177929e+00 1.684098e+00 1.185554e+00 4.355008e-01 3.185210e-01 3.352368e-01 3.395572e-01 3.047555e-01 5.613309e-01 6.389910e-01 5.403400e-01 6.364139e-01 3.981797e-01 3.841308e-01 3.168840e-01 1.990247e-01
<GCONST> 1.218156e+02
<TRANSP> 5
 0.000000e+00 1.000000e+00 0.000000e+00 0.000000e+00 0.000000e+00
 0.000000e+00 6.768311e-01 3.231689e-01 0.000000e+00 0.000000e+00
 0.000000e+00 0.000000e+00 6.768311e-01 3.231689e-01 0.000000e+00
 0.000000e+00 0.000000e+00 0.000000e+00 7.914409e-01 2.085591e-01
 0.000000e+00 0.000000e+00 0.000000e+00 0.000000e+00 0.000000e+00
<ENDHMM>
~h "aa"
<BEGINHMM>
<NUMSTATES> 5
<STATE> 2
<MEAN> 39
 2.069315e-01 9.601468e-01 -3.603374e+00 -3.538001e+00 -1.519987e+00 1.966213e+00 -7.985935e+00 -2.021113e+00 -8.803332e+00 -2.018605e+00 1.354019e+00 -2.473125e+00 6.846256e+01 -4.256580e-03 -2.731058e-02 6.564701e-02 1.398629e-02 -2.956856e-03 3.359193e-02 -1.096868e-02 -6.378559e-03 -4.772891e-03 7.279911e-03 -2.811551e-02 -1.402475e-02 3.515238e-02 -7.360559e-03 -3.905473e-03 1.348490e-02 -1.004796e-02 4.655720e-03 2.917958e-03 -2.455178e-03 -7.506892e-03 -3.489467e-03 5.471804e-04 3.074467e-03 -4.062505e-03 9.339388e-03
<VARIANCE> 39
 3.747026e+01 2.577738e+01 1.160412e+02 4.569156e+01 4.149037e+01 4.515420e+01 4.894259e+01 7.612241e+01 5.372338e+01 3.070989e+01 3.843584e+01 2.876762e+01 4.267249e+01 2.142252e+00 1.991009e+00 2.455534e+00 2.089809e+00 1.788019e+00 2.820325e+00 3.255540e+00 3.344727e+00 3.197116e+00 2.033474e+00 2.672341e+00 1.582151e+00 1.187274e+00 3.038656e-01 3.333897e-01 3.682508e-01 3.375880e-01 2.906460e-01 5.095609e-01 6.277812e-01 5.698674e-01 5.265314e-01 3.862324e-01 5.181649e-01 2.914119e-01 1.918190e-01
<GCONST> 1.191852e+02
<STATE> 3
<MEAN> 39
 1.441330e-01 8.376999e-01 -3.321434e+00 -3.523959e+00 -1.517632e+00 2.064797e+00 -8.029396e+00 -2.083267e+00 -8.819174e+00 -1.999319e+00 1.278030e+00 -2.544770e+00 6.862458e+01 -2.947592e-02 -3.670137e-02 1.139537e-01 -1.687161e-02 1.357999e-02 3.587655e-02 -1.331041e-02 -2.084829e-02 -1.355766e-02 5.718991e-03 -1.008141e-02 -2.552737e-02 6.670322e-02 -8.731132e-03 -3.387374e-03 1.275957e-02 -8.851807e-03 4.222324e-03 -7.061459e-04 1.074614e-04 -3.632555e-03 -2.312466e-03 -4.124620e-04 6.916290e-03 -2.917486e-03 8.865725e-03
<VARIANCE> 39
 3.788764e+01 2.618240e+01 1.173574e+02 4.373302e+01 4.127778e+01 4.692102e+01 4.976792e+01 7.761935e+01 5.440642e+01 3.241118e+01 3.908389e+01 2.878336e+01 4.243533e+01 2.170918e+00 2.012739e+00 2.556869e+00 2.066646e+00 1.828414e+00 2.905652e+00 3.268336e+00 3.431280e+00 3.187716e+00 2.134897e+00 2.731008e+00 1.611352e+00 1.213141e+00 3.059371e-01 3.321340e-01 3.854311e-01 3.389513e-01 2.997747e-01 5.213215e-01 6.338340e-01 5.832956e-01 5.260872e-01 4.075460e-01 5.302236e-01 2.965233e-01 1.952848e-01
<GCONST> 1.198197e+02
<STATE> 4
<MEAN> 39
 -7.327762e-02 7.120285e-01 -2.810532e+00 -3.654766e+00 -1.433312e+00 2.166523e+00 -8.067206e+00 -2.154804e+00 -8.837007e+00 -2.045774e+00 1.197933e+00 -2.694183e+00 6.892551e+01 -5.844269e-02 -3.087758e-02 1.516588e-01 -4.818357e-02 2.688264e-02 1.981349e-02 -7.444299e-03 -1.514117e-02 -1.885333e-02 -7.471228e-03 1.436786e-02 -2.565074e-02 9.259843e-02 -8.108691e-03 6.803978e-04 4.030435e-03 -8.790654e-03 1.349110e-03 -5.206223e-03 1.167543e-03 1.817990e-03 -1.877043e-03 -3.253029e-03 7.382193e-03 9.156326e-04 4.361126e-03
<VARIANCE> 39
 4.073372e+01 2.682166e+01 1.160125e+02 4.247160e+01 4.085157e+01 4.917186e+01 5.129289e+01 7.893486e+01 5.606265e+01 3.395774e+01 3.933063e+01 2.881820e+01 4.182482e+01 2.220762e+00 1.983764e+00 2.675204e+00 2.064053e+00 1.869140e+00 3.019086e+00 3.289844e+00 3.475207e+00 3.177757e+00 2.181480e+00 2.746672e+00 1.649347e+00 1.254491e+00 3.094101e-01 3.247549e-01 4.062175e-01 3.417963e-01 3.083583e-01 5.355465e-01 6.397860e-01 5.915470e-01 5.237687e-01 4.178915e-01 5.336460e-01 3.035225e-01 2.013770e-01
<GCONST> 1.204508e+02
<TRANSP> 5
 0.000000e+00 1.000000e+00 0.000000e+00 0.000000e+00 0.000000e+00
 0.000000e+00 6.756179e-01 3.243821e-01 0.000000e+00 0.000000e+00
 0.000000e+00 0.000000e+00 6.756180e-01 3.243820e-01 0.000000e+00
 0.000000e+00 0.000000e+00 0.000000e+00 7.879168e-01 2.120833e-01
 0.000000e+00 0.000000e+00 0.000000e+00 0.000000e+00 0.000000e+00
<ENDHMM>
~h "ae"
<BEGINHMM>
<NUMSTATES> 5
<STATE> 2
<MEAN> 39
 -1.714311e+00 5.807828e-02 -5.394204e-03 -4.679307e+00 -1.063471e+00 1.213415e+00 -8.819109e+00 -1.974813e+00 -7.712865e+00 -6.181232e-01 2.312663e+00 -4.089222e+00 7.045141e+01 1.748710e-02 -1.622782e-02 -3.653034e-02 1.507326e-02 -4.252164e-03 -7.643006e-04 -2.751247e-03 -1.269284e-02 -1.670451e-02 1.375988e-02 5.631965e-03 9.360858e-03 -4.547535e-03 -2.542983e-04 1.096719e-03 1.000488e-03 -2.329971e-03 1.491193e-03 -7.350227e-04 -4.211988e-03 -2.748674e-03 -6.935288e-05 5.879842e-04 -1.037069e-03 -4.772187e-04 6.890237e-04
<VARIANCE> 39
 5.842416e+01 4.112397e+01 1.154417e+02 5.637002e+01 4.677146e+01 5.606675e+01 6.066009e+01 5.778710e+01 6.532533e+01 3.220605e+01 3.673877e+01 3.438865e+01 5.395597e+01 2.906857e+00 1.891860e+00 2.327875e+00 2.265594e+00 1.764117e+00 2.899712e+00 3.591240e+00 3.071928e+00 3.191227e+00 1.939311e+00 1.991940e+00 1.641824e+00 1.276358e+00 3.959579e-01 3.185609e-01 3.583046e-01 3.200431e-01 2.852924e-01 5.252540e-01 6.262580e-01 5.447071e-01 5.202121e-01 3.558144e-01 3.394340e-01 2.924276e-01 2.108392e-01
<GCONST> 1.209463e+02
<STATE> 3
<MEAN> 39
 -1.661911e+00 1.124128e-02 -9.908716e-02 -4.629069e+00 -1.066130e+00 1.206109e+00 -8.848136e+00 -2.029602e+00 -7.761174e+00 -5.748208e-01 2.327136e+00 -4.061604e+00 7.044544e+01 1.858665e-02 -1.204942e-02 -3.160850e-02 1.078833e-02 1.957227e-03 -3.794182e-03 -1.335274e-02 -2.011603e-02 -1.859081e-02 1.339500e-02 3.177626e-03 1.141108e-02 -1.313932e-03 -1.937080e-04 1.276159e-03 3.016586e-03 -5.859237e-04 2.819642e-03 -4.845978e-04 -2.787895e-03 -1.703282e-03 1.235580e-04 -7.483379e-04 -1.264541e-03 5.480022e-04 1.275279e-03
<VARIANCE> 39
 5.796132e+01 4.143225e+01 1.154686e+02 5.684146e+01 4.659216e+01 5.622812e+01 6.093814e+01 5.752453e+01 6.433791e+01 3.195595e+01 3.711036e+01 3.393128e+01 5.397002e+01 2.883284e+00 1.906022e+00 2.369742e+00 2.271011e+00 1.770041e+00 2.898155e+00 3.611530e+00 3.101370e+00 3.172762e+00 1.939668e+00 2.015528e+00 1.643493e+00 1.308144e+00 3.952187e-01 3.188106e-01 3.647504e-01 3.194090e-01 2.854229e-01 5.221727e-01 6.308951e-01 5.495185e-01 5.211629e-01 3.546760e-01 3.430748e-01 2.949383e-01 2.150813e-01
<GCONST> 1.210599e+02
<STATE> 4
<MEAN> 39
 -1.647529e+00 -4.717399e-02 -1.237077e-01 -4.597322e+00 -1.069615e+00 1.167686e+00 -8.900527e+00 -2.204896e+00 -7.806960e+00 -5.584463e-01 2.302268e+00 -4.039537e+00 7.047830e+01 2.144324e-02 -6.939840e-03 -2.019302e-02 1.107627e-02 9.459607e-03 -1.069925e-02 -1.944372e-02 -2.087554e-02 -1.893249e-02 1.245939e-02 1.147362e-03 1.269492e-02 3.611068e-03 8.267614e-05 1.273202e-03 3.098655e-03 2.907980e-04 2.440205e-03 -7.478775e-04 -1.029480e-03 6.770801e-04 4.782085e-04 -9.652251e-04 -1.397197e-03 4.112229e-04 8.516569e-04
<VARIANCE> 39
 5.782848e+01 4.233648e+01 1.160283e+02 5.754076e+01 4.596239e+01 5.687961e+01 6.109180e+01 5.722180e+01 6.255550e+01 3.177346e+01 3.749580e+01 3.387200e+01 5.426714e+01 2.872500e+00 1.946398e+00 2.436042e+00 2.288281e+00 1.762186e+00 2.898272e+00 3.645816e+00 3.152695e+00 3.164329e+00 1.945591e+00 2.056626e+00 1.653849e+00 1.365635e+00 3.964076e-01 3.238741e-01 3.738759e-01 3.217541e-01 2.847894e-01 5.180432e-01 6.371268e-01 5.584768e-01 5.241712e-01 3.559615e-01 3.493949e-01 2.994367e-01 2.230978e-01
<GCONST> 1.213614e+02
<TRANSP> 5
 0.000000e+00 1.000000e+00 0.000000e+00 0.000000e+00 0.000000e+00
 0.000000e+00 6.713386e-01 3.286615e-01 0.000000e+00 0.000000e+00
 0.000000e+00 0.000000e+00 6.713389e-01 3.286611e-01 0.000000e+00
 0.000000e+00 0.000000e+00 0.000000e+00 7.847800e-01 2.152200e-01
 0.000000e+00 0.000000e+00 0.000000e+00 0.000000e+00 0.000000e+00
<ENDHMM>
~h "ah"
<BEGINHMM>
<NUMSTATES> 5
<STATE> 2
<MEAN> 39
 -5.637550e-01 8.219317e-01 -1.540382e-01 -4.071998e+00 -4.726607e-01 4.235249e-01 -8.973484e+00 -1.864843e+00 -8.994422e+00 -1.079276e+00 2.724179e+00 -3.926560e+00 7.068996e+01 2.849849e-02 3.177633e-02 -2.761056e-02 8.342058e-03 -1.905809e-02 -1.370081e-02 -9.075729e-03 1.730485e-02 -6.136993e-03 5.124783e-03 -5.354422e-03 -1.897172e-03 -1.977301e-02 -3.470480e-03 3.603941e-04 2.936904e-03 -3.830419e-03 3.412968e-04 1.475042e-03 -1.354544e-03 1.190744e-03 2.601901e-03 -2.055636e-03 -1.536487e-03 -4.914957e-04 1.132014e-03
<VARIANCE> 39
 4.927623e+01 3.288476e+01 8.953980e+01 5.800744e+01 3.863861e+01 6.339472e+01 5.421901e+01 6.387374e+01 6.815546e+01 3.881902e+01 3.683719e+01 3.668779e+01 4.588269e+01 2.511690e+00 2.117544e+00 2.457373e+00 2.702287e+00 1.928377e+00 3.850268e+00 3.687618e+00 3.646731e+00 3.985073e+00 2.238854e+00 2.439120e+00 1.815114e+00 1.725184e+00 3.638080e-01 3.601184e-01 3.735392e-01 4.073800e-01 3.293205e-01 6.844710e-01 6.769242e-01 6.557984e-01 6.802287e-01 4.084810e-01 4.622491e-01 3.241793e-01 2.870439e-01
<GCONST> 1.242379e+02
<STATE> 3
<MEAN> 39
 -4.824842e-01 9.194341e-01 -2.311721e-01 -4.064854e+00 -5.317028e-01 3.858503e-01 -9.009284e+00 -1.812791e+00 -9.007581e+00 -1.069226e+00 2.704670e+00 -3.935200e+00 7.063475e+01 1.750151e-02 3.204360e-02 -1.881218e-02 -9.339987e-04 -1.758917e-02 -7.768854e-03 -1.115955e-02 2.076725e-02 3.145560e-03 3.181682e-04 -1.079069e-02 -3.268239e-03 -1.692157e-02 -3.720591e-03 -2.592453e-04 3.589213e-03 -3.117749e-03 8.040161e-04 2.293615e-03 -7.628326e-04 1.254738e-03 3.295625e-03 -1.416528e-03 -1.327321e-03 -3.687504e-04 1.403612e-03
<VARIANCE> 39
 4.844046e+01 3.273524e+01 8.956577e+01 5.757028e+01 3.945100e+01 6.355624e+01 5.439234e+01 6.306012e+01 6.667367e+01 3.881822e+01 3.729587e+01 3.595585e+01 4.596088e+01 2.470934e+00 2.107509e+00 2.415231e+00 2.701442e+00 1.936118e+00 3.826863e+00 3.658584e+00 3.599121e+00 3.977954e+00 2.241828e+00 2.440990e+00 1.798417e+00 1.711583e+00 3.585261e-01 3.573284e-01 3.659826e-01 4.074056e-01 3.292764e-01 6.786974e-01 6.725742e-01 6.464125e-01 6.797225e-01 4.088468e-01 4.592600e-01 3.223356e-01 2.832912e-01
<GCONST> 1.240185e+02
<STATE> 4
<MEAN> 39
 -4.257472e-01 1.085135e+00 -2.710610e-01 -4.149199e+00 -6.605986e-01 3.680029e-01 -9.036884e+00 -1.701168e+00 -8.966315e+00 -1.139759e+00 2.727714e+00 -3.938377e+00 7.057674e+01 5.763510e-03 2.942902e-02 -9.129664e-03 -8.166457e-03 -1.663814e-02 1.961658e-04 -1.204894e-02 2.306589e-02 1.500961e-02 -2.128942e-03 -1.568198e-02 -3.553080e-03 -1.408610e-02 -3.849404e-03 -1.245810e-03 3.433162e-03 -2.262559e-03 6.468852e-04 2.148075e-03 -3.066080e-04 9.317905e-04 3.416527e-03 -4.383981e-04 -5.411407e-04 1.997498e-04 1.424984e-03
<VARIANCE> 39
 4.821999e+01 3.265385e+01 8.910057e+01 5.726756e+01 4.095018e+01 6.426431e+01 5.481053e+01 6.232026e+01 6.464680e+01 3.850392e+01 3.809133e+01 3.503625e+01 4.611061e+01 2.441509e+00 2.087380e+00 2.339775e+00 2.679760e+00 1.951009e+00 3.779936e+00 3.645081e+00 3.519913e+00 3.977399e+00 2.221045e+00 2.450258e+00 1.779403e+00 1.677358e+00 3.534472e-01 3.521052e-01 3.532493e-01 4.038232e-01 3.281888e-01 6.671887e-01 6.694264e-01 6.289418e-01 6.802251e-01 4.047155e-01 4.573828e-01 3.204583e-01 2.757316e-01
<GCONST> 1.237040e+02
<TRANSP> 5
 0.000000e+00 1.000000e+00 0.000000e+00 0.000000e+00 0.000000e+00
 0.000000e+00 6.661248e-01 3.338751e-01 0.000000e+00 0.000000e+00
 0.000000e+00 0.000000e+00 6.661242e-01 3.338759e-01 0.000000e+00
 0.000000e+00 0.000000e+00 0.000000e+00 7.795050e-01 2.204950e-01
 0.000000e+00 0.000000e+00 0.000000e+00 0.000000e+00 0.000000e+00
<ENDHMM>
~h "ao"
<BEGINHMM>
<NUMSTATES> 5
<STATE> 2
<MEAN> 39
 -1.005370e+00 1.585477e+00 1.589670e+00 -5.586003e+00 -1.803112e+00 -5.951558e-01 -9.268808e+00 -1.600008e+00 -9.338992e+00 -2.358556e+00 2.474091e+00 -3.389938e+00 7.081077e+01 -3.409404e-02 -2.383484e-02 4.862661e-02 1.113389e-02 4.153067e-02 -7.601342e-03 -1.520596e-02 -6.952319e-02 -9.564114e-03 8.569067e-03 -4.610027e-03 -2.559100e-02 3.144541e-02 2.500265e-03 2.850357e-04 -4.065901e-03 -2.970297e-05 -2.569239e-03 1.694938e-04 -7.371976e-04 5.609796e-05 5.626777e-04 -1.126772e-03 -3.215967e-04 -4.572766e-04 -5.430222e-04
<VARIANCE> 39
 5.872963e+01 3.590316e+01 8.925053e+01 5.986491e+01 5.487893e+01 6.147364e+01 5.434057e+01 6.318821e+01 8.369450e+01 3.912840e+01 3.501396e+01 3.552057e+01 4.128089e+01 2.626937e+00 2.105708e+00 2.604487e+00 2.472735e+00 2.059666e+00 3.512254e+00 3.737815e+00 3.371406e+00 3.981394e+00 2.024670e+00 2.685573e+00 1.818917e+00 1.448260e+00 3.698098e-01 3.516013e-01 3.843835e-01 3.580260e-01 3.201788e-01 5.767608e-01 6.409770e-01 5.970117e-01 6.555570e-01 3.691242e-01 5.190075e-01 3.273872e-01 2.392738e-01
<GCONST> 1.239546e+02
<STATE> 3
<MEAN> 39
 -1.104967e+00 1.499879e+00 1.729406e+00 -5.564499e+00 -1.679097e+00 -6.018001e-01 -9.301545e+00 -1.807430e+00 -9.352632e+00 -2.327812e+00 2.455344e+00 -3.475675e+00 7.091469e+01 -2.502001e-02 -2.241851e-02 3.416039e-02 8.999222e-03 3.117849e-02 -5.126159e-03 -1.710129e-02 -6.622975e-02 -7.285422e-03 5.741104e-03 -7.091320e-03 -2.768701e-02 2.820490e-02 3.187072e-03 1.104222e-03 -5.415143e-03 -9.531615e-04 -4.061491e-03 4.085031e-04 -4.490869e-04 1.405316e-03 7.714658e-04 -9.629702e-04 -5.864194e-04 2.984048e-04 -1.626292e-03
<VARIANCE> 39
 5.856294e+01 3.528502e+01 8.971393e+01 5.965838e+01 5.401714e+01 6.116797e+01 5.480446e+01 6.422826e+01 8.263956e+01 3.825809e+01 3.521323e+01 3.555277e+01 4.140465e+01 2.672325e+00 2.122292e+00 2.632404e+00 2.510112e+00 2.041724e+00 3.491385e+00 3.788599e+00 3.433588e+00 3.982902e+00 2.034234e+00 2.729445e+00 1.819797e+00 1.471256e+00 3.784133e-01 3.578326e-01 3.873320e-01 3.677213e-01 3.197334e-01 5.742972e-01 6.498912e-01 6.116073e-01 6.576926e-01 3.725030e-01 5.282963e-01 3.274564e-01 2.438543e-01
<GCONST> 1.241762e+02
<STATE> 4
<MEAN> 39
 -1.089464e+00 1.502557e+00 1.806092e+00 -5.542811e+00 -1.689156e+00 -4.699610e-01 -9.367603e+00 -1.933525e+00 -9.243145e+00 -2.321475e+00 2.437823e+00 -3.560622e+00 7.092869e+01 -1.260417e-02 -2.101082e-02 1.098308e-02 -1.384091e-03 1.390985e-02 3.874095e-03 -1.127559e-02 -5.109892e-02 2.123429e-03 7.352767e-03 -1.190320e-02 -2.656876e-02 2.057336e-02 3.402480e-03 1.827440e-03 -6.187538e-03 -1.706521e-03 -4.354110e-03 9.999834e-04 2.065515e-04 2.851311e-03 1.674834e-03 8.452013e-04 -1.702866e-04 1.744554e-03 -2.576022e-03
<VARIANCE> 39
 5.729876e+01 3.395248e+01 8.963308e+01 5.894120e+01 5.252865e+01 6.215936e+01 5.540488e+01 6.487421e+01 8.028733e+01 3.672262e+01 3.519028e+01 3.569799e+01 4.188271e+01 2.657645e+00 2.113021e+00 2.592271e+00 2.520522e+00 1.991065e+00 3.476028e+00 3.763159e+00 3.457277e+00 3.909165e+00 2.043690e+00 2.752815e+00 1.826438e+00 1.481816e+00 3.775286e-01 3.589029e-01 3.799504e-01 3.744822e-01 3.168773e-01 5.694956e-01 6.450885e-01 6.197492e-01 6.470906e-01 3.751788e-01 5.342168e-01 3.299200e-01 2.463972e-01
<GCONST> 1.240197e+02
<TRANSP> 5
 0.000000e+00 1.000000e+00 0.000000e+00 0.000000e+00 0.000000e+00
 0.000000e+00 6.947290e-01 3.052711e-01 0.000000e+00 0.000000e+00
 0.000000e+00 0.000000e+00 6.947291e-01 3.052708e-01 0.000000e+00
 0.000000e+00 0.000000e+00 0.000000e+00 8.129632e-01 1.870367e-01
 0.000000e+00 0.000000e+00 0.000000e+00 0.000000e+00 0.000000e+00
<ENDHMM>
~h "aw"
<BEGINHMM>
<NUMSTATES> 5
<STATE> 2
<MEAN> 39
 3.358726e-01 8.332953e-01 1.362443e+00 -7.445018e+00 -2.347123e+00 4.970374e-02 -9.957512e+00 2.366633e-02 -8.107667e+00 -2.707572e+00 2.685469e+00 -3.759498e+00 7.198479e+01 -4.458426e-02 4.485899e-04 4.178214e-02 3.751389e-02 -1.361930e-02 3.498588e-02 -2.921102e-02 3.384589e-02 6.833685e-02 -4.872937e-02 -2.713505e-02 3.580222e-02 -2.216713e-02 -2.420834e-03 -5.386878e-04 -2.661903e-03 -8.389078e-05 2.055993e-04 5.792968e-04 -4.143231e-03 -1.802514e-03 -1.443907e-03 -2.043671e-03 3.116502e-03 9.740846e-04 -1.837798e-03
<VARIANCE> 39
 4.771556e+01 4.116876e+01 5.820275e+01 7.054252e+01 5.243802e+01 6.553957e+01 4.455838e+01 9.497110e+01 5.787753e+01 3.709323e+01 3.016905e+01 2.913809e+01 3.726302e+01 2.550472e+00 2.353079e+00 2.811745e+00 2.730003e+00 2.473485e+00 3.361020e+00 3.532699e+00 3.637245e+00 3.926145e+00 2.471464e+00 1.985490e+00 1.773825e+00 1.599777e+00 3.548180e-01 3.603198e-01 4.436680e-01 3.420952e-01 3.923834e-01 5.965200e-01 6.529166e-01 5.910147e-01 6.552989e-01 4.498177e-01 3.620234e-01 3.320575e-01 2.473171e-01
<GCONST> 1.235604e+02
<STATE> 3
<MEAN> 39
 1.948658e-01 8.314592e-01 1.506010e+00 -7.303708e+00 -2.383756e+00 1.596262e-01 -1.007685e+01 1.235469e-01 -7.898583e+00 -2.876118e+00 2.594929e+00 -3.638470e+00 7.191194e+01 -4.901115e-02 6.786246e-05 2.868193e-02 3.845963e-02 -1.427892e-02 3.559830e-02 -4.241826e-02 2.515583e-02 6.128144e-02 -5.306660e-02 -1.819839e-02 3.781096e-02 -3.060666e-02 -4.332098e-04 1.351615e-03 -5.581395e-03 -5.137483e-04 -2.949394e-04 7.721176e-04 -3.430347e-03 -3.209680e-03 -2.371592e-03 -8.751513e-04 2.789220e-03 1.033578e-04 -3.164673e-03
<VARIANCE> 39
 5.080051e+01 4.306577e+01 5.838947e+01 6.978337e+01 5.289218e+01 6.282867e+01 4.571653e+01 9.998876e+01 5.716850e+01 3.613565e+01 3.061891e+01 2.795234e+01 3.659085e+01 2.608701e+00 2.359759e+00 2.841399e+00 2.673461e+00 2.497681e+00 3.399991e+00 3.611982e+00 3.630014e+00 3.821502e+00 2.476086e+00 2.013194e+00 1.759414e+00 1.593086e+00 3.547084e-01 3.532170e-01 4.400795e-01 3.329037e-01 3.945742e-01 5.984573e-01 6.637041e-01 5.830652e-01 6.363981e-01 4.513829e-01 3.685152e-01 3.282679e-01 2.417290e-01
<GCONST> 1.235671e+02
<STATE> 4
<MEAN> 39
 -3.565929e-02 8.202446e-01 1.667950e+00 -7.198899e+00 -2.484402e+00 3.019779e-01 -1.020461e+01 1.615465e-01 -7.682015e+00 -3.134380e+00 2.561535e+00 -3.539365e+00 7.182775e+01 -4.236611e-02 6.785360e-03 2.632198e-03 4.626402e-02 -1.813072e-02 3.379507e-02 -5.318618e-02 7.608570e-03 4.786607e-02 -5.138377e-02 -1.615676e-02 3.742149e-02 -4.683277e-02 1.084100e-03 3.123035e-03 -8.154159e-03 -4.748234e-04 -1.175283e-03 7.466290e-04 -1.308411e-03 -4.653814e-03 -2.932010e-03 6.385067e-04 1.511801e-03 -8.235802e-04 -4.463556e-03
<VARIANCE> 39
 5.433823e+01 4.503756e+01 5.943753e+01 6.730570e+01 5.343144e+01 5.939180e+01 4.736352e+01 1.082789e+02 5.669733e+01 3.515662e+01 3.145725e+01 2.668754e+01 3.683371e+01 2.677423e+00 2.373057e+00 2.795618e+00 2.576017e+00 2.488623e+00 3.435253e+00 3.715961e+00 3.657622e+00 3.690546e+00 2.493071e+00 2.070729e+00 1.724561e+00 1.568632e+00 3.552478e-01 3.480820e-01 4.209877e-01 3.209949e-01 3.893585e-01 5.955938e-01 6.759059e-01 5.792387e-01 6.139268e-01 4.560439e-01 3.812986e-01 3.198920e-01 2.329649e-01
<GCONST> 1.235122e+02
<TRANSP> 5
 0.000000e+00 1.000000e+00 0.000000e+00 0.000000e+00 0.000000e+00
 0.000000e+00 6.940618e-01 3.059383e-01 0.000000e+00 0.000000e+00
 0.000000e+00 0.000000e+00 6.940617e-01 3.059383e-01 0.000000e+00
 0.000000e+00 0.000000e+00 0.000000e+00 8.116900e-01 1.883100e-01
 0.000000e+00 0.000000e+00 0.000000e+00 0.000000e+00 0.000000e+00
<ENDHMM>
~h "ax"
<BEGINHMM>
<NUMSTATES> 5
<STATE> 2
<MEAN> 39
 -1.183406e+00 5.253230e-01 8.595599e-01 -4.781070e+00 -8.645567e-01 6.647741e-01 -9.633542e+00 -3.013241e+00 -9.094431e+00 -9.924718e-01 2.526106e+00 -3.926038e+00 7.104031e+01 9.439889e-03 1.181463e-02 -9.863215e-03 -1.659879e-02 5.996072e-04 4.314850e-04 3.542068e-03 1.022587e-02 -9.243133e-03 -9.852403e-04 1.128984e-02 -2.394620e-03 -6.399428e-03 -1.269777e-03 -1.218725e-04 -2.263122e-04 3.658918e-04 2.171473e-04 1.045907e-03 1.080707e-03 -1.701007e-04 1.030592e-03 -6.359768e-05 -5.559426e-04 5.574061e-05 -6.409393e-04
<VARIANCE> 39
 5.646641e+01 3.077814e+01 1.080572e+02 6.103157e+01 4.263909e+01 6.157661e+01 6.347438e+01 7.287627e+01 7.453177e+01 3.683531e+01 3.636639e+01 3.715929e+01 4.663167e+01 2.786872e+00 1.868599e+00 2.597441e+00 2.507736e+00 1.841819e+00 3.290179e+00 3.946328e+00 3.816801e+00 3.845561e+00 2.207183e+00 2.360571e+00 1.775529e+00 1.528806e+00 4.210284e-01 3.159919e-01 4.130744e-01 3.761554e-01 3.092444e-01 5.581589e-01 6.940387e-01 7.019953e-01 6.481760e-01 3.930350e-01 4.265178e-01 3.265229e-01 2.581910e-01
<GCONST> 1.241994e+02
<STATE> 3
<MEAN> 39
 -1.168633e+00 5.572943e-01 8.305751e-01 -4.839123e+00 -8.630590e-01 6.752274e-01 -9.616596e+00 -2.976913e+00 -9.109800e+00 -9.953457e-01 2.559469e+00 -3.931421e+00 7.101908e+01 4.666515e-03 1.098778e-02 -9.379568e-03 -1.489199e-02 2.501464e-03 4.113613e-03 7.232434e-03 9.573230e-03 -4.906455e-03 -7.966186e-04 9.375719e-03 -1.470167e-03 -7.532924e-03 -1.379812e-03 -4.126316e-04 8.570322e-05 5.635629e-04 6.637278e-04 1.349001e-03 1.289770e-03 5.662900e-05 1.625545e-03 2.927305e-04 -3.365138e-04 5.843727e-04 -3.261636e-04
<VARIANCE> 39
 5.649583e+01 3.075307e+01 1.071390e+02 6.125750e+01 4.266961e+01 6.147268e+01 6.315211e+01 7.250304e+01 7.494355e+01 3.693879e+01 3.650303e+01 3.697686e+01 4.642918e+01 2.767030e+00 1.854565e+00 2.591367e+00 2.520992e+00 1.844955e+00 3.300884e+00 3.949721e+00 3.811323e+00 3.844589e+00 2.222886e+00 2.360282e+00 1.769948e+00 1.516606e+00 4.172991e-01 3.134301e-01 4.123207e-01 3.776670e-01 3.105104e-01 5.621619e-01 6.951725e-01 7.022520e-01 6.472598e-01 3.951595e-01 4.275401e-01 3.259212e-01 2.562927e-01
<GCONST> 1.241696e+02
<STATE> 4
<MEAN> 39
 -1.160221e+00 6.070935e-01 7.096413e-01 -4.939823e+00 -9.185461e-01 7.361077e-01 -9.529322e+00 -2.864305e+00 -9.065418e+00 -9.949492e-01 2.587018e+00 -3.869710e+00 7.094717e+01 -3.297631e-03 7.655472e-03 -6.513460e-03 -1.355824e-02 6.528136e-03 1.021973e-02 1.229951e-02 1.029820e-02 2.715299e-03 8.020885e-04 7.424317e-03 1.924090e-03 -7.175018e-03 -1.298447e-03 -8.278494e-04 2.697636e-04 6.604840e-04 7.283113e-04 1.234013e-03 1.024338e-03 1.655433e-04 1.561658e-03 4.592236e-04 -3.251866e-04 1.187730e-03 -9.838863e-05
<VARIANCE> 39
 5.677601e+01 3.058489e+01 1.061701e+02 6.163116e+01 4.307715e+01 6.113577e+01 6.263522e+01 7.215683e+01 7.570484e+01 3.705326e+01 3.664578e+01 3.674913e+01 4.638629e+01 2.743232e+00 1.829442e+00 2.599832e+00 2.526231e+00 1.852746e+00 3.281200e+00 3.923464e+00 3.781664e+00 3.826054e+00 2.234607e+00 2.357308e+00 1.755094e+00 1.496572e+00 4.123385e-01 3.092360e-01 4.138882e-01 3.789304e-01 3.127384e-01 5.610552e-01 6.906683e-01 6.964824e-01 6.424996e-01 3.972225e-01 4.281045e-01 3.234620e-01 2.525959e-01
<GCONST> 1.240605e+02
<TRANSP> 5
 0.000000e+00 1.000000e+00 0.000000e+00 0.000000e+00 0.000000e+00
 0.000000e+00 6.769341e-01 3.230659e-01 0.000000e+00 0.000000e+00
 0.000000e+00 0.000000e+00 6.769349e-01 3.230651e-01 0.000000e+00
 0.000000e+00 0.000000e+00 0.000000e+00 7.917358e-01 2.082642e-01
 0.000000e+00 0.000000e+00 0.000000e+00 0.000000e+00 0.000000e+00
<ENDHMM>
~h "ay"
<BEGINHMM>
<NUMSTATES> 5
<STATE> 2
<MEAN> 39
 -6.915346e-01 1.500503e-01 -1.189555e+00 -3.663338e+00 -6.573406e-02 1.833680e+00 -1.032628e+01 -1.525546e+00 -7.844204e+00 1.722209e-01 2.727819e+00 -3.052644e+00 6.948312e+01 -1.170163e-02 4.135387e-03 1.485091e-02 2.011494e-02 -7.575487e-03 2.661003e-02 2.500162e-02 1.403662e-02 5.605632e-03 -2.561034e-02 1.884031e-02 2.906002e-02 2.924249e-03 2.095863e-03 5.327373e-03 -7.428830e-03 -1.301397e-03 -1.610473e-03 -9.945432e-04 9.972909e-04 -5.591296e-04 -2.163016e-03 -4.824585e-03 -1.664393e-03 1.264020e-03 -2.486800e-03
<VARIANCE> 39
 3.927186e+01 2.694354e+01 1.166667e+02 5.114482e+01 2.729947e+01 6.652209e+01 7.307350e+01 6.316593e+01 6.528875e+01 3.819772e+01 3.681347e+01 3.452678e+01 5.801799e+01 1.866102e+00 1.392133e+00 2.519959e+00 2.307424e+00 1.524892e+00 3.126808e+00 3.607227e+00 3.075493e+00 3.082036e+00 2.214806e+00 2.341656e+00 1.738218e+00 1.277075e+00 2.763239e-01 2.195583e-01 3.919119e-01 3.826837e-01 2.665496e-01 5.277969e-01 6.254374e-01 5.605689e-01 5.775387e-01 3.735194e-01 4.342296e-01 3.139895e-01 2.025414e-01
<GCONST> 1.197274e+02
<STATE> 3
<MEAN> 39
 -7.030251e-01 1.978988e-01 -1.190602e+00 -3.602602e+00 -1.060975e-01 1.899302e+00 -1.026891e+01 -1.517424e+00 -7.847875e+00 7.102703e-02 2.777759e+00 -2.952940e+00 6.947615e+01 -6.558534e-03 1.532549e-02 -6.443212e-04 1.002459e-02 -1.770461e-02 1.595157e-02 2.297002e-02 7.969799e-03 1.693007e-03 -3.507902e-02 1.527931e-02 2.839923e-02 6.318240e-04 2.501585e-03 2.198669e-03 -3.554067e-03 -4.029084e-03 -3.789356e-03 -4.051878e-03 -2.010305e-03 -2.463298e-03 -2.647889e-03 -2.680774e-03 -1.715222e-03 -1.363739e-03 -4.505673e-04
<VARIANCE> 39
 3.994394e+01 2.683631e+01 1.164561e+02 5.105975e+01 2.781201e+01 6.801703e+01 7.331920e+01 6.328693e+01 6.661457e+01 3.860286e+01 3.722805e+01 3.546395e+01 5.802444e+01 1.850887e+00 1.376663e+00 2.489774e+00 2.316323e+00 1.559842e+00 3.148232e+00 3.578665e+00 3.087820e+00 3.081797e+00 2.268572e+00 2.313312e+00 1.726127e+00 1.281600e+00 2.740828e-01 2.164961e-01 3.850295e-01 3.849483e-01 2.729879e-01 5.325710e-01 6.221823e-01 5.630902e-01 5.747987e-01 3.828779e-01 4.292968e-01 3.106956e-01 2.025683e-01
<GCONST> 1.198543e+02
<STATE> 4
<MEAN> 39
 -5.790160e-01 3.180333e-01 -1.041285e+00 -3.715942e+00 -2.240460e-01 1.867251e+00 -1.038417e+01 -1.589869e+00 -8.096258e+00 -6.110531e-02 2.945276e+00 -2.868829e+00 6.962076e+01 1.165388e-03 1.874023e-02 1.737486e-03 -4.295056e-03 -2.825085e-02 -2.051862e-03 1.416150e-02 -3.962172e-03 -8.840300e-03 -2.999579e-02 1.383536e-02 2.118099e-02 5.969991e-03 2.175037e-03 -7.594879e-04 7.146530e-04 -4.623672e-03 -3.248958e-03 -4.803634e-03 -2.541861e-03 -1.951120e-03 -3.808650e-03 1.869141e-04 -1.407170e-03 -3.583997e-03 1.261020e-03
<VARIANCE> 39
 4.017507e+01 2.719717e+01 1.136558e+02 5.268998e+01 2.848216e+01 6.928785e+01 7.387518e+01 6.461216e+01 7.016247e+01 3.927845e+01 3.811894e+01 3.669239e+01 5.776801e+01 1.825024e+00 1.386962e+00 2.485933e+00 2.356383e+00 1.585586e+00 3.159742e+00 3.563975e+00 3.142152e+00 3.133934e+00 2.348882e+00 2.291357e+00 1.725383e+00 1.300991e+00 2.697917e-01 2.145624e-01 3.824849e-01 3.869346e-01 2.767330e-01 5.337253e-01 6.205141e-01 5.677566e-01 5.809518e-01 3.974870e-01 4.223260e-01 3.081315e-01 2.028072e-01
<GCONST> 1.201923e+02
<TRANSP> 5
 0.000000e+00 1.000000e+00 0.000000e+00 0.000000e+00 0.000000e+00
 0.000000e+00 6.842237e-01 3.157762e-01 0.000000e+00 0.000000e+00
 0.000000e+00 0.000000e+00 6.842244e-01 3.157756e-01 0.000000e+00
 0.000000e+00 0.000000e+00 0.000000e+00 8.008565e-01 1.991435e-01
 0.000000e+00 0.000000e+00 0.000000e+00 0.000000e+00 0.000000e+00
<ENDHMM>
~h "ch"
<BEGINHMM>
<NUMSTATES> 5
<STATE> 2
<MEAN> 39
 -3.035924e+00 -7.873222e-01 3.293560e-01 -1.985237e+00 -1.798394e+00 1.744307e+00 -6.623390e+00 -1.478424e+00 -6.818006e+00 -8.221827e-01 1.638942e+00 -2.992694e+00 6.960607e+01 4.211983e-02 5.065563e-02 -5.445781e-02 -3.540663e-02 -4.097149e-03 6.422593e-02 -4.847852e-02 -1.184660e-02 1.977078e-03 -1.757270e-02 -3.830352e-02 2.158759e-02 -4.513112e-02 -7.162449e-04 -4.780406e-03 4.056389e-03 7.263043e-04 2.886208e-03 -8.010239e-03 -8.234301e-03 -2.559043e-03 8.249512e-04 2.616394e-03 4.182774e-03 -6.156554e-03 4.850558e-03
<VARIANCE> 39
 6.326982e+01 3.917137e+01 1.490442e+02 4.059338e+01 3.228850e+01 5.538767e+01 6.130955e+01 4.464307e+01 5.569061e+01 3.864061e+01 2.791416e+01 2.970233e+01 6.156436e+01 3.078805e+00 1.788720e+00 2.332281e+00 1.695161e+00 1.646018e+00 3.898644e+00 3.590561e+00 3.179871e+00 3.351834e+00 2.055846e+00 1.880858e+00 1.462906e+00 1.413893e+00 4.090172e-01 2.803364e-01 3.251721e-01 2.479494e-01 2.791763e-01 6.887392e-01 5.729242e-01 5.824010e-01 5.428164e-01 3.857106e-01 3.386458e-01 2.793353e-01 2.261932e-01
<GCONST> 1.199439e+02
<STATE> 3
<MEAN> 39
 -2.896409e+00 -6.462485e-01 1.712194e-01 -2.084092e+00 -1.797719e+00 1.907832e+00 -6.818557e+00 -1.528553e+00 -6.820475e+00 -8.648630e-01 1.539757e+00 -2.953609e+00 6.948045e+01 3.892061e-02 3.448511e-02 -3.844656e-02 -3.272282e-02 4.741665e-03 3.733145e-02 -7.260267e-02 -2.079950e-02 6.024625e-04 -1.121736e-02 -2.494667e-02 2.647118e-03 -2.833401e-02 -1.275736e-03 -5.999178e-03 5.995178e-03 1.621440e-03 2.024565e-03 -9.737354e-03 -7.002678e-03 -2.431580e-03 -7.655758e-04 2.218301e-03 4.331913e-03 -5.991051e-03 5.772880e-03
<VARIANCE> 39
 6.165035e+01 3.628040e+01 1.526111e+02 4.061377e+01 3.170866e+01 5.446577e+01 6.233691e+01 4.421108e+01 5.522011e+01 3.862348e+01 2.804384e+01 2.965339e+01 6.209113e+01 3.022945e+00 1.766878e+00 2.341995e+00 1.709849e+00 1.654360e+00 3.818164e+00 3.616694e+00 3.136785e+00 3.318232e+00 2.059609e+00 1.899613e+00 1.433116e+00 1.395060e+00 4.017484e-01 2.764053e-01 3.284547e-01 2.501462e-01 2.805410e-01 6.646956e-01 5.736011e-01 5.711271e-01 5.355624e-01 3.843405e-01 3.434551e-01 2.744546e-01 2.226072e-01
<GCONST> 1.196690e+02
<STATE> 4
<MEAN> 39
 -2.764036e+00 -5.771326e-01 2.472540e-01 -2.149564e+00 -1.837879e+00 2.011216e+00 -7.065481e+00 -1.662514e+00 -6.876192e+00 -8.891111e-01 1.495920e+00 -3.025389e+00 6.945737e+01 3.679836e-02 1.469908e-02 -1.216075e-02 -2.545022e-02 1.280761e-02 3.397566e-03 -9.605008e-02 -3.062428e-02 -1.340019e-02 -7.079877e-03 -8.144939e-03 -2.001869e-02 -6.330376e-03 -1.083608e-03 -5.708341e-03 7.210973e-03 2.263257e-03 9.384215e-04 -9.418558e-03 -4.606427e-03 -1.798028e-03 -2.907006e-03 1.446867e-03 3.975071e-03 -5.296595e-03 5.973086e-03
<VARIANCE> 39
 6.012389e+01 3.378466e+01 1.554230e+02 4.111118e+01 3.136770e+01 5.309855e+01 6.357582e+01 4.416177e+01 5.530473e+01 3.745680e+01 2.841470e+01 3.018606e+01 6.147750e+01 3.008522e+00 1.766246e+00 2.438952e+00 1.771318e+00 1.702899e+00 3.680248e+00 3.674325e+00 3.147698e+00 3.335911e+00 2.087085e+00 1.954643e+00 1.438902e+00 1.389812e+00 4.016691e-01 2.773972e-01 3.467667e-01 2.596632e-01 2.911312e-01 6.348919e-01 5.806844e-01 5.711975e-01 5.329303e-01 3.906535e-01 3.570845e-01 2.757109e-01 2.230165e-01
<GCONST> 1.198620e+02
<TRANSP> 5
 0.000000e+00 1.000000e+00 0.000000e+00 0.000000e+00 0.000000e+00
 0.000000e+00 6.845760e-01 3.154240e-01 0.000000e+00 0.000000e+00
 0.000000e+00 0.000000e+00 6.845762e-01 3.154238e-01 0.000000e+00
 0.000000e+00 0.000000e+00 0.000000e+00 7.987559e-01 2.012440e-01
 0.000000e+00 0.000000e+00 0.000000e+00 0.000000e+00 0.000000e+00
<ENDHMM>
~h "dh"
<BEGINHMM>
<NUMSTATES> 5
<STATE> 2
<MEAN> 39
 -1.023369e+00 1.230788e+00 -1.382171e+00 -4.004831e+00 -1.608528e+00 1.388990e+00 -8.669855e+00 -1.723489e+00 -7.814511e+00 -6.552991e-01 1.479158e+00 -2.692069e+00 6.923975e+01 2.092111e-02 9.922752e-03 -1.856459e-02 8.036197e-03 3.702880e-03 7.726965e-03 5.872128e-03 2.522707e-02 3.539971e-02 -6.412632e-03 -1.075648e-02 1.694713e-02 -1.449463e-02 -6.487138e-04 5.889960e-05 2.370102e-04 -1.088639e-03 1.454234e-03 6.486900e-03 1.363092e-03 4.129688e-03 9.942628e-04 2.105236e-03 2.238581e-03 -1.140423e-03 -3.289691e-03
<VARIANCE> 39
 5.084139e+01 2.656729e+01 1.338091e+02 5.449172e+01 3.941776e+01 5.537677e+01 5.959322e+01 6.459108e+01 6.591691e+01 3.523877e+01 3.117133e+01 3.434602e+01 5.444346e+01 2.334054e+00 1.581824e+00 2.382353e+00 2.030048e+00 1.701658e+00 2.997047e+00 3.681969e+00 3.580582e+00 3.396016e+00 1.990003e+00 2.056119e+00 1.684185e+00 1.377766e+00 3.502582e-01 2.744482e-01 3.951083e-01 3.230881e-01 2.859617e-01 5.139444e-01 6.614698e-01 6.636373e-01 5.816474e-01 3.711711e-01 3.716296e-01 3.181423e-01 2.402823e-01
<GCONST> 1.207762e+02
<STATE> 3
<MEAN> 39
 -9.575062e-01 1.250011e+00 -1.423397e+00 -3.999393e+00 -1.593404e+00 1.442433e+00 -8.666465e+00 -1.618015e+00 -7.711179e+00 -6.776230e-01 1.472146e+00 -2.647975e+00 6.918780e+01 1.925188e-02 2.852448e-03 -1.211728e-02 4.683185e-03 8.116523e-03 1.990399e-02 3.802391e-04 3.240477e-02 3.188746e-02 -4.050582e-03 -2.246383e-03 1.210558e-02 -1.768514e-02 -5.562478e-04 -2.152976e-03 1.919081e-03 -9.785333e-04 1.128295e-03 3.712391e-03 -1.823278e-03 1.442835e-03 -1.402589e-03 7.968610e-04 1.961336e-03 -1.841158e-03 -7.334915e-04
<VARIANCE> 39
 4.952223e+01 2.613224e+01 1.318045e+02 5.470039e+01 3.935685e+01 5.546024e+01 6.040158e+01 6.447427e+01 6.561392e+01 3.517811e+01 3.142058e+01 3.433064e+01 5.401458e+01 2.294148e+00 1.559692e+00 2.388111e+00 2.051865e+00 1.706484e+00 2.993625e+00 3.676093e+00 3.561862e+00 3.365293e+00 1.971247e+00 2.042681e+00 1.682904e+00 1.381207e+00 3.456846e-01 2.682135e-01 3.956100e-01 3.256530e-01 2.871923e-01 5.111976e-01 6.560338e-01 6.627939e-01 5.769024e-01 3.692958e-01 3.674556e-01 3.184789e-01 2.395911e-01
<GCONST> 1.206164e+02
<STATE> 4
<MEAN> 39
 -8.374042e-01 1.263459e+00 -1.620836e+00 -4.002510e+00 -1.644575e+00 1.666503e+00 -8.654007e+00 -1.401687e+00 -7.554061e+00 -7.058885e-01 1.421387e+00 -2.525378e+00 6.900762e+01 1.351444e-02 -5.966773e-03 -5.500746e-03 -5.876204e-03 1.081925e-02 2.783374e-02 -1.283198e-02 2.268465e-02 1.927011e-02 -1.013400e-03 6.994389e-03 5.538623e-03 -1.204486e-02 -1.347077e-03 -1.585192e-03 6.638106e-04 -1.297384e-03 6.677455e-04 1.855102e-03 -1.769155e-03 -2.490151e-03 -2.280455e-03 1.400689e-03 1.338554e-03 -1.305855e-03 7.615460e-04
<VARIANCE> 39
 4.744683e+01 2.535289e+01 1.297762e+02 5.465300e+01 3.897534e+01 5.490172e+01 6.145472e+01 6.363562e+01 6.464468e+01 3.484868e+01 3.149864e+01 3.398725e+01 5.379601e+01 2.208764e+00 1.499130e+00 2.435668e+00 2.077482e+00 1.710980e+00 2.920758e+00 3.659157e+00 3.509405e+00 3.310754e+00 1.945185e+00 2.010803e+00 1.678165e+00 1.370196e+00 3.333252e-01 2.556071e-01 4.018998e-01 3.302878e-01 2.892171e-01 4.955057e-01 6.449459e-01 6.563873e-01 5.661429e-01 3.670220e-01 3.599498e-01 3.187473e-01 2.336943e-01
<GCONST> 1.201570e+02
<TRANSP> 5
 0.000000e+00 1.000000e+00 0.000000e+00 0.000000e+00 0.000000e+00
 0.000000e+00 6.832893e-01 3.167106e-01 0.000000e+00 0.000000e+00
 0.000000e+00 0.000000e+00 6.832899e-01 3.167101e-01 0.000000e+00
 0.000000e+00 0.000000e+00 0.000000e+00 7.996125e-01 2.003875e-01
 0.000000e+00 0.000000e+00 0.000000e+00 0.000000e+00 0.000000e+00
<ENDHMM>
~h "ea"
<BEGINHMM>
<NUMSTATES> 5
<STATE> 2
<MEAN> 39
 -5.388224e-01 1.158740e+00 -6.415033e+00 -1.963419e+00 -1.041179e+00 4.315927e+00 -7.309398e+00 -3.481804e-02 -4.748271e+00 1.773688e+00 1.056482e+00 -1.715391e+00 6.603334e+01 1.251461e-02 -1.057464e-01 5.482619e-02 6.690166e-02 -5.422746e-02 6.118257e-02 5.431708e-02 7.963169e-02 4.928879e-02 2.344766e-02 1.264978e-02 2.022816e-03 6.217122e-04 6.604159e-03 4.591609e-03 -6.446573e-03 -4.535304e-03 -2.794763e-03 -5.084053e-03 -2.586687e-03 -9.998788e-03 -1.390399e-02 5.077959e-05 1.875327e-03 8.435442e-04 -1.644938e-04
<VARIANCE> 39
 3.404469e+01 2.429391e+01 1.285614e+02 3.724659e+01 2.146103e+01 3.318465e+01 5.815392e+01 3.727446e+01 4.197932e+01 1.957693e+01 3.290164e+01 2.916608e+01 6.465647e+01 1.490405e+00 1.130608e+00 2.334670e+00 1.403731e+00 1.461527e+00 1.691852e+00 2.234344e+00 2.441037e+00 2.176161e+00 1.476442e+00 1.439161e+00 1.226419e+00 8.580034e-01 2.227170e-01 2.024003e-01 3.274226e-01 2.491582e-01 2.611846e-01 2.782511e-01 4.119982e-01 4.783517e-01 3.908632e-01 2.677460e-01 2.505482e-01 2.460353e-01 1.502308e-01
<GCONST> 1.079681e+02
<STATE> 3
<MEAN> 39
 -4.633637e-01 8.636546e-01 -6.300088e+00 -1.734250e+00 -1.230869e+00 4.461159e+00 -7.101970e+00 1.835417e-01 -4.629484e+00 1.852967e+00 1.077099e+00 -1.722128e+00 6.602252e+01 3.037496e-02 -8.192269e-02 2.824496e-02 5.179303e-02 -6.147540e-02 3.684051e-02 5.393700e-02 4.801992e-02 1.629994e-02 1.934919e-02 1.410096e-02 5.991426e-03 -1.253209e-03 5.618167e-03 8.603380e-03 -1.021173e-02 -3.732068e-03 -2.597713e-03 -7.807043e-03 4.129337e-04 -9.386566e-03 -9.264224e-03 -1.494276e-03 -5.989893e-04 2.503371e-03 -1.780359e-03
<VARIANCE> 39
 3.076159e+01 2.357461e+01 1.262943e+02 3.645698e+01 2.126762e+01 3.272737e+01 5.890507e+01 3.550772e+01 3.893710e+01 1.835686e+01 3.205337e+01 2.819947e+01 6.467119e+01 1.382980e+00 1.136699e+00 2.370821e+00 1.367391e+00 1.437762e+00 1.646445e+00 2.102800e+00 2.371480e+00 2.037019e+00 1.424654e+00 1.370631e+00 1.198997e+00 8.483571e-01 2.073473e-01 2.029534e-01 3.383647e-01 2.411005e-01 2.583781e-01 2.771505e-01 3.839802e-01 4.656835e-01 3.608899e-01 2.612629e-01 2.446603e-01 2.405140e-01 1.464832e-01
<GCONST> 1.067848e+02
<STATE> 4
<MEAN> 39
 -2.601947e-01 7.482321e-01 -6.624858e+00 -1.391885e+00 -1.515413e+00 4.638153e+00 -6.711663e+00 3.982458e-01 -4.535567e+00 1.951453e+00 9.722670e-01 -1.580502e+00 6.570127e+01 4.375413e-02 -4.479225e-02 -2.119741e-03 3.831352e-02 -7.024606e-02 1.063020e-02 5.885746e-02 1.995829e-02 -8.149098e-03 1.496787e-03 9.854914e-06 1.433306e-02 -8.724764e-03 3.565298e-03 8.908580e-03 -7.132564e-03 -2.304232e-03 -8.601290e-05 -3.723917e-03 3.908176e-04 -3.994001e-03 -3.746801e-03 -2.884581e-03 -1.179276e-03 3.710835e-03 -2.174874e-03
<VARIANCE> 39
 2.483387e+01 2.247219e+01 1.197260e+02 3.395530e+01 2.164643e+01 3.180190e+01 5.867517e+01 3.303815e+01 3.564321e+01 1.588407e+01 3.087214e+01 2.653732e+01 6.285393e+01 1.170506e+00 1.108655e+00 2.358954e+00 1.261900e+00 1.413317e+00 1.611220e+00 1.976784e+00 2.267856e+00 1.923298e+00 1.307003e+00 1.283743e+00 1.154655e+00 7.852356e-01 1.777587e-01 1.981582e-01 3.481329e-01 2.194983e-01 2.540321e-01 2.840900e-01 3.588156e-01 4.466606e-01 3.383373e-01 2.436045e-01 2.353916e-01 2.317100e-01 1.312667e-01
<GCONST> 1.045399e+02
<TRANSP> 5
 0.000000e+00 1.000000e+00 0.000000e+00 0.000000e+00 0.000000e+00
 0.000000e+00 6.905401e-01 3.094599e-01 0.000000e+00 0.000000e+00
 0.000000e+00 0.000000e+00 6.905401e-01 3.094599e-01 0.000000e+00
 0.000000e+00 0.000000e+00 0.000000e+00 8.063875e-01 1.936125e-01
 0.000000e+00 0.000000e+00 0.000000e+00 0.000000e+00 0.000000e+00
<ENDHMM>
~h "eh"
<BEGINHMM>
<NUMSTATES> 5
<STATE> 2
<MEAN> 39
 -2.253369e+00 -1.237197e-01 1.515528e+00 -5.849711e+00 1.254929e+00 4.132780e-01 -1.084415e+01 -3.608007e+00 -1.006010e+01 -3.034776e-01 3.348260e+00 -4.560928e+00 7.200510e+01 1.424992e-02 -1.654334e-02 -9.796335e-04 -1.263189e-02 -3.318117e-03 -8.271645e-03 1.000026e-03 -9.405046e-03 -1.216888e-02 2.592883e-02 1.361129e-02 -2.786176e-02 1.960500e-02 2.255137e-03 1.354438e-03 7.646043e-05 2.998797e-03 -3.075984e-03 2.600173e-03 2.764241e-03 -4.360472e-04 7.188209e-04 -7.782191e-04 -2.420824e-03 1.161238e-03 -1.373759e-03
<VARIANCE> 39
 6.300583e+01 2.950565e+01 9.935260e+01 6.119416e+01 3.248000e+01 6.356115e+01 6.573644e+01 5.633750e+01 8.490709e+01 3.412478e+01 3.989714e+01 4.199610e+01 4.438344e+01 2.990469e+00 1.984053e+00 2.784796e+00 2.645808e+00 1.936246e+00 3.677512e+00 3.798599e+00 3.196167e+00 3.653507e+00 2.388873e+00 2.724571e+00 1.769793e+00 1.874952e+00 4.092269e-01 3.460311e-01 4.459364e-01 4.136830e-01 3.548323e-01 6.311164e-01 6.698548e-01 5.746554e-01 6.050421e-01 4.328054e-01 4.884471e-01 3.052829e-01 3.073328e-01
<GCONST> 1.250425e+02
<STATE> 3
<MEAN> 39
 -2.198972e+00 -1.664761e-01 1.514284e+00 -5.863503e+00 1.229856e+00 4.029618e-01 -1.082417e+01 -3.637345e+00 -1.008866e+01 -2.274440e-01 3.371590e+00 -4.637807e+00 7.205278e+01 1.835339e-02 -1.070881e-02 -1.670864e-03 -3.053720e-03 -1.230356e-02 2.000678e-03 1.323450e-02 -7.945014e-03 -7.935878e-03 2.138666e-02 5.409715e-03 -2.126691e-02 1.351299e-02 1.059258e-03 2.255887e-03 -1.513582e-04 3.007331e-03 -2.671916e-03 3.358992e-03 4.557553e-03 3.234035e-04 1.660029e-03 -1.759316e-03 -2.407100e-03 2.196883e-03 -2.022455e-03
<VARIANCE> 39
 6.381996e+01 2.959904e+01 9.841834e+01 6.189614e+01 3.304753e+01 6.399324e+01 6.491715e+01 5.595752e+01 8.430811e+01 3.385057e+01 4.006214e+01 4.166945e+01 4.408302e+01 2.974270e+00 2.001497e+00 2.747930e+00 2.624521e+00 1.950381e+00 3.731623e+00 3.756704e+00 3.191849e+00 3.666097e+00 2.384263e+00 2.748861e+00 1.768656e+00 1.864769e+00 4.028945e-01 3.481825e-01 4.439444e-01 4.046578e-01 3.569208e-01 6.431346e-01 6.611241e-01 5.735840e-01 6.058545e-01 4.318426e-01 4.930952e-01 3.054639e-01 3.059207e-01
<GCONST> 1.250136e+02
<STATE> 4
<MEAN> 39
 -2.121760e+00 -1.720904e-01 1.590154e+00 -5.885961e+00 1.132013e+00 4.047275e-01 -1.072799e+01 -3.691969e+00 -1.015999e+01 -2.239647e-01 3.400832e+00 -4.745549e+00 7.212864e+01 1.985139e-02 -1.230091e-03 -4.132987e-03 1.039176e-02 -2.359385e-02 1.503335e-02 3.135808e-02 -9.793896e-04 1.266442e-03 1.307350e-02 -3.685916e-03 -6.837552e-03 2.144367e-03 -4.914033e-05 2.702587e-03 -5.645785e-04 2.277227e-03 -2.326133e-03 2.796552e-03 4.340835e-03 1.449922e-03 2.411001e-03 -2.497215e-03 -1.643638e-03 3.501616e-03 -2.508243e-03
<VARIANCE> 39
 6.537479e+01 2.977777e+01 9.672205e+01 6.228434e+01 3.410973e+01 6.478376e+01 6.347620e+01 5.564613e+01 8.414117e+01 3.363551e+01 4.046458e+01 4.122942e+01 4.312080e+01 2.989014e+00 2.022432e+00 2.732073e+00 2.586711e+00 1.984551e+00 3.816602e+00 3.704517e+00 3.207615e+00 3.699108e+00 2.369966e+00 2.788758e+00 1.767627e+00 1.847607e+00 3.993895e-01 3.485917e-01 4.446504e-01 3.927890e-01 3.623281e-01 6.602457e-01 6.515886e-01 5.763620e-01 6.091612e-01 4.292297e-01 4.995062e-01 3.065112e-01 3.031495e-01
<GCONST> 1.250533e+02
<TRANSP> 5
 0.000000e+00 1.000000e+00 0.000000e+00 0.000000e+00 0.000000e+00
 0.000000e+00 6.620075e-01 3.379925e-01 0.000000e+00 0.000000e+00
 0.000000e+00 0.000000e+00 6.620076e-01 3.379923e-01 0.000000e+00
 0.000000e+00 0.000000e+00 0.000000e+00 7.735831e-01 2.264169e-01
 0.000000e+00 0.000000e+00 0.000000e+00 0.000000e+00 0.000000e+00
<ENDHMM>
~h "er"
<BEGINHMM>
<NUMSTATES> 5
<STATE> 2
<MEAN> 39
 -1.712005e+00 6.016203e-01 1.906070e+00 -6.198652e+00 -4.079233e-01 1.034354e+00 -1.030162e+01 -4.750741e+00 -1.049025e+01 -2.460582e+00 2.939019e+00 -5.280027e+00 7.176221e+01 5.137176e-02 1.261871e-02 -1.632749e-01 9.129976e-02 -5.283548e-02 2.511353e-02 6.737909e-02 3.494943e-02 6.789431e-02 9.133052e-02 -1.633314e-02 1.243872e-02 -8.064096e-02 -2.739146e-03 -1.070200e-03 1.529711e-03 -4.833199e-03 -2.382362e-03 -3.611417e-03 7.396506e-04 9.093617e-04 -3.222563e-04 -1.221364e-04 5.025331e-03 2.974160e-03 2.554976e-03
<VARIANCE> 39
