~o
<STREAMINFO> 1 39
<VECSIZE> 39<NULLD><MFCC_D_A_0><DIAGC>
~h "proto"
<BEGINHMM>
<NUMSTATES> 5
<STATE> 2
<MEAN> 39
 -1.496791e+00 5.651507e-01 4.645613e-02 -4.467218e+00 -8.811791e-01 1.207741e+00 -9.032703e+00 -2.310568e+00 -8.334270e+00 -9.152074e-01 2.107967e+00 -3.608602e+00 7.027848e+01 2.842638e-03 -1.784954e-03 2.075349e-04 3.041466e-03 3.073909e-03 -1.188208e-03 -1.195084e-04 3.383281e-03 3.012424e-03 -1.025502e-03 -1.097057e-03 1.600157e-03 2.752885e-03 8.442655e-05 6.790730e-04 -5.874801e-04 2.906901e-04 -4.134492e-04 -1.226562e-04 -2.653869e-04 -5.714764e-04 -8.596178e-04 -2.868216e-04 -1.894485e-04 -6.058985e-05 -8.815578e-04
<VARIANCE> 39
 5.825564e+01 3.143971e+01 1.147792e+02 5.658274e+01 4.012915e+01 5.980309e+01 6.095889e+01 6.500566e+01 7.251457e+01 3.546723e+01 3.569802e+01 3.477179e+01 5.070046e+01 2.734844e+00 1.845964e+00 2.526712e+00 2.369532e+00 1.821657e+00 3.276129e+00 3.752531e+00 3.443123e+00 3.671705e+00 2.139910e+00 2.308625e+00 1.692456e+00 1.470347e+00 3.922062e-01 3.129998e-01 3.924313e-01 3.595683e-01 3.084807e-01 5.666304e-01 6.616089e-01 6.257041e-01 6.174689e-01 3.877646e-01 4.217261e-01 3.086417e-01 2.432207e-01
<GCONST> 1.229384e+02
<STATE> 3
<MEAN> 39
 -1.496791e+00 5.651507e-01 4.645613e-02 -4.467218e+00 -8.811791e-01 1.207741e+00 -9.032703e+00 -2.310568e+00 -8.334270e+00 -9.152074e-01 2.107967e+00 -3.608602e+00 7.027848e+01 2.842638e-03 -1.784954e-03 2.075349e-04 3.041466e-03 3.073909e-03 -1.188208e-03 -1.195084e-04 3.383281e-03 3.012424e-03 -1.025502e-03 -1.097057e-03 1.600157e-03 2.752885e-03 8.442655e-05 6.790730e-04 -5.874801e-04 2.906901e-04 -4.134492e-04 -1.226562e-04 -2.653869e-04 -5.714764e-04 -8.596178e-04 -2.868216e-04 -1.894485e-04 -6.058985e-05 -8.815578e-04
<VARIANCE> 39
 5.825564e+01 3.143971e+01 1.147792e+02 5.658274e+01 4.012915e+01 5.980309e+01 6.095889e+01 6.500566e+01 7.251457e+01 3.546723e+01 3.569802e+01 3.477179e+01 5.070046e+01 2.734844e+00 1.845964e+00 2.526712e+00 2.369532e+00 1.821657e+00 3.276129e+00 3.752531e+00 3.443123e+00 3.671705e+00 2.139910e+00 2.308625e+00 1.692456e+00 1.470347e+00 3.922062e-01 3.129998e-01 3.924313e-01 3.595683e-01 3.084807e-01 5.666304e-01 6.616089e-01 6.257041e-01 6.174689e-01 3.877646e-01 4.217261e-01 3.086417e-01 2.432207e-01
<GCONST> 1.229384e+02
<STATE> 4
<MEAN> 39
 -1.496791e+00 5.651507e-01 4.645613e-02 -4.467218e+00 -8.811791e-01 1.207741e+00 -9.032703e+00 -2.310568e+00 -8.334270e+00 -9.152074e-01 2.107967e+00 -3.608602e+00 7.027848e+01 2.842638e-03 -1.784954e-03 2.075349e-04 3.041466e-03 3.073909e-03 -1.188208e-03 -1.195084e-04 3.383281e-03 3.012424e-03 -1.025502e-03 -1.097057e-03 1.600157e-03 2.752885e-03 8.442655e-05 6.790730e-04 -5.874801e-04 2.906901e-04 -4.134492e-04 -1.226562e-04 -2.653869e-04 -5.714764e-04 -8.596178e-04 -2.868216e-04 -1.894485e-04 -6.058985e-05 -8.815578e-04
<VARIANCE> 39
 5.825564e+01 3.143971e+01 1.147792e+02 5.658274e+01 4.012915e+01 5.980309e+01 6.095889e+01 6.500566e+01 7.251457e+01 3.546723e+01 3.569802e+01 3.477179e+01 5.070046e+01 2.734844e+00 1.845964e+00 2.526712e+00 2.369532e+00 1.821657e+00 3.276129e+00 3.752531e+00 3.443123e+00 3.671705e+00 2.139910e+00 2.308625e+00 1.692456e+00 1.470347e+00 3.922062e-01 3.129998e-01 3.924313e-01 3.595683e-01 3.084807e-01 5.666304e-01 6.616089e-01 6.257041e-01 6.174689e-01 3.877646e-01 4.217261e-01 3.086417e-01 2.432207e-01
<GCONST> 1.229384e+02
<TRANSP> 5
 0.000000e+00 1.000000e+00 0.000000e+00 0.000000e+00 0.000000e+00
 0.000000e+00 6.000000e-01 4.000000e-01 0.000000e+00 0.000000e+00
 0.000000e+00 0.000000e+00 6.000000e-01 4.000000e-01 0.000000e+00
 0.000000e+00 0.000000e+00 0.000000e+00 7.000000e-01 3.000000e-01
 0.000000e+00 0.000000e+00 0.000000e+00 0.000000e+00 0.000000e+00
<ENDHMM>
