~o
<STREAMINFO> 1 39
<VECSIZE> 39<NULLD><MFCC_D_A_0><DIAGC>
~h "proto"
<BEGINHMM>
<NUMSTATES> 5
<STATE> 2
<MEAN> 39
 -7.590463e+00 2.066061e+00 -3.670085e+00 2.731313e+00 -1.466006e+00 4.292401e+00 -1.468786e+01 -4.757072e+00 -1.155233e+01 -2.003798e+00 -7.450695e-01 -6.593053e-01 5.728123e+01 1.130271e-02 1.025316e-02 1.678078e-02 1.098681e-02 1.825557e-02 1.436874e-02 1.121238e-02 5.168649e-03 5.188090e-03 1.164607e-03 -1.735137e-03 -1.614114e-03 9.450332e-03 1.492438e-03 2.425642e-03 1.763017e-03 2.553626e-03 2.559638e-03 2.318079e-03 7.400622e-04 1.634009e-04 -1.073263e-03 -6.767902e-04 -3.512538e-04 -4.792492e-04 1.514422e-04
<VARIANCE> 39
 7.963066e+01 5.686776e+01 9.125359e+01 5.740467e+01 4.962001e+01 4.655993e+01 8.590223e+01 6.028886e+01 5.253819e+01 3.138057e+01 2.826029e+01 2.583983e+01 5.765445e+01 2.365398e+00 3.212549e+00 2.570335e+00 2.740305e+00 2.189513e+00 2.827119e+00 4.198768e+00 2.739911e+00 2.604823e+00 1.900969e+00 1.859952e+00 1.671665e+00 1.505291e+00 3.033747e-01 4.900036e-01 3.925376e-01 4.265544e-01 3.716792e-01 5.012808e-01 6.784663e-01 4.811691e-01 4.618578e-01 3.491957e-01 3.484654e-01 3.089631e-01 2.511909e-01
<GCONST> 1.224731e+02
<STATE> 3
<MEAN> 39
 -7.590463e+00 2.066061e+00 -3.670085e+00 2.731313e+00 -1.466006e+00 4.292401e+00 -1.468786e+01 -4.757072e+00 -1.155233e+01 -2.003798e+00 -7.450695e-01 -6.593053e-01 5.728123e+01 1.130271e-02 1.025316e-02 1.678078e-02 1.098681e-02 1.825557e-02 1.436874e-02 1.121238e-02 5.168649e-03 5.188090e-03 1.164607e-03 -1.735137e-03 -1.614114e-03 9.450332e-03 1.492438e-03 2.425642e-03 1.763017e-03 2.553626e-03 2.559638e-03 2.318079e-03 7.400622e-04 1.634009e-04 -1.073263e-03 -6.767902e-04 -3.512538e-04 -4.792492e-04 1.514422e-04
<VARIANCE> 39
 7.963066e+01 5.686776e+01 9.125359e+01 5.740467e+01 4.962001e+01 4.655993e+01 8.590223e+01 6.028886e+01 5.253819e+01 3.138057e+01 2.826029e+01 2.583983e+01 5.765445e+01 2.365398e+00 3.212549e+00 2.570335e+00 2.740305e+00 2.189513e+00 2.827119e+00 4.198768e+00 2.739911e+00 2.604823e+00 1.900969e+00 1.859952e+00 1.671665e+00 1.505291e+00 3.033747e-01 4.900036e-01 3.925376e-01 4.265544e-01 3.716792e-01 5.012808e-01 6.784663e-01 4.811691e-01 4.618578e-01 3.491957e-01 3.484654e-01 3.089631e-01 2.511909e-01
<GCONST> 1.224731e+02
<STATE> 4
<MEAN> 39
 -7.590463e+00 2.066061e+00 -3.670085e+00 2.731313e+00 -1.466006e+00 4.292401e+00 -1.468786e+01 -4.757072e+00 -1.155233e+01 -2.003798e+00 -7.450695e-01 -6.593053e-01 5.728123e+01 1.130271e-02 1.025316e-02 1.678078e-02 1.098681e-02 1.825557e-02 1.436874e-02 1.121238e-02 5.168649e-03 5.188090e-03 1.164607e-03 -1.735137e-03 -1.614114e-03 9.450332e-03 1.492438e-03 2.425642e-03 1.763017e-03 2.553626e-03 2.559638e-03 2.318079e-03 7.400622e-04 1.634009e-04 -1.073263e-03 -6.767902e-04 -3.512538e-04 -4.792492e-04 1.514422e-04
<VARIANCE> 39
 7.963066e+01 5.686776e+01 9.125359e+01 5.740467e+01 4.962001e+01 4.655993e+01 8.590223e+01 6.028886e+01 5.253819e+01 3.138057e+01 2.826029e+01 2.583983e+01 5.765445e+01 2.365398e+00 3.212549e+00 2.570335e+00 2.740305e+00 2.189513e+00 2.827119e+00 4.198768e+00 2.739911e+00 2.604823e+00 1.900969e+00 1.859952e+00 1.671665e+00 1.505291e+00 3.033747e-01 4.900036e-01 3.925376e-01 4.265544e-01 3.716792e-01 5.012808e-01 6.784663e-01 4.811691e-01 4.618578e-01 3.491957e-01 3.484654e-01 3.089631e-01 2.511909e-01
<GCONST> 1.224731e+02
<TRANSP> 5
 0.000000e+00 1.000000e+00 0.000000e+00 0.000000e+00 0.000000e+00
 0.000000e+00 6.000000e-01 4.000000e-01 0.000000e+00 0.000000e+00
 0.000000e+00 0.000000e+00 6.000000e-01 4.000000e-01 0.000000e+00
 0.000000e+00 0.000000e+00 0.000000e+00 7.000000e-01 3.000000e-01
 0.000000e+00 0.000000e+00 0.000000e+00 0.000000e+00 0.000000e+00
<ENDHMM>
