~o
<STREAMINFO> 1 39
<VECSIZE> 39<NULLD><MFCC_D_A_0><DIAGC>
~h "b"
<BEGINHMM>
<NUMSTATES> 5
<STATE> 2
<MEAN> 39
 -1.359924e+00 5.670615e+00 -3.515035e+00 6.470447e+00 6.954963e-01 4.817939e+00 -1.770270e+01 -7.431916e+00 -1.422473e+01 -2.960733e+00 -1.847861e+00 -2.195210e-01 5.918546e+01 -2.528360e-01 3.141069e-01 -3.731449e-02 9.142610e-02 5.010106e-02 1.695755e-01 3.978238e-01 4.370225e-01 9.679961e-02 -1.881655e-01 -1.759657e-01 -1.035460e-01 -3.889361e-01 -7.244676e-02 -8.647958e-02 -4.440039e-02 -8.286814e-02 1.314538e-01 -7.342448e-02 -1.552132e-02 -9.179737e-02 -4.846232e-02 2.541818e-02 1.084606e-01 7.807648e-02 3.818715e-02
<VARIANCE> 39
 4.159962e+01 4.581511e+01 6.782480e+01 6.959715e+01 4.527564e+01 7.196159e+01 9.096213e+01 7.362968e+01 5.040608e+01 5.043985e+01 4.685583e+01 2.762903e+01 2.758405e+01 1.107894e+00 2.395437e+00 2.577356e+00 1.659216e+00 1.776697e+00 3.259738e+00 3.615760e+00 3.215650e+00 2.351862e+00 1.833355e+00 2.575140e+00 1.328313e+00 1.682195e+00 2.957501e-01 3.751961e-01 2.327437e-01 2.540574e-01 3.176209e-01 5.635074e-01 6.574527e-01 6.392720e-01 5.523318e-01 3.126265e-01 4.983682e-01 2.643831e-01 2.798786e-01
<GCONST> 1.200918e+02
<STATE> 3
<MEAN> 39
 -2.404402e+00 6.784399e+00 -3.059822e+00 5.952455e+00 1.131280e+00 6.097800e+00 -1.616066e+01 -6.142200e+00 -1.381365e+01 -3.739152e+00 -2.166722e+00 -2.136172e-01 5.814654e+01 -1.968776e-01 6.379325e-02 -5.008069e-02 1.099030e-01 1.548936e-01 -2.131375e-01 2.315819e-01 3.134347e-01 -3.257497e-02 -6.704047e-02 1.403379e-01 3.974157e-02 -1.568870e-01 5.230344e-02 -1.325385e-01 -2.596634e-02 -4.635446e-02 6.694979e-02 -1.845040e-01 -8.730534e-02 -1.043910e-01 -1.000755e-03 3.218057e-03 8.106551e-02 4.931090e-02 1.655479e-01
<VARIANCE> 39
 4.491557e+01 5.496948e+01 6.864984e+01 7.374384e+01 4.879230e+01 6.245955e+01 9.000742e+01 7.646690e+01 3.858322e+01 4.955728e+01 3.713688e+01 2.949264e+01 2.898407e+01 1.345321e+00 2.101535e+00 2.242721e+00 1.780086e+00 1.555280e+00 4.536516e+00 3.689929e+00 3.504149e+00 2.792080e+00 1.721445e+00 2.461871e+00 1.301629e+00 1.680261e+00 2.662234e-01 4.405562e-01 2.997756e-01 2.912046e-01 3.163835e-01 6.449032e-01 6.279992e-01 7.242090e-01 4.793376e-01 3.317435e-01 5.223570e-01 2.528383e-01 3.284161e-01
<GCONST> 1.210536e+02
<STATE> 4
<MEAN> 39
 -3.677902e+00 6.942959e+00 -3.196489e+00 6.598674e+00 1.089044e+00 5.805886e+00 -1.341665e+01 -3.931764e+00 -1.284031e+01 -3.569159e+00 -1.566704e+00 5.357354e-02 5.714406e+01 -3.952163e-02 -3.952588e-01 -1.080398e-01 1.361421e-01 1.112052e-01 -6.043345e-01 7.258469e-02 4.265875e-02 -2.287177e-02 6.632086e-02 2.488312e-01 1.339190e-02 2.396130e-01 7.866856e-02 -1.534000e-01 -3.824355e-02 -8.786504e-02 2.280823e-02 -4.324795e-02 -8.578931e-02 -1.970352e-01 -3.252783e-02 3.554354e-02 4.512948e-02 -1.028651e-02 1.711251e-01
<VARIANCE> 39
 4.761658e+01 5.725733e+01 6.458854e+01 7.751291e+01 4.851254e+01 7.989066e+01 9.669363e+01 8.288279e+01 4.486187e+01 4.286169e+01 2.784246e+01 2.689060e+01 3.035775e+01 1.662863e+00 2.536525e+00 1.997849e+00 1.933998e+00 1.455435e+00 5.843041e+00 3.155047e+00 6.582491e+00 3.286153e+00 1.960641e+00 2.192638e+00 1.217684e+00 1.971860e+00 2.008992e-01 4.156637e-01 3.361633e-01 3.167042e-01 3.203288e-01 1.025460e+00 6.043243e-01 1.186958e+00 4.003665e-01 3.904873e-01 3.894040e-01 2.213177e-01 3.745085e-01
<GCONST> 1.229824e+02
<TRANSP> 5
 0.000000e+00 1.000000e+00 0.000000e+00 0.000000e+00 0.000000e+00
 0.000000e+00 5.182263e-01 4.817737e-01 0.000000e+00 0.000000e+00
 0.000000e+00 0.000000e+00 5.059909e-01 4.940092e-01 0.000000e+00
 0.000000e+00 0.000000e+00 0.000000e+00 6.059853e-01 3.940148e-01
 0.000000e+00 0.000000e+00 0.000000e+00 0.000000e+00 0.000000e+00
<ENDHMM>
~h "d"
<BEGINHMM>
<NUMSTATES> 5
<STATE> 2
<MEAN> 39
 -4.858543e+00 1.520169e+00 4.008899e-01 6.111031e+00 1.914806e+00 2.240763e+00 -2.040443e+01 -9.086901e+00 -1.490486e+01 -3.730273e+00 -1.522675e+00 -1.807668e+00 6.073952e+01 -3.462369e-02 -2.366571e-01 1.451379e-01 -1.419131e-01 1.386419e-01 -2.941487e-01 -5.297846e-02 -5.411866e-01 -3.431782e-01 -6.649606e-02 -2.017949e-02 -1.372901e-01 3.203188e-01 1.274524e-02 -3.206749e-02 1.626377e-02 -1.471311e-01 1.308388e-02 1.644113e-02 7.510650e-03 2.312043e-02 4.090355e-02 1.200410e-01 5.377673e-02 4.708998e-03 6.707278e-02
<VARIANCE> 39
 6.200639e+01 6.466323e+01 7.847164e+01 7.580264e+01 4.215442e+01 5.239798e+01 7.925417e+01 5.432719e+01 5.301022e+01 3.614343e+01 2.790890e+01 3.609910e+01 2.830963e+01 4.050763e+00 6.702141e+00 4.388711e+00 4.885480e+00 2.902939e+00 4.117734e+00 7.349203e+00 5.131711e+00 4.340553e+00 3.123199e+00 2.102759e+00 2.816505e+00 3.149834e+00 4.531578e-01 8.976209e-01 6.997557e-01 7.812825e-01 5.422925e-01 7.662173e-01 1.049347e+00 9.512078e-01 7.459377e-01 5.600914e-01 4.430346e-01 4.678735e-01 5.716275e-01
<GCONST> 1.351703e+02
<STATE> 3
<MEAN> 39
 -5.271542e+00 7.731240e-01 7.888678e-01 4.651854e+00 1.981663e+00 1.838983e+00 -2.008970e+01 -1.003860e+01 -1.534084e+01 -3.670396e+00 -1.349335e+00 -1.711745e+00 6.159923e+01 2.329669e-02 -1.918131e-01 5.426639e-02 -3.614677e-01 -4.630060e-02 -2.064757e-01 -9.072713e-02 -1.959268e-01 -1.481883e-01 3.516646e-02 7.952978e-02 -2.298690e-02 2.604047e-01 3.829737e-02 6.472674e-02 -6.396720e-02 -2.805987e-02 -4.817161e-02 1.037884e-01 1.670276e-02 1.336085e-01 5.495635e-02 6.103638e-02 3.814705e-02 -5.172849e-03 -6.097914e-02
<VARIANCE> 39
 7.189244e+01 6.005415e+01 7.794023e+01 7.747192e+01 4.379415e+01 5.398645e+01 7.603054e+01 5.393918e+01 5.655246e+01 4.126887e+01 2.768930e+01 3.568042e+01 2.669476e+01 3.831169e+00 5.826773e+00 5.220688e+00 4.695504e+00 2.844939e+00 4.796209e+00 6.702712e+00 4.817302e+00 4.649921e+00 3.436013e+00 2.340083e+00 2.550355e+00 3.394572e+00 5.186896e-01 9.209004e-01 8.494946e-01 7.163559e-01 5.426129e-01 9.027048e-01 1.011268e+00 8.865776e-01 8.511597e-01 6.033286e-01 4.193563e-01 4.669873e-01 5.944166e-01
<GCONST> 1.360733e+02
<STATE> 4
<MEAN> 39
 -4.805652e+00 1.069795e+00 1.047520e+00 7.722436e-01 2.704491e+00 1.397267e+00 -2.277022e+01 -9.461110e+00 -1.719156e+01 -5.411159e+00 3.436337e-01 -2.987270e+00 6.268797e+01 3.723747e-02 7.779729e-02 -1.398183e-01 -1.542790e-01 1.279852e-02 2.265509e-01 -1.678275e-02 2.416622e-01 7.819933e-02 2.336570e-02 1.657590e-01 5.048658e-02 -7.642724e-02 -2.957882e-02 2.297535e-02 -3.345342e-02 3.167441e-02 -4.048237e-02 7.704421e-02 9.527368e-02 8.621129e-02 8.266010e-02 2.112230e-02 1.478839e-02 2.535827e-02 -6.910692e-02
<VARIANCE> 39
 8.978500e+01 4.310841e+01 7.657555e+01 1.063271e+02 3.768820e+01 5.149064e+01 7.715001e+01 5.725924e+01 9.837202e+01 3.671218e+01 4.373478e+01 3.805009e+01 2.369892e+01 2.065759e+00 3.127645e+00 3.216132e+00 3.854144e+00 2.296074e+00 3.045313e+00 4.831138e+00 3.338356e+00 4.127050e+00 2.375516e+00 2.171261e+00 1.966665e+00 1.900180e+00 3.005397e-01 5.092687e-01 4.961459e-01 4.922699e-01 4.177345e-01 5.341504e-01 7.974882e-01 5.943170e-01 7.545193e-01 4.194587e-01 3.757438e-01 3.591090e-01 3.119668e-01
<GCONST> 1.273150e+02
<TRANSP> 5
 0.000000e+00 1.000000e+00 0.000000e+00 0.000000e+00 0.000000e+00
 0.000000e+00 6.276639e-01 3.723360e-01 0.000000e+00 0.000000e+00
 0.000000e+00 0.000000e+00 6.471303e-01 3.528697e-01 0.000000e+00
 0.000000e+00 0.000000e+00 0.000000e+00 7.794818e-01 2.205182e-01
 0.000000e+00 0.000000e+00 0.000000e+00 0.000000e+00 0.000000e+00
<ENDHMM>
~h "f"
<BEGINHMM>
<NUMSTATES> 5
<STATE> 2
<MEAN> 39
 -3.983119e+00 2.464338e+00 -8.570540e+00 1.676549e+00 -2.703535e-01 2.650345e+00 -1.253377e+01 -9.351732e+00 -1.458744e+01 -2.599909e+00 -1.188763e+00 7.357423e-01 5.976406e+01 -1.059681e-01 -1.264867e-01 1.100165e-02 -3.513523e-01 2.237381e-01 -1.314756e-01 1.327309e-02 -1.589186e-01 -3.562757e-02 -6.762778e-02 -6.716132e-02 8.620729e-02 1.870579e-01 3.575042e-02 -7.560937e-02 1.026932e-01 -3.595929e-02 -4.255300e-02 5.584371e-02 -7.348102e-02 -1.903321e-02 1.037830e-02 -4.564343e-02 4.539798e-02 5.575175e-02 8.402649e-02
<VARIANCE> 39
 7.626415e+01 7.134296e+01 3.667686e+01 2.338043e+01 4.414169e+01 2.964321e+01 5.855963e+01 3.952995e+01 3.336620e+01 1.433303e+01 1.695532e+01 2.819575e+01 1.876757e+01 3.921657e+00 5.303536e+00 1.758836e+00 1.957531e+00 2.230089e+00 2.701144e+00 3.428577e+00 3.037002e+00 2.033103e+00 1.409041e+00 1.619400e+00 1.944544e+00 1.701786e+00 5.155647e-01 6.926945e-01 3.143958e-01 2.943080e-01 4.427553e-01 5.016282e-01 5.209320e-01 6.803828e-01 3.694069e-01 2.849607e-01 3.185961e-01 3.270264e-01 2.752394e-01
<GCONST> 1.166152e+02
<STATE> 3
<MEAN> 39
 -5.407254e+00 9.450448e-01 -7.772656e+00 1.267576e+00 5.600911e-01 2.175253e+00 -1.240553e+01 -9.672411e+00 -1.392250e+01 -2.845530e+00 -1.230169e+00 1.810615e+00 6.021783e+01 1.460496e-01 -2.620193e-01 -2.802304e-02 -3.558968e-01 4.416650e-03 3.004269e-02 -1.708536e-01 -2.804622e-01 -1.868441e-01 -1.373074e-01 1.430325e-01 2.688168e-01 3.033087e-01 9.252040e-02 3.880582e-02 -2.205196e-02 8.782931e-02 -3.894342e-02 6.570882e-02 -1.483272e-02 4.921934e-02 -6.888115e-02 1.194233e-02 3.346553e-02 -2.228883e-02 -2.509405e-02
<VARIANCE> 39
 7.392049e+01 7.625436e+01 3.434517e+01 3.433958e+01 4.472675e+01 3.806667e+01 6.500074e+01 4.388071e+01 3.912159e+01 1.817745e+01 1.468155e+01 3.338763e+01 1.947275e+01 5.173831e+00 6.097050e+00 2.080231e+00 2.669809e+00 2.486525e+00 3.789300e+00 4.641757e+00 4.511943e+00 2.543840e+00 1.443438e+00 1.661503e+00 1.981995e+00 2.191927e+00 6.226565e-01 8.814648e-01 3.857851e-01 3.710216e-01 4.680155e-01 6.515708e-01 6.864924e-01 7.082004e-01 4.007206e-01 2.747237e-01 3.548940e-01 3.808297e-01 3.311516e-01
<GCONST> 1.224759e+02
<STATE> 4
<MEAN> 39
 -6.109014e+00 -3.393767e-01 -8.389600e+00 8.777606e-01 9.818576e-01 1.726972e+00 -1.207127e+01 -1.055999e+01 -1.404130e+01 -2.854684e+00 -6.928577e-01 2.530310e+00 6.050161e+01 3.094110e-01 3.495228e-02 -1.439616e-01 -1.527253e-01 -1.086245e-01 7.166893e-02 -3.209876e-01 -4.643872e-02 -3.715191e-01 -4.383703e-02 9.207657e-02 -8.436529e-02 8.200338e-02 4.920044e-02 4.665632e-02 2.787460e-02 1.101683e-01 5.871700e-02 -3.355818e-02 -5.269733e-02 8.097798e-02 -2.182921e-02 2.224231e-02 -1.261480e-02 -8.411560e-02 -3.030557e-03
<VARIANCE> 39
 7.325556e+01 7.014909e+01 3.090728e+01 4.408845e+01 4.391830e+01 4.937977e+01 6.170076e+01 4.290943e+01 4.672957e+01 2.095812e+01 1.506402e+01 3.774427e+01 1.694941e+01 5.275593e+00 5.725991e+00 2.560762e+00 2.566758e+00 2.435623e+00 3.636387e+00 5.370692e+00 3.707725e+00 2.908622e+00 1.475461e+00 1.443435e+00 2.354515e+00 1.828180e+00 7.239994e-01 8.774411e-01 4.048493e-01 3.585409e-01 4.449761e-01 6.932573e-01 8.701520e-01 6.599973e-01 4.659369e-01 2.665302e-01 3.107569e-01 3.784996e-01 3.675091e-01
<GCONST> 1.234679e+02
<TRANSP> 5
 0.000000e+00 1.000000e+00 0.000000e+00 0.000000e+00 0.000000e+00
 0.000000e+00 6.551768e-01 3.448231e-01 0.000000e+00 0.000000e+00
 0.000000e+00 0.000000e+00 6.410246e-01 3.589754e-01 0.000000e+00
 0.000000e+00 0.000000e+00 0.000000e+00 7.348403e-01 2.651597e-01
 0.000000e+00 0.000000e+00 0.000000e+00 0.000000e+00 0.000000e+00
<ENDHMM>
~h "g"
<BEGINHMM>
<NUMSTATES> 5
<STATE> 2
<MEAN> 39
 -7.590463e+00 2.066061e+00 -3.670085e+00 2.731313e+00 -1.466006e+00 4.292401e+00 -1.468786e+01 -4.757072e+00 -1.155233e+01 -2.003798e+00 -7.450695e-01 -6.593053e-01 5.728123e+01 1.130271e-02 1.025316e-02 1.678078e-02 1.098681e-02 1.825557e-02 1.436874e-02 1.121238e-02 5.168649e-03 5.188090e-03 1.164607e-03 -1.735137e-03 -1.614114e-03 9.450332e-03 1.492438e-03 2.425642e-03 1.763017e-03 2.553626e-03 2.559638e-03 2.318079e-03 7.400622e-04 1.634009e-04 -1.073263e-03 -6.767902e-04 -3.512538e-04 -4.792492e-04 1.514422e-04
<VARIANCE> 39
 7.963066e+01 5.686776e+01 9.125359e+01 5.740467e+01 4.962001e+01 4.655993e+01 8.590223e+01 6.028886e+01 5.253819e+01 3.138057e+01 2.826029e+01 2.583983e+01 5.765445e+01 2.365398e+00 3.212549e+00 2.570335e+00 2.740305e+00 2.189513e+00 2.827119e+00 4.198768e+00 2.739911e+00 2.604823e+00 1.900969e+00 1.859952e+00 1.671665e+00 1.505291e+00 3.033747e-01 4.900036e-01 3.925376e-01 4.265544e-01 3.716792e-01 5.012808e-01 6.784663e-01 4.811691e-01 4.618578e-01 3.491957e-01 3.484654e-01 3.089631e-01 2.511909e-01
<GCONST> 1.224731e+02
<STATE> 3
<MEAN> 39
 -7.590463e+00 2.066061e+00 -3.670085e+00 2.731313e+00 -1.466006e+00 4.292401e+00 -1.468786e+01 -4.757072e+00 -1.155233e+01 -2.003798e+00 -7.450695e-01 -6.593053e-01 5.728123e+01 1.130271e-02 1.025316e-02 1.678078e-02 1.098681e-02 1.825557e-02 1.436874e-02 1.121238e-02 5.168649e-03 5.188090e-03 1.164607e-03 -1.735137e-03 -1.614114e-03 9.450332e-03 1.492438e-03 2.425642e-03 1.763017e-03 2.553626e-03 2.559638e-03 2.318079e-03 7.400622e-04 1.634009e-04 -1.073263e-03 -6.767902e-04 -3.512538e-04 -4.792492e-04 1.514422e-04
<VARIANCE> 39
 7.963066e+01 5.686776e+01 9.125359e+01 5.740467e+01 4.962001e+01 4.655993e+01 8.590223e+01 6.028886e+01 5.253819e+01 3.138057e+01 2.826029e+01 2.583983e+01 5.765445e+01 2.365398e+00 3.212549e+00 2.570335e+00 2.740305e+00 2.189513e+00 2.827119e+00 4.198768e+00 2.739911e+00 2.604823e+00 1.900969e+00 1.859952e+00 1.671665e+00 1.505291e+00 3.033747e-01 4.900036e-01 3.925376e-01 4.265544e-01 3.716792e-01 5.012808e-01 6.784663e-01 4.811691e-01 4.618578e-01 3.491957e-01 3.484654e-01 3.089631e-01 2.511909e-01
<GCONST> 1.224731e+02
<STATE> 4
<MEAN> 39
 -7.590463e+00 2.066061e+00 -3.670085e+00 2.731313e+00 -1.466006e+00 4.292401e+00 -1.468786e+01 -4.757072e+00 -1.155233e+01 -2.003798e+00 -7.450695e-01 -6.593053e-01 5.728123e+01 1.130271e-02 1.025316e-02 1.678078e-02 1.098681e-02 1.825557e-02 1.436874e-02 1.121238e-02 5.168649e-03 5.188090e-03 1.164607e-03 -1.735137e-03 -1.614114e-03 9.450332e-03 1.492438e-03 2.425642e-03 1.763017e-03 2.553626e-03 2.559638e-03 2.318079e-03 7.400622e-04 1.634009e-04 -1.073263e-03 -6.767902e-04 -3.512538e-04 -4.792492e-04 1.514422e-04
<VARIANCE> 39
 7.963066e+01 5.686776e+01 9.125359e+01 5.740467e+01 4.962001e+01 4.655993e+01 8.590223e+01 6.028886e+01 5.253819e+01 3.138057e+01 2.826029e+01 2.583983e+01 5.765445e+01 2.365398e+00 3.212549e+00 2.570335e+00 2.740305e+00 2.189513e+00 2.827119e+00 4.198768e+00 2.739911e+00 2.604823e+00 1.900969e+00 1.859952e+00 1.671665e+00 1.505291e+00 3.033747e-01 4.900036e-01 3.925376e-01 4.265544e-01 3.716792e-01 5.012808e-01 6.784663e-01 4.811691e-01 4.618578e-01 3.491957e-01 3.484654e-01 3.089631e-01 2.511909e-01
<GCONST> 1.224731e+02
<TRANSP> 5
 0.000000e+00 1.000000e+00 0.000000e+00 0.000000e+00 0.000000e+00
 0.000000e+00 6.000000e-01 4.000000e-01 0.000000e+00 0.000000e+00
 0.000000e+00 0.000000e+00 6.000000e-01 4.000000e-01 0.000000e+00
 0.000000e+00 0.000000e+00 0.000000e+00 7.000000e-01 3.000000e-01
 0.000000e+00 0.000000e+00 0.000000e+00 0.000000e+00 0.000000e+00
<ENDHMM>
~h "k"
<BEGINHMM>
<NUMSTATES> 5
<STATE> 2
<MEAN> 39
 -6.115117e+00 2.306571e+00 -6.977594e+00 3.966299e+00 -1.790373e-01 4.563118e+00 -1.243893e+01 -6.556362e+00 -1.402536e+01 -2.075633e+00 1.473504e+00 -9.535958e-01 5.753721e+01 -1.596837e-01 -3.130162e-01 -6.372119e-01 -3.300149e-01 -1.075389e-01 -1.999320e-02 4.938478e-01 2.780393e-01 1.785399e-01 -7.373948e-02 1.239089e-01 1.796800e-01 -7.096552e-02 4.790420e-02 -1.721504e-01 1.743883e-01 -9.807900e-02 -5.600519e-02 -5.025176e-02 -1.534263e-01 7.809398e-03 6.172597e-02 -1.043421e-02 -5.572322e-02 5.942129e-02 1.961398e-01
<VARIANCE> 39
 3.595718e+01 5.495748e+01 6.117783e+01 6.238205e+01 4.524939e+01 7.033369e+01 6.791122e+01 4.390006e+01 5.472923e+01 3.874259e+01 3.283994e+01 2.896984e+01 3.371982e+01 1.374375e+00 5.049026e+00 3.122117e+00 5.180802e+00 3.501886e+00 7.375972e+00 4.774180e+00 3.031901e+00 2.349991e+00 2.850815e+00 3.146678e+00 2.389898e+00 4.036273e+00 1.723703e-01 8.640326e-01 5.257806e-01 8.256207e-01 5.870504e-01 1.267646e+00 7.725016e-01 5.476670e-01 4.749164e-01 5.357873e-01 6.244771e-01 3.939785e-01 8.578107e-01
<GCONST> 1.307549e+02
<STATE> 3
<MEAN> 39
 -6.039148e+00 1.587282e+00 -6.956481e+00 3.137754e+00 -1.194397e+00 5.092536e+00 -1.206103e+01 -5.433490e+00 -1.285785e+01 -2.001255e+00 1.456612e+00 -9.000825e-01 5.791840e+01 -1.170349e-01 -1.332089e-01 -6.905842e-02 -1.168128e-01 -1.870625e-01 1.188513e-01 1.993526e-01 2.612603e-01 2.324400e-01 -5.293298e-02 -9.134454e-02 1.579337e-01 -7.975274e-02 2.710102e-02 -1.557220e-02 2.119287e-01 7.061756e-02 5.313667e-02 -1.312120e-01 -2.042091e-01 -7.002357e-02 -4.493603e-02 -6.050257e-03 -6.599503e-02 -1.086110e-02 1.037986e-01
<VARIANCE> 39
 3.645005e+01 6.353516e+01 5.804224e+01 6.976554e+01 4.944493e+01 7.888561e+01 7.076173e+01 4.108774e+01 5.161024e+01 3.814991e+01 3.121812e+01 2.390873e+01 3.317380e+01 1.256054e+00 6.798912e+00 3.487239e+00 4.965553e+00 2.782588e+00 6.586591e+00 5.311278e+00 2.982159e+00 2.051972e+00 2.784951e+00 3.153292e+00 2.294856e+00 3.880227e+00 1.864170e-01 9.992657e-01 5.503049e-01 8.539336e-01 4.564090e-01 1.185706e+00 8.788217e-01 5.316984e-01 4.582679e-01 6.001124e-01 5.992694e-01 4.088946e-01 8.083625e-01
<GCONST> 1.307019e+02
<STATE> 4
<MEAN> 39
 -6.058190e+00 2.612080e+00 -6.481709e+00 4.046408e+00 -1.494856e+00 5.717857e+00 -1.152580e+01 -4.608598e+00 -1.213947e+01 -2.201995e+00 8.062667e-01 -7.628464e-01 5.715262e+01 7.574613e-02 1.466854e-01 4.803673e-01 1.394294e-01 4.914707e-03 -1.069988e-01 -2.285806e-01 4.138174e-02 -1.208991e-02 -7.504170e-02 -1.598248e-01 4.201873e-02 8.417362e-02 1.100953e-01 -2.515978e-02 2.593990e-01 -8.924559e-03 2.974731e-02 -1.321892e-01 -2.884263e-01 -9.899864e-02 -3.558897e-02 4.600957e-03 2.208250e-02 -1.715569e-02 2.069708e-01
<VARIANCE> 39
 3.959029e+01 7.789696e+01 5.666527e+01 6.606571e+01 5.280134e+01 7.941401e+01 7.005867e+01 3.649659e+01 4.582978e+01 2.680030e+01 2.708209e+01 2.139291e+01 3.320652e+01 1.623520e+00 7.095068e+00 4.351160e+00 4.125438e+00 2.148622e+00 4.823819e+00 5.630207e+00 2.969585e+00 2.308651e+00 2.405119e+00 2.645054e+00 2.066892e+00 3.356001e+00 2.583748e-01 9.598582e-01 6.456186e-01 6.974473e-01 4.070258e-01 1.057934e+00 9.503079e-01 4.542345e-01 3.962101e-01 5.066917e-01 4.838521e-01 3.499721e-01 6.327713e-01
<GCONST> 1.285011e+02
<TRANSP> 5
 0.000000e+00 1.000000e+00 0.000000e+00 0.000000e+00 0.000000e+00
 0.000000e+00 5.210645e-01 4.789355e-01 0.000000e+00 0.000000e+00
 0.000000e+00 0.000000e+00 4.580059e-01 5.419942e-01 0.000000e+00
 0.000000e+00 0.000000e+00 0.000000e+00 5.008007e-01 4.991993e-01
 0.000000e+00 0.000000e+00 0.000000e+00 0.000000e+00 0.000000e+00
<ENDHMM>
~h "l"
<BEGINHMM>
<NUMSTATES> 5
<STATE> 2
<MEAN> 39
 2.350864e-01 9.351347e+00 -2.160575e+00 5.176736e-01 -1.068787e+01 -4.235559e-01 -1.469660e+01 -1.496996e+00 -1.018033e+01 -5.462369e+00 -4.488271e+00 -2.659565e+00 5.943246e+01 2.855959e-01 4.513403e-01 4.641541e-01 4.121047e-03 -1.025795e+00 -4.216444e-01 6.211793e-02 4.947627e-01 3.640691e-01 -2.401858e-01 -1.231815e-01 -2.598187e-01 1.638346e-02 -1.218371e-01 -2.411162e-01 -1.346003e-02 -2.677074e-02 2.092706e-01 1.527667e-01 -1.183407e-02 -1.408369e-01 -1.245214e-01 1.117593e-02 1.239409e-01 1.185329e-01 5.446260e-02
<VARIANCE> 39
 3.483360e+01 4.979008e+01 5.979133e+01 3.317700e+01 7.805339e+01 4.956779e+01 4.018491e+01 4.175752e+01 3.979602e+01 3.421916e+01 2.736940e+01 2.471917e+01 1.585480e+01 1.650270e+00 3.988470e+00 2.212896e+00 1.954461e+00 4.164316e+00 2.597052e+00 2.478371e+00 2.626643e+00 1.725744e+00 2.000487e+00 2.026912e+00 2.088036e+00 1.253784e+00 1.812178e-01 5.234430e-01 4.233392e-01 3.423708e-01 5.456651e-01 4.168185e-01 3.644213e-01 3.858616e-01 2.730427e-01 3.373745e-01 3.668472e-01 4.077352e-01 1.647806e-01
<GCONST> 1.156052e+02
<STATE> 3
<MEAN> 39
 5.005642e-01 9.758238e+00 -2.125624e-01 -7.993511e-03 -1.303680e+01 -8.115317e-01 -1.464683e+01 -5.086681e-01 -1.001154e+01 -6.394604e+00 -3.795981e+00 -2.654416e+00 5.983973e+01 3.646598e-02 -2.204929e-01 1.669828e-01 4.034211e-02 -2.359925e-01 6.119794e-02 9.778889e-02 8.617288e-02 -7.999448e-02 -2.111146e-01 1.309801e-01 1.680058e-01 1.291119e-01 -1.063922e-01 -2.380487e-01 -1.015347e-01 1.561765e-02 3.000962e-01 1.082928e-01 -4.701604e-02 -1.712856e-01 -8.011930e-02 7.089353e-02 5.186132e-02 1.038409e-01 4.155682e-02
<VARIANCE> 39
 3.117301e+01 5.273423e+01 5.795052e+01 3.220135e+01 6.284030e+01 5.105378e+01 3.459395e+01 4.453230e+01 3.279014e+01 3.946800e+01 2.826517e+01 2.336314e+01 1.515535e+01 1.300227e+00 3.833347e+00 2.384937e+00 1.788549e+00 3.755288e+00 2.974662e+00 2.338080e+00 2.561871e+00 1.629339e+00 1.827301e+00 1.719632e+00 2.040506e+00 1.132167e+00 1.828893e-01 4.902277e-01 3.999484e-01 3.355047e-01 5.518993e-01 4.373931e-01 4.190284e-01 3.924014e-01 2.948829e-01 3.383280e-01 3.401150e-01 3.869809e-01 1.483768e-01
<GCONST> 1.142468e+02
<STATE> 4
<MEAN> 39
 2.600188e-01 8.905961e+00 -1.354604e-01 4.010892e-01 -1.277443e+01 -1.557700e-01 -1.423623e+01 -3.419660e-01 -1.011155e+01 -6.500820e+00 -3.351430e+00 -1.734717e+00 6.000132e+01 -2.398510e-01 -7.850730e-01 -1.705703e-01 5.103844e-02 6.103337e-01 3.679993e-01 -1.866868e-01 -4.408338e-01 -1.852139e-01 6.223096e-02 1.056258e-01 2.268671e-01 1.892797e-01 -1.085339e-01 -1.046406e-01 2.094971e-02 -6.119114e-02 1.801510e-01 4.592204e-02 -9.566932e-02 -1.383405e-01 1.594288e-03 8.453876e-02 3.856054e-02 -1.544170e-02 2.447050e-02
<VARIANCE> 39
 3.313375e+01 5.324160e+01 5.478407e+01 3.098093e+01 4.680545e+01 5.851762e+01 2.773558e+01 5.268318e+01 3.359077e+01 4.227174e+01 2.372290e+01 2.287537e+01 1.988733e+01 1.458131e+00 3.128494e+00 2.283730e+00 2.044017e+00 3.457882e+00 2.954283e+00 2.485868e+00 2.946931e+00 1.915288e+00 2.472834e+00 1.763798e+00 1.860508e+00 9.835194e-01 1.985857e-01 4.442825e-01 3.666086e-01 3.453629e-01 4.692012e-01 4.242179e-01 4.227242e-01 4.872785e-01 3.811142e-01 4.213602e-01 3.257435e-01 3.441365e-01 1.427294e-01
<GCONST> 1.147846e+02
<TRANSP> 5
 0.000000e+00 1.000000e+00 0.000000e+00 0.000000e+00 0.000000e+00
 0.000000e+00 6.979230e-01 3.020770e-01 0.000000e+00 0.000000e+00
 0.000000e+00 0.000000e+00 6.873102e-01 3.126898e-01 0.000000e+00
 0.000000e+00 0.000000e+00 0.000000e+00 7.859233e-01 2.140767e-01
 0.000000e+00 0.000000e+00 0.000000e+00 0.000000e+00 0.000000e+00
<ENDHMM>
~h "m"
<BEGINHMM>
<NUMSTATES> 5
<STATE> 2
<MEAN> 39
 -6.692538e-01 8.796045e+00 -3.128178e+00 5.424947e+00 1.697854e+00 9.676018e+00 -1.284196e+01 -5.091696e-01 -9.218404e+00 -1.282558e+00 -2.409193e-01 1.950743e-01 5.836617e+01 -1.755231e-01 6.551028e-01 -1.397367e-01 3.812794e-01 -3.809240e-02 5.879486e-01 8.192984e-01 -1.293507e-01 1.541143e-01 -1.499353e-01 -3.659401e-01 9.875926e-02 -5.676052e-01 -3.339386e-02 -7.003991e-02 3.876157e-02 -5.295525e-02 3.175809e-02 -8.229639e-02 -6.128191e-02 -3.362498e-02 -9.737986e-02 1.983142e-02 3.551278e-02 -3.090658e-02 4.186622e-02
<VARIANCE> 39
 1.904776e+01 4.772191e+01 2.977847e+01 6.537312e+01 5.171413e+01 5.870905e+01 5.104427e+01 4.431047e+01 2.500539e+01 2.917361e+01 2.036351e+01 2.152518e+01 1.589354e+01 2.845282e-01 1.531376e+00 1.063821e+00 1.420291e+00 1.297887e+00 1.767479e+00 2.329375e+00 1.982661e+00 1.470508e+00 1.588955e+00 1.456964e+00 1.019620e+00 5.671396e-01 6.585473e-02 1.982087e-01 1.737602e-01 2.458585e-01 2.062104e-01 2.920300e-01 4.041927e-01 3.121525e-01 2.456403e-01 2.502328e-01 2.389673e-01 1.882092e-01 8.911493e-02
<GCONST> 9.918616e+01
<STATE> 3
<MEAN> 39
 -1.498985e+00 9.961125e+00 -3.166816e+00 6.107924e+00 8.037575e-01 1.020932e+01 -1.073662e+01 -5.983751e-01 -9.024007e+00 -2.093569e+00 -1.391013e+00 2.135265e-01 5.702070e+01 -2.114327e-01 3.200894e-01 -1.484855e-01 1.653817e-01 -5.203017e-02 2.471972e-01 5.621358e-01 2.076687e-02 3.592036e-02 -1.052211e-01 -1.875878e-01 -2.632312e-02 -3.876964e-01 -2.144737e-02 -1.512369e-01 2.304432e-02 -8.738111e-02 8.467585e-03 -1.118811e-01 -1.284974e-01 4.241989e-02 -7.219248e-02 5.808367e-03 8.514220e-02 -2.494633e-02 7.980438e-02
<VARIANCE> 39
 2.534083e+01 5.061124e+01 3.029866e+01 5.978252e+01 5.994376e+01 6.611340e+01 5.495707e+01 3.398525e+01 2.221594e+01 1.997625e+01 2.081918e+01 2.138551e+01 1.945831e+01 3.403992e-01 1.696779e+00 8.893526e-01 1.780740e+00 1.295920e+00 1.705355e+00 2.339496e+00 1.893663e+00 1.349030e+00 1.360141e+00 1.403741e+00 9.978418e-01 6.393970e-01 7.143077e-02 2.196090e-01 1.372001e-01 2.812052e-01 2.127223e-01 2.864148e-01 4.023729e-01 3.071499e-01 2.437467e-01 2.340328e-01 2.637126e-01 1.879967e-01 9.852328e-02
<GCONST> 9.951971e+01
<STATE> 4
<MEAN> 39
 -2.199264e+00 1.006480e+01 -3.189123e+00 6.454659e+00 -1.662159e-01 9.551246e+00 -9.752258e+00 4.876883e-01 -8.551141e+00 -2.417716e+00 -1.811613e+00 -4.119371e-01 5.629756e+01 -3.247565e-01 -1.779876e-01 -6.056679e-02 -1.340262e-01 -1.520456e-01 -7.416634e-02 1.029874e-01 1.270956e-01 -4.145867e-02 -9.393580e-02 7.692659e-02 -6.617389e-02 -1.630558e-01 -4.757740e-02 -1.723013e-01 5.724524e-02 -1.421153e-01 3.381694e-02 -9.154791e-02 -1.569238e-01 -6.804840e-03 -6.233602e-02 -1.208713e-02 4.939241e-02 3.012631e-02 1.004710e-01
<VARIANCE> 39
 2.998652e+01 4.456583e+01 3.535656e+01 5.590494e+01 7.524609e+01 8.398909e+01 5.661913e+01 3.497536e+01 2.201003e+01 1.747121e+01 2.041965e+01 1.928178e+01 2.242992e+01 6.440181e-01 2.176665e+00 1.223576e+00 2.606036e+00 2.002774e+00 2.256232e+00 2.910608e+00 2.313349e+00 1.745587e+00 1.589586e+00 1.634239e+00 9.434876e-01 9.123240e-01 1.014325e-01 3.092364e-01 1.768682e-01 3.535627e-01 3.488174e-01 3.695451e-01 4.510198e-01 3.874793e-01 3.293866e-01 2.900193e-01 2.788244e-01 1.852937e-01 1.321954e-01
<GCONST> 1.067572e+02
<TRANSP> 5
 0.000000e+00 1.000000e+00 0.000000e+00 0.000000e+00 0.000000e+00
 0.000000e+00 7.337799e-01 2.662201e-01 0.000000e+00 0.000000e+00
 0.000000e+00 0.000000e+00 6.809734e-01 3.190266e-01 0.000000e+00
 0.000000e+00 0.000000e+00 0.000000e+00 7.451932e-01 2.548068e-01
 0.000000e+00 0.000000e+00 0.000000e+00 0.000000e+00 0.000000e+00
<ENDHMM>
~h "n"
<BEGINHMM>
<NUMSTATES> 5
<STATE> 2
<MEAN> 39
 -1.187132e+00 4.702354e+00 4.648379e-01 5.596815e+00 2.760475e+00 4.755977e+00 -1.944455e+01 -3.658031e+00 -1.232182e+01 -4.533909e-01 2.080949e+00 -1.743859e+00 6.142196e+01 8.238071e-02 1.760236e-02 -1.268794e-01 2.380861e-01 2.805569e-01 2.308976e-01 -1.443255e-01 1.078766e-01 2.150850e-01 1.875370e-01 2.336714e-01 6.241312e-02 -4.202140e-02 -9.677370e-02 -8.825377e-02 -7.442274e-02 -2.372346e-02 -7.153815e-02 -2.104208e-02 1.185306e-01 -9.244286e-03 2.984871e-02 -6.124556e-02 -5.088462e-02 9.018329e-02 -3.768455e-02
<VARIANCE> 39
 2.193575e+01 4.954970e+01 4.909244e+01 5.832274e+01 2.844827e+01 4.035555e+01 6.397270e+01 5.184739e+01 4.794419e+01 3.480278e+01 3.620488e+01 3.397710e+01 1.962237e+01 1.142671e+00 4.715610e+00 2.085639e+00 2.897727e+00 2.274754e+00 3.385507e+00 6.366424e+00 3.430206e+00 3.122137e+00 2.031541e+00 2.993957e+00 1.785880e+00 2.118751e+00 2.074539e-01 8.209844e-01 3.351143e-01 4.920825e-01 3.946013e-01 6.415870e-01 1.123882e+00 6.557567e-01 5.906919e-01 3.536147e-01 5.531880e-01 3.411846e-01 3.684119e-01
<GCONST> 1.226915e+02
<STATE> 3
<MEAN> 39
 -1.300963e+00 4.586057e+00 -2.645704e-01 5.435701e+00 3.362330e+00 5.639509e+00 -1.949755e+01 -3.010348e+00 -1.138873e+01 -2.607880e-01 2.489928e+00 -8.383545e-01 6.115185e+01 -8.799734e-02 -1.869145e-01 -1.481769e-01 -4.187883e-02 5.197272e-02 1.401040e-01 5.551362e-02 5.424488e-02 1.151613e-01 -2.214527e-03 5.902701e-02 1.498784e-01 -1.616693e-02 -4.249588e-02 -2.494071e-02 -2.917033e-02 -6.255496e-02 -9.361640e-02 -5.292492e-02 6.259277e-02 -2.995168e-02 -5.489863e-02 -7.370461e-02 -8.103450e-02 5.045994e-03 -1.568153e-02
<VARIANCE> 39
 2.444835e+01 4.850090e+01 4.053904e+01 5.343738e+01 3.310360e+01 4.266595e+01 5.825816e+01 4.387989e+01 3.895352e+01 3.373008e+01 3.413583e+01 2.664603e+01 1.937387e+01 8.678163e-01 4.574474e+00 1.825990e+00 3.435226e+00 2.045073e+00 3.660723e+00 6.099202e+00 3.108751e+00 2.641289e+00 2.105834e+00 2.763870e+00 1.878670e+00 2.161961e+00 1.444156e-01 7.892365e-01 3.067965e-01 4.912245e-01 3.986807e-01 6.604158e-01 1.018841e+00 5.547380e-01 4.802110e-01 3.539355e-01 5.326918e-01 3.261493e-01 3.719931e-01
<GCONST> 1.203173e+02
<STATE> 4
<MEAN> 39
 -1.657937e+00 3.944195e+00 -1.547106e+00 3.968833e+00 3.880080e+00 6.683873e+00 -1.927628e+01 -2.204688e+00 -1.113854e+01 -2.054623e-01 2.876128e+00 -2.118528e-01 6.100440e+01 -1.820972e-01 -7.259718e-02 -1.601605e-01 2.468362e-02 -2.106985e-01 -1.760695e-03 2.287784e-01 6.737684e-02 1.173963e-02 -1.363014e-01 -1.829300e-01 6.684145e-03 -1.827624e-01 -5.748946e-03 1.327285e-02 7.946296e-03 8.530639e-03 -7.269777e-02 -5.008060e-02 2.652922e-02 -1.959896e-02 -3.305754e-02 -2.472872e-02 -7.166469e-02 -5.452868e-02 -1.266877e-02
<VARIANCE> 39
 3.242026e+01 4.677241e+01 3.962262e+01 5.245388e+01 3.569072e+01 4.029620e+01 5.951571e+01 3.850156e+01 4.085777e+01 3.309279e+01 3.635048e+01 2.558423e+01 2.091152e+01 8.167693e-01 3.703286e+00 1.666385e+00 2.896935e+00 1.901991e+00 2.992568e+00 5.045086e+00 2.444602e+00 2.055548e+00 1.983969e+00 2.121486e+00 1.654908e+00 1.708479e+00 1.343050e-01 6.454199e-01 2.839355e-01 4.573821e-01 3.144852e-01 4.853763e-01 8.039002e-01 4.535508e-01 3.892957e-01 3.245775e-01 4.049016e-01 3.073434e-01 3.100714e-01
<GCONST> 1.161643e+02
<TRANSP> 5
 0.000000e+00 1.000000e+00 0.000000e+00 0.000000e+00 0.000000e+00
 0.000000e+00 6.439719e-01 3.560281e-01 0.000000e+00 0.000000e+00
 0.000000e+00 0.000000e+00 5.970434e-01 4.029566e-01 0.000000e+00
 0.000000e+00 0.000000e+00 0.000000e+00 6.817888e-01 3.182112e-01
 0.000000e+00 0.000000e+00 0.000000e+00 0.000000e+00 0.000000e+00
<ENDHMM>
~h "p"
<BEGINHMM>
<NUMSTATES> 5
<STATE> 2
<MEAN> 39
 -9.381076e+00 8.524122e-01 -2.888394e+00 2.382515e+00 -5.034216e+00 3.166692e+00 -1.167574e+01 -5.646702e+00 -1.153368e+01 -2.097225e+00 -3.114225e-02 8.374240e-01 5.677652e+01 5.238495e-01 -3.653812e-01 -6.137027e-01 -1.146739e-02 -4.371227e-01 2.402591e-01 -4.582120e-01 2.050277e-01 -9.444483e-02 1.552770e-01 2.606971e-01 4.576564e-01 -3.216369e-02 9.889770e-02 7.239687e-02 7.732689e-02 -2.288691e-02 1.396133e-02 4.734367e-02 -9.299070e-02 -1.010070e-01 -7.984397e-02 1.627134e-02 -6.832451e-03 -1.070368e-01 8.775448e-02
<VARIANCE> 39
 5.365691e+01 6.006952e+01 8.280635e+01 2.643060e+01 2.894509e+01 3.842114e+01 8.093627e+01 2.884860e+01 5.275370e+01 2.105141e+01 3.002089e+01 1.706347e+01 3.035976e+01 2.879340e+00 4.387003e+00 4.078311e+00 2.750361e+00 4.481607e+00 4.066592e+00 3.152750e+00 3.850468e+00 2.952315e+00 2.252247e+00 3.426405e+00 2.153127e+00 4.323970e+00 3.233056e-01 4.483798e-01 4.905389e-01 4.890968e-01 8.159763e-01 5.804952e-01 5.293033e-01 5.417270e-01 4.948839e-01 4.564956e-01 6.958823e-01 4.888156e-01 4.204772e-01
<GCONST> 1.258032e+02
<STATE> 3
<MEAN> 39
 -8.455787e+00 2.334757e-01 -4.266956e+00 2.522004e+00 -6.082555e+00 3.945744e+00 -1.264804e+01 -5.380862e+00 -1.210318e+01 -1.987864e+00 3.026254e-01 1.432275e+00 5.647734e+01 5.516718e-01 1.011282e-01 -2.901501e-01 1.172505e-01 -2.425296e-01 1.063629e-01 -5.028445e-01 1.228098e-01 -6.209459e-02 3.350802e-02 1.924627e-01 -8.231642e-03 4.838087e-02 4.249015e-02 1.444776e-01 1.791067e-01 -1.838819e-02 1.628166e-01 -7.899326e-02 -3.623432e-02 -3.233585e-02 -2.079916e-03 -6.060772e-02 -2.155343e-02 -2.106295e-01 1.316831e-01
<VARIANCE> 39
 5.271375e+01 5.639835e+01 8.803702e+01 3.636047e+01 5.146276e+01 2.947316e+01 7.813563e+01 2.871042e+01 5.340438e+01 2.677452e+01 2.563404e+01 1.951659e+01 2.258595e+01 3.190549e+00 4.387649e+00 5.010518e+00 2.950251e+00 6.310655e+00 3.159971e+00 3.035830e+00 3.232812e+00 2.839896e+00 2.481342e+00 2.914195e+00 2.819777e+00 2.911866e+00 3.289565e-01 6.353596e-01 5.458373e-01 4.169346e-01 1.136183e+00 5.916470e-01 5.121803e-01 6.173018e-01 5.884526e-01 4.940270e-01 6.635149e-01 5.771861e-01 3.804740e-01
<GCONST> 1.273645e+02
<STATE> 4
<MEAN> 39
 -7.256730e+00 8.493250e-01 -4.369382e+00 3.486740e+00 -5.172343e+00 4.020205e+00 -1.413519e+01 -5.174051e+00 -1.291461e+01 -2.739830e+00 3.377368e-01 3.144196e-01 5.681821e+01 7.706039e-01 5.644359e-01 3.223563e-01 -1.628569e-01 6.068842e-01 -2.645271e-01 -7.051417e-01 -3.566694e-02 -3.377935e-01 -1.910655e-01 -2.050341e-02 -5.100688e-01 5.937431e-01 2.042742e-02 -3.101179e-02 1.798039e-01 -1.628163e-01 7.818075e-02 -7.678409e-02 -4.272349e-03 1.745470e-02 -9.129810e-02 -8.152831e-02 -8.370971e-02 -8.501638e-02 1.729883e-01
<VARIANCE> 39
 5.746066e+01 5.053857e+01 1.188187e+02 6.626842e+01 7.296980e+01 2.892773e+01 7.989970e+01 3.070085e+01 4.812118e+01 3.667539e+01 2.010361e+01 2.669550e+01 2.504096e+01 3.353005e+00 4.557708e+00 5.811406e+00 3.019134e+00 7.676987e+00 3.054393e+00 3.218447e+00 3.935009e+00 3.400375e+00 2.932482e+00 2.826164e+00 3.557353e+00 2.666790e+00 3.542348e-01 7.580738e-01 6.310456e-01 4.148893e-01 1.327386e+00 5.475224e-01 4.588322e-01 6.816303e-01 6.157544e-01 5.243976e-01 5.359048e-01 6.959003e-01 3.737564e-01
<GCONST> 1.307004e+02
<TRANSP> 5
 0.000000e+00 1.000000e+00 0.000000e+00 0.000000e+00 0.000000e+00
 0.000000e+00 5.007883e-01 4.992118e-01 0.000000e+00 0.000000e+00
 0.000000e+00 0.000000e+00 5.188831e-01 4.811169e-01 0.000000e+00
 0.000000e+00 0.000000e+00 0.000000e+00 6.800246e-01 3.199755e-01
 0.000000e+00 0.000000e+00 0.000000e+00 0.000000e+00 0.000000e+00
<ENDHMM>
~h "r"
<BEGINHMM>
<NUMSTATES> 5
<STATE> 2
<MEAN> 39
 -2.332766e+00 8.163477e-01 -8.817221e+00 -1.498524e+00 3.714892e+00 4.379395e+00 -1.841724e+01 -1.027679e+01 -2.052090e+01 -6.068221e+00 1.705400e+00 3.703461e+00 6.173641e+01 6.018904e-01 3.498124e-01 -4.566095e-01 -5.413014e-02 3.610308e-01 2.051168e-01 -6.244872e-01 -1.633651e-01 -4.828366e-01 -3.087245e-02 3.941199e-01 2.136917e-01 6.110885e-02 1.388442e-02 1.251824e-01 1.885852e-01 6.807160e-02 -1.070495e-01 -7.948090e-02 8.424720e-03 1.129479e-01 1.127625e-01 6.673443e-02 -2.036980e-02 -1.624822e-01 -5.440657e-03
<VARIANCE> 39
 6.945821e+01 1.487459e+02 3.210567e+01 5.005353e+01 4.122044e+01 4.567437e+01 5.893413e+01 2.148005e+01 6.031169e+01 4.061911e+01 2.811952e+01 2.997864e+01 9.409936e+00 2.971556e+00 8.176740e+00 2.571770e+00 3.719607e+00 3.139468e+00 3.454170e+00 4.797118e+00 2.671430e+00 4.293840e+00 3.214139e+00 2.207180e+00 2.180277e+00 1.309469e+00 3.543141e-01 1.220982e+00 3.280477e-01 6.356428e-01 6.311644e-01 6.396767e-01 7.526804e-01 4.982905e-01 7.563506e-01 5.475399e-01 3.561922e-01 3.600782e-01 2.352469e-01
<GCONST> 1.259415e+02
<STATE> 3
<MEAN> 39
 -3.704127e-01 2.569943e+00 -7.980153e+00 -1.104479e+00 4.737608e+00 3.284084e+00 -2.133101e+01 -9.758105e+00 -2.126972e+01 -5.209815e+00 2.981291e+00 2.425936e+00 6.245364e+01 1.609274e-01 1.013871e-01 2.586471e-01 2.560950e-01 2.931719e-01 -3.511148e-01 -5.985743e-01 2.329582e-01 1.193623e-01 5.990763e-01 1.841301e-01 -4.871663e-01 1.022545e-01 -8.286674e-02 -2.726518e-03 1.084149e-01 8.741996e-02 -1.076115e-01 -1.419298e-02 9.857789e-02 4.710892e-02 1.108427e-01 5.168575e-02 -1.146786e-01 -1.767638e-01 -4.679670e-02
<VARIANCE> 39
 4.696922e+01 9.296223e+01 3.979103e+01 5.347181e+01 3.951593e+01 4.473146e+01 6.701501e+01 2.510555e+01 7.004738e+01 4.579507e+01 3.402222e+01 4.366480e+01 8.633287e+00 2.801937e+00 5.941077e+00 2.408022e+00 3.766719e+00 2.926965e+00 3.787748e+00 6.284390e+00 2.338570e+00 5.216249e+00 3.105977e+00 1.947046e+00 3.269002e+00 1.110545e+00 2.973901e-01 8.107101e-01 3.454964e-01 5.674645e-01 5.331619e-01 6.557581e-01 1.009910e+00 4.570161e-01 9.600222e-01 4.986535e-01 3.367614e-01 5.014398e-01 2.296317e-01
<GCONST> 1.261484e+02
<STATE> 4
<MEAN> 39
 -1.456841e+00 1.841065e+00 -5.523064e+00 2.037013e+00 5.325842e+00 9.572985e-01 -2.266582e+01 -8.425009e+00 -1.854147e+01 -1.260867e+00 2.701046e+00 -1.522415e+00 6.234899e+01 -2.839633e-01 5.855181e-02 3.289639e-01 5.561261e-01 -3.592001e-01 8.820775e-02 2.848457e-01 3.229529e-01 7.383373e-01 3.322118e-01 -5.292807e-01 -6.196210e-01 -3.371060e-01 -1.874606e-02 1.165371e-01 -3.929229e-03 -9.256220e-03 -1.705692e-01 2.555225e-01 2.071617e-01 -9.213668e-02 1.040614e-01 -2.114552e-01 -1.013152e-01 2.085482e-01 -1.049882e-01
<VARIANCE> 39
 4.870196e+01 6.667396e+01 5.719584e+01 6.986961e+01 3.594186e+01 5.415515e+01 9.008777e+01 3.440508e+01 5.922536e+01 5.238881e+01 4.097558e+01 5.120788e+01 1.082839e+01 1.338670e+00 3.065812e+00 2.150249e+00 2.963114e+00 2.648850e+00 3.431499e+00 5.037185e+00 2.199359e+00 4.127283e+00 2.560813e+00 1.886456e+00 3.067566e+00 1.204957e+00 1.564103e-01 4.955454e-01 2.760377e-01 4.645222e-01 5.438632e-01 6.807200e-01 8.849500e-01 3.561046e-01 6.318111e-01 4.330239e-01 3.522575e-01 5.375158e-01 2.211377e-01
<GCONST> 1.226866e+02
<TRANSP> 5
 0.000000e+00 1.000000e+00 0.000000e+00 0.000000e+00 0.000000e+00
 0.000000e+00 7.672403e-01 2.327597e-01 0.000000e+00 0.000000e+00
 0.000000e+00 0.000000e+00 7.371272e-01 2.628728e-01 0.000000e+00
 0.000000e+00 0.000000e+00 0.000000e+00 6.343003e-01 3.656998e-01
 0.000000e+00 0.000000e+00 0.000000e+00 0.000000e+00 0.000000e+00
<ENDHMM>
~h "s"
<BEGINHMM>
<NUMSTATES> 5
<STATE> 2
<MEAN> 39
 -1.361370e+01 -2.631492e+00 7.914605e+00 -4.766798e+00 1.600229e+00 6.684978e+00 -1.383946e+01 -1.073831e+01 -9.923467e+00 -3.750136e+00 -1.209359e+00 9.809879e-01 6.333023e+01 -1.801388e+00 -1.121353e+00 8.386425e-01 -1.086918e+00 3.325155e-01 -2.346916e-01 1.065776e+00 -4.651147e-01 7.007891e-01 2.146076e-01 -2.514885e-02 8.989970e-02 4.287868e-01 6.875691e-02 9.004674e-02 -1.987273e-01 3.637471e-02 -1.195665e-01 -1.564466e-01 -4.653078e-02 1.201780e-01 -3.513473e-03 -2.746230e-02 4.488250e-02 -1.160724e-02 -6.058205e-02
<VARIANCE> 39
 9.792758e+01 4.999836e+01 7.817928e+01 7.904514e+01 4.687340e+01 3.620481e+01 8.264189e+01 4.893088e+01 3.868999e+01 3.636259e+01 3.154475e+01 2.211523e+01 2.871935e+01 6.679840e+00 3.347115e+00 5.484725e+00 5.049808e+00 4.359647e+00 2.741131e+00 5.608259e+00 3.328396e+00 2.888928e+00 2.375258e+00 2.675202e+00 1.786853e+00 1.725148e+00 8.876666e-01 5.578195e-01 6.511692e-01 8.134013e-01 5.562157e-01 5.263874e-01 8.646820e-01 5.275995e-01 4.807889e-01 4.624691e-01 4.801425e-01 3.630317e-01 3.006355e-01
<GCONST> 1.298664e+02
<STATE> 3
<MEAN> 39
 -1.761515e+01 -5.043040e+00 8.817650e+00 -7.014160e+00 1.416956e+00 5.386533e+00 -1.145236e+01 -1.160362e+01 -8.462701e+00 -3.252802e+00 -9.818632e-01 1.022155e+00 6.405296e+01 -8.061460e-01 -4.142559e-01 -7.806630e-02 -4.508325e-01 -1.923639e-01 -3.280897e-01 5.372524e-01 9.864772e-03 3.802361e-01 1.734435e-01 9.036778e-02 1.013149e-01 -3.032551e-02 4.011975e-01 2.188066e-01 -2.769195e-01 2.518443e-01 -1.307100e-01 7.802446e-04 -2.198647e-01 1.426227e-01 -1.495999e-01 -1.578991e-02 1.918064e-02 1.603014e-02 -1.251469e-01
<VARIANCE> 39
 8.490350e+01 4.044403e+01 8.716796e+01 6.750600e+01 4.102729e+01 3.694159e+01 7.739536e+01 4.777291e+01 4.080506e+01 3.205927e+01 3.221040e+01 2.330888e+01 3.247296e+01 8.047638e+00 3.391195e+00 4.604938e+00 4.974008e+00 3.077845e+00 3.110060e+00 5.693373e+00 3.176340e+00 3.190989e+00 2.383769e+00 2.122826e+00 1.678690e+00 1.710130e+00 7.829202e-01 4.548589e-01 5.960180e-01 6.358864e-01 5.946963e-01 5.790086e-01 7.631649e-01 5.514220e-01 5.309373e-01 4.961128e-01 4.378576e-01 3.385687e-01 3.174382e-01
<GCONST> 1.284189e+02
<STATE> 4
<MEAN> 39
 -1.871970e+01 -5.482555e+00 6.865865e+00 -7.793458e+00 2.637623e-01 5.176602e+00 -1.140244e+01 -1.044697e+01 -7.377936e+00 -2.445526e+00 -5.439517e-01 1.575249e+00 6.261816e+01 9.511328e-01 4.103349e-01 -7.620021e-01 6.413108e-01 -5.531487e-01 2.978426e-06 -4.029225e-01 4.533652e-01 -2.289189e-01 2.059807e-01 -5.652614e-02 1.223757e-01 -4.390103e-01 3.034484e-01 1.348443e-01 -7.656936e-02 1.978290e-01 -1.797626e-02 5.491658e-03 -1.476838e-01 6.856717e-02 -1.087944e-01 -1.471672e-03 -3.000171e-02 -3.048238e-02 -1.378843e-02
<VARIANCE> 39
 9.160261e+01 4.343675e+01 7.968174e+01 6.188811e+01 3.925449e+01 3.863191e+01 7.375639e+01 5.693663e+01 4.080465e+01 2.465255e+01 3.007507e+01 1.997057e+01 4.252441e+01 5.933173e+00 3.791754e+00 2.455924e+00 3.625827e+00 2.487326e+00 3.582795e+00 4.435946e+00 2.971790e+00 2.965047e+00 2.287015e+00 2.125530e+00 1.579339e+00 1.697018e+00 6.451698e-01 5.441857e-01 4.666142e-01 5.572097e-01 5.173519e-01 5.686139e-01 6.226913e-01 5.774053e-01 5.468723e-01 4.273010e-01 4.017144e-01 3.011914e-01 3.136269e-01
<GCONST> 1.255525e+02
<TRANSP> 5
 0.000000e+00 1.000000e+00 0.000000e+00 0.000000e+00 0.000000e+00
 0.000000e+00 6.458532e-01 3.541468e-01 0.000000e+00 0.000000e+00
 0.000000e+00 0.000000e+00 6.831766e-01 3.168234e-01 0.000000e+00
 0.000000e+00 0.000000e+00 0.000000e+00 7.880862e-01 2.119138e-01
 0.000000e+00 0.000000e+00 0.000000e+00 0.000000e+00 0.000000e+00
<ENDHMM>
~h "t"
<BEGINHMM>
<NUMSTATES> 5
<STATE> 2
<MEAN> 39
 -1.005883e+01 -2.137689e+00 1.290128e+00 5.621123e-01 -1.075327e+00 2.135572e+00 -1.482694e+01 -7.839011e+00 -1.220050e+01 -2.220304e+00 -6.410813e-01 2.442860e-01 6.054048e+01 -4.735252e-02 -8.812472e-01 1.274492e-01 -1.691342e-01 1.384468e-02 -4.750972e-01 -1.368058e-01 -4.228793e-01 -8.803637e-02 5.669463e-02 1.479675e-01 8.162957e-02 6.046185e-01 1.876080e-01 5.891819e-02 -3.463624e-02 3.214568e-02 3.612887e-02 3.199963e-02 -1.904777e-01 -2.461918e-02 -2.629664e-02 -4.817268e-02 -1.182932e-02 -2.022937e-02 7.482224e-02
<VARIANCE> 39
 7.941919e+01 8.542802e+01 9.361284e+01 8.434643e+01 2.904178e+01 5.657526e+01 7.853649e+01 4.749909e+01 4.566613e+01 3.234284e+01 2.278336e+01 2.556500e+01 3.729058e+01 5.235480e+00 7.502893e+00 5.749687e+00 7.450440e+00 2.909770e+00 5.936803e+00 6.430789e+00 5.253250e+00 3.858059e+00 2.952028e+00 2.286383e+00 2.493899e+00 4.261683e+00 5.942755e-01 1.340363e+00 1.051791e+00 1.249781e+00 5.430622e-01 1.214639e+00 9.609001e-01 1.016314e+00 6.974779e-01 6.111662e-01 4.275187e-01 4.391262e-01 8.572469e-01
<GCONST> 1.387333e+02
<STATE> 3
<MEAN> 39
 -9.232719e+00 -3.781583e+00 8.165184e-01 6.147109e-01 -1.067637e+00 1.229365e+00 -1.615516e+01 -9.032957e+00 -1.264067e+01 -2.131371e+00 -4.436617e-01 3.716268e-01 6.187676e+01 6.566219e-01 -5.316222e-02 -8.542731e-02 2.271514e-01 7.537943e-02 3.416484e-03 -5.921727e-01 -2.220732e-01 -2.764494e-01 -1.037418e-01 6.701283e-03 -6.009085e-02 3.665617e-01 1.647114e-01 2.890706e-01 -6.415628e-02 6.160294e-02 -7.242601e-03 1.889977e-01 -6.039354e-02 1.071156e-01 -2.976416e-02 -3.709071e-02 -3.496003e-02 -4.715787e-02 -1.143396e-01
<VARIANCE> 39
 7.691128e+01 8.834906e+01 7.462623e+01 7.954413e+01 3.109913e+01 5.987500e+01 7.575017e+01 4.628500e+01 4.885322e+01 3.082393e+01 2.438437e+01 2.613737e+01 3.154427e+01 5.528598e+00 8.472069e+00 5.134361e+00 6.773327e+00 2.797805e+00 5.956750e+00 5.731465e+00 5.207713e+00 3.952773e+00 2.978199e+00 2.418061e+00 2.427745e+00 3.584756e+00 6.701381e-01 1.239921e+00 8.849632e-01 1.104474e+00 5.180711e-01 1.099413e+00 9.682795e-01 9.886846e-01 7.071820e-01 5.836143e-01 4.640881e-01 4.481086e-01 6.802704e-01
<GCONST> 1.375697e+02
<STATE> 4
<MEAN> 39
 -6.692214e+00 -2.017729e+00 -1.984331e-01 1.863220e+00 -1.130362e+00 2.110714e+00 -1.760175e+01 -8.852770e+00 -1.312859e+01 -2.549370e+00 -6.588944e-01 2.044917e-01 6.181301e+01 9.097069e-01 7.075464e-01 -2.053513e-01 2.952048e-01 6.851581e-02 3.695797e-01 -4.733624e-01 1.114092e-01 -2.914322e-01 -1.063844e-01 7.742026e-03 -2.108794e-01 4.552948e-02 -6.363811e-02 1.313095e-01 -6.352549e-02 -5.914302e-02 -3.995414e-03 5.066500e-02 1.053299e-01 9.438249e-02 6.890505e-02 4.645829e-02 1.251566e-02 -1.994792e-02 -1.156795e-01
<VARIANCE> 39
 6.849237e+01 7.909938e+01 6.267251e+01 6.457752e+01 3.642159e+01 5.556371e+01 7.999026e+01 5.078619e+01 5.257476e+01 2.758263e+01 2.344623e+01 2.711249e+01 2.906967e+01 4.546625e+00 7.175606e+00 3.754779e+00 4.794424e+00 2.742198e+00 4.497733e+00 6.306818e+00 5.327585e+00 3.812596e+00 2.680696e+00 2.209105e+00 2.155550e+00 2.887463e+00 6.016101e-01 1.045709e+00 5.907812e-01 7.734264e-01 4.478476e-01 8.022426e-01 1.006524e+00 9.787766e-01 6.751484e-01 4.958819e-01 4.573740e-01 3.741962e-01 4.699869e-01
<GCONST> 1.330545e+02
<TRANSP> 5
 0.000000e+00 1.000000e+00 0.000000e+00 0.000000e+00 0.000000e+00
 0.000000e+00 5.911866e-01 4.088134e-01 0.000000e+00 0.000000e+00
 0.000000e+00 0.000000e+00 5.464067e-01 4.535933e-01 0.000000e+00
 0.000000e+00 0.000000e+00 0.000000e+00 6.003882e-01 3.996118e-01
 0.000000e+00 0.000000e+00 0.000000e+00 0.000000e+00 0.000000e+00
<ENDHMM>
~h "v"
<BEGINHMM>
<NUMSTATES> 5
<STATE> 2
<MEAN> 39
 -2.403567e+00 2.058659e+00 -4.897998e+00 3.599929e+00 2.977118e-01 2.531116e+00 -1.923825e+01 -7.347258e+00 -1.315412e+01 -3.912249e+00 -5.411880e-01 3.433713e-01 6.075163e+01 -3.740642e-01 -6.184031e-01 3.221946e-02 -1.515886e-01 2.654226e-01 -5.136330e-01 -3.213481e-01 2.762707e-01 2.295724e-01 1.502906e-02 3.860381e-01 1.523457e-01 1.886151e-01 -1.443368e-01 -1.121615e-01 1.781262e-01 -6.022228e-02 -1.144046e-02 -9.790436e-02 7.136844e-02 -3.182714e-02 1.482834e-02 -2.808233e-03 7.957464e-03 -9.632475e-02 7.657325e-02
<VARIANCE> 39
 3.884205e+01 3.788203e+01 5.917422e+01 5.452237e+01 3.914033e+01 3.479469e+01 8.395350e+01 3.129806e+01 2.974069e+01 2.479714e+01 1.847821e+01 2.858788e+01 3.230481e+01 2.357376e+00 3.446768e+00 2.197809e+00 2.399164e+00 1.934217e+00 3.106028e+00 5.419124e+00 2.090020e+00 1.923164e+00 1.494498e+00 1.913442e+00 2.063919e+00 1.703684e+00 3.401731e-01 7.068842e-01 3.317727e-01 4.107832e-01 3.226230e-01 5.172248e-01 1.049576e+00 3.781442e-01 4.044023e-01 3.116580e-01 3.013860e-01 3.804727e-01 4.632954e-01
<GCONST> 1.182894e+02
<STATE> 3
<MEAN> 39
 -3.315023e+00 4.900289e-01 -4.534170e+00 3.385600e+00 1.023532e+00 1.084330e+00 -1.943426e+01 -6.848991e+00 -1.273454e+01 -4.070351e+00 1.664852e-02 4.821770e-01 6.149042e+01 -5.166805e-01 -6.600523e-01 3.050914e-01 -2.697799e-01 2.248801e-01 -4.790427e-01 -9.085622e-02 1.617075e-01 2.399137e-01 1.665040e-01 3.287054e-01 3.790220e-02 2.926322e-01 3.377770e-02 1.359046e-01 4.487697e-02 1.251722e-02 -4.716640e-02 1.188653e-01 7.726978e-02 -4.017932e-02 -1.246515e-01 4.316331e-02 -2.921895e-02 -1.038937e-01 -5.527876e-02
<VARIANCE> 39
 4.756226e+01 4.432203e+01 5.633872e+01 4.001281e+01 4.254249e+01 3.962263e+01 9.013202e+01 2.682384e+01 4.361095e+01 2.864618e+01 1.845193e+01 2.794886e+01 2.990647e+01 2.258868e+00 3.944885e+00 2.036809e+00 2.383401e+00 2.111329e+00 3.125718e+00 4.893948e+00 1.857048e+00 2.731182e+00 1.571100e+00 1.733924e+00 2.335274e+00 1.637821e+00 3.564580e-01 6.481967e-01 3.428552e-01 4.426417e-01 3.847906e-01 5.437819e-01 9.475510e-01 3.388978e-01 5.978765e-01 3.837935e-01 3.163248e-01 3.945704e-01 3.846589e-01
<GCONST> 1.196962e+02
<STATE> 4
<MEAN> 39
 -6.673919e+00 -1.078920e+00 -4.095189e+00 3.835432e+00 -2.561446e-02 1.368815e+00 -1.578476e+01 -5.874571e+00 -1.089401e+01 -1.918038e+00 7.264600e-01 8.787126e-01 6.012001e+01 -2.896857e-01 -4.126795e-01 3.603246e-01 -5.216780e-03 3.129331e-02 -2.848172e-02 1.584775e-01 6.731869e-02 -7.262714e-02 2.022065e-01 2.023201e-01 -9.935556e-02 1.591889e-01 1.700798e-01 1.960982e-01 -8.153677e-02 6.407542e-02 -1.692359e-02 1.350280e-01 2.881539e-02 -4.218777e-02 -2.221841e-01 -8.565249e-02 -8.059033e-02 -1.130862e-01 -5.665036e-02
<VARIANCE> 39
 5.457196e+01 5.011272e+01 5.987778e+01 3.554833e+01 4.562501e+01 4.010649e+01 9.959826e+01 2.517878e+01 4.423359e+01 2.711139e+01 1.909783e+01 2.521531e+01 3.810034e+01 1.994309e+00 3.227622e+00 1.754308e+00 1.853127e+00 2.113994e+00 2.454826e+00 3.840962e+00 2.380795e+00 3.461006e+00 1.857189e+00 2.065835e+00 2.307038e+00 1.295077e+00 3.619548e-01 6.880505e-01 2.934183e-01 3.801937e-01 3.996899e-01 5.238965e-01 6.904159e-01 3.834393e-01 6.398799e-01 3.635451e-01 4.106097e-01 4.259250e-01 3.319814e-01
<GCONST> 1.193010e+02
<TRANSP> 5
 0.000000e+00 1.000000e+00 0.000000e+00 0.000000e+00 0.000000e+00
 0.000000e+00 4.787451e-01 5.212549e-01 0.000000e+00 0.000000e+00
 0.000000e+00 0.000000e+00 4.952784e-01 5.047216e-01 0.000000e+00
 0.000000e+00 0.000000e+00 0.000000e+00 5.410413e-01 4.589588e-01
 0.000000e+00 0.000000e+00 0.000000e+00 0.000000e+00 0.000000e+00
<ENDHMM>
~h "w"
<BEGINHMM>
<NUMSTATES> 5
<STATE> 2
<MEAN> 39
 -5.523101e+00 3.371931e+00 -1.960331e+00 8.497360e-01 -9.372578e-01 5.033819e+00 -1.480357e+01 -5.301123e+00 -1.292150e+01 -2.909977e+00 -4.588282e-01 -9.173270e-01 5.945132e+01 2.522583e-01 -1.001338e-02 -3.318224e-02 -4.418744e-01 7.634006e-02 3.077242e-01 -3.739654e-01 8.139513e-04 -2.702226e-01 -5.655844e-01 5.400024e-02 1.108805e-01 2.005319e-01 1.486204e-02 7.396842e-03 3.625795e-03 1.585917e-01 6.025380e-02 -7.038134e-02 -6.241121e-02 4.327762e-02 1.520403e-02 2.724219e-03 2.670511e-02 4.929886e-03 -3.713701e-02
<VARIANCE> 39
 8.738523e+01 9.724277e+01 6.782047e+01 7.542564e+01 5.811996e+01 4.470449e+01 7.990149e+01 8.697253e+01 4.181875e+01 3.067569e+01 2.885004e+01 3.182208e+01 3.600583e+01 2.240054e+00 3.729024e+00 3.270878e+00 3.251198e+00 3.654048e+00 3.569284e+00 4.738325e+00 3.065505e+00 3.284737e+00 2.192220e+00 2.717229e+00 2.430351e+00 1.879821e+00 3.524808e-01 5.256615e-01 4.673646e-01 6.176499e-01 5.277174e-01 5.503550e-01 5.957070e-01 5.759953e-01 4.583957e-01 4.135888e-01 4.368050e-01 4.415284e-01 2.499174e-01
<GCONST> 1.278306e+02
<STATE> 3
<MEAN> 39
 -5.379189e+00 3.064759e+00 -2.048763e+00 5.005975e-01 -7.158702e-01 5.268894e+00 -1.534052e+01 -4.726262e+00 -1.287477e+01 -3.805890e+00 -4.095960e-01 -8.476646e-01 5.960888e+01 2.451033e-01 -8.420757e-03 1.778077e-02 -1.472357e-01 2.413663e-01 2.574266e-02 -4.300636e-01 5.087189e-02 -1.564391e-01 -4.573196e-01 9.772551e-02 9.749035e-02 1.851368e-01 3.123438e-03 4.851070e-02 -4.723171e-03 1.935964e-01 1.297887e-02 -1.620062e-01 1.199133e-02 -1.575060e-02 2.586190e-02 1.572538e-01 2.005662e-02 -1.932829e-02 -5.191471e-02
<VARIANCE> 39
 8.804353e+01 9.458585e+01 6.524497e+01 6.874413e+01 5.953595e+01 4.660055e+01 8.020575e+01 8.705142e+01 4.826099e+01 3.070420e+01 3.297316e+01 2.749154e+01 3.550822e+01 2.219021e+00 3.429378e+00 3.221789e+00 3.624557e+00 3.731678e+00 2.939856e+00 4.231030e+00 2.884698e+00 3.524290e+00 2.427903e+00 2.728326e+00 2.134682e+00 2.065253e+00 2.970535e-01 5.202450e-01 4.868692e-01 5.619328e-01 5.874119e-01 6.027745e-01 6.340213e-01 5.079869e-01 4.737860e-01 4.381455e-01 4.143910e-01 4.372260e-01 2.583819e-01
<GCONST> 1.276225e+02
<STATE> 4
<MEAN> 39
 -6.666998e+00 2.727120e+00 -2.578875e+00 1.049028e+00 -1.121127e+00 4.698781e+00 -1.438312e+01 -3.319495e+00 -1.142453e+01 -3.836653e+00 -7.145780e-01 -4.781539e-01 5.847612e+01 2.659740e-01 2.304994e-01 -1.307500e-01 2.551865e-01 8.891371e-02 -1.639254e-01 -2.064322e-01 -2.634259e-02 -2.013761e-01 -3.992106e-02 8.691406e-02 8.034550e-02 -5.715841e-02 1.760235e-02 -8.606264e-03 4.754135e-03 1.153395e-01 -1.398654e-01 -8.424384e-02 1.511479e-02 -4.680791e-02 -2.451034e-02 2.073164e-01 3.247632e-02 -6.966398e-02 -3.274604e-02
<VARIANCE> 39
 8.579068e+01 8.272116e+01 6.240030e+01 5.929581e+01 5.561113e+01 4.807573e+01 8.513713e+01 8.672006e+01 6.715011e+01 3.619103e+01 3.540997e+01 1.924013e+01 4.234483e+01 2.350920e+00 3.373999e+00 3.000197e+00 3.450526e+00 3.378148e+00 2.511893e+00 3.877502e+00 2.612510e+00 3.146425e+00 2.418829e+00 2.109503e+00 1.840916e+00 1.902182e+00 2.057775e-01 5.366489e-01 5.779926e-01 5.401649e-01 5.832648e-01 5.654687e-01 7.572940e-01 4.748486e-01 5.257341e-01 4.279484e-01 4.351288e-01 3.063243e-01 3.420167e-01
<GCONST> 1.264364e+02
<TRANSP> 5
 0.000000e+00 1.000000e+00 0.000000e+00 0.000000e+00 0.000000e+00
 0.000000e+00 3.350141e-01 6.649859e-01 0.000000e+00 0.000000e+00
 0.000000e+00 0.000000e+00 3.371365e-01 6.628635e-01 0.000000e+00
 0.000000e+00 0.000000e+00 0.000000e+00 4.841442e-01 5.158557e-01
 0.000000e+00 0.000000e+00 0.000000e+00 0.000000e+00 0.000000e+00
<ENDHMM>
~h "y"
<BEGINHMM>
<NUMSTATES> 5
<STATE> 2
<MEAN> 39
 5.797303e-01 5.528975e+00 -2.236655e+00 5.376216e+00 5.512065e+00 1.099099e+00 -2.259298e+01 -9.663390e+00 -2.066273e+01 1.028037e+00 5.334552e+00 7.192380e-01 6.217260e+01 6.257493e-01 4.312181e-01 -2.617648e-01 -2.867725e-01 5.852353e-01 2.152664e-01 -7.323659e-01 -5.445489e-01 -4.989133e-01 2.956569e-01 3.516351e-01 1.166476e-01 2.415410e-01 -1.283501e-01 -3.492643e-02 -8.460777e-02 -1.447208e-01 -8.734846e-02 3.703775e-02 2.269646e-01 1.593999e-01 1.534372e-01 -1.722778e-02 -2.317057e-02 5.029484e-02 -6.664143e-02
<VARIANCE> 39
 2.560000e+01 3.001611e+01 8.158424e+01 1.085052e+02 3.212991e+01 4.535877e+01 3.338380e+01 3.859140e+01 3.915004e+01 7.017102e+01 4.018972e+01 4.684518e+01 5.995708e+00 2.060740e+00 2.443499e+00 1.799121e+00 4.867897e+00 1.273229e+00 2.286791e+00 3.757123e+00 2.458561e+00 2.317202e+00 2.636169e+00 1.577269e+00 2.965042e+00 7.878523e-01 1.419048e-01 3.051129e-01 1.964054e-01 6.036264e-01 1.898100e-01 3.348046e-01 4.361933e-01 3.644733e-01 2.365093e-01 4.701722e-01 2.870692e-01 4.559138e-01 8.156326e-02
<GCONST> 1.126943e+02
<STATE> 3
<MEAN> 39
 1.152665e+00 6.186668e+00 -2.513387e+00 4.135602e+00 5.555887e+00 2.780045e+00 -2.281171e+01 -1.038327e+01 -2.078963e+01 7.457749e-01 5.440619e+00 2.169471e-01 6.231776e+01 2.701630e-01 2.472956e-01 -5.238926e-01 -3.328170e-01 2.809156e-01 3.427238e-01 -1.514088e-02 7.229979e-02 -1.204048e-01 -1.407566e-02 1.694701e-01 -5.410641e-02 -1.735502e-02 -1.427790e-01 -7.303809e-02 -7.573152e-03 1.398212e-02 -8.484472e-02 4.196690e-02 2.088842e-01 1.460125e-01 1.478506e-01 -9.084524e-02 -5.477059e-02 3.313858e-02 -7.588690e-02
<VARIANCE> 39
 1.159456e+01 2.397959e+01 5.451361e+01 8.451912e+01 2.399181e+01 4.756299e+01 6.730590e+01 3.924563e+01 3.467434e+01 4.616673e+01 4.713496e+01 3.703020e+01 6.190481e+00 1.157577e+00 1.690475e+00 1.990530e+00 4.160554e+00 1.417396e+00 2.287107e+00 3.045302e+00 2.279290e+00 2.351995e+00 3.264974e+00 2.513377e+00 2.393356e+00 5.959072e-01 1.078744e-01 1.936335e-01 1.990991e-01 4.865032e-01 1.827737e-01 3.071434e-01 4.136597e-01 4.038958e-01 2.533735e-01 5.065609e-01 3.661040e-01 3.973154e-01 5.181541e-02
<GCONST> 1.087262e+02
<STATE> 4
<MEAN> 39
 -9.578598e-01 5.544363e+00 -2.969654e+00 5.950350e+00 5.668853e+00 3.998339e+00 -2.159456e+01 -9.199532e+00 -1.738703e+01 -3.202945e+00 1.759146e+00 -5.382030e-01 6.058525e+01 3.760267e-03 -3.484546e-02 -3.186248e-01 6.156764e-02 6.755917e-02 1.406651e-01 2.135403e-01 1.380039e-01 1.084156e-01 -2.272642e-01 -1.164946e-01 2.260037e-02 -8.540942e-02 -5.525382e-02 -4.011207e-02 5.648835e-02 7.053375e-02 -1.473862e-02 -3.105110e-02 6.310431e-02 4.599216e-02 7.690935e-02 -8.226849e-04 -6.571295e-02 -1.229449e-02 -1.228409e-02
<VARIANCE> 39
 3.933850e+01 2.903627e+01 5.085066e+01 6.463174e+01 2.586294e+01 5.764669e+01 1.056344e+02 3.467471e+01 5.158502e+01 3.181279e+01 4.142113e+01 2.195555e+01 1.253645e+01 2.019894e+00 2.223622e+00 2.567237e+00 3.715766e+00 2.449740e+00 3.899417e+00 7.367553e+00 3.180571e+00 2.508544e+00 2.245185e+00 2.033775e+00 1.571687e+00 1.252764e+00 2.475117e-01 3.886408e-01 2.734961e-01 4.563151e-01 4.116682e-01 5.965480e-01 1.141684e+00 6.306248e-01 4.108897e-01 4.008677e-01 3.308247e-01 2.762650e-01 2.338930e-01
<GCONST> 1.195536e+02
<TRANSP> 5
 0.000000e+00 1.000000e+00 0.000000e+00 0.000000e+00 0.000000e+00
 0.000000e+00 8.116506e-01 1.883494e-01 0.000000e+00 0.000000e+00
 0.000000e+00 0.000000e+00 7.754678e-01 2.245323e-01 0.000000e+00
 0.000000e+00 0.000000e+00 0.000000e+00 9.034846e-01 9.651542e-02
 0.000000e+00 0.000000e+00 0.000000e+00 0.000000e+00 0.000000e+00
<ENDHMM>
~h "z"
<BEGINHMM>
<NUMSTATES> 5
<STATE> 2
<MEAN> 39
 -9.848305e+00 -2.364275e+00 7.369524e+00 1.673232e+00 4.943081e-01 2.747913e+00 -1.636716e+01 -1.243924e+01 -1.384399e+01 -2.551996e+00 -2.968460e+00 -2.192750e+00 6.335200e+01 -1.271662e+00 -7.348485e-01 1.114607e+00 -6.646882e-01 1.173198e-01 7.893431e-02 8.851553e-01 -5.949966e-01 4.805004e-01 2.464266e-02 -3.735082e-01 2.835904e-01 3.052725e-01 -1.000142e-02 2.512320e-02 -2.121394e-01 -8.364827e-02 3.187148e-02 -5.228388e-03 1.037533e-01 6.758965e-02 2.316367e-02 5.155076e-03 7.238088e-02 6.523657e-02 -3.333006e-02
<VARIANCE> 39
 9.353854e+01 4.648029e+01 9.601458e+01 7.201944e+01 3.476106e+01 3.917206e+01 1.267506e+02 5.953667e+01 6.910674e+01 3.673464e+01 3.166740e+01 3.324565e+01 1.369899e+01 7.193753e+00 3.545417e+00 7.095095e+00 5.195796e+00 2.486946e+00 3.005639e+00 1.020755e+01 3.235071e+00 4.148671e+00 2.565412e+00 2.935314e+00 2.537275e+00 1.288710e+00 9.886793e-01 4.849429e-01 9.364076e-01 8.622836e-01 4.035431e-01 5.941945e-01 1.669684e+00 5.608507e-01 6.787946e-01 4.813553e-01 5.614767e-01 4.557731e-01 2.373772e-01
<GCONST> 1.330762e+02
<STATE> 3
<MEAN> 39
 -1.283531e+01 -4.218585e+00 7.944439e+00 -5.448111e-01 8.197253e-01 2.944982e+00 -1.385156e+01 -1.359510e+01 -1.330623e+01 -2.745702e+00 -3.540276e+00 -5.531882e-01 6.363233e+01 -2.920197e-01 -1.883710e-01 -1.628251e-01 -3.405187e-01 6.398863e-02 -9.868371e-03 2.402977e-01 -5.637819e-02 5.397270e-02 8.956283e-02 4.213494e-02 2.082352e-01 2.511493e-03 2.347408e-01 1.485461e-01 -2.569086e-01 1.148629e-01 -6.984258e-02 1.487904e-02 -1.437712e-01 1.492947e-01 -8.144987e-02 -1.077225e-02 7.592505e-02 -6.542029e-02 -9.316902e-02
<VARIANCE> 39
 8.803575e+01 4.276657e+01 9.629836e+01 7.348521e+01 3.891309e+01 3.786529e+01 1.147427e+02 5.684841e+01 7.001051e+01 2.840358e+01 2.507523e+01 3.217549e+01 1.753034e+01 8.472830e+00 3.991652e+00 6.288745e+00 5.120811e+00 2.705215e+00 3.691478e+00 1.012475e+01 3.391469e+00 3.687292e+00 2.427341e+00 2.544415e+00 2.627828e+00 1.332249e+00 9.788942e-01 5.626467e-01 8.569489e-01 7.209015e-01 4.325349e-01 7.269388e-01 1.548666e+00 5.648564e-01 5.929416e-01 4.850308e-01 5.221240e-01 5.028648e-01 2.405701e-01
<GCONST> 1.328380e+02
<STATE> 4
<MEAN> 39
 -1.099792e+01 -3.319370e+00 4.112371e+00 -1.911034e-01 1.152840e+00 2.705503e+00 -1.548484e+01 -1.097215e+01 -1.479954e+01 -2.234468e+00 -3.078814e+00 -6.853791e-01 6.225157e+01 4.468774e-01 4.038230e-01 -5.419848e-01 1.274511e-01 -2.898430e-01 8.957269e-02 -1.445176e-01 4.719110e-01 -7.561687e-02 -1.551987e-02 1.946773e-01 -6.288774e-02 -2.755586e-01 3.362560e-02 6.373814e-02 -9.100065e-02 1.898115e-03 -7.367965e-02 3.634834e-02 4.104283e-02 5.985062e-02 6.598819e-03 -2.618174e-02 1.509783e-02 -1.133662e-02 -6.812361e-02
<VARIANCE> 39
 1.011073e+02 5.191966e+01 8.836934e+01 8.081788e+01 5.700263e+01 4.758327e+01 1.069779e+02 5.704654e+01 8.565247e+01 2.709132e+01 2.420082e+01 3.287656e+01 2.612366e+01 5.897822e+00 4.445601e+00 4.800301e+00 4.680871e+00 3.099894e+00 4.020599e+00 7.307037e+00 2.955640e+00 3.480974e+00 2.542687e+00 2.605666e+00 2.397702e+00 1.159780e+00 7.615684e-01 6.442056e-01 6.443890e-01 7.640825e-01 4.836452e-01 7.972861e-01 1.203923e+00 5.019879e-01 5.942881e-01 5.019771e-01 5.062580e-01 4.427630e-01 1.953684e-01
<GCONST> 1.323503e+02
<TRANSP> 5
 0.000000e+00 1.000000e+00 0.000000e+00 0.000000e+00 0.000000e+00
 0.000000e+00 7.923356e-01 2.076644e-01 0.000000e+00 0.000000e+00
 0.000000e+00 0.000000e+00 7.730928e-01 2.269071e-01 0.000000e+00
 0.000000e+00 0.000000e+00 0.000000e+00 8.353747e-01 1.646252e-01
 0.000000e+00 0.000000e+00 0.000000e+00 0.000000e+00 0.000000e+00
<ENDHMM>
~h "aa"
<BEGINHMM>
<NUMSTATES> 5
<STATE> 2
<MEAN> 39
 -6.323987e-01 6.997858e+00 -3.807862e+00 -8.791722e+00 -1.834899e+00 8.201939e+00 -1.800848e+01 -4.416578e+00 -1.365557e+01 -3.366676e+00 6.575369e+00 2.892982e+00 6.190678e+01 5.820169e-02 2.481820e-01 -3.022615e-01 -4.704289e-01 1.837047e-02 1.778739e-01 -1.483445e-01 -5.192020e-02 -2.990954e-01 -3.346254e-01 2.493983e-01 1.822075e-01 -8.843646e-02 -5.432452e-03 -2.203682e-02 5.683455e-02 2.894817e-01 5.518492e-02 -6.061932e-02 1.790959e-02 -1.373478e-01 -3.340363e-02 3.475610e-02 -1.324897e-01 -4.326867e-02 -1.415410e-02
<VARIANCE> 39
 6.920587e+01 5.624457e+01 4.712008e+01 3.978088e+01 4.794622e+01 7.417395e+01 4.206091e+01 3.971619e+01 4.571714e+01 2.871595e+01 2.280678e+01 1.786985e+01 1.790928e+01 5.028242e-01 9.287608e-01 1.508763e+00 2.544163e+00 1.828944e+00 3.002538e+00 1.612099e+00 1.824964e+00 2.001887e+00 2.192040e+00 1.408662e+00 1.330941e+00 5.378262e-01 9.599765e-02 1.073207e-01 1.856357e-01 2.790444e-01 2.512482e-01 3.827310e-01 3.031175e-01 3.015648e-01 3.088502e-01 3.242059e-01 2.371855e-01 2.261064e-01 8.218546e-02
<GCONST> 1.040105e+02
<STATE> 3
<MEAN> 39
 -2.398775e+00 6.377297e+00 -4.589524e+00 -7.889517e+00 -2.282180e+00 7.458549e+00 -1.769977e+01 -4.176528e+00 -1.291088e+01 -3.253837e+00 5.688891e+00 2.914621e+00 6.039558e+01 4.662294e-02 1.433289e-01 -2.402872e-01 5.643615e-01 2.772438e-01 -1.404695e-01 -1.406915e-01 -2.468939e-01 -3.085900e-01 5.113113e-02 7.143222e-02 -1.015855e-02 -1.811873e-01 -5.389319e-03 -3.028017e-03 7.959063e-02 1.591204e-01 1.687802e-02 -2.502735e-02 -1.166065e-02 -3.927256e-02 -9.514648e-03 5.859239e-02 -7.258908e-02 -5.454237e-02 -1.858223e-02
<VARIANCE> 39
 8.177782e+01 5.545445e+01 3.964988e+01 4.430659e+01 3.215924e+01 5.621106e+01 4.780308e+01 4.714903e+01 3.950436e+01 2.133829e+01 2.797433e+01 2.226380e+01 3.659675e+01 8.538470e-01 8.539205e-01 1.297739e+00 2.090601e+00 1.328815e+00 2.627975e+00 2.188415e+00 1.752122e+00 1.908896e+00 1.671851e+00 1.617553e+00 1.336369e+00 8.564461e-01 9.065323e-02 1.290438e-01 2.519036e-01 3.332853e-01 2.088342e-01 4.012362e-01 3.596053e-01 2.744101e-01 2.568971e-01 2.870950e-01 3.073679e-01 2.326393e-01 9.786283e-02
<GCONST> 1.053221e+02
<STATE> 4
<MEAN> 39
 -2.158304e+00 7.394126e+00 -5.767395e+00 -4.398729e+00 -4.300911e-01 8.211879e+00 -1.720846e+01 -4.899334e+00 -1.399597e+01 -3.176289e+00 6.907660e+00 2.755576e+00 5.920492e+01 -1.225169e-01 -1.651175e-01 -2.850447e-01 1.085012e+00 2.285148e-01 -3.418327e-01 3.410955e-01 -7.132881e-02 -3.227559e-01 1.433347e-01 -2.115347e-01 -2.782575e-01 -2.623698e-01 -4.756256e-02 -8.341027e-02 2.923353e-02 7.913543e-02 -3.908991e-02 -1.666974e-02 9.982412e-02 9.662358e-02 4.376674e-02 3.135822e-02 -9.505928e-02 -5.584284e-02 -2.382434e-02
<VARIANCE> 39
 5.282130e+01 4.341972e+01 4.213965e+01 4.762751e+01 2.706026e+01 7.008788e+01 7.193150e+01 5.354442e+01 4.426000e+01 1.439493e+01 3.193056e+01 2.173324e+01 3.652179e+01 1.108116e+00 1.658765e+00 1.561493e+00 2.771497e+00 1.759938e+00 4.057792e+00 3.665627e+00 2.057962e+00 2.241416e+00 1.451455e+00 2.145420e+00 1.411291e+00 1.453532e+00 9.423436e-02 1.932255e-01 3.065197e-01 4.223091e-01 3.701009e-01 7.505882e-01 6.177944e-01 3.849455e-01 3.875742e-01 3.147411e-01 3.108842e-01 2.546191e-01 1.827388e-01
<GCONST> 1.130353e+02
<TRANSP> 5
 0.000000e+00 1.000000e+00 0.000000e+00 0.000000e+00 0.000000e+00
 0.000000e+00 7.671519e-01 2.328481e-01 0.000000e+00 0.000000e+00
 0.000000e+00 0.000000e+00 7.276545e-01 2.723455e-01 0.000000e+00
 0.000000e+00 0.000000e+00 0.000000e+00 7.912167e-01 2.087833e-01
 0.000000e+00 0.000000e+00 0.000000e+00 0.000000e+00 0.000000e+00
<ENDHMM>
~h "ae"
<BEGINHMM>
<NUMSTATES> 5
<STATE> 2
<MEAN> 39
 -3.438329e+00 2.520345e+00 -3.943748e+00 1.747271e+00 7.432237e-02 5.327629e+00 -1.900889e+01 -6.177588e+00 -1.209701e+01 -2.037637e+00 3.838769e-01 4.353602e-01 5.986330e+01 -6.728943e-02 4.613841e-02 1.346492e-01 4.016695e-01 1.937388e-01 2.438078e-02 -1.218117e-01 8.313720e-02 1.132510e-01 -2.179121e-02 -2.248251e-02 -8.816797e-02 -1.079876e-01 -1.211132e-01 -1.164883e-01 3.169139e-02 -4.978940e-02 4.864484e-02 -5.117840e-02 9.379583e-02 -2.887911e-02 2.736570e-02 9.198844e-02 5.209013e-02 4.047910e-03 3.981161e-02
<VARIANCE> 39
 6.443136e+01 5.073016e+01 6.868819e+01 6.277537e+01 2.942390e+01 4.959990e+01 6.321251e+01 3.769632e+01 4.767474e+01 3.757690e+01 2.575843e+01 2.165099e+01 3.436925e+01 3.162427e+00 2.708789e+00 2.030642e+00 2.286307e+00 1.976352e+00 3.026506e+00 5.164782e+00 2.808038e+00 3.026522e+00 1.956806e+00 1.635186e+00 1.795999e+00 2.343550e+00 5.268617e-01 5.992256e-01 3.567035e-01 4.407312e-01 4.242561e-01 5.616827e-01 9.597277e-01 6.088648e-01 7.071527e-01 3.939915e-01 3.949207e-01 3.602701e-01 3.933403e-01
<GCONST> 1.232703e+02
<STATE> 3
<MEAN> 39
 -4.276929e+00 2.222067e+00 -3.662599e+00 2.826269e+00 3.226285e-01 5.366210e+00 -1.861417e+01 -6.071193e+00 -1.180178e+01 -1.723106e+00 1.905470e-01 2.383546e-01 5.929546e+01 -2.355610e-01 -2.402257e-01 2.562473e-01 1.753243e-01 2.470448e-01 -1.347557e-01 1.268730e-01 6.552763e-02 1.651362e-01 2.275813e-01 1.090309e-01 -6.220056e-03 6.457728e-02 -5.985124e-02 -1.030318e-01 7.889256e-02 -1.678863e-01 4.280422e-02 -7.290275e-02 1.306172e-01 -8.064791e-03 -1.352065e-02 9.834399e-02 8.234227e-02 4.389646e-02 1.205919e-01
<VARIANCE> 39
 5.688668e+01 5.457389e+01 6.656752e+01 5.901822e+01 2.966327e+01 5.281853e+01 6.404021e+01 3.735516e+01 4.419202e+01 4.097314e+01 2.854703e+01 2.008018e+01 3.148741e+01 3.726566e+00 3.741153e+00 2.804882e+00 3.371457e+00 2.645447e+00 3.236083e+00 6.643003e+00 3.342768e+00 2.987306e+00 2.048146e+00 1.837210e+00 1.861529e+00 3.172711e+00 7.149650e-01 7.902390e-01 5.738934e-01 5.747528e-01 5.285327e-01 6.451131e-01 1.055615e+00 6.740610e-01 7.455736e-01 4.593549e-01 4.016910e-01 3.689993e-01 4.582255e-01
<GCONST> 1.279003e+02
<STATE> 4
<MEAN> 39
 -5.990762e+00 1.222085e-01 -3.624537e+00 9.460309e-01 1.218075e+00 5.425942e+00 -1.626309e+01 -6.410024e+00 -1.127969e+01 -3.703925e-01 1.104056e+00 8.555217e-01 6.019876e+01 2.677893e-02 -4.054642e-01 3.887610e-01 -4.059601e-01 2.009117e-01 -4.928229e-01 8.008977e-03 -2.108918e-01 -5.079464e-02 2.185410e-01 2.513655e-01 -2.918481e-02 6.493899e-01 6.245433e-03 1.531964e-02 5.553034e-02 -7.960789e-02 -3.715705e-02 -2.278240e-02 -2.414362e-02 -5.112599e-02 -1.676283e-02 -7.874886e-02 -6.883178e-03 -2.174162e-02 5.280218e-02
<VARIANCE> 39
 5.697071e+01 4.678660e+01 9.789081e+01 6.846440e+01 3.011002e+01 4.789189e+01 8.448963e+01 4.008645e+01 3.832970e+01 3.083716e+01 3.024140e+01 2.283398e+01 3.129199e+01 6.148909e+00 5.187442e+00 4.558661e+00 4.313713e+00 3.297682e+00 4.545940e+00 6.609713e+00 4.419663e+00 3.286396e+00 2.625158e+00 2.357017e+00 2.049235e+00 3.713350e+00 7.130773e-01 8.893220e-01 7.748631e-01 7.248949e-01 6.503965e-01 8.750197e-01 1.110812e+00 8.300856e-01 6.472025e-01 5.093107e-01 4.011341e-01 4.346351e-01 6.347946e-01
<GCONST> 1.334098e+02
<TRANSP> 5
 0.000000e+00 1.000000e+00 0.000000e+00 0.000000e+00 0.000000e+00
 0.000000e+00 4.658892e-01 5.341108e-01 0.000000e+00 0.000000e+00
 0.000000e+00 0.000000e+00 4.642452e-01 5.357548e-01 0.000000e+00
 0.000000e+00 0.000000e+00 0.000000e+00 6.784063e-01 3.215937e-01
 0.000000e+00 0.000000e+00 0.000000e+00 0.000000e+00 0.000000e+00
<ENDHMM>
~h "ah"
<BEGINHMM>
<NUMSTATES> 5
<STATE> 2
<MEAN> 39
 -6.238663e+00 -1.388265e+00 -2.834455e+00 1.928823e+00 -2.161522e+00 2.316527e+00 -1.620639e+01 -6.590961e+00 -1.274932e+01 -3.667489e+00 7.584824e-01 -1.099289e-01 6.075971e+01 7.394817e-01 -3.385688e-01 1.167987e-01 -5.779272e-02 1.246116e-01 -2.622473e-01 -1.112633e+00 -6.049911e-01 -5.783660e-01 -8.877409e-02 3.369636e-01 -2.251950e-02 6.763253e-01 3.503862e-02 1.895730e-01 1.566178e-01 -6.583496e-02 -6.551387e-02 5.202071e-02 -1.550737e-02 2.649705e-02 1.093482e-01 3.068993e-02 -1.272312e-01 -8.700252e-02 -1.044399e-02
<VARIANCE> 39
 7.472023e+01 1.281825e+02 5.009527e+01 6.664343e+01 6.236967e+01 4.784577e+01 7.606877e+01 6.059475e+01 5.952439e+01 3.082863e+01 3.870892e+01 1.771260e+01 3.571400e+01 4.275396e+00 8.170737e+00 3.556562e+00 4.490323e+00 2.596484e+00 4.784963e+00 6.716938e+00 5.023279e+00 4.480926e+00 1.917348e+00 3.770484e+00 1.744679e+00 4.295615e+00 4.903686e-01 1.254035e+00 5.297714e-01 7.633914e-01 4.579103e-01 8.074808e-01 1.133917e+00 9.634304e-01 8.965409e-01 4.038207e-01 5.799596e-01 3.419384e-01 6.170403e-01
<GCONST> 1.354552e+02
<STATE> 3
<MEAN> 39
 -4.429646e+00 -2.753275e-01 -1.595873e+00 1.504186e+00 -1.137099e+00 2.006158e+00 -1.849942e+01 -8.788236e+00 -1.372496e+01 -4.406915e+00 4.070320e-01 -5.513336e-01 6.226407e+01 5.227897e-01 3.488208e-01 1.402055e-01 -2.432942e-01 -1.062192e-01 6.402564e-02 -3.747704e-01 -1.038052e-01 -1.954758e-01 -1.468239e-01 -6.268323e-02 -9.663678e-02 2.529211e-01 -1.018275e-01 8.988763e-02 4.729264e-02 7.252847e-03 -7.634465e-02 3.941783e-02 1.768360e-01 1.274765e-01 1.120283e-01 1.485690e-02 -7.933594e-02 -3.131761e-02 -1.010182e-01
<VARIANCE> 39
 5.160710e+01 7.390524e+01 5.102617e+01 6.496939e+01 5.180648e+01 3.937605e+01 7.473199e+01 5.070314e+01 5.127612e+01 2.875727e+01 3.797863e+01 2.210328e+01 2.846885e+01 4.435118e+00 6.746060e+00 3.889553e+00 5.148369e+00 2.563254e+00 3.944796e+00 6.695406e+00 4.692974e+00 5.033237e+00 2.199650e+00 3.033940e+00 2.396148e+00 3.966019e+00 6.204847e-01 9.983132e-01 5.444115e-01 9.891971e-01 4.337533e-01 7.680464e-01 1.133749e+00 9.676437e-01 1.053377e+00 4.015318e-01 5.465828e-01 4.854503e-01 6.634852e-01
<GCONST> 1.344888e+02
<STATE> 4
<MEAN> 39
 -3.748592e+00 1.059174e+00 -1.061235e+00 -1.055588e+00 -3.085981e+00 2.217791e+00 -1.797505e+01 -6.793196e+00 -1.228817e+01 -5.074450e+00 4.798132e-01 -5.936759e-01 6.282692e+01 3.633260e-02 1.889013e-01 2.591471e-01 -4.618064e-02 -9.693550e-02 7.379318e-02 -4.266886e-02 9.611341e-02 4.253418e-02 -3.837360e-02 -4.122897e-02 -1.033472e-01 1.403709e-02 -1.011422e-01 2.658498e-02 2.892912e-02 9.087710e-02 2.903013e-03 5.978770e-02 1.103972e-01 2.011475e-02 1.117465e-01 2.654569e-02 -1.943756e-02 -2.360116e-02 -7.977782e-02
<VARIANCE> 39
 6.165886e+01 5.936406e+01 5.200504e+01 5.295047e+01 5.651306e+01 2.801662e+01 6.578430e+01 4.255628e+01 5.147890e+01 3.642947e+01 3.518971e+01 2.232813e+01 2.884992e+01 3.828790e+00 4.215547e+00 4.071047e+00 3.215295e+00 2.974745e+00 2.870549e+00 5.116656e+00 4.452906e+00 4.176552e+00 2.129286e+00 2.607712e+00 2.062847e+00 2.632487e+00 5.470634e-01 6.845735e-01 5.388256e-01 5.892197e-01 4.239775e-01 5.473348e-01 8.720354e-01 8.296961e-01 8.671145e-01 3.614897e-01 4.853830e-01 4.316289e-01 4.656863e-01
<GCONST> 1.287314e+02
<TRANSP> 5
 0.000000e+00 1.000000e+00 0.000000e+00 0.000000e+00 0.000000e+00
 0.000000e+00 6.043571e-01 3.956428e-01 0.000000e+00 0.000000e+00
 0.000000e+00 0.000000e+00 7.021978e-01 2.978022e-01 0.000000e+00
 0.000000e+00 0.000000e+00 0.000000e+00 6.859556e-01 3.140444e-01
 0.000000e+00 0.000000e+00 0.000000e+00 0.000000e+00 0.000000e+00
<ENDHMM>
~h "ao"
<BEGINHMM>
<NUMSTATES> 5
<STATE> 2
<MEAN> 39
 -3.932365e-01 9.517584e+00 -6.096653e+00 -1.098086e+00 -3.732283e+00 5.989698e+00 -1.402987e+01 -6.581257e+00 -1.681668e+01 -6.469675e+00 -1.282490e+00 4.360040e-01 5.862957e+01 -5.201483e-02 -6.329560e-02 -3.252625e-01 -2.213053e-01 3.410592e-02 -1.026265e-02 8.208507e-02 7.938644e-02 2.091522e-01 -2.818232e-01 5.735213e-02 2.443069e-01 3.394286e-03 -8.253813e-02 -3.663134e-02 5.206768e-02 8.869629e-02 -3.014100e-02 -1.838500e-01 -7.676567e-03 9.437761e-02 1.288008e-01 7.560343e-02 -8.057858e-02 1.037377e-02 -3.558087e-02
<VARIANCE> 39
 5.126082e+01 9.459257e+01 3.715396e+01 3.450350e+01 6.355696e+01 4.680717e+01 3.895064e+01 3.750412e+01 5.886790e+01 2.697796e+01 2.185255e+01 3.276936e+01 1.500852e+01 1.965598e+00 4.441767e+00 2.640377e+00 2.821044e+00 2.395529e+00 3.733269e+00 3.348092e+00 3.107153e+00 3.269822e+00 2.207339e+00 1.535978e+00 2.537815e+00 1.384434e+00 3.341051e-01 5.479582e-01 3.042714e-01 3.953679e-01 3.697385e-01 5.440902e-01 4.459449e-01 4.253655e-01 4.386742e-01 3.350220e-01 3.234965e-01 3.677882e-01 1.669951e-01
<GCONST> 1.187097e+02
<STATE> 3
<MEAN> 39
 -2.476089e+00 5.957343e+00 -6.165390e+00 -8.464039e-01 -1.846637e+00 5.126362e+00 -1.498006e+01 -5.363713e+00 -1.551564e+01 -7.348164e+00 -5.205289e-01 1.793460e+00 5.911477e+01 2.117041e-02 -6.849647e-02 1.413662e-01 6.800832e-02 -3.629816e-01 -9.427881e-01 -2.784353e-01 6.581862e-01 7.322426e-01 2.426250e-03 -3.696084e-01 3.472149e-02 8.898671e-02 9.704678e-02 1.755424e-01 1.426286e-01 6.084554e-02 -6.378990e-02 -1.038930e-01 -5.069228e-02 2.548586e-02 -1.402519e-02 1.107190e-01 -6.418931e-02 -7.724074e-02 5.111593e-03
<VARIANCE> 39
 7.276546e+01 9.829457e+01 6.307355e+01 3.550502e+01 5.572983e+01 7.128102e+01 5.882782e+01 6.824796e+01 7.288857e+01 2.745075e+01 2.115302e+01 2.171317e+01 2.009999e+01 3.177308e+00 5.580513e+00 2.706886e+00 3.849118e+00 4.523614e+00 5.086943e+00 4.861623e+00 4.624692e+00 3.919348e+00 2.201598e+00 1.779889e+00 1.946378e+00 1.671991e+00 5.782991e-01 9.828533e-01 4.381238e-01 4.916681e-01 5.317146e-01 8.017156e-01 6.730356e-01 7.682469e-01 7.556637e-01 3.617926e-01 3.865120e-01 3.225273e-01 2.828089e-01
<GCONST> 1.287080e+02
<STATE> 4
<MEAN> 39
 -2.034007e+00 6.785607e+00 -5.097650e+00 -2.437209e+00 -3.529503e+00 2.991724e+00 -1.552479e+01 -2.175271e+00 -1.286716e+01 -6.950448e+00 -2.184773e+00 9.075524e-01 5.945604e+01 2.350846e-01 3.099041e-01 1.156178e-01 -8.673713e-02 1.602602e-03 -3.066411e-01 -6.858834e-02 -2.607092e-01 -2.094301e-01 2.654076e-01 -2.092248e-01 -1.976093e-01 9.812995e-02 3.583745e-02 6.997747e-02 5.408513e-02 2.337092e-02 7.265116e-03 1.583700e-01 1.004793e-03 -2.525041e-01 -2.517911e-01 -9.766926e-03 1.194901e-01 5.293140e-03 -8.795117e-03
<VARIANCE> 39
 7.786710e+01 8.897015e+01 7.544331e+01 4.706796e+01 5.566673e+01 7.607983e+01 6.708494e+01 8.866362e+01 5.967268e+01 2.405085e+01 3.424160e+01 2.591728e+01 2.007916e+01 3.014794e+00 3.116051e+00 2.328614e+00 2.075962e+00 4.010436e+00 4.376261e+00 2.709710e+00 4.060257e+00 5.113102e+00 1.417935e+00 2.037431e+00 1.698318e+00 1.313095e+00 3.744511e-01 5.827628e-01 2.845874e-01 4.024242e-01 4.508172e-01 5.746568e-01 4.604600e-01 4.643223e-01 5.475153e-01 2.541432e-01 3.898073e-01 2.843274e-01 1.727698e-01
<GCONST> 1.228578e+02
<TRANSP> 5
 0.000000e+00 1.000000e+00 0.000000e+00 0.000000e+00 0.000000e+00
 0.000000e+00 6.772406e-01 3.227594e-01 0.000000e+00 0.000000e+00
 0.000000e+00 0.000000e+00 6.096392e-01 3.903608e-01 0.000000e+00
 0.000000e+00 0.000000e+00 0.000000e+00 6.519003e-01 3.480997e-01
 0.000000e+00 0.000000e+00 0.000000e+00 0.000000e+00 0.000000e+00
<ENDHMM>
~h "aw"
<BEGINHMM>
<NUMSTATES> 5
<STATE> 2
<MEAN> 39
 -9.407804e+00 2.419169e+00 7.082062e-01 -6.597743e+00 7.945263e-01 1.239814e+01 -1.316375e+01 -5.469143e+00 -1.055895e+01 -3.638342e+00 5.241349e-01 2.639486e+00 5.915216e+01 -4.103050e-01 1.620163e-01 4.132146e-01 8.371916e-02 -1.787246e-01 -2.271106e-01 3.276417e-01 -1.040429e-01 4.530498e-02 -2.400409e-01 -1.862798e-01 -6.418373e-02 -1.861965e-01 5.118086e-03 1.246849e-02 -6.721466e-03 1.917553e-01 -3.240380e-02 -1.261379e-02 8.050346e-02 1.942619e-02 -1.981868e-02 6.957769e-02 -6.469300e-02 -7.583742e-02 -6.501659e-02
<VARIANCE> 39
 1.688528e+02 1.032166e+02 7.815784e+01 1.025794e+02 3.802596e+01 1.976702e+01 4.255148e+01 3.429010e+01 3.213052e+01 5.383895e+01 1.063982e+01 3.851575e+01 1.650913e+01 2.093284e+00 3.898468e+00 5.501550e+00 3.810575e+00 2.660014e+00 2.101471e+00 2.450780e+00 2.194057e+00 1.804004e+00 2.471027e+00 9.745803e-01 1.694726e+00 1.542809e+00 1.970121e-01 4.664018e-01 1.099200e+00 3.638266e-01 4.853078e-01 3.114788e-01 3.390298e-01 3.730613e-01 3.367686e-01 4.349775e-01 1.970154e-01 2.817920e-01 2.529003e-01
<GCONST> 1.181436e+02
<STATE> 3
<MEAN> 39
 -3.683070e+00 6.406434e+00 -3.130507e+00 -4.800099e-01 -2.162909e+00 1.002311e+01 -1.184856e+01 -4.390234e+00 -1.057119e+01 -3.594694e+00 -2.424682e+00 6.181639e-01 5.836874e+01 1.204243e-01 4.645131e-01 -2.122865e-01 1.129710e+00 -6.413771e-01 -9.426982e-02 1.698339e-01 -5.263728e-02 -6.099970e-02 1.928136e-01 -6.034428e-01 -2.261296e-01 -6.685374e-01 -6.892808e-02 -2.175567e-01 -1.595944e-01 -1.182737e-01 1.616720e-01 -5.452560e-02 -1.370572e-01 6.095482e-02 -1.329114e-02 2.188109e-03 1.156460e-01 -7.258001e-02 6.911339e-02
<VARIANCE> 39
 9.201517e+01 5.770241e+01 5.310086e+01 6.207561e+01 3.074787e+01 1.280013e+01 3.237929e+01 1.840840e+01 2.961222e+01 4.111527e+01 1.213053e+01 1.830221e+01 2.910442e+01 1.922489e+00 2.083290e+00 2.187908e+00 3.318756e+00 1.439878e+00 1.141882e+00 2.123220e+00 1.764143e+00 1.334567e+00 2.041198e+00 1.125112e+00 1.805825e+00 7.870691e-01 1.717780e-01 3.331195e-01 3.803000e-01 3.510689e-01 2.672094e-01 2.150276e-01 2.759397e-01 2.304249e-01 2.291730e-01 3.291967e-01 3.178241e-01 2.736383e-01 2.003942e-01
<GCONST> 1.061378e+02
<STATE> 4
<MEAN> 39
 -2.913828e+00 6.314198e+00 -5.256831e+00 1.657331e+00 -3.948014e+00 9.090062e+00 -1.195898e+01 -4.774179e+00 -1.000386e+01 -2.150877e+00 -3.725537e+00 1.420987e-01 5.741185e+01 -1.576951e-01 -1.256005e-01 -2.750427e-01 4.524460e-01 -4.137858e-01 -5.145801e-01 -2.933173e-01 -1.257690e-01 1.861772e-01 6.720623e-02 -1.762412e-01 -1.728679e-01 -2.847886e-01 -5.645899e-02 -2.629730e-01 1.268098e-01 -2.368883e-01 4.418482e-02 -1.944095e-01 -1.303216e-01 -1.496699e-01 -3.908288e-02 2.103059e-02 1.348822e-01 -3.010878e-02 2.359849e-01
<VARIANCE> 39
 6.282335e+01 3.319486e+01 3.246986e+01 3.238585e+01 3.128618e+01 1.712065e+01 4.173642e+01 3.125378e+01 2.565160e+01 3.268890e+01 1.437714e+01 1.274906e+01 3.859112e+01 1.119138e+00 1.752302e+00 3.555396e+00 1.904596e+00 1.143940e+00 1.152552e+00 1.297451e+00 1.610373e+00 1.177586e+00 1.162952e+00 1.744293e+00 1.282795e+00 9.311311e-01 2.415467e-01 3.692446e-01 4.783929e-01 3.139589e-01 2.569743e-01 2.372470e-01 3.511117e-01 2.503193e-01 1.753167e-01 3.172619e-01 3.760754e-01 1.891010e-01 2.269826e-01
<GCONST> 1.034213e+02
<TRANSP> 5
 0.000000e+00 1.000000e+00 0.000000e+00 0.000000e+00 0.000000e+00
 0.000000e+00 8.793549e-01 1.206451e-01 0.000000e+00 0.000000e+00
 0.000000e+00 0.000000e+00 5.619605e-01 4.380395e-01 0.000000e+00
 0.000000e+00 0.000000e+00 0.000000e+00 6.813501e-01 3.186499e-01
 0.000000e+00 0.000000e+00 0.000000e+00 0.000000e+00 0.000000e+00
<ENDHMM>
~h "ax"
<BEGINHMM>
<NUMSTATES> 5
<STATE> 2
<MEAN> 39
 -1.422494e+00 5.149457e+00 -2.044621e+00 2.617344e+00 -1.019632e-01 5.564551e+00 -1.836673e+01 -7.243832e+00 -1.527450e+01 -3.619777e+00 9.940486e-02 -4.312736e-02 6.054016e+01 2.510458e-02 3.360180e-01 1.194628e-01 -1.221830e-01 -3.539069e-03 3.344208e-01 1.258940e-01 1.289250e-01 6.245695e-02 -8.039670e-02 4.578367e-02 1.010079e-01 -1.207487e-01 -1.260133e-01 -6.913653e-02 -6.504016e-02 2.917644e-02 -1.355571e-02 -6.031943e-02 9.549148e-02 -2.544456e-03 1.042344e-01 6.742064e-02 -3.554592e-02 -4.484567e-03 -6.586649e-02
<VARIANCE> 39
 3.219973e+01 4.689512e+01 5.408362e+01 4.530543e+01 3.339924e+01 4.770187e+01 7.487036e+01 6.530615e+01 4.796898e+01 4.267649e+01 3.974435e+01 2.583305e+01 2.278701e+01 1.936559e+00 2.585122e+00 2.340713e+00 2.600853e+00 1.919715e+00 2.389439e+00 4.768373e+00 2.911376e+00 2.521881e+00 2.205514e+00 1.683289e+00 1.635985e+00 2.027199e+00 2.984146e-01 4.383215e-01 2.792258e-01 3.650056e-01 2.862996e-01 3.650812e-01 6.471195e-01 4.811204e-01 4.834060e-01 4.173837e-01 3.730275e-01 2.780284e-01 2.316925e-01
<GCONST> 1.182884e+02
<STATE> 3
<MEAN> 39
 -1.561442e+00 5.622189e+00 -1.944644e+00 2.579434e+00 -1.404996e-01 6.024933e+00 -1.784800e+01 -6.834304e+00 -1.483450e+01 -3.623646e+00 -2.805250e-03 1.874716e-01 6.020638e+01 -1.511772e-01 2.754779e-01 1.638085e-02 -3.172675e-02 -2.032506e-02 2.485233e-01 2.780729e-01 6.881204e-02 1.875596e-01 3.719825e-04 -8.242148e-02 6.167590e-02 -2.363321e-01 -1.224577e-01 -1.491397e-01 -2.473854e-02 1.293480e-02 9.251392e-03 -8.464257e-02 2.636173e-02 -3.957872e-02 8.330557e-02 6.139224e-02 -2.697329e-02 -2.931810e-02 2.576946e-03
<VARIANCE> 39
 3.242714e+01 4.471944e+01 5.531983e+01 5.139794e+01 3.406346e+01 4.719535e+01 7.405625e+01 6.040654e+01 4.541593e+01 4.334771e+01 4.074482e+01 2.934936e+01 2.460453e+01 1.608145e+00 2.077393e+00 1.784861e+00 2.444624e+00 1.602794e+00 2.336725e+00 4.387112e+00 2.909396e+00 2.282592e+00 2.094512e+00 1.830946e+00 1.666427e+00 1.757982e+00 2.788412e-01 4.414094e-01 3.108753e-01 3.818915e-01 2.937990e-01 3.539773e-01 6.912633e-01 3.984016e-01 4.293667e-01 3.738773e-01 3.636115e-01 2.806350e-01 2.485302e-01
<GCONST> 1.170807e+02
<STATE> 4
<MEAN> 39
 -1.975244e+00 6.230356e+00 -2.482983e+00 2.928820e+00 -1.313020e-01 6.467102e+00 -1.684928e+01 -6.176087e+00 -1.391269e+01 -3.123487e+00 1.322255e-02 2.981295e-01 5.938241e+01 -3.758270e-01 -2.150291e-02 3.693190e-02 8.601408e-02 3.928589e-02 9.722520e-02 2.563552e-01 2.339164e-03 2.186303e-01 4.075994e-02 -1.342327e-01 -1.035001e-02 -2.355115e-01 -1.004741e-01 -2.553066e-01 4.799895e-02 -5.562143e-02 5.643490e-02 -1.174040e-01 -7.995835e-02 -4.095908e-02 4.712921e-02 4.848439e-02 2.721962e-02 -2.331943e-02 1.213843e-01
<VARIANCE> 39
 3.396003e+01 4.181565e+01 5.181335e+01 5.296596e+01 3.518826e+01 4.563464e+01 7.721897e+01 5.968410e+01 4.555656e+01 4.146111e+01 3.757775e+01 3.133449e+01 2.859223e+01 1.486417e+00 2.298382e+00 1.634581e+00 2.216740e+00 1.561312e+00 2.255676e+00 3.762913e+00 2.525773e+00 2.217415e+00 1.793603e+00 1.898831e+00 1.546917e+00 1.447798e+00 2.839159e-01 4.149524e-01 2.718624e-01 4.118917e-01 2.847020e-01 3.702813e-01 7.331587e-01 3.868167e-01 4.084230e-01 3.250134e-01 3.630147e-01 3.044225e-01 2.647549e-01
<GCONST> 1.161038e+02
<TRANSP> 5
 0.000000e+00 1.000000e+00 0.000000e+00 0.000000e+00 0.000000e+00
 0.000000e+00 3.883955e-01 6.116045e-01 0.000000e+00 0.000000e+00
 0.000000e+00 0.000000e+00 3.871019e-01 6.128981e-01 0.000000e+00
 0.000000e+00 0.000000e+00 0.000000e+00 4.871141e-01 5.128858e-01
 0.000000e+00 0.000000e+00 0.000000e+00 0.000000e+00 0.000000e+00
<ENDHMM>
~h "ay"
<BEGINHMM>
<NUMSTATES> 5
<STATE> 2
<MEAN> 39
 -9.904107e-01 3.614691e+00 -3.331346e+00 -9.815204e-01 -2.934841e+00 6.553345e+00 -1.667229e+01 -1.883225e+00 -8.947725e+00 -1.444624e+00 3.045943e-01 3.757346e-02 6.147009e+01 1.266826e-01 -8.960680e-02 -1.240290e-01 1.058255e-01 4.003860e-01 2.598807e-02 -2.713803e-01 6.732786e-01 1.946483e-01 8.527435e-02 8.893529e-02 -3.360598e-01 6.060240e-02 -7.004722e-02 -6.012335e-02 8.489295e-02 2.641343e-02 8.109759e-02 -1.063401e-01 -7.140546e-02 -8.211779e-02 -1.193416e-01 -1.916234e-02 3.831626e-02 -5.991671e-02 2.833910e-02
<VARIANCE> 39
 3.771598e+01 3.418795e+01 5.951558e+01 5.806705e+01 2.395342e+01 5.406215e+01 8.770306e+01 5.622879e+01 3.417702e+01 4.568356e+01 2.061688e+01 2.443483e+01 3.606054e+01 1.112018e+00 1.419995e+00 1.264192e+00 1.386785e+00 1.478928e+00 1.781641e+00 2.408503e+00 3.516489e+00 1.570183e+00 1.580263e+00 1.591763e+00 1.175406e+00 7.845488e-01 2.872219e-01 2.278188e-01 2.573408e-01 1.863542e-01 2.464176e-01 3.010335e-01 4.249270e-01 4.362589e-01 2.855260e-01 2.419903e-01 3.009956e-01 2.543506e-01 1.435087e-01
<GCONST> 1.079993e+02
<STATE> 3
<MEAN> 39
 -1.147070e+00 3.035671e+00 -3.490363e+00 -3.777669e-01 -1.489606e+00 5.987621e+00 -1.771136e+01 -1.151290e+00 -9.389338e+00 -6.705979e-01 1.187099e+00 -6.318225e-01 6.149945e+01 1.631234e-01 -1.185098e-01 9.960173e-02 2.111565e-01 4.470974e-01 -2.091921e-01 -6.148630e-01 2.469815e-01 -1.648623e-01 1.333072e-01 1.401537e-01 -4.875605e-01 1.614036e-01 3.397085e-02 3.645469e-02 7.502192e-02 6.040288e-02 1.883787e-04 -6.786589e-02 -5.084381e-02 -1.546408e-01 -1.221613e-01 -2.355007e-02 9.025936e-03 -5.335537e-02 3.328845e-02
<VARIANCE> 39
 3.707456e+01 3.041013e+01 6.248088e+01 6.249077e+01 2.574107e+01 5.221975e+01 9.276732e+01 6.673101e+01 3.166144e+01 5.055603e+01 2.705941e+01 2.510474e+01 3.272524e+01 1.462599e+00 1.392122e+00 1.582050e+00 1.788354e+00 1.490051e+00 1.931220e+00 2.657093e+00 3.093545e+00 1.482304e+00 1.799505e+00 2.060226e+00 1.493432e+00 1.291471e+00 2.503925e-01 1.767876e-01 2.328753e-01 2.154579e-01 2.374195e-01 2.768360e-01 5.242977e-01 3.715469e-01 2.990033e-01 2.232560e-01 3.419772e-01 2.339335e-01 1.813468e-01
<GCONST> 1.101643e+02
<STATE> 4
<MEAN> 39
 -6.475108e-01 2.831579e+00 -3.170867e+00 2.787806e-01 1.837732e-01 5.120840e+00 -1.957034e+01 -9.611451e-01 -1.053075e+01 -1.602724e-02 2.071373e+00 -2.031632e+00 6.199782e+01 1.036345e-01 3.435093e-02 1.782994e-01 5.343190e-01 3.783385e-01 -3.697442e-01 -5.110432e-01 -1.655350e-01 -3.804272e-01 1.272859e-01 -3.654815e-04 -5.105113e-01 2.872605e-02 -1.352321e-02 7.518684e-02 3.137385e-03 2.774419e-02 -4.118282e-02 -2.618850e-03 1.127265e-01 -8.195266e-02 -2.250250e-02 -2.762987e-02 2.974819e-03 3.320306e-02 -3.124025e-02
<VARIANCE> 39
 3.009269e+01 2.234264e+01 5.331100e+01 6.394180e+01 2.971709e+01 5.016446e+01 8.603938e+01 7.132448e+01 2.986584e+01 4.609495e+01 3.181358e+01 2.863295e+01 2.424622e+01 1.532257e+00 1.463087e+00 1.565107e+00 2.115849e+00 1.472509e+00 1.994470e+00 2.954412e+00 2.234485e+00 1.661096e+00 2.017574e+00 1.978049e+00 1.337074e+00 1.585809e+00 2.242713e-01 1.592690e-01 2.120408e-01 2.691072e-01 2.398299e-01 3.153156e-01 5.349225e-01 3.655376e-01 3.010254e-01 2.191003e-01 3.784425e-01 2.592480e-01 2.082728e-01
<GCONST> 1.101747e+02
<TRANSP> 5
 0.000000e+00 1.000000e+00 0.000000e+00 0.000000e+00 0.000000e+00
 0.000000e+00 5.346153e-01 4.653848e-01 0.000000e+00 0.000000e+00
 0.000000e+00 0.000000e+00 5.052812e-01 4.947188e-01 0.000000e+00
 0.000000e+00 0.000000e+00 0.000000e+00 6.232275e-01 3.767725e-01
 0.000000e+00 0.000000e+00 0.000000e+00 0.000000e+00 0.000000e+00
<ENDHMM>
~h "ch"
<BEGINHMM>
<NUMSTATES> 5
<STATE> 2
<MEAN> 39
 -8.515198e+00 -1.132038e+00 5.233366e+00 8.774403e+00 -3.223688e+00 9.739686e-01 -1.706132e+01 -3.009427e+00 -1.355236e+01 -9.622591e-01 2.287712e+00 -8.406900e+00 5.956318e+01 -1.926064e-01 -1.121910e+00 1.446049e+00 9.728283e-02 -1.381086e-01 -6.556367e-01 -2.943339e-01 -1.925140e-01 2.717049e-02 -1.789300e-02 7.586334e-01 -1.217264e-01 1.054260e+00 -1.289840e-01 -7.441167e-02 2.387083e-01 -9.091855e-02 -4.498541e-02 -3.217058e-02 9.048025e-02 -1.560214e-01 1.886317e-01 -7.153843e-03 -9.745598e-02 1.715523e-01 1.032644e-01
<VARIANCE> 39
 5.444918e+01 4.255975e+01 7.786990e+01 6.661576e+01 2.636475e+01 2.360081e+01 7.779593e+01 3.753971e+01 2.671463e+01 3.910402e+01 6.639165e+01 3.298244e+01 4.465274e+01 4.495058e+00 5.587002e+00 6.495652e+00 3.780048e+00 2.169143e+00 3.006210e+00 6.644528e+00 2.495425e+00 4.102562e+00 3.027566e+00 8.676401e+00 4.025845e+00 5.101811e+00 6.006951e-01 1.105210e+00 1.163021e+00 5.481005e-01 5.019789e-01 4.685420e-01 7.862701e-01 5.449831e-01 6.781618e-01 4.864820e-01 1.393773e+00 4.299479e-01 9.750103e-01
<GCONST> 1.348429e+02
<STATE> 3
<MEAN> 39
 -1.459147e+01 -7.522328e+00 1.175281e+01 6.081863e+00 -5.902271e+00 -2.192443e+00 -1.649528e+01 -7.118691e+00 -1.092883e+01 -4.310062e+00 -3.458389e-01 -4.861070e+00 6.254212e+01 -5.732840e-01 -1.042586e+00 8.742811e-01 -3.653879e-01 -1.859913e-02 -5.434148e-01 3.528354e-02 -3.779886e-01 1.985643e-01 -2.316511e-01 9.206526e-02 4.156385e-01 7.380086e-01 1.311892e-01 1.409538e-01 -2.002545e-01 -1.908468e-02 8.315518e-02 2.272110e-02 -1.125942e-01 7.715106e-02 -3.243979e-02 8.509634e-02 -5.447077e-02 -4.235915e-02 -6.956434e-02
<VARIANCE> 39
 5.795526e+01 9.296459e+01 6.226398e+01 1.134826e+02 3.832276e+01 2.925334e+01 8.120046e+01 3.049392e+01 1.817802e+01 2.514593e+01 3.078558e+01 2.903201e+01 3.906693e+01 5.810897e+00 1.017217e+01 9.444366e+00 4.368065e+00 4.017290e+00 4.027946e+00 7.263568e+00 2.968192e+00 1.633589e+00 1.847722e+00 4.160954e+00 2.743867e+00 6.165494e+00 7.792123e-01 1.528172e+00 1.616349e+00 6.319295e-01 7.025223e-01 7.781610e-01 7.129908e-01 5.107243e-01 3.029571e-01 2.419232e-01 8.531672e-01 4.609817e-01 1.077211e+00
<GCONST> 1.346764e+02
<STATE> 4
<MEAN> 39
 -1.114345e+01 -5.397337e+00 1.238136e+01 4.451316e+00 -2.153739e+00 1.566459e+00 -2.161699e+01 -8.053914e+00 -9.229983e+00 -1.697316e+00 -2.471888e-01 -3.175373e+00 6.378991e+01 6.045103e-02 7.905824e-02 -1.438872e-01 -1.167347e-01 1.121653e-01 1.762483e-01 4.385966e-02 -6.030014e-02 -4.708065e-02 6.617578e-02 1.514132e-02 7.349943e-02 -1.968544e-02 4.334917e-02 3.625575e-02 -7.687677e-02 -2.994583e-02 -3.645925e-02 3.287386e-02 -4.782279e-03 5.765707e-03 -3.558736e-02 8.321460e-03 6.995419e-03 -3.497804e-03 -3.404695e-02
<VARIANCE> 39
 7.839258e+01 7.249209e+01 5.617489e+01 6.511825e+01 2.676836e+01 3.814103e+01 1.358287e+02 4.494581e+01 5.127302e+01 2.173639e+01 1.404910e+01 2.602672e+01 2.513947e+01 5.677083e+00 6.258188e+00 5.084527e+00 3.651990e+00 2.319679e+00 2.555520e+00 8.129791e+00 3.726783e+00 3.529869e+00 1.945986e+00 1.578194e+00 1.802413e+00 2.765836e+00 7.778876e-01 1.018286e+00 8.898683e-01 6.165954e-01 4.677250e-01 5.184595e-01 1.103256e+00 6.452424e-01 6.713057e-01 3.408901e-01 3.536178e-01 3.300151e-01 5.540967e-01
<GCONST> 1.291839e+02
<TRANSP> 5
 0.000000e+00 1.000000e+00 0.000000e+00 0.000000e+00 0.000000e+00
 0.000000e+00 8.125956e-01 1.874044e-01 0.000000e+00 0.000000e+00
 0.000000e+00 0.000000e+00 7.994196e-01 2.005803e-01 0.000000e+00
 0.000000e+00 0.000000e+00 0.000000e+00 9.755303e-01 2.446974e-02
 0.000000e+00 0.000000e+00 0.000000e+00 0.000000e+00 0.000000e+00
<ENDHMM>
~h "dh"
<BEGINHMM>
<NUMSTATES> 5
<STATE> 2
<MEAN> 39
 -2.037501e+00 4.243569e+00 -2.108899e+00 3.954349e+00 -9.897185e-01 4.992754e+00 -1.854500e+01 -7.362260e+00 -1.377476e+01 -3.073377e+00 -1.378105e+00 -9.280436e-01 6.025907e+01 9.641184e-02 3.178589e-01 2.640239e-01 1.858952e-01 -2.719189e-01 1.916950e-01 2.170213e-01 9.634034e-03 -1.024461e-01 -2.262508e-01 -1.938645e-01 -1.186127e-01 -1.324891e-01 -8.200957e-02 2.635590e-03 1.164734e-01 -1.626069e-03 7.979105e-02 -1.976636e-02 -1.230162e-02 5.485440e-02 1.887992e-02 -2.563966e-02 8.090932e-02 1.963141e-02 -1.067549e-02
<VARIANCE> 39
 4.726272e+01 4.355705e+01 5.435254e+01 3.126163e+01 2.934237e+01 4.133885e+01 7.016532e+01 4.855874e+01 3.690488e+01 3.106597e+01 2.529371e+01 1.900023e+01 3.710619e+01 1.286822e+00 2.468982e+00 2.257038e+00 1.707186e+00 1.935819e+00 1.967404e+00 3.005053e+00 2.778480e+00 2.890152e+00 1.820464e+00 1.684001e+00 1.120799e+00 1.369923e+00 2.541680e-01 4.109384e-01 4.257209e-01 3.389999e-01 3.942212e-01 4.746260e-01 6.618127e-01 5.478436e-01 6.520011e-01 3.301055e-01 2.983861e-01 2.195075e-01 2.606789e-01
<GCONST> 1.148956e+02
<STATE> 3
<MEAN> 39
 -2.376430e+00 4.283552e+00 -1.567884e+00 4.038346e+00 -1.516420e+00 5.179335e+00 -1.816093e+01 -6.991199e+00 -1.357454e+01 -3.281363e+00 -1.355157e+00 -7.830724e-01 5.999731e+01 -1.165326e-01 1.750699e-01 4.094014e-01 1.489393e-01 -1.146120e-02 1.327553e-01 6.558584e-02 9.725994e-04 1.939702e-02 -1.605888e-01 -7.365575e-02 -4.417041e-02 -9.964111e-02 -6.720407e-02 -2.958709e-02 6.493682e-02 -4.539667e-02 1.269953e-01 -5.199686e-02 -7.957765e-02 -5.718374e-04 6.627905e-02 4.042325e-02 6.664775e-02 2.199513e-02 3.539953e-02
<VARIANCE> 39
 4.545976e+01 4.726741e+01 5.325711e+01 3.159283e+01 2.877654e+01 4.132137e+01 7.431602e+01 5.168674e+01 3.930643e+01 3.310612e+01 2.605340e+01 1.947785e+01 3.717317e+01 1.497311e+00 2.262500e+00 2.476391e+00 1.426283e+00 2.130969e+00 1.994623e+00 3.037913e+00 2.400035e+00 2.785183e+00 1.989250e+00 1.620580e+00 1.112686e+00 1.530148e+00 2.010108e-01 3.975065e-01 4.302946e-01 2.796941e-01 3.337313e-01 4.058076e-01 5.688705e-01 4.926160e-01 4.720934e-01 3.303670e-01 2.963254e-01 2.200893e-01 2.533974e-01
<GCONST> 1.138945e+02
<STATE> 4
<MEAN> 39
 -3.100595e+00 4.264112e+00 -1.211720e+00 4.286857e+00 -1.529058e+00 5.642200e+00 -1.782253e+01 -6.495974e+00 -1.250571e+01 -2.689909e+00 -1.163938e+00 -7.504287e-01 5.948455e+01 -2.465936e-01 1.464762e-01 4.026957e-01 9.808125e-02 1.855017e-01 4.429071e-02 -8.425107e-02 1.302876e-02 2.157735e-01 -9.466101e-02 -1.033367e-01 -1.335298e-02 -1.050851e-01 -1.303104e-02 -4.210991e-02 8.670280e-03 -5.148217e-02 8.100448e-02 -5.580916e-02 -4.692521e-02 1.182591e-02 4.602773e-02 9.564865e-03 2.942015e-02 -3.772957e-03 6.171934e-02
<VARIANCE> 39
 4.256605e+01 4.631745e+01 5.042029e+01 3.147293e+01 2.626614e+01 3.867235e+01 7.963527e+01 4.904966e+01 4.959842e+01 3.726721e+01 2.696219e+01 2.001635e+01 3.618316e+01 1.770535e+00 2.213284e+00 3.128170e+00 1.563439e+00 1.923148e+00 2.046389e+00 4.000888e+00 2.743677e+00 2.728087e+00 2.099211e+00 1.610384e+00 1.190103e+00 1.989236e+00 1.630805e-01 3.391604e-01 3.375612e-01 2.514161e-01 2.607802e-01 3.524605e-01 5.579582e-01 4.270340e-01 3.624842e-01 3.246098e-01 3.270673e-01 2.439976e-01 2.290629e-01
<GCONST> 1.137065e+02
<TRANSP> 5
 0.000000e+00 1.000000e+00 0.000000e+00 0.000000e+00 0.000000e+00
 0.000000e+00 4.355938e-01 5.644062e-01 0.000000e+00 0.000000e+00
 0.000000e+00 0.000000e+00 4.217471e-01 5.782530e-01 0.000000e+00
 0.000000e+00 0.000000e+00 0.000000e+00 5.098380e-01 4.901620e-01
 0.000000e+00 0.000000e+00 0.000000e+00 0.000000e+00 0.000000e+00
<ENDHMM>
~h "ea"
<BEGINHMM>
<NUMSTATES> 5
<STATE> 2
<MEAN> 39
 -4.336490e+00 4.572212e+00 1.946452e+00 3.716179e+00 -3.991819e+00 5.813579e+00 -1.952173e+01 -3.435409e+00 -1.090529e+01 -4.140691e+00 -8.762931e-01 -1.512029e+00 5.855904e+01 3.994403e-02 -6.954524e-01 1.263269e+00 6.352438e-01 -5.733989e-02 -7.239335e-01 -8.057057e-01 2.783136e-01 1.026953e-01 3.582529e-01 -2.510837e-01 -9.184338e-01 6.044171e-01 1.246297e-01 -1.669447e-01 -9.309794e-02 -4.074259e-02 1.344985e-01 -1.236754e-01 -3.189817e-01 -2.197259e-01 -7.001712e-02 8.506944e-02 6.743607e-02 1.352261e-01 1.787145e-01
<VARIANCE> 39
 2.388005e+01 3.663777e+01 1.064774e+02 3.440726e+01 1.880899e+01 2.397850e+01 1.299182e+02 6.499634e+01 2.583653e+01 2.453326e+01 2.717542e+01 1.976648e+01 4.345860e+01 1.030639e+00 2.341558e+00 4.593083e+00 4.494442e+00 2.283236e+00 1.086745e+00 1.077808e+01 2.458064e+00 1.639072e+00 2.291858e+00 1.798653e+00 1.424642e+00 2.219549e+00 1.318199e-01 3.743516e-01 7.361383e-01 8.028094e-01 4.167284e-01 1.341798e-01 1.710661e+00 3.531948e-01 2.555481e-01 3.827368e-01 3.122727e-01 2.701689e-01 3.518738e-01
<GCONST> 1.167116e+02
<STATE> 3
<MEAN> 39
 -3.558088e+00 1.967017e+00 5.283758e+00 5.789208e+00 -2.884473e+00 2.692683e+00 -2.416616e+01 -3.308523e+00 -1.092122e+01 -2.221549e+00 -1.116378e+00 -3.449291e+00 6.111317e+01 1.095579e-01 -4.310349e-01 1.711165e-01 7.845633e-01 5.181074e-01 -7.422880e-01 -7.908971e-01 -2.091148e-01 1.928729e-01 5.524183e-01 -2.733080e-01 -5.434076e-01 2.744659e-01 -1.584781e-02 6.719124e-02 -2.883130e-01 -3.088864e-02 9.051271e-02 7.072661e-02 2.478827e-01 -7.571600e-02 -8.887852e-02 3.147295e-02 8.415437e-02 1.076770e-01 -1.022315e-01
<VARIANCE> 39
 1.821416e+01 3.168097e+01 1.172972e+02 3.122459e+01 1.939709e+01 3.097386e+01 1.543478e+02 7.445300e+01 2.283853e+01 2.889893e+01 2.709222e+01 2.296757e+01 4.530458e+01 9.298086e-01 2.191318e+00 2.375272e+00 2.991690e+00 1.580708e+00 1.406052e+00 5.608772e+00 1.750558e+00 1.200250e+00 2.399147e+00 1.426043e+00 9.613569e-01 1.529108e+00 7.954290e-02 3.759143e-01 3.760235e-01 5.674275e-01 3.620346e-01 2.198622e-01 1.029846e+00 3.093110e-01 2.104677e-01 4.047483e-01 3.191940e-01 2.505540e-01 2.112065e-01
<GCONST> 1.110079e+02
<STATE> 4
<MEAN> 39
 -3.690925e+00 1.628083e+00 9.257751e+00 1.199421e+01 -4.467427e-01 -5.470586e-01 -2.696549e+01 -4.869037e+00 -1.212317e+01 -2.083921e+00 -3.760868e+00 -7.464669e+00 6.158326e+01 -1.042079e-02 3.244199e-01 -8.364676e-01 5.019813e-01 2.750029e-01 1.369709e-01 8.920859e-01 -2.860738e-01 -4.134129e-01 4.495640e-02 -7.814199e-03 -9.995379e-02 -4.335944e-01 -3.115313e-02 8.482590e-02 -1.393340e-01 -2.380029e-01 -6.531987e-02 2.669846e-01 2.712487e-01 4.112162e-02 -5.699904e-02 -9.619071e-02 1.472958e-01 2.057239e-01 -6.691124e-02
<VARIANCE> 39
 1.331734e+01 1.956485e+01 1.156712e+02 4.309134e+01 1.557846e+01 2.379526e+01 8.159830e+01 4.469508e+01 2.718043e+01 3.295272e+01 2.261798e+01 2.307864e+01 2.318266e+01 4.179356e-01 2.023804e+00 2.401214e+00 2.298510e+00 2.434795e+00 1.688766e+00 4.994175e+00 2.406163e+00 1.573416e+00 2.765819e+00 1.307343e+00 1.445403e+00 9.385430e-01 7.533509e-02 2.323749e-01 2.630585e-01 2.991759e-01 3.026574e-01 2.476363e-01 6.164048e-01 3.199127e-01 3.506231e-01 4.254168e-01 1.684632e-01 3.440074e-01 9.198932e-02
<GCONST> 1.056155e+02
<TRANSP> 5
 0.000000e+00 1.000000e+00 0.000000e+00 0.000000e+00 0.000000e+00
 0.000000e+00 6.900871e-01 3.099129e-01 0.000000e+00 0.000000e+00
 0.000000e+00 0.000000e+00 6.573549e-01 3.426451e-01 0.000000e+00
 0.000000e+00 0.000000e+00 0.000000e+00 8.003932e-01 1.996069e-01
 0.000000e+00 0.000000e+00 0.000000e+00 0.000000e+00 0.000000e+00
<ENDHMM>
~h "eh"
<BEGINHMM>
<NUMSTATES> 5
<STATE> 2
<MEAN> 39
 -9.081332e+00 -3.866131e+00 -2.379989e+00 3.187863e+00 -1.062979e+00 3.999915e+00 -1.428613e+01 -5.217322e+00 -7.556066e+00 -1.005853e+00 -3.049278e-01 1.564385e+00 5.990327e+01 -3.353874e-03 -4.419658e-01 1.341092e-01 -2.525601e-01 -2.069616e-01 -1.457311e-01 3.343965e-01 9.329081e-02 -3.184226e-01 2.404573e-02 -7.101327e-02 2.944896e-01 2.064382e-01 1.216286e-01 1.011842e-01 6.644712e-02 -2.320746e-02 5.451436e-02 2.767935e-02 -1.415970e-01 -1.151997e-01 -2.392006e-01 -3.153784e-02 -2.213882e-03 -6.025568e-02 6.059590e-02
<VARIANCE> 39
 7.089111e+01 1.203498e+02 7.550941e+01 5.894048e+01 3.819514e+01 3.763794e+01 5.107576e+01 4.604438e+01 4.108974e+01 2.962292e+01 2.392957e+01 1.891968e+01 2.978156e+01 4.251288e+00 8.563331e+00 6.595366e+00 4.683767e+00 3.588561e+00 3.484170e+00 7.001709e+00 3.956131e+00 2.970990e+00 2.324430e+00 2.021551e+00 1.686387e+00 4.090427e+00 4.053132e-01 1.536028e+00 1.250140e+00 5.971549e-01 6.664739e-01 5.319669e-01 1.183755e+00 5.878079e-01 5.340732e-01 4.949468e-01 4.401106e-01 2.846391e-01 7.567886e-01
<GCONST> 1.323644e+02
<STATE> 3
<MEAN> 39
 -8.980025e+00 -5.095700e+00 -9.717491e-01 1.745685e+00 -1.493838e+00 2.657187e+00 -1.429455e+01 -6.120440e+00 -9.831607e+00 -1.613910e+00 -1.112710e+00 2.088922e+00 6.132032e+01 7.278658e-01 4.062670e-01 2.295728e-02 -3.901516e-02 -4.421452e-02 1.842312e-01 -5.928403e-01 -8.532124e-02 -7.814476e-01 -2.168199e-01 -2.985411e-02 -1.213210e-01 1.089247e-01 1.302957e-01 2.580558e-01 2.584991e-03 1.005311e-01 6.437973e-02 9.253459e-02 -1.728756e-01 4.132100e-02 1.358455e-02 -6.787802e-02 4.685488e-02 -1.892283e-01 -3.578397e-02
<VARIANCE> 39
 7.085095e+01 1.430396e+02 8.683087e+01 6.007233e+01 3.879517e+01 4.096000e+01 4.651268e+01 5.438271e+01 3.024205e+01 2.583989e+01 2.047872e+01 2.317644e+01 2.589565e+01 5.558692e+00 9.700889e+00 4.945343e+00 4.186829e+00 3.254280e+00 3.468470e+00 5.243279e+00 4.238718e+00 2.512233e+00 1.941934e+00 2.471817e+00 2.140378e+00 3.496136e+00 5.468881e-01 1.471096e+00 8.382031e-01 6.633514e-01 6.181723e-01 6.081133e-01 8.605873e-01 6.521473e-01 4.600544e-01 4.037410e-01 4.029425e-01 4.025598e-01 6.083942e-01
<GCONST> 1.314305e+02
<STATE> 4
<MEAN> 39
 -7.141170e+00 -1.980127e+00 -1.077196e+00 1.869161e+00 -2.330223e+00 3.512050e+00 -1.535292e+01 -5.286088e+00 -1.060313e+01 -2.144931e+00 -9.735958e-01 1.054348e+00 6.051628e+01 9.640474e-01 8.642663e-01 -1.109651e-02 1.525128e-01 -4.212968e-03 3.420752e-01 -7.317060e-01 3.275573e-01 -3.979845e-01 -1.187205e-01 1.362057e-01 -4.280902e-01 1.591354e-02 -1.176361e-01 -9.990277e-02 -1.314018e-02 -6.083316e-02 5.484404e-02 -7.116508e-02 -7.532449e-03 1.681934e-02 1.495882e-01 6.305799e-02 3.906281e-02 -2.390663e-02 2.776682e-02
<VARIANCE> 39
 7.585147e+01 1.035326e+02 8.195631e+01 6.566869e+01 4.410575e+01 4.221426e+01 6.004266e+01 6.915656e+01 3.652629e+01 2.135323e+01 2.318250e+01 2.355201e+01 2.801106e+01 4.010552e+00 7.767101e+00 2.554607e+00 2.389938e+00 3.558401e+00 2.209160e+00 4.050892e+00 4.317061e+00 2.463476e+00 1.844021e+00 2.573510e+00 1.931989e+00 2.060383e+00 5.486681e-01 1.042756e+00 4.537618e-01 5.716049e-01 4.947943e-01 4.573301e-01 7.621116e-01 7.285610e-01 4.305038e-01 4.015404e-01 3.135851e-01 3.845932e-01 3.246856e-01
<GCONST> 1.264260e+02
<TRANSP> 5
 0.000000e+00 1.000000e+00 0.000000e+00 0.000000e+00 0.000000e+00
 0.000000e+00 6.324127e-01 3.675873e-01 0.000000e+00 0.000000e+00
 0.000000e+00 0.000000e+00 5.274403e-01 4.725597e-01 0.000000e+00
 0.000000e+00 0.000000e+00 0.000000e+00 5.000778e-01 4.999222e-01
 0.000000e+00 0.000000e+00 0.000000e+00 0.000000e+00 0.000000e+00
<ENDHMM>
~h "er"
<BEGINHMM>
<NUMSTATES> 5
<STATE> 2
<MEAN> 39
 -1.581047e+00 1.712198e+00 -8.770687e+00 3.441644e+00 6.332520e+00 8.807935e+00 -1.597552e+01 -9.023685e+00 -1.394238e+01 -1.626245e+00 7.024696e-01 -5.923772e-02 6.145302e+01 7.195011e-01 8.602284e-01 -4.053320e-02 1.070913e-01 -2.909716e-02 2.795743e-01 7.206267e-02 -1.200453e-01 -6.584967e-01 -6.714063e-01 -2.307360e-01 3.708844e-01 -2.563564e-02 -1.910899e-02 3.057264e-02 4.154988e-02 -1.336143e-01 1.227373e-01 -1.670566e-01 -1.677776e-01 -1.178737e-01 -6.285220e-02 5.908163e-02 -5.857081e-02 -1.451946e-02 4.987150e-02
<VARIANCE> 39
